[[[-0.12503628432750702,-0.14190353453159332,0.17865800857543945,-0.0010088065173476934,-0.12295109033584595,-0.02219325304031372,0.3141480088233948,-0.05507529526948929,0.1760552078485489,0.16120977699756622,0.0073445579037070274,-0.022304223850369453,0.001996241742745042,-0.05655590444803238,0.040583785623311996,0.12521164119243622,-0.17341062426567078,-0.13660623133182526,-0.10222206264734268,-0.11633767187595367,0.15713471174240112,-0.09900073707103729,-0.0471271350979805,0.05222264677286148,-0.14717429876327515,0.03609367460012436,-0.15753614902496338,0.10709142684936523,-0.02255970612168312,-0.21665921807289124,0.042966578155756,-0.04643077403306961,0.06340478360652924,0.15419110655784607,0.11214104294776917,0.0743439644575119,-0.059996288269758224,0.042202506214380264,0.21826229989528656,-0.20026671886444092,0.02016962505877018,0.030554713681340218,0.08805802464485168,0.11610408872365952,-0.05435071140527725,0.24408365786075592,0.020409030839800835,0.05707164481282234,0.13673608005046844,-0.13685156404972076,-0.07133189588785172,0.0509682297706604,0.08261245489120483,0.03973264992237091,-0.12608253955841064,0.062484823167324066,-0.05254463851451874,0.09661812335252762,-0.10499969124794006,0.14236415922641754,-0.008576137945055962,0.008880728855729103,0.0109235979616642,0.2633170783519745,0.1916620284318924,-0.0021491986699402332,-0.15629810094833374,-0.21679696440696716,-0.2073861062526703,-0.18229030072689056,-0.09413495659828186,0.08252333104610443,-0.18478406965732574,-0.08064170181751251,0.024150850251317024,0.21273306012153625,0.2819358706474304,-0.08871524035930634,-0.17879588901996613,-0.05512946471571922,0.057643819600343704,-0.09558998793363571,-0.12566879391670227,0.1862562894821167,-0.17338833212852478,0.027583518996834755,-0.1324390470981598,0.010409420356154442,-0.12559348344802856,0.0698525607585907,0.08128797262907028,0.2312850058078766,0.05650584399700165,0.029136529192328453,-0.015639103949069977,-0.032524123787879944,-0.061039622873067856,-0.07492300868034363,-0.08250002562999725,0.19193807244300842,0.0948818102478981,0.020407063886523247,-0.16676458716392517,-0.09622779488563538,0.1646241545677185,-0.09682666510343552,-0.09191278368234634,-0.06747500598430634,-0.010931390337646008,0.14636839926242828,-0.0023981172125786543,0.1200941875576973,-0.3285667598247528,0.07605869323015213,-0.15691259503364563,0.01794656552374363,-0.16838277876377106,0.14895975589752197,0.14772695302963257,-0.09428948163986206,-0.05703471973538399,-0.18213972449302673,-0.15110556781291962,-0.004836525768041611,0.03521715849637985,0.03425273299217224,0.12628667056560516,-0.11251725256443024,0.05354150012135506,0.04826608672738075,-0.043864570558071136,-0.04513189196586609,-0.09512549638748169,-0.04331911727786064,0.009790114127099514,0.1347064971923828,0.10230431705713272,-0.13477978110313416],[-0.08912211656570435,-0.04417552426457405,-0.019917519763112068,-0.12031526118516922,0.1115463525056839,0.09577973186969757,0.07860023528337479,-0.1040968969464302,0.004200630821287632,-0.10862190276384354,-0.017363637685775757,0.08464645594358444,0.10264576226472855,-0.1800675392150879,0.04364318400621414,0.060564376413822174,0.2731311321258545,0.09036717563867569,0.10371151566505432,0.03849812224507332,-0.15563659369945526,-0.15107378363609314,-0.0961422473192215,-0.10951147973537445,0.022423777729272842,-0.03946871683001518,0.009417954832315445,0.027928754687309265,0.0948774665594101,0.08849634975194931,-0.28749313950538635,0.009272738359868526,-0.04635966569185257,0.008280754089355469,0.1406872570514679,0.11633627861738205,-0.11080174893140793,0.007845556363463402,-0.16050821542739868,-0.071035236120224,0.04788755998015404,0.07350810617208481,0.07688942551612854,-0.062992163002491,0.12562978267669678,-0.03862106800079346,0.02233130671083927,-0.14515383541584015,0.10784458369016647,-0.0027359947562217712,-0.08107567578554153,-0.04281322658061981,-0.15496331453323364,-0.2591859996318817,0.0023008885327726603,0.20319661498069763,0.05559535697102547,0.05132566764950752,-0.10109379142522812,-0.024986321106553078,-0.09186424314975739,0.12918390333652496,-0.024845238775014877,-0.10739235579967499,-0.24865084886550903,0.006551386788487434,-0.04045799747109413,-0.03877076879143715,0.09414935857057571,0.10697000473737717,0.036641523241996765,-0.010672997683286667,0.0992024764418602,0.094782754778862,-0.1958693563938141,0.04541780427098274,0.10233694314956665,-0.029275014996528625,0.00011001771781593561,-0.07665009051561356,-0.09553468972444534,-0.06856641173362732,0.029324529692530632,-0.04500529542565346,-0.019566742703318596,-0.050966084003448486,0.015158516354858875,-0.012018905021250248,0.0646674856543541,0.25243428349494934,0.12298719584941864,-0.19792014360427856,-0.07316309213638306,-0.0870053768157959,-0.07475335896015167,0.042875610291957855,0.043435271829366684,-0.1730131357908249,-0.01440474297851324,-0.1719142645597458,-0.30288589000701904,-0.06556259840726852,0.14218895137310028,-0.23431672155857086,0.15673686563968658,0.01080038771033287,-0.16429580748081207,0.05519384890794754,0.09342055767774582,0.11400896310806274,-0.17343708872795105,-0.16334488987922668,-0.07200485467910767,-0.09201667457818985,-0.07563873380422592,-0.0221785306930542,0.04960626736283302,0.35589224100112915,-0.05005296319723129,0.026232467964291573,0.13135051727294922,0.03267023712396622,0.07385823130607605,-0.0039546675980091095,-0.06492872536182404,-0.024603374302387238,0.05815716087818146,0.08236581087112427,-0.11065776646137238,0.01260318886488676,0.22439926862716675,0.1572941094636917,0.026344530284404755,0.2144489586353302,-0.12710796296596527,0.08426623046398163,0.19393369555473328,0.04813339561223984],[0.1775635927915573,0.12272258847951889,-0.03656917065382004,0.2595316171646118,-0.010782181285321712,0.0718948245048523,-0.2209351807832718,-0.08312656730413437,-0.09383425116539001,-0.0010924366069957614,-0.010297331027686596,-0.18001660704612732,0.22713018953800201,-0.10019724071025848,0.1572946459054947,0.039965007454156876,-0.055334918200969696,0.3119422197341919,-0.07993742823600769,0.017615364864468575,-0.05524151027202606,-0.050290871411561966,-0.009901185519993305,0.23722654581069946,0.14437167346477509,0.16255556046962738,-0.1711047887802124,0.1424194723367691,0.06569551676511765,-0.011967948637902737,0.0516434982419014,0.047651708126068115,0.2170957624912262,0.13271461427211761,0.175261989235878,-0.12523752450942993,0.03906944766640663,0.021152449771761894,0.0853486955165863,-0.01827598363161087,-0.0385245606303215,-0.10804425925016403,-0.17408178746700287,-0.013707107864320278,-0.14972655475139618,-0.004795014392584562,-0.11329440027475357,-0.009753521531820297,0.07651731371879578,0.12786485254764557,0.02821899764239788,0.021040944382548332,0.06414109468460083,0.06882843375205994,-0.019257672131061554,0.15657939016819,-0.11925195157527924,0.17151762545108795,0.027071500197052956,-0.011210973374545574,-0.24594305455684662,0.01970190927386284,0.041125763207674026,0.1565217673778534,0.19274531304836273,-0.11039946228265762,0.016563506796956062,-0.08509083837270737,0.10788819938898087,0.04679079353809357,-0.14820429682731628,-0.09302578866481781,-0.14632414281368256,0.027272948995232582,-0.08834611624479294,0.134425550699234,-0.12344030290842056,0.1825713813304901,0.014721357263624668,0.06174630671739578,0.11937006562948227,0.12952670454978943,-0.08927004784345627,-0.039325617253780365,0.05069797858595848,-0.028424780815839767,-0.16740825772285461,0.16025106608867645,-0.2258044332265854,0.008168861269950867,-0.036076582968235016,-0.04257754981517792,-0.046075597405433655,-0.2794974148273468,-0.2223556488752365,-0.15940366685390472,0.10313422977924347,-0.13834771513938904,-0.1313766986131668,-0.15209728479385376,-0.04270064830780029,-0.028225872665643692,0.00873796921223402,0.06527791917324066,0.2063722163438797,-0.08055746555328369,-0.25746914744377136,0.18884527683258057,-0.325003981590271,-0.019222091883420944,0.13508406281471252,0.10258974134922028,-0.11244694888591766,0.07706494629383087,-0.21885184943675995,-0.004203414544463158,0.00618110504001379,-0.00888286903500557,0.08859696984291077,-0.10531561076641083,-0.08388983458280563,0.09381775557994843,0.13272011280059814,-0.07507048547267914,0.2081070840358734,-0.19597233831882477,0.2526160478591919,0.07607927173376083,-0.05074283108115196,0.032646242529153824,-0.005154566373676062,-0.018018851056694984,-0.09009729325771332,-0.08043058216571808,0.07375955581665039,-0.04916011914610863,-0.15577006340026855,-0.18799909949302673],[0.19583836197853088,-0.12212231010198593,0.12499380856752396,0.018446732312440872,-0.1371721476316452,0.049685411155223846,0.05171455070376396,0.08769375830888748,-0.07357238978147507,0.09298072755336761,0.06190956383943558,-0.04330231249332428,0.35816678404808044,-0.062472328543663025,0.004466777667403221,0.007229238748550415,0.12056902050971985,0.07512456923723221,0.19449947774410248,0.07660481333732605,-0.18355198204517365,0.034311238676309586,0.05655448138713837,-0.1357090175151825,-0.127290740609169,0.11044454574584961,-0.18336808681488037,-0.18378792703151703,-0.18188199400901794,-0.09583176672458649,0.09120169281959534,-0.04693155735731125,-0.002045545494183898,0.028884468600153923,0.1674661934375763,-0.07985283434391022,0.1672528237104416,0.015102561563253403,0.08990626782178879,0.026940587908029556,0.12230267375707626,-0.0029746994841843843,0.08401337265968323,0.21270763874053955,-0.2596453130245209,-0.09867221117019653,-0.08732160925865173,0.11231303215026855,-0.10988789796829224,-0.10113008320331573,-0.14065317809581757,0.018814118579030037,-0.031968455761671066,0.08013204485177994,0.019705908372998238,0.12991388142108917,-0.11273534595966339,-0.061408646404743195,0.08149857819080353,0.17996996641159058,0.120032399892807,-0.06482605636119843,0.03730161115527153,-0.10210377722978592,-0.012977885082364082,-0.12330665439367294,-0.20251068472862244,-0.09342046082019806,-0.15758223831653595,0.16082791984081268,-0.1211434081196785,-0.08004124462604523,0.09180422872304916,-0.009178193286061287,-0.07615619897842407,0.25426092743873596,0.008639163337647915,0.16528552770614624,-0.07508573681116104,0.20669697225093842,0.17592357099056244,0.1688545197248459,0.01772528886795044,-0.028766490519046783,0.1107400432229042,-0.13035038113594055,0.1436123549938202,0.08255388587713242,0.051395948976278305,-0.061959024518728256,0.030110513791441917,0.08049382269382477,0.112404465675354,-0.12865890562534332,-0.0064619253389537334,0.1314801424741745,0.04301537573337555,-0.10892750322818756,-0.1067868173122406,-0.03403189778327942,0.010562164708971977,0.010092319920659065,-0.12719906866550446,0.03967953100800514,0.0625779926776886,-0.18912380933761597,0.04935356602072716,-0.1386118233203888,0.07878345996141434,0.11772306263446808,-0.04819429665803909,0.3510264456272125,-0.06849382072687149,-0.035295963287353516,-0.08381186425685883,0.07377821207046509,0.18936549127101898,0.07401632517576218,0.14350531995296478,-0.015118046663701534,-0.010815647430717945,-0.2720842659473419,0.08998449146747589,0.1566605567932129,-0.12321294099092484,0.3542763292789459,0.05477604642510414,-0.1418868601322174,-0.07351229339838028,0.08263561129570007,-0.07628341019153595,0.12079836428165436,0.0694977417588234,-0.25045108795166016,0.08575331419706345,0.06193018704652786,-0.21016144752502441,-0.18921315670013428],[-0.25469422340393066,-0.031562115997076035,-0.014886057935655117,0.10407392680644989,-0.13061308860778809,0.014341412112116814,0.0029301391914486885,-0.16514845192432404,-0.19235362112522125,0.10323826968669891,-0.038318682461977005,-0.06286706775426865,-0.04770778864622116,0.08110381662845612,-0.03645779564976692,-0.06890303641557693,-0.08349325507879257,-0.3092879354953766,-0.1737508326768875,-0.23109187185764313,-0.13999679684638977,-0.03913720324635506,-0.0545559898018837,-0.0926477462053299,-0.18211185932159424,-0.0032873947639018297,0.052055519074201584,0.15303081274032593,-0.07906355708837509,-0.06727160513401031,0.1043536439538002,0.19083577394485474,0.0031826638150960207,0.09027127921581268,-0.04216340184211731,0.05083639174699783,0.24751558899879456,-0.1752743422985077,0.04650226980447769,-0.00820840522646904,0.08161432296037674,0.087417371571064,0.013910867273807526,0.0329049676656723,0.11514322459697723,0.04525652155280113,0.04766087606549263,0.032721150666475296,-0.009890753775835037,-0.16383051872253418,-0.0339849591255188,0.12172191590070724,0.08882167190313339,-0.06672024726867676,-0.04178490862250328,0.062485985457897186,-0.02504090964794159,0.03836512565612793,0.031747203320264816,-0.14353269338607788,-0.019862959161400795,-0.19163824617862701,-0.004985947161912918,0.0811564102768898,-0.02278793230652809,-0.16101989150047302,0.09825726598501205,-0.17049889266490936,-0.058515969663858414,-0.1992490142583847,-0.10794506967067719,0.06609128415584564,-0.07831748574972153,-0.14859658479690552,0.04930270463228226,-0.0015199980698525906,0.16185037791728973,0.11204294860363007,0.08217379450798035,-0.04131622612476349,0.051105912774801254,0.07961471378803253,0.09305016696453094,0.29038143157958984,-0.08097508549690247,0.061316218227148056,0.0907624363899231,-0.03663061931729317,-0.051790881901979446,0.09846405684947968,0.12065712362527847,0.09459533542394638,-0.0388517789542675,0.07060297578573227,-0.011697928421199322,-0.23683375120162964,-0.02658402919769287,0.2020190954208374,0.10510450601577759,-0.048082172870635986,0.005141444969922304,0.02402590773999691,-0.1630965620279312,0.05242713913321495,0.15214145183563232,-0.06069149821996689,-0.10026867687702179,-0.010647705756127834,-0.18837152421474457,0.056385766714811325,-0.034044016152620316,0.13496185839176178,0.03385717794299126,0.15966908633708954,-0.16416776180267334,0.21920780837535858,-0.07505283504724503,0.059270262718200684,0.0345865897834301,0.11503578722476959,-0.1434573382139206,-0.1263899803161621,0.08545961230993271,0.14430499076843262,0.30168119072914124,0.010494982823729515,0.014765789732336998,0.06541381776332855,-0.05626443773508072,-0.03669942170381546,0.015877097845077515,-0.007481478154659271,-0.040286947041749954,-0.14253273606300354,-0.025988517329096794,0.045656029134988785,0.012587841600179672,-0.08414172381162643],[-0.05198948085308075,-0.1781461089849472,-0.006841900292783976,-0.13626134395599365,-0.06646313518285751,0.045532047748565674,-0.0516301728785038,0.015691744163632393,-0.015568305738270283,-0.0205439031124115,-0.1640951931476593,-0.14563757181167603,-0.11203563213348389,-0.04003824293613434,-0.013544421643018723,-0.028505530208349228,-0.044499028474092484,-0.17733608186244965,-0.020609669387340546,0.01227156538516283,-0.01208091713488102,-0.22163479030132294,-0.06561844795942307,-0.016980411484837532,0.17380265891551971,-0.15609918534755707,-0.06810827553272247,-0.0812770202755928,0.04823371767997742,0.07637328654527664,-0.026402516290545464,-0.19824492931365967,0.20495562255382538,-0.07946836948394775,0.09646494686603546,-0.05293399095535278,0.020670412108302116,-0.12031842023134232,0.18505193293094635,-0.07855862379074097,0.1403590887784958,0.0892598032951355,0.10842422395944595,-0.20163369178771973,0.04329254850745201,0.14585816860198975,0.03528544679284096,-0.1548166424036026,0.01575603149831295,-0.14487917721271515,0.03638541325926781,-0.12612254917621613,-0.06325085461139679,0.06241660565137863,-0.07196758687496185,-0.056353747844696045,-0.09856961667537689,-0.04273916408419609,0.20759448409080505,0.21865829825401306,0.14383505284786224,0.06552399694919586,-0.04539385437965393,0.25782033801078796,0.01317407563328743,0.0987749919295311,0.010431215167045593,-0.03901693969964981,0.06337616592645645,-0.1652642786502838,-0.14440402388572693,0.038437776267528534,0.16866077482700348,-0.05881854146718979,-0.061417918652296066,-0.12368819117546082,0.23116755485534668,0.10735812038183212,-0.09828275442123413,0.13379618525505066,0.011406847275793552,0.021705137565732002,-0.15021668374538422,0.05102824419736862,0.035934045910835266,-0.08918739855289459,0.11333053559064865,-0.02705952525138855,-0.00493650883436203,0.05495777353644371,-0.11338390409946442,0.23718786239624023,0.06577105075120926,-0.057440731674432755,-0.10275184363126755,0.05106208845973015,0.036299023777246475,-0.1172158345580101,0.12922628223896027,0.05502979829907417,-0.25675785541534424,0.11767672747373581,0.05434589460492134,-0.017295368015766144,-0.01689789444208145,-0.061308182775974274,0.048369407653808594,-0.07246485352516174,0.038800664246082306,0.12430574744939804,0.09335876256227493,0.14660723507404327,0.0245815459638834,0.025396669283509254,0.20013435184955597,0.025531215593218803,-0.15307919681072235,0.028868800029158592,0.09283328801393509,0.24640710651874542,-0.0021245917305350304,0.06934112310409546,-0.16358137130737305,0.014227964915335178,0.1285257488489151,-0.09238980710506439,-0.04736172407865524,0.023921005427837372,0.20943483710289001,-0.06923836469650269,-0.01272600144147873,-0.11195776611566544,-0.03583335503935814,-0.14663121104240417,0.010344902984797955,-0.10915274173021317,-0.02862987481057644,0.007000149227678776],[-0.01822216622531414,0.05450253188610077,-0.006425793282687664,0.027635697275400162,-0.23191599547863007,0.10909083485603333,-0.2434333860874176,-0.0712413340806961,-0.014913233928382397,-0.04636616259813309,-0.07244038581848145,-0.11774162203073502,0.17727123200893402,-0.004182565491646528,0.02467270940542221,-0.010383272543549538,-0.20391800999641418,-0.07501168549060822,0.0971413254737854,-0.13595476746559143,-0.1744946837425232,0.0702500194311142,-0.01166490651667118,0.04518407955765724,0.09479963779449463,0.11714518815279007,0.19443288445472717,0.0736854150891304,-0.022954493761062622,0.15349525213241577,0.06367900222539902,-0.0727364793419838,0.1338353157043457,0.07676482200622559,0.019587494432926178,0.10662554949522018,-0.24483120441436768,0.13580583035945892,0.08343810588121414,0.03879506513476372,-0.09902749210596085,-0.0916021391749382,-0.0964316725730896,0.05316619202494621,-0.21287158131599426,0.08484459668397903,0.1396462321281433,-0.25940975546836853,-0.09089340269565582,0.14526517689228058,-0.025723587721586227,0.008767832070589066,0.006900602951645851,0.13337555527687073,-0.09907799959182739,-0.03709305822849274,0.00756992120295763,0.08559192717075348,0.09586383402347565,-0.04567129537463188,0.11329366266727448,0.04974336177110672,0.05729955807328224,0.023190634325146675,-0.08250968158245087,0.12878726422786713,-0.26302486658096313,-0.022060440853238106,0.04005495831370354,0.07337287813425064,0.13746313750743866,-0.1640375256538391,0.14535054564476013,-0.11408276855945587,-0.062465641647577286,0.02177753485739231,0.1750304251909256,-0.08236047625541687,0.05213188752532005,0.15152741968631744,-0.1283441185951233,0.09649231284856796,-0.0286630317568779,-0.006537043023854494,0.025478770956397057,0.012690458446741104,0.13860158622264862,-0.0824863538146019,-0.06642349809408188,-0.0028897952288389206,0.2074163854122162,-0.025747017934918404,0.12996689975261688,-0.09705062955617905,-0.14294378459453583,-0.022910842671990395,0.14217022061347961,-0.10953252762556076,0.10170376300811768,0.13682809472084045,-0.13167142868041992,-0.14343291521072388,0.13975417613983154,0.21826203167438507,0.0771106481552124,-0.02484709955751896,-0.07227708399295807,-0.058155566453933716,0.02739093266427517,0.0016739831771701574,0.04979703202843666,0.027145367115736008,0.012791900895535946,-0.058880824595689774,0.11785680800676346,-0.13400669395923615,0.05327404662966728,0.0727892518043518,-0.10904881358146667,-0.17695707082748413,0.05659220367670059,-0.1938471794128418,-0.21294346451759338,-0.003182261949405074,0.3670511841773987,-0.030502069741487503,0.3482151925563812,0.3171994388103485,-0.11772660911083221,-0.13339857757091522,-0.09377077221870422,-0.057514291256666183,-0.03757716342806816,0.028090279549360275,-0.10745135694742203,0.031784139573574066,-0.05263770371675491,-0.010992554947733879],[-0.05013816058635712,0.010793164372444153,-0.031055081635713577,0.20461112260818481,0.027214061468839645,-0.08202023059129715,-0.06651156395673752,-0.14995357394218445,0.10228326916694641,-0.014014904387295246,-0.18254806101322174,0.09146114438772202,0.1588759422302246,-0.12701387703418732,0.009800387546420097,-0.26934346556663513,-0.04030976817011833,-0.0649169534444809,-0.03101239539682865,0.043644651770591736,-0.08480557799339294,-0.185687854886055,-0.16132962703704834,-0.07578323781490326,-0.017285216599702835,0.15900053083896637,0.13423290848731995,-0.1315094530582428,-0.0690881684422493,0.02772526443004608,-0.1157899871468544,-0.138773575425148,0.026447243988513947,0.011342381127178669,-0.1357540339231491,0.2220166176557541,-0.30804920196533203,-0.19708845019340515,-0.17357175052165985,0.026059865951538086,-0.23959402740001678,-0.10560152679681778,0.14177870750427246,-0.3256044089794159,0.15868639945983887,0.02568081207573414,-0.000918667356017977,-0.025883527472615242,-0.08242014795541763,0.10953813046216965,-0.18314489722251892,-0.2120329588651657,0.3035520911216736,0.1040291115641594,0.19965068995952606,0.09767992049455643,-0.03398161754012108,0.05911513790488243,-0.05569653585553169,0.17247925698757172,-0.03491770476102829,-0.09631668031215668,-0.022203411906957626,-0.03070400469005108,-0.18645401298999786,-0.16694727540016174,0.08277923613786697,0.23162825405597687,0.10922067612409592,0.0035803804639726877,-0.05168275535106659,0.10658735781908035,-0.02116318605840206,0.055019814521074295,-0.06380932778120041,0.06923641264438629,-0.07465747743844986,-0.16583895683288574,0.2899160385131836,-0.15282493829727173,0.041788987815380096,-0.15219399333000183,-0.028554031625390053,-0.042277660220861435,0.24020759761333466,0.01211167499423027,0.053732678294181824,0.10371123254299164,0.013488158583641052,0.05985357612371445,0.18879492580890656,0.039011601358652115,-0.15529075264930725,0.1148495227098465,-0.11454342305660248,-0.10726544260978699,-0.026104263961315155,0.07085994631052017,-0.05952335149049759,-0.05485384166240692,0.049737077206373215,-0.02878803387284279,-0.10979180783033371,-0.23566509783267975,0.06587708741426468,0.0698150172829628,-0.020130930468440056,0.03886952996253967,-0.03270835429430008,-0.19729392230510712,-0.02021969109773636,0.026912221685051918,0.07407423108816147,-0.07829801738262177,0.11215871572494507,-0.09307920187711716,-0.08667983114719391,-0.04761559143662453,0.28793609142303467,0.05853164941072464,-0.05269649997353554,0.025904500856995583,0.0027550694067031145,0.10136977583169937,0.10050857812166214,-0.08475063741207123,0.11435262858867645,0.049492690712213516,-0.060648899525403976,0.08195306360721588,0.08450425416231155,0.17233216762542725,-0.05677301064133644,0.04964236542582512,0.12062333524227142,0.2511759102344513,0.15596839785575867,0.07729853689670563],[-0.16433970630168915,0.09506992995738983,0.01945430040359497,0.02908129058778286,-0.0217817984521389,0.11661050468683243,0.12162738293409348,-0.029114462435245514,0.17319677770137787,-0.16255763173103333,0.1476183831691742,0.10962308943271637,0.01542458962649107,-0.20420250296592712,-0.022765181958675385,0.19876344501972198,0.02005794644355774,0.12295617908239365,-0.12657654285430908,-0.12508998811244965,-0.0530327670276165,0.16659358143806458,0.07974790781736374,0.08003257215023041,0.03743574768304825,-0.10864038020372391,-0.14920862019062042,0.13878285884857178,-0.2084798663854599,-0.005379578564316034,-0.2962641716003418,0.13175204396247864,0.059751614928245544,0.18071988224983215,-0.23416218161582947,-0.031058985739946365,-0.0394323468208313,0.04181041195988655,0.12853650748729706,-0.05078687518835068,0.09003118425607681,-0.03137214109301567,0.09361343830823898,0.05711683630943298,0.1587163656949997,-0.14449720084667206,-0.17107348144054413,-0.10051750391721725,0.05548989772796631,0.03997745364904404,0.14043200016021729,-0.13930419087409973,0.11891395598649979,-0.04528754577040672,-0.05370756611227989,0.09260933846235275,-0.0013341228477656841,0.1351499855518341,-0.09479004144668579,0.013527502305805683,-0.1318613737821579,-0.021421127021312714,0.025952329859137535,-0.1111895963549614,0.11415176093578339,-0.07963107526302338,0.010408653877675533,0.24441255629062653,0.05895336717367172,-0.16942772269248962,0.012597612105309963,-0.11758832633495331,0.09558793902397156,0.01634431630373001,-0.1258099228143692,-0.1771487295627594,-0.04499346390366554,0.01999019645154476,-0.048115719109773636,0.018499456346035004,-0.028979763388633728,0.07512114197015762,0.08756270259618759,-0.12413271516561508,0.009555543772876263,-0.07029253244400024,-0.27937552332878113,0.12162352353334427,0.047128189355134964,-0.030553948134183884,0.005665707401931286,-0.09531956911087036,-0.09778016805648804,-0.021863823756575584,0.08802028745412827,0.14082106947898865,-0.025306375697255135,0.02988688088953495,0.028368119150400162,0.13876992464065552,-0.22412274777889252,-0.08699491620063782,0.05015026032924652,0.006304411683231592,-0.04909753426909447,0.002567667281255126,-0.029623622074723244,0.1326020061969757,0.14749813079833984,0.050088126212358475,-0.07016041874885559,0.2778005301952362,-0.1449097990989685,0.1289241909980774,-0.001714316662400961,0.2658635675907135,-0.07535587251186371,-0.03200695663690567,-0.19891388714313507,-0.22184604406356812,-0.04690936580300331,0.03894555941224098,-0.08703359216451645,0.006089936010539532,0.0698130801320076,0.009315891191363335,-0.050840940326452255,-0.15244841575622559,0.008546285331249237,-0.05825423076748848,-0.11109481006860733,0.06810272485017776,0.15399383008480072,-0.14049923419952393,-0.15545548498630524,-0.0567067489027977,-0.17850279808044434,-0.17986002564430237],[-0.22482280433177948,0.05076564848423004,-0.08254039287567139,-0.09418196231126785,0.13210046291351318,-0.06365713477134705,0.08166146278381348,0.007318483199924231,0.03728156164288521,-0.06195506453514099,0.2261192500591278,-0.030446384102106094,-0.08540978282690048,-0.11635284125804901,0.03052598610520363,-0.03971400111913681,-0.13405731320381165,0.02914917841553688,-0.06587523967027664,0.10788247734308243,0.05132925882935524,0.16644112765789032,0.03954855725169182,0.019963338971138,0.08418214321136475,-0.00547807989642024,-0.20890797674655914,-0.14159253239631653,-0.09876111149787903,-0.04283908009529114,-0.13267569243907928,-0.033601563423871994,-0.10590749233961105,0.024020817130804062,0.050511546432971954,0.05166923254728317,-0.028171755373477936,0.08881840109825134,0.3085600435733795,-0.07701265811920166,-0.2161550223827362,-0.031326472759246826,-0.07628871500492096,0.12637653946876526,-0.18960632383823395,0.14265939593315125,0.18698954582214355,0.13891714811325073,-0.22270461916923523,-0.1117468848824501,0.11016017198562622,0.11368492245674133,-0.0665874257683754,0.033884987235069275,-0.025907576084136963,0.0218882467597723,0.027244552969932556,0.12354246526956558,-0.0044892034493386745,0.14469018578529358,0.11927948892116547,0.12330707907676697,-0.07080614566802979,-0.0030718885827809572,0.14561827480793,-0.050012122839689255,-0.0682656392455101,-0.028302157297730446,-0.025049664080142975,0.014614340849220753,0.06982816755771637,0.14023184776306152,0.23353278636932373,0.28458213806152344,0.02367316745221615,-0.0831645205616951,0.16942887008190155,0.17699868977069855,-0.3257189393043518,0.1250511109828949,0.25906574726104736,-0.008508373983204365,0.07996557652950287,-0.017636612057685852,0.20180857181549072,-0.0829210877418518,-0.01116772461682558,0.08200431615114212,0.05648209899663925,-0.13397812843322754,-0.06952020525932312,-0.045448943972587585,0.07477357238531113,-0.0845898762345314,-0.13279153406620026,0.09363831579685211,-0.034786321222782135,-0.02216058410704136,0.15684853494167328,-0.013336732052266598,-0.08664499223232269,0.11081615835428238,-0.04360588639974594,0.04490116611123085,0.006672918796539307,-0.08924957364797592,-0.08747659623622894,0.12951713800430298,-0.11099565029144287,0.03628601133823395,-0.0925547406077385,-0.02502334490418434,-0.04928590729832649,0.04782479256391525,0.060097500681877136,0.06929457932710648,-0.17259405553340912,-0.003207666799426079,0.07663378119468689,0.03928828239440918,-0.12374918162822723,0.1899380385875702,-0.21262219548225403,-0.1637011170387268,-0.04274241253733635,-0.0400097481906414,-0.08103251457214355,-0.26006489992141724,-0.04104410484433174,0.08364970237016678,-0.19310462474822998,-0.027060579508543015,-0.08443880081176758,-0.010793047957122326,0.0018503294559195638,0.19931773841381073,0.06990847736597061,0.012126917950809002],[0.0578523725271225,-0.0756482183933258,-0.11116562783718109,0.024458443745970726,-0.008363991044461727,0.0007269057095982134,-0.2137071043252945,-0.18040725588798523,-0.07171356678009033,0.07429502159357071,-0.021148838102817535,-0.23159094154834747,0.05638619884848595,-0.08541463315486908,0.21883061528205872,0.005122184753417969,0.09502703696489334,0.06938830018043518,-0.04485447332262993,0.08038602769374847,-0.08695664256811142,-0.055267833173274994,-0.033634718507528305,0.089838907122612,0.15613505244255066,-0.12431038171052933,0.08388767391443253,0.0806899145245552,-0.06334107369184494,0.050920747220516205,0.06799101829528809,-0.16481009125709534,0.05496067926287651,0.03680608421564102,-0.03133675456047058,-0.16657771170139313,-0.034478798508644104,0.008660956285893917,-0.018383270129561424,0.06207509711384773,0.030163832008838654,0.07885361462831497,0.3012692928314209,-0.07111220061779022,-0.11189837008714676,0.11078961938619614,0.3402026891708374,0.015750624239444733,-0.020680300891399384,-0.011025641113519669,-0.1920393854379654,-0.13762341439723969,0.015300323255360126,0.13408856093883514,-0.02518586814403534,-0.13906390964984894,0.14409670233726501,0.15553705394268036,0.05478077754378319,-0.008816058747470379,0.022810643538832664,-0.004976415541023016,0.08548058569431305,-0.08581605553627014,0.19265957176685333,0.028050128370523453,0.09131187200546265,-0.18447518348693848,-0.10119052976369858,-0.04528522118926048,0.10291547328233719,-0.2531207799911499,-0.18396835029125214,0.14581111073493958,0.19680875539779663,0.19751891493797302,-0.05932198092341423,-0.1258534938097,0.1335429698228836,0.059084199368953705,0.21936960518360138,0.028834545984864235,-0.14671266078948975,-0.04875835031270981,0.021233834326267242,0.1366998851299286,-0.22102899849414825,-0.044571395963430405,0.12484627962112427,-0.04169117659330368,0.0896143764257431,0.18967145681381226,-0.06957769393920898,0.013581277802586555,0.15823853015899658,0.07732963562011719,-0.11250777542591095,-0.15572382509708405,-0.10122644156217575,0.030698826536536217,0.18082429468631744,-0.11848858743906021,-0.10089462995529175,0.08548898994922638,0.06540416926145554,0.16040807962417603,0.1253042072057724,0.06957508623600006,0.016299892216920853,-0.069078229367733,0.003037933260202408,0.3884614408016205,0.05515199154615402,-0.03671048581600189,0.07618748396635056,0.01579246111214161,0.11797956377267838,-0.03449685871601105,-0.29818275570869446,0.08518874645233154,-0.12557482719421387,-0.2783277630805969,0.28070351481437683,0.08283238857984543,-0.17454907298088074,-0.1248016208410263,-0.20131979882717133,-0.01394033432006836,0.19308379292488098,-0.15985511243343353,-0.12365182489156723,0.024503763765096664,-0.030137350782752037,-0.10203130543231964,-0.11062932759523392,-0.033078569918870926,-0.12161000818014145,0.005539826117455959],[0.04198167473077774,0.1086282953619957,0.20080244541168213,-0.08609376102685928,0.12446781247854233,0.03601435571908951,0.05474977567791939,0.1850767880678177,-0.08019688725471497,-0.0630570650100708,0.022530902177095413,-0.17111574113368988,-0.10981553792953491,0.0013261934509500861,-0.013093569315969944,0.07498903572559357,-0.026476318016648293,-0.04786207526922226,-0.22089405357837677,-0.21551750600337982,0.025732150301337242,0.1666479855775833,0.043160103261470795,0.056369028985500336,-0.04302206262946129,0.31362926959991455,-0.13522149622440338,-0.12210480123758316,0.028935760259628296,-0.0746232122182846,0.14378291368484497,-0.04063927382230759,-0.17655201256275177,-0.006805772427469492,-0.04241826385259628,0.07954685389995575,0.07778653502464294,-0.23818576335906982,0.001772895804606378,0.12484250962734222,-0.11281616985797882,-0.1001773402094841,-0.029297761619091034,-0.1292501986026764,0.035228364169597626,0.03910405561327934,-0.27028214931488037,-0.2381465584039688,-0.1686897724866867,-0.0831160619854927,0.11277324706315994,0.10143271833658218,-0.11824474483728409,0.021159669384360313,-0.09082542359828949,0.04883478581905365,-0.005458427593111992,-0.133429616689682,-0.20153509080410004,0.040297653526067734,-0.13863018155097961,-0.09964372217655182,0.11096304655075073,0.13781113922595978,-0.1810424029827118,0.15359289944171906,0.028749169781804085,0.14132410287857056,-0.029421616345643997,0.06678519397974014,-0.0769757404923439,-0.14486001431941986,-0.06019976735115051,-0.035800136625766754,-0.1694515198469162,0.16567614674568176,0.04271184653043747,-0.16108788549900055,-0.09148143231868744,-0.21357400715351105,0.19349046051502228,-0.1161603331565857,-0.08214667439460754,0.037565719336271286,-0.13908176124095917,0.09417968988418579,0.11462567001581192,0.1859406977891922,0.0630645602941513,0.03691145405173302,0.019364487379789352,0.18332038819789886,0.11502664536237717,-0.005433611571788788,-0.006983151193708181,0.010432599112391472,0.04866420850157738,0.0859912633895874,0.036493781954050064,0.10382861644029617,0.058888211846351624,-0.10569591820240021,0.0898486077785492,0.07310474663972855,-0.1734488606452942,-0.014993157237768173,0.004778150934726,-0.0029496022034436464,0.08435703814029694,0.03407345339655876,-0.058262407779693604,-0.16959291696548462,-0.059179242700338364,-0.029254231601953506,0.0200477447360754,-0.011495928280055523,0.050049565732479095,-0.05580638349056244,0.35908225178718567,0.0595269501209259,0.10555919259786606,0.14218351244926453,0.06339297443628311,-0.14073985815048218,0.11770129203796387,0.11878910660743713,-0.013272308744490147,-0.10819732397794724,0.06623872369527817,-0.09577246755361557,-0.2450300008058548,0.013918254524469376,-0.08260724693536758,-0.017237257212400436,0.06892890483140945,0.04696258157491684,-0.06939452141523361,0.0871465653181076],[-0.05739264562726021,0.008997014723718166,-0.007307419553399086,-0.028683152049779892,0.11055150628089905,0.07793927192687988,0.0032554210629314184,-0.004426041152328253,0.10708504915237427,-0.23412775993347168,0.18452943861484528,0.37149131298065186,0.056240327656269073,0.010917576029896736,-0.10223037749528885,0.0217795018106699,-0.00813586637377739,-0.2710568904876709,0.06148580461740494,-0.2517663836479187,-0.049473267048597336,-0.05666766315698624,-0.1868801862001419,-0.1091824397444725,-0.14546290040016174,0.07845789194107056,0.05454033613204956,0.050609927624464035,-0.2280769795179367,-0.06579529494047165,0.17236964404582977,-0.06827647238969803,0.07555262744426727,0.1426655501127243,0.03189217671751976,0.05900125578045845,0.036750275641679764,0.12737776339054108,-0.0990268737077713,0.03909903019666672,-0.006813027895987034,0.02141229808330536,0.012044534087181091,0.0412452258169651,-0.047426849603652954,0.11270257085561752,-0.07891993969678879,-0.14631763100624084,0.02165958285331726,-0.09859049320220947,-0.08675671368837357,0.2778739631175995,0.05589689686894417,0.03369385376572609,-0.17795591056346893,0.010301515460014343,0.06386478245258331,-0.02629357948899269,0.06089020520448685,0.030188241973519325,0.05998970568180084,0.20953983068466187,0.046785466372966766,-0.22822074592113495,-0.09635379165410995,-0.22201009094715118,0.08421599119901657,-0.07211656868457794,-0.0735001191496849,-0.04827443137764931,0.1963128000497818,0.2612941861152649,0.044732701033353806,-0.03696234151721001,-0.21747054159641266,-0.07966742664575577,-0.0030496749095618725,-0.04695187509059906,0.06289290636777878,0.12112988531589508,-0.06368507444858551,0.08194989711046219,-0.26207342743873596,0.09832686930894852,-0.040107812732458115,0.04952447861433029,-0.05952533707022667,0.025503231212496758,-0.002608011942356825,-0.06247778981924057,-0.025434358045458794,0.10748686641454697,0.021182017400860786,-0.09434136748313904,-0.17534883320331573,0.030397068709135056,-0.019985580816864967,0.04392348974943161,0.13171765208244324,0.20407341420650482,0.16613419353961945,-0.10197129845619202,0.021296042948961258,0.07985536754131317,-0.1390918493270874,0.11497052758932114,0.0038594617508351803,-0.11798711121082306,-0.014270007610321045,0.01172621175646782,-0.060177676379680634,-0.007190551143139601,-0.051426760852336884,0.2378692775964737,-0.05169178918004036,0.03794572874903679,-0.09586154669523239,-0.12629054486751556,0.3403611481189728,0.013338056392967701,0.07585713267326355,-0.2672092318534851,0.054382819682359695,0.0068712858483195305,-0.05818995460867882,-0.09527096152305603,-0.01360301859676838,-0.0038372210692614317,0.1290365308523178,0.008559485897421837,0.0011592755327001214,-0.015380230732262135,0.17290283739566803,0.11062910407781601,0.2548288404941559,-0.04877308011054993,-0.2442276030778885,-0.04879092797636986],[-0.13441185653209686,0.1850588619709015,0.19063986837863922,0.007574275601655245,-0.08915272355079651,-0.2365088164806366,-0.13503380119800568,0.1837736815214157,-0.08842607587575912,-0.12970787286758423,-0.12104758620262146,-0.08939491957426071,-0.08580751717090607,0.13055147230625153,0.13029542565345764,-0.1132185161113739,-0.14184361696243286,0.03313922509551048,0.013093894347548485,-0.12094325572252274,-0.08534854650497437,0.08188555389642715,0.14321398735046387,-0.031334422528743744,0.13440857827663422,-0.07721082121133804,-0.0022568858694285154,0.050214413553476334,-0.04763428121805191,-0.12356524169445038,0.03967434912919998,-0.05041617900133133,-0.12351171672344208,-0.17665928602218628,0.1774502694606781,0.24920368194580078,-0.07366946339607239,-0.04627566412091255,-0.006635975558310747,-0.06657323986291885,0.07310502231121063,0.1261291801929474,0.0879053995013237,-0.02423088811337948,0.0013923656661063433,0.009875944815576077,-0.029106708243489265,-0.01768791675567627,-0.07889924943447113,0.04910224676132202,0.04765389859676361,0.06365124136209488,0.07659933716058731,-0.19765976071357727,0.08726861327886581,0.0070412070490419865,-0.1971823126077652,0.11286543309688568,-0.15313881635665894,0.09945535659790039,0.03661021590232849,0.09035573899745941,-0.03214927390217781,0.18954496085643768,-0.05580374598503113,-0.1212463453412056,-0.1315314620733261,0.05809285491704941,-0.011611174792051315,0.16591957211494446,-0.26617303490638733,0.13865220546722412,0.11130088567733765,0.20607008039951324,-0.3736572265625,-0.010441512800753117,0.11531230807304382,0.06358599662780762,0.2697419822216034,-0.19378328323364258,-0.04710838198661804,-0.03988177701830864,-0.24614951014518738,0.05876956507563591,0.0005555440438911319,-0.05664089694619179,0.05706275627017021,-0.23304347693920135,0.020747564733028412,0.2319633960723877,0.0816628560423851,0.05999292805790901,-0.054804567247629166,0.22014158964157104,-0.021039200946688652,0.24998438358306885,0.10250183939933777,-0.15987734496593475,-0.008584417402744293,-0.163285031914711,-0.04150758311152458,-0.2433636337518692,0.12428726255893707,0.06178746372461319,0.12931428849697113,-0.08937989920377731,-0.04744606465101242,-0.012763225473463535,0.14301078021526337,0.31445255875587463,0.19042812287807465,-0.18122784793376923,-0.2201000154018402,-0.08688163757324219,-0.03240397572517395,0.07232484966516495,0.09768741577863693,0.00023761064221616834,-0.10675607621669769,-0.1317877471446991,-0.1555473506450653,-0.03302875533699989,0.05484529584646225,-0.022411953657865524,-0.1877204030752182,0.16930493712425232,-0.010107327252626419,-0.18972545862197876,-0.011478601954877377,-0.0827949047088623,0.04081246256828308,-0.006237865425646305,0.014088467694818974,0.1137276142835617,0.036292336881160736,-0.1274331957101822,-0.1379152536392212,-0.15578636527061462],[0.05181756988167763,-0.019692637026309967,-0.024949606508016586,0.05897165834903717,0.1367068886756897,-0.09968350827693939,0.10007787495851517,0.07739033550024033,0.1102403774857521,0.08582455664873123,0.042258668690919876,-0.0436042919754982,0.10953157395124435,-0.06282079964876175,0.1867123395204544,-0.04158438742160797,0.1358354091644287,0.3047281503677368,-0.08201942592859268,0.005340443924069405,-0.1617458611726761,-0.3611625134944916,0.11603580415248871,0.11010973900556564,-0.014647073112428188,-0.03226025775074959,0.15515543520450592,0.15519846975803375,0.18557684123516083,-0.2113589346408844,-0.12272875756025314,0.13691486418247223,-0.13301950693130493,0.10258698463439941,0.09660305082798004,0.13183671236038208,0.09398480504751205,-0.09673719108104706,0.05909999832510948,-0.02171345241367817,0.06853912770748138,-0.07260037213563919,-0.2744925916194916,0.02516794390976429,0.11337719857692719,-0.11792726069688797,0.14870423078536987,-0.00578616326674819,-0.007127278950065374,0.057258330285549164,-0.05108283832669258,-0.04871146380901337,0.06934010982513428,0.029667111113667488,-0.07480674237012863,0.1748785674571991,0.09625101089477539,0.08785010129213333,-0.06134207174181938,-0.19046352803707123,-0.15641900897026062,0.06268821656703949,0.08110135793685913,0.07592906057834625,0.1328144073486328,-0.04353737458586693,0.0755174309015274,-0.2790107727050781,0.09947680681943893,0.07367508858442307,-0.12272252142429352,-0.010541969910264015,-0.022003626450896263,-0.07983063161373138,-0.1578732579946518,-0.04007227346301079,-0.07289884239435196,0.08986632525920868,-0.21354159712791443,-0.01285284198820591,0.10145819187164307,-0.019462140277028084,-0.08088012039661407,0.14603480696678162,0.03315502405166626,0.01752615161240101,0.10225691646337509,-0.20503175258636475,-0.019789425656199455,0.07625418901443481,0.04285113885998726,0.0633324533700943,0.1810702532529831,0.17506349086761475,-0.0002485281729605049,-0.10059567540884018,-0.1309942752122879,0.2671242654323578,0.10025263577699661,-0.0411575548350811,0.07407820969820023,-0.04992171376943588,-0.0545174703001976,0.2674488425254822,-0.01703805662691593,-0.07297573238611221,0.1966037154197693,-0.14650508761405945,0.03631444275379181,-0.10480980575084686,0.029369521886110306,0.1366688460111618,0.026863064616918564,0.3272182047367096,0.046771418303251266,0.18142612278461456,0.10174714028835297,0.13255810737609863,-0.06581075489521027,-0.18460200726985931,0.05693640559911728,0.0063238381408154964,-0.0798051655292511,0.07805832475423813,-0.16160191595554352,-0.024583149701356888,-0.06910166144371033,-0.026355531066656113,-0.20826345682144165,0.08197081089019775,0.01320797111839056,-0.009298217482864857,0.073304682970047,0.1641031950712204,0.11332261562347412,-0.11209949105978012,-0.05091646686196327,-0.01059216819703579],[0.11137233674526215,-0.09935180097818375,-0.05881601944565773,0.005234288051724434,0.07221134752035141,-0.07695282995700836,0.2840343713760376,-0.20665183663368225,-0.004149461630731821,-0.08326105773448944,0.043097224086523056,0.03126901015639305,-0.046259719878435135,-0.08007395267486572,0.15389972925186157,-0.01761430688202381,-0.29826095700263977,0.017139170318841934,-0.0640237033367157,0.16502495110034943,0.1807510107755661,0.06285092234611511,-0.02041919156908989,0.21134603023529053,0.024289695546030998,0.13266518712043762,-0.22432763874530792,-0.023831646889448166,-0.16219770908355713,0.15332123637199402,0.2492809146642685,0.07620254158973694,-0.13276174664497375,0.07707233726978302,0.0524156391620636,0.30171653628349304,0.12400797754526138,-0.08547311276197433,-0.10539374500513077,-0.0554351732134819,0.12565959990024567,-0.08677602559328079,-0.00775205297395587,-0.17699596285820007,-0.094456247985363,0.1470067799091339,0.23200729489326477,0.03951160982251167,0.012321241199970245,0.09601602703332901,0.08587581664323807,-0.1264299750328064,-0.05549393221735954,-0.13469861447811127,0.030651992186903954,-0.09572543948888779,-0.055195003747940063,0.1711178869009018,0.1557127982378006,-0.08550355583429337,0.39081013202667236,0.08392541110515594,0.16495715081691742,-0.16434454917907715,0.03356832265853882,-0.0024502044543623924,-0.2402516007423401,-0.16154375672340393,-0.014851421117782593,0.045861534774303436,0.008610568009316921,0.02841584011912346,-0.0029741227626800537,-0.07741440087556839,-0.16023856401443481,-0.1406669318675995,-0.1058620885014534,0.016289308667182922,-0.19423721730709076,-0.08591920137405396,0.011669772677123547,-0.20410841703414917,0.28520625829696655,0.10507594794034958,0.08099477738142014,0.11895762383937836,-0.08322650194168091,0.22903792560100555,0.03654010221362114,0.017752693966031075,-0.015610607340931892,0.16662611067295074,0.09401743113994598,0.17656853795051575,0.061186160892248154,-0.11137022823095322,-0.13932111859321594,-0.0021027126349508762,-0.09057377278804779,-0.16058596968650818,0.19918639957904816,0.01639791578054428,0.07362918555736542,-0.1766110062599182,-0.19486641883850098,0.17687393724918365,0.07692719995975494,0.22525526583194733,-0.029583513736724854,-0.1344294548034668,-0.010263578966259956,0.136909618973732,0.02145443670451641,0.09118696302175522,-0.025884006172418594,0.04311303421854973,-0.020619990304112434,-0.03420769050717354,-0.11323939263820648,-0.01677550934255123,-0.12027669697999954,-0.048249054700136185,0.06604011356830597,0.25588902831077576,-0.09363468736410141,0.030450642108917236,0.1645130217075348,0.06334620714187622,0.06790392100811005,-0.16958530247211456,-0.2347913533449173,-0.06918461620807648,-0.040169909596443176,-0.19590896368026733,0.058469392359256744,-0.03577001392841339,0.19236889481544495,-0.05086623132228851],[-0.05384549871087074,0.05747681111097336,-0.09829621762037277,-0.1765040159225464,0.06044080853462219,-0.07788754999637604,-0.010205483064055443,-0.12835176289081573,-0.11345887184143066,-0.08309090882539749,0.026435546576976776,-0.15431345999240875,0.0891088992357254,0.06632444262504578,0.0707588642835617,-0.046758983284235,-0.012194938957691193,-0.044580623507499695,-0.15423829853534698,-0.00563221238553524,0.10542523860931396,0.16288083791732788,0.09371205419301987,0.2787580192089081,-0.052126675844192505,0.16983775794506073,0.10215102136135101,-0.28626787662506104,0.03976598009467125,0.10079427808523178,-0.016959618777036667,0.054371342062950134,-0.13043098151683807,0.10686172544956207,0.07069315016269684,0.11377830803394318,0.28760719299316406,-0.040619146078825,-0.07884425669908524,-0.057883474975824356,-0.03433921933174133,-0.04491402208805084,-0.0009411114151589572,0.06670112907886505,-0.025277510285377502,-0.12425391376018524,-0.025591110810637474,0.08194125443696976,-0.1631239950656891,0.06551404297351837,-0.033051811158657074,0.0584145151078701,0.13354472815990448,-0.007343690376728773,-0.060905590653419495,-0.014069715514779091,-0.03377539664506912,-0.05050141364336014,0.04659341648221016,0.024324016645550728,0.18289105594158173,-0.08073985576629639,-0.01749109849333763,-0.0027473527006804943,-0.004542528185993433,0.13057579100131989,0.1029384657740593,0.03478037193417549,0.07867906987667084,-0.08822530508041382,-0.13893158733844757,0.018419742584228516,-0.03183332830667496,-0.2347215861082077,-0.0604921355843544,-0.01883084326982498,0.3058945834636688,-0.35139647126197815,0.17532725632190704,0.004409844521433115,-0.06787292659282684,0.06673035025596619,-0.02792651392519474,0.0982259064912796,-0.04311696067452431,0.08324582874774933,-0.10814981162548065,0.10379436612129211,0.07629122585058212,0.09466446191072464,-0.22567100822925568,0.05337106063961983,-0.09011049568653107,-0.259423166513443,-0.09454619139432907,-0.06832460314035416,0.06334158033132553,0.04840961471199989,-0.012471594847738743,-0.11193963885307312,-0.05218811705708504,0.14882875978946686,-0.005889196880161762,0.17974291741847992,-0.05585834011435509,-0.2823431193828583,0.09982887655496597,0.123164102435112,0.010238202288746834,0.22122350335121155,-0.006096409633755684,0.14455652236938477,0.037594377994537354,-0.0036705241072922945,0.03400757536292076,-0.1896069496870041,0.09491943567991257,0.08533350378274918,-0.09561978280544281,-0.07466713339090347,-0.06248825788497925,0.12321779131889343,-0.02853337675333023,-0.0625007227063179,0.013954815454781055,-0.09145565330982208,0.012663222849369049,0.017423270270228386,0.012860730290412903,-0.08974118530750275,0.20176416635513306,-0.04917319118976593,-0.06347060203552246,0.08538797497749329,0.04621223360300064,-0.0655696764588356,0.1437085121870041,0.02303444780409336],[-0.15298905968666077,0.14378485083580017,0.0773441344499588,-0.0034410241059958935,0.05654628202319145,-0.04217164218425751,-0.08098407834768295,0.054740872234106064,0.03064199909567833,0.03771425038576126,0.252729207277298,0.10060156881809235,0.13133873045444489,0.009752960875630379,0.050576891750097275,-0.07458562403917313,0.050217971205711365,0.06757130473852158,-0.11221379786729813,-0.2646945118904114,0.17646878957748413,0.11965177953243256,0.035983383655548096,0.016430187970399857,-0.017777107656002045,0.06122475862503052,0.06933494657278061,-0.13119003176689148,0.16076712310314178,0.05018748715519905,0.042723897844552994,-0.018076598644256592,-0.06742716580629349,0.04999561980366707,-0.024899758398532867,-0.06094870716333389,0.041731469333171844,-0.07751469314098358,-0.1681698113679886,-0.10873617231845856,-0.20878039300441742,0.2910864055156708,-0.10919962078332901,0.10239866375923157,-0.04018145427107811,0.03894010931253433,0.383403480052948,0.08495141565799713,0.1068883091211319,0.05011744052171707,-0.04505624622106552,0.028156017884612083,0.06021095812320709,-0.0953739732503891,-0.014215318486094475,-0.07249754667282104,0.13196086883544922,0.06472314894199371,0.02477150782942772,0.13509182631969452,-0.09300702065229416,-0.028595557436347008,0.11872699111700058,0.07501552253961563,-0.04633248224854469,-0.16991572082042694,0.11314336210489273,-0.09517568349838257,0.006679896265268326,-0.18061846494674683,0.002569880336523056,-0.1335216611623764,-0.12580133974552155,0.014878540299832821,-0.03485491871833801,-0.17148536443710327,-0.11624127626419067,0.1379193663597107,0.0788363367319107,-0.15107493102550507,0.17603591084480286,-0.10669934004545212,0.013234560377895832,-0.22302435338497162,0.08880511671304703,0.05890389531850815,0.014953861944377422,0.0038654874078929424,0.09886783361434937,-0.08991596102714539,0.0629560574889183,-0.19418752193450928,0.04393656179308891,-0.06849703192710876,0.023830745369195938,-0.20729270577430725,0.014202971011400223,0.10045154392719269,0.17656052112579346,-0.07699700444936752,0.11506200581789017,-0.029593465849757195,-0.06272043287754059,0.05681551620364189,0.09310810267925262,0.018671194091439247,0.03998178616166115,-0.0900781974196434,0.16116519272327423,0.1061660498380661,-0.03912179544568062,-0.07988639920949936,-0.09339973330497742,-0.07960919290781021,-0.12623366713523865,-0.20653198659420013,0.00947246141731739,0.21233437955379486,-0.16906020045280457,0.12289431691169739,-0.014161582104861736,0.049714263528585434,0.06310076266527176,-0.04585752636194229,-0.11419283598661423,-0.1377066969871521,-0.09566476941108704,-0.09854111820459366,-0.11828652769327164,-0.07491358369588852,0.018830768764019012,-0.027891317382454872,0.04744456335902214,0.12746234238147736,0.05233980715274811,0.0700853243470192,0.11202079802751541,0.10439594089984894],[-0.09691032022237778,0.11488866060972214,-0.09377429634332657,0.07604214549064636,-0.03222516551613808,-0.04582219570875168,0.08532698452472687,-0.09312577545642853,-0.15880045294761658,0.12373125553131104,-0.03999248147010803,0.022041838616132736,-0.02188793569803238,-0.012833409942686558,-0.18628187477588654,-0.038141921162605286,0.16154274344444275,0.07522588968276978,-0.07842936366796494,0.02641734480857849,-0.018515612930059433,-0.01566098816692829,-0.049540817737579346,0.23009344935417175,0.09241138398647308,0.016045929864048958,-0.010328720323741436,-0.24988147616386414,0.058143455535173416,-0.020585836842656136,0.015296423807740211,0.038403499871492386,0.10069062560796738,0.10993658751249313,0.06417378783226013,0.005184876266866922,0.11523257195949554,-0.07617013901472092,-0.04431648179888725,0.12628892064094543,0.04185868054628372,-0.02052863873541355,-0.1718273162841797,-0.07808941602706909,-0.017940988764166832,0.014186898246407509,0.03142056614160538,-0.20876550674438477,0.01908406987786293,-0.1327408254146576,-0.048093169927597046,0.10955841094255447,-0.028690123930573463,-0.05682181939482689,-0.1807820349931717,0.24438032507896423,-0.05455661192536354,0.04846169799566269,-0.011561162769794464,-0.10825076699256897,-0.03446552902460098,-0.12239810824394226,-0.01711491122841835,0.05500268563628197,-0.08398593217134476,0.08892735838890076,0.0011279928730800748,-0.1874483823776245,-0.04494393989443779,-0.1444849967956543,-0.00495543098077178,0.18085111677646637,-0.09680232405662537,-0.008232940919697285,0.19005852937698364,0.20804430544376373,0.027782415971159935,0.08499331027269363,0.08656524866819382,0.21274203062057495,0.03350910544395447,0.11063377559185028,-0.1040424033999443,0.13908006250858307,-0.04828580096364021,0.03227228298783302,0.08251377195119858,0.009851610288023949,-0.12616562843322754,0.11616333574056625,0.09882194548845291,-0.11793152242898941,-0.038152534514665604,-0.055917952209711075,0.18392683565616608,-0.028293713927268982,-0.1038505882024765,0.24216821789741516,0.019236844033002853,-0.04956991970539093,0.2424420416355133,-0.03334607928991318,0.11250698566436768,0.3061683177947998,0.22221727669239044,0.13796120882034302,-0.04715760424733162,-0.177357479929924,-0.24485638737678528,-0.13221190869808197,0.01835855096578598,-0.10134706646203995,0.1433328241109848,-0.11642412096261978,0.12172242999076843,-0.10655967146158218,0.05503275245428085,0.04857748746871948,0.2196771204471588,-0.02315332554280758,0.07380388677120209,0.129024937748909,-0.08023540675640106,-0.023454565554857254,-0.022035112604498863,0.04433092847466469,-0.050057657063007355,-0.01331198401749134,-0.01640050858259201,-0.03334773704409599,-0.08670899271965027,0.016181407496333122,-0.10839385539293289,0.05732659250497818,0.0833260789513588,-0.23034149408340454,-0.04945862293243408,0.06532716751098633],[-0.17816601693630219,0.0398886501789093,0.047011133283376694,-0.14895324409008026,-0.09469301998615265,-0.012127683497965336,0.3434005677700043,-0.002014500554651022,-0.08556407690048218,0.091938816010952,-0.07716657966375351,0.064741350710392,0.08374708890914917,0.0992073267698288,0.044348496943712234,0.06943971663713455,-0.0647970512509346,0.10496149212121964,-0.11251243948936462,-0.0011696781730279326,0.18838822841644287,0.11766355484724045,0.2182137817144394,0.08161287754774094,-0.11578822880983353,-0.06330111622810364,-0.0754404217004776,0.05655119940638542,-0.1291835606098175,0.07308852672576904,-0.022624436765909195,-0.22341643273830414,-0.014146332629024982,0.1716352254152298,0.06229550763964653,-0.0071623963303864,0.06551066040992737,0.20277594029903412,0.17449983954429626,-0.1584901213645935,0.0812741369009018,-0.052179791033267975,-0.24997545778751373,-0.02143198251724243,0.009746306575834751,-0.27518990635871887,0.2936570942401886,-0.01205598097294569,0.16354970633983612,-0.19103848934173584,0.18342919647693634,0.1968884915113449,0.09812019020318985,-0.030625030398368835,0.05784820392727852,0.10814184695482254,-0.02968253567814827,0.14553171396255493,-0.012130467221140862,-0.1091267392039299,0.07918542623519897,0.20064358413219452,0.09885730594396591,-0.19939672946929932,-0.2339242696762085,0.008891411125659943,0.05656293034553528,-0.024630356580018997,-0.2351885288953781,-0.12263059616088867,0.16409486532211304,-0.17483049631118774,-0.07725290209054947,0.09897114336490631,0.014697912149131298,-0.1257404386997223,0.06754934042692184,-0.05734788253903389,0.08567440509796143,0.2989722192287445,-0.04449635371565819,0.007510125171393156,-0.05362692475318909,-0.05389206483960152,-0.08689506351947784,-0.07224252820014954,-0.13281267881393433,0.12838539481163025,0.024842580780386925,0.18667466938495636,-0.21028441190719604,0.04902585595846176,0.17013251781463623,-0.17611755430698395,0.2318517416715622,-0.05249914899468422,0.22933122515678406,-0.17658425867557526,0.16800598800182343,-0.07421979308128357,-0.023615840822458267,0.0011130979983136058,0.08124876022338867,0.1310087889432907,0.005530673544853926,0.07439682632684708,0.16696131229400635,0.1141083613038063,0.052205391228199005,0.0994173139333725,0.07350853830575943,-0.23645155131816864,0.034712716937065125,0.11144871264696121,-0.16018220782279968,-0.09315384924411774,-0.20800738036632538,0.1467464566230774,0.1372220516204834,-0.0681062713265419,-0.0995808020234108,-0.07232926040887833,-0.01725642941892147,-0.03334499150514603,-0.13776795566082,-0.11974064260721207,-0.08173706382513046,0.044245798140764236,0.059095412492752075,0.05604860186576843,-0.051546499133110046,-0.0396759919822216,-0.139829620718956,-0.04615052416920662,0.12532801926136017,-0.08215145766735077,0.07388323545455933,0.0864119753241539],[-0.10152868926525116,0.10716079920530319,0.049893397837877274,-0.07048753648996353,0.03126005455851555,0.09367380291223526,-0.05858055502176285,-0.05352643504738808,0.020371267572045326,-0.13379478454589844,0.1710878163576126,-0.09584764391183853,0.12542279064655304,-0.3228969871997833,-0.012958599254488945,-0.09531354159116745,-0.11684563755989075,-0.06157248467206955,-0.2040179967880249,0.027252690866589546,0.23676280677318573,0.017048604786396027,-0.09630273282527924,0.14695525169372559,0.1079014241695404,0.2633078396320343,0.11654640734195709,-0.037895191460847855,-0.033301714807748795,-0.04415041580796242,-0.07824039459228516,0.0019809838850051165,-0.18947337567806244,0.04417378827929497,0.023724474012851715,0.026379728689789772,0.09932554513216019,-0.006452508270740509,0.16938959062099457,-0.1347244381904602,-0.06992456316947937,-0.011447730474174023,0.05224823206663132,0.381864458322525,0.01647745817899704,0.12189800292253494,0.11653599143028259,0.27539077401161194,-0.21872609853744507,0.0428449921309948,0.05742791295051575,-0.012466591782867908,0.052793484181165695,0.22429724037647247,-0.1773723065853119,0.17745544016361237,0.04602323845028877,-0.09810563921928406,-0.02163243480026722,0.10820747166872025,0.09268224984407425,-0.08595290780067444,0.10408750176429749,-0.08004188537597656,0.23352128267288208,-0.11676950752735138,-0.1122254952788353,-0.011679856106638908,0.1608012467622757,-0.2377931773662567,0.15104061365127563,0.0386074036359787,0.10682455450296402,0.126902773976326,0.024561801925301552,0.1586659699678421,0.0019232513150200248,0.02254469320178032,0.0696539431810379,-0.08380533009767532,-0.0990459993481636,-0.03347088769078255,-0.017515018582344055,-0.03419969975948334,0.16880162060260773,-0.06042051315307617,-0.09926076233386993,0.17473313212394714,-0.14281301200389862,-0.026210689917206764,0.28306442499160767,-0.02581784874200821,0.05637518689036369,-0.04333927109837532,0.02051270194351673,-0.18053005635738373,0.055936429649591446,-0.03451059013605118,0.0758022665977478,0.05467776209115982,-0.10798824578523636,-0.12037930637598038,-0.09811970591545105,0.167035773396492,0.055450599640607834,0.0007177782244980335,-0.11715986579656601,-0.006016649305820465,0.00467905355617404,0.0360657274723053,0.02016209438443184,0.10457628965377808,0.11140749603509903,-0.0954204648733139,-0.05557989329099655,0.0061435215175151825,-0.014528274536132812,-0.030302459374070168,-0.06754852086305618,-0.21251480281352997,0.027431517839431763,0.03331384435296059,-0.13209235668182373,0.04685220494866371,-0.005457393825054169,-0.022757945582270622,0.1514737457036972,-0.013855894096195698,-0.19245874881744385,0.14254818856716156,-0.019111085683107376,0.06883247196674347,-0.18432888388633728,0.012675493955612183,0.11554888635873795,-0.10322157293558121,0.006653028540313244,-0.18562819063663483],[0.0694238618016243,-0.2191353291273117,0.2621425986289978,0.1353488713502884,0.058249205350875854,-0.05149633064866066,-0.019448839128017426,0.01843930594623089,0.12435953319072723,-0.009407009929418564,0.06662669032812119,0.014946583658456802,0.06416905671358109,0.17394743859767914,-0.007641666103154421,-0.058426450937986374,0.1557241827249527,-0.1813264638185501,0.09478960186243057,0.1514674872159958,0.10448189824819565,0.12303250283002853,0.03242429345846176,0.19578294456005096,0.018996765837073326,0.07799595594406128,0.07277750223875046,-0.27032360434532166,-0.033324990421533585,-0.10348424315452576,-0.01210380531847477,-0.09466942399740219,-0.10772746801376343,-0.06907455623149872,-0.13474300503730774,0.08784028887748718,-0.12207870185375214,-0.1004914790391922,0.024641212075948715,0.03727129474282265,-0.0318654365837574,0.033897627145051956,-0.19248151779174805,0.11470356583595276,0.029677674174308777,-0.08298057317733765,-0.0831671804189682,0.06649330258369446,0.16572722792625427,0.1796162724494934,-0.012273047119379044,-0.049150630831718445,0.031639061868190765,0.08261248469352722,-0.0894329771399498,-0.11528456211090088,0.006410186178982258,0.07414229959249496,-0.04121817648410797,-0.18890602886676788,0.00927312858402729,-0.09497920423746109,-0.03576374799013138,-0.1529320925474167,-0.08576680719852448,0.07092764973640442,-0.10921576619148254,0.07831590622663498,0.09848182648420334,0.07962208986282349,-0.08463860303163528,-0.062424518167972565,-0.03185788542032242,0.017308032140135765,-0.1407114863395691,0.1614629030227661,0.011450342833995819,-0.13620920479297638,-0.06324805319309235,-0.14544688165187836,-0.010486669838428497,0.06130577623844147,-0.11273320019245148,-0.16321615874767303,0.045476965606212616,-0.12176551669836044,0.067904531955719,0.11847046762704849,0.024523241445422173,0.16499754786491394,0.03809956833720207,0.22259379923343658,-0.007498965598642826,-0.05639737844467163,0.20756796002388,0.11119005084037781,-0.0333905927836895,0.07689306885004044,-0.0885482206940651,0.07019930332899094,0.037349145859479904,0.13346563279628754,0.00952678732573986,0.16280056536197662,-0.19648024439811707,0.05931509658694267,0.04954861104488373,0.2701954245567322,0.19774459302425385,-0.04183271899819374,-0.16450215876102448,-0.07483275234699249,-0.028796926140785217,-0.04052336513996124,-0.003571230685338378,0.021165592595934868,-0.05327876657247543,-0.051469430327415466,-0.14620980620384216,-0.03272360563278198,0.06475014239549637,0.08118927478790283,0.0032879291102290154,0.033025968819856644,-0.09754374623298645,0.10199031978845596,0.0681205540895462,-0.006282091606408358,0.03434041514992714,-0.133661687374115,0.19112056493759155,0.03583379089832306,-0.04291551187634468,0.10577400028705597,0.1538315862417221,-0.026782067492604256,0.04035792872309685,-0.29484838247299194],[0.08375298231840134,0.34485045075416565,-0.016680220142006874,-0.2046779841184616,-0.04186216741800308,-0.021530844271183014,0.033314719796180725,-0.3071075975894928,-0.23601600527763367,-0.21427372097969055,-0.14996148645877838,0.07216024398803711,-0.27051857113838196,0.060873694717884064,0.18399591743946075,0.32387396693229675,-0.2349810153245926,-0.22280871868133545,-0.1118992269039154,-0.045221440494060516,0.1425739973783493,-0.08257025480270386,-0.054251570254564285,-0.24803662300109863,0.24830283224582672,-0.10707521438598633,-0.188913494348526,0.00022679523681290448,0.01460705604404211,0.10328078269958496,-0.1883988082408905,-0.062292709946632385,-0.1070464700460434,0.01507346611469984,0.19535885751247406,-0.080287866294384,-0.13521558046340942,-0.1007203459739685,0.11772138625383377,-0.1516435146331787,-0.30483052134513855,0.009697013534605503,-0.09972517192363739,0.123216412961483,0.017983442172408104,-0.04793332517147064,0.13974818587303162,0.020136075094342232,0.15962401032447815,-0.20428980886936188,-0.03764021396636963,-0.010467366315424442,0.003999354783445597,0.05791034922003746,-0.1519329696893692,0.039079390466213226,-0.04912881180644035,-0.06873662024736404,0.05513729527592659,-0.11139240860939026,-0.0023479992523789406,0.08829088509082794,-0.14831970632076263,-0.12175800651311874,-0.14214138686656952,0.14835034310817719,-0.062204811722040176,-0.00732045341283083,-0.0017973434878513217,0.08573292195796967,0.14766402542591095,0.08165471255779266,0.13512831926345825,0.009272930212318897,0.07543959468603134,-0.010039072483778,-0.06151994690299034,0.11296769976615906,-0.048295408487319946,0.007193026132881641,0.0859600231051445,-0.30642250180244446,-0.12341668456792831,-0.006742879748344421,-0.20594070851802826,-0.19452117383480072,-0.12157019227743149,-0.3299447298049927,0.09539961814880371,0.026575103402137756,-0.18505987524986267,-0.2339460849761963,-0.02263333834707737,-0.06974130123853683,0.027812685817480087,0.022116560488939285,-0.010088881477713585,-0.09869279712438583,0.030316365882754326,0.005353645887225866,0.11920851469039917,0.29512137174606323,-0.03995438292622566,-0.0815400704741478,-0.04136991500854492,0.043386250734329224,0.026849592104554176,-0.1209312379360199,0.11618447303771973,0.010163814760744572,0.23773176968097687,0.015996349975466728,-0.05415010452270508,-0.22182220220565796,0.2069362998008728,0.17524507641792297,0.07360487431287766,-0.07230675965547562,0.034260254353284836,0.17832057178020477,-0.1229560524225235,0.2693956792354584,-0.21272850036621094,-0.00854394119232893,-0.046829771250486374,0.17106026411056519,-0.2268776297569275,-0.08884306252002716,0.0761999562382698,-0.12191492319107056,-0.06839215010404587,-0.038497865200042725,0.018492594361305237,-0.11937499791383743,-0.2544878125190735,0.09248334169387817,0.01575172320008278,-0.03030208684504032],[0.05124950408935547,-0.07088848203420639,-0.012679589912295341,0.21604065597057343,-0.19094470143318176,0.021713150665163994,-0.006473326589912176,0.1450231671333313,-0.12741100788116455,-0.00348075432702899,-0.049477726221084595,0.09272481501102448,-0.251769095659256,-0.03484530374407768,0.2843817174434662,-0.11301074177026749,0.02012915164232254,-0.06432793289422989,-0.07977955043315887,0.019688040018081665,-0.04846961423754692,0.050162423402071,0.03950938209891319,-0.013968444429337978,0.08012112230062485,-0.10065969824790955,0.09687098860740662,0.1615995615720749,0.09530637413263321,-0.09322548657655716,-0.0020922443363815546,-0.023545173928141594,-0.03001728467643261,-0.10406895726919174,-0.03404274210333824,-0.07008513808250427,0.044635433703660965,0.18960684537887573,-0.09831570088863373,0.18557099997997284,-0.05415889248251915,0.1258469671010971,-0.009620417840778828,0.15182244777679443,0.18754343688488007,-0.0022195230703800917,-0.06838081777095795,-0.016260411590337753,-0.038924116641283035,-0.2003394216299057,0.20641553401947021,0.3131786584854126,-0.13633105158805847,-0.17404894530773163,-0.10014954209327698,-0.07657106220722198,-0.0957815945148468,0.06450563669204712,-0.007764354348182678,0.06622767448425293,-0.1690332293510437,-0.06415794044733047,0.09359573572874069,0.07515057921409607,0.08793296664953232,-0.12377192825078964,-0.16977359354496002,-0.03650292754173279,0.12239790707826614,-0.0402136854827404,0.05638798326253891,0.07728628069162369,0.010841804556548595,-0.10638399422168732,-0.003699279623106122,-0.054097868502140045,0.12026816606521606,-0.03889606520533562,-0.18049970269203186,0.040132030844688416,-0.07388841360807419,-0.20889297127723694,0.12804803252220154,-0.1543237864971161,0.05448577553033829,-0.050529103726148605,-0.2552051544189453,0.001279169344343245,0.11395511776208878,-0.13618651032447815,0.19811032712459564,0.04955679550766945,0.010874751023948193,-0.007936674170196056,0.10173029452562332,-0.08489446341991425,0.11458645015954971,-0.004343011416494846,0.06015166640281677,0.0375252328813076,0.00401622848585248,-0.08048578351736069,-0.08570296317338943,-0.15891402959823608,-0.05373668670654297,-0.14108511805534363,0.08645837008953094,0.08647043257951736,-0.09277716279029846,0.01816941611468792,-0.03708190098404884,0.05678229779005051,-0.018030719831585884,0.016883067786693573,-0.005180484615266323,-0.130621075630188,-0.18681679666042328,0.053375523537397385,-0.01892516389489174,-0.09394770115613937,-0.019395874813199043,0.06076718866825104,0.0697638988494873,0.14929963648319244,0.06629166752099991,0.06455961614847183,-0.3702135384082794,0.10583358258008957,0.06236979737877846,-0.03736686706542969,0.36417415738105774,-0.020597290247678757,-0.16942444443702698,0.11668621003627777,0.024226663634181023,-0.0481148287653923,-0.07356253266334534,-0.04847867786884308],[0.030896954238414764,-0.08403339236974716,-0.0432259701192379,-0.023774506524205208,-0.10221796482801437,0.08876734226942062,0.22812160849571228,-0.047770485281944275,-0.10335330665111542,0.07311447709798813,-0.098802350461483,-0.1336422711610794,0.08273713290691376,-0.005273828748613596,0.044777762144804,0.028260961174964905,0.12861864268779755,-0.27780187129974365,0.018827296793460846,0.19586776196956635,0.12218272686004639,0.11631976068019867,0.04770570248365402,-0.12533095479011536,0.07075928896665573,-0.19108639657497406,-0.04500383883714676,0.15597403049468994,-0.052502915263175964,0.08166723698377609,-0.152667835354805,-0.04449321702122688,0.10330760478973389,0.022718023508787155,0.10224892944097519,-0.01461776252835989,0.16155025362968445,-0.2742941677570343,-0.11542646586894989,-0.07514483481645584,-0.06789809465408325,0.15986663103103638,-0.04261258617043495,-0.07873909920454025,0.08497900515794754,-0.08783844858407974,0.014461388811469078,-0.0656953677535057,-0.08008790016174316,0.16464926302433014,-0.17651638388633728,0.08556319773197174,-0.30918508768081665,-0.1873190701007843,-0.1671631932258606,0.037582386285066605,-0.04165372997522354,-0.1472143530845642,-0.11185716092586517,-0.05169352516531944,0.03585987910628319,0.121919184923172,0.03106493130326271,-0.2621877193450928,0.04627331346273422,-0.11950773745775223,0.11845007538795471,-0.1351393610239029,0.15083730220794678,0.014278019778430462,0.09508881717920303,0.1980520635843277,0.12103399634361267,0.025482818484306335,-0.27694687247276306,0.10058656334877014,0.09562736749649048,0.011168268509209156,-0.18604300916194916,0.01317695714533329,-0.08290398120880127,0.04700729250907898,0.17716331779956818,-0.008689524605870247,-0.197468563914299,-0.16515828669071198,-0.2044372856616974,-0.09805090725421906,-0.04605688527226448,0.004725830163806677,0.1401348114013672,0.12353985756635666,0.07532796263694763,-0.038452375680208206,0.1238536462187767,-0.01588432863354683,-0.05713200941681862,0.021913843229413033,-0.03643966466188431,-0.04447201266884804,-0.032214369624853134,-0.023583106696605682,0.14018839597702026,0.18221446871757507,0.02261851541697979,0.05352402850985527,0.001213866751641035,0.3845117688179016,0.00175618682987988,-0.16092067956924438,0.10894893109798431,-0.13870082795619965,0.26466289162635803,-0.10499705374240875,0.06986492872238159,0.24677740037441254,-0.09191180020570755,-0.046248506754636765,-0.17630411684513092,-0.1360597461462021,-0.013694076798856258,0.16099874675273895,0.2150002121925354,-0.2053430676460266,0.03658229112625122,0.07376090437173843,0.18604989349842072,-0.0908292755484581,0.006208848673850298,-0.0030081993900239468,-0.39322182536125183,0.1516503095626831,-0.014040753245353699,-0.03785480186343193,0.17279773950576782,-0.01634831167757511,0.02273372933268547,-0.1672862321138382],[0.12193260341882706,0.15340684354305267,-0.12138260900974274,-0.04248465225100517,0.23221293091773987,-0.25394386053085327,-0.21399930119514465,-0.06181662529706955,0.029113927856087685,0.016653236001729965,-0.03105366788804531,-0.18511544167995453,-0.378760427236557,0.19476386904716492,0.06607312709093094,-0.2642366886138916,-0.0737643837928772,0.04429851099848747,0.13663068413734436,-0.04450629651546478,-0.2560881972312927,0.048490010201931,-0.14603924751281738,-0.017752744257450104,-0.10724374651908875,0.12782293558120728,-0.012057702988386154,-0.19046929478645325,0.05832811817526817,0.11208738386631012,0.007994708605110645,0.011481503956019878,-0.0005104652955196798,0.06162122264504433,0.17700713872909546,0.1926904320716858,0.13060100376605988,-0.07469475269317627,-0.03853466361761093,0.024002689868211746,-0.1013951450586319,0.06388632953166962,-0.208269864320755,-0.052953921258449554,0.18178942799568176,0.015814103186130524,-0.0004536975466180593,0.19092388451099396,0.12911061942577362,-0.09196886420249939,0.026450322940945625,-0.1963692456483841,-0.1679350584745407,-0.039556726813316345,-0.16289125382900238,0.03641265630722046,0.013622840866446495,0.027187194675207138,0.29300498962402344,-0.389107346534729,0.011854846030473709,-0.015130128711462021,0.08217982947826385,0.07234427332878113,0.29688340425491333,0.07444611936807632,0.030194923281669617,-0.1568758189678192,0.08496683090925217,0.18295902013778687,-0.025135869160294533,-0.10700515657663345,0.0011458543594926596,0.12550370395183563,-0.08560696244239807,0.026734841987490654,-0.020244501531124115,-0.08977352827787399,0.06855998188257217,-0.07374979555606842,-0.08612672984600067,0.25625133514404297,-0.16773900389671326,-0.047045834362506866,-0.0969877615571022,0.10838624089956284,0.1024848073720932,0.007886971347033978,-0.06737400591373444,0.1751510053873062,-0.10813367366790771,-0.015819333493709564,0.12086933106184006,-0.03068152628839016,0.05533411726355553,-0.010340236127376556,0.19317960739135742,0.002380003919824958,0.03293799236416817,-0.23309792578220367,-0.25875088572502136,-0.05651472881436348,-0.030345337465405464,0.031421005725860596,0.08963928371667862,-0.0639849379658699,0.010288276709616184,0.007616794668138027,0.20001481473445892,0.2151283472776413,-0.04531988129019737,-0.09925613552331924,-0.00484201917424798,0.06469091773033142,-0.11925174295902252,0.16155000030994415,-0.07391949743032455,-0.007724745199084282,0.00022766616893932223,0.1317019909620285,-0.05111830681562424,0.06350734829902649,-0.08133238554000854,-0.12453567981719971,-0.2966773808002472,0.07082530856132507,-0.042248617857694626,-0.19212277233600616,-0.03921198844909668,-0.07503721117973328,0.043002352118492126,0.05285896360874176,-0.14332334697246552,0.042596668004989624,-0.17199566960334778,0.06963417679071426,0.22010765969753265,0.17280207574367523],[0.02427092380821705,0.006110628135502338,0.15376661717891693,-0.021902943029999733,-0.033762287348508835,0.16863508522510529,0.115689218044281,-0.11659671366214752,0.09221766144037247,-0.08041349053382874,0.12875989079475403,-0.15806567668914795,-0.08982570469379425,-0.09932635724544525,0.09225339442491531,-0.16849267482757568,0.08309349417686462,0.09927813708782196,0.2070649266242981,-0.05275120213627815,0.12120968103408813,0.15054622292518616,0.03002845123410225,0.12211708724498749,0.1187678799033165,-0.09665918350219727,-0.05451468378305435,-0.005778039339929819,-0.13661570847034454,-0.0650835633277893,0.20946623384952545,-0.026724547147750854,0.0854630172252655,0.047832176089286804,-0.022346852347254753,-0.08329527825117111,0.16108249127864838,-0.02754230983555317,-0.18592894077301025,-0.1401519924402237,0.20068669319152832,0.05796434357762337,-0.013898518867790699,0.032140761613845825,0.021030958741903305,0.0054699089378118515,0.010859861969947815,-0.10441811382770538,-0.13083431124687195,-0.10516243427991867,-0.07505898922681808,-0.005447660572826862,0.021680651232600212,-0.20986662805080414,0.0012662616791203618,0.12105166167020798,0.03571261465549469,-0.11908630281686783,-0.05135408788919449,-0.06899978965520859,0.06357832252979279,-0.04743540659546852,-0.03751117363572121,0.0562758594751358,0.1342112123966217,0.08339142054319382,0.05053213611245155,0.061446044594049454,0.25057274103164673,-0.010582687333226204,-0.16546478867530823,-0.03388964757323265,-0.11651989817619324,0.145795539021492,0.03998008742928505,-0.0628487765789032,-0.03990182653069496,-0.2520478069782257,-0.032597076147794724,0.18033219873905182,0.026571592316031456,0.2273227721452713,0.14631253480911255,-0.12786366045475006,0.08110423386096954,-0.15073569118976593,-0.0211165901273489,0.08753771334886551,0.15791696310043335,-0.2788925766944885,-0.15714149177074432,0.04043144732713699,0.02573065645992756,0.009023827500641346,-0.1327836811542511,0.06160357594490051,-0.0017244962509721518,-0.1506887674331665,0.05985472723841667,-0.08805344253778458,-0.07256503403186798,-0.03503715246915817,-0.17707069218158722,0.05681284889578819,0.05079541355371475,0.05389837175607681,-0.13627055287361145,-0.026121338829398155,0.020064255222678185,0.16726869344711304,0.17831583321094513,0.15004196763038635,0.00038613719516433775,0.02156614139676094,-0.1075294017791748,0.0007692422950640321,-0.10060414671897888,-0.07963211089372635,0.3224610984325409,0.030813582241535187,-0.08331353962421417,-0.17800883948802948,0.028719156980514526,-0.0035029067657887936,0.14745832979679108,-0.1599627584218979,-0.08096234500408173,0.1407642662525177,0.09893344342708588,0.15158027410507202,0.13328856229782104,0.04295557364821434,-0.011058647185564041,-0.00829284731298685,0.09662547707557678,0.054936252534389496,-0.17845094203948975,0.22500936686992645],[0.026991672813892365,0.06790482252836227,-0.07142216712236404,0.07971103489398956,0.16039155423641205,-0.019106002524495125,0.037437260150909424,0.23231330513954163,0.11839206516742706,0.04961115121841431,-0.15186013281345367,-0.07371306419372559,-0.08241824060678482,-0.18819618225097656,-0.09686993062496185,-0.14318037033081055,0.20043471455574036,-0.06681250035762787,0.16242603957653046,0.2812449336051941,0.02620559185743332,0.04283557087182999,0.006574707571417093,-0.03536294773221016,0.056898489594459534,-0.14607863128185272,0.02582797035574913,-0.1741364747285843,0.11057234555482864,-0.07261522859334946,-0.15276265144348145,-0.1699366718530655,0.19888539612293243,-0.1662142425775528,-0.09266889095306396,-0.06721384078264236,-0.11202413588762283,0.009868215769529343,-0.01244561467319727,-0.07971369475126266,-0.09884079545736313,0.11052189767360687,-0.052074018865823746,-0.13742539286613464,-0.027390502393245697,0.009081938304007053,0.05629028379917145,-0.01850096881389618,-0.03928116708993912,0.026986297219991684,-0.0248884204775095,0.13695526123046875,-0.028429090976715088,-0.03759348765015602,-0.10789033770561218,0.058661896735429764,0.11089623719453812,0.12971550226211548,0.025804156437516212,0.04285905510187149,0.06123538687825203,-0.17751234769821167,-0.09145495295524597,-0.050473086535930634,0.22050850093364716,-0.1575121134519577,0.0021319000516086817,-0.0013581973034888506,-0.11491017788648605,-0.025579189881682396,-0.04974184185266495,0.01116744801402092,-0.04218272864818573,0.011659680865705013,-0.13788434863090515,-0.0294109508395195,-0.13750839233398438,-0.06055941805243492,-0.051546890288591385,-0.059337206184864044,0.2072683423757553,-0.14353087544441223,-0.10257413238286972,-0.025277895852923393,-0.054119277745485306,-0.01260257326066494,-0.02331998571753502,0.03848431259393692,-0.011172640137374401,0.010997775942087173,0.04290180653333664,-0.06512153893709183,0.13208778202533722,0.04575581103563309,-0.0663876011967659,0.14112670719623566,-0.0010290851350873709,-0.15014740824699402,-0.08990240842103958,-0.0748608335852623,-0.06767351925373077,0.054449111223220825,0.021590514108538628,-0.18262071907520294,0.15964488685131073,-0.04848090186715126,-0.05438089370727539,-0.09784621000289917,-0.11031446605920792,-0.04966466501355171,-0.22147861123085022,0.053139183670282364,-0.029615217819809914,0.09909730404615402,0.1303589940071106,0.05839462950825691,-0.1715131402015686,0.07840559631586075,-0.24942244589328766,0.3023388981819153,-0.11336739361286163,0.18595658242702484,-0.0037556097377091646,-0.0850938931107521,-0.03679145500063896,0.22967562079429626,0.1645890176296234,-0.13493414223194122,-0.12219800055027008,-0.041133806109428406,-0.07671347260475159,0.06815151870250702,-0.05938287451863289,0.020882638171315193,-0.09824942797422409,-0.09756506979465485,0.11775751411914825,0.040429629385471344],[-0.08445258438587189,-0.03495512530207634,-0.12289030849933624,0.3386807441711426,0.010214056819677353,-0.06699354201555252,0.03783733770251274,0.25102731585502625,-0.21980048716068268,-0.06421378254890442,0.020880429074168205,-0.016432488337159157,-0.15651200711727142,-0.0317288413643837,0.045106302946805954,-0.09941814094781876,0.07146399468183517,0.04018380120396614,-0.13001888990402222,0.10072921216487885,-0.021998077630996704,0.08464370667934418,0.14231280982494354,-0.022900821641087532,0.0010013290448114276,-0.015442736446857452,0.014820237644016743,0.0001634880609344691,-0.09074532985687256,-0.1509050875902176,0.02237173356115818,-0.048222072422504425,-0.10582306236028671,-0.12062237411737442,0.07751018553972244,0.11498616635799408,-0.08029589802026749,0.03778446465730667,-0.22812296450138092,0.1577342003583908,0.09289959073066711,-0.0384603776037693,-0.06824661791324615,-0.09443049877882004,-0.05672278627753258,0.05103648081421852,0.10936709493398666,0.1543295830488205,0.0016377909341827035,0.14565405249595642,0.07284417003393173,-0.0516967698931694,0.033344242721796036,-0.22754545509815216,-0.1782846301794052,0.12721329927444458,0.16291189193725586,-0.19595064222812653,0.18809077143669128,-0.06774262338876724,0.06135284900665283,0.07384274899959564,0.0063609653152525425,-0.042200617492198944,-0.2220645695924759,-0.15301194787025452,0.2472512125968933,-0.10562942922115326,-0.008180816657841206,0.15397264063358307,0.019914181903004646,0.1710214763879776,0.1410517692565918,-0.1035277396440506,-0.10270293056964874,0.081544429063797,-0.041300609707832336,-0.0975382849574089,0.016518432646989822,-0.17298577725887299,0.11915736645460129,0.1662886142730713,0.09137879312038422,0.04362282529473305,0.14376915991306305,0.040945764631032944,0.05455091968178749,0.016243062913417816,-0.0005108545883558691,-0.20723070204257965,-0.017672378569841385,-0.3466986417770386,-0.11384646594524384,0.0007496205507777631,0.025633929297327995,-0.13256992399692535,-0.22400403022766113,0.01109826099127531,0.06196841225028038,-0.2410561442375183,0.011518445797264576,-0.0679018646478653,0.10356741398572922,0.004918388556689024,0.08020760118961334,0.26553094387054443,-0.04549160972237587,-0.025816261768341064,0.1548852026462555,0.10814005881547928,-0.14365193247795105,-0.0020873756147921085,0.05662737414240837,-0.14554207026958466,-0.2070452719926834,0.08559693396091461,0.1088787391781807,-0.09626620262861252,0.07391854375600815,0.20203235745429993,-0.12810799479484558,0.37954026460647583,0.043165482580661774,-0.08520744740962982,0.19848483800888062,0.15356557071208954,-0.13416779041290283,-0.16104702651500702,-0.029811222106218338,0.06052359193563461,0.13764029741287231,0.3024101257324219,0.04753013700246811,-0.0851578637957573,-0.012756412848830223,-0.13441352546215057,0.09407747536897659,-0.12667877972126007],[0.18547877669334412,-0.007804177235811949,0.05867645889520645,-0.0012000331189483404,0.06478554010391235,-0.06360137462615967,0.13917049765586853,0.10457240045070648,-0.030776232481002808,-0.19402466714382172,-0.01282324269413948,-0.11251235008239746,-0.07458005845546722,0.061233777552843094,-0.10353249311447144,-0.0679619312286377,-0.032474905252456665,0.08231085538864136,-0.14912697672843933,-0.12566900253295898,-0.010427320376038551,-0.03959926217794418,0.05511251837015152,0.0512247160077095,-0.07485786080360413,-0.05906785652041435,0.06219811365008354,0.04164909943938255,0.044561658054590225,-0.04329710081219673,-0.0015773094492033124,0.11634530127048492,-0.03390442207455635,-0.024071713909506798,-0.031320758163928986,-0.233949214220047,-0.12098416686058044,0.04741356149315834,-0.30706822872161865,0.23895692825317383,0.06142091751098633,-0.026578089222311974,0.22443971037864685,-0.1306801587343216,-0.1013762429356575,-0.052403971552848816,-0.08907615393400192,-0.03584100306034088,0.14498946070671082,0.15529069304466248,-0.016990922391414642,0.04892266169190407,-0.11140323430299759,-0.0401146300137043,-0.05964634194970131,0.10176440328359604,0.13000208139419556,-0.0777929350733757,-0.014206616207957268,-0.09330657124519348,-0.27979376912117004,0.03615664690732956,-0.007946131750941277,0.19293594360351562,-0.07437009364366531,0.02636251226067543,-0.1237148717045784,0.21817998588085175,-0.041572634130716324,0.038917116820812225,0.2401985079050064,-0.0029596341773867607,0.07255339622497559,-0.04660908505320549,-0.02875349670648575,0.12957324087619781,-0.003950352780520916,0.13922476768493652,0.09415046870708466,-0.2400270402431488,-0.09529021382331848,-0.2833814322948456,-0.011741121299564838,0.0017174119129776955,-0.002140382071956992,0.08817199617624283,-0.16899651288986206,0.11781870573759079,0.04083089530467987,-0.0904850885272026,0.07623826712369919,-0.05230989307165146,0.009854835458099842,0.0584576278924942,-0.001592730637639761,-0.12079402804374695,0.11243215203285217,0.09771231561899185,0.06213010475039482,-0.13717426359653473,-0.18042735755443573,-0.02761765383183956,-0.10433772951364517,0.08235108852386475,-0.09982983022928238,0.3251567482948303,0.055056340992450714,0.15184840559959412,0.14913734793663025,0.09164252132177353,-0.02205829881131649,-0.014023978263139725,0.06087465584278107,0.0828484520316124,0.007430772762745619,0.046102263033390045,0.12017025798559189,0.2929362952709198,0.10774717479944229,-0.02643742598593235,-0.08121427893638611,0.041455212980508804,-0.12235702574253082,-0.14602701365947723,-0.012275278568267822,0.08287877589464188,-0.021166851744055748,0.03404495120048523,-0.19151107966899872,0.2442389726638794,0.08602296561002731,0.04309383034706116,0.045478541404008865,0.0008807769627310336,0.011229921132326126,-0.16493509709835052,-0.09760359674692154,-0.16901175677776337],[0.21347850561141968,0.07076194882392883,-0.03103778138756752,0.15120829641819,-0.03625965490937233,0.011028550565242767,0.06569796055555344,0.014785273000597954,-0.1889125108718872,0.28525060415267944,-0.16025392711162567,-0.02984672784805298,-0.14521652460098267,0.11899024993181229,-0.011972824111580849,-0.05532601848244667,-0.04364459961652756,-0.15551422536373138,0.09331308305263519,-0.09890056401491165,-0.1466149389743805,-0.023605773225426674,0.020672501996159554,0.09503428637981415,0.1426488310098648,-0.07514061778783798,-0.12788183987140656,-0.0890822783112526,-0.13914857804775238,-0.0598728209733963,0.15825322270393372,0.0026695835404098034,0.09012854099273682,-0.07484295964241028,0.22830547392368317,-0.04268985986709595,-0.06997718662023544,0.0033560132142156363,0.0033642533235251904,0.037259262055158615,-0.12526246905326843,0.14113637804985046,-0.03250511363148689,-0.16063041985034943,0.02654162608087063,-0.13454227149486542,0.110232874751091,0.13729122281074524,0.16355599462985992,-0.19163742661476135,-0.11754415929317474,0.11842053383588791,0.035725999623537064,0.06154765188694,-0.14355507493019104,0.1233244463801384,0.06124058738350868,-0.13222937285900116,0.005543350707739592,0.035957854241132736,-0.0918276309967041,0.15786653757095337,-0.1544371098279953,0.05982459336519241,-0.033655934035778046,0.1788819432258606,0.2483244389295578,-0.2407192587852478,-0.15287171304225922,0.1365235447883606,-0.035095397382974625,0.10400203615427017,0.01514642033725977,-0.05057262256741524,0.16662433743476868,-0.2607533931732178,-0.032341502606868744,0.0597398541867733,0.30760622024536133,-0.06907095015048981,-0.0526818186044693,-0.04607941955327988,0.07842990010976791,0.027373971417546272,0.00025187464780174196,0.06503716111183167,-0.17822720110416412,-0.0446467250585556,0.0940406322479248,-0.015685314312577248,0.03440764918923378,0.17398272454738617,0.2947472035884857,0.09319712221622467,-0.11722640693187714,-0.19031588733196259,0.293018102645874,0.06429769098758698,0.06297572702169418,-0.022181015461683273,0.16838155686855316,0.11890919506549835,-0.15626364946365356,-0.3476131558418274,-0.032232120633125305,0.10490340739488602,0.011069808155298233,-0.05546737089753151,0.16709087789058685,-0.11371774971485138,0.16836024820804596,0.013878654688596725,-0.026570284739136696,-0.0530371218919754,0.05288717895746231,-0.14582835137844086,-0.050307054072618484,-0.06621245294809341,-0.33647218346595764,0.014882916584610939,-0.11175722628831863,-0.012611426413059235,-0.1613641232252121,0.0909871757030487,-0.03785707801580429,0.10928349196910858,-0.05781867355108261,-0.06660958379507065,-0.09069900959730148,0.09226999431848526,-0.005330588202923536,-0.1694636195898056,-0.011005595326423645,0.10108067095279694,-0.1605243980884552,-0.14338389039039612,-0.07966329157352448,0.11406596750020981],[0.07688440382480621,-0.011000123806297779,-0.2461942434310913,-0.17086666822433472,0.12610656023025513,0.06659212708473206,0.16232627630233765,-0.1380176991224289,0.010525240562856197,-0.2938503921031952,-0.3334777355194092,0.104669488966465,-0.005268794484436512,-0.05346593260765076,-0.0526513010263443,0.02299186773598194,0.06287949532270432,-0.18910376727581024,0.059871185570955276,-0.03445125371217728,-0.11326580494642258,0.2858671247959137,0.0851149931550026,0.09595335274934769,0.16830545663833618,-0.015367009676992893,0.11569391936063766,0.06931651383638382,-0.014066462405025959,-0.010570978745818138,-0.08372607082128525,-0.012803466990590096,0.08266449719667435,0.030650585889816284,-0.07184197753667831,-0.11577305197715759,-0.17865759134292603,-0.0009927594801411033,-0.22874410450458527,-0.18623535335063934,0.09247451275587082,0.10901613533496857,-0.03554762899875641,0.07550059258937836,-0.11103975027799606,-0.18974733352661133,-0.12308435142040253,0.10183995217084885,-0.057528045028448105,-0.021773751825094223,-0.094578817486763,0.12415234744548798,0.01922876574099064,0.11198866367340088,0.2371804416179657,-0.03846803307533264,0.009792540222406387,0.026272902265191078,0.04116463661193848,-0.15274028480052948,-0.03857124224305153,-0.09355314821004868,0.13534604012966156,-0.16857555508613586,0.0022142198868095875,0.09845150262117386,-0.026390675455331802,-0.20197230577468872,0.047466110438108444,0.02142408862709999,0.0873323306441307,-0.025387456640601158,-0.1261986792087555,-0.0807085633277893,-0.011330130510032177,-0.007753212470561266,-0.05227527767419815,0.10333875566720963,-0.1628621369600296,0.19540582597255707,-0.06616199016571045,0.057894621044397354,-0.04696781188249588,0.20001721382141113,0.10030534863471985,-0.1901158094406128,-0.0004410981491673738,-0.097354456782341,0.010236275382339954,0.17264972627162933,-0.02519071288406849,-0.008173799142241478,-0.034085992723703384,0.0061954655684530735,0.0957237258553505,-0.05114702135324478,-0.1345420628786087,-0.04809153079986572,0.08389836549758911,-0.23318304121494293,-0.0728856772184372,0.001339251408353448,0.01367610041052103,0.09878437221050262,-0.07210011035203934,0.13354457914829254,-0.10766232758760452,0.023676292970776558,-0.05250103399157524,0.07387406378984451,0.09732480347156525,0.11201807111501694,0.07221018522977829,-0.03479745239019394,-0.15802405774593353,0.16770140826702118,-0.2508638799190521,-0.1568889021873474,-0.05636279657483101,-0.1907838135957718,0.30549442768096924,0.10711195319890976,0.20725809037685394,-0.015459633432328701,0.06288903951644897,0.08842866122722626,0.07981454581022263,-0.0451137013733387,-0.035727713257074356,-0.17619113624095917,-0.22893115878105164,0.23365843296051025,0.06816137582063675,-0.15566521883010864,-0.07618340849876404,0.02151467464864254,-0.0646776482462883,0.0679241418838501],[-0.005551815032958984,-0.17215785384178162,0.024279974400997162,-0.10394322872161865,-0.1941000074148178,-0.19364193081855774,0.050817105919122696,-0.08437305688858032,0.08147014677524567,-0.03218671679496765,-0.02453690767288208,0.06138010323047638,-0.03515734523534775,-0.000516013999003917,0.22961671650409698,0.036380622535943985,-0.1523151397705078,-0.07412794977426529,-0.12460782378911972,0.09375763684511185,-0.030141539871692657,-0.17504319548606873,0.09022656828165054,-0.020876096561551094,0.1233886256814003,0.14443445205688477,0.044531386345624924,0.18120981752872467,-0.1429070085287094,-0.08342742919921875,0.12239554524421692,0.04020342230796814,-0.12415549159049988,0.023377779871225357,0.30247926712036133,-0.1035914346575737,-0.06736883521080017,-0.1994640976190567,-0.056958284229040146,0.23258717358112335,0.001708534313365817,0.15399178862571716,0.13912764191627502,-0.016766926273703575,0.13967126607894897,-0.1229298785328865,-0.10342078655958176,0.15667884051799774,-0.12280391901731491,-0.0854267030954361,0.06044184789061546,-0.021871913224458694,0.041340820491313934,0.09979716688394547,0.06562896817922592,0.037100307643413544,0.029504617676138878,-0.022158168256282806,-0.21766149997711182,-0.05207127705216408,-0.04213729128241539,0.04006299749016762,0.0639377161860466,-0.027207456529140472,0.19326342642307281,-0.1812012642621994,0.14425499737262726,0.08788205683231354,0.05672794207930565,0.050328854471445084,-0.09792603552341461,-0.05994740501046181,0.000014308820937003475,0.00777926342561841,-0.07484982907772064,-0.008974007330834866,0.033448509871959686,-0.18527139723300934,-0.05699143186211586,0.11344994604587555,-0.04389415681362152,-0.018666759133338928,0.24895663559436798,-0.03878270089626312,0.042554713785648346,0.1851140409708023,-0.10258355736732483,-0.04351373016834259,0.0279635488986969,0.10071167349815369,0.1336175948381424,-0.13968181610107422,0.2682304382324219,-0.17073942720890045,0.06097588315606117,0.12309910356998444,-0.3354700803756714,-0.08254887163639069,-0.14283214509487152,0.07421794533729553,0.12119020521640778,0.020297082141041756,0.05734210088849068,0.08138135075569153,0.03882705420255661,-0.09959781914949417,-0.033272601664066315,0.06836709380149841,0.09059475362300873,-0.18839006125926971,0.0130973095074296,0.07080376893281937,0.09878392517566681,0.24628110229969025,0.12350079417228699,0.0891142264008522,0.02873423509299755,-0.11095692217350006,0.029191305860877037,-0.0995190218091011,0.05725163221359253,0.0654945969581604,-0.060378752648830414,0.02909252792596817,0.10319861024618149,0.16402506828308105,-0.1686171293258667,0.061208389699459076,0.10260047018527985,0.27720069885253906,0.0007032040157355368,0.16805849969387054,0.015050015412271023,0.21347543597221375,-0.022912507876753807,-0.08386638760566711,0.18064382672309875,-0.20610342919826508],[0.07892651855945587,-0.19466985762119293,-0.09396880865097046,0.0991624966263771,0.12379619479179382,-0.04138212651014328,-0.10395999252796173,-0.007353376131504774,0.13946422934532166,0.019633561372756958,0.08235114067792892,-0.07026427984237671,-0.024667339399456978,-0.17356526851654053,0.173484206199646,0.08432555198669434,-0.02304769493639469,-0.08361842483282089,-0.05758596211671829,0.07991280406713486,0.37624868750572205,0.019431475549936295,-0.06022263318300247,-0.25385263562202454,-0.1993485540151596,-0.03196461871266365,-0.11165941506624222,-0.03810333460569382,0.13061729073524475,0.06900469958782196,0.03224854916334152,-0.1773158311843872,0.11082413792610168,0.07211858034133911,0.09697083383798599,0.2574790418148041,0.03751882165670395,0.0503937304019928,-0.02432478778064251,0.14500276744365692,0.11078871041536331,0.0818493589758873,-0.06758685410022736,0.19705313444137573,-0.00011725705553544685,-0.04516128823161125,-0.04308575764298439,-0.015150032006204128,-0.03892507404088974,0.1841411143541336,-0.2190246880054474,0.136286199092865,-0.0012257377384230494,0.029519326984882355,-0.3152408301830292,0.03625797480344772,0.06291358172893524,0.12084650993347168,0.03001241572201252,-0.16407160460948944,0.08116913586854935,0.039208877831697464,-0.05367083474993706,0.09580723941326141,0.007874242030084133,-0.018982309848070145,-0.13885778188705444,0.02648676559329033,0.004693326074630022,-0.3180842697620392,0.050473615527153015,0.060058120638132095,-0.05232798680663109,0.20271418988704681,0.14460204541683197,-0.04651012271642685,-0.11682458221912384,0.050216641277074814,0.045132115483284,-0.16735652089118958,0.18282106518745422,-0.1063702329993248,0.08134619146585464,0.0833638459444046,-0.0554230622947216,-0.08680523931980133,-0.03535957261919975,-0.03311002254486084,-0.022112397477030754,0.14668691158294678,0.01061720959842205,-0.15586785972118378,-0.07307293266057968,0.0927969217300415,-0.04492928832769394,0.06454911828041077,-0.008439957164227962,0.22530364990234375,-0.029605455696582794,-0.04505494609475136,-0.05527137219905853,0.011231492273509502,-0.15176427364349365,0.048138927668333054,0.04780186340212822,-0.03154102712869644,0.007441308349370956,0.002281622728332877,0.10923562198877335,0.021710259839892387,0.06227497383952141,0.17537347972393036,-0.1440839320421219,0.13991637527942657,-0.03505958989262581,-0.0330490916967392,0.02280038595199585,-0.2626378834247589,0.09207860380411148,-0.07806659489870071,0.007679539266973734,0.052998315542936325,0.12924925982952118,-0.012357019819319248,-0.03193863853812218,-0.08610722422599792,0.02324831858277321,-0.03480906784534454,-0.11922884732484818,0.002140931785106659,0.1878400593996048,0.21456317603588104,-0.22693125903606415,-0.1378856748342514,-0.33137834072113037,0.10957355052232742,-0.024946464225649834,-0.013075173832476139],[0.10326308757066727,0.1779930144548416,0.07241025567054749,0.20815938711166382,-0.0752120390534401,-0.11333100497722626,-0.07484960556030273,-0.034422483295202255,0.04318447783589363,-0.04311361908912659,-0.008719585835933685,-0.12494848668575287,0.18247202038764954,-0.03709646314382553,-0.033629756420850754,-0.16728101670742035,-0.1414145529270172,-0.025774339213967323,0.08963821828365326,-0.19582031667232513,0.10065874457359314,-0.0032902508974075317,-0.21026422083377838,-0.06861001998186111,-0.11961808800697327,0.024236664175987244,0.1475597769021988,0.045188214629888535,0.0410485602915287,0.41199827194213867,-0.0796985998749733,0.11601843684911728,0.28969907760620117,0.058066245168447495,-0.11997425556182861,0.08750166743993759,-0.00933617539703846,0.03884444013237953,0.061856865882873535,-0.1024027168750763,0.00716403778642416,-0.20395895838737488,0.07139577716588974,-0.21305148303508759,0.01542825810611248,0.16644833981990814,-0.09479295462369919,0.20191657543182373,-0.13917586207389832,0.12052642554044724,-0.043603360652923584,-0.1761780083179474,-0.09007337689399719,-0.07635189592838287,0.09540726989507675,0.014706019312143326,-0.0829528272151947,-0.045034512877464294,0.2162185162305832,0.0322890467941761,-0.06398613005876541,-0.15664304792881012,0.005225649103522301,-0.006926101166754961,0.14691457152366638,-0.15763501822948456,0.057883910834789276,-0.19361555576324463,-0.0030602815095335245,0.15287776291370392,0.10740169137716293,0.2170504778623581,-0.016973381862044334,0.2436419576406479,-0.02100425772368908,0.24608691036701202,-0.04470604285597801,0.16247881948947906,-0.1582985371351242,0.07220810651779175,-0.1002955287694931,0.024696551263332367,0.14251355826854706,0.021317174658179283,-0.19693031907081604,-0.019770102575421333,-0.24012619256973267,-0.23787565529346466,-0.03704399615526199,0.12454130500555038,-0.1900533139705658,0.04527968168258667,-0.08638424426317215,-0.06929010897874832,-0.052520789206027985,0.11290861666202545,-0.12991343438625336,-0.020951377227902412,-0.027934465557336807,-0.06941615045070648,0.062211692333221436,-0.12674580514431,0.22836191952228546,0.07309065759181976,0.0033346356358379126,-0.07150306552648544,-0.057709116488695145,-0.22302210330963135,0.047255221754312515,0.12014582753181458,-0.1408182829618454,-0.03193286806344986,0.16212870180606842,-0.05555665120482445,-0.01578384079039097,0.03449059650301933,0.21667392551898956,-0.18967664241790771,-0.005297674331814051,-0.08850367367267609,0.1238618940114975,0.05224689841270447,0.09276769310235977,0.2239111363887787,0.044427305459976196,0.1723383367061615,-0.0916399285197258,0.006368530448526144,0.011917924508452415,0.0691729262471199,-0.09958446025848389,-0.08337606489658356,0.14341071248054504,-0.0599161759018898,0.2249111831188202,-0.04171939566731453,0.1833198517560959,-0.08774950355291367],[0.04769928753376007,0.09689639508724213,0.2238902598619461,-0.02298477105796337,0.11003278940916061,-0.07212202996015549,-0.11172464489936829,-0.008730482310056686,0.0014404933899641037,-0.09484041482210159,-0.04497179016470909,-0.05687493458390236,0.10498888790607452,0.10496959090232849,-0.1826721578836441,-0.10850833356380463,-0.015610691159963608,0.14399883151054382,-0.2854378819465637,0.345449298620224,-0.18476715683937073,-0.1916280835866928,0.12603485584259033,0.2652725875377655,-0.18336601555347443,0.13770060241222382,-0.03419863060116768,