[[0.924856424331665,-0.30272239446640015,0.2948701083660126,-2.5985844135284424,-1.430648684501648,-1.7680306434631348,1.4720990657806396,-2.0085437297821045,-0.8003764748573303,0.7687963843345642,1.306589961051941,-0.21996507048606873,2.9814369678497314,-1.2275676727294922,0.6454956531524658,1.0647549629211426,1.6907190084457397,-0.8284768462181091,0.18579894304275513,-0.5360562205314636,0.4702092409133911,0.24918803572654724,-1.0953168869018555,0.3456208407878876,-1.0859798192977905,-0.5380895137786865,0.5227752923965454,-0.6256788372993469,-0.07513760030269623,0.8272725939750671,0.44611528515815735,0.043917011469602585,0.03457355871796608,2.379715919494629,0.06313064694404602,-0.7535989284515381,2.084683895111084,-0.4158667325973511,2.254356622695923,-2.4288768768310547,0.08773928135633469,-0.31062522530555725,-1.564513087272644,-0.9067922234535217,-0.46061989665031433,-1.9851512908935547,-2.192915916442871,-1.4172601699829102,0.19583982229232788,2.051745653152466,-1.7526477575302124,1.3733632564544678,-1.5414416790008545,-1.2644504308700562,-0.03416375815868378,0.08387627452611923,1.038372278213501,-0.5902824401855469,-1.3857520818710327,-0.007601836696267128,0.5110777616500854,0.8766212463378906,-0.04907102882862091,1.3931552171707153]]