[[0.924856424331665,-0.30272239446640015,0.30465003848075867,-2.5985844135284424,-1.511169195175171,-1.7680306434631348,1.4720990657806396,-2.0085437297821045,-0.8332631587982178,0.7687963843345642,1.306589961051941,-0.24179308116436005,2.9814369678497314,-1.3320224285125732,0.6454956531524658,1.0647549629211426,1.719308853149414,-0.8284768462181091,0.25296080112457275,-0.5360562205314636,0.507925271987915,0.2833986282348633,-1.0953168869018555,0.37817397713661194,-1.1408121585845947,-0.5380895137786865,0.5227752923965454,-0.7011990547180176,-0.1073019951581955,0.8272725939750671,0.44611528515815735,-0.017650334164500237,-0.00018390873447060585,2.4198267459869385,0.028099944815039635,-0.7535989284515381,2.1630592346191406,-0.47364187240600586,2.254356622695923,-2.4288768768310547,0.08773928135633469,-0.3865013122558594,-1.5825599431991577,-0.9067922234535217,-0.5301889777183533,-1.9851512908935547,-2.192915916442871,-1.4172601699829102,0.19583982229232788,2.1061699390411377,-1.802534580230713,1.3733632564544678,-1.5414416790008545,-1.2993146181106567,0.024549903348088264,0.11390350013971329,1.038372278213501,-0.5902824401855469,-1.3857520818710327,-0.005215853452682495,0.5110777616500854,0.8766212463378906,-0.09333274513483047,1.3931552171707153]]