[[-0.31158164143562317,-0.04183216020464897,-0.25238972902297974,0.06734896451234818,-0.1366865336894989,-0.12486013770103455,-0.14284701645374298,0.19703474640846252,-0.11132023483514786,-0.1428259015083313,-0.23394888639450073,-0.2849056124687195,0.01895317994058132,0.5992801189422607,0.20465539395809174,-0.159772127866745,0.056980449706315994,-0.07221265882253647,0.15174271166324615,-0.02708706445991993,0.1262136846780777,0.03989885747432709,0.037179913371801376,0.115247942507267,-0.13517530262470245,-0.17808464169502258,-0.06532014161348343,-0.11362999677658081,0.02938259206712246,-0.11085038632154465,-0.2263595312833786,0.020139196887612343,-0.007571933325380087,-0.1389741450548172,0.1822604537010193,0.02027224190533161,-0.2775500416755676,0.34751173853874207,-0.1333022266626358,0.04039236903190613,0.09228049218654633,0.32688137888908386,-0.13962289690971375,0.2246537208557129,0.46313780546188354,0.14132128655910492,0.19785402715206146,0.5108069777488708,0.1407412737607956,0.03627145290374756,-0.020638125017285347,0.0834750160574913,0.16663293540477753,0.16333304345607758,0.06422857195138931,0.21061888337135315,-0.0948021188378334,-0.18200626969337463,0.03991241753101349,-0.010395077057182789,-0.27237188816070557,0.13546490669250488,0.013194211758673191,0.1569482833147049,-0.11997353285551071,0.2283581644296646,-0.10232260078191757,-0.039437681436538696,0.1840054839849472,-0.2600223422050476,-0.020284773781895638,-0.1988999992609024,-0.05781982094049454,-0.2336941659450531,-0.271415650844574,-0.06387380510568619,0.42514315247535706,-0.0259396992623806,-0.19985850155353546,-0.17791341245174408,-0.0606858991086483,-0.16621971130371094,-0.05049338936805725,0.32226231694221497,0.3203277289867401,0.35425689816474915,-0.07090476900339127,-0.1732824295759201,-0.2825620770454407,-0.25163573026657104,-0.07692090421915054,-0.011742062866687775,0.13041973114013672,0.08374771475791931,-0.07374922931194305,-0.054219819605350494,0.10761428624391556,0.2151155024766922,0.1652417927980423,-0.18822209537029266,0.35361814498901367,0.041022058576345444,-0.027878815308213234,-0.12819434702396393,0.12040775269269943,0.004095043521374464,-0.1991949826478958,0.3524046242237091,-0.10933877527713776,0.036656882613897324,-0.1312875896692276,0.0016074568266049027,0.13760359585285187,-0.03231305256485939,-0.08281496167182922,0.16501253843307495,0.024824125692248344,-0.05043552443385124,0.08411023765802383,-0.15199516713619232,0.1380210965871811,-0.19552452862262726,0.06932277977466583,-0.11950429528951645,0.009254047647118568,0.31978747248649597,0.44500210881233215,-0.2333044707775116],[0.055914077907800674,0.04533245041966438,-0.07728032767772675,0.13615570962429047,-0.2859807014465332,-0.10187239944934845,0.07149123400449753,0.1254080981016159,-0.10272607207298279,-0.127973735332489,0.1542678028345108,-0.16746602952480316,-0.14039330184459686,0.04816441610455513,0.08728915452957153,0.06947869807481766,0.004072836134582758,-0.04412568360567093,-0.013647977262735367,-0.1455632895231247,0.24211277067661285,0.03981386870145798,0.019046779721975327,-0.07490421086549759,0.1197589859366417,-0.21308587491512299,0.10558795928955078,-0.07601874321699142,-0.024363934993743896,0.07622791081666946,-0.06153421849012375,0.4920654892921448,-0.16985628008842468,0.06022504344582558,0.02383425086736679,0.06397110223770142,-0.046670299023389816,0.12271780520677567,-0.24178509414196014,-0.1373077929019928,0.07836034148931503,-0.13347004354000092,-0.07876767963171005,-0.1344984769821167,-0.2846184968948364,-0.01326923817396164,0.33595457673072815,0.2425815761089325,0.07976924628019333,-0.03153116628527641,0.1778368502855301,-0.13023215532302856,-0.07975028455257416,0.06719416379928589,-0.03338593244552612,-0.08043477684259415,-0.03368539735674858,0.05471456050872803,-0.12290097773075104,0.17674197256565094,0.022218188270926476,-0.02682614140212536,-0.2720036208629608,0.10739558935165405,-0.3551746904850006,-0.019550956785678864,-0.10897524654865265,0.09046772867441177,-0.03922058269381523,-0.1751946061849594,-0.10151161253452301,0.1845247447490692,-0.30678030848503113,-0.21410533785820007,0.029641425237059593,-0.11867458373308182,-0.15196236968040466,-0.1327001005411148,-0.26832884550094604,0.3259331285953522,0.003190394723787904,-0.21773578226566315,0.04902684688568115,0.2314969301223755,-0.2639617323875427,0.05540211498737335,-0.054156139492988586,0.043505266308784485,-0.0024992511607706547,-0.12401094287633896,0.1426762342453003,-0.13707396388053894,0.28999242186546326,-0.07138767838478088,-0.08654755353927612,-0.07567747682332993,0.1263931542634964,-0.05750974267721176,-0.07555323839187622,0.05607832968235016,-0.0016357101267203689,0.05995871126651764,0.0091853691264987,-0.39098021388053894,0.05366877093911171,-0.052486635744571686,-0.15083271265029907,0.10720176994800568,0.12500233948230743,0.29154297709465027,-0.20884360373020172,-0.26489442586898804,-0.09025418013334274,-0.06246809661388397,-0.23423916101455688,-0.04193099960684776,0.09365086257457733,0.07795937359333038,-0.05449884757399559,0.1771172434091568,0.03189539536833763,-0.15742681920528412,-0.11336738616228104,-0.122934490442276,0.00293684471398592,0.24005159735679626,0.03516729548573494,-0.1086399033665657],[0.23222635686397552,0.035944145172834396,-0.21597781777381897,0.11471227556467056,0.1025347113609314,-0.04066816344857216,0.20693178474903107,-0.008599268272519112,-0.056426018476486206,0.10124944895505905,-0.16127783060073853,0.05908892676234245,0.18192487955093384,-0.26331523060798645,0.0038021409418433905,-0.19482421875,-0.16422101855278015,0.024927353486418724,0.10525675117969513,0.20594684779644012,0.24504633247852325,-0.1970060020685196,-0.0287600290030241,0.06479071825742722,-0.20172962546348572,0.09763608872890472,-0.0801425501704216,-0.0008540021954104304,-0.2255842387676239,0.24356922507286072,0.10218458622694016,0.14595524966716766,0.15856558084487915,-0.0430418886244297,-0.2197142243385315,-0.02993578463792801,-0.064328633248806,0.08402033150196075,0.29934361577033997,-0.1377222239971161,-0.06836523860692978,-0.2547817826271057,-0.37995201349258423,0.20041486620903015,0.19716326892375946,0.08705540746450424,-0.166753888130188,-0.0014875775668770075,-0.07072219997644424,0.033771149814128876,0.16178210079669952,0.06210901960730553,-0.08876165002584457,-0.3745132088661194,-0.13096696138381958,0.07612434774637222,-0.11085829883813858,0.11309076100587845,0.06380358338356018,-0.15800540149211884,-0.19961407780647278,0.09497261792421341,0.08840818703174591,0.05282068997621536,0.03943653777241707,-0.006504675839096308,-0.055200159549713135,-0.1093028336763382,-0.05749126896262169,0.11254622787237167,-0.043970949947834015,0.1203983873128891,0.030714433640241623,0.06964637339115143,-0.18240338563919067,-0.24301546812057495,-0.17477720975875854,0.29278624057769775,0.02234153263270855,0.10295260697603226,0.2093387246131897,0.1251460313796997,0.11313766241073608,0.05578412860631943,-0.14723561704158783,-0.102385014295578,-0.1263243705034256,0.09724793583154678,0.05550462752580643,-0.12333443015813828,-0.07228042185306549,-0.054885584861040115,-0.10666761547327042,0.09957768023014069,0.007196968421339989,-0.19886375963687897,-0.09777584671974182,-0.2826862633228302,-0.21516750752925873,-0.1037408709526062,-0.16720981895923615,-0.35919567942619324,-0.011819295585155487,-0.10703679919242859,0.23617145419120789,-0.17285612225532532,0.05378025025129318,-0.4127640724182129,-0.11167369037866592,-0.0058784568682312965,-0.2729388177394867,-0.1419600397348404,0.1887403428554535,-0.029458004981279373,0.19197118282318115,0.2669364809989929,-0.05873733013868332,0.014373276382684708,0.059871330857276917,-0.12236537784337997,-0.23200909793376923,-0.3274153172969818,-0.0235225148499012,-0.031500622630119324,-0.1840033084154129,0.16389772295951843,-0.08512916415929794,0.2925269901752472],[0.2769549489021301,-0.14690132439136505,-0.04916197061538696,0.0035205523017793894,0.17948749661445618,-0.023112662136554718,-0.11766951531171799,-0.0716935470700264,-0.013320044614374638,-0.22498880326747894,0.05904117599129677,0.13445262610912323,-0.1203233078122139,-0.15591998398303986,-0.03432372957468033,-0.3160257935523987,0.03735305741429329,0.38730722665786743,0.15479005873203278,0.011394809000194073,0.08891881257295609,-0.3776263892650604,-0.05201994255185127,-0.09850825369358063,-0.004685821942985058,0.07705676555633545,0.0981660932302475,0.16737405955791473,-0.05194295197725296,-0.20571982860565186,0.1381196677684784,0.15112796425819397,-0.5281682014465332,0.027127007022500038,0.19161547720432281,0.2534966766834259,-0.008840026333928108,-0.2695005536079407,-0.18875300884246826,-0.20456959307193756,0.133243128657341,0.06134714558720589,0.1584436595439911,-0.07173507660627365,-0.014510178938508034,-0.20501959323883057,0.30277326703071594,-0.0702722892165184,-0.00166216806974262,-0.0899391695857048,-0.01270439475774765,-0.13099715113639832,0.17654116451740265,0.005418272223323584,0.24777281284332275,0.15777373313903809,-0.08002110570669174,-0.025484325364232063,0.1420004665851593,-0.18053849041461945,-0.0855402797460556,-0.049011945724487305,0.041063982993364334,0.03204053267836571,-0.015433695167303085,-0.18902476131916046,-0.03932636231184006,-0.20440338551998138,0.0729895830154419,0.19504454731941223,-0.4669428765773773,-0.05216832831501961,-0.12321002036333084,0.0785011574625969,0.13629497587680817,0.05639287829399109,0.08351539075374603,-0.36572137475013733,0.17676062881946564,0.1777157485485077,-0.04805958271026611,-0.09754465520381927,-0.1828826665878296,0.17118340730667114,0.027287930250167847,0.08941614627838135,-0.31875336170196533,0.026023805141448975,-0.1369340419769287,-0.056896697729825974,0.2064441293478012,-0.11037413030862808,0.0022227666340768337,-0.029077844694256783,-0.2666497230529785,-0.018109392374753952,-0.0486474484205246,0.03379850089550018,-0.0563913956284523,-0.18340106308460236,-0.15344929695129395,0.22189262509346008,-0.30213332176208496,-0.2213982343673706,0.025306662544608116,0.055167306214571,0.023270975798368454,0.18819314241409302,0.09554862976074219,0.1992136389017105,-0.23905622959136963,0.25911712646484375,0.09008733183145523,0.05612633377313614,-0.1657962203025818,0.3370003402233124,0.10298191010951996,0.10098986327648163,-0.05149400606751442,-0.1811792403459549,0.05369465425610542,-0.24382923543453217,0.015986192971467972,-0.09679938107728958,-0.23894523084163666,-0.06608042865991592,0.10796082019805908,-0.4781056344509125],[-0.23688413202762604,0.3592776954174042,-0.1523943841457367,0.15091310441493988,0.08058511465787888,-0.2038973867893219,0.14702607691287994,0.024265078827738762,0.09666910022497177,0.02879861742258072,0.007042603567242622,-0.01682654209434986,-0.19806361198425293,0.6426421999931335,-0.0016903065843507648,-0.21261191368103027,0.11339962482452393,-0.011399256996810436,-0.1125229150056839,-0.04621149227023125,0.239200621843338,-0.21291552484035492,0.11167766153812408,-0.22770844399929047,-0.010034008882939816,0.17664235830307007,0.2003202587366104,-0.010999733582139015,0.2718937397003174,-0.08959700167179108,-0.02312023751437664,-0.11057440936565399,0.30367520451545715,-0.1705968677997589,-0.13530142605304718,-0.18711663782596588,0.1313355565071106,-0.20167572796344757,-0.042635709047317505,0.03737618401646614,0.24518731236457825,0.1326756775379181,-0.11715637892484665,-0.09507206082344055,-0.2730276584625244,0.3518306314945221,-0.08552418649196625,0.037795331329107285,-0.14218978583812714,0.17267397046089172,-0.16099712252616882,0.01980716735124588,-0.13367290794849396,-0.19613440334796906,-0.24720104038715363,-0.18024232983589172,0.3034890592098236,0.06165046989917755,-0.11831711232662201,0.19491353631019592,0.4055474102497101,-0.20893095433712006,0.04270470514893532,-0.060731809586286545,-0.07754560559988022,-0.21190626919269562,-0.2586207985877991,0.08637185394763947,0.29435059428215027,-0.3393377661705017,-0.22911708056926727,-0.3808808922767639,-0.2594280242919922,-0.3927479088306427,-0.40626928210258484,-0.08320194482803345,0.057997435331344604,-0.022455938160419464,0.14328666031360626,0.2136724591255188,-0.18293830752372742,0.05854267627000809,-0.17972294986248016,-0.2834676206111908,-0.05587862432003021,-0.06289978325366974,-0.007709692232310772,0.014630190096795559,-0.26525285840034485,0.0978693887591362,-0.1949101984500885,-0.19234761595726013,0.17766861617565155,-0.24224554002285004,0.24662116169929504,0.07444940507411957,-0.33253371715545654,-0.1310112327337265,-0.20036381483078003,-0.03393083065748215,-0.04814326763153076,-0.11911243200302124,-0.08185895532369614,-0.14735819399356842,0.13408975303173065,-0.06151081249117851,0.22432750463485718,-0.024671457707881927,-0.0806703194975853,0.2608669400215149,0.047077275812625885,0.053607646375894547,-0.04313768446445465,0.24979948997497559,0.055461037904024124,-0.2202044427394867,0.37110602855682373,-0.25433242321014404,-0.015794599428772926,-0.18441101908683777,-0.11593828350305557,-0.002403570106253028,0.2766426205635071,-0.3906964063644409,0.01055271364748478,-0.10835898667573929,0.06207296997308731,0.1134074479341507],[-0.12244265526533127,0.003617628011852503,-0.2644106149673462,-0.34972184896469116,-0.12757976353168488,-0.32712140679359436,0.08876433968544006,-0.022516144439578056,0.16497577726840973,0.06513062864542007,0.16198256611824036,-0.13416120409965515,0.20160004496574402,-0.10028833150863647,-0.025486715137958527,-0.143585667014122,-0.22126303613185883,-0.072600819170475,0.16498412191867828,0.20307418704032898,-0.0030263694934546947,-0.17088891565799713,-0.11539805680513382,-0.29042261838912964,0.1815335601568222,-0.14255163073539734,0.24119991064071655,-0.1560734063386917,-0.27896565198898315,-0.12421716749668121,0.0670185387134552,0.17996500432491302,-0.010694493539631367,-0.14460636675357819,-0.04751219227910042,0.2148444652557373,0.15286442637443542,-0.038965918123722076,-0.058819569647312164,0.16788241267204285,0.11369028687477112,-0.2503983676433563,-0.17428994178771973,0.24842402338981628,-0.26345294713974,-0.010996580123901367,0.08175746351480484,-0.09415209293365479,0.038476210087537766,-0.029248589649796486,-0.05242851749062538,-0.1490718275308609,0.3879440724849701,0.08683274686336517,-0.174897700548172,-0.029996560886502266,-0.04468528926372528,0.10471390932798386,-0.047970909625291824,-0.1347224861383438,-0.11202098429203033,-0.17866210639476776,-0.13720357418060303,0.05290892347693443,-0.008788011968135834,-0.11223983019590378,-0.4474310874938965,0.2299507111310959,-0.11590878665447235,0.1246798038482666,-0.2554459571838379,0.13792498409748077,0.07006886601448059,0.04364484176039696,-0.3320247530937195,-0.15765909850597382,-0.1296764463186264,0.10193876922130585,0.28455570340156555,-0.05738169327378273,-0.17620395123958588,0.10185830295085907,-0.367656946182251,-0.06826824694871902,0.37760135531425476,-0.049543723464012146,0.09237008541822433,-0.25662484765052795,0.08255460858345032,0.03922251611948013,-0.12639057636260986,0.15977546572685242,-0.04784730076789856,0.2292965054512024,-0.010268599726259708,0.22320058941841125,-0.23385056853294373,0.265685111284256,-0.09827875345945358,-0.060326721519231796,-0.1350564956665039,-0.064479298889637,0.055834271013736725,-0.21247249841690063,-0.22394604980945587,-0.22095534205436707,-0.1205805316567421,0.266130268573761,0.034810181707143784,0.38875630497932434,-0.11570358276367188,0.2839730679988861,-0.10310409963130951,0.09538561850786209,-0.03632771968841553,0.10137508809566498,0.012092252261936665,0.1500890851020813,-0.17561675608158112,-0.16963163018226624,0.043106865137815475,0.044700346887111664,0.24430911242961884,-0.08330444991588593,0.20042778551578522,-0.0387590229511261,0.16305837035179138,-0.28993362188339233],[-0.3481144905090332,-0.09461117535829544,-0.03844350948929787,-0.11352010816335678,0.011307617649435997,0.21625448763370514,0.03686998412013054,0.1449662148952484,0.3100161850452423,-0.24693825840950012,-0.019023092463612556,0.16447389125823975,0.007025534752756357,-0.030316585674881935,-0.23685039579868317,-0.14127829670906067,-0.207964688539505,-0.11393003165721893,-0.34499675035476685,0.2514485716819763,0.06121987849473953,0.19820237159729004,-0.11761976033449173,-0.13645754754543304,-0.33670711517333984,-0.20496593415737152,0.27161508798599243,0.047004733234643936,0.11847398430109024,-0.12663854658603668,0.07188573479652405,-0.04257195070385933,-0.056868281215429306,-0.047131817787885666,-0.19041544198989868,-0.1604657769203186,0.23719990253448486,-0.3677387535572052,0.08744258433580399,-0.18960675597190857,-0.19391700625419617,-0.046307846903800964,-0.12331198155879974,-0.19214922189712524,-0.08470338582992554,-0.23375850915908813,0.08497025072574615,0.1293647438287735,-0.15233120322227478,-0.05362919718027115,-0.05854880064725876,0.0642436221241951,-0.018473194912075996,-0.13918869197368622,-0.21973830461502075,0.03884070739150047,-0.12209420651197433,0.2467309832572937,0.48392927646636963,0.2700803875923157,-0.07775234431028366,-0.08458900451660156,0.06323467195034027,-0.01688986085355282,0.1365235447883606,-0.3173618018627167,0.02184455096721649,-0.04564150795340538,0.25852033495903015,-0.2893293797969818,-0.038507454097270966,0.27476391196250916,0.06472030282020569,0.08328121900558472,0.023300278931856155,0.35198137164115906,-0.10841122269630432,-0.08821091055870056,0.0638582855463028,-0.12779030203819275,0.02733710967004299,0.002690024906769395,-0.04521001875400543,-0.5341967344284058,-0.2941473424434662,0.012196517549455166,-0.0031268573366105556,-0.06532063335180283,0.13483121991157532,-0.35993149876594543,0.15605133771896362,0.08318396657705307,-0.1292969435453415,0.0169871486723423,-0.09852016717195511,0.14125274121761322,-0.053665291517972946,-0.5851709246635437,-0.33183708786964417,0.0679703801870346,-0.36350002884864807,0.21038426458835602,0.00016722317377571017,0.0352315716445446,-0.066783107817173,0.0323752798140049,0.17747004330158234,0.160842165350914,-0.08951372653245926,0.04457338526844978,-0.05113988742232323,-0.022415166720747948,0.05781811848282814,0.0927693247795105,0.1874566376209259,-0.058606356382369995,0.03477756679058075,0.5016888976097107,-0.17690441012382507,-0.08849965780973434,-0.1271945685148239,-0.08786159753799438,-0.08571086078882217,0.027887320145964622,-0.22185999155044556,-0.07112857699394226,-0.17538373172283173,0.22412286698818207],[-0.06179370731115341,-0.15636861324310303,-0.22503402829170227,0.043407052755355835,0.12834961712360382,0.16798356175422668,0.027251405641436577,-0.03925347700715065,0.026663949713110924,-0.06742563843727112,0.06515628844499588,-0.04632507637143135,-0.23131118714809418,-0.24586226046085358,-0.22788545489311218,-0.2911832928657532,-0.06913170963525772,0.27319619059562683,-0.1691644787788391,-0.23620857298374176,0.08895213901996613,0.20972983539104462,0.09366147220134735,-0.19138528406620026,0.19299282133579254,-0.22392211854457855,-0.18385262787342072,0.016306394711136818,-0.14353953301906586,0.1662064641714096,-0.23605524003505707,-0.2363894283771515,0.06421463191509247,0.22073569893836975,0.036041878163814545,0.10859785974025726,0.19257637858390808,0.08471591025590897,0.036003369837999344,-0.05922495201230049,-0.2187889814376831,0.06764627248048782,-0.18746210634708405,-0.03431183099746704,-0.05322821065783501,-0.07127495110034943,0.205356165766716,-0.041429102420806885,-0.1089521124958992,-0.08535270392894745,0.2858826518058777,-0.20436275005340576,-0.13220758736133575,0.10836568474769592,0.3006792366504669,0.37847405672073364,0.0017752356361597776,0.06484608352184296,-0.16733740270137787,-0.09125392884016037,0.26132142543792725,0.3797982335090637,-0.08890270441770554,0.1443246752023697,-0.23084506392478943,-0.07976625859737396,-0.027293900027871132,-0.03856171667575836,-0.0389997735619545,-0.09196992218494415,-0.19974616169929504,-0.15279394388198853,-0.09877778589725494,-0.26933592557907104,0.18431392312049866,-0.11340299248695374,0.1766001135110855,-0.1014038547873497,-0.1518288254737854,-0.22135667502880096,0.175385519862175,0.010258566588163376,-0.16485324501991272,0.08485834300518036,-0.036268703639507294,-0.22038887441158295,-0.22567953169345856,-0.09156568348407745,0.13572628796100616,-0.00966132152825594,-0.2713712155818939,-0.055250510573387146,-0.13558518886566162,0.11944114416837692,0.037816062569618225,0.14983487129211426,0.08388404548168182,0.37051084637641907,0.15588916838169098,0.4154769778251648,-0.060485463589429855,-0.08124024420976639,-0.058665502816438675,0.1953435093164444,-0.1770896464586258,0.1405022144317627,0.13417863845825195,-0.04137619957327843,-0.04430665075778961,0.10933846235275269,0.21552732586860657,-0.1991197168827057,-0.09256268292665482,0.20431067049503326,0.0530652217566967,-0.023836959153413773,0.1443926841020584,0.30484217405319214,0.17926041781902313,-0.0030728820711374283,0.0932951346039772,0.26175394654273987,-0.10891333967447281,0.25705355405807495,-0.2364206612110138,-0.0142314862459898,0.03564634174108505,-0.20050346851348877],[-0.08606255054473877,0.10109120607376099,0.04211971536278725,-0.33171460032463074,0.07330697029829025,0.002598127583041787,0.307946115732193,0.29236435890197754,-0.26935073733329773,-0.22149881720542908,-0.18240676820278168,0.25205519795417786,-0.2525397837162018,0.10377384722232819,0.15912865102291107,0.10525088012218475,-0.26596152782440186,0.06966293603181839,0.05783477798104286,-0.4260422885417938,0.15082259476184845,-0.20442718267440796,-0.28162485361099243,-0.3069910407066345,-0.06878877431154251,-0.18824908137321472,-0.027225060388445854,-0.05429999530315399,-0.17165373265743256,-0.2037387490272522,0.015105076134204865,-0.05176614597439766,-0.0025547859258949757,0.1550685614347458,-0.015563331544399261,0.19069990515708923,0.11126435548067093,0.07149133086204529,0.13939499855041504,-0.0022141889203339815,-0.5170106291770935,0.005730169825255871,-0.15326978266239166,0.29568159580230713,-0.29754388332366943,-0.07227279990911484,0.09451040625572205,-0.06151830777525902,-0.0532027892768383,-0.1443031281232834,-0.09340811520814896,0.32247984409332275,-0.08063474297523499,-0.23700855672359467,-0.002074396936222911,-0.030884936451911926,-0.16116054356098175,-0.041390370577573776,-0.11633659899234772,-0.021085917949676514,-0.07660964131355286,0.13920806348323822,-0.06986474245786667,0.02316001057624817,0.053725142031908035,0.1723073273897171,-0.017765119671821594,-0.272342711687088,0.2706633508205414,-0.11273105442523956,0.009632392786443233,-0.43814942240715027,0.25954073667526245,-0.37126031517982483,-0.1314936876296997,-0.10916139930486679,-0.17355191707611084,0.10394012928009033,-0.3420892059803009,-0.14622150361537933,0.17909108102321625,-0.017084645107388496,-0.3442871570587158,0.21145451068878174,0.18904812633991241,-0.1151704490184784,-0.10341255366802216,-0.2946668267250061,-0.008697840385138988,-0.2311071753501892,0.1485939770936966,0.06062319502234459,0.03617781400680542,0.11358503997325897,-0.11638253927230835,-0.07793297618627548,0.03150293603539467,-0.03385881707072258,-0.03565426915884018,0.020010169595479965,-0.17699868977069855,-0.031028272584080696,0.05849629268050194,-0.07581409811973572,0.1617463231086731,0.21696141362190247,0.07921993732452393,0.1891380399465561,0.1364050954580307,-0.028475070372223854,0.06628216803073883,-0.15080773830413818,-0.269855260848999,0.2243642508983612,-0.14596068859100342,0.15571226179599762,0.18249472975730896,0.21739883720874786,-0.2611772119998932,-0.18081414699554443,0.026407096534967422,-0.021478792652487755,0.1117435023188591,-0.04848988354206085,0.15582263469696045,-0.036643173545598984,0.09424807876348495,-0.1078450158238411],[-0.17271122336387634,-0.13431797921657562,-0.0320180281996727,0.09119899570941925,-0.26026225090026855,0.10459711402654648,-0.10260521620512009,-0.2313380092382431,0.04710190370678902,0.024819480255246162,0.2036251723766327,-0.22871363162994385,-0.07314447313547134,-0.013194185681641102,0.12396419048309326,-0.24654051661491394,0.33315348625183105,0.2485685795545578,-0.026499280706048012,-0.03416909649968147,0.36163684725761414,0.001085613388568163,0.08293265104293823,-0.06642583757638931,-0.06774482131004333,-0.3026856780052185,-0.013290113769471645,-0.01614222303032875,0.06848225742578506,0.2271408885717392,0.18958371877670288,0.11923502385616302,-0.1804705113172531,0.11995135247707367,-0.2059122920036316,-0.17845934629440308,-0.17907384037971497,0.0511062927544117,0.02114681713283062,0.5965464115142822,0.03674081712961197,0.09165846556425095,0.08911464363336563,-0.1487765610218048,0.04916426166892052,0.015464616939425468,0.22677016258239746,-0.11419007182121277,-0.014254908077418804,-0.11370692402124405,-0.007661689538508654,-0.018601946532726288,0.01612509787082672,-0.13696226477622986,-0.01945645548403263,-0.20849309861660004,-0.0776226818561554,0.17129318416118622,-0.2681182622909546,-0.22742027044296265,-0.031198307871818542,0.37099000811576843,-0.19094011187553406,-0.1256338208913803,0.007911911234259605,0.04168587550520897,-0.062261320650577545,-0.15516233444213867,0.14881983399391174,0.19027075171470642,-0.20562148094177246,-0.009592043235898018,-0.37196052074432373,-0.1468210071325302,-0.13841627538204193,-0.2781866192817688,-0.006162963807582855,-0.11843758076429367,-0.10842514038085938,0.12801186740398407,0.25138846039772034,0.16243575513362885,0.15328404307365417,-0.20605847239494324,-0.023453373461961746,0.04163116589188576,-0.05070419982075691,-0.12125170975923538,0.2561582326889038,-0.07621599733829498,-0.25842514634132385,-0.2621936500072479,0.011716298758983612,0.18710337579250336,-0.15447291731834412,0.11722701787948608,-0.42760223150253296,0.22021888196468353,0.07517404109239578,0.06998862326145172,0.10586636513471603,0.17897023260593414,0.3783469498157501,-0.02280202880501747,0.05045021325349808,-0.16950073838233948,-0.009084449149668217,0.23118466138839722,0.3013307750225067,-0.05463238060474396,0.03371351212263107,-0.0841832086443901,0.033674899488687515,-0.21403376758098602,-0.17604003846645355,-0.07099299132823944,0.15867719054222107,0.005991309881210327,-0.13629204034805298,-0.13950999081134796,0.049311406910419464,-0.10216924548149109,0.1014861911535263,-0.31943899393081665,0.08262955397367477,0.1368248015642166,-0.05099901184439659,-0.033032722771167755],[0.1673373430967331,-0.21065181493759155,0.14214713871479034,-0.03027404472231865,-0.047962736338377,-0.023955507203936577,-0.07091157138347626,-0.04408441483974457,-0.25794878602027893,-0.08583813905715942,-0.0754023939371109,-0.025356072932481766,0.27169132232666016,-0.03613533824682236,-0.13382337987422943,-0.15054114162921906,0.18238164484500885,-0.0008471415494568646,0.06363838165998459,0.07648153603076935,-0.15210707485675812,0.04896734282374382,-0.15985898673534393,-0.13133566081523895,-0.003908124752342701,-0.23748278617858887,-0.09352508932352066,-0.36166486144065857,-0.06007291004061699,-0.10267564654350281,-0.09206078201532364,-0.04716059938073158,-0.23521509766578674,-0.06326231360435486,-0.07338163256645203,0.281989723443985,-0.13214805722236633,-0.1958344280719757,-0.22995659708976746,0.14664539694786072,0.1122417226433754,-0.07859934121370316,-0.1291436105966568,0.12985707819461823,-0.0701063722372055,-0.015464238822460175,-0.10249092429876328,0.0591103695333004,-0.1345580369234085,-0.31818634271621704,-0.06567448377609253,-0.1278960108757019,0.01158056315034628,-0.12832774221897125,0.1954071968793869,-0.01789049431681633,-0.03529667854309082,-0.04411006346344948,0.17190058529376984,-0.12596766650676727,0.20129208266735077,-0.13061097264289856,-0.3693680167198181,-0.07962355762720108,0.020952127873897552,0.00011797824845416471,-0.1827615648508072,0.037569038569927216,0.02613864839076996,-0.27614808082580566,-0.05236560478806496,-0.15637251734733582,-0.04551267996430397,-0.08072859793901443,-0.27683764696121216,0.1547149121761322,0.07051660865545273,-0.0711028128862381,0.17033877968788147,-0.12736199796199799,0.09763597697019577,0.04046411067247391,0.06572399288415909,-0.25501924753189087,0.20618322491645813,-0.3352058231830597,-0.1689455360174179,-0.0822220966219902,-0.20606379210948944,0.26161351799964905,0.15988518297672272,0.06483815610408783,-0.1977691501379013,0.232510045170784,-0.3131125867366791,-0.12694165110588074,-0.08810875564813614,-0.0006822717841714621,0.23106451332569122,0.07315658032894135,0.07769370824098587,-0.007838334888219833,0.03118143044412136,0.016168592497706413,-0.018854418769478798,-0.18746836483478546,0.11446724832057953,-0.1953447461128235,-0.006989040412008762,-0.08075492829084396,-0.10965130478143692,0.04393457993865013,-0.21989594399929047,0.10159055143594742,0.017649801447987556,0.12375926971435547,-0.09806887805461884,-0.07133664190769196,0.009460622444748878,-0.3639965355396271,0.2336667776107788,0.3244117498397827,0.028834955766797066,-0.14911359548568726,-0.25830137729644775,0.2507047951221466,0.1188192069530487,0.11712398380041122],[-0.24565835297107697,-0.04259692505002022,-0.19162645936012268,0.11277595907449722,0.08269653469324112,-0.16714410483837128,0.07197323441505432,0.01269006822258234,-0.1030006855726242,-0.027976853772997856,-0.12582238018512726,-0.105638287961483,-0.16280733048915863,0.061335138976573944,-0.14201012253761292,0.19927559792995453,0.1250147968530655,0.06314307451248169,-0.22386662662029266,0.43795621395111084,0.23460033535957336,-0.2455257773399353,-0.12776276469230652,0.14472268521785736,-0.13285976648330688,-0.1926041543483734,0.13776795566082,0.2471156120300293,0.3769640624523163,-0.078781858086586,0.10899898409843445,-0.013002198189496994,0.050952717661857605,0.020002517849206924,0.23918844759464264,0.05803295969963074,-0.005916636902838945,-0.026904579252004623,-0.22926495969295502,0.23701173067092896,0.00657157925888896,-0.12074048817157745,-0.16053269803524017,-0.08933866769075394,-0.003320593386888504,-0.06341732293367386,-0.2647092938423157,-0.2546425461769104,-0.01728680729866028,0.1321466863155365,-0.14436420798301697,-0.140059694647789,-0.18275833129882812,-0.1603703796863556,0.1863962709903717,-0.12963475286960602,-0.3184400200843811,-0.05416842922568321,0.2369859367609024,0.13044944405555725,0.3135128915309906,0.1989946812391281,0.03713830187916756,-0.04136306419968605,0.11613897979259491,0.13424831628799438,0.25314000248908997,-0.12063674628734589,0.07462640106678009,-0.19139553606510162,0.16481661796569824,-0.10260464996099472,0.08985636383295059,0.03806821256875992,-0.06731417775154114,-0.004922809079289436,-0.16199178993701935,0.04497016221284866,0.21688686311244965,-0.2787361443042755,-0.1483222395181656,0.10533595830202103,0.17411528527736664,-0.29499587416648865,0.33004769682884216,0.0008057016530074179,0.23683708906173706,0.18926922976970673,0.02791874296963215,-0.04884299263358116,-0.24686524271965027,0.20567457377910614,0.008866730146110058,0.07537443190813065,-0.34481897950172424,0.1481153815984726,0.11700712144374847,0.14973439276218414,-0.1906866729259491,-0.19201567769050598,-0.30210167169570923,0.05898817628622055,-0.26413625478744507,0.13749195635318756,-0.12694509327411652,-0.00000514679413754493,-0.01392240822315216,-0.018982304260134697,0.023998886346817017,-0.23540247976779938,-0.11047195643186569,0.16749979555606842,-0.14208756387233734,0.13258205354213715,-0.11026541888713837,-0.12117734551429749,0.0940779596567154,-0.07138392329216003,0.10492696613073349,0.0477493479847908,0.10261447727680206,0.05724670737981796,-0.10743927210569382,-0.08139471709728241,0.07575096935033798,0.055630918592214584,-0.04944487288594246,0.06911113113164902],[0.1407397985458374,-0.15005381405353546,-0.11264832317829132,-0.03352261707186699,-0.04258287325501442,-0.0935635194182396,0.13422752916812897,-0.12819211184978485,-0.1688835471868515,-0.07853676378726959,-0.12019053101539612,0.15606649219989777,0.07250598073005676,-0.08483211696147919,0.20028947293758392,-0.11404582113027573,-0.04882228001952171,-0.0028843465261161327,0.043460678309202194,0.2077370285987854,0.37771740555763245,-0.17277368903160095,0.0597112663090229,0.20781172811985016,-0.04106653481721878,-0.33003732562065125,-0.04864141345024109,0.07751736789941788,0.13581514358520508,-0.06835591048002243,0.1871633380651474,-0.05244845524430275,0.2906329035758972,0.08587319403886795,-0.101907879114151,0.08314309269189835,0.13654804229736328,-0.027624664828181267,-0.06562571227550507,-0.0154898501932621,-0.2458982616662979,-0.26937541365623474,-0.017223980277776718,0.10561477392911911,0.0030972016975283623,0.36142995953559875,0.3113173842430115,-0.026895400136709213,0.026912011206150055,-0.19890758395195007,0.2274077981710434,0.15229491889476776,0.38989487290382385,-0.04540545865893364,0.007534421049058437,0.1784047782421112,0.017923440784215927,-0.10019916296005249,-0.10835926234722137,0.17228369414806366,-0.34074538946151733,-0.15960925817489624,-0.05557987466454506,0.24473795294761658,-0.18055438995361328,-0.20552732050418854,-0.4883127510547638,0.060073208063840866,0.0650165006518364,0.049034517258405685,0.06715065240859985,0.48225781321525574,0.20585593581199646,0.11051639914512634,-0.037632815539836884,-0.19047291576862335,-0.07438899576663971,0.2522658407688141,-0.29367291927337646,0.09779244661331177,0.21567294001579285,-0.07257121056318283,0.21895809471607208,-0.15893155336380005,-0.12162554264068604,-0.05498892068862915,-0.039084240794181824,-0.09920529276132584,-0.0625339075922966,0.20716610550880432,0.36120250821113586,0.16823658347129822,-0.09449625015258789,-0.11609996110200882,0.08686161041259766,-0.07262426614761353,-0.2967450022697449,-0.14544671773910522,-0.14311769604682922,-0.1661776900291443,-0.08631108701229095,-0.0022912384010851383,-0.24909698963165283,-0.12639522552490234,-0.010136005468666553,0.017877215519547462,-0.30328479409217834,-0.1279657781124115,0.04188353195786476,-0.11435143649578094,-0.06648493558168411,0.10465646535158157,-0.10050426423549652,0.24263130128383636,-0.029994413256645203,0.1839567869901657,0.07851958274841309,0.15566104650497437,0.0599704310297966,-0.28095516562461853,-0.15169568359851837,-0.21535803377628326,-0.006455760449171066,-0.287889301776886,-0.2964093089103699,0.2132631242275238,-0.1674058586359024,-0.11488990485668182],[0.28516387939453125,-0.056233737617731094,-0.194718599319458,-0.25446224212646484,-0.029784230515360832,-0.2614763677120209,-0.08432571589946747,-0.22387507557868958,-0.22230744361877441,0.10369067639112473,-0.1695759892463684,-0.6488521099090576,-0.28334805369377136,-0.024361226707696915,0.09920492768287659,-0.05571100860834122,0.2571941614151001,-0.08079565316438675,0.2859598994255066,0.16940268874168396,0.07643471658229828,0.0050776624120771885,0.09187648445367813,-0.218677818775177,-0.15457464754581451,-0.057151708751916885,-0.10201267898082733,-0.22534433007240295,-0.00933232344686985,0.3239123225212097,0.3111426830291748,-0.0048607112839818,0.20226629078388214,0.19227148592472076,-0.058683231472969055,-0.19442741572856903,0.05474453046917915,0.06731154024600983,0.16071242094039917,-0.2323305457830429,0.2682834565639496,0.06856226176023483,0.015167315490543842,0.1039329543709755,-0.02058602310717106,-0.19344890117645264,-0.03989039361476898,0.003063526935875416,0.3510667085647583,-0.25724056363105774,-0.060465890914201736,-0.00836561992764473,-0.12325253337621689,0.032907452434301376,-0.28745704889297485,0.24904654920101166,0.049758218228816986,-0.007931004278361797,-0.1288258135318756,0.05653531476855278,-0.258207231760025,0.0006105854408815503,0.3032394051551819,-0.035251107066869736,0.14987891912460327,-0.2714242935180664,0.21875809133052826,0.1575043797492981,0.03335762023925781,0.2545485496520996,0.0786518007516861,-0.3622061312198639,0.0184191782027483,-0.3487835228443146,0.047320328652858734,0.0805625319480896,0.06399185955524445,0.06780026108026505,0.2198563516139984,0.19689743220806122,-0.08204584568738937,0.30297449231147766,0.18532706797122955,-0.046823687851428986,0.28961366415023804,0.23483611643314362,-0.03375675901770592,0.041169196367263794,0.3697471618652344,0.19301147758960724,0.08609545230865479,0.07715735584497452,-0.07621672749519348,-0.31551671028137207,0.002816335065290332,-0.04987023398280144,-0.06816396862268448,0.27459967136383057,-0.30043113231658936,-0.08218449354171753,0.015579425729811192,-0.024162063375115395,0.11663615703582764,0.1645926833152771,0.07000378519296646,-0.05792492255568504,0.06924382597208023,0.13502149283885956,-0.06319451332092285,-0.08817992359399796,-0.1038404032588005,0.13971826434135437,0.21094948053359985,0.051732320338487625,-0.05576286464929581,0.08521047234535217,0.2780090868473053,0.16568614542484283,0.03754403814673424,-0.19755198061466217,-0.04014052078127861,-0.12377172708511353,0.2577553689479828,-0.15901705622673035,-0.10494861006736755,-0.06182438135147095,-0.06882712244987488,-0.1380731761455536],[0.25395461916923523,-0.04523954167962074,-0.0963960662484169,-0.08929596841335297,-0.3381349742412567,0.18799050152301788,0.06531915068626404,-0.18900679051876068,-0.035963334143161774,0.13107657432556152,0.15573915839195251,0.2841103971004486,-0.02081354707479477,-0.09860984236001968,-0.1986416131258011,-0.17122983932495117,-0.0201224647462368,-0.4396609663963318,-0.09356984496116638,-0.07284710556268692,-0.01867048628628254,-0.08954109996557236,-0.24384631216526031,-0.07751327753067017,-0.1404808908700943,0.28936663269996643,-0.018713578581809998,0.03994334861636162,0.03262770548462868,-0.28926995396614075,0.0466003380715847,0.031856611371040344,0.10286866873502731,-0.19418266415596008,-0.10433251410722733,-0.022060437127947807,-0.12079636007547379,0.08915002644062042,0.27363112568855286,0.12246676534414291,-0.14427046477794647,-0.20638732612133026,-0.31247323751449585,0.2769375741481781,0.20215119421482086,-0.1044393926858902,0.0665794238448143,-0.05350157245993614,0.15304367244243622,-0.1951914131641388,0.05548343062400818,0.09647507220506668,-0.2069093883037567,-0.14948967099189758,0.028986649587750435,0.23204971849918365,-0.16568496823310852,0.1347084939479828,0.041762303560972214,-0.03861280903220177,-0.024861400946974754,0.03219010680913925,-0.022944267839193344,-0.0038666038308292627,0.030458766967058182,0.04486967623233795,-0.09642130136489868,0.24384114146232605,0.05064443126320839,0.04753474146127701,0.004144894424825907,-0.07541777938604355,-0.27450060844421387,0.032746151089668274,0.21514232456684113,-0.18642914295196533,0.31449317932128906,-0.059598565101623535,-0.027452141046524048,0.21543589234352112,-0.017167411744594574,-0.14260759949684143,-0.11201508343219757,0.3296550214290619,-0.02549775317311287,-0.08271975070238113,0.04139310121536255,0.3115280270576477,0.38161879777908325,-0.16528820991516113,-0.045564863830804825,0.10469435900449753,-0.2730005085468292,0.08046162873506546,-0.27425771951675415,0.2529357075691223,-0.3304276466369629,-0.03934074938297272,0.16997405886650085,0.12820720672607422,-0.12233718484640121,0.18454934656620026,-0.17254896461963654,-0.20920157432556152,0.40620729327201843,-0.2271251529455185,-0.052739113569259644,-0.04110857471823692,-0.20682081580162048,-0.08212976157665253,-0.2541147768497467,-0.13521866500377655,0.20792733132839203,0.06813010573387146,0.11954044550657272,-0.1600501835346222,0.10551489889621735,0.0054979585111141205,-0.16284394264221191,0.2995070815086365,-0.33459243178367615,0.006868658121675253,0.014195920899510384,-0.1943405419588089,-0.16525603830814362,0.08153657615184784,-0.15792562067508698,-0.18149039149284363],[0.03687405586242676,0.31376874446868896,0.1135721430182457,0.24966423213481903,0.08465176820755005,0.09184757620096207,0.15292833745479584,0.26607608795166016,0.06450194865465164,0.145159050822258,-0.07921234518289566,-0.2615973651409149,0.09744615852832794,-0.016883954405784607,0.23805435001850128,-0.05267546698451042,-0.26562929153442383,0.35862162709236145,-0.07001323997974396,-0.05826955288648605,-0.20850738883018494,-0.058683235198259354,0.08936668932437897,0.042316585779190063,-0.11135541647672653,-0.03323110193014145,-0.21002617478370667,0.007358035072684288,-0.33524325489997864,0.040060415863990784,-0.19320717453956604,-0.2609410583972931,0.07927080988883972,0.24715197086334229,-0.47652313113212585,0.19212530553340912,-0.08673282712697983,-0.08110634982585907,0.13295936584472656,0.05532926321029663,-0.2746141850948334,-0.003321623895317316,0.20172156393527985,-0.002501083305105567,-0.17638061940670013,-0.0794176459312439,0.12098116427659988,-0.011196017265319824,-0.2207515835762024,0.23985901474952698,-0.32245388627052307,-0.2023337185382843,0.049412649124860764,-0.2812034487724304,-0.04572642222046852,-0.13193225860595703,0.0935000330209732,-0.10611565411090851,-0.049031004309654236,-0.05788029357790947,-0.22662335634231567,-0.10038261860609055,0.0937872976064682,-0.030577626079320908,0.08154565095901489,0.24989557266235352,-0.2056203931570053,-0.17700311541557312,-0.009362934157252312,-0.10375954210758209,-0.10501176118850708,0.14962413907051086,0.04412674158811569,0.08913853019475937,-0.10582797229290009,0.10395514965057373,0.033382583409547806,-0.2166636735200882,-0.01615940034389496,0.1194114089012146,0.5564393997192383,0.24697722494602203,-0.39121609926223755,0.060717690736055374,0.34855514764785767,-0.03199737146496773,0.0327029787003994,0.008673948235809803,0.28990837931632996,-0.34527191519737244,-0.10884590446949005,-0.1640583872795105,-0.2764391601085663,0.22761519253253937,-0.215020090341568,-0.47862184047698975,-0.12376661598682404,0.12305319309234619,-0.08239853382110596,-0.13727402687072754,0.06330986320972443,-0.008210335858166218,-0.024762151762843132,-0.02298104390501976,-0.1087486669421196,-0.12438905239105225,0.08246976882219315,-0.06449149549007416,0.12927281856536865,0.133726105093956,-0.3440767526626587,0.2139924019575119,-0.12818865478038788,-0.6282790303230286,-0.11032432317733765,-0.08625758439302444,-0.018507424741983414,-0.07680056989192963,0.01870751939713955,0.10461993515491486,-0.21807537972927094,-0.3784886598587036,-0.15113694965839386,-0.0701301321387291,0.0577663779258728,-0.2066555619239807,-0.005853339564055204,-0.3540867865085602],[0.0684136226773262,0.12865471839904785,0.03799935430288315,-0.3037105202674866,-0.12311679124832153,-0.24962717294692993,0.16351942718029022,-0.07884043455123901,0.48960939049720764,-0.07256399840116501,-0.08098208159208298,0.05404338613152504,-0.17825579643249512,0.2741363048553467,-0.0025006013456732035,-0.06498231738805771,-0.21768921613693237,-0.0814659371972084,0.1273157000541687,-0.07633824646472931,0.2190813422203064,0.16094183921813965,-0.05902167037129402,-0.10687773674726486,-0.30313166975975037,0.30443713068962097,-0.03743885084986687,0.2788584232330322,-0.08510191738605499,0.3859981298446655,0.1305447816848755,-0.0795631930232048,-0.20780041813850403,0.08691184222698212,-0.2250649482011795,0.009687848389148712,0.1366831213235855,-0.22788478434085846,-0.10223286598920822,-0.08780685067176819,-0.011907526291906834,-0.08725205063819885,0.2147238701581955,-0.2759805917739868,-0.441234827041626,0.07127533853054047,-0.05586385354399681,-0.05728089436888695,0.2880760133266449,-0.1761407107114792,-0.020053498446941376,0.011281482875347137,0.04011644423007965,0.12815921008586884,-0.08147106319665909,-0.1362118124961853,0.020621132105588913,0.1171918660402298,0.2639221251010895,0.22805850207805634,-0.059734880924224854,-0.03701863810420036,-0.10265238583087921,0.0611596517264843,0.13124915957450867,-0.014235646463930607,-0.11234886944293976,-0.052811846137046814,-0.11681859195232391,0.2202897071838379,-0.364477276802063,-0.3067708909511566,0.05948294326663017,-0.010166469030082226,0.18419401347637177,-0.04383036494255066,-0.09228834509849548,-0.15488824248313904,-0.1689915657043457,-0.08324439823627472,-0.30830422043800354,0.38910841941833496,0.10372639447450638,0.05742798000574112,-0.24696260690689087,0.06802389770746231,-0.070668525993824,0.19933390617370605,0.051413994282484055,-0.04605189338326454,0.17860588431358337,-0.11680839955806732,0.32621487975120544,-0.5182651281356812,0.017296213656663895,-0.22421061992645264,-0.0340893492102623,-0.11105267703533173,-0.06495346128940582,0.19530819356441498,-0.15446969866752625,0.08127401024103165,-0.05197060480713844,0.052021339535713196,0.05466890707612038,0.013687272556126118,-0.3531520664691925,-0.1867329180240631,-0.2416502833366394,0.009115861728787422,-0.008367548696696758,-0.22731025516986847,0.41082003712654114,-0.05586576461791992,0.16187971830368042,0.08566924929618835,0.19236071407794952,-0.019331755116581917,-0.14032767713069916,0.11446762084960938,0.007863238453865051,0.011512774042785168,0.06584873795509338,-0.05684554949402809,0.06052817031741142,0.11630178242921829,-0.023909352719783783,-0.22251130640506744],[-0.2755401134490967,0.03245090693235397,0.11540236324071884,0.17578057944774628,0.09595315903425217,-0.03906571865081787,-0.01990041695535183,-0.056478820741176605,0.19205741584300995,-0.08100231736898422,-0.17060290277004242,0.05499965324997902,-0.017817793413996696,-0.4303714334964752,0.17103447020053864,-0.04542773962020874,-0.13454516232013702,-0.35545220971107483,-0.06398724764585495,-0.042586203664541245,-0.31581634283065796,-0.24192646145820618,-0.032310113310813904,0.18758685886859894,0.06355780363082886,0.031148824840784073,-0.15316203236579895,-0.22775046527385712,-0.2264942228794098,0.17330299317836761,-0.1907317340373993,-0.1956447958946228,0.28643229603767395,-0.07495472580194473,-0.32396572828292847,0.33297663927078247,-0.06451452523469925,-0.16735655069351196,0.06768469512462616,-0.012084556743502617,-0.2806723415851593,-0.10770848393440247,0.00027320103254169226,0.08095017075538635,0.4239998459815979,0.050705667585134506,-0.05499090626835823,0.03295276314020157,0.22426405549049377,-0.348603755235672,-0.027459723874926567,0.09805608540773392,0.28078222274780273,-0.42821204662323,-0.16959595680236816,0.19319944083690643,-0.2071130871772766,0.11217328161001205,0.18170389533042908,-0.017939487472176552,0.31442543864250183,-0.010445552878081799,-0.08672931045293808,-0.06232697144150734,-0.013029256835579872,0.05451858788728714,0.11217772215604782,-0.27920204401016235,0.12813076376914978,-0.28855225443840027,-0.07180362939834595,-0.06049104407429695,0.06106254830956459,-0.14453858137130737,-0.11004739254713058,0.20556147396564484,-0.20204497873783112,0.09320294857025146,0.11352682113647461,-0.22262702882289886,0.27455464005470276,-0.17804685235023499,-0.2758340537548065,-0.05742784962058067,-0.23379532992839813,0.041704211384058,0.24936333298683167,-0.08594520390033722,0.17345505952835083,-0.17159168422222137,0.3183281123638153,-0.11845573037862778,-0.16325625777244568,-0.11528817564249039,0.4595773220062256,-0.02162887342274189,0.08470720052719116,-0.051800623536109924,-0.10189363360404968,-0.19604957103729248,-0.14195019006729126,-0.26069334149360657,-0.5359923839569092,-0.359026700258255,-0.2527253329753876,0.20072302222251892,-0.1965831071138382,0.07394467294216156,0.2993360161781311,-0.1695447564125061,0.110149085521698,-0.39152008295059204,-0.08299685269594193,-0.10129594802856445,-0.2339579164981842,0.09856723994016647,0.010202069766819477,0.2716411352157593,0.17266663908958435,0.048272211104631424,-0.18307866156101227,-0.15791405737400055,-0.10442236065864563,-0.33131685853004456,0.022029587998986244,0.1970224827528,-0.029474299401044846,-0.21309243142604828],[0.14947821199893951,0.13454818725585938,-0.13564950227737427,0.08078786730766296,-0.12680132687091827,-0.20454640686511993,-0.0006518760928884149,-0.08330638706684113,-0.2845078706741333,0.20604215562343597,-0.0514925941824913,0.16277074813842773,-0.10487952828407288,0.03681729733943939,-0.26604312658309937,-0.16327089071273804,0.1061650812625885,-0.18957877159118652,-0.19502317905426025,-0.15637966990470886,-0.11050652712583542,0.002066036220639944,0.02090306393802166,0.05173918232321739,0.21046650409698486,0.08329423516988754,-0.07974278181791306,-0.1824750304222107,0.08614297211170197,-0.15802264213562012,0.10953955352306366,0.15656942129135132,-0.04714452475309372,-0.01667735166847706,0.05977818742394447,-0.03987198695540428,0.12522602081298828,0.11234167963266373,-0.15334972739219666,0.15478557348251343,0.16613483428955078,-0.14212968945503235,0.21529874205589294,-0.14853331446647644,-0.27811399102211,0.21436366438865662,0.21377049386501312,0.03266178071498871,0.13324980437755585,-0.10577119141817093,0.18255163729190826,0.10861873626708984,0.33498308062553406,-0.0988677591085434,-0.4820791482925415,0.02706102654337883,0.13972096145153046,0.20498616993427277,-0.047828249633312225,-0.08253154158592224,0.00897571537643671,0.01283760741353035,-0.28646397590637207,0.1502164751291275,-0.04802954941987991,0.2813361585140228,-0.0821620374917984,0.3682035505771637,0.23778492212295532,0.10528451949357986,0.08182705193758011,-0.43434303998947144,-0.18709729611873627,0.07369908690452576,-0.16655899584293365,-0.046100206673145294,0.1307922750711441,0.08283266425132751,0.04125494882464409,-0.19306640326976776,0.2857803404331207,0.024464093148708344,0.2865198254585266,-0.19929422438144684,0.3085826635360718,-0.07306774705648422,0.009034738875925541,0.029909737408161163,-0.037915829569101334,0.004508487414568663,0.2646563947200775,0.2932521402835846,-0.22064901888370514,-0.1927187442779541,-0.19796529412269592,-0.23152367770671844,-0.1156349927186966,-0.27648308873176575,-0.046694375574588776,-0.2021898478269577,0.47343170642852783,-0.21725985407829285,-0.04306243360042572,-0.07886569947004318,0.05644211173057556,0.096962109208107,-0.08250092715024948,-0.10036027431488037,0.07898923009634018,-0.3140925168991089,0.3883991837501526,0.16747641563415527,0.007191748358309269,-0.30982595682144165,0.14120034873485565,0.10682308673858643,0.07583115249872208,-0.06817677617073059,0.20429040491580963,0.13013175129890442,-0.15619531273841858,-0.23359811305999756,-0.0006221911171451211,-0.21118250489234924,-0.09840954095125198,0.00037592058652080595,-0.07420674711465836,-0.02352377586066723],[-0.06071757152676582,0.26109662652015686,-0.1906152218580246,-0.041726939380168915,-0.10210781544446945,0.014605501666665077,0.2284495234489441,-0.24097545444965363,-0.08255258202552795,-0.2055000513792038,-0.016003120690584183,0.13722965121269226,0.14268888533115387,-0.350660502910614,0.08166399598121643,0.09637593477964401,0.15924179553985596,-0.21861395239830017,-0.05384868010878563,-0.30964699387550354,-0.019636858254671097,0.232187420129776,-0.12992599606513977,-0.25225701928138733,0.23711960017681122,-0.12137071043252945,0.0827905535697937,0.10463827103376389,0.18411903083324432,-0.22697575390338898,-0.019117925316095352,-0.2623283565044403,-0.5094600915908813,-0.01961800828576088,0.06524988263845444,-0.02359406277537346,0.15375113487243652,-0.07923911511898041,-0.19593361020088196,0.01485822070389986,0.24380379915237427,-0.010436294600367546,-0.21869327127933502,-0.0258393082767725,0.000046133707655826584,0.16059565544128418,-0.10318803042173386,0.30702486634254456,-0.18031398952007294,-0.014120595529675484,-0.10145775228738785,0.04584779217839241,0.26345112919807434,-0.1427675485610962,0.20516538619995117,0.12054602056741714,-0.00292655429802835,-0.14229805767536163,0.08767973631620407,0.09202469140291214,0.06499757617712021,0.2358218878507614,0.1036214828491211,0.009386143647134304,-0.028075389564037323,-0.24323701858520508,-0.27138185501098633,0.13066166639328003,0.03571734577417374,-0.35339295864105225,-0.025350380688905716,-0.05439431965351105,0.18025201559066772,0.25196102261543274,0.05038999766111374,0.3526354730129242,-0.3263375461101532,0.10722276568412781,-0.16875404119491577,-0.013547096401453018,-0.2524193227291107,-0.11581753194332123,0.3416609764099121,0.08891192078590393,0.18175166845321655,-0.04060383141040802,0.08702068775892258,0.2898125648498535,0.034442439675331116,0.27882739901542664,-0.0115543557330966,-0.15642330050468445,-0.2547784149646759,-0.10108057409524918,0.33300071954727173,-0.09149043262004852,0.3473358750343323,0.20240606367588043,0.021024851128458977,0.3727831542491913,0.14479532837867737,-0.06656378507614136,-0.3771512508392334,0.17694121599197388,0.22073949873447418,0.12256160378456116,-0.05159585550427437,0.10822654515504837,0.18141162395477295,-0.13346421718597412,-0.11248701810836792,-0.1143851950764656,-0.12827910482883453,0.10985200107097626,0.036970626562833786,0.11671924591064453,-0.31554967164993286,0.14337418973445892,-0.17149049043655396,0.22506490349769592,0.38658416271209717,0.11037397384643555,0.046712834388017654,-0.1502208709716797,0.13213391602039337,0.2272869199514389,0.13483840227127075,-0.28066694736480713],[0.17991453409194946,-0.22751376032829285,0.42949193716049194,0.14489296078681946,-0.19788523018360138,0.14673122763633728,-0.016031041741371155,-0.46460676193237305,0.22790150344371796,0.13259586691856384,0.20098388195037842,0.16309762001037598,-0.12167627364397049,-0.13576440513134003,0.17911580204963684,-0.1283794790506363,0.17088617384433746,-0.1321745067834854,-0.13656944036483765,-0.030231738463044167,0.13671667873859406,0.3344138264656067,-0.08116403222084045,-0.0793183445930481,0.18464036285877228,0.09074868261814117,0.1295822709798813,0.19600625336170197,-0.315743625164032,-0.12000087648630142,-0.1702709048986435,-0.2604718804359436,-0.03915948048233986,0.1509164273738861,-0.17863672971725464,0.13094280660152435,-0.3463009297847748,-0.21638226509094238,0.3097851276397705,0.014900729060173035,-0.048503510653972626,-0.228048637509346,0.0795399621129036,0.06950965523719788,0.17323584854602814,0.11394166946411133,0.09029640257358551,0.1534339040517807,0.08666623383760452,-0.2255319058895111,0.1639917641878128,0.14866642653942108,0.1096474826335907,0.04022796452045441,-0.03563199192285538,0.06347795575857162,0.04573731869459152,-0.20048366487026215,-0.09637829661369324,0.19007724523544312,0.22690556943416595,-0.2558017373085022,0.15734897553920746,0.06991652399301529,-0.3010502755641937,-0.14256174862384796,0.11884250491857529,0.26276448369026184,0.18111224472522736,-0.0639825165271759,0.06381092965602875,0.19279246032238007,-0.27751997113227844,-0.16573448479175568,-0.14994262158870697,-0.16424323618412018,0.091364786028862,0.025231674313545227,-0.11156006902456284,0.2088654488325119,0.056403059512376785,-0.23847302794456482,0.3050338625907898,-0.10021252185106277,0.06372188031673431,-0.135774627327919,-0.09566615521907806,-0.0953381285071373,-0.34081563353538513,-0.24116824567317963,-0.09303297102451324,-0.2731514275074005,-0.2110753059387207,0.05461561307311058,-0.16143713891506195,0.40654850006103516,0.16066622734069824,0.0919492095708847,0.10132666677236557,-0.14694185554981232,-0.05972864851355553,0.2106993943452835,0.20579244196414948,0.051695454865694046,0.05565914511680603,-0.20828256011009216,0.01024271734058857,-0.10904773324728012,-0.2860018014907837,-0.012658936902880669,0.163371279835701,0.11517757177352905,0.09342032670974731,-0.06816446781158447,0.1023862287402153,0.14136284589767456,-0.09319032728672028,0.026799624785780907,-0.17189669609069824,0.03263499587774277,-0.31489574909210205,0.1468643695116043,0.4054297208786011,-0.17605523765087128,-0.14057879149913788,0.11974425613880157,-0.1786004602909088,0.015815632417798042],[-0.1624893695116043,-0.0028660919051617384,-0.11599231511354446,-0.2793188989162445,-0.011683652177453041,0.22228725254535675,-0.021795164793729782,-0.12694767117500305,-0.16307812929153442,-0.019605593755841255,0.23897971212863922,0.06951208412647247,-0.20745928585529327,0.015728745609521866,0.046461716294288635,-0.24269656836986542,-0.00328275584615767,-0.5572365522384644,0.10563974827528,0.31692883372306824,-0.05114918202161789,-0.12210755795240402,-0.08398813009262085,-0.5264962911605835,0.027263153344392776,-0.2852019667625427,0.02946615032851696,0.17279447615146637,0.4136178493499756,0.09453429281711578,0.04353830963373184,-0.2248678207397461,-0.10423275083303452,0.21848136186599731,-0.1349479854106903,0.17985227704048157,-0.002122631063684821,0.039739940315485,0.028453730046749115,-0.3594512343406677,-0.2453259974718094,-0.384440153837204,-0.03797444701194763,0.005526959430426359,0.013785452581942081,0.029409663751721382,0.10978852212429047,-0.07412867993116379,0.23194356262683868,-0.09262226521968842,-0.06388028711080551,-0.12448275089263916,-0.12220992147922516,0.05574068799614906,-0.16676023602485657,0.18724963068962097,-0.05096501484513283,-0.05133586376905441,-0.4369087815284729,0.06843037158250809,-0.1542004644870758,-0.12435831874608994,-0.0679488554596901,-0.24596844613552094,-0.29728731513023376,-0.3183850944042206,-0.17020240426063538,0.02866661362349987,0.03720174729824066,0.2902258336544037,0.22461780905723572,-0.06828706711530685,-0.32344162464141846,-0.16521960496902466,-0.15497103333473206,-0.028943153098225594,0.1365106999874115,0.04330822080373764,0.07841821759939194,-0.1648806780576706,-0.03027530387043953,0.20342707633972168,0.21094867587089539,-0.07341039180755615,-0.04963652044534683,-0.09845670312643051,-0.05207952857017517,-0.01284298487007618,0.12337758392095566,-0.25538021326065063,0.06106753274798393,0.025192908942699432,0.09982865303754807,-0.049033865332603455,-0.1575639843940735,0.19559445977210999,-0.2587584853172302,0.13845916092395782,0.14814016222953796,-0.11168898642063141,0.016226090490818024,0.21179412305355072,-0.08796074241399765,0.17588494718074799,-0.0660981759428978,-0.09416428953409195,-0.006308885756880045,0.011197606101632118,0.2131301462650299,-0.12854306399822235,0.1483766883611679,0.03947306051850319,0.057147521525621414,-0.153983011841774,-0.07536810636520386,-0.07103151828050613,-0.23094689846038818,-0.15139982104301453,0.13114508986473083,0.030535312369465828,0.1795833855867386,0.06510331481695175,-0.16071973741054535,0.06650641560554504,-0.22737137973308563,-0.021217327564954758,0.05268489196896553,0.005842556711286306],[-0.06650462746620178,-0.09960448741912842,-0.34063827991485596,0.19390752911567688,-0.28156667947769165,-0.0036058970727026463,-0.06285576522350311,0.1651252657175064,-0.14105214178562164,-0.14943119883537292,0.08578892052173615,0.18575844168663025,-0.07924158126115799,0.10763929784297943,-0.23018547892570496,-0.21028673648834229,-0.2725083529949188,-0.17911936342716217,-0.2055472880601883,0.475165456533432,-0.16621874272823334,-0.07756295055150986,0.10854389518499374,-0.1815105676651001,0.2983415722846985,-0.2139456868171692,0.1989961862564087,-0.07147616893053055,0.3312959372997284,-0.023039869964122772,-0.208567276597023,-0.0023077605292201042,0.032618794590234756,0.022829439491033554,0.020678898319602013,0.167852520942688,-0.03612806275486946,0.015551505610346794,-0.24701856076717377,0.32692983746528625,-0.13366514444351196,0.03338894620537758,0.1528678834438324,0.013267808593809605,-0.09161054342985153,-0.18759691715240479,-0.09706892818212509,-0.14485503733158112,0.0847105160355568,0.24722515046596527,-0.01859552599489689,-0.37570929527282715,-0.00044819607865065336,0.020216945558786392,0.05508403480052948,-0.05976581573486328,0.07805078476667404,-0.030219240114092827,0.02695687673985958,0.011040638200938702,0.18638700246810913,0.07577924430370331,-0.17459139227867126,-0.18546868860721588,0.046211421489715576,-0.2265777736902237,-0.039031386375427246,-0.06347888708114624,-0.14443525671958923,-0.014271731488406658,0.13240045309066772,-0.03875064104795456,-0.024061722680926323,0.22158369421958923,-0.009606359526515007,-0.029098009690642357,-0.09694577008485794,-0.23705224692821503,0.06213831156492233,-0.018114784732460976,0.21560688316822052,-0.20607702434062958,-0.09309199452400208,0.04092779755592346,0.1478194296360016,-0.2095579355955124,0.25231239199638367,0.13480927050113678,0.15574906766414642,-0.04766793176531792,0.07130073755979538,0.1246943473815918,-0.06809631735086441,-0.07647570222616196,0.13961142301559448,-0.3468337059020996,-0.13168925046920776,-0.06825731694698334,-0.06740671396255493,0.2639153301715851,-0.008057631552219391,-0.012940344400703907,0.2523743510246277,-0.009109698235988617,-0.07219381630420685,-0.12676362693309784,0.06051793694496155,0.09265808761119843,-0.317822128534317,0.2815847396850586,-0.08163215965032578,-0.10901010036468506,0.05990918353199959,0.15329115092754364,-0.2543032765388489,0.2853367030620575,0.06535051763057709,-0.04562174901366234,0.016686314716935158,-0.3038256764411926,-0.0643201470375061,0.17996396124362946,-0.034257322549819946,0.10145933926105499,-0.20422379672527313,0.13313481211662292,-0.1614091545343399,-0.05419090390205383],[-0.03269169479608536,-0.044621359556913376,-0.3148752748966217,-0.4951462745666504,-0.050046999007463455,-0.05017119646072388,0.13163812458515167,0.5173125863075256,-0.29933544993400574,0.24934682250022888,0.08403819799423218,-0.32376614212989807,0.0747462660074234,0.0751960352063179,-0.39051029086112976,0.31946057081222534,0.10863259434700012,0.08834533393383026,-0.22540271282196045,-0.15928569436073303,-0.038580913096666336,0.04847702011466026,0.11255768686532974,-0.13184788823127747,-0.08508744835853577,0.07336588203907013,0.11565329879522324,-0.1136041060090065,-0.05883971229195595,0.07385075092315674,0.3620169460773468,0.021858470514416695,-0.0047088004648685455,0.1232934221625328,-0.10069727152585983,-0.17926181852817535,-0.21300767362117767,0.10203629732131958,-0.06819892674684525,0.034625343978405,-0.10296491533517838,0.15694351494312286,0.10972055047750473,-0.15263889729976654,-0.01664971001446247,-0.021883655339479446,0.03419377654790878,0.08637437969446182,0.06448114663362503,0.29060304164886475,0.0865585133433342,-0.1150580570101738,0.2058475911617279,0.05708001181483269,0.3475032150745392,-0.24453790485858917,-0.015369226224720478,0.2719076871871948,0.07468341290950775,0.10150902718305588,-0.2180301398038864,-0.012388779781758785,-0.04855072498321533,-0.007415421307086945,0.14377257227897644,-0.12715883553028107,-0.06665004789829254,0.038403578102588654,0.05233195424079895,-0.17955851554870605,0.038234200328588486,0.04847724735736847,0.021279020234942436,0.29891902208328247,0.13827469944953918,0.0470559261739254,-0.37317243218421936,0.04738101363182068,-0.19330434501171112,-0.17750896513462067,-0.27610692381858826,-0.12087847292423248,0.3262578845024109,0.01821836084127426,-0.37367352843284607,-0.09020280092954636,-0.13720661401748657,0.3241167664527893,0.07074510306119919,0.27973848581314087,-0.26567086577415466,0.2527109682559967,0.16179390251636505,0.1248450055718422,-0.0006866040057502687,-0.09512289613485336,-0.20796740055084229,0.11678578704595566,0.16019394993782043,0.21004687249660492,0.16085392236709595,-0.24625836312770844,0.13851386308670044,0.19621175527572632,-0.05013493821024895,0.1899339109659195,0.1848359853029251,0.03883706405758858,-0.06858101487159729,-0.03809419646859169,0.15889501571655273,0.3938937485218048,-0.2103068083524704,0.05980503186583519,-0.2593608796596527,-0.15506960451602936,0.29665082693099976,0.28663432598114014,-0.062050510197877884,0.0447201207280159,-0.07489681988954544,-0.01759750209748745,0.19450366497039795,-0.19214580953121185,-0.01168038323521614,-0.2755802273750305,-0.3406459093093872,0.26012444496154785],[0.07402294129133224,-0.5294044613838196,-0.17506417632102966,0.022864235565066338,-0.27895426750183105,-0.08718951046466827,0.06117289513349533,0.14099173247814178,0.057937800884246826,0.05919449031352997,0.06590087711811066,0.12164147198200226,-0.10536613315343857,0.14642298221588135,0.3191409111022949,-0.021738097071647644,-0.034966014325618744,0.05305180698633194,0.1630072146654129,0.15976019203662872,-0.12425031512975693,0.234506294131279,-0.05080018192529678,0.05350688099861145,0.1847107857465744,0.07292081415653229,0.05201695114374161,-0.2883797585964203,0.255743145942688,-0.2538779079914093,0.06643562763929367,-0.15775136649608612,0.1682361513376236,-0.2925620973110199,0.09936849772930145,0.36904996633529663,-0.17829377949237823,-0.19637833535671234,-0.03153567761182785,0.03446423262357712,-0.2005835473537445,0.08062844723463058,-0.19394084811210632,0.20350155234336853,-0.18569926917552948,0.10760532319545746,0.20268581807613373,-0.06614620983600616,0.2151850014925003,-0.16575877368450165,-0.05726836994290352,0.36712199449539185,0.08189531415700912,-0.04780510812997818,-0.015634810552001,0.47173449397087097,-0.3371763229370117,0.08688496053218842,-0.24064740538597107,0.02122623845934868,0.006158566568046808,-0.39523667097091675,0.37275323271751404,0.27781328558921814,0.0008633203688077629,0.1311587542295456,-0.15948784351348877,-0.057769887149333954,0.03143756464123726,0.04413404315710068,-0.12601736187934875,0.058295104652643204,0.06484469771385193,-0.1615384817123413,-0.22887977957725525,0.2850378155708313,0.21655508875846863,0.05054258182644844,-0.09801379591226578,0.2135292887687683,0.19761407375335693,0.07767519354820251,0.19098402559757233,-0.07382940500974655,0.24408745765686035,-0.14881837368011475,0.0371193066239357,-0.08499453961849213,-0.13564108312129974,0.07500102370977402,-0.025376813486218452,0.02732205018401146,0.014836807735264301,0.36295855045318604,-0.060488004237413406,-0.3404644727706909,-0.17360112071037292,0.2537083923816681,-0.2143566757440567,-0.09658607095479965,0.013905634172260761,0.06791310757398605,-0.03185988962650299,0.06886342167854309,-0.45046940445899963,-0.21880143880844116,0.05437428876757622,0.10858988761901855,0.1513279527425766,-0.21336279809474945,0.030428696423768997,-0.03103182092308998,-0.13219089806079865,0.10793942958116531,-0.0882997214794159,-0.040248673409223557,0.23102088272571564,-0.39592045545578003,-0.20740611851215363,-0.2027764916419983,-0.24821169674396515,-0.07150745391845703,0.07729433476924896,-0.16540250182151794,-0.3171234130859375,-0.16732999682426453,0.12100442498922348,0.1365625560283661],[-0.03203490003943443,-0.29877299070358276,-0.027070188894867897,0.22326229512691498,-0.3054657578468323,0.09912195056676865,0.20531299710273743,0.14957280457019806,-0.12409339845180511,-0.14660868048667908,-0.16888421773910522,-0.08301201462745667,-0.03549698740243912,0.22093316912651062,-0.15364502370357513,0.13428233563899994,-0.23831923305988312,-0.1251254379749298,0.45797237753868103,-0.10696092247962952,-0.10299728065729141,-0.1262633055448532,-0.22405271232128143,0.04279347509145737,-0.4066743850708008,0.01953129656612873,-0.18499402701854706,0.020224498584866524,-0.16228799521923065,0.24577276408672333,0.15938878059387207,0.282766729593277,0.20759981870651245,-0.3543948829174042,0.15587639808654785,-0.02045457996428013,-0.13870635628700256,-0.021952379494905472,0.06201022118330002,0.11597759276628494,0.0727880597114563,0.08930308371782303,-0.10620132088661194,-0.10877743363380432,-0.08966457843780518,0.14913158118724823,0.05806718394160271,-0.04559646546840668,0.07652758806943893,0.0933968797326088,0.12186045944690704,-0.2177901268005371,-0.027695035561919212,-0.1118917316198349,-0.40408721566200256,0.064205102622509,0.16415317356586456,-0.08676239848136902,-0.2181696891784668,-0.11265759915113449,-0.1446850448846817,0.04576153680682182,-0.003973464481532574,-0.30312392115592957,-0.08756700158119202,0.16898246109485626,0.2215597927570343,0.05451425164937973,0.1454688012599945,0.42561835050582886,-0.18355074524879456,0.14595933258533478,-0.18492081761360168,0.14525288343429565,0.17296352982521057,0.14356793463230133,-0.16997462511062622,0.4391002655029297,-0.013597444631159306,-0.10388363152742386,-0.09755370020866394,0.46787601709365845,-0.1914035975933075,0.03728093206882477,0.058162953704595566,-0.09661616384983063,-0.154702827334404,0.05913045257329941,0.06492073088884354,-0.0948076918721199,0.018808428198099136,0.016769906505942345,-0.2027626782655716,-0.04424559324979782,-0.17439135909080505,-0.12749187648296356,-0.02833034098148346,-0.1512892097234726,-0.102853924036026,-0.2619466781616211,-0.5620887875556946,0.25429949164390564,0.05293789505958557,0.060838017612695694,0.2879710793495178,-0.17234930396080017,0.0535983070731163,0.14737465977668762,-0.1630840301513672,0.23156777024269104,-0.059799131006002426,-0.14455683529376984,-0.18039359152317047,0.12660136818885803,0.04267291724681854,0.2381274551153183,0.22931112349033356,0.012411143630743027,-0.03319070115685463,-0.033141326159238815,-0.061680179089307785,0.20768488943576813,0.20933648943901062,-0.018417902290821075,0.1544865518808365,-0.09276265650987625,-0.11552619934082031,-0.1501150280237198],[0.3366268575191498,0.14702102541923523,-0.09294547885656357,0.19971410930156708,0.07733431458473206,-0.03942062705755234,-0.10670633614063263,-0.19403351843357086,-0.0986182689666748,0.017589131370186806,0.17932894825935364,0.026595860719680786,0.16025646030902863,0.02455168217420578,0.2791256606578827,0.5207371115684509,0.31459954380989075,-0.3313409388065338,-0.24626734852790833,-0.17525066435337067,-0.042581453919410706,-0.1128881573677063,0.2521653175354004,-0.13622058928012848,0.005846409127116203,0.052571047097444534,0.03579036891460419,-0.10273686796426773,0.11496570706367493,-0.1530923694372177,0.21991723775863647,0.1768869310617447,0.22683419287204742,-0.06198698282241821,0.06572556495666504,0.1857360601425171,0.154184028506279,-0.06757006794214249,-0.08025698363780975,0.18485769629478455,0.03662746027112007,-0.16974149644374847,0.252991646528244,-0.07373394072055817,-0.03672952577471733,-0.2230408936738968,0.11432152986526489,-0.2394900918006897,0.1566527932882309,-0.02137547731399536,-0.23456859588623047,-0.07749151438474655,-0.0021156358998268843,0.2276347577571869,-0.07133547961711884,0.30568763613700867,0.023896727710962296,-0.29060637950897217,0.09673570841550827,0.16129690408706665,-0.26569098234176636,-0.10968532413244247,0.04079881310462952,0.24176010489463806,-0.20837198197841644,0.1839471310377121,-0.13085640966892242,0.05961019545793533,0.014025181531906128,0.048498962074518204,0.01136691588908434,0.4538117051124573,-0.05048670247197151,-0.014880676753818989,0.039502229541540146,0.16943104565143585,0.35234490036964417,-0.016843628138303757,0.210785374045372,0.11783915758132935,0.1055276170372963,0.15110012888908386,0.27836278080940247,-0.05391993746161461,0.20339737832546234,0.30973580479621887,-0.15083910524845123,0.08839772641658783,-0.1365840882062912,-0.04017944633960724,0.12757140398025513,0.04563853144645691,0.017748333513736725,0.22174087166786194,0.08027038723230362,-0.07691429555416107,-0.01877911575138569,-0.17738041281700134,-0.03741493076086044,-0.0033882567659020424,0.12107476592063904,0.02572578191757202,-0.04853639379143715,-0.20170006155967712,-0.3632303476333618,0.26769405603408813,-0.1873503029346466,-0.047687988728284836,0.15690185129642487,-0.3596763014793396,0.1619812697172165,0.06897925585508347,-0.18082045018672943,0.2174241542816162,0.10361102968454361,0.032156120985746384,0.03563166409730911,-0.174421027302742,0.21590325236320496,0.35892367362976074,-0.045783620327711105,-0.1181100606918335,-0.1264093965291977,-0.18805469572544098,0.007097712252289057,-0.24881556630134583,0.03927300497889519,-0.018710721284151077],[0.05156402289867401,0.15311510860919952,0.05174848064780235,-0.11311917006969452,-0.13690300285816193,0.20337961614131927,0.02526518888771534,-0.4513480067253113,-0.18000400066375732,0.06029101833701134,0.030749987810850143,-0.18484076857566833,-0.1164177656173706,-0.0019348734058439732,-0.07658788561820984,-0.2508079409599304,0.1018652617931366,-0.2566421627998352,-0.06141198053956032,-0.07217089831829071,-0.325936496257782,-0.016416046768426895,-0.09462512284517288,-0.1399499922990799,-0.22784514725208282,-0.02464372105896473,-0.3255466818809509,0.19187583029270172,0.17382284998893738,-0.00534904794767499,0.0005552144139073789,-0.09309006482362747,-0.2867709994316101,0.060784611850976944,-0.024417560547590256,-0.161477729678154,0.07798148691654205,0.07508014887571335,-0.3813483715057373,0.17455615103244781,-0.028309518471360207,-0.06635891646146774,0.07700278609991074,0.19249476492404938,0.017857972532510757,-0.117764912545681,0.21783514320850372,0.07008945196866989,-0.29230162501335144,-0.15058477222919464,0.13025900721549988,-0.05733434855937958,-0.1578327864408493,0.0031903828494250774,-0.05383617430925369,-0.19173844158649445,-0.3017106056213379,0.1887510120868683,-0.10111059993505478,0.04323727637529373,-0.03339467942714691,-0.2904401123523712,0.11147688329219818,-0.025538092479109764,-0.17216414213180542,0.13448064029216766,-0.06229761242866516,0.09974963963031769,-0.24062499403953552,0.03229374438524246,-0.12884603440761566,0.21132291853427887,-0.13725855946540833,0.11493580043315887,-0.2705230712890625,0.012367538176476955,-0.20042189955711365,0.04698648303747177,-0.20207621157169342,0.2899740934371948,0.31089600920677185,0.029249785467982292,-0.20221003890037537,0.13490162789821625,-0.11139333993196487,-0.21292881667613983,0.13451901078224182,0.12686428427696228,-0.11286702752113342,-0.11717209964990616,0.10401497036218643,0.4798054099082947,-0.04300037771463394,-0.30883467197418213,-0.07814294099807739,-0.0339413546025753,0.19198165833950043,-0.3146202266216278,-0.0835871547460556,0.04734758287668228,-0.013880140148103237,0.2929458022117615,-0.34556496143341064,-0.10493537783622742,0.1876709908246994,0.0100486408919096,0.13550996780395508,0.14554934203624725,-0.034717120230197906,-0.29976144433021545,0.06307895481586456,-0.21082626283168793,-0.19766877591609955,0.18109795451164246,-0.05189209058880806,-0.06750193238258362,-0.07106400281190872,0.00900319404900074,-0.0815691351890564,0.06261754781007767,0.22106008231639862,-0.058806102722883224,0.0258218664675951,-0.016436437144875526,0.006408072542399168,0.08369407802820206,-0.019074931740760803,0.09783992916345596],[-0.20897944271564484,-0.0615464448928833,0.08088856190443039,-0.16830135881900787,0.242934450507164,-0.09220921993255615,0.22341249883174896,0.04882171005010605,0.21089012920856476,0.0836963802576065,0.005996886175125837,0.10203525424003601,-0.1895149052143097,-0.18326117098331451,0.31279873847961426,-0.11256001889705658,-0.21079587936401367,-0.2524360418319702,-0.12654244899749756,0.2560189664363861,-0.08474762737751007,0.09838389605283737,0.0011003609979525208,-0.11615132540464401,-0.010103204287588596,0.13029758632183075,-0.37749603390693665,-0.020209161564707756,-0.03307762369513512,-0.08642283082008362,-0.04584730416536331,-0.07022828608751297,0.010030299425125122,0.010052905417978764,-0.052264124155044556,-0.22997163236141205,0.08469146490097046,-0.3708632290363312,0.1508871465921402,0.06533358991146088,0.23281843960285187,0.0705966129899025,-0.033236484974622726,0.05063826963305473,-0.10736369341611862,-0.11955099552869797,0.014191225171089172,0.05533479526638985,-0.0346214696764946,-0.2213364690542221,0.013336285948753357,-0.16981558501720428,0.1315646767616272,0.02922876551747322,0.11765050143003464,-0.20372840762138367,-0.010726967826485634,-0.08833610266447067,-0.11988179385662079,-0.015276903286576271,-0.16516898572444916,-0.06056760996580124,-0.09781944006681442,-0.2109360694885254,0.029599634930491447,-0.33074551820755005,0.11336908489465714,0.14893317222595215,0.20648762583732605,-0.04447293281555176,-0.1754608303308487,0.05414392799139023,-0.08510064333677292,0.0792570635676384,-0.0004443138313945383,-0.14134226739406586,0.35395774245262146,-0.15008345246315002,0.44921422004699707,0.1444246917963028,-0.0023334745783358812,0.24063652753829956,0.06565114110708237,-0.35493186116218567,0.042609281837940216,0.0802471861243248,-0.10814269632101059,-0.03574835881590843,-0.13756124675273895,0.2398190051317215,0.24421897530555725,0.31314852833747864,-0.3594949245452881,-0.4441806375980377,0.034916702657938004,0.0530572235584259,-0.10597805678844452,-0.20290100574493408,-0.13585534691810608,-0.0013629653258249164,0.09314537048339844,-0.06681499630212784,0.081846684217453,-0.23892825841903687,0.08596786856651306,0.00890895165503025,-0.1145753264427185,0.5334262251853943,0.030444636940956116,-0.18050076067447662,-0.1313437819480896,-0.15169039368629456,-0.15039122104644775,-0.23758462071418762,-0.02220182679593563,-0.30308008193969727,0.06732932478189468,-0.15684834122657776,0.259448766708374,0.09128953516483307,-0.05832456797361374,0.03820018470287323,-0.07971490174531937,0.0033252805005759,0.07690637558698654,0.016955541446805,0.24203594028949738,0.12983334064483643],[0.1695736199617386,-0.03631337732076645,0.07646705955266953,-0.22890768945217133,0.15290334820747375,0.20488259196281433,-0.028186924755573273,-0.275630384683609,-0.1959749013185501,-0.3732134997844696,-0.019221121445298195,0.10612964630126953,-0.08424336463212967,0.23581981658935547,-0.3483472764492035,-0.22502191364765167,0.04414767771959305,0.06200563907623291,0.02864229865372181,-0.053627148270606995,0.044232577085494995,0.18758738040924072,-0.2152632176876068,-0.057361453771591187,-0.3353605568408966,-0.1891511082649231,0.08007233589887619,0.17491677403450012,-0.38593366742134094,0.05893781781196594,-0.15701057016849518,-0.0428115613758564,0.32170116901397705,0.18438658118247986,-0.20696291327476501,-0.16045404970645905,-0.055239398032426834,-0.10919252038002014,0.42126113176345825,-0.0983503982424736,-0.4263288378715515,-0.3832167088985443,0.08764063566923141,-0.03895513340830803,-0.2830522954463959,0.049430157989263535,0.02494671568274498,-0.13193769752979279,0.1678977608680725,-0.20443816483020782,-0.1338294893503189,-0.18994343280792236,-0.17206096649169922,-0.15677717328071594,0.06317879259586334,-0.2800173759460449,-0.07497277855873108,0.02328447811305523,0.029381833970546722,0.08991114795207977,0.1450057029724121,0.1495298147201538,-0.12896673381328583,0.002838411834090948,-0.07232271134853363,-0.16121576726436615,-0.10580970346927643,0.18141718208789825,0.01159579399973154,0.008478846400976181,-0.11556749045848846,0.11304865777492523,-0.04022127389907837,-0.3375435769557953,0.11362645030021667,0.00015717517817392945,0.25948566198349,-0.20260092616081238,0.054408494383096695,-0.19448156654834747,-0.015017863363027573,-0.03625587373971939,0.1747344583272934,-0.21536658704280853,-0.22594061493873596,-0.2170669287443161,-0.10489585250616074,-0.18590949475765228,0.028231071308255196,-0.21064649522304535,0.13423755764961243,0.08019063621759415,-0.09316355735063553,-0.1895095705986023,-0.09969226270914078,-0.003865600563585758,-0.07639893889427185,0.008125542663037777,-0.07574670761823654,0.2068382352590561,0.17661622166633606,-0.2500009834766388,-0.16219523549079895,0.13259999454021454,-0.03989880904555321,-0.08161544799804688,0.03002353012561798,-0.2720452547073364,-0.09343641251325607,-0.3635933995246887,-0.10949922353029251,0.008611236698925495,0.13668476045131683,-0.15268884599208832,-0.11907719820737839,0.11442510783672333,-0.12228361517190933,0.013286616653203964,-0.4883732795715332,0.447934091091156,-0.03687632828950882,0.18371187150478363,-0.04501072317361832,-0.19893261790275574,0.09563960134983063,0.21794867515563965,-0.08643725514411926,-0.10488148778676987],[-0.45945146679878235,-0.13371185958385468,-0.058672528713941574,0.14468497037887573,-0.046017684042453766,-0.022755706682801247,0.013412714004516602,-0.1088101863861084,0.0699957087635994,0.5033818483352661,0.029796205461025238,-0.08021551370620728,-0.24715325236320496,-0.29241397976875305,0.06515105068683624,-0.023901719599962234,-0.09148549288511276,0.1774861067533493,-0.3822197914123535,-0.23540277779102325,0.2557850480079651,-0.05295930802822113,-0.14086110889911652,0.022057699039578438,0.15178214013576508,0.17590941488742828,0.22077587246894836,0.15860174596309662,-0.15929649770259857,0.03453009948134422,0.0296879131346941,-0.04846950247883797,-0.06786498427391052,0.04977889731526375,-0.18934942781925201,-0.050433676689863205,0.07090102881193161,-0.03690866008400917,-0.1649598330259323,-0.23463426530361176,0.11966202408075333,-0.2999415993690491,0.08656293153762817,-0.08172465860843658,-0.18712614476680756,-0.05541668087244034,-0.1381247639656067,-0.005151804070919752,-0.08166781067848206,0.05566565692424774,0.06489189714193344,-0.22775506973266602,-0.18575680255889893,-0.09969491511583328,0.2697690427303314,0.06723234057426453,-0.005253324750810862,0.04694925621151924,0.04070468246936798,-0.06115816906094551,0.04853421449661255,0.20833681523799896,0.4737257957458496,-0.08718001842498779,-0.004450703971087933,0.08636723458766937,0.002075459808111191,0.013602741993963718,0.35185903310775757,-0.0662945955991745,-0.01392983365803957,-0.36410069465637207,-0.07787507027387619,-0.14189976453781128,0.3286447823047638,-0.032599449157714844,0.28416556119918823,0.10339444875717163,-0.0430724062025547,0.1457848995923996,-0.15472839772701263,0.2823394238948822,0.14685823023319244,0.22008159756660461,-0.1228027269244194,0.020047925412654877,-0.18826819956302643,0.3451763093471527,-0.10543515533208847,0.10376238077878952,0.001192198833450675,0.0384012833237648,0.07151266187429428,-0.24644601345062256,-0.2857876718044281,0.13630473613739014,0.09544740617275238,0.0506383553147316,-0.05471377447247505,-0.13739241659641266,0.02057660184800625,-0.0473581999540329,-0.15644299983978271,0.035409409552812576,0.04061118885874748,0.10658466815948486,-0.2850288152694702,0.10312413424253464,0.02392847277224064,-0.22074063122272491,0.28239884972572327,-0.14266617596149445,-0.33664819598197937,-0.1437356024980545,0.08178683370351791,-0.10571841895580292,0.18717917799949646,0.08360316604375839,0.26291996240615845,0.18540793657302856,0.04412155598402023,-0.055055901408195496,-0.0803443044424057,-0.17230865359306335,-0.08392178267240524,-0.13116544485092163,-0.17362064123153687,0.05662524700164795],[0.01950586773455143,-0.22219032049179077,-0.4138436019420624,-0.20835943520069122,-0.3347650468349457,-0.16155734658241272,0.166098952293396,0.1036059632897377,0.21628613770008087,0.2750628888607025,-0.23413558304309845,-0.37897011637687683,0.10549014806747437,-0.2558647692203522,-0.3893941044807434,-0.061000142246484756,-0.14218047261238098,0.0004032077267765999,-0.09875775873661041,-0.24347391724586487,-0.05537834390997887,-0.16913922131061554,-0.0013737294357270002,-0.1629321277141571,-0.015171468257904053,0.14218515157699585,0.24013935029506683,-0.12254872173070908,-0.1383269727230072,-0.06817957758903503,-0.19428564608097076,-0.08830279111862183,0.16298498213291168,-0.24273844063282013,0.2773878872394562,-0.12507736682891846,-0.2789117097854614,-0.282897412776947,-0.28567251563072205,0.0007433599093928933,0.04204705357551575,0.11498884111642838,-0.08118145167827606,-0.14782296121120453,-0.10100799053907394,-0.12611433863639832,-0.10875893384218216,0.16204313933849335,-0.05666746571660042,-0.2551121413707733,-0.08203037828207016,0.12957724928855896,-0.02601245790719986,-0.2616315484046936,0.10418102145195007,0.07920278608798981,-0.25554656982421875,-0.147687166929245,-0.1973368376493454,-0.01024317555129528,-0.04185387119650841,0.18406963348388672,0.12790118157863617,0.09852579236030579,-0.009369470179080963,-0.24434824287891388,0.04557960107922554,0.1052798330783844,0.49007734656333923,0.14859358966350555,0.015968313440680504,-0.08345209807157516,-0.3632936179637909,0.23832108080387115,0.048979751765728,0.08282777667045593,0.03749626874923706,0.24111196398735046,-0.13097351789474487,-0.08986586332321167,-0.08706136047840118,0.3311114013195038,-0.15605506300926208,0.11764360964298248,0.260725736618042,-0.055046334862709045,0.13723978400230408,0.02838965319097042,-0.07193335890769958,-0.11231333762407303,0.07418466359376907,0.0073176282458007336,0.20389209687709808,-0.023826150223612785,0.11416571587324142,-0.053631946444511414,0.17725592851638794,-0.09933747351169586,0.079991914331913,-0.3517215847969055,-0.16305823624134064,-0.28927290439605713,-0.2094181478023529,-0.35609620809555054,0.1904890388250351,0.1542012095451355,-0.10932276397943497,-0.16114185750484467,0.21151773631572723,-0.15342123806476593,0.0670422911643982,-0.1544940322637558,-0.3043890595436096,-0.08770643174648285,-0.16767893731594086,-0.19874142110347748,0.025712747126817703,0.11490987241268158,-0.2148045003414154,-0.0641978532075882,0.4060003459453583,-0.23616941273212433,-0.33302024006843567,0.25766265392303467,0.07163726538419724,0.46220844984054565,0.09309601038694382,0.09079609811306],[0.027796853333711624,0.04141226410865784,-0.19198662042617798,-0.21174128353595734,0.10035820305347443,-0.44958996772766113,-0.14923416078090668,0.4023784399032593,0.09369634836912155,0.2525511384010315,-0.0009823556756600738,-0.3182430863380432,-0.001003855373710394,0.11733036488294601,0.052903901785612106,-0.29386192560195923,0.2536749839782715,0.04285312443971634,-0.19555824995040894,0.12018556892871857,0.06516531854867935,0.2335345298051834,0.3297218680381775,0.08961363881826401,-0.3313320279121399,-0.0006701218662783504,0.2319926917552948,-0.024798395112156868,0.06662765890359879,0.21366411447525024,-0.08465109020471573,-0.13710454106330872,0.11033781617879868,-0.010883788578212261,-0.001829274115152657,0.07613828033208847,0.02415507845580578,-0.006836079526692629,0.06115954741835594,-0.13512037694454193,-0.08397547900676727,-0.04582556337118149,0.26299166679382324,-0.036556750535964966,0.15683384239673615,0.06710077822208405,-0.2556701600551605,0.3194015920162201,0.011777094565331936,0.22453327476978302,-0.1242203488945961,-0.24284689128398895,0.041167065501213074,0.08465896546840668,0.11044014245271683,-0.050954896956682205,0.06594221293926239,0.10903589427471161,0.0462833046913147,-0.3640587627887726,-0.17961153388023376,-0.009393502026796341,0.20921003818511963,-0.12142565101385117,-0.347581684589386,-0.13102051615715027,0.03709397092461586,0.4274817407131195,-0.15445896983146667,-0.21778810024261475,0.09715941548347473,0.13066239655017853,-0.19877192378044128,0.003709751181304455,-0.057872433215379715,0.040620267391204834,0.05718923360109329,-0.013154935091733932,-0.21443547308444977,-0.2547358572483063,0.21410806477069855,-0.0434420146048069,0.47491592168807983,0.08069802075624466,0.1326153427362442,-0.04091474413871765,0.16710609197616577,0.47730714082717896,-0.10847436636686325,0.1408592313528061,-0.1765114665031433,0.07911927998065948,-0.2823845446109772,0.1876080483198166,0.2572062313556671,-0.11064208298921585,0.18047073483467102,0.21583108603954315,-0.05890163406729698,0.008805553428828716,0.05026400461792946,0.007986724376678467,-0.10508763045072556,-0.23071637749671936,-0.10302679240703583,0.08275087922811508,-0.3391176462173462,0.1291629821062088,0.000671632238663733,-0.12287093698978424,0.008943228051066399,-0.20662005245685577,0.06632869690656662,0.17378979921340942,0.02347733825445175,-0.10611126571893692,-0.010925662703812122,0.034548163414001465,0.05306844785809517,0.22139675915241241,0.007096509449183941,0.12312188744544983,0.014215945266187191,0.15759041905403137,-0.2887454926967621,0.20860987901687622,0.009914591908454895,0.16008919477462769],[-0.17190542817115784,0.1989148110151291,0.0988699197769165,0.0441383458673954,-0.21866253018379211,-0.10542304068803787,-0.37653830647468567,-0.04405491426587105,0.17209026217460632,0.08790123462677002,0.16558897495269775,-0.16798578202724457,0.12013378739356995,0.1806580275297165,-0.009013286791741848,0.0346851609647274,-0.17588134109973907,-0.010190694592893124,-0.08724840730428696,0.2631339132785797,0.28283005952835083,-0.3132984936237335,-0.09911990165710449,0.23762965202331543,0.15154673159122467,0.08394397050142288,-0.04772619530558586,0.20167143642902374,0.06121329590678215,0.03406304866075516,-0.16941915452480316,0.1703106164932251,0.13114526867866516,-0.05956729128956795,-0.1673351377248764,-0.04232519492506981,-0.02804216556251049,-0.022956017404794693,-0.20144090056419373,0.22391946613788605,0.0698436051607132,0.12656329572200775,0.1349446028470993,0.1782127469778061,-0.009669777937233448,-0.2122814655303955,0.17843347787857056,-0.059131406247615814,0.12093974649906158,-0.20116671919822693,0.20973798632621765,-0.14280809462070465,-0.12587954103946686,0.171946182847023,-0.2017119973897934,-0.18369530141353607,0.0010861041955649853,0.09810364991426468,0.06750211119651794,-0.007380548864603043,-0.13267916440963745,0.1970183551311493,0.16519112884998322,0.16021712124347687,0.04379764944314957,0.014912880025804043,0.11653312295675278,0.17081493139266968,0.02495681121945381,0.19418181478977203,0.3081088960170746,-0.292972594499588,0.27928104996681213,-0.06435815244913101,-0.17955933511257172,-0.05584268644452095,-0.03877968713641167,-0.017493467777967453,-0.02678585611283779,-0.1545906364917755,0.2957074046134949,-0.09959448128938675,-0.1281869262456894,-0.1683780699968338,-0.186284139752388,-0.018432768061757088,0.12110935896635056,0.061617013067007065,0.032500091940164566,0.12036605179309845,0.13087457418441772,0.2280392199754715,-0.022445347160100937,0.24670729041099548,0.017492113634943962,0.009166167117655277,-0.27986788749694824,0.022982774302363396,-0.04370180517435074,-0.05633220076560974,0.034326303750276566,0.02331027016043663,0.016608377918601036,-0.30503877997398376,-0.055606912821531296,-0.0037758005782961845,-0.20074456930160522,-0.21186432242393494,0.01081101130694151,0.031013989821076393,-0.016344033181667328,0.08321073651313782,-0.28030866384506226,0.1295943707227707,0.23057225346565247,0.10389179736375809,-0.035493381321430206,-0.032160684466362,0.2416069209575653,-0.38355717062950134,0.12935273349285126,-0.20223309099674225,0.055413275957107544,-0.2601674795150757,0.05391969904303551,-0.1244143694639206,-0.09425365924835205,-0.17130276560783386],[-0.032577481120824814,-0.47056666016578674,-0.03741573542356491,-0.270004540681839,0.15263406932353973,-0.1818455010652542,-0.230451762676239,-0.2474791258573532,0.08427856117486954,-0.21895860135555267,-0.11203821003437042,-0.20844538509845734,-0.15855059027671814,-0.038037076592445374,-0.30096903443336487,0.11866115778684616,0.11445363610982895,-0.07520353049039841,0.3258734345436096,-0.006341953761875629,-0.08990832418203354,-0.3862297236919403,-0.006419267039746046,0.10243918001651764,0.47122034430503845,-0.08444590121507645,0.031234702095389366,0.09374577552080154,-0.008786430582404137,0.15770091116428375,-0.038436710834503174,0.08653386682271957,-0.13824328780174255,-0.12177274376153946,-0.23927582800388336,-0.013764076866209507,-0.01124272309243679,-0.23022830486297607,0.2598838806152344,-0.18818216025829315,0.24130213260650635,0.06822291761636734,-0.14840811491012573,-0.06742912530899048,-0.11693528294563293,0.22284559905529022,-0.09265540540218353,-0.06710965186357498,0.07468077540397644,-0.0464874692261219,-0.006696980446577072,-0.11925060302019119,-0.4436081349849701,-0.05377704277634621,-0.09226411581039429,0.19463154673576355,-0.0008478004019707441,-0.0363750159740448,-0.07822863757610321,-0.06857793778181076,-0.20293350517749786,-0.09397496283054352,0.4971058964729309,-0.25395429134368896,-0.07148157060146332,0.08963849395513535,-0.3709763288497925,-0.21755127608776093,0.08628793805837631,-0.493438720703125,-0.15935322642326355,0.18091869354248047,-0.13292689621448517,-0.2785843312740326,0.0120744239538908,0.3891026973724365,-0.20934730768203735,-0.1582254022359848,-0.015404504723846912,0.3363407254219055,0.13176754117012024,0.1825086623430252,0.12284474074840546,-0.20129641890525818,0.07721824944019318,-0.3973200023174286,-0.010228060185909271,-0.06312067061662674,-0.03968800976872444,0.17470121383666992,-0.04035137966275215,0.09122323989868164,-0.13115666806697845,0.1063494011759758,-0.07762301713228226,0.08537504076957703,0.04599402844905853,0.44946467876434326,-0.16217827796936035,-0.022391345351934433,-0.24138668179512024,0.1245684027671814,-0.0736331045627594,-0.14723463356494904,-0.2891683280467987,-0.23544956743717194,0.03898561745882034,0.2066822648048401,-0.12826602160930634,-0.04206988215446472,-0.2478073388338089,0.27726930379867554,-0.10988457500934601,0.07230754941701889,-0.15576434135437012,-0.028032450005412102,-0.21050210297107697,-0.029744060710072517,0.1122574508190155,-0.06960118561983109,-0.07471032440662384,0.03829728439450264,-0.06502895802259445,-0.034104809165000916,-0.042953476309776306,-0.3240385353565216,-0.24863487482070923,0.07948356121778488],[0.10608450323343277,-0.3132443130016327,0.09738156944513321,0.20338620245456696,0.09124375134706497,0.03780245780944824,-0.13133864104747772,0.05656694248318672,-0.17339999973773956,0.30762195587158203,-0.13224753737449646,-0.0494459792971611,0.1872781664133072,-0.1447155773639679,0.3517690598964691,0.01740354485809803,0.014558828435838223,0.1600448489189148,0.018942799419164658,-0.21757274866104126,-0.005821865983307362,0.22629882395267487,0.10522055625915527,0.06586207449436188,-0.15405650436878204,-0.008565239608287811,-0.22575736045837402,-0.12020977586507797,0.07287123054265976,0.4938095211982727,0.27826374769210815,0.23399320244789124,0.34405094385147095,0.004121923819184303,0.057615190744400024,0.13573619723320007,-0.18682610988616943,-0.0016048430697992444,0.39055556058883667,-0.1837766021490097,-0.3835715055465698,0.13781754672527313,0.08875494450330734,-0.06181536242365837,0.04378564655780792,-0.13100549578666687,-0.05615818873047829,-0.36524033546447754,0.07551595568656921,0.0343543104827404,0.1604647934436798,-0.20879466831684113,0.12420207262039185,-0.1093774139881134,0.10680729895830154,-0.03898139297962189,0.34987762570381165,0.09722006320953369,0.24610354006290436,-0.18759843707084656,-0.000527989468537271,0.0660300925374031,-0.12835465371608734,0.06375493854284286,0.26185476779937744,-0.1014612689614296,0.26940882205963135,-0.22285819053649902,-0.048417311161756516,0.1462605744600296,-0.1815398782491684,-0.051635805517435074,-0.1484396606683731,0.11872832477092743,-0.07509461790323257,0.11716942489147186,0.058831069618463516,-0.11503224074840546,-0.3226301670074463,0.07895342260599136,0.08940304815769196,-0.047881320118904114,0.19730304181575775,-0.20452891290187836,0.07919501513242722,-0.09793820232152939,0.3878663182258606,-0.10414654016494751,0.09098199009895325,-0.3252139389514923,0.16305847465991974,-0.1305713951587677,0.31757065653800964,-0.03910840302705765,-0.19156809151172638,-0.10037045180797577,-0.28018543124198914,-0.13496418297290802,-0.025760818272829056,-0.2290009707212448,-0.06706925481557846,-0.3459830582141876,0.020922726020216942,-0.42022204399108887,0.05011947080492973,0.015913011506199837,-0.040932707488536835,-0.02541017159819603,0.12626273930072784,-0.11281731724739075,0.394025981426239,0.08800046145915985,-0.22048118710517883,-0.07893183082342148,0.02880137227475643,-0.07110868394374847,-0.038951657712459564,0.04080050438642502,-0.14916424453258514,0.03829912096261978,0.0005401955568231642,0.3842855393886566,-0.2364075928926468,-0.14525708556175232,0.14373472332954407,-0.3088047504425049,0.10287883877754211,0.24941538274288177],[0.11903256177902222,0.4540437161922455,0.30334892868995667,-0.1923748403787613,-0.030287066474556923,0.02875182032585144,0.0699867308139801,0.0395001620054245,0.20290035009384155,0.23121321201324463,-0.1235715001821518,0.005498814862221479,0.033541057258844376,0.11919771134853363,-0.0014070180477574468,0.26219287514686584,0.036222219467163086,0.057072754949331284,0.14954857528209686,-0.05276017263531685,0.06183096021413803,0.023576103150844574,0.3708958625793457,0.018852809444069862,-0.04288488253951073,0.2608642578125,-0.2961810827255249,0.1367097645998001,0.5229275822639465,-0.1848440021276474,-0.010014750063419342,-0.17458854615688324,-0.023088153451681137,0.10926926881074905,0.06579704582691193,-0.16797803342342377,-0.08561468869447708,0.17984238266944885,-0.07852064818143845,0.0903468057513237,-0.013684267178177834,0.24233004450798035,-0.036103423684835434,-0.058924976736307144,-0.20240898430347443,-0.11760924011468887,-0.3912836015224457,0.24132609367370605,0.07210616022348404,0.09208177775144577,0.18916025757789612,-0.03447611629962921,0.2948932945728302,0.10417577624320984,-0.37843066453933716,0.08622891455888748,-0.18288056552410126,-0.25215843319892883,-0.1399296522140503,-0.0992354080080986,0.16342398524284363,0.4215579032897949,0.2736108601093292,0.20073318481445312,0.1817495971918106,-0.05590932071208954,0.05775518715381622,-0.2646936774253845,0.2696959376335144,-0.06510593742132187,0.13674849271774292,0.03654574975371361,0.0071250637993216515,0.002734073903411627,-0.0003051050298381597,0.0428725890815258,0.009621971286833286,-0.23377680778503418,-0.03012003004550934,0.305799275636673,0.15499548614025116,0.2611619532108307,-0.5423967242240906,-0.4417630136013031,0.15837150812149048,-0.18600811064243317,0.23224113881587982,0.034482043236494064,-0.004146560560911894,-0.008806786499917507,-0.3204650580883026,-0.06294246762990952,0.07715292274951935,0.3335212171077728,-0.169316828250885,0.26803478598594666,0.08733444660902023,0.10832209885120392,0.13702315092086792,-0.23983439803123474,0.015600312501192093,-0.04119370877742767,0.08774659782648087,0.3846398591995239,-0.13870680332183838,0.1335115283727646,-0.053132932633161545,-0.01276235468685627,-0.6544442772865295,-0.2510277330875397,-0.15148085355758667,0.0027197059243917465,-0.28517821431159973,0.07586262375116348,0.0838395357131958,0.4615769684314728,-0.2293347269296646,-0.2785652279853821,-0.05126924812793732,0.06814327836036682,-0.1675773710012436,-0.02889998070895672,0.10193147510290146,0.2195172905921936,0.18655967712402344,-0.21963447332382202,-0.15980038046836853,-0.024806557223200798],[0.23356559872627258,-0.23121638596057892,0.11239396780729294,-0.2021726816892624,-0.40237733721733093,-0.046054594218730927,0.12370746582746506,0.07342931628227234,0.10037056356668472,0.1417241245508194,-0.2937592566013336,-0.1120978444814682,-0.11868765950202942,-0.28213149309158325,-0.009914789348840714,0.18323418498039246,0.08844811469316483,-0.4906991422176361,0.14052967727184296,-0.11703281104564667,0.07083413004875183,-0.02491346001625061,-0.24111002683639526,-0.02908185124397278,-0.09676770865917206,0.1980174332857132,0.0444323793053627,-0.07130849361419678,-0.39640721678733826,-0.02441755309700966,-0.12915107607841492,0.017168182879686356,-0.16517017781734467,0.22918902337551117,0.013714725151658058,-0.20340248942375183,-0.11764637380838394,-0.015673739835619926,-0.03842191770672798,-0.11611418426036835,0.18397971987724304,0.24881502985954285,0.09086869657039642,-0.12006469815969467,-0.19588394463062286,0.3385073244571686,0.04964309558272362,0.0071381391026079655,-0.0017187991179525852,-0.21036949753761292,0.15420928597450256,-0.44714730978012085,-0.20111685991287231,0.07638386636972427,-0.39424535632133484,-0.12056318670511246,0.018021678552031517,-0.43835583329200745,-0.06166997179389,0.27312391996383667,-0.22016268968582153,0.07512672990560532,0.057976219803094864,0.05455736815929413,0.053517960011959076,-0.05899480730295181,-0.17965789139270782,-0.06280093640089035,-0.07411724328994751,0.04497559741139412,-0.03744364529848099,0.10945006459951401,-0.05930488929152489,-0.04614131525158882,0.09063061326742172,0.010449628345668316,-0.16542460024356842,-0.2573241591453552,-0.15933522582054138,-0.0386960543692112,0.1611032634973526,-0.08273489028215408,-0.04048624634742737,0.11132030934095383,0.2393004149198532,-0.20874163508415222,0.30910271406173706,-0.23181401193141937,0.008115548640489578,0.1948252171278,-0.13101167976856232,-0.43940138816833496,0.18099330365657806,0.15247376263141632,-0.04122759774327278,-0.11572645604610443,0.1354130059480667,0.19950561225414276,0.131604865193367,0.10289432853460312,0.08514294028282166,-0.14156900346279144,-0.1239074170589447,-0.3082585036754608,-0.32166197896003723,0.09371159225702286,-0.1551327258348465,0.06670687347650528,0.2221563458442688,0.30661484599113464,0.4110851585865021,0.2931971251964569,0.12776170670986176,0.10249160975217819,-0.002367740962654352,0.1471775323152542,0.05052627623081207,0.3073592782020569,0.09012332558631897,-0.09595177322626114,0.30172446370124817,-0.0063425772823393345,-0.1134941354393959,-0.19382324814796448,-0.04360843822360039,0.07244385033845901,0.2700917720794678,0.32376351952552795],[0.0938025563955307,-0.5631582736968994,0.09593299776315689,0.01601484604179859,0.03589024767279625,-0.0069790612906217575,-0.17476321756839752,-0.35381656885147095,0.006970169488340616,-0.07587059587240219,0.009793765842914581,0.015799880027770996,-0.17182907462120056,0.039605893194675446,0.33264777064323425,0.09845642745494843,0.010254100896418095,0.16941151022911072,-0.39254045486450195,-0.1539081186056137,0.10720959305763245,-0.09232572466135025,