[[-0.009796254336833954,-0.10196377336978912,-0.01722666807472706,-0.0662592202425003,0.056515276432037354,-0.09375011175870895,-0.002574073150753975,-0.018402358517050743,-0.0576222725212574,0.13976044952869415,0.06485553085803986,0.0212758369743824,0.056788213551044464,0.04500732570886612,-0.06925676017999649,0.15154996514320374,-0.19173312187194824,-0.04501676931977272,-0.0031609225552529097,-0.0012500693555921316,0.12337717413902283,-0.09483756124973297,-0.06400346755981445,-0.16036494076251984,-0.009689237922430038,0.05842997133731842,0.15724973380565643,0.08284787088632584,-0.07312297821044922,-0.07672522217035294,0.12055487185716629,-0.06475260108709335,-0.10512141138315201,-0.07446752488613129,0.1103854775428772,0.028974125161767006,-0.05523994565010071,0.07465999573469162,0.054067011922597885,-0.09285242110490799,-0.06753871589899063,-0.03840506821870804,-0.03254012018442154,-0.0107396449893713,-0.012159766629338264,0.11104080826044083,0.006904738023877144,-0.0285824965685606,-0.1257636547088623,-0.17985448241233826,-0.06709936261177063,0.08661583065986633,0.03538995608687401,-0.06544500589370728,0.1575508862733841,-0.18907476961612701,-0.10023145377635956,-0.008826985955238342,-0.03278394415974617,-0.05136464536190033,0.08015811443328857,-0.05344400182366371,-0.021212991327047348,0.0024844857398420572,0.07917149364948273,-0.06120342016220093,-0.09334222972393036,0.12334471940994263,-0.04108426719903946,-0.085052490234375,0.01745893619954586,-0.116482213139534,-0.04898405075073242,0.20502932369709015,-0.06378728896379471,-0.12307687103748322,-0.12123136222362518,-0.08082659542560577,0.048534080386161804,-0.18285474181175232,0.06263107806444168,0.009367577731609344,-0.08962355554103851,0.11897581815719604,-0.08555838465690613,0.2872545123100281,-0.008893336169421673,-0.07408669590950012,0.08517871797084808,0.043584663420915604,0.09260465949773788,0.029986277222633362,-0.18531031906604767,0.15776114165782928,-0.10524717718362808,0.20422770082950592,-0.013185565359890461,-0.030236514285206795,-0.03638901188969612,-0.0574897825717926,0.11580613255500793,-0.026596954092383385,-0.09714905172586441,-0.013658919371664524,0.25239336490631104,-0.053758006542921066,-0.014362550340592861,-0.06550012528896332,-0.10170488059520721,0.008219793438911438,0.06917554140090942,-0.01068074069917202,0.10787179321050644,0.12680606544017792,0.06404883414506912,-0.13697347044944763,0.06326226890087128,-0.027329783886671066,0.033240728080272675,0.029127517715096474,-0.015824386849999428,-0.06168198212981224,0.06705810129642487,0.00859718956053257,0.03678972274065018,0.06679884344339371,-0.022197630256414413,-0.1086694672703743,0.028000483289361,-0.10243583470582962,-0.0497303381562233,0.11136507987976074,-0.08417505770921707,0.008594392798841,0.08419299125671387,-0.16373077034950256,0.03941604122519493,0.042621105909347534],[-0.16006064414978027,-0.015250733122229576,0.037818267941474915,0.06220070645213127,0.08348455280065536,-0.009872183203697205,-0.006155797746032476,-0.1053706705570221,-0.10837357491254807,-0.1304880976676941,0.18591544032096863,-0.0012524571502581239,-0.08699660003185272,-0.09232080727815628,0.10505514591932297,-0.06724018603563309,-0.07460499554872513,0.0039618732407689095,0.06308117508888245,-0.01591586507856846,0.0004803389310836792,0.07812044769525528,-0.053766880184412,0.018461912870407104,-0.06140178442001343,0.03023047372698784,-0.10190628468990326,0.181588813662529,0.0026773703284561634,-0.018432199954986572,-0.1387597620487213,-0.04199433699250221,-0.11646074801683426,0.09516452997922897,0.07109624147415161,0.064602792263031,-0.004723501391708851,0.08606915920972824,0.12787355482578278,-0.020104028284549713,-0.12279118597507477,0.024973871186375618,0.08018356561660767,0.10573338717222214,0.01793839782476425,0.06345563381910324,0.20741476118564606,0.02896849624812603,-0.09756512194871902,-0.051079295575618744,-0.046202003955841064,-0.03280959278345108,0.000811284058727324,-0.1771114468574524,-0.06567199528217316,-0.13068412244319916,0.19356605410575867,0.04693659767508507,-0.10951697826385498,0.11160532385110855,0.07037462294101715,-0.05148147791624069,0.0969429686665535,0.027103418484330177,0.04678402841091156,-0.016295291483402252,-0.1569817066192627,-0.0042231823317706585,0.0009420147398486733,-0.02696109749376774,0.038869697600603104,-0.02486508898437023,0.038303956389427185,-0.08305929601192474,0.048414453864097595,-0.0773681104183197,0.038740284740924835,-0.004481816198676825,0.08947071433067322,-0.041416019201278687,0.11125337332487106,-0.009075953625142574,-0.01319988165050745,-0.06621153652667999,0.08948297798633575,-0.018565412610769272,-0.000751626561395824,-0.022078368812799454,-0.041735514998435974,-0.019614409655332565,-0.04720341041684151,-0.16774828732013702,0.02178233489394188,0.1097504124045372,0.02529091015458107,0.05773086100816727,-0.16071590781211853,0.08371179550886154,0.06417849659919739,0.09482088685035706,-0.007592026609927416,0.04140462726354599,-0.004944273736327887,-0.1433268040418625,-0.10434985905885696,-0.08351676166057587,0.11305473744869232,0.0012200574856251478,0.07916569709777832,-0.10674174129962921,-0.20966708660125732,-0.2952845096588135,0.04255025088787079,0.06152733787894249,-0.06590717285871506,0.08901753276586533,-0.11637542396783829,-0.024224935099482536,0.06420789659023285,0.049146778881549835,-0.08098739385604858,-0.15026447176933289,-0.021103113889694214,-0.0022417569998651743,0.0995994284749031,0.04849788174033165,-0.0698525682091713,-0.014409611001610756,0.09283418208360672,-0.0154269365593791,0.03512730076909065,-0.05905270576477051,0.0058700935915112495,-0.04022641479969025,-0.0201116856187582,0.19575902819633484,-0.16453006863594055,-0.08512180298566818],[-0.007776117883622646,0.04667055234313011,0.1074054017663002,0.05062004551291466,-0.02669655531644821,-0.058510612696409225,-0.02316385880112648,0.013510827906429768,0.09990087151527405,0.014693701639771461,-0.0719539225101471,-0.020073112100362778,-0.015672091394662857,0.02343989722430706,-0.0076083773747086525,0.041480742394924164,0.09785810858011246,0.012937343679368496,0.06272034347057343,0.08764920383691788,0.16113552451133728,-0.02706168219447136,-0.15521620213985443,-0.12401554733514786,0.09061425179243088,0.041217345744371414,-0.09913349896669388,0.0851965993642807,0.10252393782138824,-0.04090392589569092,-0.2101893126964569,-0.05043407529592514,-0.02508576214313507,-0.049022164195775986,0.03078279457986355,-0.19519974291324615,-0.09314702451229095,-0.15077519416809082,-0.004327043890953064,-0.020065912976861,0.04935135319828987,-0.03908123821020126,0.0698825865983963,-0.14888904988765717,-0.04320351406931877,0.03584745526313782,-0.040900588035583496,-0.056905556470155716,0.08006533980369568,0.02507668547332287,0.10125961154699326,-0.11713196337223053,-0.017430083826184273,0.03728054463863373,0.017293578013777733,0.011269725859165192,-0.039596572518348694,0.14312252402305603,-0.011558543890714645,-0.15263736248016357,-0.04229144752025604,0.0015374748036265373,-0.11177866160869598,0.10864050686359406,-0.034048065543174744,-0.04968612641096115,-0.11327775567770004,0.003856285009533167,0.01164900604635477,0.13716155290603638,-0.1062292605638504,0.02303793467581272,0.15821368992328644,-0.07277248799800873,0.03479029983282089,-0.0636136531829834,0.07877092808485031,-0.019507979974150658,0.12548428773880005,0.02077527716755867,0.17980735003948212,-0.1442653089761734,-0.02745664119720459,0.049025967717170715,-0.08025036007165909,0.061143968254327774,0.1367724984884262,0.08711935579776764,-0.011888055130839348,-0.11027749627828598,-0.13295429944992065,0.005001598969101906,0.1348617821931839,-0.06072128564119339,0.1065259501338005,0.15436218678951263,0.0884457677602768,0.15584102272987366,-0.04823489487171173,0.03546644374728203,-0.020017845556139946,0.055606454610824585,-0.05737807974219322,-0.10245124250650406,0.05093040317296982,-0.0022787977941334248,0.0013072040164843202,-0.018479835242033005,-0.06767989695072174,0.1970721185207367,0.249479740858078,-0.007715924642980099,0.09718398004770279,-0.03548374027013779,-0.03622294217348099,0.11103971302509308,-0.02543085627257824,0.08079810440540314,0.011771194636821747,-0.11786622554063797,-0.011208162643015385,-0.0047661317512393,-0.0018586888909339905,0.0533040352165699,-0.07909423112869263,-0.028450801968574524,-0.023365866392850876,-0.005792880896478891,0.04893473908305168,0.09799669682979584,-0.006460667587816715,0.10547209531068802,-0.013580657541751862,-0.14320045709609985,0.09812222421169281,-0.10113126784563065,0.021216828376054764,-0.005105574615299702],[0.18553726375102997,0.12118348479270935,0.08476105332374573,0.07286497950553894,-0.02385557070374489,0.18937495350837708,0.0755465179681778,0.03486279770731926,-0.027075566351413727,0.036961957812309265,0.046890221536159515,-0.07707012444734573,0.061169303953647614,0.0407746396958828,-0.060811519622802734,0.14066991209983826,-0.2696455419063568,0.06706153601408005,0.07878600060939789,0.13767585158348083,0.022747017443180084,0.1179765835404396,-0.1415332704782486,0.18978582322597504,-0.005177118815481663,0.04580765590071678,0.040328726172447205,0.05928679555654526,0.046921506524086,0.0040438733994960785,-0.007165767252445221,-0.11355806887149811,0.12502679228782654,0.0008499890100210905,0.1561034768819809,-0.0881253257393837,0.2953861355781555,0.059458181262016296,0.04947437345981598,0.15861067175865173,0.03914714232087135,0.006499245762825012,0.10183856636285782,0.018409309908747673,0.01703042909502983,-0.10255509614944458,0.16477301716804504,-0.05249720811843872,0.11048705130815506,0.039419692009687424,-0.008658518083393574,0.21544797718524933,-0.08890832215547562,-0.03285236284136772,-0.0024070916697382927,0.07613175362348557,0.0034451130777597427,0.09130162000656128,-0.07634399086236954,-0.0407213494181633,0.02543230913579464,-0.16014918684959412,0.018208790570497513,0.0657903328537941,-0.14919115602970123,0.050049733370542526,0.17867325246334076,0.044583529233932495,-0.14872592687606812,-0.04502469673752785,-0.01587597280740738,0.06196783855557442,-0.14198510348796844,-0.022125083953142166,0.0653035119175911,-0.031869903206825256,0.09800680726766586,0.11698795855045319,-0.04716913029551506,-0.18423542380332947,0.024801097810268402,-0.09993785619735718,-0.10478521883487701,-0.055163342505693436,0.19466644525527954,-0.04845987632870674,0.036425914615392685,-0.08061332255601883,0.04688963666558266,-0.09076239168643951,0.04458003491163254,0.25994056463241577,-0.033081892877817154,-0.04257817938923836,0.09619191288948059,0.07645676285028458,-0.03169231489300728,-0.057396113872528076,-0.0168345645070076,-0.017264509573578835,-0.0054373666644096375,-0.09780724346637726,0.141659215092659,-0.015608755871653557,0.016257693991065025,0.004355176351964474,0.07255889475345612,-0.004704252351075411,0.04055166244506836,0.03717033937573433,-0.002475205808877945,-0.16207315027713776,0.04215167090296745,0.03993270918726921,-0.10170061141252518,0.0794258788228035,-0.08011924475431442,0.11673735827207565,-0.011058660224080086,0.1046614795923233,-0.06757734715938568,0.06172613799571991,0.08938220143318176,-0.040102943778038025,-0.09471356123685837,-0.23333653807640076,-0.08218114823102951,0.006260821130126715,0.09904360771179199,0.07248272001743317,-0.10133596509695053,0.03137696906924248,0.0312839150428772,-0.15844106674194336,-0.03927464783191681,-0.12338751554489136,-0.04780474305152893,0.06320033967494965],[0.0033796594943851233,0.07553014159202576,0.012709402479231358,-0.04678986221551895,0.10186408460140228,0.006639036349952221,0.05121942237019539,0.15895229578018188,0.05448788031935692,-0.004201814997941256,-0.06152430176734924,0.045830000191926956,0.012099294923245907,-0.03131158649921417,0.04446028918027878,0.1986958533525467,0.11227304488420486,0.008699788711965084,-0.007434748113155365,0.1585124135017395,-0.037097860127687454,0.1410118043422699,0.05342317000031471,-0.04371215030550957,0.1081853061914444,-0.08376326411962509,-0.09667109698057175,0.0066485051065683365,0.0035316026769578457,0.09923414140939713,0.06173989549279213,-0.07714760303497314,-0.07563511282205582,-0.11305687576532364,0.0537651889026165,0.00040074146818369627,-0.04363739863038063,0.00007042004290269688,0.017377348616719246,-0.0731259435415268,-0.23254866898059845,-0.04649173840880394,0.05928540974855423,-0.085553377866745,0.04790567606687546,0.09796197712421417,0.08323512226343155,0.11720938980579376,0.0061577558517456055,-0.07993394136428833,0.056683070957660675,0.027724290266633034,-0.04432908818125725,-0.019534120336174965,-0.04339372366666794,0.045156706124544144,0.04695730656385422,-0.021693861111998558,0.01849731244146824,-0.06570496410131454,0.15405380725860596,0.12979470193386078,0.07916151732206345,0.05184219032526016,-0.01946878805756569,-0.1253982037305832,-0.17012019455432892,0.26558220386505127,0.0934632197022438,0.08441104739904404,0.1938306838274002,-0.03526037931442261,0.055725403130054474,0.03326389566063881,-0.024168668314814568,-0.056968238204717636,-0.055360645055770874,0.052639272063970566,-0.11819928139448166,0.07855650037527084,-0.015583423897624016,0.14739049971103668,-0.05940801650285721,0.13147693872451782,-0.016008347272872925,-0.020941060036420822,-0.13150601089000702,-0.10073021799325943,-0.011295996606349945,0.02010391466319561,-0.03080194629728794,0.11866230517625809,0.0868794322013855,0.004520771559327841,-0.020360611379146576,0.026185031980276108,-0.09460022300481796,0.05560833960771561,0.16595417261123657,-0.07958240061998367,-0.1053846925497055,0.06602928042411804,-0.07694734632968903,0.06341097503900528,-0.06921356916427612,0.017231673002243042,0.04598146677017212,-0.09780772775411606,-0.08454901725053787,0.02608002908527851,-0.06356137990951538,0.03197898715734482,-0.047447897493839264,0.09972736239433289,0.16317713260650635,-0.10514409095048904,0.06219388172030449,0.08623110502958298,0.053831931203603745,-0.10092569142580032,0.015245415270328522,-0.09584390372037888,0.03883940726518631,0.10882251709699631,0.013332640752196312,-0.051500506699085236,0.08410964161157608,0.07565686851739883,-0.14792396128177643,0.1489965319633484,0.040792278945446014,-0.03647586330771446,0.15785858035087585,0.08003633469343185,0.05247876048088074,-0.060220587998628616,0.02270817942917347,-0.12200167030096054],[0.00918290950357914,-0.05744354426860809,-0.030896853655576706,-0.007435944862663746,-0.12826445698738098,-0.08949696272611618,-0.0976867824792862,-0.029278691858053207,0.06960438936948776,0.11874177306890488,0.07731962203979492,-0.008000209927558899,-0.02365107089281082,-0.11814195662736893,-0.15457724034786224,0.05619334802031517,-0.15498682856559753,0.09270185232162476,0.0851784273982048,-0.00913923792541027,-0.12310615181922913,0.06622735410928726,0.06586562097072601,0.10406644642353058,-0.11121032387018204,-0.005345487035810947,-0.1090681403875351,-0.03300795704126358,-0.04224880784749985,-0.03569888323545456,-0.015109431929886341,0.08304423093795776,-0.023521538823843002,-0.1177409365773201,-0.07437905669212341,0.09010622650384903,0.08204851299524307,0.01294996589422226,-0.012148898094892502,-0.0008408115245401859,-0.025146180763840675,0.098477303981781,-0.031183838844299316,-0.08071288466453552,-0.08008146286010742,0.0061913346871733665,-0.06301824748516083,-0.11816845834255219,0.08069483190774918,0.11244768649339676,-0.15656143426895142,-0.004642569925636053,-0.0623229444026947,-0.03138025104999542,-0.010199002921581268,-0.08542122691869736,-0.02085983194410801,-0.09857457131147385,-0.04098204895853996,0.017563030123710632,-0.11716195940971375,0.12336597591638565,0.056167785078287125,0.020758308470249176,0.055856939405202866,0.017255932092666626,0.08595460653305054,-0.07317407429218292,-0.02085370197892189,-0.137252539396286,0.0065023694187402725,0.1383320689201355,-0.11141807585954666,0.009221592918038368,-0.042340829968452454,0.12053044140338898,0.044044993817806244,0.05723576247692108,0.07547082751989365,0.012572413310408592,-0.004670101683586836,0.022832291200757027,0.009916611015796661,0.04347298666834831,-0.014020552858710289,0.045083243399858475,-0.0009751240722835064,0.060484472662210464,0.002495689783245325,0.03903932124376297,0.09821317344903946,0.058000046759843826,0.012372571974992752,0.04787113517522812,0.09300031512975693,0.23600231111049652,0.015497082844376564,0.05235140025615692,0.045404307544231415,0.005210860166698694,-0.024438800290226936,-0.12551255524158478,-0.09565848112106323,0.052960559725761414,0.01829332672059536,0.08053625375032425,-0.035807061940431595,0.018082203343510628,0.10800337046384811,-0.07292754203081131,0.14857450127601624,0.036343030631542206,-0.08893381804227829,0.1971185952425003,-0.03498796001076698,0.03966335952281952,0.018841484561562538,-0.06482727080583572,-0.08860454708337784,-0.038395341485738754,0.04515109956264496,-0.13925263285636902,-0.039005231112241745,-0.019769027829170227,0.07366134226322174,0.05407598242163658,-0.07079150527715683,0.1883731484413147,0.009497872553765774,0.07806148380041122,-0.006279446184635162,0.10708889365196228,0.09922071546316147,0.07359688729047775,0.16237007081508636,0.15482968091964722,-0.054947007447481155,0.13801027834415436],[0.0956626608967781,-0.014688023366034031,-0.021768996492028236,-0.13184542953968048,-0.05523773282766342,0.046123430132865906,-0.08098311722278595,-0.05139603093266487,-0.05511195957660675,-0.02449491061270237,0.18262207508087158,-0.05849331617355347,0.04698057472705841,-0.07790318876504898,0.043980810791254044,-0.17584705352783203,-0.23643265664577484,-0.03727039322257042,0.06328453123569489,-0.03365471959114075,-0.09402512013912201,-0.055374324321746826,-0.019702764227986336,0.08256354182958603,0.03808528557419777,0.0596792995929718,0.11618191748857498,0.2898482382297516,-0.015543361194431782,0.14184029400348663,0.08005518466234207,0.11989658325910568,-0.07875588536262512,-0.15278011560440063,0.14174117147922516,0.06631359457969666,-0.08041273057460785,0.027715887874364853,0.052246205508708954,-0.07764545828104019,0.025384623557329178,0.0823887512087822,0.02853860892355442,-0.02689935453236103,-0.12750694155693054,0.16603246331214905,0.03495434671640396,-0.16387701034545898,0.2571718692779541,-0.13018739223480225,0.11925876140594482,-0.07895947992801666,-0.028638232499361038,-0.11415774375200272,0.0807235911488533,-0.022237703204154968,0.07579804211854935,-0.03214327245950699,-0.21512997150421143,0.04296370595693588,-0.19564034044742584,0.04893631115555763,0.05233430862426758,-0.00896113459020853,0.08291655778884888,-0.07823564112186432,-0.1610611081123352,-0.040696147829294205,-0.09667734056711197,-0.21974028646945953,-0.007004300132393837,0.08612706512212753,0.060642488300800323,-0.03613877668976784,0.004158155061304569,0.08121684193611145,-0.008053985424339771,0.03348931297659874,0.045098260045051575,0.03631330281496048,0.09749658405780792,0.20194244384765625,0.23146246373653412,0.07534289360046387,0.013569422997534275,-0.03201692923903465,-0.07467672228813171,-0.021984582766890526,0.028817666694521904,-0.02452266961336136,0.0851537212729454,-0.05414831265807152,-0.08315996080636978,0.10866498947143555,0.001542755402624607,-0.15626274049282074,0.015412183478474617,0.023847371339797974,0.03779957443475723,0.021638041362166405,-0.026867598295211792,0.12172777950763702,0.05395215377211571,0.11848702281713486,0.06258654594421387,-0.0647207498550415,0.016705043613910675,0.03387795388698578,-0.0888381376862526,0.0887891873717308,0.007320838514715433,-0.053164951503276825,0.11721283942461014,0.040426962077617645,-0.032480377703905106,-0.15274885296821594,-0.03566904366016388,-0.0995694175362587,-0.06987415254116058,-0.012928087264299393,0.013787546195089817,-0.026752065867185593,-0.023841872811317444,-0.0014793092850595713,0.04779479280114174,-0.0019886570516973734,-0.020765166729688644,-0.03240128979086876,-0.01298168022185564,-0.19908560812473297,0.09138798713684082,-0.06621796637773514,0.0529681034386158,0.10198824107646942,-0.1150943785905838,0.04150354862213135,0.07448524236679077,0.00492416275665164],[-0.11331409960985184,-0.053272999823093414,-0.13379935920238495,-0.08461196720600128,-0.09327979385852814,0.014319360256195068,0.01408291794359684,0.13541220128536224,-0.006407158449292183,-0.12253653258085251,0.09761684387922287,-0.09996736794710159,0.04784733057022095,0.058892007917165756,0.024510854855179787,0.21582023799419403,0.07421181350946426,0.015321122482419014,0.06558085232973099,-0.08169993758201599,0.12265293300151825,-0.05638039857149124,0.1251390129327774,-0.027672110125422478,0.03480617329478264,-0.02318311110138893,0.06655502319335938,0.01872267574071884,-0.022146662697196007,0.07218808680772781,0.03408859670162201,-0.10268562287092209,-0.21865533292293549,-0.10529623180627823,0.05844609811902046,0.015536142513155937,-0.00847027637064457,0.05310270935297012,-0.09184788167476654,0.08412178605794907,-0.11515966802835464,-0.14479994773864746,0.06033745035529137,-0.05635610595345497,0.04987744614481926,0.03557099401950836,0.15192550420761108,0.004231554921716452,-0.03212505578994751,0.08579689264297485,-0.10653970390558243,-0.10818932205438614,-0.10094145685434341,0.06682167202234268,0.06511034816503525,0.19239288568496704,0.11481539905071259,-0.11777616292238235,-0.07331690937280655,-0.13009710609912872,-0.038863182067871094,-0.10913782566785812,0.017182616516947746,-0.038524653762578964,0.01414453610777855,-0.050994545221328735,-0.10277724266052246,-0.16175344586372375,-0.08963977545499802,-0.01843663491308689,-0.03570590540766716,-0.04592239111661911,0.10480392724275589,-0.08415977656841278,0.023554189130663872,0.15543396770954132,-0.05921361595392227,-0.11637058109045029,-0.09229464828968048,0.0733511820435524,-0.11101554334163666,0.058276038616895676,-0.03754429519176483,-0.13613936305046082,0.08134017139673233,0.012831560336053371,-0.020277423784136772,0.004850259516388178,-0.057567715644836426,0.03323720768094063,0.02228892594575882,-0.0568913109600544,-0.044752370566129684,-0.06777001917362213,-0.016166523098945618,0.1389169842004776,0.09286079555749893,0.01243013795465231,-0.21835988759994507,-0.04402676597237587,0.17020180821418762,0.0650162473320961,-0.05245499312877655,-0.0027225487865507603,-0.015199726447463036,0.17585161328315735,0.11831438541412354,-0.07012511044740677,0.08246687054634094,-0.08259380608797073,-0.05360105261206627,0.08909498155117035,-0.007966721430420876,-0.005778333637863398,0.06117283180356026,0.08018846809864044,0.034025099128484726,-0.008964676409959793,-0.09300700575113297,0.04159422591328621,0.0767228826880455,0.034847501665353775,-0.08831743150949478,0.04793652892112732,-0.02712826430797577,-0.1484350711107254,-0.09535808116197586,0.10449819266796112,-0.07380582392215729,0.05654127523303032,-0.02225554548203945,-0.013040443882346153,-0.0848885178565979,-0.19636794924736023,-0.1151416227221489,-0.0018073510145768523,-0.04989274591207504,0.09707802534103394],[0.04907741770148277,-0.08595618605613708,-0.08326762169599533,0.03176749870181084,0.16001498699188232,-0.18004286289215088,0.06284373253583908,0.06624000519514084,0.02657325752079487,0.03070264868438244,-0.03807467594742775,0.292567640542984,0.0072916485369205475,-0.06879178434610367,0.04486371576786041,0.06026327237486839,-0.02504180558025837,-0.050841666758060455,-0.18358013033866882,0.14154508709907532,-0.17115511000156403,-0.060736753046512604,-0.1738356053829193,0.09385871142148972,0.04893435537815094,0.042192358523607254,0.08111713081598282,-0.14543265104293823,0.09570544213056564,-0.031321775168180466,-0.09416507929563522,0.03767259791493416,0.09305258095264435,0.04951191693544388,0.0002507672179490328,0.09480142593383789,0.020460044965147972,0.021842319518327713,-0.07866840064525604,0.006588263437151909,-0.007380709517747164,0.017226558178663254,0.03099040314555168,-0.010941283777356148,0.04687757417559624,-0.023355433717370033,0.10761815309524536,-0.16015741229057312,-0.006864144466817379,0.0832359790802002,-0.02511231042444706,0.07785690575838089,0.058340027928352356,0.09014581888914108,-0.08013371378183365,0.025507332757115364,0.07611113041639328,-0.028249874711036682,-0.013932354748249054,-0.0751245766878128,-0.21943043172359467,0.025969481095671654,-0.15137115120887756,-0.03324185311794281,-0.0002697884920053184,-0.05681399628520012,0.0407884307205677,-0.07706843316555023,0.29177120327949524,0.055523667484521866,-0.21267428994178772,-0.17952418327331543,-0.18928655982017517,0.026431038975715637,-0.07193432003259659,0.08324909955263138,0.007333276327699423,0.11482683569192886,0.12278556823730469,0.1948583871126175,0.0422225147485733,-0.07913976907730103,-0.09345674514770508,-0.06067953631281853,0.0769437700510025,-0.06662530452013016,0.03466559946537018,0.02068832330405712,-0.05452050268650055,0.05742030590772629,0.06259392201900482,0.05008527636528015,-0.006150325294584036,-0.04712318629026413,0.03215532749891281,0.006839307025074959,-0.06172528490424156,0.0921381339430809,0.052072878926992416,-0.11831062287092209,-0.2048308104276657,-0.02813069336116314,0.16581742465496063,0.04401494190096855,-0.07029621303081512,-0.06870103627443314,-0.0013435921864584088,0.05670980364084244,-0.14075715839862823,0.01873975247144699,-0.04926159232854843,-0.076816625893116,-0.06094265729188919,0.11586146801710129,0.009712781757116318,-0.0002753098960965872,0.1148577332496643,0.09859153628349304,0.11167989671230316,-0.10217650979757309,0.06588815152645111,0.1696999967098236,0.03614378720521927,0.08195111155509949,-0.0734090656042099,0.13904337584972382,-0.05685247853398323,0.05512479320168495,-0.07722494751214981,0.022380473092198372,0.1264214962720871,0.11995421350002289,-0.001543325139209628,0.061313703656196594,0.005780025385320187,0.07782138139009476,0.036635611206293106,-0.09572195261716843],[0.044679902493953705,-0.1733752340078354,-0.0484599769115448,-0.11022716760635376,0.06087502837181091,0.08788283169269562,0.10577410459518433,-0.02786518633365631,0.1699136346578598,-0.06452951580286026,0.04476183280348778,0.11366439610719681,-0.1607743501663208,0.019771846011281013,0.22346588969230652,0.03718724846839905,0.06105073168873787,-0.03580630570650101,0.11769450455904007,-0.1354004293680191,0.06517424434423447,-0.035095714032649994,0.01635926030576229,-0.02907916158437729,0.019184667617082596,0.27333709597587585,0.051767826080322266,-0.09177795797586441,0.04798610880970955,0.14349132776260376,0.008220246061682701,0.12545901536941528,-0.02203909493982792,0.04362858459353447,-0.040245313197374344,-0.1807904839515686,-0.06280244141817093,0.06817896664142609,0.04248970001935959,0.11952999979257584,0.03268780931830406,0.10087868571281433,0.06944378465414047,0.21461482346057892,0.03382336348295212,-0.01589430682361126,-0.12456582486629486,-0.02912604995071888,0.012735343538224697,0.045592136681079865,-0.037670478224754333,0.10509870946407318,-0.019984034821391106,0.08529677242040634,-0.10059033334255219,-0.05485990643501282,-0.06161954253911972,-0.13932040333747864,-0.10413751751184464,0.002303787274286151,-0.05892999470233917,0.013749230653047562,-0.13246142864227295,0.002555279526859522,0.0830066129565239,-0.06821565330028534,-0.027522871270775795,0.019499577581882477,-0.016209814697504044,0.13570667803287506,-0.008272901177406311,0.01714983768761158,-0.10241508483886719,-0.14141851663589478,0.08600016683340073,0.027782224118709564,-0.01854977384209633,-0.006682765670120716,0.06445416808128357,0.0064912112429738045,-0.0330374576151371,-0.031820256263017654,-0.001181310974061489,-0.05518501624464989,0.10111123323440552,0.13562315702438354,-0.004708482418209314,0.07463157922029495,0.014099149964749813,-0.09052986651659012,-0.05146287754178047,-0.1457652598619461,-0.06963608413934708,0.1425086259841919,0.05513899773359299,0.03441479802131653,-0.009841077029705048,0.040983255952596664,-0.050473399460315704,0.061814505606889725,-0.10883788019418716,-0.07055730372667313,0.07964323461055756,0.16702279448509216,-0.10189254581928253,-0.013916322961449623,0.00860175583511591,0.04821150749921799,0.021202344447374344,0.0698164850473404,-0.0056183822453022,0.17176085710525513,-0.17957760393619537,0.10038866847753525,0.034752216190099716,-0.04441601410508156,-0.15339994430541992,0.07978513836860657,-0.10048693418502808,0.06995294988155365,-0.004320685751736164,-0.1102137640118599,0.01692952960729599,0.029760213568806648,-0.12800197303295135,0.05728871375322342,-0.020677851513028145,-0.03734947741031647,0.10603111982345581,0.21415692567825317,0.14012974500656128,0.07103678584098816,-0.15122666954994202,-0.03741515055298805,-0.078837089240551,0.1446864902973175,0.018773630261421204,-0.07378417253494263],[0.027870362624526024,0.1402873694896698,0.10099831968545914,-0.08745875209569931,-0.054344262927770615,0.0763489156961441,0.0030314649920910597,0.0942753329873085,0.13531680405139923,-0.11068839579820633,-0.06384104490280151,0.04425200819969177,0.11552149802446365,0.013157480396330357,0.08504574745893478,0.07939989119768143,-0.16820359230041504,-0.060677140951156616,0.059396181255578995,0.05980735272169113,-0.06438992917537689,0.07042498886585236,-0.03809353709220886,0.2147904634475708,0.051669493317604065,0.01672489009797573,-0.05625467374920845,0.026971597224473953,0.04652255028486252,-0.04436896741390228,-0.07643920183181763,-0.04683426395058632,0.130803182721138,0.019415337592363358,0.0640462338924408,0.05533621832728386,0.08680503070354462,0.040986161679029465,-0.05372372269630432,-0.025205964222550392,0.03254101425409317,-0.015585101209580898,-0.1759861409664154,-0.12240219116210938,0.09656718373298645,-0.16614249348640442,0.03084801323711872,0.22302988171577454,-0.036636531352996826,0.0917583554983139,-0.041119322180747986,0.19083388149738312,0.06920591741800308,-0.3048175275325775,0.16673271358013153,-0.005017590709030628,-0.1491413712501526,0.004479027818888426,-0.07837884873151779,-0.038551099598407745,-0.08947992324829102,0.05764997377991676,-0.01660187356173992,-0.1133909523487091,0.18397819995880127,0.12691403925418854,-0.167156383395195,0.0665476843714714,0.1248941496014595,0.16559720039367676,-0.05531630665063858,-0.03908015787601471,0.1703110933303833,-0.04062482342123985,-0.03481775149703026,0.007320658769458532,-0.07453206926584244,-0.11927774548530579,0.023132488131523132,-0.040065765380859375,0.012920313514769077,-0.06445089727640152,0.03224372863769531,0.1394391506910324,-0.13603274524211884,0.061683930456638336,0.05160577595233917,-0.12496040016412735,-0.08114789426326752,0.03726957365870476,0.0951613187789917,-0.04906800389289856,0.11012647300958633,0.1170545220375061,0.03224802017211914,-0.023795949295163155,0.012349691241979599,0.12971492111682892,0.042789604514837265,0.04384295269846916,-0.10195942968130112,-0.01886662095785141,-0.010801171883940697,-0.14214281737804413,-0.1647602766752243,-0.09483302384614944,0.09309715777635574,-0.011258403770625591,0.10855390876531601,-0.035163816064596176,-0.08492473512887955,-0.10356937348842621,0.07679435610771179,-0.09426570683717728,0.02300216630101204,0.015343468636274338,-0.1599019169807434,0.1835506111383438,0.22760283946990967,0.0767722800374031,0.14641375839710236,-0.00452872971072793,-0.005869622342288494,0.12402869760990143,0.14876680076122284,0.10675430297851562,0.15922702848911285,0.014961391687393188,0.005763967055827379,-0.057050060480833054,-0.024738671258091927,-0.0996628999710083,0.04075509309768677,-0.0894147977232933,0.006892126984894276,0.05607522651553154,-0.03922571986913681,-0.08380839973688126],[0.044343315064907074,-0.08702544122934341,0.024476543068885803,-0.05046798288822174,0.18294934928417206,0.028769923374056816,-0.12756086885929108,-0.07051528990268707,-0.12442609667778015,0.01262339111417532,-0.06450524181127548,-0.03159536421298981,-0.008297502063214779,-0.014534191228449345,0.013141924515366554,-0.12483049184083939,-0.17629128694534302,0.01983296498656273,-0.06614445149898529,-0.04662106931209564,0.009189357049763203,-0.07910789549350739,-0.03084663487970829,0.019485149532556534,-0.14525066316127777,0.02115774340927601,-0.00787277054041624,-0.020671850070357323,-0.007705733645707369,-0.0387282520532608,-0.11341587454080582,-0.06504122912883759,0.08873064070940018,-0.2980359196662903,-0.049274299293756485,-0.033612266182899475,-0.014601550996303558,0.04437483102083206,0.036170028150081635,-0.00123947998508811,0.11821870505809784,-0.05464561656117439,-0.023445235565304756,-0.02709847316145897,-0.04543836787343025,-0.07277889549732208,-0.14776352047920227,-0.03230956941843033,-0.06254427134990692,0.1025150716304779,-0.2175678163766861,-0.0062590488232672215,-0.06273996829986572,0.05849546566605568,-0.0740952268242836,0.08968233317136765,0.0068446798250079155,0.06735103577375412,-0.15183857083320618,0.17016282677650452,0.11278535425662994,-0.09127729386091232,0.09940211474895477,-0.060305338352918625,0.09779861569404602,-0.08401575684547424,-0.11566410213708878,0.01556558907032013,-0.09829625487327576,-0.17034482955932617,-0.07849881798028946,0.0007231056224554777,0.09158512204885483,-0.011537781916558743,0.1301889270544052,0.05457020923495293,-0.007580339442938566,0.009783558547496796,-0.00618330854922533,-0.1226288452744484,0.053463567048311234,-0.0353507399559021,0.09346260130405426,0.039626602083444595,0.08372843265533447,0.11694269627332687,0.13037648797035217,0.02354079857468605,0.06924577057361603,0.06511126458644867,-0.002729040803387761,-0.04057382419705391,-0.15163634717464447,-0.04529574513435364,-0.07334480434656143,0.1881236433982849,0.05219954997301102,0.18515703082084656,-0.009238433092832565,0.018762368708848953,0.040655821561813354,-0.10439791530370712,-0.02705172635614872,0.29184073209762573,0.2065366804599762,0.011433221399784088,-0.013455009087920189,-0.015412986278533936,-0.004239465110003948,-0.04739510267972946,0.11225225031375885,0.04665794596076012,-0.1334017515182495,0.06559799611568451,0.03824901580810547,0.06616733968257904,-0.08874104917049408,-0.11835455149412155,0.05105806142091751,0.0631411075592041,-0.043576329946517944,0.025852020829916,0.04451090842485428,0.13963209092617035,-0.08979225903749466,0.07762893289327621,0.03142966330051422,0.01725519262254238,0.18709492683410645,-0.16106538474559784,-0.07779258489608765,-0.09206049889326096,0.0802425816655159,-0.18468262255191803,-0.07677365839481354,0.0001779426820576191,-0.028122050687670708,0.10362240672111511],[-0.06905043125152588,-0.0748506635427475,0.1086168959736824,-0.052543558180332184,0.0997820571064949,0.012122472748160362,0.009846044704318047,0.09377682209014893,0.07249423861503601,-0.009379945695400238,-0.1335310935974121,0.056171100586652756,-0.041039302945137024,0.042431581765413284,0.22754636406898499,-0.07210269570350647,0.004128562286496162,-0.19128252565860748,0.006387260742485523,-0.12943671643733978,0.04293929785490036,0.0785612091422081,0.14292338490486145,0.12767460942268372,0.03803243115544319,0.11438661068677902,0.062017254531383514,-0.09659116715192795,-0.08710858225822449,0.1648627370595932,0.08486229926347733,-0.023431336507201195,-0.04621686786413193,-0.11631713807582855,-0.07155910134315491,0.0520571693778038,0.0020085065625607967,0.019955188035964966,-0.04641316458582878,-0.09713344275951385,-0.07355981320142746,-0.004401054233312607,0.09002168476581573,0.11914312094449997,-0.005376353859901428,0.030567746609449387,0.05654636770486832,-0.0374436154961586,-0.009250745177268982,-0.20328360795974731,-0.09037196636199951,-0.1346922367811203,0.05255908519029617,-0.00476842001080513,-0.0508773997426033,-0.011161280795931816,0.05159857124090195,-0.08675113320350647,0.07274462282657623,0.019680697470903397,-0.017367340624332428,0.18427126109600067,0.049581706523895264,-0.03892342746257782,-0.06123128533363342,0.02322268858551979,0.01636607013642788,-0.14240704476833344,-0.06358779221773148,0.034555885940790176,0.07254128158092499,0.02768896520137787,-0.009892208501696587,0.13423870503902435,0.09260217845439911,-0.019027182832360268,-0.0953790470957756,0.009746508672833443,0.07852233201265335,0.16401222348213196,-0.10749604552984238,-0.005384495481848717,0.06961756199598312,0.14581499993801117,-0.029184093698859215,-0.0053123002871870995,0.10270180553197861,0.026128899306058884,-0.0445571169257164,-0.07180631160736084,0.07432745397090912,0.035742126405239105,0.06616205722093582,-0.05268024653196335,-0.15620878338813782,0.08915559947490692,0.010628943331539631,0.05394764989614487,-0.035175174474716187,-0.014867814257740974,-0.023790759965777397,0.01690773107111454,-0.008408969268202782,0.0527942031621933,-0.20961903035640717,0.16935674846172333,0.017761962488293648,-0.05388312041759491,-0.05382194742560387,0.10611718893051147,-0.01873687654733658,-0.10302562266588211,0.09189869463443756,0.014076299965381622,0.059520069509744644,0.029343709349632263,0.04964480176568031,0.14355339109897614,0.06923054158687592,-0.015530533157289028,0.09969038516283035,0.08714356273412704,0.020606396719813347,0.17737141251564026,-0.06654353439807892,0.004326948896050453,0.03709809482097626,-0.0495467483997345,-0.022722505033016205,-0.06418710201978683,-0.010213223285973072,0.026274723932147026,-0.19221925735473633,0.07470984756946564,0.0562514066696167,-0.017664508894085884,-0.021728208288550377,-0.08263017237186432],[-0.07439655065536499,-0.06078221648931503,0.041846781969070435,0.12852005660533905,-0.15175433456897736,-0.0839492678642273,-0.05689726397395134,0.08295567333698273,0.017629148438572884,-0.0250532403588295,0.02174738235771656,0.09215480089187622,-0.08862049132585526,0.0062820580787956715,0.09321200847625732,0.03773390129208565,0.05669116973876953,0.03685004636645317,-0.06919392943382263,-0.1639031171798706,-0.18615861237049103,-0.10267457365989685,-0.001564455684274435,0.14932255446910858,-0.18620535731315613,-0.008428595960140228,0.011901442892849445,-0.11555715650320053,0.039184100925922394,-0.017678165808320045,0.10392489284276962,-0.005388214718550444,0.12917470932006836,0.0041061388328671455,0.01491242740303278,0.14430202543735504,-0.08149738609790802,-0.0035116856452077627,0.1414482593536377,-0.21215958893299103,-0.05894492194056511,0.09394411742687225,0.16073399782180786,0.18378841876983643,-0.06376572698354721,0.1358313411474228,0.11946920305490494,0.005712580867111683,0.09009828418493271,-0.004751835949718952,0.04111151769757271,-0.044936299324035645,-0.043014347553253174,-0.20869900286197662,0.18915492296218872,0.05794460326433182,0.04530361294746399,-0.13407421112060547,-0.18527328968048096,-0.004875429440289736,0.0028444717172533274,0.016709856688976288,-0.033623408526182175,-0.011161744594573975,0.013808829709887505,-0.09138201177120209,0.12721550464630127,0.0399763360619545,-0.032379522919654846,0.07485412061214447,-0.046954769641160965,-0.056719496846199036,0.0758805051445961,-0.15792524814605713,-0.06423968076705933,0.03543046489357948,0.05093593895435333,0.02441524527966976,0.012806495651602745,0.04581548273563385,-0.17483195662498474,-0.053794682025909424,-0.12563693523406982,0.04301128163933754,-0.0037636258639395237,-0.0909009724855423,0.10832544416189194,-0.03599347174167633,-0.026556652039289474,0.0455404669046402,0.10095733404159546,0.10966089367866516,0.034772586077451706,-0.03745140880346298,0.046252522617578506,-0.06039194017648697,0.10415119677782059,-0.0035145801957696676,0.005868247244507074,-0.11360642313957214,-0.06698773801326752,-0.10057361423969269,0.01543617993593216,0.024100296199321747,-0.00945986993610859,-0.013648943044245243,0.10757464170455933,0.006201969459652901,-0.003567054867744446,0.15237049758434296,0.021373283118009567,-0.02500176802277565,0.06982554495334625,-0.08722677826881409,0.03797609731554985,0.009985054843127728,-0.005046291742473841,0.031320907175540924,0.09461522847414017,0.015703799203038216,0.28562307357788086,-0.08069207519292831,0.061117321252822876,0.06987746804952621,0.10237955302000046,0.08162863552570343,-0.08010891824960709,0.16242986917495728,-0.016377810388803482,-0.02740965597331524,-0.1290246844291687,0.0940137729048729,0.03201337158679962,0.008347383700311184,0.14131011068820953,-0.26712724566459656,-0.04161025211215019,-0.20636995136737823],[0.03559643775224686,-0.08983305096626282,-0.0733548104763031,-0.04838185757398605,0.08975786715745926,-0.03515088930726051,0.010191582143306732,0.06274903565645218,0.021822607144713402,-0.11900313198566437,0.07364565879106522,-0.04633967950940132,-0.0062657129019498825,-0.06703366339206696,0.2403610795736313,0.18117448687553406,-0.006594070233404636,-0.06763117760419846,0.2630141079425812,-0.08785882592201233,0.050055693835020065,0.19435210525989532,0.07172831892967224,-0.03647034987807274,-0.023334883153438568,0.018817011266946793,-0.08533263206481934,-0.03025677055120468,0.03127201274037361,-0.05429815500974655,0.02174321748316288,-0.18396581709384918,-0.04508979991078377,-0.09338989108800888,-0.06792519986629486,-0.08384671807289124,-0.14157672226428986,-0.1460849791765213,0.05603455752134323,0.10136431455612183,0.1699618399143219,-0.0008350149728357792,0.04136715829372406,-0.10481223464012146,0.059534043073654175,-0.13112647831439972,-0.023968171328306198,0.017493076622486115,-0.03544433414936066,0.19405214488506317,0.04745137691497803,-0.042459335178136826,-0.032663244754076004,0.0892380103468895,0.029638472944498062,-0.00826474092900753,-0.03748726844787598,0.0353395901620388,-0.12153367698192596,-0.07295301556587219,-0.1372637003660202,-0.04177534207701683,0.0802936777472496,-0.12644490599632263,-0.11972178518772125,0.016205919906497,0.05972176417708397,0.01111662108451128,0.034830931574106216,0.01101939007639885,0.1524663120508194,0.036245375871658325,0.023922333493828773,0.18657174706459045,-0.08996494114398956,-0.02121596410870552,-0.012513470835983753,0.08430884778499603,0.042561449110507965,0.1199369803071022,0.08157479017972946,0.044198617339134216,-0.04129774495959282,-0.08325132727622986,-0.12404552847146988,0.08445373922586441,-0.07004766166210175,0.12264851480722427,0.05375036597251892,-0.11734235286712646,0.06527971476316452,0.03180951997637749,-0.01004713587462902,-0.03168538212776184,0.0030279832426458597,0.11787997931241989,0.01952395960688591,0.08729581534862518,0.009745161980390549,-0.09456636756658554,-0.10780300945043564,-0.07646571844816208,0.045506060123443604,-0.015381557866930962,0.2097741663455963,0.04588276147842407,0.012255563400685787,0.07426676154136658,0.04325377196073532,-0.05376054346561432,0.027954310178756714,0.014719673432409763,0.0027105212211608887,0.05744995176792145,-0.04648938402533531,-0.2641065716743469,0.019621681421995163,-0.06914163380861282,0.008976808749139309,0.0008319689077325165,0.056431639939546585,0.12401492148637772,0.07875597476959229,-0.07608106732368469,-0.12584492564201355,0.17197494208812714,0.03098362870514393,-0.16458402574062347,-0.09636002779006958,-0.017210859805345535,0.011714594438672066,-0.017562609165906906,-0.03343866765499115,0.13695918023586273,0.13025543093681335,-0.11398522555828094,-0.040457870811223984,-0.11704907566308975],[0.01817723549902439,0.04070507362484932,0.18578672409057617,-0.0883895605802536,0.15220192074775696,0.07400680333375931,-0.034651532769203186,-0.07215113192796707,-0.20653076469898224,0.14648260176181793,0.11964298784732819,-0.05098437890410423,0.05281804874539375,0.07314077019691467,0.014778558164834976,0.06650611013174057,-0.09462308138608932,0.11732017993927002,0.07630137354135513,0.033996984362602234,-0.05316675826907158,0.0073077380657196045,0.05662494897842407,0.05124909058213234,0.02173835225403309,-0.06592944264411926,-0.04512075334787369,-0.04454426094889641,0.14076492190361023,0.1520145684480667,0.09076082706451416,-0.2803647518157959,0.04672747105360031,0.12542326748371124,-0.04852915555238724,0.0881536602973938,-0.1486639529466629,0.07835404574871063,0.1132810041308403,-0.008325612172484398,-0.07365749776363373,0.06242603063583374,-0.12233611941337585,0.08502287417650223,-0.10736734420061111,-0.07685283571481705,-0.04049202799797058,0.11962626874446869,0.15130406618118286,0.06485351920127869,-0.1451953500509262,-0.02425229363143444,-0.029726902022957802,-0.08404102176427841,-0.0345471166074276,0.11938150227069855,-0.04153527691960335,0.007654810324311256,-0.04978039488196373,0.10155486315488815,-0.05971028283238411,0.1954272836446762,0.06967552751302719,0.14489595592021942,-0.14956317842006683,-0.09195779263973236,-0.08226422965526581,-0.09117966890335083,-0.13765940070152283,-0.0916057825088501,0.1768961399793625,0.12815387547016144,0.05792109668254852,-0.08392466604709625,-0.13023364543914795,0.00800313986837864,-0.007657655514776707,-0.13447615504264832,-0.09631159901618958,-0.10175938904285431,-0.10795366019010544,0.06671607494354248,-0.1288008987903595,0.01137956976890564,0.0724569708108902,-0.005643248092383146,-0.11140000820159912,0.13224326074123383,-0.13641391694545746,-0.06213856860995293,-0.017559610307216644,-0.018080934882164,-0.25561705231666565,0.07231033593416214,-0.05902191624045372,-0.11151531338691711,0.05007846653461456,-0.06061378866434097,0.09691168367862701,0.06461091339588165,0.1283821165561676,0.007734510116279125,-0.05799633264541626,0.1158919408917427,0.028352566063404083,0.04375484958291054,0.06828152388334274,-0.032480884343385696,-0.0014627852942794561,0.055285342037677765,-0.007178786676377058,-0.15888123214244843,-0.04722081124782562,0.18846158683300018,0.039840422570705414,0.0027176097501069307,0.18660642206668854,-0.0852043628692627,-0.008208762854337692,0.03647741675376892,0.05116504430770874,0.09678659588098526,-0.021200496703386307,0.06391638517379761,0.13718418776988983,-0.06227189674973488,0.0633694976568222,0.029007408767938614,0.01489032432436943,-0.06897079944610596,0.009999268688261509,-0.10357927531003952,0.015537414699792862,-0.09406536817550659,-0.02219061180949211,0.11178915947675705,0.014458802528679371,-0.11086108535528183],[0.09852443635463715,0.009574538096785545,0.14794673025608063,0.0863771140575409,0.023989349603652954,0.011526456102728844,-0.0028314965311437845,0.04582727327942848,-0.0208711177110672,-0.06020321324467659,0.04425248131155968,0.020805053412914276,-0.005363572388887405,0.09913163632154465,0.09125959873199463,-0.05612405017018318,0.05217869207262993,0.035982511937618256,-0.025562165305018425,-0.043889373540878296,-0.023832645267248154,-0.05527954921126366,0.08617740869522095,0.15210120379924774,0.015449779108166695,-0.009952927008271217,0.03513461351394653,-0.12251200526952744,0.23777532577514648,-0.005310714244842529,-0.09836091846227646,-0.033402103930711746,0.04854616895318031,-0.023413289338350296,-0.14298699796199799,0.045870814472436905,0.05875871330499649,0.11691834777593613,-0.011189283803105354,-0.004330414813011885,0.030679218471050262,0.11861179769039154,-0.04417702183127403,-0.12253067642450333,-0.04773504659533501,-0.0585932731628418,0.008702544495463371,0.12132599204778671,-0.0696030706167221,-0.06499776989221573,-0.05013824626803398,0.11556138098239899,0.15632261335849762,-0.09776219725608826,-0.12556470930576324,-0.15427105128765106,-0.030852047726511955,0.09204559028148651,0.004830645397305489,-0.01404215395450592,0.09561194479465485,-0.06456048786640167,0.07385583966970444,-0.08946134150028229,0.07295017689466476,-0.02319145016372204,-0.14399395883083344,-0.034937236458063126,-0.008626660332083702,-0.0219339057803154,0.05639001727104187,-0.08930569887161255,-0.08924593776464462,0.04590625315904617,-0.011641602963209152,0.17090676724910736,-0.019529594108462334,-0.1525043398141861,-0.05567241087555885,-0.1430269330739975,0.043313197791576385,0.006994145922362804,-0.12283030897378922,-0.10610470920801163,0.08953823149204254,0.03928057476878166,0.17586517333984375,-0.02600177377462387,-0.031120793893933296,0.09209217131137848,0.11331577599048615,-0.004013313911855221,-0.014771876856684685,0.041316885501146317,-0.01980796456336975,-0.06553544104099274,0.18179205060005188,0.07549283653497696,0.0971095860004425,-0.0795583724975586,0.04471585154533386,0.0118376724421978,0.02411438524723053,0.0034923471976071596,-0.05325842276215553,-0.03427504003047943,0.07557456940412521,-0.1638004332780838,-0.013851079158484936,0.06447656452655792,-0.03490869328379631,0.11113160848617554,0.2262633889913559,-0.08362546563148499,0.013603044673800468,-0.07657519727945328,-0.07161074131727219,0.09611621499061584,-0.040625642985105515,-0.03029036335647106,-0.12345174700021744,0.07203745096921921,0.0514172799885273,-0.11158746480941772,-0.07555185258388519,0.11098594963550568,0.07238026708364487,-0.011209733784198761,-0.16231046617031097,0.024305449798703194,0.05107562616467476,0.22170376777648926,0.024381717666983604,0.04974955692887306,0.044540733098983765,-0.01814603991806507,-0.21402302384376526,-0.13076595962047577],[0.12209681421518326,0.004414489958435297,-0.10884612053632736,-0.06494662165641785,-0.042165882885456085,-0.00836951844394207,-0.05370457097887993,0.1240968257188797,-0.16343677043914795,0.17070132493972778,-0.1704217493534088,0.12748520076274872,0.030911272391676903,-0.026914114132523537,-0.07709620147943497,0.056244175881147385,-0.2138986736536026,0.07061266154050827,0.10164754837751389,0.1346525251865387,0.03027886152267456,-0.010066265240311623,0.23097527027130127,0.006299925502389669,-0.022218355908989906,-0.15791280567646027,0.005986157804727554,-0.009690726175904274,-0.07313154637813568,0.05705228075385094,-0.22913867235183716,0.05670210346579552,-0.0250815749168396,-0.009572421200573444,-0.0026969606988132,-0.08250632137060165,-0.020776808261871338,0.08702057600021362,0.03853711113333702,-0.10047120600938797,-0.010254216380417347,-0.109778493642807,0.01957625523209572,0.1400289386510849,0.06449344754219055,0.14420780539512634,-0.1742740124464035,0.03644217550754547,0.05657617002725601,-0.08866334706544876,-0.005955091677606106,0.22227680683135986,0.0716618150472641,0.019920937716960907,-0.11249952763319016,0.04359980300068855,-0.02096780203282833,-0.08205657452344894,-0.06338465213775635,0.13772903382778168,0.0823521837592125,-0.1747310906648636,-0.07557453215122223,0.022315962240099907,0.09814409911632538,-0.03994989022612572,-0.02510373294353485,0.05767742544412613,0.037385664880275726,-0.0449824258685112,-0.051557473838329315,-0.05340507626533508,0.12962359189987183,-0.08471177518367767,-0.009371818974614143,-0.006167862564325333,0.09903102368116379,-0.013762786984443665,-0.17682935297489166,0.04233768582344055,-0.0022262949496507645,-0.03933971747756004,0.027769658714532852,0.19769152998924255,-0.015365766361355782,0.08418163657188416,0.07081493735313416,-0.050033796578645706,0.018837107345461845,0.03929528221487999,-0.017104096710681915,0.04822954908013344,0.07629938423633575,-0.015846244990825653,0.0003555181319825351,0.009292487055063248,0.010529786348342896,0.13041602075099945,0.03595242649316788,-0.01380677055567503,0.15163220465183258,0.12541420757770538,0.007503255270421505,-0.0930330753326416,0.15344417095184326,-0.059162113815546036,0.06234988570213318,0.04147470369935036,-0.10883773863315582,-0.020349137485027313,0.02782432734966278,-0.0027808703016489744,0.05759948492050171,-0.044157978147268295,0.02620171383023262,-0.060516033321619034,-0.005550447851419449,-0.11689436435699463,0.010196993127465248,0.01583266817033291,-0.0339629128575325,-0.15230947732925415,0.0009627835243009031,-0.060018062591552734,-0.014643051661550999,0.08169475197792053,0.04673643782734871,0.07061970978975296,0.05554724484682083,0.12930189073085785,0.10013993084430695,0.10707826167345047,0.019620398059487343,0.05704228952527046,-0.038032349199056625,0.09107563644647598,-0.07352612167596817,-0.018931519240140915],[-0.05513875186443329,0.17938221991062164,-0.0546894408762455,0.0281053613871336,0.027281954884529114,-0.13968810439109802,0.05598375201225281,0.023176828399300575,-0.1724538952112198,-0.06775747239589691,-0.10092248022556305,0.09503297507762909,-0.03843306750059128,0.13599489629268646,-0.018212169408798218,-0.04575425386428833,-0.16577130556106567,-0.0008784241508692503,-0.1274070143699646,0.1290227621793747,0.15189063549041748,0.0728837326169014,-0.19587664306163788,-0.12622135877609253,-0.001962176524102688,0.11844900995492935,0.16604775190353394,0.0459245927631855,-0.20332738757133484,0.027935504913330078,-0.05139941722154617,-0.0409553237259388,-0.19829078018665314,0.07797802239656448,0.04938400164246559,0.05813993513584137,-0.03681362420320511,0.030441632494330406,0.01261291466653347,0.016801703721284866,-0.004548843950033188,-0.10781381279230118,-0.058554016053676605,0.024492992088198662,-0.0026784122455865145,0.16343876719474792,-0.04074672609567642,0.03963964432477951,0.041674889624118805,0.0766732394695282,0.019273914396762848,-0.1930171102285385,0.05006064474582672,0.06831689178943634,0.12225839495658875,-0.11475954204797745,-0.04635491967201233,-0.01435360498726368,-0.004792195279151201,0.07484712451696396,-0.04770336672663689,-0.0966682881116867,-0.24747927486896515,-0.0456506721675396,0.09062714129686356,-0.12335073947906494,-0.10676949471235275,0.028109483420848846,-0.044079553335905075,-0.0013926837127655745,0.055255141109228134,0.12594866752624512,-0.08988934755325317,-0.03481729328632355,0.07192132622003555,-0.012158609926700592,-0.0810164362192154,-0.06051017343997955,0.14126046001911163,0.13381776213645935,0.10453668981790543,-0.05316990986466408,0.12115982174873352,0.16940966248512268,0.0008084070286713541,0.11178430914878845,-0.07402558624744415,-0.01761811226606369,0.09761685878038406,0.06497947871685028,0.019494595006108284,0.0974113941192627,0.21364562213420868,0.07872925698757172,0.18935345113277435,-0.0292662363499403,-0.020346419885754585,-0.08345910906791687,-0.060549963265657425,-0.08903148025274277,-0.20241166651248932,0.03968433663249016,-0.004082002677023411,0.04100136458873749,-0.07700473815202713,-0.086387999355793,-0.015647606924176216,0.029012873768806458,0.0049393451772630215,0.01644430309534073,-0.050254516303539276,-0.19953449070453644,-0.08101367950439453,-0.10942378640174866,-0.01795399747788906,0.2282378226518631,0.024519121274352074,0.07008583843708038,-0.07084611803293228,-0.12026471644639969,0.1314707100391388,0.10548969358205795,0.09422711282968521,0.09451888501644135,-0.009393427520990372,-0.00215364177711308,0.11269386857748032,-0.08865046501159668,0.001662139780819416,0.008950527757406235,0.04864678904414177,0.10039986670017242,0.06185990199446678,0.13873642683029175,-0.039859212934970856,0.014756523072719574,-0.04398583993315697,0.16168919205665588],[0.04117102175951004,0.12981602549552917,0.20651215314865112,-0.154776930809021,0.005214926786720753,0.15713565051555634,-0.07856883108615875,-0.04158404469490051,-0.019482141360640526,0.05264079570770264,-0.08607972413301468,0.04369835555553436,0.06590554863214493,-0.08482297509908676,0.027968721464276314,0.18759003281593323,0.24396900832653046,-0.060142625123262405,0.12000717967748642,-0.19513000547885895,-0.1573142558336258,0.030409129336476326,-0.013062767684459686,0.07498263567686081,0.05352010577917099,-0.04289618507027626,-0.05387680232524872,0.00818238127976656,-0.22138985991477966,-0.12564583122730255,-0.005092540290206671,0.22580178081989288,0.1040729507803917,-0.052459005266427994,0.043191779404878616,0.04399256780743599,-0.05636582523584366,-0.12039165943861008,0.194022074341774,0.00018019741401076317,0.024775052443146706,-0.10061249881982803,-0.02459130808711052,0.05496618524193764,0.061700962483882904,-0.048124928027391434,-0.14273279905319214,-0.20492608845233917,0.006546214688569307,0.10020887851715088,-0.1103280559182167,0.160360187292099,-0.03524721786379814,0.05985122174024582,-0.07882609218358994,0.09224092215299606,0.1686081737279892,-0.09524861723184586,-0.12412875890731812,0.004374165553599596,0.07323869317770004,0.21712420880794525,-0.16762973368167877,-0.0439237542450428,0.0241690780967474,0.08127716183662415,-0.16610220074653625,0.20784451067447662,-0.10402440279722214,-0.010757558047771454,0.05571618303656578,0.12814666330814362,0.032133493572473526,0.028700856491923332,-0.050319600850343704,-0.019062204286456108,-0.08766840398311615,0.0706428810954094,-0.1602361649274826,-0.21775078773498535,0.06720986217260361,0.07112093269824982,-0.04819529876112938,0.11748982965946198,0.08226265013217926,-0.03530057892203331,-0.02206619270145893,-0.2596183717250824,0.10902509093284607,0.03157072514295578,-0.1392073631286621,-0.13884541392326355,-0.02073775604367256,0.05496186763048172,0.024051086977124214,-0.08440443128347397,0.05215044319629669,0.19896486401557922,-0.013615701347589493,0.04285362735390663,0.04144666716456413,0.06747351586818695,-0.0931098684668541,-0.023517349734902382,0.03532284498214722,-0.0016618359368294477,0.03380356356501579,0.0393800251185894,-0.13542018830776215,0.06675293296575546,0.11745065450668335,0.025167539715766907,0.07086465507745743,0.05463884398341179,-0.09655669331550598,-0.013842987827956676,0.06323941797018051,-0.03624619171023369,-0.06953585892915726,-0.13891121745109558,0.0006686483975499868,-0.005109373014420271,-0.001211807131767273,-0.06591099500656128,-0.13979575037956238,0.181461364030838,-0.08748757839202881,0.14939069747924805,-0.08491211384534836,-0.15030737221240997,-0.020784473046660423,0.09537912160158157,-0.0031334529630839825,0.14698998630046844,0.14428311586380005,-0.009305451065301895,0.12147682160139084,-0.1210729107260704],[0.08336377888917923,-0.03384805843234062,0.14616240561008453,-0.008376561105251312,0.035963572561740875,-0.051368530839681625,-0.12985189259052277,0.0712372213602066,0.07117898762226105,-0.03842523694038391,0.04287482053041458,-0.059436917304992676,-0.06588920205831528,0.0034182490780949593,0.022349264472723007,0.16413164138793945,0.10865721106529236,-0.017372319474816322,-0.010078857652842999,0.08632320165634155,0.012878851033747196,-0.037342824041843414,0.11836705356836319,0.03022623248398304,0.060036178678274155,0.07133973389863968,-0.018819885328412056,-0.09669248759746552,0.17477616667747498,0.08581672608852386,0.05013946816325188,-0.06314381957054138,-0.016080450266599655,0.02007453329861164,0.02282225526869297,0.08870865404605865,0.037666838616132736,-0.010527970269322395,0.08860007673501968,-0.05498567223548889,0.0735158622264862,0.05462999269366264,0.24562913179397583,-0.024295270442962646,-0.06853678077459335,0.01379749458283186,-0.014620015397667885,-0.025199905037879944,-0.1043793335556984,0.09489965438842773,0.01164564024657011,0.2054210752248764,-0.0020056089852005243,0.1280621588230133,0.013423871248960495,-0.127294659614563,-0.08790738880634308,-0.1180085688829422,-0.055362407118082047,0.04139771685004234,0.01663939654827118,0.05173764005303383,-0.09491929411888123,0.020123379305005074,0.17185276746749878,0.2387961745262146,-0.18872803449630737,-0.06494591385126114,0.18998731672763824,-0.008918516337871552,-0.06473871320486069,-0.0013908128021284938,0.00753566762432456,-0.004639987833797932,-0.10464584827423096,0.006878050975501537,0.04997321963310242,0.0849723368883133,0.030526546761393547,0.03546664118766785,-0.14332693815231323,0.09611563384532928,-0.06668958812952042,-0.01916641928255558,-0.027547316625714302,0.1037425547838211,0.16816894710063934,0.095048688352108,0.017761340364813805,0.03833974525332451,0.04616066813468933,0.0763140320777893,0.19771362841129303,-0.14392705261707306,-0.10318759828805923,0.01989661157131195,-0.15801353752613068,0.09548310190439224,-0.0006814028020016849,0.10831434279680252,0.004470903426408768,0.01876680739223957,-0.08736253529787064,0.012682734057307243,-0.05021781101822853,-0.009761192835867405,0.1091994121670723,0.03378790244460106,-0.04365934431552887,-0.01208766270428896,0.04150429368019104,0.0732569545507431,-0.01245866809040308,0.15744610130786896,0.08294547349214554,-0.12531286478042603,-0.018707064911723137,-0.037306927144527435,-0.038609180599451065,0.10008425265550613,0.027960961684584618,-0.10872117429971695,0.016380207613110542,0.0024637405294924974,-0.007983672432601452,-0.0037015790585428476,-0.008127409964799881,-0.0493910051882267,-0.15492801368236542,-0.07659005373716354,-0.04017433524131775,-0.15972766280174255,0.11074723303318024,0.1944497972726822,0.12584422528743744,0.09244813770055771,0.018129954114556313,-0.0459861159324646],[0.0023739375174045563,-0.12819038331508636,0.06473387032747269,-0.07091894000768661,-0.009662694297730923,-0.08698272705078125,0.07355781644582748,-0.0010453020222485065,0.09018530696630478,0.1281351000070572,0.10703679919242859,0.08593886345624924,0.019805310294032097,-0.05714491382241249,0.004939137026667595,0.13506245613098145,-0.018148407340049744,-0.07307492196559906,0.2328380048274994,0.14682762324810028,-0.05142022669315338,-0.04490590840578079,-0.12444405257701874,-0.06849728524684906,-0.11120066791772842,0.08009608834981918,-0.11173225939273834,-0.008578317239880562,0.013150051236152649,-0.2033938765525818,-0.16767333447933197,-0.15376660227775574,-0.0443553626537323,-0.0024194519501179457,-0.04766315594315529,0.04278027266263962,-0.05026545375585556,-0.02071952074766159,-0.002539248438552022,-0.1151307001709938,-0.004077836871147156,-0.019724540412425995,0.032509539276361465,-0.1034376323223114,0.16172070801258087,0.029988449066877365,0.05456463247537613,0.0069700321182608604,-0.032453980296850204,-0.16450800001621246,-0.10707142949104309,0.0642942488193512,0.09284870326519012,0.08353991061449051,0.059439774602651596,-0.07948654890060425,0.08487080782651901,-0.01107832696288824,-0.08334511518478394,-0.11112421751022339,0.03554670140147209,-0.05496221408247948,0.05710954591631889,-0.05945051088929176,0.05700910463929176,-0.015816641971468925,0.20920118689537048,-0.0583612285554409,-0.07048370689153671,-0.1054186150431633,-0.06374888867139816,-0.0773242861032486,0.03156661242246628,0.12517979741096497,0.010570844635367393,0.05853976681828499,0.04496101662516594,-0.1598331481218338,-0.07238666713237762,0.07375498116016388,-0.07533268630504608,0.1384294331073761,0.01860147714614868,0.05400662124156952,0.024806367233395576,-0.02362077310681343,0.009392681531608105,0.08936520665884018,-0.031180458143353462,-0.2719920575618744,0.1819663643836975,-0.07354293763637543,0.07724788039922714,0.12355863302946091,0.06496839970350266,0.05648156255483627,-0.025959325954318047,0.03985786437988281,-0.04625390097498894,-0.07652159035205841,-0.024767126888036728,0.09990040957927704,0.06486236304044724,0.0587812177836895,-0.09708201885223389,-0.06854233145713806,0.013803236186504364,0.03791303560137749,0.011938374489545822,-0.09069044888019562,0.04554509371519089,-0.09562207758426666,0.08032117038965225,0.05243341624736786,0.2124243527650833,-0.03202313557267189,0.05519959703087807,0.14923593401908875,0.21672502160072327,-0.020411787554621696,-0.0967632532119751,-0.05508483946323395,-0.05547286197543144,-0.0458158478140831,0.03999066725373268,-0.18029139935970306,0.04808066040277481,0.05091283842921257,0.04854385182261467,0.11128292977809906,0.1079033836722374,0.08470508456230164,0.009994439780712128,-0.040937475860118866,-0.07752422988414764,-0.048274312168359756,0.0676756501197815,-0.18803073465824127],[-0.031503818929195404,-0.009721068665385246,-0.020124133676290512,0.14397573471069336,0.06542909890413284,-0.02247152477502823,-0.13932698965072632,0.037011463195085526,0.04583417996764183,-0.04443734139204025,0.1777663677930832,-0.02114257588982582,-0.1810639649629593,-0.042231183499097824,0.016002973541617393,0.10628272593021393,0.027829403057694435,-0.2794265151023865,-0.09690053761005402,-0.03912801295518875,-0.11039938032627106,0.12338640540838242,0.07068310678005219,0.08201088756322861,0.015459783375263214,-0.11329461634159088,0.012806831859052181,0.06734862178564072,-0.06530410051345825,-0.07470505684614182,0.1251174509525299,-0.002876355778425932,-0.03891732171177864,0.24075761437416077,0.050875838845968246,-0.07069183140993118,0.08782881498336792,-0.019157642498612404,-0.041754595935344696,0.0008847869466990232,-0.011809567920863628,0.10313650220632553,0.010069902054965496,0.1000090092420578,0.05645620450377464,-0.01183574553579092,-0.045868340879678726,-0.20171290636062622,-0.08550077676773071,-0.02019614353775978,-0.1657770276069641,-0.13631904125213623,0.1576315462589264,0.12295269221067429,0.003271870780736208,-0.024051016196608543,-0.07822062820196152,0.10745834559202194,-0.1960998922586441,-0.0704491138458252,0.009195946156978607,0.12762634456157684,-0.13301879167556763,0.13587327301502228,0.08516151458024979,0.04410267621278763,-0.04058869183063507,-0.13759194314479828,0.022991865873336792,0.007932876236736774,-0.1548691838979721,-0.0879843682050705,0.04652589559555054,0.050936635583639145,-0.124988853931427,-0.030653921887278557,-0.08755043894052505,0.03332144767045975,-0.06911757588386536,-0.15345267951488495,-0.059361908584833145,-0.056772127747535706,-0.06478308141231537,-0.02990499511361122,-0.1653086543083191,-0.11974973231554031,-0.13030993938446045,-0.04245029389858246,-0.013210686855018139,0.009028234519064426,0.0017569188494235277,-0.017392728477716446,0.11700352281332016,0.0461537167429924,0.04565969854593277,0.10740674287080765,-0.1027601882815361,-0.025383928790688515,-0.08811675012111664,-0.027452195063233376,-0.0668349415063858,0.09306295216083527,0.01361144334077835,0.0077822827734053135,-0.005586083512753248,-0.021588720381259918,0.1180805042386055,-0.019457746297121048,0.06702252477407455,0.002607732079923153,0.003027511527761817,-0.07608023285865784,0.06961338222026825,-0.22823145985603333,0.07210856676101685,0.03748822212219238,-0.07920923084020615,0.17127931118011475,0.05879493057727814,-0.053609538823366165,0.00394759327173233,0.03715983405709267,-0.03816952183842659,0.032478947192430496,-0.12348394840955734,-0.09866074472665787,0.04240557923913002,0.0767616406083107,0.0009707568679004908,-0.022617578506469727,0.2260424941778183,0.10343040525913239,0.04212206229567528,-0.05197538807988167,0.027985865250229836,-0.07958507537841797,-0.20640139281749725,0.19751310348510742],[0.008811598643660545,0.034693215042352676,0.016217201948165894,-0.007345430087298155,0.040362995117902756,-0.153363436460495,0.09442482888698578,0.07355979084968567,-0.016155248507857323,0.11967305839061737,-0.07301162928342819,0.06193545460700989,0.03480473905801773,0.0304554495960474,-0.03491393104195595,-0.03774108365178108,-0.14291328191757202,0.09343402087688446,0.07406088709831238,-0.1491784006357193,-0.15014398097991943,0.07381726056337357,0.11634987592697144,-0.040256403386592865,-0.10286068916320801,0.003709880169481039,-0.11303271353244781,-0.0070829838514328,-0.01565394178032875,0.0834626853466034,0.03590232878923416,-0.0014284084318205714,0.10740174353122711,-0.08340596407651901,0.020161867141723633,-0.10359618812799454,-0.13665443658828735,-0.04369961842894554,-0.08770198374986649,-0.06157878413796425,0.016360176727175713,-0.01456200610846281,-0.12151265144348145,0.03904661908745766,-0.07862398773431778,0.09945890307426453,0.04222550988197327,-0.09581747651100159,-0.07153242826461792,-0.05710287764668465,-0.15331484377384186,0.019724486395716667,0.10965769737958908,-0.04873170703649521,-0.0009686151170171797,0.013941697776317596,0.04963959380984306,-0.06184340640902519,-0.03289840742945671,0.0018786087166517973,-0.029114356264472008,0.12383010238409042,-0.09747693687677383,-0.2069423943758011,0.03351014852523804,-0.02450600266456604,-0.023426633328199387,-0.10977013409137726,-0.04056710749864578,0.05302833020687103,0.03146228566765785,-0.042268261313438416,-0.09981676936149597,0.0624157078564167,-0.026263270527124405,-0.006593592930585146,-0.017355050891637802,0.2909037172794342,-0.03380848094820976,0.08211833983659744,-0.12701211869716644,-0.08005588501691818,0.16547228395938873,0.04606098309159279,-0.19940094649791718,0.08842601627111435,-0.002501356415450573,-0.09699875861406326,0.05964592099189758,0.10344815999269485,-0.11905142664909363,-0.07401471585035324,0.08725563436746597,-0.07188877463340759,-0.01876550354063511,0.016025491058826447,0.05251225456595421,-0.052771665155887604,-0.012545382604002953,0.044468317180871964,-0.050994060933589935,0.17403672635555267,0.0062891775742173195,-0.02884507179260254,-0.09750920534133911,0.11988687515258789,0.17262384295463562,-0.08199591934680939,0.03596479445695877,0.027877209708094597,-0.060734014958143234,-0.02009388618171215,0.19858434796333313,-0.060592640191316605,-0.011655268259346485,-0.03884747251868248,0.0453670509159565,0.1181950569152832,0.20909014344215393,0.03599026799201965,0.070624440908432,0.07174308598041534,0.0704217255115509,-0.14182643592357635,-0.035709936171770096,0.09387272596359253,0.008415475487709045,-0.031049376353621483,0.06576601415872574,0.04223253205418587,0.03370913863182068,-0.06420525908470154,-0.07052705436944962,0.11687207221984863,0.12602485716342926,-0.001876885537058115,-0.1404758244752884,0.09482624381780624],[0.04163876175880432,0.004166192375123501,-0.055565912276506424,0.1185431107878685,-0.030772477388381958,-0.15126655995845795,-0.06214102730154991,0.02818254381418228,0.06800208240747452,0.0014350938145071268,-0.0200700331479311,-0.14299380779266357,0.000017078506061807275,-0.007129910867661238,0.01280703954398632,-0.04914131760597229,0.15139617025852203,-0.12245889008045197,-0.00849243625998497,-0.11778160184621811,0.1107526496052742,0.006322692614048719,0.10240248590707779,-0.014486674219369888,0.09469149261713028,0.12096113711595535,0.02322939597070217,0.018924470990896225,0.06101730093359947,0.041152387857437134,-0.04246833175420761,0.10972319543361664,0.03535456210374832,0.04335828498005867,0.04962601885199547,0.021956682205200195,0.14131085574626923,-0.02780366875231266,0.2681538760662079,-0.028143079951405525,-0.14228810369968414,-0.008357912302017212,-0.08202298730611801,-0.19515439867973328,0.005201693624258041,0.12147103995084763,-0.09685704857110977,0.008816102519631386,0.15340925753116608,-0.057980991899967194,-0.12622284889221191,0.08393507450819016,-0.0680784359574318,0.02071843296289444,-0.04158904030919075,-0.028550714254379272,-0.08295503258705139,-0.011936184018850327,-0.15154659748077393,-0.030708076432347298,0.055796414613723755,-0.0004351577954366803,0.055675048381090164,0.0578482486307621,-0.016627194359898567,-0.018779905512928963,-0.1856432557106018,0.09350475668907166,-0.1438613086938858,-0.022011857479810715,-0.12392857670783997,0.19557391107082367,0.0038001956418156624,-0.003967038355767727,0.07547545433044434,0.03557206690311432,-0.011959868483245373,-0.045712295919656754,0.026058010756969452,-0.1979866325855255,0.09805499017238617,0.004872928373515606,0.08684146404266357,-0.027456576004624367,-0.006443650461733341,-0.020048437640070915,0.046886321157217026,-0.019314125180244446,-0.023613739758729935,0.16648736596107483,-0.0563189871609211,0.16628751158714294,0.01093707513064146,-0.011205451563000679,-0.09086683392524719,0.09138834476470947,-0.05713161453604698,0.029240870848298073,0.029761454090476036,0.1477745771408081,0.07625505328178406,-0.04955529421567917,-0.03174632042646408,0.06736505031585693,0.06664150208234787,-0.01695038191974163,-0.0024330890737473965,0.15666328370571136,0.10054681450128555,0.031251996755599976,0.11743156611919403,-0.0406823605298996,-0.05959078297019005,0.060965027660131454,0.05024194344878197,-0.060871317982673645,-0.04140579700469971,0.07720520347356796,0.14740176498889923,-0.09379588812589645,-0.047052860260009766,-0.035675328224897385,0.15047045052051544,-0.1758611798286438,0.0031680138781666756,0.11088678240776062,-0.03731207549571991,-0.04579438641667366,0.0875275507569313,-0.1558680236339569,-0.09257417917251587,-0.042039550840854645,0.058053337037563324,0.01564374938607216,0.11788754165172577,0.06903766840696335,0.028883598744869232,0.005566489417105913],[0.0017448437865823507,-0.0181331317871809,0.052642934024333954,-0.08807618916034698,0.001229237299412489,0.25650879740715027,-0.048641689121723175,-0.07121662050485611,0.15156611800193787,-0.1556248515844345,-0.05676516517996788,0.0941411629319191,-0.008707240223884583,-0.08457417786121368,-0.18574759364128113,-0.040808893740177155,-0.15327738225460052,0.11985451728105545,0.022675365209579468,0.06123436614871025,0.03164463862776756,-0.09763676673173904,-0.08070942014455795,0.14176012575626373,-0.012931538745760918,-0.022494904696941376,0.051791150122880936,-0.06732133030891418,0.1253635138273239,-0.10527592152357101,0.02939971350133419,-0.06986717134714127,0.10208585858345032,-0.058508630841970444,-0.2227989286184311,-0.07095161080360413,0.08151514828205109,0.06923287361860275,-0.11533752828836441,-0.08575176447629929,-0.06468604505062103,0.05312491953372955,0.18925559520721436,-0.17007417976856232,-0.07897420227527618,-0.0021143138874322176,0.0891726166009903,0.11603879183530807,0.022030968219041824,0.021538084372878075,-0.17383193969726562,0.10240155458450317,0.12327010929584503,-0.023944329470396042,0.057919323444366455,-0.20653244853019714,0.13288989663124084,-0.0939992219209671,-0.010583809576928616,-0.027331851422786713,0.04536231979727745,-0.04582321643829346,-0.013165855780243874,0.024330399930477142,0.12352888286113739,-0.05292147770524025,-0.06555692106485367,0.03541884943842888,0.08327338099479675,0.13663402199745178,-0.13622036576271057,-0.014069538563489914,0.043621040880680084,-0.07149074226617813,0.006505967583507299,-0.03177370876073837,-0.09713969379663467,0.07968557626008987,0.08085948973894119,-0.10946846008300781,0.14852887392044067,0.019485805183649063,-0.03638109564781189,0.050913695245981216,0.09722252935171127,-0.0973956435918808,0.1618836373090744,-0.07076133042573929,-0.038455866277217865,-0.12245533615350723,-0.10997040569782257,-0.023574894294142723,-0.0710175484418869,-0.07102899253368378,-0.10715286433696747,0.20186251401901245,0.08985305577516556,-0.04069242626428604,-0.15484954416751862,0.06559528410434723,-0.30238446593284607,-0.005815044976770878,-0.1323126256465912,-0.14489801228046417,-0.11893155425786972,0.06699102371931076,-0.00797200296074152,-0.11321777105331421,-0.08411846309900284,0.062276117503643036,-0.08758281171321869,-0.07695312798023224,-0.03080456145107746,0.01509121060371399,0.09495808184146881,0.14297418296337128,0.05835117772221565,0.21871960163116455,0.0533224418759346,-0.05081033706665039,0.06786341220140457,0.06877367198467255,-0.09676143527030945,0.038201168179512024,0.13541699945926666,0.027371952310204506,0.0996176227927208,-0.10431205481290817,-0.0991845428943634,-0.05698172375559807,0.09174139052629471,-0.07488956302404404,-0.06605309993028641,-0.022144803777337074,-0.21267683804035187,0.04521114379167557,-0.01220586895942688,-0.09927111119031906],[-0.012152429670095444,-0.11098485440015793,-0.031152773648500443,0.06920954585075378,-0.07169770449399948,-0.027931202203035355,-0.22695192694664001,0.15069662034511566,0.027246497571468353,0.14714846014976501,0.041513603180646896,0.0757741630077362,-0.0504089891910553,0.037337467074394226,-0.10245802998542786,-0.17448005080223083,-0.02632100135087967,0.04743291437625885,0.0785193145275116,-0.012967485934495926,0.14119212329387665,-0.13555704057216644,-0.0008592326194047928,0.11411205679178238,0.10303150117397308,-0.02464357204735279,0.07356500625610352,-0.030988823622465134,0.019272947683930397,-0.03877495601773262,0.08423352241516113,0.029560105875134468,-0.0015256775077432394,-0.06362543255090714,-0.1516553908586502,-0.11125995963811874,-0.20174330472946167,-0.18068617582321167,0.10597839206457138,0.07295279949903488,0.07052887231111526,0.2433035969734192,-0.029997745528817177,0.09375736862421036,-0.03843787685036659,-0.01306578703224659,-0.16796377301216125,-0.12368692457675934,0.04772620648145676,-0.014019561931490898,-0.11248381435871124,0.10271476954221725,0.018502015620470047,-0.12250690907239914,0.19158411026000977,-0.10098883509635925,-0.06697209924459457,-0.025818994268774986,0.07498689740896225,0.030698828399181366,-0.10331137478351593,-0.10977786034345627,-0.03233063966035843,0.06018396094441414,0.07734587788581848,0.15128153562545776,0.013616739772260189,0.0760049968957901,-0.0990423783659935,0.014410044997930527,-0.03700162097811699,-0.11991965025663376,0.05678490549325943,-0.09940040856599808,0.002761268988251686,-0.04804414138197899,0.11901088804006577,-0.09489747136831284,-0.1603885442018509,-0.051650453358888626,-0.16310769319534302,-0.021313926205039024,-0.06502990424633026,0.11791985481977463,-0.16211232542991638,-0.10085774958133698,0.01363973319530487,0.13458535075187683,-0.0212449599057436,0.09515451639890671,-0.0887000784277916,-0.14665824174880981,-0.0002905826549977064,-0.052545566111803055,-0.07418983429670334,-0.021643470972776413,-0.12101799994707108,-0.045274488627910614,0.14365695416927338,-0.04664970934391022,-0.05453025549650192,0.015417252667248249,0.05731555446982384,-0.07805821299552917,-0.10665906220674515,-0.03187961503863335,-0.020755434408783913,-0.020835084840655327,0.21767687797546387,0.0009211438009515405,-0.05232692137360573,0.023013029247522354,-0.09799784421920776,-0.14127221703529358,-0.12614057958126068,-0.0996570736169815,0.07726213335990906,-0.09733231365680695,-0.14227800071239471,-0.027748536318540573,-0.09484771639108658,-0.0009477668209001422,0.013281293213367462,0.00965591799467802,-0.04719976708292961,0.10497307032346725,-0.004480808973312378,-0.1301126927137375,0.003956100437790155,0.03481714800000191,0.06110311299562454,0.022421838715672493,0.05838499590754509,-0.1659092903137207,0.05766736716032028,0.0284288227558136,-0.0008859157678671181,-0.004149271175265312],[-0.08126761764287949,0.026943178847432137,-0.022898763418197632,-0.034929338842630386,-0.15655620396137238,-0.006724710110574961,0.00901484303176403,-0.009821201674640179,-0.03579409047961235,0.18063849210739136,-0.12162022292613983,0.053466152399778366,0.1900053769350052,0.12583452463150024,0.06336747854948044,-0.14851057529449463,0.0645139068365097,-0.019978825002908707,-0.03463565930724144,0.008602038957178593,0.21943925321102142,0.0665951818227768,-0.03192036226391792,-0.1195666491985321,0.08027272671461105,-0.001411193865351379,0.027677906677126884,0.028429923579096794,0.09574177861213684,-0.06409772485494614,0.05075071007013321,-0.016032448038458824,-0.03835203871130943,-0.16374711692333221,0.2621539235115051,-0.09225836396217346,0.08583539724349976,0.047617264091968536,0.0622950904071331,0.05259660631418228,-0.09810946881771088,0.03313029929995537,-0.016637448221445084,-0.11697054654359818,0.07120559364557266,-0.014140727929770947,-0.10565242916345596,0.07300101965665817,0.06966275721788406,-0.03828021138906479,-0.11554085463285446,0.11818315833806992,0.15681694447994232,-0.08301939815282822,-0.22273634374141693,0.04108435660600662,0.07350944727659225,-0.013930716551840305,0.010632349178195,0.03162486106157303,-0.00441709766164422,0.04050302132964134,-0.05727756768465042,0.042916614562273026,0.07253056764602661,-0.07992663979530334,-0.00989077240228653,-0.0786551684141159,-0.007895140908658504,0.013448530808091164,0.11419760435819626,0.04469762742519379,-0.15902148187160492,0.006165238097310066,-0.01753862388432026,-0.056769490242004395,0.03294223174452782,-0.033881306648254395,-0.21045318245887756,0.08534537255764008,-0.054854005575180054,0.2004539966583252,-0.04809167608618736,-0.09202536195516586,0.21087314188480377,-0.006733111571520567,-0.0004886297392658889,0.005273738875985146,0.030754314735531807,-0.12404689937829971,0.04356765374541283,0.0009830088820308447,0.09644925594329834,-0.031151840463280678,0.06909490376710892,-0.015227955766022205,-0.1194734126329422,-0.050445400178432465,0.0374896340072155,-0.08406849950551987,-0.07902303338050842,-0.020238056778907776,-0.007725285831838846,0.0028991932049393654,-0.04808727651834488,0.02383425273001194,0.049226898699998856,0.017871834337711334,0.09250230342149734,0.16425049304962158,0.012213444337248802,0.145956352353096,0.033481620252132416,0.0677807554602623,-0.12949210405349731,0.03876690939068794,0.025141343474388123,-0.17660009860992432,-0.019442876800894737,-0.03266911208629608,0.01818424090743065,-0.18518248200416565,-0.06446433812379837,0.012355206534266472,0.023876216262578964,-0.1194613128900528,0.13475556671619415,-0.04602520540356636,0.03942011669278145,0.0911157950758934,0.04637358337640762,0.026676591485738754,0.019842231646180153,-0.04089779406785965,0.05594327300786972,-0.05565670505166054,0.0735686719417572,-0.24146580696105957],[0.16745585203170776,0.09138994663953781,0.08660341799259186,-0.14161771535873413,0.10710404813289642,0.060840047895908356,-0.06113220378756523,0.07851213216781616,0.05865396559238434,-0.04026582092046738,-0.15476717054843903,0.10770432651042938,0.1646496206521988,-0.20839543640613556,0.1444515585899353,-0.0054884133860468864,0.099123015999794,-0.11040343344211578,0.2761070132255554,-0.0756378099322319,-0.04565226659178734,0.0817653015255928,-0.04354995861649513,-0.025527935475111008,0.009823680855333805,0.017890939489006996,-0.05078350007534027,0.09317734837532043,-0.17579177021980286,0.004232941195368767,0.05212404578924179,-0.03895516321063042,0.05602239817380905,0.03775496780872345,0.0744137093424797,-0.06782814115285873,0.006347500253468752,0.008015300147235394,0.01870006136596203,0.03908318653702736,-0.10454223304986954,0.08359941095113754,0.11804348230361938,0.03320007771253586,0.09267301857471466,-0.0865219309926033,-0.07716342061758041,0.025837082415819168,0.12276065349578857,-0.10826396197080612,0.01678069308400154,0.05376754701137543,-0.0913286954164505,-0.0959278792142868,0.05112181603908539,0.022388530895113945,-0.008819862268865108,-0.2086583822965622,0.007709200493991375,0.027660556137561798,0.1556272655725479,0.07501893490552902,0.01546595711261034,-0.08055873960256577,0.15699517726898193,0.029940098524093628,-0.12555712461471558,-0.09129364043474197,0.05667852982878685,0.07361762225627899,0.022463563829660416,0.006318644154816866,0.003746763337403536,-0.08853740245103836,-0.1175936758518219,-0.030147425830364227,0.12072893977165222,0.05332212895154953,0.1589737832546234,-0.000615186057984829,-0.022149404510855675,-0.02122640609741211,-0.08065344393253326,0.016086282208561897,0.046647075563669205,-0.07082512229681015,-0.07731711864471436,-0.08152738213539124,0.26679152250289917,-0.0309634767472744,-0.05998589098453522,0.004391438793390989,0.1028050035238266,0.04705115407705307,0.08858823776245117,0.066934734582901,-0.011075004935264587,0.11545976996421814,0.003473780583590269,0.08966544270515442,-0.14533331990242004,0.07410826534032822,0.03162772208452225,-0.08424609899520874,0.0448756217956543,0.12728720903396606,0.0009359060204587877,-0.09715054929256439,-0.10684265196323395,-0.0701662078499794,0.03684500604867935,-0.02351449988782406,0.08769609779119492,-0.016411954537034035,0.07287323474884033,-0.11013470590114594,-0.01972479745745659,0.059101834893226624,0.12287996709346771,0.12097864598035812,-0.055177658796310425,0.13414916396141052,0.07987598329782486,-0.02917352505028248,-0.031925614923238754,0.20006069540977478,-0.08160281926393509,-0.17413826286792755,-0.042366381734609604,-0.10608739405870438,0.038015853613615036,-0.036275774240493774,-0.08544730395078659,0.21259337663650513,0.1610657274723053,-0.06933777779340744,-0.23128138482570648,0.03037872165441513],[-0.00938477274030447,-0.03479199483990669,0.058197878301143646,-0.03457906097173691,0.024013446643948555,0.07860543578863144,0.04114122316241264,0.10896565765142441,-0.06958989053964615,-0.14864546060562134,0.1939195692539215,0.0348898246884346,-0.0945567935705185,0.08378790318965912,-0.08526698499917984,0.040584903210401535,0.1617627739906311,-0.11971436440944672,0.07333295047283173,0.055052757263183594,-0.015417927876114845,-0.04465952143073082,-0.037933915853500366,0.07385196536779404,-0.13045531511306763,-0.10972951352596283,-0.08366083353757858,-0.012319658882915974,0.15438097715377808,-0.06964442878961563,0.0027707074768841267,-0.09476883709430695,-0.13505800068378448,-0.060663171112537384,0.08405432105064392,0.01968780905008316,-0.06036708503961563,0.07437758892774582,-0.15994685888290405,-0.04038475081324577,-0.07079389691352844,-0.05403754860162735,0.13988739252090454,0.18457764387130737,-0.09903167933225632,0.0007004959625191987,0.06597262620925903,-0.08100900799036026,0.09512390941381454,-0.04988294467329979,-0.01360352709889412,-0.07931748032569885,0.013558836653828621,-0.10590299963951111,-0.07108858227729797,0.0793885812163353,0.06856629252433777,0.03571315109729767,0.09155871719121933,-0.1430264562368393,-0.010994221083819866,-0.0347389280796051,0.05492321401834488,0.03966275975108147,-0.06939724832773209,0.11661829054355621,-0.035486213862895966,-0.14455097913742065,-0.0026700266171246767,-0.02538830228149891,0.0191057026386261,0.08675099164247513,0.08126983791589737,0.12506313621997833,-0.048525504767894745,-0.10044501721858978,0.18684034049510956,0.017769793048501015,-0.02916809171438217,0.030185606330633163,-0.10084991902112961,0.05863446742296219,-0.13784176111221313,-0.10015476495027542,0.043507739901542664,0.07206267863512039,-0.10222245752811432,-0.0800648108124733,-0.14356426894664764,0.0010040891356766224,-0.007834747433662415,-0.01944698579609394,-0.14483709633350372,0.09029596298933029,0.07312452793121338,0.03299964219331741,0.03167451545596123,0.040230877697467804,0.04900101199746132,0.017943819984793663,-0.06777317821979523,0.09124620258808136,-0.03461587429046631,0.04675684869289398,-0.08953997492790222,0.03804970905184746,-0.020580846816301346,0.0886247530579567,-0.06479953229427338,-0.0008144897874444723,-0.1153344213962555,-0.06607497483491898,0.08216676861047745,0.028185872361063957,0.08551041781902313,-0.06391367316246033,-0.14910678565502167,0.04778409004211426,0.15939269959926605,-0.01949608139693737,-0.051731254905462265,-0.013945492915809155,-0.01499936357140541,0.06952885538339615,0.07415509968996048,-0.11648285388946533,-0.009963535703718662,0.12598997354507446,-0.03500020131468773,-0.14945463836193085,-0.0425594188272953,-0.03631740063428879,-0.04434239864349365,0.04328175634145737,-0.09467411786317825,-0.1582658588886261,-0.01835825853049755,0.05475694686174393],[0.06335529685020447,0.09720122814178467,0.12605836987495422,-0.1843050867319107,0.034208573400974274,0.10865520685911179,0.005994448438286781,-0.014021060429513454,0.027575477957725525,0.09976135194301605,-0.037347741425037384,0.05531959980726242,0.08088298887014389,0.002342172898352146,0.10090669989585876,-0.03569065034389496,0.03131631761789322,-0.08139946311712265,0.09176964312791824,-0.046820640563964844,0.11345769464969635,0.034635987132787704,0.005299728363752365,0.047184452414512634,0.10268019139766693,0.013970375061035156,0.10201358795166016,-0.09497533738613129,-0.2068646401166916,-0.23303773999214172,-0.038618165999650955,-0.13493527472019196,0.06268803775310516,-0.06146227568387985,0.09155237674713135,-0.08173198252916336,0.036878541111946106,-0.16550756990909576,0.0727115347981453,0.06621057540178299,0.03794759139418602,-0.02766025811433792,-0.00825506541877985,0.1427987515926361,-0.026925550773739815,-0.06725530326366425,-0.11241874098777771,-0.07038748264312744,-0.06855754554271698,-0.004364923574030399,-0.07219976931810379,-0.13412870466709137,0.013605614192783833,0.04215767979621887,-0.07767944782972336,-0.10035401582717896,-0.10782170295715332,0.017930520698428154,0.019403517246246338,-0.09088590741157532,-0.11768095195293427,-0.15658320486545563,0.03044992685317993,0.04533097520470619,-0.08652195334434509,0.1115259900689125,0.033963143825531006,0.12493309378623962,-0.12726831436157227,-0.13259543478488922,-0.019472064450383186,0.008562866598367691,0.03432024270296097,0.12994879484176636,0.024626363068819046,0.0927763357758522,-0.10777809470891953,-0.07850497215986252,0.0364961139857769,-0.10600066184997559,0.15475298464298248,-0.041390012949705124,0.2632129192352295,-0.042050816118717194,0.009469516575336456,-0.011579391546547413,-0.06833111494779587,0.1159743219614029,0.12201111763715744,0.030914288014173508,-0.17490749061107635,-0.012752566486597061,-0.040301643311977386,0.12463841587305069,-0.13875769078731537,-0.1622428596019745,-0.0731833353638649,0.13052375614643097,0.10243012011051178,0.0949142575263977,0.07653329521417618,-0.14434240758419037,-0.021542279049754143,0.05240021273493767,0.1897880584001541,0.10518763959407806,-0.12516620755195618,-0.017082635313272476,0.10592500120401382,-0.1579516977071762,-0.11324772238731384,0.1020575612783432,-0.09362568706274033,-0.06596840173006058,0.04069802910089493,0.041937731206417084,-0.09424778819084167,0.031014496460556984,0.008945818990468979,-0.08949708938598633,-0.0048495009541511536,-0.009937633760273457,0.25876614451408386,-0.08581484854221344,-0.13436511158943176,-0.037071309983730316,0.01394377276301384,-0.03386501967906952,0.1335628777742386,0.1957160383462906,-0.15546908974647522,-0.04497591406106949,-0.031829919666051865,0.07736409455537796,-0.005115125328302383,-0.08079870790243149,0.1168847382068634,-0.004246803466230631],[-0.03829415515065193,-0.15156157314777374,0.017054181545972824,-0.12516622245311737,-0.04984632879495621,-0.064826600253582,0.0514707937836647,-0.05523279681801796,0.09666916728019714,0.1444980502128601,0.14701592922210693,-0.27127379179000854,-0.0976894348859787,0.012676790356636047,0.0508309081196785,0.13828974962234497,-0.06241253390908241,-0.02833785116672516,-0.09665161371231079,0.11069338768720627,-0.076068215072155,0.02152012474834919,0.10747624933719635,0.13782189786434174,-0.07360389828681946,0.01568596623837948,-0.12831737101078033,0.01883561909198761,0.08140898495912552,-0.040310345590114594,0.06309349089860916,0.10163698345422745,-0.1506611704826355,0.056977711617946625,0.002821452682837844,-0.051740068942308426,0.012428910471498966,0.08955197781324387,-0.03816714510321617,-0.026120245456695557,0.054017435759305954,-0.013224729336798191,0.05314713343977928,0.12941709160804749,-0.042048901319503784,-0.047205664217472076,-0.028540892526507378,0.14305537939071655,-0.03454812616109848,-0.04974133148789406,0.10388694703578949,-0.01691233366727829,-0.20447249710559845,0.015948917716741562,-0.06757020205259323,-0.002146364888176322,0.05564726144075394,-0.12432634830474854,0.043481893837451935,0.03941930830478668,0.0548986978828907,0.024824997410178185,0.11987482756376266,-0.12022462487220764,0.030693495646119118,-0.05070340633392334,-0.11993172019720078,-0.020132234320044518,0.005695833824574947,-0.003226620377972722,0.027146292850375175,-0.0312676876783371,-0.006117100827395916,0.030504176393151283,0.17690414190292358,-0.041948698461055756,-0.1979844570159912,0.1847810000181198,-0.018024343997240067,0.03527161106467247,0.0013640278484672308,0.013545166701078415,-0.22789862751960754,-0.009923772886395454,-0.01612994819879532,0.012165985070168972,0.04036250710487366,-0.12444249540567398,-0.024421479552984238,0.1085101068019867,-0.03858371451497078,0.19722376763820648,0.026391230523586273,-0.05207686498761177,0.06650190055370331,0.025647170841693878,-0.08413419872522354,-0.012564895674586296,-0.048021312803030014,0.04036322236061096,0.009808645583689213,0.10117356479167938,0.051192864775657654,0.004614459350705147,-0.020864423364400864,-0.11711913347244263,-0.16840685904026031,0.08866702020168304,0.015124720521271229,0.09180187433958054,0.06628399342298508,-0.043914929032325745,0.052348215132951736,-0.09250624477863312,0.020598703995347023,0.06376207619905472,0.013860314153134823,-0.10437127202749252,0.010221142321825027,0.08011586219072342,0.17258122563362122,0.09330852329730988,0.029137054458260536,-0.01926537975668907,-0.1138511374592781,0.0072380732744932175,-0.16795028746128082,0.10170738399028778,0.12051693350076675,-0.10906041413545609,-0.06372138857841492,0.08082987368106842,0.13986147940158844,0.018086344003677368,-0.010006692260503769,0.055326491594314575,-0.1479915976524353,0.013231570832431316],[-0.14081299304962158,0.059786923229694366,-0.056472670286893845,-0.05165780708193779,-0.16246387362480164,-0.16411365568637848,-0.055911749601364136,0.04171004146337509,0.1062016561627388,0.1267053782939911,-0.013166899792850018,0.2460581362247467,-0.19312676787376404,0.006589887663722038,0.0766969844698906,0.01654178649187088,-0.039259184151887894,-0.12053494900465012,-0.0350293330848217,0.021727416664361954,-0.0464300811290741,-0.02867041528224945,0.0763407051563263,-0.08677554875612259,-0.022135214880108833,0.01745676063001156,-0.009874152950942516,-0.021094394847750664,0.08030273765325546,-0.007998539134860039,-0.02026931755244732,0.004738607443869114,0.03939845412969589,0.02594902738928795,0.024159982800483704,-0.015355780720710754,-0.004677724093198776,-0.01001361757516861,0.10990344732999802,0.11143679171800613,0.033401068300008774,-0.08208002150058746,-0.006999021861702204,0.06688743829727173,0.14654359221458435,0.18635708093643188,0.23586523532867432,0.07981676608324051,-0.20522597432136536,-0.05661148577928543,-0.03870619088411331,0.017110534012317657,-0.0843639150261879,-0.13730676472187042,-0.0015811712946742773,-0.015038393437862396,0.034681446850299835,-0.029247405007481575,-0.09016169607639313,0.024787133559584618,-0.13883420825004578,-0.1100243404507637,-0.09828438609838486,0.08688320964574814,-0.02842041477560997,-0.02905484475195408,0.15494224429130554,0.03663152828812599,0.0003903264878317714,-0.1329466700553894,0.011449439451098442,0.009860672987997532,-0.02306344546377659,-0.08511112630367279,-0.05649038404226303,-0.12007612735033035,0.036684874445199966,0.027662064880132675,-0.17634230852127075,-0.1615259051322937,-0.07280255109071732,0.2291851043701172,-0.0670209601521492,-0.012785750441253185,-0.09764426946640015,-0.07085864990949631,-0.3092099130153656,0.024871645495295525,0.06904885172843933,0.050698477774858475,-0.07601495832204819,0.10173755139112473,0.0191067922860384,0.05926401913166046,0.0333126038312912,-0.11357177793979645,0.019116537645459175,-0.07406936585903168,-0.002976334188133478,0.09032303839921951,-0.050929442048072815,-0.26298007369041443,0.03969664126634598,-0.05859575793147087,-0.07298266142606735,0.07035253942012787,0.00449105491861701,-0.11839791387319565,0.030863141641020775,0.09275834262371063,0.08859046548604965,0.11375203728675842,0.0946977436542511,-0.075872041285038,-0.13646142184734344,0.10722925513982773,-0.08462581038475037,0.22480852901935577,0.05235560983419418,-0.041813891381025314,-0.1982753574848175,0.018909670412540436,-0.05128747597336769,-0.11632755398750305,-0.05142252519726753,-0.15127277374267578,-0.04694686457514763,0.01445490401238203,0.1156792938709259,-0.03975106030702591,-0.0428863950073719,0.04366029053926468,-0.06457317620515823,0.2502041161060333,0.153348907828331,0.08726142346858978,0.02556636556982994,0.047630675137043],[-0.1854039877653122,0.005478283856064081,0.046307824552059174,0.21455396711826324,0.18969720602035522,-0.15417639911174774,-0.022497432306408882,0.026380546391010284,0.07792327553033829,-0.12811924517154694,0.013368651270866394,0.0869220644235611,0.08125513046979904,-0.10339012742042542,0.02069970592856407,-0.07951325178146362,-0.10338949412107468,0.06815743446350098,-0.03210371360182762,-0.13509850203990936,-0.01632576435804367,-0.05006018653512001,0.03846614435315132,-0.00327149941585958,-0.06878390163183212,0.010607407428324223,0.08414983749389648,-0.05661698803305626,0.06995426118373871,-0.09169039130210876,0.07314588874578476,-0.03998273238539696,-0.021919887512922287,0.03623175993561745,-0.10345234721899033,0.19087374210357666,-0.18650896847248077,0.20971019566059113,0.13155445456504822,-0.08599492162466049,-0.01710740104317665,-0.04062648117542267,-0.0785621777176857,-0.027916908264160156,-0.03300655260682106,0.04041128605604172,0.20265424251556396,0.1430768221616745,-0.08132311701774597,0.1579935997724533,-0.15885579586029053,0.19634874165058136,0.14071673154830933,0.009790762327611446,-0.09494999051094055,-0.042363379150629044,-0.05311179533600807,0.1028299331665039,-0.1006501093506813,0.05343369394540787,0.11377941817045212,0.051485348492860794,0.05630826577544212,-0.03204113617539406,0.12563982605934143,0.0826052576303482,0.08561649918556213,0.029281139373779297,-0.20587210357189178,-0.17923812568187714,0.024445515125989914,-0.012754705734550953,-0.07445202767848969,-0.24757929146289825,-0.041617926210165024,0.03486813232302666,0.0753827765583992,-0.017381882295012474,-0.017548147588968277,0.1572112739086151,0.12139757722616196,0.0480273962020874,-0.0655129998922348,-0.10729387402534485,-0.050126902759075165,0.012985083274543285,0.08495098352432251,-0.04506584629416466,0.033587727695703506,-0.06273224204778671,0.10811883211135864,0.1023588702082634,0.10992109030485153,0.06210172176361084,-0.050717294216156006,-0.08498062193393707,0.05885801464319229,-0.10003015398979187,-0.008336879312992096,0.004734237212687731,-0.2655552625656128,0.01115020178258419,0.011078153736889362,-0.002740119583904743,-0.053274258971214294,-0.030202344059944153,0.03594497963786125,0.08015989512205124,-0.1847376972436905,-0.13258269429206848,-0.03043990582227707,0.10994071513414383,0.04752003774046898,-0.11305167526006699,0.10365346074104309,0.035948652774095535,0.0824773833155632,-0.11133984476327896,0.2656104862689972,-0.04527412727475166,0.020267363637685776,0.08710622042417526,-0.07008566707372665,0.10192059725522995,0.05320762097835541,-0.02887088432908058,0.030864626169204712,-0.03330269083380699,-0.17071473598480225,0.015524142421782017,-0.1282217651605606,-0.009684170596301556,-0.0007911541033536196,-0.12882041931152344,-0.10256852954626083,0.14840376377105713,-0.0022330337669700384,-0.02256353199481964],[-0.05348101630806923,-0.021816225722432137,0.03841959312558174,0.14792995154857635,0.03476497158408165,0.014797717332839966,-0.22085809707641602,0.010823821648955345,0.06883221864700317,-0.0343460887670517,0.12579227983951569,-0.025798862800002098,0.08257842063903809,0.09087599068880081,-0.26763880252838135,0.09215272963047028,-0.031134478747844696,0.02939136140048504,-0.01705862395465374,0.0009239194914698601,-0.11477918922901154,0.02370559610426426,-0.058592721819877625,0.1605745106935501,-0.0018481056904420257,-0.016533778980374336,0.030381040647625923,-0.14607028663158417,0.10214697569608688,-0.06475396454334259,-0.07220426946878433,-0.070191890001297,-0.028079792857170105,-0.08601643145084381,0.09301619976758957,0.010337796993553638,-0.04019961506128311,-0.041573282331228256,0.07514310628175735,0.001170616364106536,0.07975231111049652,0.1618722826242447,0.006884890608489513,-0.04273666813969612,0.008071905001997948,0.13060849905014038,-0.031663719564676285,0.07672969251871109,-0.016153648495674133,0.08928733319044113,0.031130613759160042,0.09060470014810562,0.02985493838787079,0.07980464398860931,-0.20324449241161346,-0.03165913745760918,-0.06023550033569336,0.05559677630662918,0.036107681691646576,-0.05441596359014511,0.04173681139945984,0.08275916427373886,0.2070232778787613,0.049014173448085785,0.08497615158557892,-0.26640257239341736,0.012976748868823051,0.104056216776371,-0.12762893736362457,-0.06888369470834732,0.011805061250925064,0.025387518107891083,-0.04243018478155136,0.014278501272201538,0.08651134371757507,0.0602373331785202,0.10873821377754211,-0.23593677580356598,-0.07905416190624237,-0.14650318026542664,-0.0018075932748615742,0.03002377599477768,-0.13887977600097656,-0.047782037407159805,0.10933735221624374,-0.06287625432014465,-0.06636398285627365,-0.12166918069124222,0.03705541044473648,0.048739947378635406,-0.1153695285320282,-0.0272638201713562,0.02826860174536705,0.10630128532648087,-0.060047347098588943,-0.16897091269493103,-0.008259017020463943,0.03949793055653572,-0.05783235654234886,0.02516273409128189,0.1550934761762619,-0.04491503909230232,-0.02595915086567402,-0.07342418283224106,-0.029449462890625,-0.007574139628559351,0.25843295454978943,0.006257775239646435,0.016807198524475098,-0.010084178298711777,0.013795819133520126,0.07277093827724457,-0.009508212096989155,-0.11591210961341858,0.13464272022247314,-0.13250786066055298,-0.12701159715652466,-0.06086821109056473,-0.08458763360977173,0.15120241045951843,0.03447132185101509,-0.011337559670209885,0.08682195097208023,-0.108704574406147,0.038608212023973465,-0.00790821760892868,0.14006125926971436,-0.06157597899436951,-0.002625549677759409,0.01942630298435688,-0.030960166826844215,0.019726458936929703,-0.04111219942569733,0.11179904639720917,-0.05999474599957466,0.11912219226360321,0.15100248157978058,-0.046714190393686295],[0.022910326719284058,-0.05886249989271164,0.1531599760055542,