[[-0.2871510684490204,3.1781489849090576,-0.8408148884773254,1.0044680833816528,-1.573698878288269,0.7938007712364197,0.6856814026832581,0.06146103888750076,1.1860506534576416,-0.18732038140296936,-3.156149387359619,2.015613555908203,-0.9679880738258362,1.1248929500579834,-2.317140579223633,-0.45986229181289673,-1.5657073259353638,-1.653964877128601,1.413131833076477,0.3543732166290283,-1.2742993831634521,-1.8006064891815186,0.47387605905532837,0.38075777888298035,-0.01693473383784294,-1.2400566339492798,0.1932651698589325,-0.7374733686447144,0.018644949421286583,1.499166488647461,-2.7359085083007812,-1.0891166925430298,0.44882041215896606,1.9447150230407715,2.549471139907837,-0.7248562574386597,-0.05152682587504387,0.48465871810913086,-1.6019296646118164,1.747188925743103,-1.9295778274536133,0.5521847009658813,0.2891305088996887,1.2998892068862915,0.7841443419456482,-0.24984143674373627,-1.8952155113220215,0.16616453230381012,2.9382824897766113,-1.543149709701538,0.750842809677124,-2.9401984214782715,1.2057615518569946,-0.5479690432548523,-0.8802441954612732,-1.2545582056045532,0.7296177744865417,-0.10957004874944687,1.7952880859375,-0.7952461838722229,-2.4977874755859375,-1.9537889957427979,0.9364778399467468,1.646733045578003]]