[[0.1571948081254959,-0.2354801595211029,1.0483546257019043,-0.2646607756614685,0.5734495520591736,-0.9814821481704712,-0.9148180484771729,1.1074892282485962,0.7713450193405151,0.7957074046134949,0.02105829492211342,1.3113373517990112,-0.2621900141239166,2.101304054260254,2.660428524017334,-0.7774282097816467,-0.03794049844145775,0.195288747549057,0.5762691497802734,-0.9286038279533386,-2.6544134616851807,0.6082009077072144,1.0172336101531982,0.3237007260322571,1.6721572875976562,-1.2634137868881226,0.04569196701049805,2.408003568649292,-1.9362809658050537,0.6270343661308289,-2.9246745109558105,2.2652530670166016,-2.1736316680908203,-0.6343820095062256,-0.49677205085754395,0.6412350535392761,2.562636375427246,1.917073130607605,-2.200404405593872,-1.8022730350494385,-2.4781785011291504,-0.4558763802051544,0.035736218094825745,2.1041157245635986,0.09401479363441467,1.9169089794158936,1.5196881294250488,-2.012364387512207,0.10518199950456619,-1.3669461011886597,0.8735805153846741,2.4180612564086914,0.5111507177352905,-1.5832644701004028,-0.2448968142271042,0.12582965195178986,-2.2189621925354004,1.0077053308486938,0.35941192507743835,-0.949126124382019,-1.8269156217575073,0.9973471164703369,3.111116886138916,-1.835404396057129]]