[[-0.19294551014900208,-0.09193553775548935,0.07501977682113647,0.07540000975131989,0.12831951677799225,-0.14951197803020477,-0.031501177698373795,-0.06538905203342438,-0.2645603120326996,-0.046695366501808167,-0.4247822165489197,-0.08339888602495193,0.05850428715348244,-0.06116843596100807,-0.04835155978798866,0.3017672598361969,0.13112512230873108,-0.039291635155677795,0.09119778126478195,0.1935950517654419,-0.08617362380027771,-0.09213564544916153,0.09284820407629013,0.17612531781196594,-0.03613455593585968,0.021903177723288536,-0.026050245389342308,0.4012063443660736,-0.034314852207899094,-0.012192468158900738,-0.07273345440626144,-0.07702244073152542,0.0455973744392395,-0.1074458435177803,-0.14636729657649994,0.16750892996788025,-0.06367473304271698,-0.1379593461751938,0.12623955309391022,0.08786605298519135,0.02424955740571022,0.1410120576620102,0.07687123864889145,0.010591678321361542,0.12677401304244995,0.0958569198846817,-0.10546919703483582,-0.04107881337404251,-0.09935411065816879,-0.16980858147144318,0.01924506574869156,0.07742944359779358,0.031293947249650955,-0.1271706074476242,0.03727046772837639,0.024102764204144478,-0.11252572387456894,0.3386150300502777,0.049126036465168,-0.19223955273628235,-0.02107420191168785,-0.18239407241344452,-0.027011364698410034,-0.13898400962352753],[-0.03271586075425148,-0.13236680626869202,-0.23679295182228088,-0.09809811413288116,0.04762888327240944,0.06741831451654434,-0.10171043872833252,0.1675722897052765,-0.12154950201511383,0.1762692928314209,-0.09024051576852798,-0.15520647168159485,0.08138881623744965,0.056365981698036194,-0.30166518688201904,0.006208424922078848,0.1643153578042984,0.16382648050785065,-0.07144749909639359,-0.13479985296726227,0.1546919047832489,-0.01662413403391838,0.2627185881137848,-0.07952723652124405,0.0764109268784523,0.1741969883441925,-0.07379285991191864,-0.15004317462444305,-0.2532155513763428,0.03721017390489578,0.18957044184207916,-0.00856670644134283,-0.00904476922005415,0.016520671546459198,-0.13685747981071472,-0.17571577429771423,0.03223242238163948,0.0013722563162446022,0.08069431036710739,-0.0408475287258625,-0.13216379284858704,-0.06099345162510872,0.15828779339790344,-0.13858377933502197,-0.15913158655166626,-0.2129683941602707,0.24069960415363312,-0.19112834334373474,0.11351656168699265,-0.13118165731430054,0.0018069094512611628,-0.13849641382694244,0.021693645045161247,0.06362199783325195,-0.28426074981689453,-0.11136721819639206,0.027732571586966515,-0.0664408951997757,0.1413419097661972,-0.13289397954940796,0.104885995388031,0.17741921544075012,0.15182627737522125,0.08560501784086227],[0.1036546528339386,0.026738354936242104,-0.03089618682861328,-0.019792960956692696,0.012799739837646484,0.09857699275016785,0.0349237285554409,-0.10965517908334732,-0.16464878618717194,0.061018794775009155,-0.29313117265701294,-0.08902107924222946,-0.03998662158846855,0.17641010880470276,0.12438139319419861,-0.05660095438361168,-0.10559684038162231,-0.36168035864830017,0.01021129172295332,-0.1045984998345375,-0.09739226847887039,0.0875793993473053,-0.1433018445968628,0.030634183436632156,0.1104142963886261,-0.13445377349853516,0.2543596029281616,0.025642165914177895,-0.05962592735886574,-0.05479913577437401,-0.02685512602329254,0.04723137244582176,-0.004492565058171749,-0.06159617751836777,-0.059447407722473145,0.13569322228431702,0.03783858194947243,0.07336762547492981,0.010882260277867317,-0.18689404428005219,0.01586030423641205,-0.0564429834485054,-0.07326437532901764,-0.09126116335391998,0.22431018948554993,0.08699875324964523,0.03978734835982323,-0.21915116906166077,-0.1484469771385193,0.0029591782949864864,0.21652278304100037,0.3582746982574463,-0.16969461739063263,-0.16543734073638916,-0.104668527841568,0.2690487802028656,-0.07521617412567139,-0.016221310943365097,-0.06347577273845673,0.019132442772388458,0.037732891738414764,0.1716621071100235,-0.01600394956767559,0.0007408183300867677],[0.024858787655830383,-0.10655627399682999,0.026593031361699104,-0.09173709899187088,-0.11145113408565521,0.07377878576517105,0.04537280276417732,-0.17441779375076294,-0.006347221322357655,0.0964229553937912,-0.14728780090808868,-0.03448681905865669,-0.12759898602962494,-0.03443668782711029,-0.0673593208193779,0.02539065107703209,0.1581723690032959,-0.06527608633041382,0.11205624043941498,-0.05263492092490196,0.09459666907787323,0.25376784801483154,-0.09765052050352097,-0.1598835438489914,-0.1289573311805725,-0.0777849555015564,0.176754891872406,0.19614624977111816,-0.23072943091392517,-0.1071014478802681,0.05639888346195221,-0.07574470341205597,0.28546106815338135,-0.1698230654001236,0.023234426975250244,0.050322916358709335,-0.10663355886936188,-0.07844485342502594,-0.13321994245052338,-0.2246658205986023,0.08273051679134369,0.013086830265820026,0.05613625794649124,-0.20431536436080933,-0.04836606979370117,-0.15787965059280396,-0.09851223975419998,0.026566147804260254,-0.10704182833433151,0.11537566781044006,-0.05326332524418831,-0.12149987369775772,0.11336834728717804,-0.10320578515529633,0.039970312267541885,0.044413041323423386,0.0529525987803936,-0.041935455054044724,-0.1329461932182312,-0.00727812247350812,-0.06838452816009521,-0.12412093579769135,0.2631918489933014,0.13167442381381989],[0.06288526952266693,-0.02137967199087143,-0.011864268220961094,0.03519681468605995,0.11312436312437057,-0.060315996408462524,0.1717575341463089,0.1529463678598404,-0.20394517481327057,-0.11351460218429565,-0.12870115041732788,0.017384525388479233,0.07384134829044342,-0.025222640484571457,-0.22329966723918915,0.09254496544599533,0.05902538076043129,-0.10089743882417679,0.0004068536509294063,0.07683348655700684,0.10220291465520859,0.11921634525060654,0.13105057179927826,0.3508121073246002,-0.02635572850704193,0.08205663412809372,0.05316884443163872,-0.09392113238573074,0.02529965713620186,0.010469355620443821,0.11350562423467636,0.09584446996450424,0.1270807832479477,0.08395355194807053,-0.11259596794843674,0.13001678884029388,-0.05678436532616615,0.056451741605997086,0.12581868469715118,0.19000357389450073,-0.09544452279806137,0.006817276123911142,0.21081534028053284,-0.2565363645553589,-0.09090579301118851,0.04607534036040306,0.039280448108911514,-0.12062220275402069,0.2614486813545227,-0.11532946676015854,-0.027951756492257118,0.04913625493645668,-0.2826334536075592,0.016757041215896606,0.08166702836751938,0.016831178218126297,-0.11030222475528717,-0.11008954793214798,-0.07533036917448044,0.3073848783969879,0.014117812737822533,0.23078447580337524,-0.10813033580780029,0.09595054388046265],[-0.04059069976210594,-0.037330687046051025,0.03253856301307678,-0.21792641282081604,0.023887716233730316,-0.1067717894911766,0.14992493391036987,-0.026917001232504845,0.02326270006597042,-0.13413158059120178,0.07083296030759811,-0.07601288706064224,-0.12926627695560455,-0.09342117607593536,0.1068429946899414,0.018355028703808784,-0.030861325562000275,-0.07774024456739426,-0.026235418394207954,-0.06700318306684494,0.004015624523162842,-0.25296568870544434,0.17590850591659546,-0.3568151891231537,-0.1686733514070511,0.09941015392541885,-0.3006429076194763,-0.02605799213051796,0.26671308279037476,-0.10174749046564102,-0.3188170790672302,-0.18807925283908844,0.044798363000154495,-0.07862133532762527,0.08716730028390884,0.06107345595955849,-0.15847624838352203,-0.14799880981445312,-0.06262791901826859,-0.014561300165951252,0.027383560314774513,0.14460988342761993,-0.11650332808494568,-0.2185017615556717,-0.056790582835674286,-0.024146800860762596,-0.04247236251831055,-0.16226373612880707,-0.18552836775779724,0.03861746937036514,-0.042144376784563065,0.025869417935609818,0.08316411823034286,-0.1167786717414856,-0.21511909365653992,-0.07412043958902359,-0.10662522912025452,0.029575062915682793,-0.0670335590839386,0.24339906871318817,0.1603265106678009,-0.03423412889242172,0.20106615126132965,-0.09037598222494125],[0.05326027795672417,0.0743643194437027,0.23033766448497772,0.028286568820476532,-0.16024166345596313,0.28160473704338074,0.19628949463367462,0.12777630984783173,0.11712469160556793,0.21181468665599823,0.02018081769347191,0.12225982546806335,0.041615888476371765,-0.12804150581359863,-0.010280709713697433,-0.11715453863143921,-0.21412016451358795,0.07440350949764252,0.07558440417051315,-0.058836929500103,0.01921243406832218,-0.1456773579120636,0.18157847225666046,0.06674069911241531,0.0772881805896759,-0.06554358452558517,0.0005481363623403013,0.06729712337255478,0.0178524199873209,-0.05582041293382645,-0.04748120531439781,0.06250142306089401,0.02130361646413803,0.08191192150115967,-0.1972302496433258,-0.3034669756889343,0.16967932879924774,0.033323511481285095,-0.10177099704742432,0.08110055327415466,-0.10216952115297318,0.01597203128039837,0.1258728802204132,0.1670990288257599,0.41574493050575256,0.18801118433475494,-0.08850989490747452,0.1971064656972885,-0.07242469489574432,0.017973804846405983,0.14135043323040009,0.05652656778693199,0.1860901117324829,0.15846943855285645,0.15196675062179565,-0.15698140859603882,0.005961754359304905,0.1767103523015976,-0.06466949731111526,0.19843658804893494,0.12705546617507935,-0.039621833711862564,0.048569925129413605,0.09432894736528397],[-0.020948899909853935,0.15015719830989838,0.0015926336636766791,0.036330271512269974,-0.10421725362539291,-0.04208195209503174,-0.014295837841928005,-0.24401280283927917,-0.08913061022758484,0.21526792645454407,-0.12384157627820969,0.02796764113008976,-0.17505177855491638,-0.03933439031243324,0.07801791280508041,-0.21377821266651154,0.13465821743011475,-0.17291958630084991,0.06295377761125565,-0.03992108628153801,-0.18926633894443512,-0.034602243453264236,0.14742062985897064,0.149163618683815,0.09180201590061188,0.21656644344329834,-0.055990416556596756,-0.19072887301445007,-0.002575306687504053,-0.14053508639335632,-0.2727367579936981,0.09318576008081436,0.06902839243412018,0.049703069031238556,-0.14983220398426056,0.08149643987417221,0.0957748293876648,-0.07989729195833206,-0.2840248644351959,0.22699446976184845,0.07432284951210022,0.039741918444633484,-0.07201129198074341,-0.09869640320539474,-0.06809703260660172,-0.02365986257791519,-0.11247272044420242,0.012048925273120403,0.13711877167224884,-0.0632135272026062,0.06835006177425385,-0.38082003593444824,-0.14921538531780243,0.09966251999139786,0.02674761973321438,-0.14578098058700562,-0.162345290184021,-0.02511443942785263,-0.08977268636226654,0.08765038847923279,0.08060363680124283,0.03240453824400902,-0.03979252651333809,-0.04360107332468033],[-0.07368653267621994,-0.11905249208211899,-0.1186598688364029,-0.06883364170789719,-0.03554055467247963,-0.08967430889606476,-0.0414619967341423,-0.04276594519615173,0.07938828319311142,0.09316128492355347,0.1796656847000122,-0.2502633333206177,0.010791093111038208,-0.07165658473968506,0.07836493104696274,-0.013432225212454796,0.10199426859617233,0.09445926547050476,-0.2755216956138611,-0.23293094336986542,0.15476147830486298,0.16762664914131165,0.028138572350144386,-0.04890307039022446,0.1619088351726532,-0.008373412303626537,0.2620878517627716,0.004326202441006899,-0.056012094020843506,-0.06283078342676163,-0.004718978889286518,-0.1132807657122612,0.04728923738002777,-0.008311339654028416,-0.22478415071964264,-0.14256127178668976,-0.03616504371166229,0.007395735941827297,0.3603927493095398,-0.01475343108177185,-0.2547813653945923,-0.06783619523048401,0.1457793116569519,-0.07339412719011307,-0.19027380645275116,0.10446538776159286,0.06343723833560944,-0.0770764872431755,-0.20517773926258087,0.04346473142504692,0.031972166150808334,0.0015399839030578732,0.1906481832265854,0.23921553790569305,-0.12484706938266754,-0.06841149926185608,-0.016441592946648598,0.07073244452476501,0.0549323670566082,-0.016635727137327194,-0.023051844909787178,-0.2334289848804474,-0.03415033593773842,0.08265599608421326],[-0.012621868401765823,-0.054711077362298965,0.17013415694236755,0.13366717100143433,0.20314842462539673,0.002699691103771329,-0.19747288525104523,0.1408032923936844,-0.1358369141817093,0.1276472955942154,-0.24595984816551208,0.16040264070034027,-0.00956717785447836,-0.012226998805999756,0.15273812413215637,0.05932966247200966,0.02983122318983078,0.0900498554110527,0.1565321534872055,-0.027921538800001144,-0.31106889247894287,0.05114912986755371,0.08459436893463135,0.09865311533212662,-0.11436821520328522,-0.1475040316581726,-0.0075759547762572765,0.25904470682144165,-0.02013079635798931,0.020893597975373268,0.09127556532621384,-0.025252260267734528,-0.07239655405282974,0.22329221665859222,-0.0754401832818985,-0.1383378505706787,-0.01980459876358509,0.11292069405317307,-0.009709449484944344,0.02949591726064682,0.016736844554543495,-0.07659853249788284,-0.10579102486371994,0.05068168044090271,0.05677132308483124,0.09923143684864044,0.15454702079296112,0.036121074110269547,0.0618540421128273,-0.05478329211473465,0.030250167474150658,0.24678030610084534,-0.1130082979798317,0.19452020525932312,-0.24598300457000732,0.17280800640583038,0.23756113648414612,-0.11723922938108444,0.12503796815872192,0.03277850151062012,-0.07577943056821823,-0.029788928106427193,-0.024009916931390762,-0.10568661242723465],[-0.055378224700689316,0.0314047634601593,0.1623820662498474,-0.11724314093589783,-0.060976456850767136,0.06532075256109238,0.132869690656662,-0.06290698796510696,0.009214051067829132,0.1656666398048401,-0.06832477450370789,0.043318770825862885,-0.04905044659972191,0.2565850019454956,0.0825372263789177,-0.1538527011871338,-0.05771700292825699,-0.13745827972888947,-0.08827706426382065,0.0472923219203949,-0.1872270256280899,0.05077448859810829,-0.0639829933643341,0.06433979421854019,-0.25112828612327576,0.05568657070398331,-0.021184759214520454,0.08410106599330902,-0.11776012927293777,0.022196153178811073,-0.37314286828041077,-0.23221206665039062,-0.1637720912694931,0.0003140548069495708,-0.05703653767704964,-0.11403072625398636,0.11779074370861053,0.11554861068725586,0.031715136021375656,-0.07358049601316452,-0.11784451454877853,-0.07063218951225281,-0.1370406597852707,-0.014899450354278088,0.022390373051166534,-0.10981582850217819,0.1531197726726532,0.20533761382102966,0.038141537457704544,0.19436544179916382,0.17843562364578247,0.16273310780525208,0.1545417308807373,0.06424254924058914,-0.04826141521334648,-0.053073734045028687,0.2284986674785614,-0.044804204255342484,0.23491869866847992,-0.020782215520739555,-0.014169752597808838,0.11036869883537292,-0.27633798122406006,0.15677522122859955],[0.04922178015112877,0.253283828496933,0.07746857404708862,0.10010384768247604,-0.061463940888643265,0.025774147361516953,0.07571562379598618,-0.0020647000055760145,-0.26459744572639465,0.055100854486227036,-0.3352245092391968,-0.061400871723890305,0.1762814223766327,-0.02776305191218853,0.05180380120873451,-0.04090968519449234,0.3395243287086487,0.07434888929128647,0.03939683362841606,0.09649859368801117,-0.06964397430419922,-0.11243856698274612,-0.0077912346459925175,0.28015345335006714,-0.023208748549222946,0.05143861845135689,0.054354310035705566,-0.18479222059249878,-0.015241118147969246,0.051797203719615936,0.1257815808057785,-0.09615568816661835,-0.21208643913269043,-0.10520043224096298,0.08583628386259079,0.0974443107843399,-0.12984660267829895,-0.10661535710096359,-0.26498112082481384,-0.3134084641933441,0.06412594020366669,-0.2858784794807434,0.09841807186603546,0.016074830666184425,0.04651428014039993,0.27950119972229004,-0.06974616646766663,-0.01511585246771574,-0.11130983382463455,0.0718294233083725,0.025286268442869186,-0.02168438769876957,-0.12297552078962326,-0.09143409878015518,-0.12097986042499542,0.0960996001958847,0.07279586046934128,-0.22986125946044922,-0.05218874290585518,0.10046651214361191,-0.1144246906042099,0.14586056768894196,0.04302041232585907,-0.07474776357412338],[0.0855771079659462,0.18176010251045227,0.10360226780176163,-0.18220435082912445,-0.05592126399278641,0.012437425553798676,-0.1220221295952797,-0.2500525116920471,-0.16081197559833527,0.05862180143594742,-0.1439213752746582,0.3095187544822693,0.07102327048778534,-0.0435294471681118,0.10800070315599442,-0.1992003321647644,-0.008911484852433205,-0.026181526482105255,-0.1945951282978058,-0.07566923648118973,-0.15961696207523346,0.09188629686832428,0.10388360917568207,0.08197017014026642,-0.13190802931785583,-0.1115158423781395,-0.01786564104259014,-0.047245562076568604,0.18079708516597748,0.0233252365142107,-0.15988513827323914,-0.02061283402144909,-0.05987469479441643,0.16833338141441345,-0.10003942251205444,0.006809736602008343,0.17158927023410797,0.020912112668156624,-0.03574978932738304,-0.10795687139034271,-0.01770525611937046,-0.14179682731628418,-0.17700189352035522,0.1163959726691246,-0.011251885443925858,0.08595047146081924,-0.19354607164859772,-0.108888640999794,0.1451253443956375,-0.0827922523021698,-0.15962445735931396,0.3267914056777954,-0.11211767047643661,0.05864810571074486,0.0932551696896553,-0.06103488430380821,0.031664445996284485,0.010839630849659443,0.06976725906133652,-0.09996207058429718,-0.09505200386047363,0.06436359882354736,0.047534722834825516,0.025698216632008553],[0.1454811841249466,-0.08352726697921753,-0.24249854683876038,-0.11362434178590775,0.017649302259087563,-0.1354471892118454,0.15850207209587097,-0.053797073662281036,-0.06936939060688019,-0.09087898582220078,-0.15258938074111938,0.05701622739434242,-0.2853282392024994,-0.10460729897022247,0.005792189389467239,-0.01698334328830242,0.048891402781009674,-0.05727273225784302,-0.13431495428085327,-0.0032470612786710262,-0.02243799716234207,-0.0825614333152771,0.11482856422662735,-0.11369314044713974,-0.19013263285160065,-0.13625968992710114,0.21670465171337128,-0.12009701132774353,-0.03983147814869881,-0.12760721147060394,-0.07140613347291946,-0.15045346319675446,-0.030135774984955788,-0.02286861650645733,0.13924652338027954,-0.1390122026205063,-0.06373459100723267,-0.14956781268119812,0.11649435013532639,-0.05124644190073013,-0.02591286040842533,0.07830746471881866,0.0975395068526268,-0.15468406677246094,0.10896871984004974,0.13867579400539398,-0.12973302602767944,-0.25892895460128784,0.04142617806792259,0.36594638228416443,-0.09679361432790756,-0.19207273423671722,0.05428560450673103,0.11419222503900528,-0.07780526578426361,-0.16628363728523254,-0.0440685898065567,-0.09673981368541718,-0.03876360133290291,-0.00813587848097086,-0.11586450040340424,0.1247088834643364,0.12086904048919678,0.04583058878779411],[0.11140374839305878,-0.0453997477889061,0.07328904420137405,0.03513964265584946,-0.02193446084856987,0.18777039647102356,-0.0956529900431633,-0.01430436596274376,-0.19770120084285736,-0.07857268303632736,-0.07349549978971481,0.2018013447523117,0.04888268932700157,0.0705791786313057,-0.1524546593427658,-0.08014167845249176,-0.06915584951639175,0.09239622950553894,-0.030355196446180344,-0.02627098746597767,0.021354055032134056,0.15074191987514496,-0.19517000019550323,0.08235078305006027,0.16900283098220825,0.06214430183172226,-0.10589856654405594,-0.043363552540540695,0.24254757165908813,0.05320465937256813,0.10747447609901428,-0.08129524439573288,-0.11766936630010605,0.1594751626253128,0.08448480814695358,-0.049873560667037964,0.2934845983982086,-0.20917202532291412,0.09488548338413239,0.07361596822738647,-0.09653187543153763,-0.057234421372413635,0.1112944707274437,0.06594356149435043,-0.10679417103528976,-0.08423081785440445,-0.06601988524198532,0.21814648807048798,0.07522868365049362,-0.1197173073887825,-0.22341029345989227,-0.0931088924407959,0.18618257343769073,-0.06387019157409668,0.10305027663707733,-0.1281111240386963,-0.0028003749903291464,0.04119473695755005,0.07493051886558533,0.051159076392650604,0.09493732452392578,0.012938665226101875,0.06100928783416748,-0.006972004659473896],[-0.09755752980709076,0.0889265164732933,-0.022060254588723183,-0.034137219190597534,-0.1840156465768814,-0.11985878646373749,-0.04938239976763725,0.09146275371313095,-0.1526152789592743,0.0024539539590477943,0.22745949029922485,-0.29296520352363586,0.162845641374588,-0.05014488473534584,-0.06287983059883118,-0.06886521726846695,0.18500222265720367,-0.15747927129268646,-0.07775445282459259,0.11365512013435364,0.03330142796039581,0.20295211672782898,-0.04935247823596001,-0.19134598970413208,0.015148621052503586,0.1030728667974472,-0.20476269721984863,0.14274367690086365,-0.1729402393102646,0.06846285611391068,-0.16515088081359863,-0.021836763247847557,0.18005748093128204,-0.03953322023153305,0.016055798158049583,-0.06790772080421448,-0.17275948822498322,-0.2304757684469223,-0.3240453004837036,-0.16650457680225372,0.007628346793353558,0.006288847420364618,-0.10476166754961014,0.018254559487104416,0.07911916077136993,0.08167844265699387,-0.22866696119308472,0.12300778925418854,-0.1568700075149536,-0.0029216420371085405,-0.0014456547796726227,-0.08633747696876526,0.03816317021846771,-0.14087660610675812,0.05443210154771805,-0.026188168674707413,0.11182371526956558,0.0496857725083828,0.11150627583265305,0.14376495778560638,-0.10578587651252747,0.06048709899187088,0.33120453357696533,0.06401194632053375],[-0.06297275424003601,-0.17295601963996887,-0.22359421849250793,0.05672142654657364,-0.13547557592391968,0.08024367690086365,-0.025899533182382584,-0.012670313008129597,0.057405661791563034,-0.13889822363853455,-0.1979646384716034,0.050144013017416,-0.34788668155670166,-0.045275960117578506,-0.3020528256893158,0.03135937452316284,0.014297381974756718,0.06172613799571991,-0.12094151973724365,0.03053591586649418,0.07654820382595062,0.019844232127070427,0.060303572565317154,0.02654287777841091,0.18766634166240692,0.10965315997600555,-0.04882819950580597,0.07046248763799667,0.01186063326895237,-0.020456593483686447,-0.028283432126045227,-0.08114492893218994,-0.028141014277935028,0.009313467890024185,-0.1586068570613861,0.07527713477611542,-0.10581295937299728,0.04699547216296196,0.0838887095451355,0.09701629728078842,0.1302477866411209,-0.07478293776512146,-0.02744791842997074,-0.05655055493116379,-0.21280410885810852,0.006697193253785372,0.059132080525159836,-0.23153561353683472,-0.013579246588051319,0.04414887726306915,-0.058553148061037064,-0.08635838329792023,-0.009395869448781013,0.17583990097045898,0.21172809600830078,0.03926168754696846,-0.14044375717639923,0.10157864540815353,0.07721424847841263,0.12801052629947662,0.004273760132491589,0.022442171350121498,0.020282026380300522,0.20735058188438416],[-0.07635633647441864,0.06542263925075531,0.012054773978888988,0.06943167001008987,-0.26430565118789673,0.148897185921669,-0.15076667070388794,0.021772123873233795,-0.13227307796478271,-0.16584762930870056,-0.2437400370836258,0.28960302472114563,0.042625222355127335,0.04583224654197693,-0.1231168732047081,0.006596724037081003,-0.06421977281570435,0.055932678282260895,-0.15033821761608124,-0.012314621359109879,0.1430465131998062,-0.04053417965769768,0.05657447129487991,0.01831239089369774,-0.033828042447566986,0.017314860597252846,0.1516464203596115,-0.06285279244184494,-0.003941899165511131,0.07044192403554916,-0.19714204967021942,-0.1555829793214798,0.13427874445915222,-0.13050250709056854,-0.29449179768562317,0.02043503150343895,-0.08693114668130875,-0.009168105199933052,-0.23198983073234558,-0.19468829035758972,-0.10504573583602905,0.24256226420402527,0.048793893307447433,0.010034177452325821,-0.09668432921171188,-0.2112949788570404,-0.13204915821552277,-0.15439192950725555,-0.281362920999527,-0.08577696979045868,0.03958234190940857,-0.14252546429634094,0.12208394706249237,-0.04931036755442619,-0.019409995526075363,0.0418834425508976,0.02797102928161621,-0.22980865836143494,0.2696734666824341,0.10582856833934784,0.11882973462343216,-0.21005092561244965,0.14882031083106995,0.08462299406528473],[0.020642034709453583,-0.1158529669046402,0.1528737097978592,-0.13141749799251556,0.05133896321058273,0.1815829873085022,-0.20807461440563202,-0.18721699714660645,-0.07174596935510635,-0.11766453087329865,-0.003775445744395256,-0.21682848036289215,-0.2030445784330368,-0.025414414703845978,-0.06824389845132828,-0.11734290421009064,0.052518416196107864,-0.18315821886062622,-0.03645147383213043,-0.07748661935329437,-0.020278234034776688,-0.016221459954977036,0.1128523051738739,-0.1267106980085373,0.023079730570316315,0.05431656166911125,0.017104700207710266,0.11544573307037354,-0.0172495786100626,-0.11370937526226044,-0.0820835530757904,-0.1529085636138916,0.09895193576812744,-0.36664366722106934,0.3048499524593353,-0.1130342110991478,-0.10318060219287872,-0.1399133950471878,0.15063805878162384,-0.15089982748031616,-0.18201172351837158,0.19014915823936462,0.0121872927993536,-0.002351924777030945,0.1750011444091797,0.07807951420545578,0.059792712330818176,-0.08803796023130417,0.04852818325161934,-0.05992874875664711,0.07095003128051758,-0.13649053871631622,-0.10459358990192413,0.08264832198619843,-0.19582654535770416,-0.10130678862333298,0.1371854543685913,-0.1535240113735199,-0.040835462510585785,0.10083124786615372,-0.08502461016178131,0.14385153353214264,0.016109194606542587,-0.03669042885303497],[0.042433787137269974,-0.05408366769552231,-0.07779064029455185,0.270734578371048,0.135262593626976,-0.24849334359169006,-0.05506739765405655,0.017217475920915604,-0.06029681861400604,0.23218852281570435,0.14593610167503357,-0.015665698796510696,0.13726337254047394,0.008479597046971321,-0.3149724304676056,0.10248074680566788,0.03562205284833908,-0.20328183472156525,-0.08362062275409698,0.12995079159736633,0.03233945742249489,-0.029866738244891167,0.24967370927333832,0.004072254523634911,0.12494778633117676,-0.014017833396792412,0.0973457545042038,0.16567343473434448,0.16991326212882996,-0.0310161504894495,0.2990311086177826,0.17319148778915405,0.060898102819919586,0.06837888062000275,-0.050344906747341156,-0.13111469149589539,-0.15692485868930817,-0.17100484669208527,0.033794671297073364,-0.043659791350364685,0.09608455747365952,0.11615829914808273,0.020562181249260902,-0.02114620804786682,0.1773398369550705,-0.11330524832010269,0.07466434687376022,0.17427869141101837,0.14068330824375153,0.12629933655261993,0.21106864511966705,-0.12832149863243103,-0.17661507427692413,-0.019901800900697708,-0.027917325496673584,-0.0345560759305954,-0.1770837903022766,-0.010210173204541206,0.017757533118128777,-0.011438438668847084,0.026912538334727287,-0.03475877642631531,-0.3656039834022522,0.13095781207084656],[0.05740191414952278,0.037490878254175186,-0.13445231318473816,-0.14602407813072205,-0.06729419529438019,-0.39811187982559204,-0.014249075204133987,-0.14118064939975739,-0.04429252818226814,0.08403706550598145,0.12243781983852386,-0.03829310089349747,0.09259674698114395,-0.09972362965345383,-0.16982807219028473,-0.056952111423015594,-0.10365156084299088,0.03503384813666344,0.10176770389080048,-0.16858208179473877,0.00818413682281971,-0.037966690957546234,-0.08456887304782867,-0.10709186643362045,-0.07759860157966614,0.09645454585552216,0.039322298020124435,-0.24605749547481537,-0.013038168661296368,-0.0564969964325428,0.1448742151260376,-0.21956993639469147,0.01166563481092453,-0.25609466433525085,0.13457608222961426,-0.05449647083878517,-0.17709039151668549,-0.0588524304330349,-0.16668885946273804,-0.1361154019832611,0.007850420661270618,-0.183200404047966,-0.07719562947750092,-0.17563657462596893,0.02257407456636429,0.030023721978068352,-0.009353837929666042,-0.02126992493867874,-0.2466460019350052,-0.26413771510124207,-0.06634052097797394,-0.30974164605140686,-0.12386366724967957,-0.006270366720855236,-0.17227257788181305,-0.057528793811798096,-0.16232235729694366,-0.04448884725570679,-0.08566152304410934,-0.24742482602596283,0.056747499853372574,-0.13687098026275635,-0.15154026448726654,0.23045200109481812],[-0.12822376191616058,0.04010200873017311,-0.04362477362155914,0.20209956169128418,0.030646562576293945,0.11824557185173035,0.03773051127791405,0.12214090675115585,-0.08778183162212372,0.04383523762226105,0.04411450773477554,0.0003436417900957167,-0.04636544734239578,0.12805071473121643,-0.03841236233711243,-0.006088393274694681,-0.09477414935827255,0.014037059620022774,0.19590455293655396,-0.08121193200349808,-0.008683749474585056,-0.05377510190010071,0.026813548058271408,-0.05726756900548935,0.11194862425327301,-0.06040516495704651,0.12172436714172363,-0.10214551538228989,0.11747385561466217,-0.09185682237148285,0.07235848903656006,-0.108517587184906,0.20202256739139557,-0.04715769737958908,-0.0704709067940712,-0.04732974246144295,0.14357711374759674,0.24338120222091675,-0.024649156257510185,-0.08871903270483017,0.12331868708133698,0.011256778612732887,-0.1657622754573822,-0.2400151938199997,0.031733497977256775,0.07699880003929138,0.1705015003681183,-0.2440505474805832,-0.033728085458278656,-0.20772193372249603,-0.34400269389152527,0.013513625599443913,0.03304051235318184,0.017816666513681412,-0.184035062789917,0.00013139155635144562,0.01842474937438965,-0.14568044245243073,0.06340675801038742,-0.1272227168083191,-0.03165709227323532,-0.13057541847229004,-0.2489471435546875,0.001025039586238563],[-0.03941230848431587,-0.16805225610733032,-0.26242947578430176,-0.15158122777938843,-0.20275761187076569,0.06063959002494812,0.079532191157341,-0.07501842081546783,0.07920047640800476,-0.2178547978401184,-0.10176719725131989,0.00786445289850235,-0.23243845999240875,0.05748846381902695,-0.07656993716955185,0.06156608462333679,-0.0054826377891004086,0.12030571699142456,-0.034312158823013306,-0.1834607869386673,0.17518490552902222,-0.0075969817116856575,-0.1309581995010376,-0.1825457215309143,0.01647213101387024,-0.16247700154781342,0.07740438729524612,-0.004529980476945639,0.002963867736980319,-0.058407656848430634,-0.061396390199661255,0.1340925544500351,0.017975006252527237,-0.1004764661192894,0.18901526927947998,-0.29122599959373474,-0.2678833603858948,-0.09064683318138123,0.18184596300125122,-0.1780381202697754,0.002753220731392503,-0.053402259945869446,-0.40264222025871277,0.03048277273774147,-0.20141759514808655,-0.029351772740483284,0.1402139961719513,-0.07107676565647125,-0.06369375437498093,-0.17266149818897247,0.20295679569244385,0.0759926289319992,0.009431199170649052,0.0809304490685463,0.1473102569580078,-0.30700021982192993,-0.051179733127355576,0.174902081489563,-0.1376217007637024,-0.1777895838022232,0.17778940498828888,0.18754729628562927,-0.0994991883635521,-0.2610732913017273],[-0.014660218730568886,-0.2482612133026123,-0.017394088208675385,0.009218965657055378,0.07564222067594528,-0.14065776765346527,-0.07277817279100418,-0.1837499886751175,-0.2062149941921234,0.1520034670829773,-0.24200397729873657,-0.1891021430492401,-0.1769580990076065,-0.39153948426246643,0.007307801395654678,-0.008706072345376015,-0.07661288231611252,-0.2770615816116333,0.12071957439184189,-0.047317687422037125,-0.02000896818935871,0.06321951001882553,-0.06276743113994598,0.062442973256111145,0.0482560396194458,0.019431667402386665,0.1739196479320526,0.18955646455287933,0.08269404619932175,-0.05433620885014534,0.0720355436205864,-0.24058279395103455,0.032048918306827545,0.15625730156898499,-0.03930347040295601,-0.060800425708293915,-0.09843630343675613,0.2544846832752228,0.17826272547245026,-0.37970927357673645,-0.017882106825709343,0.01817021705210209,-0.06068466231226921,-0.08836538344621658,-0.17285595834255219,-0.01423592772334814,-0.1020272970199585,0.10374689847230911,-0.1384143978357315,0.1363084465265274,-0.16184797883033752,-0.0729745551943779,0.002400058088824153,0.036773402243852615,-0.11159902065992355,0.20499148964881897,-0.05046289786696434,-0.010947057045996189,-0.00962851382791996,0.2686507999897003,0.040761660784482956,-0.11329488456249237,-0.025846416130661964,0.1447027176618576],[0.023307405412197113,0.23412518203258514,-0.10041757673025131,0.1089366227388382,0.01953754387795925,-0.17917844653129578,0.22151589393615723,0.011487320065498352,-0.05287177488207817,-0.011314629577100277,-0.08240200579166412,-0.14064094424247742,-0.031065350398421288,0.23643717169761658,0.1596420854330063,-0.10880209505558014,0.08422601968050003,-0.14342442154884338,-0.25032728910446167,0.03302279859781265,-0.16016468405723572,-0.12449115514755249,0.07102130353450775,-0.08779258280992508,-0.2031949907541275,-0.15802061557769775,0.2048449069261551,-0.1684182584285736,0.18706075847148895,-0.18962648510932922,0.18069960176944733,-0.039454054087400436,-0.08651889860630035,-0.10358233004808426,-0.008014810271561146,0.08835260570049286,0.029199786484241486,0.10284381359815598,0.052535343915224075,-0.09473150968551636,-0.15859682857990265,-0.0430259183049202,-0.16478748619556427,-0.09089396893978119,-0.10307613015174866,-0.05759702995419502,-0.1291412115097046,-0.16420775651931763,0.09934180229902267,0.008758262731134892,-0.31965503096580505,-0.22107814252376556,0.11648297309875488,-0.030110931023955345,0.18342401087284088,0.06211235374212265,-0.05573897436261177,-0.24754773080348969,-0.15935960412025452,-0.006510427221655846,0.050103649497032166,0.06414592266082764,-0.19013050198554993,-0.1673048734664917],[-0.1538737565279007,-0.07966705411672592,-0.18523278832435608,0.039150387048721313,-0.024887818843126297,-0.002441135700792074,0.01124945655465126,0.1320442110300064,0.17461076378822327,-0.21344387531280518,0.17245317995548248,-0.11146273463964462,0.07280730456113815,-0.055406395345926285,-0.14864683151245117,-0.10125485807657242,-0.07185231894254684,-0.023948341608047485,0.004879278596490622,0.13859668374061584,-0.058952685445547104,-0.006226605270057917,0.07567407190799713,0.021497685462236404,0.05525830760598183,0.09162122756242752,0.19796660542488098,-0.16884902119636536,-0.0804162248969078,-0.041475746780633926,0.009838883765041828,-0.14637276530265808,0.00977378711104393,0.09300593286752701,-0.0016040379414334893,0.11466076225042343,-0.009785096161067486,-0.009614241309463978,0.018871376290917397,0.05952389910817146,0.16930556297302246,-0.0684572160243988,-0.17703938484191895,0.07467047870159149,-0.13394023478031158,-0.00019558350322768092,-0.03619280457496643,0.11268198490142822,-0.05858496576547623,-0.035060249269008636,-0.08704184740781784,-0.04104575514793396,0.0824219286441803,-0.024043718352913857,-0.08290630578994751,-0.1086965873837471,-0.054165296256542206,0.021716414019465446,-0.29297372698783875,0.10905592143535614,-0.021382203325629234,0.09864091873168945,-0.19378326833248138,0.00690856110304594],[-0.20728477835655212,0.054582517594099045,-0.16188779473304749,-0.02378648892045021,0.09169121831655502,-0.10384832322597504,-0.10903206467628479,0.07486198097467422,0.11632733792066574,-0.09510812908411026,0.13549818098545074,-0.004049940966069698,0.004429892171174288,-0.09286526590585709,0.11824328452348709,0.10365362465381622,0.06479435414075851,-0.0041920896619558334,-0.05418954789638519,-0.13084489107131958,-0.051291678100824356,-0.17227362096309662,-0.07523960620164871,-0.06968003511428833,-0.1538277268409729,-0.18876925110816956,-0.09672971069812775,-0.031179610639810562,-0.04211056977510452,-0.1292606145143509,0.038102615624666214,-0.11198671907186508,-0.0037452331744134426,0.1505027413368225,-0.11632442474365234,0.03756379708647728,-0.164094477891922,0.2547658383846283,0.10878445953130722,-0.20361311733722687,-0.15823085606098175,-0.2687492370605469,-0.08007924258708954,0.1508001834154129,-0.19530314207077026,0.05249684676527977,-0.20033691823482513,-0.06369157880544662,-0.041894566267728806,-0.08056002110242844,-0.009088441729545593,-0.06554990261793137,0.1138729602098465,0.23798388242721558,-0.12339021265506744,0.362250953912735,0.09542600065469742,0.08629924803972244,0.012158771976828575,-0.1776943802833557,-0.13886378705501556,-0.19445636868476868,0.06664963066577911,0.07223568111658096],[0.06151679530739784,-0.012333698570728302,0.06227840483188629,0.11266589909791946,-0.08163755387067795,0.09435076266527176,-0.02377527952194214,-0.014749908819794655,-0.06153663992881775,0.22725637257099152,-0.0423923023045063,-0.03793324530124664,0.017182087525725365,0.2856462895870209,0.10321678221225739,0.014544889330863953,0.2414187341928482,-0.2217687964439392,0.05109420418739319,-0.26063916087150574,-0.013767348602414131,0.000692380650434643,-0.04952986165881157,-0.1788632571697235,0.13918429613113403,-0.04675526171922684,-0.13070696592330933,0.07551231980323792,-0.01524768304079771,0.10154097527265549,-0.015606780536472797,0.0960545539855957,0.06740585714578629,-0.20845888555049896,-0.28845247626304626,0.14820019900798798,0.1392194777727127,-0.03450707346200943,-0.009806773625314236,-0.10382446646690369,-0.06992559880018234,-0.05953411012887955,0.15639527142047882,-0.047766562551259995,-0.0235055610537529,-0.015087821520864964,-0.14409685134887695,-0.1598093956708908,0.0734143778681755,-0.013603475876152515,0.018157102167606354,0.10412758588790894,0.09674550592899323,-0.10352761298418045,0.027339879423379898,0.027344292029738426,0.013717849738895893,-0.13786505162715912,0.04867072403430939,-0.10541074723005295,-0.05798713117837906,0.047487854957580566,0.19507944583892822,-0.1572529524564743],[-0.15948669612407684,-0.26138538122177124,-0.0657418817281723,0.026019351556897163,-0.12849485874176025,0.19581545889377594,-0.13997922837734222,-0.12947651743888855,0.15093395113945007,-0.10496088117361069,0.11922374367713928,0.0001497792691225186,0.12341191619634628,-0.20015139877796173,-0.03956128656864166,0.038169387727975845,-0.04591017961502075,-0.015102382749319077,-0.08431781828403473,0.0657116025686264,0.00045636115828529,0.052123624831438065,0.05412038415670395,0.018829021602869034,0.09746178984642029,-0.056754302233457565,-0.022365255281329155,-0.09413954615592957,0.09811744093894958,0.02299070544540882,-0.1976178139448166,-0.016317419707775116,-0.03972158953547478,-0.13993515074253082,-0.032697003334760666,0.05402005836367607,-0.07016695290803909,0.18896228075027466,-0.09592362493276596,0.09170152246952057,-0.2097248136997223,-0.0002821040980052203,0.19655074179172516,0.14915499091148376,0.08679860085248947,0.08503442257642746,0.11131267249584198,-0.06650731712579727,0.0032367627136409283,-0.193592831492424,0.29665127396583557,0.08505091071128845,-0.07251571118831635,0.005240879487246275,0.06297685950994492,0.18933486938476562,-0.036122892051935196,0.19893719255924225,-0.006944532971829176,-0.017557820305228233,0.25806355476379395,0.029167739674448967,-0.10375827550888062,-0.0493696853518486],[0.25391000509262085,0.11762142181396484,-0.008802644908428192,-0.03701319918036461,0.048874594271183014,0.03566417098045349,0.2724109888076782,-0.05981612950563431,-0.041419617831707,0.0025898623280227184,0.13543623685836792,-0.2131512612104416,0.16380693018436432,0.10420466214418411,-0.04107154160737991,0.23970623314380646,-0.10872525721788406,0.18545997142791748,0.09002059698104858,-0.25445356965065,-0.1286235898733139,0.013575807213783264,0.20719541609287262,-0.02814921922981739,0.268653929233551,0.11736427992582321,0.16240090131759644,0.13855834305286407,-0.10259469598531723,0.12606064975261688,-0.005962254013866186,0.04528398811817169,-0.060514893382787704,0.07347165048122406,0.15875928103923798,-0.07340456545352936,-0.1375483274459839,0.25271251797676086,0.04940280690789223,-0.2646845877170563,-0.16115902364253998,0.0003031178202945739,0.032850638031959534,-0.2439596951007843,0.0490916445851326,-0.10976950824260712,-0.193380668759346,0.19734090566635132,-0.021698519587516785,0.06646301597356796,-0.11050204187631607,0.11945921182632446,-0.0651814192533493,0.09597507864236832,0.08758915960788727,-0.07387667149305344,0.06249559298157692,-0.059291403740644455,-0.06668540835380554,-0.30637145042419434,0.0900467038154602,0.18355146050453186,-0.10917924344539642,-0.1660124957561493],[-0.07634501904249191,0.10677490383386612,0.19466173648834229,-0.16869623959064484,-0.07953078299760818,-0.07743937522172928,-0.17186658084392548,0.06793816387653351,0.22184544801712036,-0.0861644446849823,0.06269896775484085,0.08327824622392654,-0.037376463413238525,0.17073804140090942,0.01733338087797165,-0.02559715509414673,0.039509743452072144,0.07783728837966919,0.09752532839775085,0.2729303538799286,-0.10912811756134033,-0.12643246352672577,-0.07515310496091843,-0.03903873637318611,-0.12886421382427216,0.08216472715139389,-0.0034455801360309124,-0.09798568487167358,0.18102110922336578,0.02167273499071598,0.053560104221105576,-0.024813106283545494,0.15057186782360077,0.05686572194099426,-0.10170271247625351,-0.05221647769212723,-0.1571459174156189,-0.036005519330501556,-0.08649258315563202,-0.07918771356344223,0.07995796203613281,0.05525732785463333,0.12829969823360443,-0.097396120429039,-0.15073317289352417,-0.06114445999264717,-0.12870466709136963,-0.18297193944454193,-0.15790411829948425,-0.0964268147945404,0.0459757074713707,-0.1707492619752884,0.12719731032848358,-0.03644528239965439,0.024379324167966843,0.018248768523335457,-0.01745004579424858,0.09454105794429779,0.16111254692077637,-0.20828907191753387,-0.042677152901887894,-0.07641072571277618,0.11917349696159363,-0.0338112972676754],[0.02162507362663746,-0.18471011519432068,-0.08244617283344269,0.08741042762994766,-0.11125150322914124,-0.093910351395607,-0.026859629899263382,-0.08923448622226715,-0.012768362648785114,-0.009943274781107903,0.10943824797868729,-0.10116326063871384,0.02431372180581093,0.03676578775048256,-0.16836200654506683,-0.09367980808019638,0.3669409453868866,0.011478499509394169,0.08171115070581436,-0.028874443843960762,-0.15789306163787842,-0.02413393370807171,0.12426137179136276,0.10702814906835556,0.030301783233880997,0.10374917089939117,0.091791070997715,0.0011818073689937592,0.2059842050075531,-0.025851791724562645,0.07177303731441498,0.07307101041078568,-0.039917878806591034,0.05312532186508179,-0.04868859425187111,-0.15109816193580627,-0.04211948439478874,0.14902637898921967,-0.06811290979385376,-0.10712620615959167,-0.03329085931181908,0.1505342572927475,0.08964042365550995,0.04594408720731735,0.05664697289466858,0.19644281268119812,0.28767088055610657,0.05730634182691574,0.09557684510946274,0.13499772548675537,0.10215840488672256,0.0019899429753422737,0.006721049081534147,0.013669625855982304,-0.12251429259777069,-0.0917515754699707,0.1339065283536911,-0.14516469836235046,0.04876942187547684,0.14265789091587067,-0.011138804256916046,-0.15241917967796326,-0.06075284630060196,-0.07517730444669724],[0.022775303572416306,-0.04965313896536827,-0.09740825742483139,0.11240072548389435,-0.12298090010881424,0.010240009985864162,-0.17705349624156952,-0.030944690108299255,0.21894705295562744,-0.05934096500277519,0.09834719449281693,-0.016494233161211014,-0.15575739741325378,-0.09110918641090393,-0.13395732641220093,-0.12355460971593857,-0.1181873232126236,-0.19006870687007904,0.17926019430160522,0.13515527546405792,-0.22308532893657684,0.1703980714082718,0.009977811947464943,-0.15904612839221954,-0.2669522762298584,-0.0013711592182517052,0.005269533954560757,-0.0842544436454773,0.05821598321199417,-0.1977115273475647,-0.09433606266975403,-0.008083312772214413,-0.0880720391869545,-0.012010578066110611,0.14466853439807892,0.0326831191778183,0.20109350979328156,-0.08098431676626205,0.2526521682739258,-0.10511812567710876,0.14165635406970978,-0.2234674096107483,-0.09600228816270828,-0.03775472193956375,-0.08845172822475433,0.029189391061663628,-0.17606964707374573,0.18794095516204834,-0.05987483263015747,0.13455575704574585,-0.3253956735134125,-0.08709360659122467,-0.08447656780481339,0.11160986125469208,-0.06133188679814339,-0.09349092096090317,0.03315621241927147,-0.05866103619337082,-0.10701815038919449,-0.029282689094543457,0.10481686145067215,0.18850015103816986,0.1095515787601471,0.0450776107609272],[0.019630534574389458,0.01891455426812172,-0.03697425127029419,0.012364230118691921,0.15289120376110077,0.3150655925273895,-0.08417725563049316,0.05730583891272545,-0.10819137841463089,0.00005701101690647192,0.12346343696117401,0.0191618874669075,0.06697594374418259,0.28502801060676575,0.13172529637813568,-0.0861777514219284,0.1711951196193695,0.016007589176297188,-0.023226331919431686,-0.09905362129211426,-0.1675647646188736,0.08493386209011078,0.19095996022224426,0.34449803829193115,0.23567205667495728,-0.051006585359573364,-0.07234480232000351,-0.10565906018018723,-0.12224537879228592,-0.1740037053823471,0.044759929180145264,-0.037274111062288284,0.1483071893453598,-0.023477084934711456,-0.1870332509279251,0.10107569396495819,0.08284199982881546,-0.016293805092573166,-0.009205029346048832,0.015737896785140038,0.007042954675853252,0.0033659085165709257,0.030110469087958336,-0.11616501957178116,0.17614898085594177,-0.079745814204216,0.04251768812537193,0.012005663476884365,0.10567670315504074,-0.10302227735519409,0.05918344855308533,0.23124884068965912,0.023756133392453194,0.1416884809732437,0.1993962824344635,-0.014771593734622002,0.1905553936958313,0.24624404311180115,0.08072817325592041,0.10996147990226746,0.22118417918682098,0.08100549131631851,0.19689632952213287,0.15114514529705048],[-0.08256661146879196,0.07746303081512451,-0.0558369942009449,0.030542921274900436,-0.06978365033864975,-0.06732938438653946,0.149514839053154,0.17496638000011444,-0.2452242523431778,-0.18086382746696472,-0.15504275262355804,-0.04883747175335884,0.08411414921283722,0.17496034502983093,-0.03913896903395653,0.0457954965531826,0.15413643419742584,0.07224206626415253,0.2540540099143982,-0.002475329674780369,-0.01611233688890934,-0.05618303269147873,-0.30304691195487976,0.19181464612483978,-0.141355961561203,0.22763030230998993,-0.14901742339134216,0.047917354851961136,0.2574506103992462,-0.21204708516597748,-0.16422894597053528,0.1886504590511322,-0.101964570581913,0.028406992554664612,0.10530151426792145,-0.3318973779678345,0.12485664337873459,-0.07373533397912979,-0.07140753418207169,0.0672977939248085,-0.02005704678595066,0.022656502202153206,-0.15022234618663788,-0.08828592300415039,0.06511717289686203,-0.14724674820899963,-0.014506974257528782,-0.15072456002235413,-0.041912104934453964,0.08205927908420563,-0.05567038431763649,0.05911116674542427,-0.1171482726931572,-0.14287815988063812,-0.11488886922597885,0.06592363119125366,0.0341595783829689,0.05192309617996216,-0.07546042650938034,0.0002496069937478751,-0.1126590147614479,-0.18395864963531494,-0.2327844202518463,0.08809814602136612],[0.015495005063712597,-0.048377372324466705,0.12353716790676117,-0.1927269548177719,-0.12213453650474548,-0.01706978678703308,-0.088573157787323,-0.18613232672214508,0.08640692383050919,0.08099842816591263,-0.17094796895980835,0.0046073091216385365,-0.09971638768911362,0.0919625386595726,-0.03359277546405792,-0.04199490323662758,-0.0827380046248436,-0.06676024198532104,-0.0702463760972023,0.12011775374412537,0.01561621855944395,-0.24073754251003265,0.03593660891056061,-0.15432453155517578,0.0319414958357811,0.13979437947273254,0.15788783133029938,0.1897784322500229,-0.2625267505645752,0.06734280288219452,-0.056070391088724136,0.016003085300326347,-0.06447580456733704,-0.008783387951552868,-0.35822373628616333,-0.17303216457366943,0.12070442736148834,-0.16322863101959229,0.03468259423971176,0.052109651267528534,0.04415242746472359,-0.0293826125562191,0.036113012582063675,0.13719992339611053,0.046975694596767426,-0.10905200242996216,-0.12402866035699844,-0.12650951743125916,-0.12891869246959686,0.03548453748226166,0.0897294357419014,0.015576579608023167,0.08354462683200836,0.0030071150977164507,0.015739208087325096,-0.134367898106575,-0.004447050858289003,0.127712681889534,0.24215109646320343,0.0560218021273613,0.0005291530978865921,-0.10227817296981812,0.045356497168540955,0.030050409957766533],[0.11246074736118317,-0.03602084890007973,0.22675620019435883,0.06093999370932579,0.09184283763170242,-0.05596166476607323,0.24643059074878693,-0.01975393109023571,0.07127303630113602,-0.00908595696091652,0.08801516145467758,0.10846328735351562,0.2740187346935272,0.01157896313816309,0.05651890113949776,-0.10818886756896973,-0.21233955025672913,-0.1531367152929306,-0.012985525652766228,0.026463279500603676,0.08807311952114105,0.09356249868869781,0.16157397627830505,-0.1169586032629013,0.2117290049791336,0.1123007982969284,0.039622172713279724,-0.04473710432648659,-0.2540459930896759,-0.13055618107318878,0.044624246656894684,0.1951880156993866,-0.06581484526395798,-0.21321448683738708,0.0017123433062806726,0.22139856219291687,0.0532706081867218,-0.07826949656009674,-0.012560918927192688,-0.09720680862665176,0.07286223769187927,-0.034039199352264404,0.29073959589004517,-0.0074104852974414825,-0.14012756943702698,0.06744200736284256,0.05423114821314812,0.09326612949371338,-0.138376846909523,0.06504054367542267,0.15002037584781647,-0.02975153736770153,-0.05696950480341911,0.22816024720668793,-0.11564715951681137,0.18252906203269958,-0.11310641467571259,-0.11949526518583298,-0.2768296003341675,-0.04388101026415825,-0.1218353733420372,0.1851801723241806,0.10444720089435577,0.03395913541316986],[-0.04200741648674011,-0.02257794700562954,0.014613887295126915,-0.010206704027950764,-0.10886920988559723,-0.08716914057731628,-0.23085780441761017,-0.07510489225387573,-0.0014519975520670414,-0.2926383316516876,-0.12185929715633392,0.08986804634332657,-0.06708048284053802,-0.056238193064928055,-0.07977563142776489,-0.1519930213689804,-0.2709539532661438,0.1324538290500641,0.02166529931128025,-0.006031421013176441,-0.008721302263438702,-0.10250148922204971,-0.016171332448720932,-0.15415672957897186,-0.04926403611898422,0.14443986117839813,-0.17691680788993835,0.015827059745788574,-0.16010387241840363,-0.09196242690086365,-0.04658734053373337,0.30595773458480835,-0.03513777628540993,-0.16970020532608032,0.24001270532608032,0.10672210156917572,-0.06434458494186401,-0.08094972372055054,0.23395368456840515,-0.026517298072576523,-0.018624572083353996,-0.004446952138096094,-0.13799108564853668,0.12934233248233795,-0.06804218888282776,0.10773776471614838,-0.07488935440778732,0.09703703224658966,0.08728465437889099,-0.07104195654392242,-0.02047046087682247,-0.11576944589614868,0.11917439103126526,-0.1803082525730133,0.23690010607242584,0.16583633422851562,-0.011609726585447788,-0.14718134701251984,0.0023640755098313093,0.03191735967993736,-0.22933493554592133,0.0059662628918886185,-0.2124178409576416,0.07202191650867462],[0.14305530488491058,0.048240046948194504,-0.025593500584363937,-0.1433994472026825,-0.10697714239358902,-0.08925028145313263,-0.10954663902521133,-0.027832094579935074,-0.024680932983756065,-0.1719416379928589,-0.24723882973194122,0.1628808081150055,0.17440886795520782,0.10869182646274567,0.2597157061100006,-0.060175660997629166,-0.018176842480897903,0.12054792046546936,-0.002344538690522313,-0.07850991934537888,-0.09278072416782379,-0.17136432230472565,0.14950408041477203,0.004854927305132151,0.12890680134296417,-0.18717341125011444,-0.18458296358585358,-0.19892220199108124,-0.19253188371658325,-0.07413960248231888,0.047796931117773056,-0.024489648640155792,-0.03907390683889389,-0.03323642536997795,0.06826955825090408,0.03574554994702339,-0.24475222826004028,0.046811141073703766,-0.29343563318252563,-0.05289183929562569,-0.025775492191314697,-0.07110302895307541,-0.01874309591948986,-0.16894829273223877,-0.02599167451262474,0.11885703355073929,-0.18001973628997803,0.10592169314622879,-0.07846395671367645,-0.0023165957536548376,-0.028067918494343758,-0.03262308984994888,-0.13912244141101837,-0.16695493459701538,-0.10935220867395401,0.04347982257604599,-0.28138259053230286,-0.39395713806152344,0.23368433117866516,-0.08159518241882324,0.0017166153993457556,-0.1268053650856018,-0.20386089384555817,-0.2184607833623886],[0.059218086302280426,0.022125450894236565,0.020098082721233368,-0.09453679621219635,0.06270363181829453,-0.04644555598497391,-0.001301192562095821,-0.09584490954875946,-0.0738694965839386,-0.09263163059949875,0.03869108483195305,-0.0979243814945221,0.03405197709798813,-0.185702845454216,0.04442537575960159,0.10850579291582108,-0.01061562355607748,-0.18493004143238068,-0.027615733444690704,-0.12746292352676392,-0.06319406628608704,0.27381038665771484,0.0901523232460022,0.2158757448196411,-0.3658122420310974,-0.03534804657101631,0.18552902340888977,-0.18701696395874023,0.00151972402818501,-0.11993149667978287,0.00846285093575716,-0.007580412086099386,-0.030411070212721825,0.09116414189338684,0.16594873368740082,-0.05447645112872124,0.016509927809238434,-0.07348266988992691,-0.14171428978443146,0.1573769450187683,0.04784798622131348,-0.134828582406044,-0.08570440113544464,-0.018265308812260628,0.16697940230369568,0.009311043657362461,-0.06309513747692108,0.14060750603675842,-0.1446971297264099,0.044048428535461426,0.1049250066280365,0.14510002732276917,0.025261078029870987,0.14330646395683289,0.08248768746852875,-0.14006561040878296,-0.09506960213184357,0.1546487957239151,-0.09871617704629898,0.033053599298000336,-0.14507099986076355,-0.026191959157586098,-0.004218552727252245,0.15334700047969818],[0.07467270642518997,-0.039696283638477325,0.1408933848142624,-0.1318742036819458,-0.0848296657204628,-0.04130173474550247,0.1672818660736084,0.1282641589641571,0.17461317777633667,-0.12666752934455872,-0.038590654730796814,-0.034658756107091904,-0.09877970814704895,-0.060063835233449936,-0.10447701066732407,0.05808180570602417,0.1380717158317566,0.3046647012233734,0.008228694088757038,0.06855212897062302,0.22380158305168152,-0.33073827624320984,-0.21019819378852844,0.2318960279226303,-0.13419169187545776,-0.29903048276901245,-0.004296461120247841,-0.19886432588100433,0.2574504315853119,0.18854156136512756,-0.08401785790920258,0.20815932750701904,-0.018611298874020576,-0.07332827150821686,-0.11353681236505508,0.0002832928148563951,0.0632014274597168,-0.050922639667987823,-0.09432566165924072,0.020529858767986298,0.08193076401948929,-0.09632804989814758,0.033655937761068344,0.09682442247867584,-0.053203895688056946,0.08108556270599365,0.009178055450320244,0.0750499963760376,0.15164244174957275,-0.06302743405103683,0.007782699540257454,0.06362395733594894,-0.11932935565710068,-0.06876018643379211,0.057753730565309525,0.1540910303592682,-0.17474116384983063,-0.0917237177491188,-0.043880853801965714,0.039360128343105316,-0.22349733114242554,-0.0006353652570396662,0.03795894607901573,-0.14032156765460968],[0.010608005337417126,-0.06431084871292114,0.022359734401106834,-0.042665913701057434,0.043674543499946594,-0.03887741640210152,-0.06992907077074051,-0.0011832211166620255,-0.10650262236595154,-0.05428183451294899,0.10138963162899017,-0.08356232941150665,-0.37472739815711975,-0.06288854032754898,0.06354310363531113,-0.07950488477945328,0.018405301496386528,-0.09463922679424286,0.03879798576235771,-0.159471333026886,0.13517028093338013,-0.1773182451725006,-0.007456010673195124,0.05407433956861496,0.15669475495815277,-0.04386012628674507,-0.06833511590957642,-0.01747271977365017,-0.10637819766998291,0.13579322397708893,0.22276556491851807,0.03314376622438431,0.07098584622144699,0.10310162603855133,-0.028842411935329437,-0.15078096091747284,-0.12979784607887268,-0.18492579460144043,-0.16396775841712952,-0.10275986790657043,0.11094418168067932,-0.09929237514734268,-0.05128040537238121,-0.026323897764086723,0.21198517084121704,0.22366192936897278,-0.17157599329948425,-0.0464094914495945,-0.171195387840271,-0.1822637915611267,-0.08351077139377594,-0.09570329636335373,-0.17331115901470184,-0.15044748783111572,-0.154524564743042,0.06043315306305885,-0.10491972416639328,-0.016390688717365265,-0.032508060336112976,0.05331272631883621,-0.035010114312171936,0.039348356425762177,-0.052407264709472656,0.21036574244499207],[-0.06466185301542282,0.11856966465711594,0.09539017081260681,0.32302626967430115,-0.09912781417369843,-0.15525884926319122,0.2678237855434418,-0.018372125923633575,-0.0718754455447197,-0.0307896938174963,-0.08858134597539902,-0.20400957763195038,-0.06780937314033508,0.0013352667447179556,0.00022771772637497634,-0.34674072265625,-0.017100045457482338,0.054724741727113724,0.18506067991256714,0.07555828243494034,-0.021640410646796227,-0.15406396985054016,0.259176641702652,-0.18191757798194885,-0.08001913875341415,-0.19060850143432617,-0.039344869554042816,0.09599054604768753,-0.010366530157625675,-0.19839461147785187,-0.03478429466485977,-0.11615335196256638,-0.013088167645037174,-0.1227760910987854,-0.0502556711435318,-0.0012836235109716654,-0.18577387928962708,0.07745903730392456,-0.3713187575340271,-0.1542912870645523,0.10921580344438553,-0.20651425421237946,-0.18534353375434875,0.04502005875110626,-0.1363568753004074,-0.14923807978630066,-0.06655427068471909,0.10815349221229553,0.08023083209991455,-0.24476277828216553,0.12953196465969086,-0.054409973323345184,-0.1069445088505745,-0.18581420183181763,0.032432813197374344,0.059602800756692886,-0.05569067224860191,-0.027188856154680252,0.07783330231904984,-0.10189417749643326,0.08314353227615356,0.2336781620979309,-0.33820298314094543,0.2980833649635315],[-0.01153027918189764,-0.015262572094798088,0.10722193866968155,0.21058504283428192,-0.21392317116260529,-0.06319285184144974,0.00404106080532074,-0.02998538687825203,0.11076106131076813,-0.06137608364224434,-0.00947976391762495,0.17083527147769928,-0.24250487983226776,-0.14619360864162445,-0.016977893188595772,0.056805603206157684,0.04091968387365341,0.21582433581352234,-0.043989554047584534,0.1637497842311859,0.07951728254556656,0.07371429353952408,-0.12568403780460358,-0.09461581707000732,0.06394916027784348,0.05836658179759979,0.061919983476400375,-0.18991336226463318,0.040377918630838394,0.08915400505065918,0.019423143938183784,0.3017312288284302,-0.08682938665151596,-0.04465029016137123,0.11037203669548035,-0.12108170241117477,-0.0617595799267292,-0.08102290332317352,-0.08125139027833939,0.15649038553237915,0.05883142352104187,0.02386561408638954,0.256034791469574,0.02921350859105587,-0.002736087655648589,0.07037189602851868,0.10027632117271423,0.10512714833021164,-0.11364252120256424,0.008315098471939564,-0.07355701178312302,0.0697668194770813,0.16042229533195496,-0.12075339257717133,0.09537813067436218,-0.2791825234889984,0.08693088591098785,0.04958188161253929,0.0013197858352214098,-0.0514560341835022,-0.09751000255346298,0.11223451793193817,0.11439504474401474,0.014540602453052998],[0.1354226917028427,-0.12303397059440613,0.07276271283626556,0.0037616933695971966,-0.1497422605752945,0.15818656980991364,-0.16592682898044586,-0.2307652235031128,0.01627371460199356,-0.03753462806344032,0.07241788506507874,-0.01610562391579151,0.0930439904332161,0.16726616024971008,-0.22634953260421753,0.299096941947937,0.10409460216760635,0.052295271307229996,-0.03378264233469963,-0.23166126012802124,-0.0834759771823883,0.35989856719970703,0.13693764805793762,-0.24207159876823425,0.04973946139216423,0.010920104570686817,0.009427336044609547,0.012082548812031746,-0.18246403336524963,-0.05734112486243248,0.017672952264547348,-0.0312521867454052,0.07101470977067947,0.06712335348129272,0.18606534600257874,-0.1692739725112915,0.1812414973974228,0.22437261044979095,-0.06286294013261795,-0.1887880265712738,0.20807380974292755,-0.13677598536014557,0.10014275461435318,-0.11013028025627136,0.06401262432336807,-0.27568796277046204,-0.001973693957552314,0.01470843143761158,-0.3398783206939697,-0.05414367467164993,0.0439235121011734,0.06529143452644348,0.05309275910258293,-0.14978714287281036,0.007874656468629837,0.28713712096214294,0.04978760704398155,-0.05629482865333557,-0.018569311127066612,0.023808594793081284,0.08009899407625198,-0.012564088217914104,0.02914603427052498,-0.032656021416187286],[0.08553917706012726,-0.07570772618055344,-0.07306340336799622,0.17680901288986206,-0.02450142800807953,-0.0054136947728693485,-0.20758798718452454,-0.1831810623407364,-0.13898921012878418,-0.1397172510623932,0.06337577849626541,0.0877733901143074,-0.07753785699605942,-0.10751628875732422,0.11345391720533371,-0.1909094601869583,-0.0812426283955574,-0.04778893291950226,-0.01692090556025505,0.13438554108142853,0.16547638177871704,-0.16745182871818542,-0.016187913715839386,-0.10025092959403992,-0.03801862522959709,0.06186380237340927,-0.08397459983825684,-0.1516697257757187,-0.019316541031003,-0.053424522280693054,0.09797421097755432,0.18965108692646027,-0.02330050803720951,0.025514980778098106,-0.037822313606739044,-0.033602990210056305,0.18461933732032776,0.03699074685573578,-0.04687417671084404,-0.23283877968788147,-0.020922787487506866,0.11567451059818268,-0.21029549837112427,-0.11713352799415588,-0.12250576913356781,0.04697014391422272,-0.0695752277970314,0.04219646379351616,0.03592745214700699,0.09167034924030304,-0.14649441838264465,0.15281939506530762,-0.2042064368724823,-0.06268222630023956,-0.027170749381184578,0.056179847568273544,0.23393069207668304,0.3571002185344696,0.03148699551820755,-0.14675652980804443,0.3549416959285736,0.11177574098110199,0.24381370842456818,0.0863480195403099],[-0.14557461440563202,0.07351236045360565,-0.22671477496623993,0.23482801020145416,0.03151395544409752,-0.07468611001968384,0.17088036239147186,-0.029282325878739357,0.08694752305746078,-0.24168482422828674,0.09040956944227219,0.013925954699516296,-0.17181135714054108,0.09087429940700531,-0.1473495364189148,0.03155423700809479,0.2066027969121933,-0.12776029109954834,-0.10012213885784149,-0.15056921541690826,-0.22711333632469177,-0.1213783472776413,0.014374086633324623,0.008470366708934307,-0.12767601013183594,0.09281884878873825,-0.0423431321978569,0.01807517372071743,-0.19777747988700867,-0.2779403626918793,0.0003424673923291266,-0.09019257873296738,-0.0850740373134613,0.1151166558265686,-0.09092365950345993,0.144477978348732,0.13772380352020264,0.05912373960018158,-0.08546066284179688,-0.11308419704437256,0.24306438863277435,-0.03927130252122879,0.20958355069160461,-0.1966768503189087,0.005756983533501625,0.1788821816444397,-0.008850238285958767,0.27627795934677124,-0.2919239401817322,-0.1571221500635147,0.03910696506500244,0.1006365641951561,0.01653079316020012,0.02659192495048046,0.2885283827781677,-0.014489581808447838,-0.01230181660503149,-0.13870660960674286,0.09772837907075882,-0.19825102388858795,-0.11540575325489044,0.16505175828933716,-0.16051022708415985,0.005045337602496147],[0.15396389365196228,0.07927552610635757,0.2393038123846054,-0.12728111445903778,0.10767146199941635,-0.0406106635928154,-0.001614054781384766,0.022787265479564667,0.1572636067867279,-0.05162031203508377,0.11591295897960663,-0.12988604605197906,-0.09129555523395538,0.15643303096294403,0.0871725082397461,0.13228662312030792,-0.1875123679637909,0.2345241755247116,-0.014507295563817024,0.17681129276752472,0.08334649354219437,0.08505664020776749,0.26694536209106445,0.12497930228710175,0.14119631052017212,0.0641198381781578,-0.13947615027427673,0.05286846682429314,0.07884815335273743,0.10586950182914734,0.06968281418085098,-0.24109521508216858,0.2564809024333954,0.14149010181427002,-0.03983929380774498,0.18447251617908478,0.17256323993206024,0.22027109563350677,0.10317593067884445,0.08608908206224442,0.0822787806391716,-0.05184862017631531,0.07728900015354156,0.06484589725732803,-0.2036263346672058,0.08600877225399017,-0.21461527049541473,0.2520006597042084,0.14197342097759247,-0.0115611357614398,0.06516066938638687,0.18493971228599548,0.14106211066246033,0.0007966918055899441,-0.11641904711723328,0.0754779577255249,0.23286819458007812,0.20488059520721436,0.03672274202108383,0.022949734702706337,-0.14194415509700775,-0.046406492590904236,-0.06231077015399933,0.1378462165594101],[-0.032213274389505386,-0.008889428339898586,0.0459725484251976,0.022968627512454987,-0.05935661494731903,0.005433306097984314,0.07676059007644653,-0.129633828997612,-0.08976925164461136,-0.06428268551826477,-0.12817874550819397,0.03312283009290695,0.004001871217042208,0.10595066100358963,0.15476015210151672,-0.09881652891635895,-0.002288175281137228,0.05582698807120323,0.07893981784582138,0.0439988374710083,-0.06695452332496643,0.12888379395008087,-0.07229180634021759,-0.07213357090950012,-0.14390386641025543,-0.10558698326349258,0.08220791071653366,0.12037808448076248,-0.027075015008449554,-0.04694804176688194,0.27052462100982666,-0.011661622673273087,0.03790297731757164,-0.009403984062373638,-0.18733327090740204,-0.1489240974187851,0.1552230715751648,-0.02231517992913723,-0.2343045175075531,-0.10426920652389526,0.31510624289512634,-0.11310072988271713,0.08641067147254944,-0.013546571135520935,0.11585988104343414,-0.32887062430381775,0.14059223234653473,-0.019394349306821823,0.05593780055642128,-0.07511381804943085,-0.35894775390625,-0.11761830747127533,-0.16400523483753204,-0.21023522317409515,-0.11140068620443344,0.017646007239818573,-0.05745134502649307,-0.11275721341371536,-0.1276819407939911,-0.09234035015106201,0.018448015674948692,-0.050997231155633926,-0.016446731984615326,-0.014002811163663864],[0.2249729484319687,0.05063413456082344,-0.040734533220529556,0.1386534571647644,-0.16178938746452332,0.032680295407772064,0.23439745604991913,0.10485915094614029,-0.16506856679916382,0.12404631078243256,-0.0976777896285057,-0.1758849322795868,0.20175716280937195,-0.045928772538900375,-0.23842045664787292,-0.09623653441667557,-0.13111861050128937,0.18144339323043823,0.0329526849091053,-0.11302538216114044,-0.21193507313728333,-0.142566978931427,-0.01718277297914028,0.17559488117694855,0.20893487334251404,0.00310292886570096,-0.1196058988571167,-0.12083205580711365,0.19121922552585602,-0.3585270643234253,-0.08998890221118927,-0.0905156210064888,-0.05226559937000275,0.09529232978820801,-0.04573988914489746,-0.14570364356040955,-0.03314310312271118,-0.25556278228759766,-0.08300377428531647,-0.08026500791311264,0.029617348685860634,0.13886603713035583,0.06411511451005936,-0.21758683025836945,0.09197690337896347,-0.1731785386800766,-0.07063855975866318,0.029635217040777206,0.1935277134180069,0.03812912106513977,0.11573688685894012,0.04742534086108208,-0.015989050269126892,-0.0768379494547844,0.021535776555538177,-0.1098206415772438,0.11133331805467606,-0.04595797136425972,0.0383988618850708,0.19751527905464172,0.06421500444412231,0.1891559660434723,-0.3348293602466583,-0.08451715111732483],[-0.006621823646128178,0.01089517679065466,-0.048795659095048904,0.1602703183889389,0.17053183913230896,0.17512454092502594,0.19418390095233917,0.1483972817659378,0.015294528566300869,0.2120956927537918,0.12321464717388153,-0.1417200267314911,0.22788654267787933,-0.014907117933034897,0.05836699903011322,0.3920116424560547,0.060674626380205154,0.07431656867265701,-0.14941783249378204,0.15966501832008362,0.1869761049747467,0.021597210317850113,0.09119892865419388,0.0681135430932045,-0.04723604768514633,0.12613855302333832,0.12767353653907776,-0.055712006986141205,0.08950269222259521,-0.028358282521367073,0.005140002816915512,-0.11115501075983047,-0.0329916812479496,0.12583205103874207,0.17433641850948334,-0.03371579945087433,-0.011258731596171856,0.22221878170967102,0.05659301206469536,0.07457682490348816,0.04794326424598694,0.07022269070148468,0.0038684215396642685,-0.1109943762421608,-0.02275821939110756,-0.040273528546094894,-0.1533903032541275,-0.011667681857943535,-0.055657342076301575,-0.012467811815440655,-0.0006182852666825056,0.1809931993484497,0.10258746147155762,0.06699568778276443,-0.15673935413360596,-0.11137481033802032,0.05539797618985176,0.1975598931312561,-0.03712805360555649,-0.1449691206216812,-0.02077842876315117,0.05418016389012337,-0.09733318537473679,-0.025994079187512398],[0.12275948375463486,-0.1573110669851303,-0.06746062636375427,0.10377384722232819,-0.11091402173042297,0.028532518073916435,0.06167766824364662,-0.13751661777496338,0.3179852366447449,0.01889885403215885,0.03250450640916824,0.011774436570703983,0.12248483300209045,-0.03813466057181358,-0.26139184832572937,-0.04365575686097145,0.2387518286705017,0.18543170392513275,0.012001360766589642,0.035321030765771866,0.08005707710981369,-0.016423523426055908,-0.008122005499899387,0.22721980512142181,0.08226505666971207,0.08234851062297821,0.11988646537065506,0.19635219871997833,0.015039093792438507,-0.11390349268913269,0.07007545232772827,0.10793006420135498,-0.04854811355471611,0.003312512068077922,-0.023924564942717552,0.08841704577207565,-0.05117760971188545,-0.10064076632261276,0.09571966528892517,-0.12392331659793854,-0.15514692664146423,0.11385215818881989,0.020826706662774086,0.059419937431812286,-0.2235865592956543,0.03227168694138527,-0.08691322803497314,0.10918755829334259,0.049894776195287704,0.030046971514821053,-0.11753744632005692,0.2490519881248474,-0.007862633094191551,0.028549667447805405,-0.043790094554424286,0.13208192586898804,-0.046008773148059845,-0.12672463059425354,0.034759700298309326,0.04124940559267998,-0.10415385663509369,0.13250206410884857,-0.03244699910283089,-0.22882501780986786],[-0.14536720514297485,-0.053318966180086136,-0.15657970309257507,-0.15378618240356445,0.1169489324092865,0.0001600380928721279,0.011036955751478672,0.04739473760128021,-0.06082337349653244,0.10500866919755936,-0.1785193681716919,0.10247112810611725,-0.16518619656562805,0.19595666229724884,0.06737756729125977,0.02461971528828144,-0.23486138880252838,-0.1387118697166443,-0.09391480684280396,0.11195707321166992,-0.0020353179425001144,-0.11339743435382843,-0.1311720609664917,-0.08123554289340973,0.023153485730290413,0.04310230910778046,0.13511736690998077,-0.05688123404979706,-0.0004659680707845837,0.11275458335876465,-0.007789384573698044,-0.25921860337257385,0.06765270978212357,0.07651235908269882,0.3370524048805237,0.04346158728003502,-0.025403954088687897,0.05612916126847267,0.11857142299413681,0.09365343302488327,-0.007158339489251375,-0.03736503794789314,-0.23950381577014923,0.025498170405626297,0.08593457192182541,-0.2725624740123749,-0.028464535251259804,-0.07600801438093185,0.06967340409755707,0.02369968220591545,-0.0422670878469944,-0.25230929255485535,-0.20238183438777924,-0.07694771140813828,-0.06113600730895996,-0.032055310904979706,0.19942975044250488,-0.26829996705055237,0.10379185527563095,0.1848195493221283,-0.044145356863737106,0.21753990650177002,-0.03992520645260811,-0.1274341195821762],[0.03871923312544823,0.08363501727581024,-0.13463114202022552,0.10262089222669601,0.10101066529750824,-0.031324177980422974,-0.11530769616365433,-0.16639012098312378,0.0731673464179039,-0.18897825479507446,0.2336072474718094,-0.13042384386062622,0.07393523305654526,0.20797814428806305,-0.09192389994859695,-0.07974230498075485,0.13204839825630188,0.07014477252960205,0.03818821161985397,-0.0911061093211174,0.17978179454803467,0.1020037904381752,0.1723787933588028,-0.05020119622349739,0.14507246017456055,0.147271066904068,0.04386046156287193,0.015972185879945755,0.14803649485111237,-0.09066605567932129,0.001074554747901857,-0.14939364790916443,0.18815122544765472,0.14059513807296753,0.03434910252690315,0.1568123996257782,-0.0822085365653038,0.0792253166437149,0.14868755638599396,-0.1337459683418274,0.05783956125378609,0.16454583406448364,-0.15098191797733307,-0.1677011400461197,0.1947416067123413,-0.056578896939754486,0.07643446326255798,0.18307432532310486,-0.13510949909687042,0.18010061979293823,0.11892572790384293,-0.10081277042627335,0.1068384200334549,0.12466689199209213,0.2478863000869751,0.08794881403446198,-0.16717739403247833,0.1424296349287033,0.07044854760169983,-0.12652596831321716,-0.07748290151357651,-0.04892885312438011,-0.19437973201274872,-0.11138199269771576],[0.1308126151561737,-0.10792919993400574,0.04511873424053192,-0.061209406703710556,-0.07727363705635071,-0.14632198214530945,0.13065390288829803,0.054502151906490326,-0.05329182371497154,-0.08314263075590134,-0.05631102994084358,-0.014611977152526379,0.10764317959547043,0.061273131519556046,-0.1518886834383011,-0.01613306999206543,-0.17044833302497864,-0.26657992601394653,0.0058285086415708065,-0.1506040394306183,0.02822989411652088,0.18000170588493347,0.020364921540021896,-0.03987262398004532,-0.19672732055187225,-0.19490279257297516,-0.00048343458911404014,0.168299600481987,-0.12050466984510422,0.015842173248529434,0.14073412120342255,0.09661008417606354,-0.11870105564594269,-0.08020927011966705,0.15482990443706512,0.04239971563220024,0.07012507319450378,-0.13686500489711761,-0.04084620997309685,0.0337146632373333,-0.062097303569316864,0.11419657617807388,-0.012346374802291393,-0.13716371357440948,-0.035614755004644394,-0.1670684814453125,-0.0429232083261013,0.0144436564296484,-0.04362530633807182,-0.0665016919374466,0.023703094571828842,-0.06743232905864716,0.07525144517421722,0.08537772297859192,-0.099106065928936,-0.13431701064109802,0.11323411017656326,-0.10257413238286972,0.024279633536934853,0.1565522849559784,0.14531613886356354,-0.15585100650787354,-0.05800843983888626,-0.24851073324680328],[-0.2481294423341751,-0.04780755192041397,-0.1161687970161438,0.1128353476524353,-0.04276377335190773,-0.01853196509182453,0.06401247531175613,-0.34408530592918396,-0.08067143708467484,-0.00487279798835516,-0.003230349626392126,0.11906066536903381,-0.05497516691684723,0.028595468029379845,0.09947910159826279,0.06002843752503395,0.06451444327831268,-0.1443198323249817,-0.2919449508190155,0.1870015263557434,0.11588042974472046,-0.03182366117835045,-0.021393662318587303,0.1825408935546875,0.02245679497718811,-0.06854819506406784,-0.2897641658782959,0.022235486656427383,-0.1706944704055786,-0.36530017852783203,-0.0004028039984405041,-0.1747179627418518,-0.2118196189403534,0.10199283063411713,-0.1781073659658432,-0.07623615115880966,0.04672829434275627,-0.055632755160331726,0.18362706899642944,-0.016469011083245277,-0.12407130002975464,-0.18443292379379272,0.07914424687623978,0.008273824118077755,-0.1949317455291748,-0.24963825941085815,0.06922824680805206,-0.11307282745838165,0.023104380816221237,-0.15133732557296753,-0.15214885771274567,-0.15511846542358398,-0.18177644908428192,-0.18299998342990875,-0.005798338912427425,-0.16710199415683746,-0.19255100190639496,-0.22250457108020782,-0.116463303565979,-0.051050856709480286,-0.06415756791830063,-0.17548823356628418,-0.11118653416633606,0.04369552806019783],[0.1436758190393448,0.2256278693675995,-0.006568016018718481,-0.20649495720863342,0.3223874866962433,-0.018471751362085342,-0.08600644022226334,0.23165598511695862,-0.21321271359920502,-0.06177341938018799,-0.07610196620225906,0.22625814378261566,-0.08891802281141281,0.1950904130935669,-0.23496946692466736,-0.1519000381231308,0.15392769873142242,0.10784052312374115,-0.2468836009502411,-0.03239314630627632,0.15945465862751007,-0.3069116175174713,-0.03770714998245239,-0.11493320763111115,-0.13016092777252197,0.029814770445227623,-0.014310247264802456,-0.1471611112356186,0.0052358959801495075,0.13633684813976288,0.14042814075946808,0.0025986814871430397,-0.2717887759208679,-0.1506798267364502,0.17461782693862915,0.1678214818239212,0.2108660340309143,0.0067237685434520245,0.09504690021276474,-0.08208200335502625,-0.10741198807954788,0.03994936868548393,0.40694931149482727,0.14204812049865723,0.0009806872112676501,0.032297708094120026,0.24894943833351135,0.14939627051353455,-0.05576355755329132,-0.009487627074122429,0.12033916264772415,-0.02087431028485298,-0.004676179960370064,-0.06421709060668945,-0.07957516610622406,-0.022910958155989647,0.14210833609104156,0.17137007415294647,-0.07133612036705017,-0.11865044385194778,-0.03279148042201996,-0.12422903627157211,0.0529969185590744,0.026733698323369026],[0.21615128219127655,-0.2451639622449875,-0.04497933015227318,-0.11843676120042801,0.05795108154416084,-0.15671563148498535,-0.031227925792336464,0.008216879330575466,-0.29268088936805725,-0.12967436015605927,-0.044867079704999924,0.12356917560100555,-0.06918284296989441,-0.058685626834630966,0.17365103960037231,-0.04270601272583008,-0.009469391778111458,0.02733190543949604,-0.0005637948634102941,0.04831201210618019,0.019458822906017303,-0.06776398420333862,-0.13413557410240173,0.021472103893756866,0.01673448272049427,-0.060961078852415085,0.05129218474030495,-0.012799655087292194,0.16173699498176575,0.05986153334379196,0.0942002534866333,-0.006700559053570032,0.0876544862985611,0.1214093342423439,-0.0988813266158104,0.13984130322933197,0.13505753874778748,-0.1980208456516266,0.04349467530846596,0.22287000715732574,0.08666234463453293,0.25444987416267395,-0.07946281880140305,0.08758079260587692,0.23958592116832733,-0.07458038628101349,-0.08638320118188858,0.17902183532714844,0.03139391914010048,-0.07399768382310867,-0.15702073276042938,0.10085646063089371,0.03072684444487095,-0.11319586634635925,0.06334083527326584,0.008045068942010403,-0.13930845260620117,0.033159058541059494,0.1510334014892578,0.1739562749862671,0.265198290348053,-0.18245336413383484,0.050749875605106354,-0.011025709100067616],[0.09253185242414474,0.11877775192260742,0.02561006136238575,-0.15564389526844025,-0.12548261880874634,-0.18129117786884308,-0.017225682735443115,-0.06374726444482803,-0.053560126572847366,0.15526242554187775,0.20890343189239502,-0.11669037491083145,-0.20682917535305023,0.09637575596570969,-0.04889693111181259,-0.056781403720378876,0.0388585701584816,0.1103237196803093,-0.039817921817302704,0.03866457939147949,-0.0164853073656559,-0.37794312834739685,0.08670534938573837,0.08550647646188736,-0.08599702268838882,-0.28932052850723267,0.11098814010620117,0.040763307362794876,0.20880548655986786,-0.02680485136806965,0.0821646973490715,0.11826693266630173,-0.046291012316942215,0.05571165308356285,-0.1590270698070526,0.011085126549005508,0.2706422507762909,-0.004686523694545031,0.0829753428697586,0.10685957968235016,0.006314809434115887,0.0769093707203865,0.09705251455307007,0.14645878970623016,0.2181888073682785,0.01677546091377735,0.2018357813358307,-0.10703708976507187,0.2465766817331314,-0.046218693256378174,-0.09256421029567719,0.10395638644695282,-0.15766207873821259,0.07557293027639389,0.1342036873102188,-0.03374771401286125,0.08099757879972458,0.11622967571020126,-0.04485758766531944,-0.11323968321084976,0.22956688702106476,0.18179625272750854,0.18862366676330566,0.1179085448384285],[-0.07263268530368805,-0.11180303990840912,0.21161027252674103,0.04638116434216499,0.21109919250011444,0.047936055809259415,-0.15293312072753906,0.1835804134607315,-0.000027455313102109358,0.12134933471679688,0.08563762903213501,0.18226613104343414,0.16493801772594452,0.05605609342455864,-0.16806688904762268,-0.08968797326087952,-0.0668470486998558,0.08965864777565002,0.23744769394397736,0.09202907234430313,0.37468263506889343,0.22778138518333435,0.09432993829250336,0.2410406917333603,-0.09950622916221619,-0.05621993541717529,0.13533538579940796,-0.08713053166866302,-0.010157762095332146,0.23547926545143127,0.11244699358940125,-0.11314597725868225,-0.15522369742393494,-0.1738351434469223,0.08292992413043976,0.03999445214867592,0.1500789076089859,-0.024588027969002724,0.014466558583080769,0.09702049940824509,0.12255404144525528,0.28094950318336487,0.06759540736675262,0.1043061837553978,-0.07619784027338028,0.07654234021902084,0.2556491792201996,0.4182848036289215,0.003909147810190916,0.08019042015075684,0.22212567925453186,0.19932818412780762,0.2818892002105713,-0.06665809452533722,0.01770944520831108,-0.008177224546670914,0.08945246785879135,0.04455067217350006,0.02755986899137497,-0.04681505262851715,0.09207107871770859,-0.10784845799207687,-0.10647766292095184,-0.19312435388565063],[-0.06790289282798767,0.0587981715798378,0.15221065282821655,-0.06429269909858704,0.022757286205887794,0.0623067170381546,-0.01334063895046711,-0.1588863879442215,-0.07040969282388687,-0.00829521007835865,-0.10287840664386749,-0.15803012251853943,0.022726476192474365,0.019497856497764587,-0.13724544644355774,-0.2370370775461197,0.12741437554359436,0.39433178305625916,-0.029486777260899544,-0.01773100718855858,0.13109281659126282,-0.04938002675771713,-0.2174537628889084,0.046881191432476044,-0.18896134197711945,-0.10255666822195053,-0.12254639714956284,0.04951078072190285,0.03512207418680191,-0.04635385051369667,0.049242813140153885,-0.09542935341596603,0.16712619364261627,0.07759258896112442,-0.03573518246412277,-0.08781719952821732,-0.06566352397203445,-0.02369031496345997,-0.12805315852165222,0.08749900013208389,-0.025181524455547333,-0.10174943506717682,-0.1496504545211792,-0.30078616738319397,-0.1302696317434311,-0.05279241129755974,-0.1206321269273758,-0.1077331081032753,0.13790588080883026,-0.05173635110259056,-0.18785110116004944,-0.09119544923305511,-0.06374375522136688,-0.04116692394018173,0.13176172971725464,0.2913926839828491,-0.10207409411668777,-0.002860493026673794,0.03193720057606697,-0.24781186878681183,-0.14251483976840973,-0.006097912322729826,-0.26063114404678345,0.1344096064567566],[-0.11161737143993378,0.019697388634085655,0.016860347241163254,0.10910005122423172,0.24073784053325653,0.03324880078434944,-0.11957522481679916,0.011176543310284615,0.04500672593712807,-0.05309917405247688,0.03445620834827423,-0.05819638818502426,0.1499823033809662,-0.042312148958444595,-0.19766947627067566,-0.18318520486354828,0.054272398352622986,0.05801096186041832,0.043477870523929596,-0.07521142810583115,0.14674575626850128,-0.16436101496219635,-0.03953469544649124,0.032476313412189484,0.07355162501335144,0.05168190971016884,0.08523456007242203,0.03769884631037712,0.06095584109425545,-0.18323859572410583,-0.034722864627838135,0.15426193177700043,0.17879416048526764,-0.024067338556051254,0.1481713205575943,-0.13228750228881836,-0.01998841017484665,-0.046426184475421906,-0.04314050450921059,0.06434813141822815,0.11214234679937363,0.11230014264583588,-0.06657454371452332,-0.13956032693386078,0.052720874547958374,0.032833244651556015,-0.30942925810813904,-0.11436107754707336,-0.0374704971909523,0.1334490180015564,-0.09913778305053711,0.01215424295514822,0.09430724382400513,0.08258131891489029,0.016788499429821968,0.25875619053840637,0.1300506889820099,-0.08350010961294174,-0.18633542954921722,-0.019428562372922897,0.165294349193573,0.07837045192718506,0.1060616746544838,-0.02329639159142971],[-0.0911099836230278,-0.12395837157964706,0.17912626266479492,-0.15346606075763702,-0.04946606233716011,-0.0780293345451355,-0.1662432700395584,-0.18050041794776917,-0.005735096056014299,0.054665304720401764,-0.11226560175418854,-0.04173744097352028,-0.138353168964386,-0.09628572314977646,0.06492765247821808,-0.08949057012796402,0.01677330955862999,0.028528602793812752,0.018756860867142677,-0.07674497365951538,0.3020186722278595,0.043652765452861786,-0.08669767528772354,0.19136527180671692,0.20439337193965912,-0.021128319203853607,-0.01649579033255577,0.053315419703722,-0.1928195208311081,-0.18304646015167236,-0.013983332552015781,0.020793048664927483,0.14369997382164001,0.08866047859191895,-0.006123744882643223,0.02056419849395752,0.1193714365363121,-0.21219749748706818,-0.16853684186935425,-0.23701009154319763,-0.0758204385638237,-0.04469480365514755,-0.1011521965265274,0.051473382860422134,-0.006595079321414232,-0.20483632385730743,0.0971328541636467,-0.3617170453071594,0.11741885542869568,0.014276777394115925,0.047177717089653015,-0.084861159324646,0.03531733527779579,-0.33461010456085205,-0.028385844081640244,-0.1774407923221588,-0.004242359660565853,0.20952141284942627,0.04347681999206543,0.06875435262918472,-0.0680343359708786,0.16090549528598785,0.02931186743080616,-0.09495528042316437],[0.16005240380764008,0.15325555205345154,-0.22253340482711792,-0.03839527815580368,-0.22593364119529724,0.02171846106648445,-0.03600326552987099,-0.2194938063621521,-0.021960394456982613,-0.09856265783309937,0.034717150032520294,0.1301298588514328,0.12624524533748627,-0.04918443039059639,0.14065630733966827,-0.04687146097421646,-0.02221491001546383,0.14964954555034637,0.22715246677398682,-0.0035824959632009268,-0.006464784499257803,0.08768003433942795,-0.01496944297105074,0.07270153611898422,-0.09216790646314621,-0.073691226541996,-0.17284464836120605,-0.06313575059175491,-0.18618175387382507,-0.15514878928661346,0.04182842746376991,-0.14752493798732758,0.13147197663784027,0.04802190884947777,-0.15074943006038666,0.11505380272865295,0.015219943597912788,0.15457837283611298,0.08609277755022049,0.021075166761875153,-0.15105071663856506,0.17442357540130615,0.13588425517082214,0.14954796433448792,0.07177352905273438,0.20792382955551147,-0.17427200078964233,-0.17292606830596924,0.06023833900690079,0.06513269990682602,-0.013632253743708134,-0.10230778157711029,-0.04151129722595215,-0.1846279501914978,0.1516815721988678,-0.04224839061498642,-0.05812792852520943,-0.08434516191482544,0.019743062555789948,0.05000888556241989,-0.31274640560150146,-0.0867798775434494,0.174078568816185,0.24177519977092743],[-0.07812225073575974,0.14235004782676697,-0.09887285530567169,-0.19793376326560974,0.027676621451973915,-0.1562589555978775,-0.10400175303220749,-0.15189217031002045,0.035181812942028046,0.0682935118675232,-0.1482241451740265,-0.1547476053237915,-0.10728467255830765,0.11093394458293915,-0.0012741436948999763,-0.058696359395980835,0.07329963892698288,0.1632033884525299,-0.046093739569187164,-0.15444505214691162,0.1953219175338745,-0.11885858327150345,-0.05191575363278389,-0.019254684448242188,-0.04077942669391632,-0.17988499999046326,-0.11634502559900284,-0.20695863664150238,0.10078102350234985,-0.0537879504263401,0.03616773709654808,0.09208065271377563,-0.03707655891776085,-0.20276153087615967,0.01273693423718214,-0.12524603307247162,0.0640796422958374,0.002520559588447213,0.07158305495977402,-0.11831197887659073,0.2576894760131836,-0.054397597908973694,-0.3131307363510132,0.11169005930423737,0.0129314623773098,-0.08070656657218933,-0.3657256066799164,-0.12859033048152924,-0.21086344122886658,-0.23795464634895325,0.06808856129646301,0.065341517329216,-0.0023690168745815754,-0.10675321519374847,-0.23795048892498016,-0.3175281882286072,0.042346078902482986,-0.11229685693979263,-0.059162139892578125,-0.2835811674594879,-0.05072689428925514,0.06629734486341476,0.016752758994698524,-0.062093060463666916],[0.17822431027889252,-0.014392269775271416,-0.05890301242470741,0.22388502955436707,0.09449467062950134,-0.052468813955783844,0.04976590722799301,0.08938378840684891,-0.1500958949327469,0.0058926730416715145,0.23603901267051697,-0.0280098058283329,0.08529938012361526,-0.17819292843341827,-0.03412632644176483,0.1269114762544632,0.09529287368059158,0.019975807517766953,-0.04792390763759613,0.014315526932477951,-0.036997802555561066,0.07862149178981781,-0.21938613057136536,-0.05172538384795189,0.005177752580493689,0.059237658977508545,-0.032885339111089706,0.16248652338981628,0.14520753920078278,0.0940479040145874,-0.1388186514377594,0.020459480583667755,-0.19241993129253387,0.14672960340976715,-0.17715448141098022,-0.24316836893558502,0.037386756390333176,0.04794968664646149,0.004255219828337431,-0.13404320180416107,0.23207774758338928,-0.003129047341644764,-0.0214487724006176,-0.16745446622371674,0.060419369488954544,0.09287135303020477,0.10123977065086365,-0.043313462287187576,-0.1153687909245491,-0.16324666142463684,0.1542174369096756,-0.2345287799835205,-0.11654368788003922,0.18611690402030945,0.17796677350997925,-0.07115180790424347,0.05669160932302475,0.035451460629701614,-0.00838453695178032,-0.02314908802509308,0.2127625197172165,0.07088907063007355,-0.017196888104081154,-0.004523190204054117],[0.04323626309633255,-0.023781506344676018,-0.05314410850405693,0.16785810887813568,-0.10673338919878006,-0.03135627135634422,-0.17373113334178925,0.09623376280069351,-0.24366825819015503,0.10102178901433945,-0.2299339771270752,0.022948428988456726,0.059532031416893005,0.052330344915390015,-0.10634946078062057,-0.03506308048963547,0.16604609787464142,-0.05436793342232704,-0.18162775039672852,-0.135402649641037,0.021244235336780548,-0.20382268726825714,-0.10691360384225845,0.0674949362874031,-0.10980044305324554,-0.008349654264748096,-0.11344219744205475,-0.050214216113090515,0.14554856717586517,-0.2120649218559265,-0.03192749619483948,-0.2552516460418701,0.0713878944516182,0.17604412138462067,0.10444818437099457,0.06227516010403633,-0.08865419775247574,-0.01674106903374195,-0.09200705587863922,0.07197850197553635,0.017028192058205605,-0.08235806226730347,0.05148538574576378,-0.022522851824760437,0.12480320781469345,-0.11582808196544647,0.07948128134012222,-0.14918969571590424,0.034866515547037125,-0.06461156159639359,-0.17200033366680145,-0.029202159494161606,-0.1389927864074707,0.07441091537475586,0.2760140597820282,0.03224549442529678,-0.07283834367990494,0.06777947396039963,-0.020293259993195534,-0.015114067122340202,0.21493199467658997,-0.14893077313899994,0.15964734554290771,-0.037166424095630646],[0.1543293297290802,0.06091109290719032,-0.000020657254935940728,-0.010204462334513664,-0.1633213758468628,0.04267481341958046,-0.22103801369667053,0.14825986325740814,-0.10778350383043289,0.08417270332574844,0.0860338807106018,-0.22843264043331146,-0.0807790458202362,-0.018540937453508377,-0.062299035489559174,0.09661764651536942,-0.01726243458688259,0.1624976396560669,0.12642042338848114,-0.14136232435703278,-0.15189698338508606,0.0631737932562828,0.09392692893743515,-0.0663798525929451,0.22658036649227142,0.19575268030166626,0.009027857333421707,0.07578174769878387,0.022211337462067604,-0.22775933146476746,0.008530200459063053,0.05230873078107834,-0.06682999432086945,0.008053027093410492,-0.1930956244468689,-0.08994920551776886,0.10239492356777191,0.015985727310180664,0.17316953837871552,-0.12305178493261337,-0.04215937852859497,-0.07031100243330002,-0.03729034587740898,0.024025270715355873,0.09660445153713226,-0.04335924610495567,-0.0917043536901474,-0.16687195003032684,0.20618362724781036,-0.10571052879095078,0.09782532602548599,-0.18736355006694794,0.012355244718492031,-0.39015915989875793,-0.08907127380371094,0.037132542580366135,0.060723867267370224,-0.1635030210018158,0.11778118461370468,0.0774303749203682,0.15013925731182098,-0.13373024761676788,-0.11143653839826584,0.000662563310470432],[-0.040408723056316376,0.17580081522464752,-0.07666349411010742,0.1744757890701294,0.3485705852508545,0.022649746388196945,-0.11268702149391174,0.2755325436592102,0.019541965797543526,0.08118034899234772,-0.0009107376681640744,0.09506469964981079,0.13431940972805023,0.2643209397792816,-0.16559948027133942,0.09808459132909775,0.17864413559436798,0.4321526288986206,0.17824028432369232,0.21825574338436127,-0.18088454008102417,0.1173747330904007,0.21461257338523865,0.04880852997303009,0.10154269635677338,-0.036795634776353836,0.01952435076236725,0.02278098277747631,0.0852455198764801,0.10005543380975723,0.21434637904167175,0.018770277500152588,0.1819078028202057,0.00871421117335558,0.03307518735527992,-0.22085489332675934,-0.08955030888319016,-0.0953880175948143,-0.10371043533086777,0.10194997489452362,-0.1406978964805603,0.15363788604736328,-0.07143599539995193,-0.04081366956233978,0.17337192595005035,-0.14834332466125488,0.0511554554104805,-0.28862637281417847,0.02409282885491848,0.09440537542104721,-0.07481645792722702,-0.1194181740283966,0.22323693335056305,-0.01597452536225319,-0.09888385981321335,0.025593111291527748,0.08290104568004608,0.032232217490673065,0.0705440565943718,-0.34834662079811096,-0.08879964053630829,0.0010511018335819244,0.08779545873403549,-0.13364392518997192],[0.12160056084394455,0.04410036653280258,-0.006417261436581612,0.07890018820762634,-0.23281462490558624,-0.07887575775384903,0.07732261717319489,-0.10065388679504395,-0.20958583056926727,-0.21395188570022583,-0.03744688257575035,0.09294050186872482,-0.166065514087677,-0.07301951199769974,-0.2083464115858078,-0.09350128471851349,0.16656501591205597,0.19456341862678528,-0.19333259761333466,-0.0011583759915083647,0.08652445673942566,0.20671097934246063,0.05590217933058739,0.2795092463493347,-0.11503803730010986,0.1117376834154129,-0.1075870469212532,-0.1335727721452713,0.09111833572387695,-0.3332376182079315,0.005042977165430784,-0.08789529651403427,0.07163135707378387,-0.13740113377571106,0.008689029142260551,0.06751828640699387,0.030196567997336388,0.07491273432970047,0.10247802734375,-0.0022564015816897154,0.08948372304439545,0.23582127690315247,0.14887748658657074,0.26210683584213257,0.004152718000113964,0.1845329850912094,0.06134260818362236,-0.2995491027832031,0.07557608187198639,-0.30649951100349426,-0.08208797872066498,0.008693674579262733,-0.11240740865468979,-0.15698456764221191,-0.05825277790427208,-0.008855723775923252,0.24274125695228577,0.21820545196533203,0.05171800032258034,-0.011752285994589329,-0.17439277470111847,-0.07772929221391678,0.24178366363048553,-0.04864267259836197],[-0.08598251640796661,-0.13729242980480194,-0.05239642783999443,-0.044075436890125275,0.17043153941631317,0.04738131910562515,0.07300525158643723,-0.09938647598028183,0.15107375383377075,-0.043956220149993896,-0.22524036467075348,0.024830982089042664,0.00023916139616630971,0.04077427461743355,-0.06364517658948898,0.061975669115781784,-0.06741345673799515,-0.13532193005084991,0.0648537278175354,-0.044811543077230453,-0.21701659262180328,0.09308762848377228,-0.06780312210321426,0.12612442672252655,-0.07023944705724716,-0.010976088233292103,0.09448173642158508,-0.16309286653995514,0.057348232716321945,0.08093871176242828,0.47085511684417725,-0.009404818527400494,-0.1259918510913849,-0.1832120567560196,-0.06784148514270782,0.3224162757396698,-0.11070272326469421,0.10340829193592072,0.1959766000509262,-0.05759796127676964,-0.22130802273750305,0.050742730498313904,-0.0640004500746727,-0.20211246609687805,0.05631992220878601,-0.07736555486917496,-0.05939439311623573,0.044597722589969635,-0.1984412521123886,-0.1521390825510025,-0.0525791309773922,-0.18099981546401978,-0.30552181601524353,-0.008588084951043129,-0.21923093497753143,-0.06411677598953247,0.05509556829929352,-0.06406696140766144,-0.2793557643890381,0.007387598976492882,0.23836012184619904,-0.021043987944722176,0.13657309114933014,-0.04647444561123848],[0.0850602313876152,-0.14913234114646912,-0.13931934535503387,-0.0791778713464737,-0.129413440823555,-0.001528914668597281,0.014099972322583199,-0.06918153166770935,0.06717532873153687,-0.08811759948730469,-0.14626675844192505,0.131854847073555,0.017116336151957512,0.19102491438388824,-0.2341107279062271,0.15017418563365936,-0.05380873754620552,0.0013698585098609328,-0.05947486683726311,-0.026085156947374344,-0.20826052129268646,-0.46452486515045166,-0.03519459068775177,0.08715618401765823,0.022199930623173714,0.05674012005329132,0.22965684533119202,-0.21613337099552155,-0.048614971339702606,-0.2253645807504654,0.06264873594045639,0.14599694311618805,0.124659463763237,0.03266213834285736,0.07105197757482529,-0.2943642735481262,0.06725355982780457,0.033268555998802185,-0.06570303440093994,0.059587035328149796,-0.12446668744087219,-0.05363458767533302,-0.05285366252064705,0.06192178279161453,-0.12649421393871307,0.11264731734991074,-0.06167265772819519,-0.08710891753435135,-0.060840483754873276,-0.02295684814453125,-0.24032677710056305,-0.09838960319757462,-0.34927088022232056,-0.08304183930158615,-0.025342730805277824,-0.10519282519817352,-0.3167285919189453,0.007465768605470657,-0.13945655524730682,0.058973874896764755,0.0528549924492836,-0.01720116287469864,0.12539711594581604,-0.15585358440876007],[0.055038243532180786,-0.116111621260643,-0.031195245683193207,0.007425331976264715,0.0861736387014389,-0.09494967013597488,0.12065409868955612,-0.026021257042884827,-0.18064138293266296,0.24123801290988922,0.0924103781580925,-0.046242937445640564,0.10680139809846878,0.12010299414396286,0.05391385406255722,0.018812816590070724,-0.0024197970051318407,-0.029170839115977287,0.0009086900390684605,0.228559672832489,-0.11582505702972412,0.018128613010048866,0.1367540806531906,-0.008342763409018517,-0.05595393106341362,0.22041402757167816,0.06804221123456955,-0.16433578729629517,0.18615145981311798,0.07635890692472458,-0.015327856875956059,-0.027150548994541168,0.18475328385829926,-0.18769440054893494,0.11316945403814316,-0.12118012458086014,-0.064300537109375,0.08908069133758545,0.10600485652685165,0.14524997770786285,0.22794167697429657,-0.13324859738349915,0.06065864488482475,0.03642949089407921,0.17545557022094727,0.021982159465551376,-0.24459753930568695,0.16823801398277283,0.04345512390136719,0.07485231012105942,0.13179130852222443,0.1356368213891983,0.09447387605905533,0.15887118875980377,-0.1455032378435135,0.10930686444044113,0.2163175642490387,0.004845012910664082,-0.08359631150960922,-0.05559591203927994,0.020174434408545494,0.2299249917268753,-0.22326688468456268,0.042189426720142365],[0.0068022096529603004,-0.06574318557977676,-0.05747489258646965,0.07872777432203293,0.23988592624664307,-0.025784622877836227,-0.21848520636558533,-0.018169952556490898,-0.043594494462013245,-0.06958885490894318,0.18714676797389984,-0.16400276124477386,0.014427345246076584,-0.09085571765899658,-0.015765083953738213,-0.08910827338695526,0.008739781565964222,0.01994146779179573,0.2138138711452484,-0.10646215826272964,-0.1921367347240448,0.0351395457983017,0.10609852522611618,0.23265400528907776,0.11623921990394592,0.07375313341617584,0.2747974097728729,0.029974885284900665,0.08813191205263138,0.10166763514280319,0.17294137179851532,0.09705895930528641,-0.014233610592782497,-0.08205600827932358,0.24129724502563477,0.2977435290813446,-0.19094987213611603,0.13272212445735931,0.10538201779127121,0.014971396885812283,-0.17108550667762756,-0.20188455283641815,-0.03041568584740162,-0.20619606971740723,0.09682057797908783,0.07580467313528061,-0.07535356283187866,0.10990017652511597,0.13307280838489532,0.142487570643425,0.1456349492073059,0.2873978018760681,0.1820341795682907,0.1674751341342926,-0.12081676721572876,0.08413217961788177,0.043544329702854156,0.08845469355583191,0.16636817157268524,0.20486962795257568,0.051214758306741714,0.22723375260829926,-0.03415921330451965,0.07357046753168106],[0.09393259882926941,-0.48086652159690857,0.07013870775699615,0.08068966865539551,0.16805614531040192,-0.08250842243432999,-0.163650780916214,-0.034687817096710205,0.13629484176635742,0.12212421745061874,0.10589881241321564,-0.07530973106622696,0.002279625739902258,-0.14141805469989777,-0.07791947573423386,-0.18256278336048126,-0.06063716858625412,0.049298129975795746,-0.10443662852048874,-0.05212647467851639,-0.15597231686115265,0.045202724635601044,-0.1300359070301056,-0.06907179206609726,-0.09207741916179657,0.0018907791236415505,-0.1137780100107193,-0.014169213362038136,-0.005660365801304579,-0.032827816903591156,-0.1495756357908249,-0.011930969543755054,-0.00794706679880619,-0.025615625083446503,-0.11753202974796295,-0.012575525790452957,-0.014628914184868336,-0.28629371523857117,0.0754910558462143,0.09223157167434692,0.13831444084644318,0.16226212680339813,-0.07928790152072906,0.11929215490818024,-0.0941867008805275,0.006042514927685261,0.19499191641807556,-0.15405002236366272,-0.11281868070363998,-0.1650596708059311,0.05835067108273506,0.1262834221124649,0.04609201103448868,-0.11947210878133774,0.10356137156486511,-0.02519729547202587,0.14580214023590088,-0.19385801255702972,-0.061917584389448166,0.14425155520439148,-0.05152425915002823,0.12092776596546173,0.07133501768112183,-0.2784230709075928],[-0.03081928752362728,0.11218548566102982,-0.1620955914258957,0.11775089055299759,-0.1505352109670639,-0.0838029757142067,-0.1915208399295807,0.21280746161937714,-0.11202559620141983,-0.2803637981414795,-0.08646336942911148,-0.1390264928340912,-0.10489911586046219,-0.11828823387622833,-0.03310159593820572,-0.07807901501655579,0.010281041264533997,-0.1644730418920517,-0.09525742381811142,-0.26577967405319214,0.045480549335479736,0.15688003599643707,-0.18121758103370667,-0.009616210125386715,0.05613493546843529,0.0032497625797986984,-0.08464464545249939,-0.04505753144621849,0.09926706552505493,-0.1542988121509552,0.128457173705101,-0.03315478190779686,0.026490796357393265,0.08035554736852646,-0.2830467224121094,-0.03133738413453102,-0.023005224764347076,0.0621408149600029,-0.17403540015220642,0.09753695130348206,-0.056200962513685226,-0.0005276075680740178,-0.17338110506534576,0.12979210913181305,-0.08105216920375824,-0.30955591797828674,-0.2057614028453827,0.185827374458313,0.13252516090869904,-0.07780379801988602,-0.3757610321044922,-0.01862414740025997,-0.057264406234025955,-0.40300822257995605,0.10770407319068909,0.08757806569337845,-0.04260801896452904,-0.036623090505599976,