[[-0.31158164143562317,-0.04183216020464897,-0.2607399523258209,0.06734896451234818,-0.1450367569923401,-0.12486013770103455,-0.14284701645374298,0.19703474640846252,-0.11967045813798904,-0.1428259015083313,-0.23394888639450073,-0.29325583577156067,0.01895317994058132,0.5992801189422607,0.20465539395809174,-0.159772127866745,0.056980449706315994,-0.07221265882253647,0.15174271166324615,-0.02708706445991993,0.1262136846780777,0.0315486341714859,0.037179913371801376,0.115247942507267,-0.13517530262470245,-0.18643486499786377,-0.06532014161348343,-0.11362999677658081,0.021032366901636124,-0.11085038632154465,-0.2263595312833786,0.01178901456296444,-0.007571933325380087,-0.1389741450548172,0.1822604537010193,0.02027224190533161,-0.2775500416755676,0.34751173853874207,-0.141652449965477,0.04039236903190613,0.09228049218654633,0.32688137888908386,-0.14797312021255493,0.2163034975528717,0.46313780546188354,0.14132128655910492,0.19785402715206146,0.5024567246437073,0.1407412737607956,0.03627145290374756,-0.020638125017285347,0.07512479275465012,0.15828271210193634,0.16333304345607758,0.06422857195138931,0.21061888337135315,-0.0948021188378334,-0.18200626969337463,0.03991241753101349,-0.01874530129134655,-0.27237188816070557,0.13546490669250488,0.013194211758673191,0.1569482833147049,-0.1283237487077713,0.2283581644296646,-0.10232260078191757,-0.039437681436538696,0.1840054839849472,-0.2600223422050476,-0.020284773781895638,-0.1988999992609024,-0.06617004424333572,-0.2336941659450531,-0.271415650844574,-0.07222402840852737,0.42514315247535706,-0.034289922565221786,-0.19985850155353546,-0.17791341245174408,-0.0606858991086483,-0.16621971130371094,-0.05049338936805725,0.32226231694221497,0.3119775056838989,0.34590667486190796,-0.07090476900339127,-0.1732824295759201,-0.29091230034828186,-0.25163573026657104,-0.07692090421915054,-0.020092284306883812,0.12206950783729553,0.08374771475791931,-0.07374922931194305,-0.054219819605350494,0.10761428624391556,0.2151155024766922,0.1568915694952011,-0.18822209537029266,0.3452679216861725,0.03267183527350426,-0.03622903674840927,-0.12819434702396393,0.12040775269269943,0.004095043521374464,-0.207545205950737,0.3440544009208679,-0.10933877527713776,0.036656882613897324,-0.1396378129720688,0.0016074568266049027,0.12925337255001068,-0.03231305256485939,-0.09116518497467041,0.16501253843307495,0.024824125692248344,-0.05043552443385124,0.08411023765802383,-0.15199516713619232,0.1380210965871811,-0.19552452862262726,0.06932277977466583,-0.12785451114177704,0.009254047647118568,0.31978747248649597,0.43665188550949097,-0.2333044707775116],[0.055914077907800674,0.04533245041966438,-0.07728032767772675,0.13615570962429047,-0.2859807014465332,-0.10187239944934845,0.07149123400449753,0.1254080981016159,-0.10272607207298279,-0.127973735332489,0.1542678028345108,-0.16746602952480316,-0.14039330184459686,0.04816441610455513,0.08728915452957153,0.06947869807481766,0.004072836134582758,-0.04412568360567093,-0.013647977262735367,-0.1455632895231247,0.24211277067661285,0.03981386870145798,0.019046779721975327,-0.07490421086549759,0.1197589859366417,-0.21308587491512299,0.10558795928955078,-0.07601874321699142,-0.024363934993743896,0.07622791081666946,-0.06153421849012375,0.4920654892921448,-0.16985628008842468,0.06022504344582558,0.02383425086736679,0.06397110223770142,-0.046670299023389816,0.12271780520677567,-0.24178509414196014,-0.1373077929019928,0.07836034148931503,-0.13347004354000092,-0.07876767963171005,-0.1344984769821167,-0.2846184968948364,-0.01326923817396164,0.33595457673072815,0.2425815761089325,0.07976924628019333,-0.03153116628527641,0.1778368502855301,-0.13023215532302856,-0.07975028455257416,0.06719416379928589,-0.03338593244552612,-0.08043477684259415,-0.03368539735674858,0.05471456050872803,-0.12290097773075104,0.17674197256565094,0.022218188270926476,-0.02682614140212536,-0.2720036208629608,0.10739558935165405,-0.3551746904850006,-0.019550956785678864,-0.10897524654865265,0.09046772867441177,-0.03922058269381523,-0.1751946061849594,-0.10151161253452301,0.1845247447490692,-0.30678030848503113,-0.21410533785820007,0.029641425237059593,-0.11867458373308182,-0.15196236968040466,-0.1327001005411148,-0.26832884550094604,0.3259331285953522,0.003190394723787904,-0.21773578226566315,0.04902684688568115,0.2314969301223755,-0.2639617323875427,0.05540211498737335,-0.054156139492988586,0.043505266308784485,-0.0024992511607706547,-0.12401094287633896,0.1426762342453003,-0.13707396388053894,0.28999242186546326,-0.07138767838478088,-0.08654755353927612,-0.07567747682332993,0.1263931542634964,-0.05750974267721176,-0.07555323839187622,0.05607832968235016,-0.0016357101267203689,0.05995871126651764,0.0091853691264987,-0.39098021388053894,0.05366877093911171,-0.052486635744571686,-0.15083271265029907,0.10720176994800568,0.12500233948230743,0.29154297709465027,-0.20884360373020172,-0.26489442586898804,-0.09025418013334274,-0.06246809661388397,-0.23423916101455688,-0.04193099960684776,0.09365086257457733,0.07795937359333038,-0.05449884757399559,0.1771172434091568,0.03189539536833763,-0.15742681920528412,-0.11336738616228104,-0.122934490442276,0.00293684471398592,0.24005159735679626,0.03516729548573494,-0.1086399033665657],[0.23222635686397552,0.035944145172834396,-0.21597781777381897,0.11471227556467056,0.10625535994768143,-0.04066816344857216,0.20693178474903107,-0.004878622945398092,-0.056426018476486206,0.10124944895505905,-0.16127783060073853,0.05908892676234245,0.18564552068710327,-0.259594589471817,0.0038021409418433905,-0.19482421875,-0.16422101855278015,0.024927353486418724,0.10525675117969513,0.20966748893260956,0.24504633247852325,-0.1970060020685196,-0.0287600290030241,0.06479071825742722,-0.20172962546348572,0.09763608872890472,-0.0801425501704216,0.002866644412279129,-0.22186359763145447,0.24356922507286072,0.10218458622694016,0.14595524966716766,0.15856558084487915,-0.0430418886244297,-0.2197142243385315,-0.02993578463792801,-0.064328633248806,0.08402033150196075,0.3030642569065094,-0.1377222239971161,-0.06836523860692978,-0.2547817826271057,-0.3762313723564148,0.20041486620903015,0.19716326892375946,0.08705540746450424,-0.166753888130188,-0.0014875775668770075,-0.07072219997644424,0.037491798400878906,0.16550274193286896,0.06582966446876526,-0.08876165002584457,-0.37079256772994995,-0.13096696138381958,0.07984499633312225,-0.11085829883813858,0.11681140959262848,0.06752423197031021,-0.1542847603559494,-0.19961407780647278,0.09869326651096344,0.08840818703174591,0.05282068997621536,0.03943653777241707,-0.0027840291149914265,-0.055200159549713135,-0.1093028336763382,-0.05377062410116196,0.11254622787237167,-0.043970949947834015,0.1203983873128891,0.030714433640241623,0.07336702197790146,-0.18240338563919067,-0.24301546812057495,-0.17477720975875854,0.29278624057769775,0.02234153263270855,0.10295260697603226,0.2093387246131897,0.12886667251586914,0.11313766241073608,0.05578412860631943,-0.14723561704158783,-0.09866436570882797,-0.1263243705034256,0.09724793583154678,0.05922527238726616,-0.12333443015813828,-0.07228042185306549,-0.05116493999958038,-0.10294696688652039,0.09957768023014069,0.007196968421339989,-0.19886375963687897,-0.09777584671974182,-0.2826862633228302,-0.21516750752925873,-0.1037408709526062,-0.1634891778230667,-0.35919567942619324,-0.011819295585155487,-0.10331615060567856,0.23617145419120789,-0.17285612225532532,0.05750089883804321,-0.4127640724182129,-0.11167369037866592,-0.002157810376957059,-0.2729388177394867,-0.1419600397348404,0.19246098399162292,-0.025737358257174492,0.19569182395935059,0.2669364809989929,-0.05873733013868332,0.014373276382684708,0.059871330857276917,-0.12236537784337997,-0.2282884567975998,-0.3274153172969818,-0.0235225148499012,-0.027779975906014442,-0.18028266727924347,0.16389772295951843,-0.08512916415929794,0.2925269901752472],[0.26860472559928894,-0.14690132439136505,-0.04916197061538696,0.0035205523017793894,0.171137273311615,-0.023112662136554718,-0.11766951531171799,-0.08004377037286758,-0.013320044614374638,-0.22498880326747894,0.05904117599129677,0.12610240280628204,-0.1203233078122139,-0.16427020728588104,-0.03432372957468033,-0.3160257935523987,0.029002834111452103,0.37895700335502625,0.1464398354291916,0.011394809000194073,0.0805685892701149,-0.3859766125679016,-0.05201994255185127,-0.09850825369358063,-0.013036046177148819,0.06870654225349426,0.0981660932302475,0.16737405955791473,-0.06029317528009415,-0.21407005190849304,0.1381196677684784,0.15112796425819397,-0.5281682014465332,0.027127007022500038,0.18326525390148163,0.2534966766834259,-0.008840026333928108,-0.27785077691078186,-0.19710323214530945,-0.21291981637477875,0.133243128657341,0.0529969222843647,0.1500934362411499,-0.08008529990911484,-0.02286040410399437,-0.21336981654167175,0.30277326703071594,-0.07862251251935959,-0.00166216806974262,-0.09828939288854599,-0.01270439475774765,-0.1393473744392395,0.17654116451740265,0.005418272223323584,0.24777281284332275,0.15777373313903809,-0.08837132900953293,-0.025484325364232063,0.1420004665851593,-0.18053849041461945,-0.09389050304889679,-0.049011945724487305,0.03271375969052315,0.02369030937552452,-0.023783918470144272,-0.19737498462200165,-0.03932636231184006,-0.20440338551998138,0.0729895830154419,0.19504454731941223,-0.4669428765773773,-0.060518551617860794,-0.12321002036333084,0.0785011574625969,0.12794475257396698,0.0480426549911499,0.08351539075374603,-0.36572137475013733,0.17676062881946564,0.1693655252456665,-0.04805958271026611,-0.09754465520381927,-0.1828826665878296,0.16283318400382996,0.027287930250167847,0.08941614627838135,-0.31875336170196533,0.026023805141448975,-0.1369340419769287,-0.056896697729825974,0.2064441293478012,-0.11037413030862808,-0.00612745713442564,-0.03742806985974312,-0.2666497230529785,-0.02645961567759514,-0.0486474484205246,0.03379850089550018,-0.06474161893129349,-0.18340106308460236,-0.16179952025413513,0.2135424017906189,-0.30213332176208496,-0.2297484576702118,0.025306662544608116,0.04681708291172981,0.014920753426849842,0.18819314241409302,0.09554862976074219,0.19086341559886932,-0.23905622959136963,0.25076690316200256,0.09008733183145523,0.04777611047029495,-0.1657962203025818,0.3370003402233124,0.09463168680667877,0.10098986327648163,-0.059844229370355606,-0.1811792403459549,0.05369465425610542,-0.25217944383621216,0.007635969668626785,-0.10514960438013077,-0.24729545414447784,-0.07443065196275711,0.10796082019805908,-0.4781056344509125],[-0.23688413202762604,0.3592776954174042,-0.1523943841457367,0.15091310441493988,0.08058511465787888,-0.2038973867893219,0.14702607691287994,0.024265078827738762,0.09666910022497177,0.02879861742258072,0.007042603567242622,-0.01682654209434986,-0.19806361198425293,0.6426421999931335,-0.0016903065843507648,-0.21261191368103027,0.11339962482452393,-0.011399256996810436,-0.1125229150056839,-0.04621149227023125,0.239200621843338,-0.21291552484035492,0.11167766153812408,-0.22770844399929047,-0.010034008882939816,0.17664235830307007,0.2003202587366104,-0.010999733582139015,0.2718937397003174,-0.08959700167179108,-0.02312023751437664,-0.11057440936565399,0.30367520451545715,-0.1705968677997589,-0.13530142605304718,-0.18711663782596588,0.1313355565071106,-0.20167572796344757,-0.042635709047317505,0.03737618401646614,0.24518731236457825,0.1326756775379181,-0.11715637892484665,-0.09507206082344055,-0.2730276584625244,0.3518306314945221,-0.08552418649196625,0.037795331329107285,-0.14218978583812714,0.17267397046089172,-0.16099712252616882,0.01980716735124588,-0.13367290794849396,-0.19613440334796906,-0.24720104038715363,-0.18024232983589172,0.3034890592098236,0.06165046989917755,-0.11831711232662201,0.19491353631019592,0.4055474102497101,-0.20893095433712006,0.04270470514893532,-0.060731809586286545,-0.07754560559988022,-0.21190626919269562,-0.2586207985877991,0.08637185394763947,0.29435059428215027,-0.3393377661705017,-0.22911708056926727,-0.3808808922767639,-0.2594280242919922,-0.3927479088306427,-0.40626928210258484,-0.08320194482803345,0.057997435331344604,-0.022455938160419464,0.14328666031360626,0.2136724591255188,-0.18293830752372742,0.05854267627000809,-0.17972294986248016,-0.2834676206111908,-0.05587862432003021,-0.06289978325366974,-0.007709692232310772,0.014630190096795559,-0.26525285840034485,0.0978693887591362,-0.1949101984500885,-0.19234761595726013,0.17766861617565155,-0.24224554002285004,0.24662116169929504,0.07444940507411957,-0.33253371715545654,-0.1310112327337265,-0.20036381483078003,-0.03393083065748215,-0.04814326763153076,-0.11911243200302124,-0.08185895532369614,-0.14735819399356842,0.13408975303173065,-0.06151081249117851,0.22432750463485718,-0.024671457707881927,-0.0806703194975853,0.2608669400215149,0.047077275812625885,0.053607646375894547,-0.04313768446445465,0.24979948997497559,0.055461037904024124,-0.2202044427394867,0.37110602855682373,-0.25433242321014404,-0.015794599428772926,-0.18441101908683777,-0.11593828350305557,-0.002403570106253028,0.2766426205635071,-0.3906964063644409,0.01055271364748478,-0.10835898667573929,0.06207296997308731,0.1134074479341507],[-0.12244265526533127,0.003617628011852503,-0.2644106149673462,-0.34972184896469116,-0.12757976353168488,-0.32712140679359436,0.08876433968544006,-0.022516144439578056,0.16497577726840973,0.06513062864542007,0.16198256611824036,-0.13416120409965515,0.20160004496574402,-0.10028833150863647,-0.025486715137958527,-0.143585667014122,-0.22126303613185883,-0.072600819170475,0.16498412191867828,0.20307418704032898,-0.0030263694934546947,-0.17088891565799713,-0.11539805680513382,-0.29042261838912964,0.1815335601568222,-0.14255163073539734,0.24119991064071655,-0.1560734063386917,-0.27896565198898315,-0.12421716749668121,0.0670185387134552,0.17996500432491302,-0.010694493539631367,-0.14460636675357819,-0.04751219227910042,0.2148444652557373,0.15286442637443542,-0.038965918123722076,-0.058819569647312164,0.16788241267204285,0.11369028687477112,-0.2503983676433563,-0.17428994178771973,0.24842402338981628,-0.26345294713974,-0.010996580123901367,0.08175746351480484,-0.09415209293365479,0.038476210087537766,-0.029248589649796486,-0.05242851749062538,-0.1490718275308609,0.3879440724849701,0.08683274686336517,-0.174897700548172,-0.029996560886502266,-0.04468528926372528,0.10471390932798386,-0.047970909625291824,-0.1347224861383438,-0.11202098429203033,-0.17866210639476776,-0.13720357418060303,0.05290892347693443,-0.008788011968135834,-0.11223983019590378,-0.4474310874938965,0.2299507111310959,-0.11590878665447235,0.1246798038482666,-0.2554459571838379,0.13792498409748077,0.07006886601448059,0.04364484176039696,-0.3320247530937195,-0.15765909850597382,-0.1296764463186264,0.10193876922130585,0.28455570340156555,-0.05738169327378273,-0.17620395123958588,0.10185830295085907,-0.367656946182251,-0.06826824694871902,0.37760135531425476,-0.049543723464012146,0.09237008541822433,-0.25662484765052795,0.08255460858345032,0.03922251611948013,-0.12639057636260986,0.15977546572685242,-0.04784730076789856,0.2292965054512024,-0.010268599726259708,0.22320058941841125,-0.23385056853294373,0.265685111284256,-0.09827875345945358,-0.060326721519231796,-0.1350564956665039,-0.064479298889637,0.055834271013736725,-0.21247249841690063,-0.22394604980945587,-0.22095534205436707,-0.1205805316567421,0.266130268573761,0.034810181707143784,0.38875630497932434,-0.11570358276367188,0.2839730679988861,-0.10310409963130951,0.09538561850786209,-0.03632771968841553,0.10137508809566498,0.012092252261936665,0.1500890851020813,-0.17561675608158112,-0.16963163018226624,0.043106865137815475,0.044700346887111664,0.24430911242961884,-0.08330444991588593,0.20042778551578522,-0.0387590229511261,0.16305837035179138,-0.28993362188339233],[-0.3481144905090332,-0.09461117535829544,-0.03009328618645668,-0.11352010816335678,0.012642044574022293,0.21625448763370514,0.03686998412013054,0.14868685603141785,0.31836068630218506,-0.24693825840950012,-0.015302445739507675,0.1733059287071228,0.003304888028651476,-0.034037232398986816,-0.23685039579868317,-0.14127829670906067,-0.20424404740333557,-0.1102093830704689,-0.34499675035476685,0.24772793054580688,0.06121987849473953,0.1995592713356018,-0.11761976033449173,-0.13645754754543304,-0.33670711517333984,-0.19661571085453033,0.27161508798599243,0.043284088373184204,0.11981742084026337,-0.13035918772220612,0.07188573479652405,-0.034221746027469635,-0.056868281215429306,-0.047131817787885666,-0.19041544198989868,-0.1604657769203186,0.23719990253448486,-0.3677387535572052,0.08878093957901001,-0.18588611483573914,-0.1976376473903656,-0.046307846903800964,-0.12201210856437683,-0.19070908427238464,-0.08470338582992554,-0.23375850915908813,0.08497025072574615,0.13073548674583435,-0.15233120322227478,-0.05734984576702118,-0.054828155785799026,0.06554819643497467,-0.01709040440618992,-0.14290933310985565,-0.21973830461502075,0.03512006253004074,-0.12581485509872437,0.24301034212112427,0.4802086353302002,0.27193567156791687,-0.07775234431028366,-0.08830965310335159,0.06323467195034027,-0.0206105075776577,0.14536595344543457,-0.3210824429988861,0.02184455096721649,-0.04564150795340538,0.2547996938228607,-0.2856087386608124,-0.038507454097270966,0.2784845530986786,0.07354874908924103,0.08700186759233475,0.023300278931856155,0.36096179485321045,-0.10841122269630432,-0.08457004278898239,0.0638582855463028,-0.12779030203819275,0.02733710967004299,-0.00103062205016613,-0.04521001875400543,-0.5341967344284058,-0.2927248775959015,0.013515676371753216,0.0005937893874943256,-0.06532063335180283,0.13620221614837646,-0.356210857629776,0.15605133771896362,0.08452785015106201,-0.12789393961429596,0.0169871486723423,-0.09852016717195511,0.14125274121761322,-0.053665291517972946,-0.5851709246635437,-0.33042478561401367,0.07169102877378464,-0.36128145456314087,0.2187344878911972,0.008517446927726269,0.03151092678308487,-0.066783107817173,0.028654633089900017,0.17885005474090576,0.16213607788085938,-0.08951372653245926,0.04085274040699005,-0.04984738677740097,-0.022415166720747948,0.05916081741452217,0.08904867619276047,0.18944180011749268,-0.058606356382369995,0.03477756679058075,0.5016888976097107,-0.17690441012382507,-0.09222030639648438,-0.13091520965099335,-0.08786159753799438,-0.08571086078882217,0.029239201918244362,-0.21813935041427612,-0.07112857699394226,-0.16703350841999054,0.22412286698818207],[-0.05807305872440338,-0.15636861324310303,-0.22131338715553284,0.043407052755355835,0.11985497176647186,0.17770622670650482,0.03560163080692291,-0.04147426411509514,0.03559168428182602,-0.06742563843727112,0.06515628844499588,-0.05128752067685127,-0.22759054601192474,-0.24586226046085358,-0.22788545489311218,-0.2911832928657532,-0.06913170963525772,0.26648610830307007,-0.1691644787788391,-0.23620857298374176,0.08895213901996613,0.20020878314971924,0.09366147220134735,-0.18140941858291626,0.18556340038776398,-0.23227234184741974,-0.18385262787342072,0.016306394711136818,-0.15232808887958527,0.1562783420085907,-0.23605524003505707,-0.2363894283771515,0.06421463191509247,0.22073569893836975,0.03254068270325661,0.11694808304309845,0.19257637858390808,0.07636568695306778,0.027076054364442825,-0.05922495201230049,-0.2126120775938034,0.06262335181236267,-0.18293090164661407,-0.04371165856719017,-0.043547339737415314,-0.07127495110034943,0.205356165766716,-0.03378916159272194,-0.1089521124958992,-0.09390431642532349,0.2858826518058777,-0.20256789028644562,-0.12797488272190094,0.10836568474769592,0.3006792366504669,0.37847405672073364,-0.00194541085511446,0.061125434935092926,-0.16733740270137787,-0.08290370553731918,0.26132142543792725,0.3797982335090637,-0.09725292772054672,0.14060403406620026,-0.22249484062194824,-0.0703233852982521,-0.027293900027871132,-0.03856171667575836,-0.0389997735619545,-0.09196992218494415,-0.19974616169929504,-0.15279394388198853,-0.08909610658884048,-0.26933592557907104,0.17721953988075256,-0.11675255745649338,0.1849503368139267,-0.10512450337409973,-0.1518288254737854,-0.22970689833164215,0.175385519862175,0.010258566588163376,-0.16485324501991272,0.08485834300518036,-0.039989352226257324,-0.22410951554775238,-0.229400172829628,-0.09156568348407745,0.142401322722435,-0.00966132152825594,-0.26302099227905273,-0.055250510573387146,-0.14151282608509064,0.11109092086553574,0.037816062569618225,0.14148464798927307,0.08388404548168182,0.37051084637641907,0.16345985233783722,0.4154769778251648,-0.06616712361574173,-0.08439981192350388,-0.058665502816438675,0.19034433364868164,-0.1770896464586258,0.1443600207567215,0.1421273946762085,-0.04509684443473816,-0.04430665075778961,0.10056864470243454,0.21180668473243713,-0.1991197168827057,-0.09628333151340485,0.19437144696712494,0.0530652217566967,-0.023836959153413773,0.13604246079921722,0.30484217405319214,0.17926041781902313,-0.00679352879524231,0.09603288769721985,0.2584787607192993,-0.10056311637163162,0.24978917837142944,-0.23808403313159943,-0.004558183718472719,0.044045109301805496,-0.20050346851348877],[-0.08606255054473877,0.10109120607376099,0.04211971536278725,-0.33171460032463074,0.07330697029829025,0.002598127583041787,0.307946115732193,0.29236435890197754,-0.26935073733329773,-0.22149881720542908,-0.18240676820278168,0.25205519795417786,-0.2525397837162018,0.10377384722232819,0.15912865102291107,0.10525088012218475,-0.26596152782440186,0.06966293603181839,0.05783477798104286,-0.4260422885417938,0.15082259476184845,-0.20442718267440796,-0.28162485361099243,-0.3069910407066345,-0.06878877431154251,-0.18824908137321472,-0.027225060388445854,-0.05429999530315399,-0.17165373265743256,-0.2037387490272522,0.015105076134204865,-0.05176614597439766,-0.0025547859258949757,0.1550685614347458,-0.015563331544399261,0.19069990515708923,0.11126435548067093,0.07149133086204529,0.13939499855041504,-0.0022141889203339815,-0.5170106291770935,0.005730169825255871,-0.15326978266239166,0.29568159580230713,-0.29754388332366943,-0.07227279990911484,0.09451040625572205,-0.06151830777525902,-0.0532027892768383,-0.1443031281232834,-0.09340811520814896,0.32247984409332275,-0.08063474297523499,-0.23700855672359467,-0.002074396936222911,-0.030884936451911926,-0.16116054356098175,-0.041390370577573776,-0.11633659899234772,-0.021085917949676514,-0.07660964131355286,0.13920806348323822,-0.06986474245786667,0.02316001057624817,0.053725142031908035,0.1723073273897171,-0.017765119671821594,-0.272342711687088,0.2706633508205414,-0.11273105442523956,0.009632392786443233,-0.43814942240715027,0.25954073667526245,-0.37126031517982483,-0.1314936876296997,-0.10916139930486679,-0.17355191707611084,0.10394012928009033,-0.3420892059803009,-0.14622150361537933,0.17909108102321625,-0.017084645107388496,-0.3442871570587158,0.21145451068878174,0.18904812633991241,-0.1151704490184784,-0.10341255366802216,-0.2946668267250061,-0.008697840385138988,-0.2311071753501892,0.1485939770936966,0.06062319502234459,0.03617781400680542,0.11358503997325897,-0.11638253927230835,-0.07793297618627548,0.03150293603539467,-0.03385881707072258,-0.03565426915884018,0.020010169595479965,-0.17699868977069855,-0.031028272584080696,0.05849629268050194,-0.07581409811973572,0.1617463231086731,0.21696141362190247,0.07921993732452393,0.1891380399465561,0.1364050954580307,-0.028475070372223854,0.06628216803073883,-0.15080773830413818,-0.269855260848999,0.2243642508983612,-0.14596068859100342,0.15571226179599762,0.18249472975730896,0.21739883720874786,-0.2611772119998932,-0.18081414699554443,0.026407096534967422,-0.021478792652487755,0.1117435023188591,-0.04848988354206085,0.15582263469696045,-0.036643173545598984,0.09424807876348495,-0.1078450158238411],[-0.17271122336387634,-0.13431797921657562,-0.0320180281996727,0.09119899570941925,-0.26026225090026855,0.10459711402654648,-0.10260521620512009,-0.2313380092382431,0.04710190370678902,0.024819480255246162,0.2036251723766327,-0.22871363162994385,-0.07314447313547134,-0.013194185681641102,0.12396419048309326,-0.24654051661491394,0.33315348625183105,0.2485685795545578,-0.026499280706048012,-0.03416909649968147,0.36163684725761414,0.001085613388568163,0.08293265104293823,-0.06642583757638931,-0.06774482131004333,-0.3026856780052185,-0.013290113769471645,-0.01614222303032875,0.06848225742578506,0.2271408885717392,0.18958371877670288,0.11923502385616302,-0.1804705113172531,0.11995135247707367,-0.2059122920036316,-0.17845934629440308,-0.17907384037971497,0.0511062927544117,0.02114681713283062,0.5965464115142822,0.03674081712961197,0.09165846556425095,0.08911464363336563,-0.1487765610218048,0.04916426166892052,0.015464616939425468,0.22677016258239746,-0.11419007182121277,-0.014254908077418804,-0.11370692402124405,-0.007661689538508654,-0.018601946532726288,0.01612509787082672,-0.13696226477622986,-0.01945645548403263,-0.20849309861660004,-0.0776226818561554,0.17129318416118622,-0.2681182622909546,-0.22742027044296265,-0.031198307871818542,0.37099000811576843,-0.19094011187553406,-0.1256338208913803,0.007911911234259605,0.04168587550520897,-0.062261320650577545,-0.15516233444213867,0.14881983399391174,0.19027075171470642,-0.20562148094177246,-0.009592043235898018,-0.37196052074432373,-0.1468210071325302,-0.13841627538204193,-0.2781866192817688,-0.006162963807582855,-0.11843758076429367,-0.10842514038085938,0.12801186740398407,0.25138846039772034,0.16243575513362885,0.15328404307365417,-0.20605847239494324,-0.023453373461961746,0.04163116589188576,-0.05070419982075691,-0.12125170975923538,0.2561582326889038,-0.07621599733829498,-0.25842514634132385,-0.2621936500072479,0.011716298758983612,0.18710337579250336,-0.15447291731834412,0.11722701787948608,-0.42760223150253296,0.22021888196468353,0.07517404109239578,0.06998862326145172,0.10586636513471603,0.17897023260593414,0.3783469498157501,-0.02280202880501747,0.05045021325349808,-0.16950073838233948,-0.009084449149668217,0.23118466138839722,0.3013307750225067,-0.05463238060474396,0.03371351212263107,-0.0841832086443901,0.033674899488687515,-0.21403376758098602,-0.17604003846645355,-0.07099299132823944,0.15867719054222107,0.005991309881210327,-0.13629204034805298,-0.13950999081134796,0.049311406910419464,-0.10216924548149109,0.1014861911535263,-0.31943899393081665,0.08262955397367477,0.1368248015642166,-0.05099901184439659,-0.033032722771167755],[0.1673373430967331,-0.21065181493759155,0.14214713871479034,-0.03027404472231865,-0.047962736338377,-0.023955507203936577,-0.07091157138347626,-0.04408441483974457,-0.25794878602027893,-0.08583813905715942,-0.0754023939371109,-0.025356072932481766,0.27169132232666016,-0.03613533824682236,-0.13382337987422943,-0.15054114162921906,0.18238164484500885,-0.0008471415494568646,0.06363838165998459,0.07648153603076935,-0.15210707485675812,0.04896734282374382,-0.15985898673534393,-0.13133566081523895,-0.003908124752342701,-0.23748278617858887,-0.09352508932352066,-0.36166486144065857,-0.06007291004061699,-0.10267564654350281,-0.09206078201532364,-0.04716059938073158,-0.23521509766578674,-0.06326231360435486,-0.07338163256645203,0.281989723443985,-0.13214805722236633,-0.1958344280719757,-0.22995659708976746,0.14664539694786072,0.1122417226433754,-0.07859934121370316,-0.1291436105966568,0.12985707819461823,-0.0701063722372055,-0.015464238822460175,-0.10249092429876328,0.0591103695333004,-0.1345580369234085,-0.31818634271621704,-0.06567448377609253,-0.1278960108757019,0.01158056315034628,-0.12832774221897125,0.1954071968793869,-0.01789049431681633,-0.03529667854309082,-0.04411006346344948,0.17190058529376984,-0.12596766650676727,0.20129208266735077,-0.13061097264289856,-0.3693680167198181,-0.07962355762720108,0.020952127873897552,0.00011797824845416471,-0.1827615648508072,0.037569038569927216,0.02613864839076996,-0.27614808082580566,-0.05236560478806496,-0.15637251734733582,-0.04551267996430397,-0.08072859793901443,-0.27683764696121216,0.1547149121761322,0.07051660865545273,-0.0711028128862381,0.17033877968788147,-0.12736199796199799,0.09763597697019577,0.04046411067247391,0.06572399288415909,-0.25501924753189087,0.20618322491645813,-0.3352058231830597,-0.1689455360174179,-0.0822220966219902,-0.20606379210948944,0.26161351799964905,0.15988518297672272,0.06483815610408783,-0.1977691501379013,0.232510045170784,-0.3131125867366791,-0.12694165110588074,-0.08810875564813614,-0.0006822717841714621,0.23106451332569122,0.07315658032894135,0.07769370824098587,-0.007838334888219833,0.03118143044412136,0.016168592497706413,-0.018854418769478798,-0.18746836483478546,0.11446724832057953,-0.1953447461128235,-0.006989040412008762,-0.08075492829084396,-0.10965130478143692,0.04393457993865013,-0.21989594399929047,0.10159055143594742,0.017649801447987556,0.12375926971435547,-0.09806887805461884,-0.07133664190769196,0.009460622444748878,-0.3639965355396271,0.2336667776107788,0.3244117498397827,0.028834955766797066,-0.14911359548568726,-0.25830137729644775,0.2507047951221466,0.1188192069530487,0.11712398380041122],[-0.24565835297107697,-0.04259692505002022,-0.19162645936012268,0.11277595907449722,0.07897588610649109,-0.16714410483837128,0.07197323441505432,0.008969422429800034,-0.1030006855726242,-0.027976853772997856,-0.12582238018512726,-0.105638287961483,-0.16652797162532806,0.05761449411511421,-0.14201012253761292,0.19927559792995453,0.1250147968530655,0.06314307451248169,-0.22386662662029266,0.4342355728149414,0.23460033535957336,-0.2455257773399353,-0.12776276469230652,0.14472268521785736,-0.13285976648330688,-0.1926041543483734,0.13776795566082,0.24339497089385986,0.37324342131614685,-0.078781858086586,0.10899898409843445,-0.013002198189496994,0.050952717661857605,0.020002517849206924,0.23918844759464264,0.05803295969963074,-0.005916636902838945,-0.026904579252004623,-0.23298560082912445,0.23701173067092896,0.00657157925888896,-0.12074048817157745,-0.1642533391714096,-0.08933866769075394,-0.003320593386888504,-0.06341732293367386,-0.2647092938423157,-0.2546425461769104,-0.01728680729866028,0.12842604517936707,-0.1480848491191864,-0.14378033578395844,-0.18275833129882812,-0.16409102082252502,0.1863962709903717,-0.13335539400577545,-0.3184400200843811,-0.057889074087142944,0.23326529562473297,0.12672880291938782,0.3135128915309906,0.19527404010295868,0.03713830187916756,-0.04136306419968605,0.11613897979259491,0.13052767515182495,0.25314000248908997,-0.12063674628734589,0.07090575248003006,-0.19139553606510162,0.16481661796569824,-0.10260464996099472,0.08985636383295059,0.034347567707300186,-0.06731417775154114,-0.004922809079289436,-0.16199178993701935,0.04497016221284866,0.21688686311244965,-0.2787361443042755,-0.1483222395181656,0.101615309715271,0.17411528527736664,-0.29499587416648865,0.33004769682884216,-0.0029149451293051243,0.23683708906173706,0.18926922976970673,0.024198096245527267,-0.04884299263358116,-0.24686524271965027,0.2019539326429367,0.0051460834220051765,0.07537443190813065,-0.34481897950172424,0.1481153815984726,0.11700712144374847,0.14973439276218414,-0.1906866729259491,-0.19201567769050598,-0.30582231283187866,0.05898817628622055,-0.26413625478744507,0.13377131521701813,-0.12694509327411652,-0.00000514679413754493,-0.017643054947257042,-0.018982304260134697,0.023998886346817017,-0.2391231209039688,-0.11047195643186569,0.16749979555606842,-0.14580820500850677,0.1288614124059677,-0.1139860674738884,-0.12117734551429749,0.0940779596567154,-0.07138392329216003,0.10492696613073349,0.0477493479847908,0.09889382869005203,0.05724670737981796,-0.10743927210569382,-0.08511536568403244,0.07203032076358795,0.055630918592214584,-0.04944487288594246,0.06911113113164902],[0.1407397985458374,-0.15005381405353546,-0.11264832317829132,-0.03352261707186699,-0.04258287325501442,-0.0935635194182396,0.13422752916812897,-0.12819211184978485,-0.1688835471868515,-0.07853676378726959,-0.12019053101539612,0.15606649219989777,0.07250598073005676,-0.08483211696147919,0.20028947293758392,-0.11404582113027573,-0.04882228001952171,-0.0028843465261161327,0.043460678309202194,0.2077370285987854,0.37771740555763245,-0.17277368903160095,0.0597112663090229,0.20781172811985016,-0.04106653481721878,-0.33003732562065125,-0.04864141345024109,0.07751736789941788,0.13581514358520508,-0.06835591048002243,0.1871633380651474,-0.05244845524430275,0.2906329035758972,0.08587319403886795,-0.101907879114151,0.08314309269189835,0.13654804229736328,-0.027624664828181267,-0.06562571227550507,-0.0154898501932621,-0.2458982616662979,-0.26937541365623474,-0.017223980277776718,0.10561477392911911,0.0030972016975283623,0.36142995953559875,0.3113173842430115,-0.026895400136709213,0.026912011206150055,-0.19890758395195007,0.2274077981710434,0.15229491889476776,0.38989487290382385,-0.04540545865893364,0.007534421049058437,0.1784047782421112,0.017923440784215927,-0.10019916296005249,-0.10835926234722137,0.17228369414806366,-0.34074538946151733,-0.15960925817489624,-0.05557987466454506,0.24473795294761658,-0.18055438995361328,-0.20552732050418854,-0.4883127510547638,0.060073208063840866,0.0650165006518364,0.049034517258405685,0.06715065240859985,0.48225781321525574,0.20585593581199646,0.11051639914512634,-0.037632815539836884,-0.19047291576862335,-0.07438899576663971,0.2522658407688141,-0.29367291927337646,0.09779244661331177,0.21567294001579285,-0.07257121056318283,0.21895809471607208,-0.15893155336380005,-0.12162554264068604,-0.05498892068862915,-0.039084240794181824,-0.09920529276132584,-0.0625339075922966,0.20716610550880432,0.36120250821113586,0.16823658347129822,-0.09449625015258789,-0.11609996110200882,0.08686161041259766,-0.07262426614761353,-0.2967450022697449,-0.14544671773910522,-0.14311769604682922,-0.1661776900291443,-0.08631108701229095,-0.0022912384010851383,-0.24909698963165283,-0.12639522552490234,-0.010136005468666553,0.017877215519547462,-0.30328479409217834,-0.1279657781124115,0.04188353195786476,-0.11435143649578094,-0.06648493558168411,0.10465646535158157,-0.10050426423549652,0.24263130128383636,-0.029994413256645203,0.1839567869901657,0.07851958274841309,0.15566104650497437,0.0599704310297966,-0.28095516562461853,-0.15169568359851837,-0.21535803377628326,-0.006455760449171066,-0.287889301776886,-0.2964093089103699,0.2132631242275238,-0.1674058586359024,-0.11488990485668182],[0.27681365609169006,-0.056233737617731094,-0.194718599319458,-0.25446224212646484,-0.03813445568084717,-0.2614763677120209,-0.08432571589946747,-0.22387507557868958,-0.22230744361877441,0.10369067639112473,-0.1695759892463684,-0.6488521099090576,-0.28334805369377136,-0.0327114500105381,0.09920492768287659,-0.05571100860834122,0.2488439381122589,-0.08914587646722794,0.2776096761226654,0.16940268874168396,0.06808449327945709,0.0050776624120771885,0.09187648445367813,-0.218677818775177,-0.1629248708486557,-0.057151708751916885,-0.10201267898082733,-0.22534433007240295,-0.00933232344686985,0.31556209921836853,0.3111426830291748,-0.0048607112839818,0.20226629078388214,0.19227148592472076,-0.058683231472969055,-0.19442741572856903,0.05474453046917915,0.06731154024600983,0.15236219763755798,-0.2406807690858841,0.2682834565639496,0.06856226176023483,0.006817092187702656,0.09558273106813431,-0.02058602310717106,-0.20179912447929382,-0.03989039361476898,0.003063526935875416,0.3510667085647583,-0.2655907869338989,-0.060465890914201736,-0.016715845093131065,-0.12325253337621689,0.032907452434301376,-0.28745704889297485,0.24904654920101166,0.0414079949259758,-0.007931004278361797,-0.1288258135318756,0.05653531476855278,-0.2665574550628662,0.0006105854408815503,0.3032394051551819,-0.04360133036971092,0.14152869582176208,-0.2797745168209076,0.21875809133052826,0.1575043797492981,0.03335762023925781,0.2545485496520996,0.0786518007516861,-0.3705563545227051,0.0184191782027483,-0.3487835228443146,0.03897010535001755,0.07221230864524841,0.06399185955524445,0.06780026108026505,0.2198563516139984,0.19689743220806122,-0.08204584568738937,0.30297449231147766,0.18532706797122955,-0.05517391115427017,0.28961366415023804,0.23483611643314362,-0.03375675901770592,0.041169196367263794,0.3697471618652344,0.19301147758960724,0.08609545230865479,0.07715735584497452,-0.07621672749519348,-0.32386693358421326,0.002816335065290332,-0.058220457285642624,-0.06816396862268448,0.27459967136383057,-0.30878135561943054,-0.08218449354171753,0.015579425729811192,-0.024162063375115395,0.11663615703582764,0.1645926833152771,0.07000378519296646,-0.06627514958381653,0.060893602669239044,0.13502149283885956,-0.06319451332092285,-0.09653014689683914,-0.1038404032588005,0.13136804103851318,0.21094948053359985,0.051732320338487625,-0.05576286464929581,0.08521047234535217,0.2780090868473053,0.16568614542484283,0.02919381484389305,-0.19755198061466217,-0.04014052078127861,-0.12377172708511353,0.2577553689479828,-0.16736727952957153,-0.10494861006736755,-0.06182438135147095,-0.06882712244987488,-0.1380731761455536],[0.25395461916923523,-0.04523954167962074,-0.0963960662484169,-0.08929596841335297,-0.3464851975440979,0.1796402782201767,0.05696892738342285,-0.18900679051876068,-0.04431355744600296,0.13107657432556152,0.15573915839195251,0.2757601737976074,-0.02081354707479477,-0.09860984236001968,-0.1986416131258011,-0.17122983932495117,-0.0201224647462368,-0.4396609663963318,-0.09356984496116638,-0.07284710556268692,-0.01867048628628254,-0.08954109996557236,-0.24384631216526031,-0.08586350083351135,-0.14883111417293549,0.28936663269996643,-0.018713578581809998,0.03994334861636162,0.03262770548462868,-0.28926995396614075,0.0466003380715847,0.031856611371040344,0.10286866873502731,-0.19418266415596008,-0.11268273741006851,-0.030410662293434143,-0.12079636007547379,0.08915002644062042,0.26528090238571167,0.12246676534414291,-0.15262068808078766,-0.20638732612133026,-0.32082346081733704,0.2769375741481781,0.19380097091197968,-0.1044393926858902,0.0665794238448143,-0.06185179576277733,0.15304367244243622,-0.20354163646697998,0.05548343062400818,0.0881248489022255,-0.2152596116065979,-0.14948967099189758,0.028986649587750435,0.23204971849918365,-0.16568496823310852,0.1347084939479828,0.041762303560972214,-0.046963032335042953,-0.024861400946974754,0.03219010680913925,-0.022944267839193344,-0.0038666038308292627,0.022108543664216995,0.036519452929496765,-0.09642130136489868,0.24384114146232605,0.05064443126320839,0.04753474146127701,0.004144894424825907,-0.07541777938604355,-0.28285083174705505,0.032746151089668274,0.21514232456684113,-0.19477936625480652,0.3061429560184479,-0.059598565101623535,-0.027452141046524048,0.21543589234352112,-0.017167411744594574,-0.14260759949684143,-0.11201508343219757,0.3296550214290619,-0.02549775317311287,-0.08271975070238113,0.04139310121536255,0.3115280270576477,0.37326857447624207,-0.16528820991516113,-0.05391508713364601,0.10469435900449753,-0.2730005085468292,0.08046162873506546,-0.27425771951675415,0.2529357075691223,-0.3304276466369629,-0.03934074938297272,0.16162383556365967,0.12820720672607422,-0.12233718484640121,0.17619912326335907,-0.17254896461963654,-0.20920157432556152,0.40620729327201843,-0.23547537624835968,-0.06108933687210083,-0.04110857471823692,-0.20682081580162048,-0.09047998487949371,-0.2541147768497467,-0.13521866500377655,0.20792733132839203,0.06813010573387146,0.11954044550657272,-0.1600501835346222,0.10551489889621735,0.0054979585111141205,-0.16284394264221191,0.2995070815086365,-0.34294265508651733,-0.001481565646827221,0.005845697596669197,-0.20269076526165009,-0.1736062616109848,0.07318635284900665,-0.16627584397792816,-0.18149039149284363],[0.045224279165267944,0.31376874446868896,0.1135721430182457,0.24966423213481903,0.09300199151039124,0.09184757620096207,0.15292833745479584,0.26607608795166016,0.06450194865465164,0.145159050822258,-0.07921234518289566,-0.2615973651409149,0.09744615852832794,-0.00853373110294342,0.23805435001850128,-0.05267546698451042,-0.25727906823158264,0.36697185039520264,-0.06166301667690277,-0.05826955288648605,-0.20015716552734375,-0.058683235198259354,0.08936668932437897,0.042316585779190063,-0.10300519317388535,-0.03323110193014145,-0.21002617478370667,0.007358035072684288,-0.33524325489997864,0.04841063916683197,-0.19320717453956604,-0.2609410583972931,0.07927080988883972,0.24715197086334229,-0.47652313113212585,0.19212530553340912,-0.08673282712697983,-0.08110634982585907,0.14130958914756775,0.06367948651313782,-0.2746141850948334,-0.003321623895317316,0.21007178723812103,0.0058491406962275505,-0.17638061940670013,-0.07106742262840271,0.12098116427659988,-0.011196017265319824,-0.2207515835762024,0.24820923805236816,-0.32245388627052307,-0.19398349523544312,0.049412649124860764,-0.2812034487724304,-0.04572642222046852,-0.13193225860595703,0.10185025632381439,-0.10611565411090851,-0.049031004309654236,-0.05788029357790947,-0.2182731330394745,-0.10038261860609055,0.0937872976064682,-0.02222740277647972,0.08989587426185608,0.2582457959651947,-0.2056203931570053,-0.17700311541557312,-0.009362934157252312,-0.10375954210758209,-0.10501176118850708,0.15797436237335205,0.04412674158811569,0.08913853019475937,-0.0974777489900589,0.11230537295341492,0.033382583409547806,-0.2166636735200882,-0.01615940034389496,0.1194114089012146,0.5564393997192383,0.24697722494602203,-0.39121609926223755,0.06906791776418686,0.34855514764785767,-0.03199737146496773,0.0327029787003994,0.008673948235809803,0.28990837931632996,-0.34527191519737244,-0.10884590446949005,-0.1640583872795105,-0.2764391601085663,0.23596541583538055,-0.215020090341568,-0.47027161717414856,-0.12376661598682404,0.12305319309234619,-0.07404831051826477,-0.13727402687072754,0.06330986320972443,-0.008210335858166218,-0.024762151762843132,-0.02298104390501976,-0.1087486669421196,-0.11603882908821106,0.09081999212503433,-0.06449149549007416,0.12927281856536865,0.14207632839679718,-0.3440767526626587,0.2223426252603531,-0.12818865478038788,-0.6282790303230286,-0.11032432317733765,-0.08625758439302444,-0.018507424741983414,-0.07680056989192963,0.027057744562625885,0.10461993515491486,-0.21807537972927094,-0.3784886598587036,-0.15113694965839386,-0.06177990883588791,0.0577663779258728,-0.2066555619239807,-0.005853339564055204,-0.3540867865085602],[0.0684136226773262,0.12865471839904785,0.02964913100004196,-0.3037105202674866,-0.13146701455116272,-0.24962717294692993,0.16351942718029022,-0.07884043455123901,0.48125916719436646,-0.07256399840116501,-0.08098208159208298,0.04569316282868385,-0.17825579643249512,0.2741363048553467,-0.0025006013456732035,-0.06498231738805771,-0.21768921613693237,-0.0814659371972084,0.1273157000541687,-0.07633824646472931,0.2190813422203064,0.15259161591529846,-0.05902167037129402,-0.10687773674726486,-0.30313166975975037,0.2960869073867798,-0.03743885084986687,0.2788584232330322,-0.09345214068889618,0.3859981298446655,0.1305447816848755,-0.0879134088754654,-0.20780041813850403,0.08691184222698212,-0.2250649482011795,0.009687848389148712,0.1366831213235855,-0.22788478434085846,-0.11058308929204941,-0.08780685067176819,-0.011907526291906834,-0.08725205063819885,0.2063736468553543,-0.284330815076828,-0.441234827041626,0.07127533853054047,-0.05586385354399681,-0.06563111394643784,0.2880760133266449,-0.1761407107114792,-0.020053498446941376,0.0029312591068446636,0.031766220927238464,0.12815921008586884,-0.08147106319665909,-0.1362118124961853,0.020621132105588913,0.1171918660402298,0.2639221251010895,0.21970827877521515,-0.059734880924224854,-0.03701863810420036,-0.10265238583087921,0.0611596517264843,0.12289893627166748,-0.014235646463930607,-0.11234886944293976,-0.052811846137046814,-0.11681859195232391,0.2202897071838379,-0.364477276802063,-0.3067708909511566,0.051132719963788986,-0.010166469030082226,0.18419401347637177,-0.052180588245391846,-0.09228834509849548,-0.16323846578598022,-0.1689915657043457,-0.08324439823627472,-0.30830422043800354,0.38910841941833496,0.10372639447450638,0.05742798000574112,-0.25531283020973206,0.059673674404621124,-0.070668525993824,0.19933390617370605,0.04306377097964287,-0.04605189338326454,0.17860588431358337,-0.1251586228609085,0.31786465644836426,-0.5182651281356812,0.017296213656663895,-0.22421061992645264,-0.0340893492102623,-0.11105267703533173,-0.07330368459224701,0.19530819356441498,-0.16281992197036743,0.07292378693819046,-0.06032082810997963,0.052021339535713196,0.05466890707612038,0.013687272556126118,-0.3615022897720337,-0.1950831413269043,-0.2416502833366394,0.009115861728787422,-0.01671777293086052,-0.22731025516986847,0.40246981382369995,-0.05586576461791992,0.15352949500083923,0.08566924929618835,0.19236071407794952,-0.019331755116581917,-0.14032767713069916,0.11446762084960938,0.007863238453865051,0.011512774042785168,0.06584873795509338,-0.06519576907157898,0.06052817031741142,0.11630178242921829,-0.03225957602262497,-0.22251130640506744],[-0.2755401134490967,0.03245090693235397,0.11540236324071884,0.17578057944774628,0.09223251044750214,-0.03906571865081787,-0.01990041695535183,-0.06019946560263634,0.18833677470684052,-0.08100231736898422,-0.17432354390621185,0.05127900838851929,-0.021538440138101578,-0.4303714334964752,0.17103447020053864,-0.04542773962020874,-0.13826580345630646,-0.35917285084724426,-0.06398724764585495,-0.042586203664541245,-0.31581634283065796,-0.2456471025943756,-0.032310113310813904,0.18758685886859894,0.06355780363082886,0.031148824840784073,-0.15316203236579895,-0.22775046527385712,-0.2264942228794098,0.16958235204219818,-0.1907317340373993,-0.1956447958946228,0.28643229603767395,-0.07495472580194473,-0.32396572828292847,0.33297663927078247,-0.06451452523469925,-0.16735655069351196,0.06396404653787613,-0.015805203467607498,-0.28439298272132874,-0.10770848393440247,-0.003447445575147867,0.07722952216863632,0.4239998459815979,0.050705667585134506,-0.05499090626835823,0.03295276314020157,0.22426405549049377,-0.35232439637184143,-0.03118037059903145,0.09433543682098389,0.2770615816116333,-0.42821204662323,-0.16959595680236816,0.19319944083690643,-0.2071130871772766,0.11217328161001205,0.18170389533042908,-0.017939487472176552,0.31442543864250183,-0.010445552878081799,-0.08672931045293808,-0.06604761630296707,-0.016749903559684753,0.05451858788728714,0.11217772215604782,-0.27920204401016235,0.12813076376914978,-0.2922728955745697,-0.07180362939834595,-0.06421168893575668,0.05734190344810486,-0.1482592225074768,-0.11004739254713058,0.2018408328294754,-0.20204497873783112,0.08948229998350143,0.11352682113647461,-0.22262702882289886,0.27455464005470276,-0.17804685235023499,-0.2758340537548065,-0.05742784962058067,-0.23379532992839813,0.03798356652259827,0.24564269185066223,-0.08594520390033722,0.1697344183921814,-0.1753123253583908,0.3183281123638153,-0.11845573037862778,-0.16325625777244568,-0.11528817564249039,0.4595773220062256,-0.02162887342274189,0.08470720052719116,-0.051800623536109924,-0.10561428219079971,-0.19977021217346191,-0.14195019006729126,-0.26069334149360657,-0.5359923839569092,-0.359026700258255,-0.2527253329753876,0.1970023810863495,-0.20030374825000763,0.07022402435541153,0.2993360161781311,-0.1695447564125061,0.10642843693494797,-0.39152008295059204,-0.08671750128269196,-0.10129594802856445,-0.2339579164981842,0.09856723994016647,0.010202069766819477,0.2716411352157593,0.17266663908958435,0.04455156624317169,-0.1867993026971817,-0.15791405737400055,-0.10442236065864563,-0.33131685853004456,0.018308941274881363,0.1970224827528,-0.029474299401044846,-0.21309243142604828],[0.14947821199893951,0.13454818725585938,-0.12729927897453308,0.08078786730766296,-0.12547802925109863,-0.20454640686511993,-0.0006518760928884149,-0.08330638706684113,-0.2829211950302124,0.20604215562343597,-0.0514925941824913,0.17112097144126892,-0.1086001768708229,0.03681729733943939,-0.26604312658309937,-0.16327089071273804,0.1061650812625885,-0.18957877159118652,-0.19502317905426025,-0.15637966990470886,-0.11050652712583542,0.0034120630007237196,0.02090306393802166,0.05173918232321739,0.21046650409698486,0.09164445847272873,-0.07974278181791306,-0.1824750304222107,0.08748938143253326,-0.16174328327178955,0.10953955352306366,0.1649196445941925,-0.04714452475309372,-0.01667735166847706,0.05977818742394447,-0.03987198695540428,0.12522602081298828,0.11234167963266373,-0.1520303189754486,0.15478557348251343,0.16241419315338135,-0.14212968945503235,0.21659192442893982,-0.147160142660141,-0.27811399102211,0.21436366438865662,0.21377049386501312,0.034032873809337616,0.13324980437755585,-0.10949184000492096,0.18255163729190826,0.10991646349430084,0.33633148670196533,-0.0988677591085434,-0.4820791482925415,0.02706102654337883,0.13600032031536102,0.20126552879810333,-0.047828249633312225,-0.07418131828308105,0.00897571537643671,0.01283760741353035,-0.28646397590637207,0.14649583399295807,-0.03967932611703873,0.2813361585140228,-0.0821620374917984,0.3682035505771637,0.23778492212295532,0.10528451949357986,0.08182705193758011,-0.43434303998947144,-0.17874707281589508,0.07369908690452576,-0.16655899584293365,-0.03774998337030411,0.1307922750711441,0.08417783677577972,0.04125494882464409,-0.19306640326976776,0.2857803404331207,0.024464093148708344,0.2865198254585266,-0.19929422438144684,0.31000569462776184,-0.07175205647945404,0.00531409215182066,0.029909737408161163,-0.0365891233086586,0.004508487414568663,0.2646563947200775,0.3016023635864258,-0.21922916173934937,-0.1927187442779541,-0.19796529412269592,-0.23152367770671844,-0.1156349927186966,-0.27648308873176575,-0.045335568487644196,-0.2021898478269577,0.481781929731369,-0.20890963077545166,-0.034712210297584534,-0.08258634805679321,0.05644211173057556,0.09324146062135696,-0.08114708214998245,-0.09907087683677673,0.07898923009634018,-0.3178131580352783,0.3896859884262085,0.16747641563415527,0.008527245372533798,-0.3135465979576111,0.14955057203769684,0.10682308673858643,0.07583115249872208,-0.06817677617073059,0.20429040491580963,0.12641111016273499,-0.159915953874588,-0.23359811305999756,-0.0006221911171451211,-0.20982392132282257,-0.09840954095125198,0.00037592058652080595,-0.06585652381181717,-0.02352377586066723],[-0.05699692666530609,0.26109662652015686,-0.18156203627586365,-0.041726939380168915,-0.09247880429029465,0.024389419704675674,0.23679974675178528,-0.2372548133134842,-0.07309313863515854,-0.2055000513792038,-0.016003120690584183,0.14700213074684143,0.1464095264673233,-0.350660502910614,0.08166399598121643,0.09637593477964401,0.15924179553985596,-0.21489331126213074,-0.05384868010878563,-0.30964699387550354,-0.019636858254671097,0.24120564758777618,-0.12992599606513977,-0.24226117134094238,0.24610868096351624,-0.11302048712968826,0.0827905535697937,0.10463827103376389,0.1924692541360855,-0.22325511276721954,-0.019117925316095352,-0.2539781928062439,-0.5094600915908813,-0.01961800828576088,0.07473865151405334,-0.015243838541209698,0.15375113487243652,-0.07923911511898041,-0.18758338689804077,0.01485822070389986,0.25321605801582336,-0.006715647876262665,-0.2095583826303482,-0.017489086836576462,0.009662780910730362,0.16059565544128418,-0.10318803042173386,0.31537508964538574,-0.18031398952007294,-0.00484076514840126,-0.10145775228738785,0.0541980154812336,0.2720213234424591,-0.1427675485610962,0.20516538619995117,0.12054602056741714,-0.00292655429802835,-0.14229805767536163,0.08767973631620407,0.10037491470575333,0.06499757617712021,0.2358218878507614,0.1036214828491211,0.013106790371239185,-0.019725166261196136,-0.23384402692317963,-0.27138185501098633,0.13066166639328003,0.03571734577417374,-0.35339295864105225,-0.025350380688905716,-0.05439431965351105,0.1898689866065979,0.25196102261543274,0.05411064252257347,0.36205580830574036,-0.317987322807312,0.11630985140800476,-0.16875404119491577,-0.013547096401453018,-0.2524193227291107,-0.11581753194332123,0.3416609764099121,0.08891192078590393,0.19010189175605774,-0.032253608107566833,0.08702068775892258,0.2898125648498535,0.0427926629781723,0.27882739901542664,-0.0032041321974247694,-0.14807307720184326,-0.24599355459213257,-0.10108057409524918,0.33300071954727173,-0.09149043262004852,0.3473358750343323,0.20240606367588043,0.030520034953951836,0.3727831542491913,0.1536877155303955,-0.05659075826406479,-0.3688010275363922,0.1806618571281433,0.22073949873447418,0.13091182708740234,-0.04174259305000305,0.11657676845788956,0.18141162395477295,-0.12511399388313293,-0.10413679480552673,-0.1143851950764656,-0.11992888152599335,0.10985200107097626,0.04532084986567497,0.11671924591064453,-0.31554967164993286,0.14337418973445892,-0.17149049043655396,0.22506490349769592,0.39627599716186523,0.1203802227973938,0.05506305769085884,-0.1402144581079483,0.1421283781528473,0.23679952323436737,0.14324162900447845,-0.28066694736480713],[0.18826475739479065,-0.22751376032829285,0.42114171385765076,0.14489296078681946,-0.1895350068807602,0.1383810043334961,-0.02438126504421234,-0.46460676193237305,0.21955128014087677,0.13259586691856384,0.20098388195037842,0.1547473967075348,-0.12167627364397049,-0.12741418182849884,0.17911580204963684,-0.1283794790506363,0.17923639714717865,-0.12382428348064423,-0.12821921706199646,-0.030231738463044167,0.14506690204143524,0.3260636031627655,-0.08116403222084045,-0.08766856789588928,0.19299058616161346,0.08239845931529999,0.1295822709798813,0.19600625336170197,-0.32409384846687317,-0.11165065318346024,-0.1702709048986435,-0.2688221037387848,-0.03915948048233986,0.1509164273738861,-0.18698695302009583,0.12259258329868317,-0.3463009297847748,-0.21638226509094238,0.3181353509426117,0.02325095236301422,-0.05685373395681381,-0.228048637509346,0.08789018541574478,0.07785987854003906,0.16488562524318695,0.12229189276695251,0.09029640257358551,0.14508368074893951,0.08666623383760452,-0.21718168258666992,0.1639917641878128,0.15701664984226227,0.10129725933074951,0.04022796452045441,-0.03563199192285538,0.06347795575857162,0.05408754199743271,-0.20048366487026215,-0.09637829661369324,0.18172702193260193,0.23525579273700714,-0.2558017373085022,0.15734897553920746,0.07826674729585648,-0.29270005226135254,-0.13421152532100677,0.11884250491857529,0.26276448369026184,0.18111224472522736,-0.0639825165271759,0.06381092965602875,0.20114268362522125,-0.28587019443511963,-0.16573448479175568,-0.14159239828586578,-0.155893012881279,0.08301456272602081,0.01688145101070404,-0.11156006902456284,0.2088654488325119,0.056403059512376785,-0.23847302794456482,0.3050338625907898,-0.09186229854822159,0.05537165701389313,-0.1441248506307602,-0.09566615521907806,-0.0953381285071373,-0.3491658568382263,-0.24116824567317963,-0.10138319432735443,-0.2815016508102417,-0.2194255292415619,0.06296583265066147,-0.16143713891506195,0.41489872336387634,0.16066622734069824,0.0919492095708847,0.10967689007520676,-0.14694185554981232,-0.06807887554168701,0.20234917104244232,0.1974422186613083,0.051695454865694046,0.05565914511680603,-0.19993233680725098,0.018592940643429756,-0.11739795655012131,-0.2860018014907837,-0.004308713600039482,0.1550210565328598,0.12352779507637024,0.08507010340690613,-0.06816446781158447,0.09403600543737411,0.14136284589767456,-0.09319032728672028,0.026799624785780907,-0.16354647278785706,0.03263499587774277,-0.32324597239494324,0.13851414620876312,0.3970794975757599,-0.1677050143480301,-0.14892901480197906,0.11139403283596039,-0.18695068359375,0.015815632417798042],[-0.1624893695116043,-0.0028660919051617384,-0.11599231511354446,-0.2793188989162445,-0.00796300545334816,0.22228725254535675,-0.021795164793729782,-0.12694767117500305,-0.159357488155365,-0.019605593755841255,0.23897971212863922,0.06951208412647247,-0.20373864471912384,0.015728745609521866,0.046461716294288635,-0.24269656836986542,-0.00328275584615767,-0.5572365522384644,0.10563974827528,0.31692883372306824,-0.05114918202161789,-0.11838690936565399,-0.08398813009262085,-0.5264962911605835,0.027263153344392776,-0.2852019667625427,0.02946615032851696,0.17279447615146637,0.417338490486145,0.09825494140386581,0.04353830963373184,-0.2248678207397461,-0.10423275083303452,0.21848136186599731,-0.1349479854106903,0.17985227704048157,-0.002122631063684821,0.039739940315485,0.032174378633499146,-0.3594512343406677,-0.24160535633563995,-0.384440153837204,-0.0342538021504879,0.009247606620192528,0.013785452581942081,0.029409663751721382,0.10978852212429047,-0.07040803134441376,0.23194356262683868,-0.08890161663293839,-0.06388028711080551,-0.12076210230588913,-0.11848927289247513,0.05574068799614906,-0.16676023602485657,0.18724963068962097,-0.047244369983673096,-0.04761521890759468,-0.4369087815284729,0.06843037158250809,-0.1542004644870758,-0.12435831874608994,-0.0679488554596901,-0.2422478049993515,-0.29728731513023376,-0.3183850944042206,-0.17020240426063538,0.02866661362349987,0.03720174729824066,0.2902258336544037,0.22461780905723572,-0.06828706711530685,-0.32344162464141846,-0.16521960496902466,-0.15497103333473206,-0.028943153098225594,0.1365106999874115,0.04702886566519737,0.07841821759939194,-0.1648806780576706,-0.03027530387043953,0.20342707633972168,0.21094867587089539,-0.07341039180755615,-0.0459158755838871,-0.09473605453968048,-0.04835888370871544,-0.01284298487007618,0.1270982325077057,-0.25538021326065063,0.06106753274798393,0.025192908942699432,0.1035493016242981,-0.049033865332603455,-0.1575639843940735,0.19559445977210999,-0.2587584853172302,0.13845916092395782,0.1518608033657074,-0.11168898642063141,0.016226090490818024,0.21179412305355072,-0.08796074241399765,0.17960558831691742,-0.0660981759428978,-0.09044364094734192,-0.0025882390327751637,0.014918252825737,0.2131301462650299,-0.12482241541147232,0.15209732949733734,0.03947306051850319,0.060868166387081146,-0.15026237070560455,-0.07536810636520386,-0.07103151828050613,-0.23094689846038818,-0.15139982104301453,0.13114508986473083,0.03425595909357071,0.18330402672290802,0.06510331481695175,-0.16071973741054535,0.07022706419229507,-0.22737137973308563,-0.021217327564954758,0.05268489196896553,0.005842556711286306],[-0.06650462746620178,-0.09960448741912842,-0.34063827991485596,0.19390752911567688,-0.2852873206138611,-0.0036058970727026463,-0.06285576522350311,0.16140462458133698,-0.14105214178562164,-0.14943119883537292,0.08578892052173615,0.18575844168663025,-0.08296222984790802,0.1039186492562294,-0.23018547892570496,-0.21028673648834229,-0.2725083529949188,-0.17911936342716217,-0.2055472880601883,0.4714448153972626,-0.16621874272823334,-0.07756295055150986,0.10854389518499374,-0.1815105676651001,0.2983415722846985,-0.2139456868171692,0.1989961862564087,-0.07519681751728058,0.32757529616355896,-0.023039869964122772,-0.208567276597023,-0.0023077605292201042,0.032618794590234756,0.022829439491033554,0.020678898319602013,0.167852520942688,-0.03612806275486946,0.015551505610346794,-0.2507392168045044,0.32692983746528625,-0.13366514444351196,0.03338894620537758,0.14914724230766296,0.013267808593809605,-0.09161054342985153,-0.18759691715240479,-0.09706892818212509,-0.14485503733158112,0.0847105160355568,0.24350450932979584,-0.02231617271900177,-0.3794299364089966,-0.00044819607865065336,0.01649629883468151,0.05508403480052948,-0.06348645687103271,0.07805078476667404,-0.03393988683819771,0.0232362300157547,0.00731999147683382,0.18638700246810913,0.07205859571695328,-0.17459139227867126,-0.18546868860721588,0.046211421489715576,-0.23029841482639313,-0.039031386375427246,-0.06347888708114624,-0.14815589785575867,-0.014271731488406658,0.13240045309066772,-0.03875064104795456,-0.024061722680926323,0.2178630530834198,-0.009606359526515007,-0.029098009690642357,-0.09694577008485794,-0.23705224692821503,0.06213831156492233,-0.018114784732460976,0.21560688316822052,-0.209797665476799,-0.09309199452400208,0.04092779755592346,0.1478194296360016,-0.21327857673168182,0.25231239199638367,0.13480927050113678,0.152028426527977,-0.04766793176531792,0.07130073755979538,0.12097369879484177,-0.07181696593761444,-0.07647570222616196,0.13961142301559448,-0.3468337059020996,-0.13168925046920776,-0.06825731694698334,-0.06740671396255493,0.2639153301715851,-0.011778278276324272,-0.012940344400703907,0.2523743510246277,-0.012830344960093498,-0.07219381630420685,-0.12676362693309784,0.05679728835821152,0.09265808761119843,-0.317822128534317,0.27786409854888916,-0.08163215965032578,-0.10901010036468506,0.056188538670539856,0.1495705097913742,-0.2580239176750183,0.2853367030620575,0.06535051763057709,-0.04562174901366234,0.016686314716935158,-0.3038256764411926,-0.06804079562425613,0.17996396124362946,-0.034257322549819946,0.09773869067430496,-0.20794443786144257,0.13313481211662292,-0.1614091545343399,-0.05419090390205383],[-0.028971048071980476,-0.044621359556913376,-0.3058217763900757,-0.4951462745666504,-0.04093630611896515,-0.046450551599264145,0.13163812458515167,0.5210332274436951,-0.29046693444252014,0.24934682250022888,0.08775884658098221,-0.3149796724319458,0.07846691459417343,0.07147538661956787,-0.39051029086112976,0.31946057081222534,0.11235324293375015,0.09206598252058029,-0.22540271282196045,-0.16300633549690247,-0.038580913096666336,0.04985833913087845,0.11255768686532974,-0.12812724709510803,-0.08136679977178574,0.08171610534191132,0.11565329879522324,-0.11732475459575653,-0.05749667063355446,0.07013010233640671,0.3620169460773468,0.030208660289645195,-0.0047088004648685455,0.1232934221625328,-0.0969766229391098,-0.17926181852817535,-0.21300767362117767,0.10203629732131958,-0.06686093658208847,0.03834598883986473,-0.1066855639219284,0.1606641560792923,0.11102727055549622,-0.15119975805282593,-0.01292906329035759,-0.021883655339479446,0.03419377654790878,0.0877445638179779,0.06448114663362503,0.2943236827850342,0.09027916193008423,-0.11375363171100616,0.20723721385002136,0.053359366953372955,0.3475032150745392,-0.2482585459947586,-0.019089872017502785,0.2681870460510254,0.07096276432275772,0.1033606231212616,-0.2180301398038864,-0.016109425574541092,-0.04855072498321533,-0.011136068031191826,0.1526142656803131,-0.12343818694353104,-0.06665004789829254,0.038403578102588654,0.04861130565404892,-0.17583787441253662,0.038234200328588486,0.0521978922188282,0.03009779006242752,0.3026396632194519,0.14199534058570862,0.055818136781454086,-0.37317243218421936,0.056544624269008636,-0.19330434501171112,-0.17750896513462067,-0.27610692381858826,-0.12459912151098251,0.3262578845024109,0.01821836084127426,-0.372251957654953,-0.0888838842511177,-0.13348597288131714,0.3241167664527893,0.07211554050445557,0.2834591269493103,-0.26567086577415466,0.254054456949234,0.17065224051475525,0.1248450055718422,-0.0006866040057502687,-0.09512289613485336,-0.20796740055084229,0.11678578704595566,0.1699315458536148,0.21376751363277435,0.16979020833969116,-0.23751592636108398,0.14686408638954163,0.19993239641189575,-0.05013493821024895,0.18621326982975006,0.19388848543167114,0.040130894631147385,-0.06858101487159729,-0.04181484133005142,0.16018743813037872,0.3938937485218048,-0.2089644968509674,0.05608438700437546,-0.2573802173137665,-0.15506960451602936,0.29665082693099976,0.28663432598114014,-0.062050510197877884,0.04099947214126587,-0.07861746847629547,-0.013876855373382568,0.19450366497039795,-0.1847233921289444,-0.00795973651111126,-0.2718595862388611,-0.33147597312927246,0.26012444496154785],[0.07402294129133224,-0.5294044613838196,-0.18341439962387085,0.022864235565066338,-0.28730449080467224,-0.08718951046466827,0.06117289513349533,0.14099173247814178,0.04958758130669594,0.05919449031352997,0.06590087711811066,0.11329124867916107,-0.10536613315343857,0.14642298221588135,0.3191409111022949,-0.021738097071647644,-0.034966014325618744,0.05305180698633194,0.1630072146654129,0.15976019203662872,-0.12425031512975693,0.2261560708284378,-0.05080018192529678,0.05350688099861145,0.1847107857465744,0.0645705983042717,0.05201695114374161,-0.2883797585964203,0.2473929226398468,-0.2538779079914093,0.06643562763929367,-0.1661010980606079,0.1682361513376236,-0.2925620973110199,0.09936849772930145,0.36904996633529663,-0.17829377949237823,-0.19637833535671234,-0.03988589718937874,0.03446423262357712,-0.2005835473537445,0.08062844723463058,-0.20229104161262512,0.19515132904052734,-0.18569926917552948,0.10760532319545746,0.20268581807613373,-0.07449642568826675,0.2151850014925003,-0.16575877368450165,-0.05726836994290352,0.35877177119255066,0.07354509085416794,-0.04780510812997818,-0.015634810552001,0.47173449397087097,-0.3371763229370117,0.08688496053218842,-0.24064740538597107,0.012876023538410664,0.006158566568046808,-0.39523667097091675,0.37275323271751404,0.27781328558921814,-0.0074869003146886826,0.1311587542295456,-0.15948784351348877,-0.057769887149333954,0.03143756464123726,0.04413404315710068,-0.12601736187934875,0.058295104652643204,0.05649448558688164,-0.1615384817123413,-0.22887977957725525,0.2766875922679901,0.21655508875846863,0.04219237342476845,-0.09801379591226578,0.2135292887687683,0.19761407375335693,0.07767519354820251,0.19098402559757233,-0.07382940500974655,0.23573723435401917,-0.15716859698295593,0.0371193066239357,-0.08499453961849213,-0.14399130642414093,0.07500102370977402,-0.025376813486218452,0.018971865996718407,0.0064865886233747005,0.36295855045318604,-0.060488004237413406,-0.3404644727706909,-0.17360112071037292,0.2537083923816681,-0.2227068990468979,-0.09658607095479965,0.005555413663387299,0.05956289917230606,-0.04021009802818298,0.06886342167854309,-0.45046940445899963,-0.21880143880844116,0.04602406546473503,0.10023970156908035,0.1513279527425766,-0.21336279809474945,0.02207852527499199,-0.03103182092308998,-0.14054112136363983,0.10793942958116531,-0.09664992988109589,-0.040248673409223557,0.23102088272571564,-0.39592045545578003,-0.20740611851215363,-0.2027764916419983,-0.24821169674396515,-0.07150745391845703,0.07729433476924896,-0.17375272512435913,-0.3171234130859375,-0.16732999682426453,0.11265424638986588,0.1365625560283661],[-0.035755544900894165,-0.29877299070358276,-0.03079083561897278,0.22326229512691498,-0.3091863989830017,0.09540130198001862,0.20531299710273743,0.14585216343402863,-0.12781403958797455,-0.14660868048667908,-0.16888421773910522,-0.0867326632142067,-0.03921763226389885,0.22093316912651062,-0.15364502370357513,0.13428233563899994,-0.23831923305988312,-0.12884607911109924,0.45797237753868103,-0.10696092247962952,-0.10299728065729141,-0.12998394668102264,-0.22405271232128143,0.039072830229997635,-0.4103950262069702,0.01953129656612873,-0.18499402701854706,0.020224498584866524,-0.16228799521923065,0.2420521229505539,0.15938878059387207,0.282766729593277,0.20759981870651245,-0.3543948829174042,0.15215575695037842,-0.02045457996428013,-0.13870635628700256,-0.021952379494905472,0.06201022118330002,0.11597759276628494,0.06906741112470627,0.085582435131073,-0.10992196947336197,-0.10877743363380432,-0.0933852270245552,0.14913158118724823,0.05806718394160271,-0.04559646546840668,0.07652758806943893,0.08967623114585876,0.12186045944690704,-0.2177901268005371,-0.031415682286024094,-0.1118917316198349,-0.40408721566200256,0.064205102622509,0.16415317356586456,-0.08676239848136902,-0.2181696891784668,-0.11265759915113449,-0.1446850448846817,0.04576153680682182,-0.003973464481532574,-0.306844562292099,-0.08756700158119202,0.16526181995868683,0.2215597927570343,0.05451425164937973,0.1454688012599945,0.42561835050582886,-0.18355074524879456,0.14595933258533478,-0.18864145874977112,0.14525288343429565,0.16924288868904114,0.1398472934961319,-0.16997462511062622,0.43537962436676025,-0.013597444631159306,-0.10388363152742386,-0.09755370020866394,0.46787601709365845,-0.1914035975933075,0.03728093206882477,0.058162953704595566,-0.09661616384983063,-0.154702827334404,0.05913045257329941,0.06492073088884354,-0.0948076918721199,0.018808428198099136,0.016769906505942345,-0.20648331940174103,-0.04424559324979782,-0.17439135909080505,-0.12749187648296356,-0.02833034098148346,-0.1512892097234726,-0.10657457262277603,-0.2619466781616211,-0.565809428691864,0.2505788505077362,0.05293789505958557,0.05711737275123596,0.2879710793495178,-0.17234930396080017,0.04987765848636627,0.14737465977668762,-0.1630840301513672,0.23156777024269104,-0.059799131006002426,-0.14455683529376984,-0.18039359152317047,0.12660136818885803,0.04267291724681854,0.2381274551153183,0.22931112349033356,0.012411143630743027,-0.03319070115685463,-0.033141326159238815,-0.06540082395076752,0.2039642482995987,0.20933648943901062,-0.022138549014925957,0.15076591074466705,-0.09648330509662628,-0.11924684792757034,-0.1501150280237198],[0.3366268575191498,0.14702102541923523,-0.09294547885656357,0.19971410930156708,0.07733431458473206,-0.03942062705755234,-0.10670633614063263,-0.19403351843357086,-0.0986182689666748,0.017589131370186806,0.17932894825935364,0.026595860719680786,0.16025646030902863,0.02455168217420578,0.2791256606578827,0.5207371115684509,0.31459954380989075,-0.3313409388065338,-0.24626734852790833,-0.17525066435337067,-0.042581453919410706,-0.1128881573677063,0.2521653175354004,-0.13622058928012848,0.005846409127116203,0.052571047097444534,0.03579036891460419,-0.10273686796426773,0.11496570706367493,-0.1530923694372177,0.21991723775863647,0.1768869310617447,0.22683419287204742,-0.06198698282241821,0.06572556495666504,0.1857360601425171,0.154184028506279,-0.06757006794214249,-0.08025698363780975,0.18485769629478455,0.03662746027112007,-0.16974149644374847,0.252991646528244,-0.07373394072055817,-0.03672952577471733,-0.2230408936738968,0.11432152986526489,-0.2394900918006897,0.1566527932882309,-0.02137547731399536,-0.23456859588623047,-0.07749151438474655,-0.0021156358998268843,0.2276347577571869,-0.07133547961711884,0.30568763613700867,0.023896727710962296,-0.29060637950897217,0.09673570841550827,0.16129690408706665,-0.26569098234176636,-0.10968532413244247,0.04079881310462952,0.24176010489463806,-0.20837198197841644,0.1839471310377121,-0.13085640966892242,0.05961019545793533,0.014025181531906128,0.048498962074518204,0.01136691588908434,0.4538117051124573,-0.05048670247197151,-0.014880676753818989,0.039502229541540146,0.16943104565143585,0.35234490036964417,-0.016843628138303757,0.210785374045372,0.11783915758132935,0.1055276170372963,0.15110012888908386,0.27836278080940247,-0.05391993746161461,0.20339737832546234,0.30973580479621887,-0.15083910524845123,0.08839772641658783,-0.1365840882062912,-0.04017944633960724,0.12757140398025513,0.04563853144645691,0.017748333513736725,0.22174087166786194,0.08027038723230362,-0.07691429555416107,-0.01877911575138569,-0.17738041281700134,-0.03741493076086044,-0.0033882567659020424,0.12107476592063904,0.02572578191757202,-0.04853639379143715,-0.20170006155967712,-0.3632303476333618,0.26769405603408813,-0.1873503029346466,-0.047687988728284836,0.15690185129642487,-0.3596763014793396,0.1619812697172165,0.06897925585508347,-0.18082045018672943,0.2174241542816162,0.10361102968454361,0.032156120985746384,0.03563166409730911,-0.174421027302742,0.21590325236320496,0.35892367362976074,-0.045783620327711105,-0.1181100606918335,-0.1264093965291977,-0.18805469572544098,0.007097712252289057,-0.24881556630134583,0.03927300497889519,-0.018710721284151077],[0.05156402289867401,0.15311510860919952,0.05174848064780235,-0.11311917006969452,-0.13690300285816193,0.20337961614131927,0.02526518888771534,-0.4513480067253113,-0.18000400066375732,0.06029101833701134,0.030749987810850143,-0.18484076857566833,-0.1164177656173706,-0.0019348734058439732,-0.07658788561820984,-0.2508079409599304,0.1018652617931366,-0.2566421627998352,-0.06141198053956032,-0.07217089831829071,-0.325936496257782,-0.016416046768426895,-0.09462512284517288,-0.1399499922990799,-0.22784514725208282,-0.02464372105896473,-0.3255466818809509,0.19187583029270172,0.17382284998893738,-0.00534904794767499,0.0005552144139073789,-0.09309006482362747,-0.2867709994316101,0.060784611850976944,-0.024417560547590256,-0.161477729678154,0.07798148691654205,0.07508014887571335,-0.3813483715057373,0.17455615103244781,-0.028309518471360207,-0.06635891646146774,0.07700278609991074,0.19249476492404938,0.017857972532510757,-0.117764912545681,0.21783514320850372,0.07008945196866989,-0.29230162501335144,-0.15058477222919464,0.13025900721549988,-0.05733434855937958,-0.1578327864408493,0.0031903828494250774,-0.05383617430925369,-0.19173844158649445,-0.3017106056213379,0.1887510120868683,-0.10111059993505478,0.04323727637529373,-0.03339467942714691,-0.2904401123523712,0.11147688329219818,-0.025538092479109764,-0.17216414213180542,0.13448064029216766,-0.06229761242866516,0.09974963963031769,-0.24062499403953552,0.03229374438524246,-0.12884603440761566,0.21132291853427887,-0.13725855946540833,0.11493580043315887,-0.2705230712890625,0.012367538176476955,-0.20042189955711365,0.04698648303747177,-0.20207621157169342,0.2899740934371948,0.31089600920677185,0.029249785467982292,-0.20221003890037537,0.13490162789821625,-0.11139333993196487,-0.21292881667613983,0.13451901078224182,0.12686428427696228,-0.11286702752113342,-0.11717209964990616,0.10401497036218643,0.4798054099082947,-0.04300037771463394,-0.30883467197418213,-0.07814294099807739,-0.0339413546025753,0.19198165833950043,-0.3146202266216278,-0.0835871547460556,0.04734758287668228,-0.013880140148103237,0.2929458022117615,-0.34556496143341064,-0.10493537783622742,0.1876709908246994,0.0100486408919096,0.13550996780395508,0.14554934203624725,-0.034717120230197906,-0.29976144433021545,0.06307895481586456,-0.21082626283168793,-0.19766877591609955,0.18109795451164246,-0.05189209058880806,-0.06750193238258362,-0.07106400281190872,0.00900319404900074,-0.0815691351890564,0.06261754781007767,0.22106008231639862,-0.058806102722883224,0.0258218664675951,-0.016436437144875526,0.006408072542399168,0.08369407802820206,-0.019074931740760803,0.09783992916345596],[-0.20897944271564484,-0.0615464448928833,0.08088856190443039,-0.16830135881900787,0.251284658908844,-0.08385899662971497,0.23176272213459015,0.04882171005010605,0.21924035251140594,0.0836963802576065,0.005996886175125837,0.1103854775428772,-0.1895149052143097,-0.18326117098331451,0.31279873847961426,-0.11256001889705658,-0.21079587936401367,-0.2524360418319702,-0.12654244899749756,0.2560189664363861,-0.08474762737751007,0.09838389605283737,0.0011003609979525208,-0.10780110210180283,-0.0017529805190861225,0.13029758632183075,-0.37749603390693665,-0.020209161564707756,-0.03307762369513512,-0.08642283082008362,-0.04584730416536331,-0.07022828608751297,0.010030299425125122,0.010052905417978764,-0.04391390085220337,-0.22162140905857086,0.08469146490097046,-0.3708632290363312,0.15923736989498138,0.06533358991146088,0.24116866290569305,0.0705966129899025,-0.02488626167178154,0.05063826963305473,-0.09901347011327744,-0.11955099552869797,0.014191225171089172,0.06368501484394073,-0.0346214696764946,-0.21298624575138092,0.013336285948753357,-0.1614653617143631,0.13991490006446838,0.02922876551747322,0.11765050143003464,-0.20372840762138367,-0.010726967826485634,-0.08833610266447067,-0.11988179385662079,-0.0069266799837350845,-0.16516898572444916,-0.06056760996580124,-0.09781944006681442,-0.2109360694885254,0.03794986009597778,-0.32239529490470886,0.11336908489465714,0.14893317222595215,0.20648762583732605,-0.04447293281555176,-0.1754608303308487,0.05414392799139023,-0.07675042003393173,0.0792570635676384,-0.0004443138313945383,-0.13299204409122467,0.36230796575546265,-0.15008345246315002,0.44921422004699707,0.1444246917963028,-0.0023334745783358812,0.24063652753829956,0.06565114110708237,-0.35493186116218567,0.042609281837940216,0.0802471861243248,-0.10814269632101059,-0.03574835881590843,-0.12921102344989777,0.2398190051317215,0.25256919860839844,0.31314852833747864,-0.3594949245452881,-0.4441806375980377,0.034916702657938004,0.0530572235584259,-0.10597805678844452,-0.20290100574493408,-0.1275051236152649,-0.0013629653258249164,0.09314537048339844,-0.05846477299928665,0.081846684217453,-0.23892825841903687,0.08596786856651306,0.017259173095226288,-0.10622510313987732,0.5334262251853943,0.030444636940956116,-0.17215053737163544,-0.1313437819480896,-0.15169039368629456,-0.15039122104644775,-0.23758462071418762,-0.02220182679593563,-0.30308008193969727,0.06732932478189468,-0.15684834122657776,0.259448766708374,0.09128953516483307,-0.04997434467077255,0.046550408005714417,-0.07136467844247818,0.011675504967570305,0.08525659888982773,0.025305766612291336,0.25038614869117737,0.12983334064483643],[0.1695736199617386,-0.03631337732076645,0.07646705955266953,-0.22890768945217133,0.15290334820747375,0.20488259196281433,-0.028186924755573273,-0.275630384683609,-0.1959749013185501,-0.3732134997844696,-0.019221121445298195,0.10612964630126953,-0.08424336463212967,0.23581981658935547,-0.3483472764492035,-0.22502191364765167,0.04414767771959305,0.06200563907623291,0.02864229865372181,-0.053627148270606995,0.044232577085494995,0.18758738040924072,-0.2152632176876068,-0.057361453771591187,-0.3353605568408966,-0.1891511082649231,0.08007233589887619,0.17491677403450012,-0.38593366742134094,0.05893781781196594,-0.15701057016849518,-0.0428115613758564,0.32170116901397705,0.18438658118247986,-0.20696291327476501,-0.16045404970645905,-0.055239398032426834,-0.10919252038002014,0.42126113176345825,-0.0983503982424736,-0.4263288378715515,-0.3832167088985443,0.08764063566923141,-0.03895513340830803,-0.2830522954463959,0.049430157989263535,0.02494671568274498,-0.13193769752979279,0.1678977608680725,-0.20443816483020782,-0.1338294893503189,-0.18994343280792236,-0.17206096649169922,-0.15677717328071594,0.06317879259586334,-0.2800173759460449,-0.07497277855873108,0.02328447811305523,0.029381833970546722,0.08991114795207977,0.1450057029724121,0.1495298147201538,-0.12896673381328583,0.002838411834090948,-0.07232271134853363,-0.16121576726436615,-0.10580970346927643,0.18141718208789825,0.01159579399973154,0.008478846400976181,-0.11556749045848846,0.11304865777492523,-0.04022127389907837,-0.3375435769557953,0.11362645030021667,0.00015717517817392945,0.25948566198349,-0.20260092616081238,0.054408494383096695,-0.19448156654834747,-0.015017863363027573,-0.03625587373971939,0.1747344583272934,-0.21536658704280853,-0.22594061493873596,-0.2170669287443161,-0.10489585250616074,-0.18590949475765228,0.028231071308255196,-0.21064649522304535,0.13423755764961243,0.08019063621759415,-0.09316355735063553,-0.1895095705986023,-0.09969226270914078,-0.003865600563585758,-0.07639893889427185,0.008125542663037777,-0.07574670761823654,0.2068382352590561,0.17661622166633606,-0.2500009834766388,-0.16219523549079895,0.13259999454021454,-0.03989880904555321,-0.08161544799804688,0.03002353012561798,-0.2720452547073364,-0.09343641251325607,-0.3635933995246887,-0.10949922353029251,0.008611236698925495,0.13668476045131683,-0.15268884599208832,-0.11907719820737839,0.11442510783672333,-0.12228361517190933,0.013286616653203964,-0.4883732795715332,0.447934091091156,-0.03687632828950882,0.18371187150478363,-0.04501072317361832,-0.19893261790275574,0.09563960134983063,0.21794867515563965,-0.08643725514411926,-0.10488148778676987],[-0.45945146679878235,-0.13371185958385468,-0.058672528713941574,0.14468497037887573,-0.046017684042453766,-0.022755706682801247,0.013412714004516602,-0.1088101863861084,0.0699957087635994,0.5033818483352661,0.029796205461025238,-0.08021551370620728,-0.24715325236320496,-0.29241397976875305,0.06515105068683624,-0.023901719599962234,-0.09148549288511276,0.1774861067533493,-0.3822197914123535,-0.23540277779102325,0.2557850480079651,-0.05295930802822113,-0.14086110889911652,0.022057699039578438,0.15178214013576508,0.17590941488742828,0.22077587246894836,0.15860174596309662,-0.15929649770259857,0.03453009948134422,0.0296879131346941,-0.04846950247883797,-0.06786498427391052,0.04977889731526375,-0.18934942781925201,-0.050433676689863205,0.07090102881193161,-0.03690866008400917,-0.1649598330259323,-0.23463426530361176,0.11966202408075333,-0.2999415993690491,0.08656293153762817,-0.08172465860843658,-0.18712614476680756,-0.05541668087244034,-0.1381247639656067,-0.005151804070919752,-0.08166781067848206,0.05566565692424774,0.06489189714193344,-0.22775506973266602,-0.18575680255889893,-0.09969491511583328,0.2697690427303314,0.06723234057426453,-0.005253324750810862,0.04694925621151924,0.04070468246936798,-0.06115816906094551,0.04853421449661255,0.20833681523799896,0.4737257957458496,-0.08718001842498779,-0.004450703971087933,0.08636723458766937,0.002075459808111191,0.013602741993963718,0.35185903310775757,-0.0662945955991745,-0.01392983365803957,-0.36410069465637207,-0.07787507027387619,-0.14189976453781128,0.3286447823047638,-0.032599449157714844,0.28416556119918823,0.10339444875717163,-0.0430724062025547,0.1457848995923996,-0.15472839772701263,0.2823394238948822,0.14685823023319244,0.22008159756660461,-0.1228027269244194,0.020047925412654877,-0.18826819956302643,0.3451763093471527,-0.10543515533208847,0.10376238077878952,0.001192198833450675,0.0384012833237648,0.07151266187429428,-0.24644601345062256,-0.2857876718044281,0.13630473613739014,0.09544740617275238,0.0506383553147316,-0.05471377447247505,-0.13739241659641266,0.02057660184800625,-0.0473581999540329,-0.15644299983978271,0.035409409552812576,0.04061118885874748,0.10658466815948486,-0.2850288152694702,0.10312413424253464,0.02392847277224064,-0.22074063122272491,0.28239884972572327,-0.14266617596149445,-0.33664819598197937,-0.1437356024980545,0.08178683370351791,-0.10571841895580292,0.18717917799949646,0.08360316604375839,0.26291996240615845,0.18540793657302856,0.04412155598402023,-0.055055901408195496,-0.0803443044424057,-0.17230865359306335,-0.08392178267240524,-0.13116544485092163,-0.17362064123153687,0.05662524700164795],[0.01950586773455143,-0.22219032049179077,-0.4138436019420624,-0.20835943520069122,-0.3347650468349457,-0.16155734658241272,0.166098952293396,0.1036059632897377,0.21628613770008087,0.2750628888607025,-0.23413558304309845,-0.37897011637687683,0.10549014806747437,-0.2558647692203522,-0.3893941044807434,-0.061000142246484756,-0.14218047261238098,0.0004032077267765999,-0.09875775873661041,-0.24347391724586487,-0.05537834390997887,-0.16913922131061554,-0.0013737294357270002,-0.1629321277141571,-0.015171468257904053,0.14218515157699585,0.24013935029506683,-0.12254872173070908,-0.1383269727230072,-0.06817957758903503,-0.19428564608097076,-0.08830279111862183,0.16298498213291168,-0.24273844063282013,0.2773878872394562,-0.12507736682891846,-0.2789117097854614,-0.282897412776947,-0.28567251563072205,0.0007433599093928933,0.04204705357551575,0.11498884111642838,-0.08118145167827606,-0.14782296121120453,-0.10100799053907394,-0.12611433863639832,-0.10875893384218216,0.16204313933849335,-0.05666746571660042,-0.2551121413707733,-0.08203037828207016,0.12957724928855896,-0.02601245790719986,-0.2616315484046936,0.10418102145195007,0.07920278608798981,-0.25554656982421875,-0.147687166929245,-0.1973368376493454,-0.01024317555129528,-0.04185387119650841,0.18406963348388672,0.12790118157863617,0.09852579236030579,-0.009369470179080963,-0.24434824287891388,0.04557960107922554,0.1052798330783844,0.49007734656333923,0.14859358966350555,0.015968313440680504,-0.08345209807157516,-0.3632936179637909,0.23832108080387115,0.048979751765728,0.08282777667045593,0.03749626874923706,0.24111196398735046,-0.13097351789474487,-0.08986586332321167,-0.08706136047840118,0.3311114013195038,-0.15605506300926208,0.11764360964298248,0.260725736618042,-0.055046334862709045,0.13723978400230408,0.02838965319097042,-0.07193335890769958,-0.11231333762407303,0.07418466359376907,0.0073176282458007336,0.20389209687709808,-0.023826150223612785,0.11416571587324142,-0.053631946444511414,0.17725592851638794,-0.09933747351169586,0.079991914331913,-0.3517215847969055,-0.16305823624134064,-0.28927290439605713,-0.2094181478023529,-0.35609620809555054,0.1904890388250351,0.1542012095451355,-0.10932276397943497,-0.16114185750484467,0.21151773631572723,-0.15342123806476593,0.0670422911643982,-0.1544940322637558,-0.3043890595436096,-0.08770643174648285,-0.16767893731594086,-0.19874142110347748,0.025712747126817703,0.11490987241268158,-0.2148045003414154,-0.0641978532075882,0.4060003459453583,-0.23616941273212433,-0.33302024006843567,0.25766265392303467,0.07163726538419724,0.46220844984054565,0.09309601038694382,0.09079609811306],[0.019446630030870438,0.04141226410865784,-0.19198662042617798,-0.21174128353595734,0.091531902551651,-0.44958996772766113,-0.14923416078090668,0.3940282166004181,0.08997569978237152,0.2525511384010315,-0.0009823556756600738,-0.3265933096408844,-0.004724501632153988,0.10898014158010483,0.052903901785612106,-0.29386192560195923,0.2453247606754303,0.03450290113687515,-0.20390847325325012,0.12018556892871857,0.056815095245838165,0.2241789549589157,0.3297218680381775,0.08961363881826401,-0.3396822512149811,-0.009020345285534859,0.2319926917552948,-0.024798395112156868,0.05784335359930992,0.2043820023536682,-0.08465109020471573,-0.13710454106330872,0.11033781617879868,-0.010883788578212261,-0.010179498232901096,0.07613828033208847,0.02415507845580578,-0.015186304226517677,0.05222427845001221,-0.14347060024738312,-0.0876961275935173,-0.054175786674022675,0.25400465726852417,-0.04543013498187065,0.14848361909389496,0.05875055491924286,-0.2556701600551605,0.30979016423225403,0.011777094565331936,0.21532981097698212,-0.1242203488945961,-0.2523934841156006,0.03744642063975334,0.08465896546840668,0.11044014245271683,-0.050954896956682205,0.05709640309214592,0.10531524568796158,0.0462833046913147,-0.3640587627887726,-0.18796175718307495,-0.009393502026796341,0.20085981488227844,-0.13026751577854156,-0.3559319078922272,-0.13937073945999146,0.03709397092461586,0.4274817407131195,-0.15445896983146667,-0.21778810024261475,0.09715941548347473,0.12231217324733734,-0.19877192378044128,0.003709751181304455,-0.0662226602435112,0.03227004408836365,0.05718923360109329,-0.016875581815838814,-0.21443547308444977,-0.26308608055114746,0.21410806477069855,-0.0434420146048069,0.47491592168807983,0.07234779745340347,0.12889470160007477,-0.04463538900017738,0.16338545083999634,0.47730714082717896,-0.11219501495361328,0.1408592313528061,-0.1765114665031433,0.07911927998065948,-0.29216480255126953,0.1792578250169754,0.2572062313556671,-0.11899230629205704,0.18047073483467102,0.21583108603954315,-0.06798288971185684,0.008805553428828716,0.04191378131508827,-0.00036349939182400703,-0.10508763045072556,-0.24063952267169952,-0.10302679240703583,0.07359862327575684,-0.3488094210624695,0.12544234097003937,0.000671632238663733,-0.13136383891105652,0.005222581326961517,-0.21497027575969696,0.06260804831981659,0.1638268679380417,0.02347733825445175,-0.10611126571893692,-0.019275886937975883,0.034548163414001465,0.04471822455525398,0.21767611801624298,0.0033758629579097033,0.11477166414260864,0.0058657219633460045,0.14855830371379852,-0.29709571599960327,0.20025965571403503,0.009914591908454895,0.16008919477462769],[-0.17190542817115784,0.1989148110151291,0.0988699197769165,0.0441383458673954,-0.21866253018379211,-0.10542304068803787,-0.37653830647468567,-0.04405491426587105,0.17209026217460632,0.08790123462677002,0.16558897495269775,-0.16798578202724457,0.12013378739356995,0.1806580275297165,-0.009013286791741848,0.0346851609647274,-0.17588134109973907,-0.010190694592893124,-0.08724840730428696,0.2631339132785797,0.28283005952835083,-0.3132984936237335,-0.09911990165710449,0.23762965202331543,0.15154673159122467,0.08394397050142288,-0.04772619530558586,0.20167143642902374,0.06121329590678215,0.03406304866075516,-0.16941915452480316,0.1703106164932251,0.13114526867866516,-0.05956729128956795,-0.1673351377248764,-0.04232519492506981,-0.02804216556251049,-0.022956017404794693,-0.20144090056419373,0.22391946613788605,0.0698436051607132,0.12656329572200775,0.1349446028470993,0.1782127469778061,-0.009669777937233448,-0.2122814655303955,0.17843347787857056,-0.059131406247615814,0.12093974649906158,-0.20116671919822693,0.20973798632621765,-0.14280809462070465,-0.12587954103946686,0.171946182847023,-0.2017119973897934,-0.18369530141353607,0.0010861041955649853,0.09810364991426468,0.06750211119651794,-0.007380548864603043,-0.13267916440963745,0.1970183551311493,0.16519112884998322,0.16021712124347687,0.04379764944314957,0.014912880025804043,0.11653312295675278,0.17081493139266968,0.02495681121945381,0.19418181478977203,0.3081088960170746,-0.292972594499588,0.27928104996681213,-0.06435815244913101,-0.17955933511257172,-0.05584268644452095,-0.03877968713641167,-0.017493467777967453,-0.02678585611283779,-0.1545906364917755,0.2957074046134949,-0.09959448128938675,-0.1281869262456894,-0.1683780699968338,-0.186284139752388,-0.018432768061757088,0.12110935896635056,0.061617013067007065,0.032500091940164566,0.12036605179309845,0.13087457418441772,0.2280392199754715,-0.022445347160100937,0.24670729041099548,0.017492113634943962,0.009166167117655277,-0.27986788749694824,0.022982774302363396,-0.04370180517435074,-0.05633220076560974,0.034326303750276566,0.02331027016043663,0.016608377918601036,-0.30503877997398376,-0.055606912821531296,-0.0037758005782961845,-0.20074456930160522,-0.21186432242393494,0.01081101130694151,0.031013989821076393,-0.016344033181667328,0.08321073651313782,-0.28030866384506226,0.1295943707227707,0.23057225346565247,0.10389179736375809,-0.035493381321430206,-0.032160684466362,0.2416069209575653,-0.38355717062950134,0.12935273349285126,-0.20223309099674225,0.055413275957107544,-0.2601674795150757,0.05391969904303551,-0.1244143694639206,-0.09425365924835205,-0.17130276560783386],[-0.040927704423666,-0.47056666016578674,-0.03741573542356491,-0.270004540681839,0.14428384602069855,-0.1818455010652542,-0.230451762676239,-0.2558293640613556,0.08427856117486954,-0.21895860135555267,-0.11203821003437042,-0.21679560840129852,-0.15855059027671814,-0.04638729989528656,-0.30096903443336487,0.11866115778684616,0.10610341280698776,-0.0835537537932396,0.31752321124076843,-0.006341953761875629,-0.09825854748487473,-0.3945799469947815,-0.006419267039746046,0.10243918001651764,0.46287012100219727,-0.09279612451791763,0.031234702095389366,0.09374577552080154,-0.017136655747890472,0.14935068786144257,-0.038436710834503174,0.08653386682271957,-0.13824328780174255,-0.12177274376153946,-0.24762605130672455,-0.013764076866209507,-0.01124272309243679,-0.23857852816581726,0.2515336573123932,-0.19653238356113434,0.24130213260650635,0.059872694313526154,-0.15675833821296692,-0.07577934861183167,-0.12528550624847412,0.21449537575244904,-0.09265540540218353,-0.07545987516641617,0.07468077540397644,-0.05483769252896309,-0.006696980446577072,-0.12760081887245178,-0.4436081349849701,-0.05377704277634621,-0.09226411581039429,0.19463154673576355,-0.009198024868965149,-0.0363750159740448,-0.07822863757610321,-0.06857793778181076,-0.21128372848033905,-0.09397496283054352,0.4887556731700897,-0.26230451464653015,-0.0798317939043045,0.08128827065229416,-0.3709763288497925,-0.21755127608776093,0.08628793805837631,-0.493438720703125,-0.15935322642326355,0.17256847023963928,-0.13292689621448517,-0.2785843312740326,0.0037242004182189703,0.38075247406959534,-0.20934730768203735,-0.1582254022359848,-0.015404504723846912,0.32799050211906433,0.13176754117012024,0.1825086623430252,0.12284474074840546,-0.20964664220809937,0.07721824944019318,-0.3973200023174286,-0.010228060185909271,-0.06312067061662674,-0.03968800976872444,0.17470121383666992,-0.04035137966275215,0.09122323989868164,-0.13950689136981964,0.09799917787313461,-0.07762301713228226,0.07702481746673584,0.04599402844905853,0.44946467876434326,-0.17052850127220154,-0.022391345351934433,-0.24973690509796143,0.11621817946434021,-0.0736331045627594,-0.15558485686779022,-0.2891683280467987,-0.24379979074001312,0.030635394155979156,0.2066822648048401,-0.12826602160930634,-0.05042010545730591,-0.2478073388338089,0.26891908049583435,-0.10988457500934601,0.0639573261141777,-0.15576434135437012,-0.028032450005412102,-0.21885232627391815,-0.029744060710072517,0.10390722751617432,-0.06960118561983109,-0.07471032440662384,0.029947061091661453,-0.07337918132543564,-0.0424550324678421,-0.05130369961261749,-0.3323887586593628,-0.24863487482070923,0.07948356121778488],[0.10608450323343277,-0.3132443130016327,0.08903134614229202,0.20338620245456696,0.0898972824215889,0.03780245780944824,-0.13133864104747772,0.05284629762172699,-0.18174457550048828,0.30762195587158203,-0.1359681785106659,-0.05827956646680832,0.19099880754947662,-0.1447155773639679,0.3517690598964691,0.01740354485809803,0.010838181711733341,0.15632420778274536,0.018942799419164658,-0.21757274866104126,-0.005821865983307362,0.22494080662727356,0.10522055625915527,0.06586207449436188,-0.15405650436878204,-0.016915462911128998,-0.22575736045837402,-0.12020977586507797,0.07152411341667175,0.49753016233444214,0.27826374769210815,0.22564299404621124,0.34405094385147095,0.004121923819184303,0.057615190744400024,0.13573619723320007,-0.18682610988616943,-0.0016048430697992444,0.38921090960502625,-0.18749724328517914,-0.3798508644104004,0.13781754672527313,0.08745226263999939,-0.0632578432559967,0.04378564655780792,-0.13100549578666687,-0.05615818873047829,-0.36661240458488464,0.07551595568656921,0.038074955344200134,0.15674415230751038,-0.21010085940361023,0.12281778454780579,-0.1093774139881134,0.10680729895830154,-0.03898139297962189,0.3535982668399811,0.10094071179628372,0.24610354006290436,-0.19594866037368774,-0.000527989468537271,0.0660300925374031,-0.12835465371608734,0.0674755871295929,0.25301066040992737,-0.1014612689614296,0.26940882205963135,-0.22285819053649902,-0.048417311161756516,0.14253993332386017,-0.1815398782491684,-0.055356450378894806,-0.15726961195468903,0.1150076761841774,-0.07509461790323257,0.10818551480770111,0.058831069618463516,-0.1187039315700531,-0.3226301670074463,0.07895342260599136,0.08940304815769196,-0.047881320118904114,0.19730304181575775,-0.20452891290187836,0.07777046412229538,-0.0992588922381401,0.38414567708969116,-0.10414654016494751,0.0896061584353447,-0.32893458008766174,0.16305847465991974,-0.1389216184616089,0.3161492943763733,-0.03910840302705765,-0.19156809151172638,-0.10037045180797577,-0.28018543124198914,-0.13496418297290802,-0.02717505767941475,-0.23272161185741425,-0.07541947811841965,-0.3543332815170288,0.01257250364869833,-0.41650140285491943,0.05011947080492973,0.019633658230304718,-0.042326223105192184,-0.026704300194978714,0.12626273930072784,-0.10909666866064072,0.39273330569267273,0.08800046145915985,-0.22183123230934143,-0.07521118223667145,0.020451148971915245,-0.07110868394374847,-0.038951657712459564,0.04080050438642502,-0.14916424453258514,0.042019765824079514,0.004260842222720385,0.3842855393886566,-0.2364075928926468,-0.14661650359630585,0.14001408219337463,-0.3088047504425049,0.09452861547470093,0.24941538274288177],[0.12704172730445862,0.4540437161922455,0.29962828755378723,-0.1923748403787613,-0.02263772487640381,0.01891457289457321,0.061636507511138916,0.04133905842900276,0.19306722283363342,0.23121321201324463,-0.12729214131832123,0.008196057751774788,0.029820410534739494,0.1275552660226822,-0.0014070180477574468,0.26219287514686584,0.04421163722872734,0.06456638872623444,0.15789879858493805,-0.04903952777385712,0.07018118351697922,0.026989659294486046,0.3708958625793457,0.008847424760460854,-0.03494038060307503,0.2692144811153412,-0.2961810827255249,0.14043040573596954,0.5326395630836487,-0.1776796579360962,-0.010014750063419342,-0.17458854615688324,-0.023088153451681137,0.10926926881074905,0.06894998997449875,-0.17632825672626495,-0.08561468869447708,0.18819260597229004,-0.07051067054271698,0.09818170219659805,-0.023475751280784607,0.2469123750925064,-0.028230827301740646,-0.050844527781009674,-0.21198368072509766,-0.10925901681184769,-0.3912836015224457,0.23297587037086487,0.07210616022348404,0.09912121295928955,0.18543961644172668,-0.026670826599001884,0.28513333201408386,0.10789642482995987,-0.37843066453933716,0.08994954824447632,-0.17453034222126007,-0.2484377920627594,-0.13620901107788086,-0.10682345181703568,0.17177420854568481,0.42527854442596436,0.2819610834121704,0.20873098075389862,0.1888996660709381,-0.04918815940618515,0.05775518715381622,-0.2646936774253845,0.27341657876968384,-0.0688265860080719,0.13674849271774292,0.041642945259809494,-0.002023383043706417,-0.0009865718893706799,0.0071022845804691315,0.049285296350717545,0.0012717470526695251,-0.2374974489212036,-0.03012003004550934,0.31414949893951416,0.15499548614025116,0.2648825943470001,-0.5423967242240906,-0.4334127902984619,0.15837150812149048,-0.1897287517786026,0.2285204976797104,0.034482043236494064,-0.013265667483210564,-0.012527433224022388,-0.3288152813911438,-0.05922182276844978,0.08123943209648132,0.341871440410614,-0.169316828250885,0.27638500928878784,0.08733444660902023,0.10832209885120392,0.14368267357349396,-0.24355503916740417,0.021416015923023224,-0.03833959251642227,0.08774659782648087,0.3873494863510132,-0.13870680332183838,0.14159566164016724,-0.04825225844979286,-0.01648300141096115,-0.6544442772865295,-0.242606520652771,-0.1552014946937561,0.011069929227232933,-0.28889885544776917,0.0844995453953743,0.08756018429994583,0.4615769684314728,-0.22098450362682343,-0.2785652279853821,-0.04291902482509613,0.06442262977361679,-0.17715279757976532,-0.025945451110601425,0.09358125180006027,0.2267191857099533,0.18808525800704956,-0.22920161485671997,-0.16820845007896423,-0.024806557223200798],[0.23356559872627258,-0.23121638596057892,0.11239396780729294,-0.2021726816892624,-0.40237733721733093,-0.046054594218730927,0.12370746582746506,0.07342931628227234,0.10037056356668472,0.1417241245508194,-0.2937592566013336,-0.1120978444814682,-0.11868765950202942,-0.28213149309158325,-0.009914789348840714,0.18323418498039246,0.08844811469316483,-0.4906991422176361,0.14052967727184296,-0.11703281104564667,0.07083413004875183,-0.02491346001625061,-0.24111002683639526,-0.02908185124397278,-0.09676770865917206,0.1980174332857132,0.0444323793053627,-0.07130849361419678,-0.39640721678733826,-0.02441755309700966,-0.12915107607841492,0.017168182879686356,-0.16517017781734467,0.22918902337551117,0.013714725151658058,-0.20340248942375183,-0.11764637380838394,-0.015673739835619926,-0.03842191770672798,-0.11611418426036835,0.18397971987724304,0.24881502985954285,0.09086869657039642,-0.12006469815969467,-0.19588394463062286,0.3385073244571686,0.04964309558272362,0.0071381391026079655,-0.0017187991179525852,-0.21036949753761292,0.15420928597450256,-0.44714730978012085,-0.20111685991287231,0.07638386636972427,-0.39424535632133484,-0.12056318670511246,0.018021678552031517,-0.43835583329200745,-0.06166997179389,0.27312391996383667,-0.22016268968582153,0.07512672990560532,0.057976219803094864,0.05455736815929413,0.053517960011959076,-0.05899480730295181,-0.17965789139270782,-0.06280093640089035,-0.07411724328994751,0.04497559741139412,-0.03744364529848099,0.10945006459951401,-0.05930488929152489,-0.04614131525158882,0.09063061326742172,0.010449628345668316,-0.16542460024356842,-0.2573241591453552,-0.15933522582054138,-0.0386960543692112,0.1611032634973526,-0.08273489028215408,-0.04048624634742737,0.11132030934095383,0.2393004149198532,-0.20874163508415222,0.30910271406173706,-0.23181401193141937,0.008115548640489578,0.1948252171278,-0.13101167976856232,-0.43940138816833496,0.18099330365657806,0.15247376263141632,-0.04122759774327278,-0.11572645604610443,0.1354130059480667,0.19950561225414276,0.131604865193367,0.10289432853460312,0.08514294028282166,-0.14156900346279144,-0.1239074170589447,-0.3082585036754608,-0.32166197896003723,0.09371159225702286,-0.1551327258348465,0.06670687347650528,0.2221563458442688,0.30661484599113464,0.4110851585865021,0.2931971251964569,0.12776170670986176,0.10249160975217819,-0.002367740962654352,0.1471775323152542,0.05052627623081207,0.3073592782020569,0.09012332558631897,-0.09595177322626114,0.30172446370124817,-0.0063425772823393345,-0.1134941354393959,-0.19382324814796448,-0.04360843822360039,0.07244385033845901,0.2700917720794678,0.32376351952552795],[0.0938025563955307,-0.5631582736968994,0.09593299776315689,0.01601484604179859,0.03589024767279625,-0.0069790612906217575,-0.17476321756839752,-0.35381656885147095,0.006970169488340616,-0.07587059587240219,0.009793765842914581,0.015799880027770996,-0.17182907462120056,0.039605893194675446,0.33264777064323425,0.09845642745494843,0.010254100896418095,0.16941151022911072,-0.39254045486450195,-0.1539081186056137,0.10720959305763245,-0.09232572466135025,