[[0.361028254032135,-0.26879486441612244,0.28030359745025635,-0.150264710187912,-0.3064896762371063,-0.197326198220253,-0.2931634783744812,-0.06036753207445145,-0.000050228554755449295,0.026700837537646294,-0.06197688356041908,0.16601546108722687,0.188428595662117,0.20290912687778473,-0.031128324568271637,-0.02769971452653408,0.002302146516740322,-0.011861260049045086,-0.12794584035873413,-0.08643380552530289,-0.1930091232061386,-0.0929112434387207,-0.15761643648147583,-0.365036278963089,0.030837282538414,-0.09540781378746033,-0.1918860226869583,-0.1793220341205597,0.015525009483098984,-0.10458605736494064,0.053554631769657135,0.10067027062177658,0.038735728710889816,-0.14254166185855865,0.1591857522726059,-0.3355419337749481,-0.302215039730072,-0.516784131526947,0.13180598616600037,-0.02705671638250351,-0.17527596652507782,0.10622904449701309,0.22737598419189453,-0.1137547418475151,-0.15933163464069366,-0.009974494576454163,-0.16285136342048645,-0.007955490611493587,-0.16131596267223358,-0.1134801134467125,0.24695265293121338,-0.04799049720168114,-0.018781358376145363,-0.0431690476834774,0.07397159188985825,0.27499717473983765,0.032147593796253204,0.178384929895401,-0.017465634271502495,-0.21680842339992523,-0.08664670586585999,-0.19013260304927826,0.005746791604906321,0.21544627845287323,-0.06009739264845848,0.1709698885679245,-0.03459373116493225,0.11533223092556,-0.5768257975578308,-0.01892954297363758,0.13589642941951752,-0.201605886220932,-0.11576523631811142,0.1503099948167801,-0.2616147994995117,-0.13273072242736816,-0.041217755526304245,-0.02254750207066536,-0.22663074731826782,-0.2011510282754898,-0.012284078635275364,0.18416732549667358,-0.11076873540878296,-0.07786159217357635,0.011930633336305618,0.09676168859004974,0.21374092996120453,0.0280397180467844,-0.15668921172618866,-0.24454189836978912,-0.15204332768917084,-0.06972072273492813,0.11139581352472305,0.042039111256599426,0.03690531104803085,0.05757118761539459,-0.06261512637138367,-0.09612344950437546,0.03649460896849632,-0.13269448280334473,-0.11662890762090683,-0.22457736730575562,0.008019368164241314,0.3221120834350586,-0.1637519896030426,-0.24844671785831451,-0.18545998632907867,-0.2509608566761017,0.0868065357208252,-0.15511471033096313,-0.11921987682580948,-0.19207610189914703,0.2935989499092102,-0.07644973695278168,-0.3334748148918152,0.188203826546669,-0.258892297744751,-0.2949209213256836,0.016561444848775864,0.17827734351158142,-0.36231082677841187,-0.12815509736537933,0.1419461965560913,0.15570923686027527,-0.06248254328966141,-0.15686006844043732,-0.3043128550052643,0.06609856337308884,0.050441332161426544,0.10055074840784073,0.23012323677539825,0.04122261330485344,-0.06696424633264542,0.020944636315107346,0.041300781071186066,-0.13673846423625946,-0.05465725436806679,-0.1964903324842453,0.04598405957221985,-0.045403268188238144,0.04518810287117958,-0.07472965866327286,0.179941788315773,0.16055461764335632,0.03494872897863388,-0.02059813030064106,0.02046956680715084,-0.257969468832016,-0.059278182685375214,0.18496501445770264,-0.08732641488313675,0.22294366359710693,-0.36390697956085205,-0.023301225155591965,-0.1766916811466217,-0.06212731823325157,0.11969828605651855,0.17269621789455414,-0.06863085925579071,0.11780519038438797,-0.07552643120288849,-0.09467364847660065,0.21334430575370789,-0.13574852049350739,-0.18979527056217194,-0.028157969936728477,-0.1814478188753128,-0.22004278004169464,-0.06538940966129303,-0.09371761232614517,-0.06763536483049393,-0.06993464380502701,-0.39325186610221863,0.1564011424779892,-0.10099488496780396,-0.11358477175235748,0.08517342060804367,0.11481475830078125,0.054463475942611694,-0.11876574903726578,-0.15155674517154694,-0.33261001110076904,0.08574766665697098,0.10463086515665054,-0.0671822801232338,0.12250645458698273,0.18466410040855408,-0.19685421884059906,-0.03946360573172569,-0.23814541101455688,0.12900228798389435,-0.0034429337829351425,-0.10806267708539963,0.340849906206131,-0.20264801383018494,-0.2476024031639099,0.009227341040968895,-0.058457471430301666,0.1305921971797943,0.2695341408252716,0.01203711424022913,0.07090584933757782,-0.0684625431895256,-0.13536666333675385,0.22367693483829498,-0.17554736137390137,-0.2390233725309372,-0.09738846123218536,0.01260413322597742,0.043109230697155,-0.006653561256825924,-0.24558329582214355,-0.15541762113571167,-0.051327068358659744,0.16397373378276825,-0.14466647803783417,0.08773637562990189,-0.02756667323410511,0.04005764052271843,-0.11890621483325958,0.41199031472206116,-0.03152589872479439,0.03191478177905083,-0.00005246489308774471,0.0009241827065125108,0.020743850618600845,-0.2118227481842041,0.1928698867559433,0.0031198763754218817,-0.23558880388736725,-0.042628079652786255,0.006831638514995575,-0.1153760477900505,0.1627524346113205,0.39025959372520447,-0.1255725473165512,0.05698692053556442,-0.1064520925283432,-0.23557442426681519,0.07298562675714493,0.1539088934659958,0.05937853083014488,0.16064836084842682,-0.010246913880109787,-0.16161365807056427,-0.009912779554724693,0.1582064926624298,-0.11843522638082504,0.2845121920108795,-0.13752354681491852,-0.15201851725578308,-0.4324151575565338,0.14250053465366364,0.15887954831123352,-0.0496889129281044,0.011385956779122353],[0.21915099024772644,-0.26035258173942566,-0.06785691529512405,0.1538405865430832,-0.17082969844341278,-0.16800057888031006,-0.19788944721221924,0.19171763956546783,-0.06048043817281723,-0.33950093388557434,-0.05418341979384422,-0.20625542104244232,-0.18319782614707947,-0.12566179037094116,0.0769166499376297,0.024858398362994194,0.030364492908120155,-0.29544004797935486,-0.162968248128891,0.13443787395954132,0.011077504605054855,-0.24896614253520966,-0.0015192478895187378,0.06180448457598686,-0.07264934480190277,-0.10128524899482727,-0.01979788765311241,0.03880774602293968,-0.12519410252571106,0.2982867658138275,-0.42051389813423157,-0.07191740721464157,-0.30941078066825867,0.02882113866508007,-0.0762198194861412,-0.09643934667110443,-0.11860224604606628,0.11563266068696976,0.043599698692560196,-0.09439326822757721,0.19564877450466156,-0.15869171917438507,-0.0028865414205938578,0.2158535122871399,0.027854805812239647,0.012130099348723888,-0.002165984595194459,-0.09052866697311401,-0.14661869406700134,0.09631389379501343,-0.2528708875179291,-0.267304927110672,0.30221524834632874,-0.23958835005760193,-0.048773035407066345,-0.03450150787830353,-0.004428360145539045,0.016061825677752495,-0.13061240315437317,-0.09526600688695908,-0.05520666763186455,-0.15422256290912628,0.14264678955078125,-0.31236937642097473,-0.11511016637086868,0.029771041125059128,-0.1632293462753296,0.12017374485731125,0.3249167203903198,-0.1998147815465927,0.03970293700695038,-0.04698266461491585,-0.21452854573726654,-0.19586516916751862,0.1230708509683609,0.1808975338935852,-0.24850843846797943,0.27857568860054016,-0.11084451526403427,-0.057628098875284195,0.2462587207555771,-0.08253943920135498,-0.011514600366353989,-0.3107512891292572,-0.14119987189769745,0.18142127990722656,-0.32183435559272766,-0.023003259673714638,0.16583429276943207,-0.07085326313972473,-0.12695640325546265,0.27768847346305847,0.3591519296169281,0.15992699563503265,-0.2969789206981659,0.2730692923069,-0.1634979248046875,-0.02113494463264942,0.21962715685367584,-0.24408334493637085,0.08509854227304459,0.10409536212682724,0.10727091133594513,0.014580467715859413,-0.3556663691997528,-0.4074188768863678,0.05608053877949715,0.10819358378648758,0.00849891733378172,-0.10206826776266098,-0.40412092208862305,-0.3330017328262329,0.3596961200237274,-0.28585532307624817,-0.09925020486116409,-0.2371937334537506,-0.07599780708551407,0.2589004337787628,-0.10750451683998108,0.07302744686603546,-0.28975382447242737,-0.14974039793014526,-0.007853060029447079,-0.07586021721363068,-0.12574096024036407,-0.12529224157333374,0.12380162626504898,-0.20823681354522705,-0.3532312214374542,-0.17195841670036316,0.021153723821043968,0.31454721093177795,0.023122038692235947,0.22141090035438538,0.028933437541127205,-0.20274880528450012,-0.17759272456169128,-0.0136362724006176,-0.1795237958431244,0.19437634944915771,-0.1297813504934311,-0.10460513830184937,-0.20803441107273102,-0.11604379862546921,-0.1749994456768036,-0.12993600964546204,0.06848155707120895,-0.32587435841560364,0.06170034036040306,-0.25138401985168457,0.21662364900112152,-0.14351949095726013,0.003776904894039035,-0.0745021253824234,-0.06986310333013535,-0.37886935472488403,-0.09030921757221222,-0.013220788910984993,0.0029863419476896524,-0.14325612783432007,0.08608724921941757,-0.13568833470344543,-0.03886132687330246,-0.12189587205648422,-0.02517946995794773,-0.23974372446537018,-0.5241485834121704,0.15763036906719208,0.02992677316069603,0.050864607095718384,0.09490704536437988,0.04865124821662903,-0.026743661612272263,-0.20376789569854736,-0.006557513494044542,0.04845740646123886,0.08256375789642334,-0.21680966019630432,-0.03941071778535843,-0.3153133988380432,-0.07782313227653503,0.035861190408468246,-0.018254460766911507,0.17616534233093262,-0.1749078780412674,0.06751086562871933,0.09468978643417358,0.22306852042675018,0.2292497158050537,-0.27712059020996094,-0.07380101084709167,-0.34549596905708313,0.1587921380996704,-0.4048038125038147,0.12702368199825287,-0.06664299964904785,-0.1749439239501953,-0.12904062867164612,-0.15827272832393646,0.01860145665705204,0.13794472813606262,-0.042253971099853516,-0.049493417143821716,0.00010829199891304597,-0.35063275694847107,0.10922350734472275,0.0634193867444992,0.11719746887683868,-0.186041921377182,-0.1595471054315567,0.3095783591270447,-0.39965322613716125,0.05816194415092468,0.035544972866773605,-0.11977831274271011,-0.21934935450553894,0.01983119547367096,0.022464469075202942,-0.05858024209737778,0.08910759538412094,-0.05150482431054115,-0.4615439772605896,-0.07279880344867706,0.22494786977767944,-0.03273123502731323,-0.2901007831096649,0.2707415521144867,0.22906191647052765,0.02430678717792034,-0.21383607387542725,0.02308608405292034,-0.12029207497835159,-0.037915147840976715,0.16125650703907013,0.18050692975521088,-0.20163594186306,0.007620949763804674,-0.23592007160186768,-0.19769984483718872,-0.13130566477775574,-0.13518886268138885,-0.04430846869945526,-0.12161960452795029,-0.002795177511870861,-0.05567868426442146,-0.03575056418776512,-0.16701899468898773,-0.10974784940481186,-0.19122432172298431,-0.14080668985843658,-0.2176596075296402,0.17531707882881165,-0.16000501811504364,0.03096706047654152,-0.2814137041568756,-0.26810744404792786],[-0.05117844417691231,0.03239097073674202,-0.06739886105060577,-0.13048113882541656,0.046641889959573746,-0.3800700604915619,-0.19185727834701538,-0.08960678428411484,0.28109318017959595,0.038268353790044785,0.00013460424088407308,0.16365370154380798,0.04323030263185501,-0.1773204803466797,-0.00778034096583724,-0.06278088688850403,-0.04902706295251846,0.2690281271934509,0.15380214154720306,0.20526200532913208,-0.4086436629295349,0.05779828503727913,-0.2372090220451355,-0.14550162851810455,0.008305351249873638,-0.08757095038890839,-0.08341549336910248,-0.27718088030815125,0.20451620221138,0.30072417855262756,-0.226717010140419,0.15296246111392975,0.04734628275036812,0.22217242419719696,0.14129352569580078,0.16325625777244568,0.0973832830786705,-0.28319889307022095,-0.12863406538963318,-0.29467639327049255,0.13486211001873016,-0.3713511526584625,0.38487303256988525,0.027581987902522087,0.13446582853794098,0.10810773074626923,-0.3853077292442322,-0.25532665848731995,-0.3378295600414276,-0.05011330917477608,0.19923028349876404,0.08166065067052841,-0.04720665514469147,-0.10734637081623077,-0.23742450773715973,-0.06605113297700882,-0.19757407903671265,0.15506334602832794,-0.22167275846004486,-0.18895170092582703,0.2565554082393646,-0.09762053191661835,0.22395597398281097,0.3892412483692169,-0.009199129417538643,-0.5586337447166443,-0.10167907923460007,-0.25690311193466187,-0.1393960863351822,0.09484809637069702,0.17267538607120514,-0.016108280047774315,0.14619497954845428,0.11134917289018631,0.3574831187725067,-0.1894490122795105,-0.011954415589571,-0.02047627605497837,0.2966620922088623,0.2550019919872284,-0.07613928616046906,-0.31595945358276367,0.036976274102926254,-0.13815979659557343,0.14412149786949158,0.3577093482017517,-0.002498914021998644,-0.137833833694458,-0.14409124851226807,-0.005425932351499796,-0.032536718994379044,0.050015851855278015,0.31816229224205017,0.1543666273355484,0.09153792262077332,-0.21983842551708221,0.08320516347885132,0.14490856230258942,0.07839605957269669,0.12660835683345795,0.11393081396818161,0.17710579931735992,0.024523664265871048,-0.3552830219268799,0.13491074740886688,0.039746180176734924,-0.157809317111969,-0.049752622842788696,0.104769267141819,-0.30646631121635437,-0.0673663392663002,-0.1383470743894577,0.2619175314903259,0.026672154664993286,-0.0651024580001831,-0.09528298676013947,-0.1911972016096115,-0.36658480763435364,0.1151743084192276,-0.07529778778553009,0.053737908601760864,0.1830916553735733,-0.06512859463691711,-0.10687590390443802,-0.35227614641189575,-0.1463175266981125,0.25988197326660156,0.2698132395744324,0.07182901352643967,0.03545654937624931,-0.021775610744953156,0.15555809438228607,0.0043603465892374516,-0.14440788328647614,0.11856815218925476,0.10621489584445953,-0.2806897461414337,-0.020471174269914627,-0.3429505527019501,-0.05521848425269127,-0.06861022859811783,-0.27704864740371704,0.1205718070268631,-0.2669108808040619,-0.09882374852895737,0.11437647044658661,-0.08369303494691849,0.16460607945919037,-0.10236506909132004,-0.11575061827898026,-0.07615997642278671,-0.3700685501098633,-0.25052502751350403,0.5198491811752319,-0.024460474029183388,-0.24914246797561646,-0.10930100828409195,-0.1710526943206787,-0.0923188179731369,-0.2854972183704376,0.11874949932098389,0.054847344756126404,-0.28061389923095703,-0.29037216305732727,-0.5487802624702454,0.12997551262378693,0.09238921105861664,-0.19619929790496826,0.20623020827770233,-0.07933561503887177,0.029743578284978867,0.06557018309831619,-0.11020747572183609,-0.07716523855924606,-0.006101460661739111,-0.07506962865591049,0.1848459392786026,-0.018734266981482506,-0.24495302140712738,-0.06220690906047821,0.034012023359537125,0.08426958322525024,-0.013103984296321869,-0.14468026161193848,-0.06703372299671173,-0.19633838534355164,-0.0015080553712323308,-0.18475140631198883,-0.2985246777534485,0.028532912954688072,0.1567687839269638,-0.03433176502585411,-0.4321792423725128,0.2852376699447632,-0.2605064809322357,0.15697765350341797,-0.05436518043279648,0.04044466093182564,-0.12631583213806152,0.2729125916957855,0.034234654158353806,-0.05725662782788277,-0.02237280271947384,0.3168482482433319,0.14696583151817322,-0.3606112599372864,-0.10470416396856308,-0.22916679084300995,0.3807494342327118,-0.16569200158119202,0.29359152913093567,0.062133125960826874,0.01704755611717701,-0.09726150333881378,-0.44629305601119995,0.02940252237021923,-0.05243987590074539,-0.3703261613845825,0.06292054802179337,-0.005827417131513357,0.07802897691726685,0.21042120456695557,0.18062923848628998,0.1971787065267563,-0.2762039005756378,-0.01399910543113947,0.07699567079544067,-0.22917062044143677,-0.33950191736221313,0.05463861674070358,0.37292930483818054,0.3992246687412262,0.2954293489456177,0.2502003014087677,0.3641444742679596,0.19538778066635132,-0.09272699803113937,-0.06722205877304077,0.27306458353996277,-0.22264394164085388,-0.20198847353458405,-0.18333883583545685,0.41218382120132446,0.1956881880760193,-0.009565798565745354,-0.0610172301530838,-0.48040369153022766,0.08369597047567368,0.2170187532901764,0.09800060838460922,0.03917865455150604,0.001040456467308104,0.0149422911927104,-0.7117083072662354,-0.14784026145935059,-0.106403648853302],[0.02266884781420231,0.06726541370153427,-0.06861666589975357,-0.18135851621627808,-0.201075479388237,-0.2143915444612503,-0.15431153774261475,-0.17543648183345795,-0.058619506657123566,-0.24883262813091278,-0.284737229347229,-0.09446962922811508,0.06359320133924484,-0.1060798168182373,0.19313038885593414,-0.14678233861923218,-0.009279603138566017,-0.10507984459400177,-0.24035508930683136,-0.09616094827651978,-0.10987433046102524,-0.1254730224609375,0.07591614127159119,-0.06279247999191284,0.07055152952671051,0.2621105909347534,-0.1446489542722702,-0.13096319139003754,0.13134709000587463,0.09641104936599731,-0.03692547231912613,0.011171468533575535,0.2069901078939438,0.051525380462408066,0.04108890891075134,-0.0025822871830314398,0.21191035211086273,-0.02184736728668213,-0.11616214364767075,-0.1963212788105011,0.027439024299383163,0.20063850283622742,0.016867216676473618,-0.12435523420572281,0.20981350541114807,0.020347576588392258,-0.2330986112356186,-0.07986883819103241,-0.0054280501790344715,0.08560875803232193,-0.0032224850729107857,-0.2937859296798706,-0.04472438246011734,-0.4523312747478485,0.09358242899179459,-0.025970105081796646,-0.23434379696846008,-0.22112831473350525,-0.11116064339876175,0.12818312644958496,-0.36544644832611084,-0.014032281935214996,0.07879897952079773,-0.08239119499921799,-0.2071634829044342,-0.14700353145599365,0.10509636998176575,-0.18421952426433563,0.32830551266670227,-0.09229589253664017,0.17972540855407715,-0.41088321805000305,0.046566903591156006,0.199058398604393,-0.053740840405225754,0.19614268839359283,-0.036376647651195526,0.031000711023807526,0.037360042333602905,-0.40074479579925537,-0.1779680997133255,0.05235027149319649,0.01409733947366476,-0.07338514924049377,-0.07026488333940506,-0.025539325550198555,-0.2603394389152527,-0.2650057077407837,-0.2576969265937805,-0.3369632065296173,-0.12502814829349518,-0.08953247219324112,-0.07089172303676605,0.16711348295211792,-0.15979968011379242,0.002983362879604101,-0.1058720052242279,0.34677159786224365,-0.18833032250404358,-0.1131434291601181,0.013645526953041553,-0.07762091606855392,0.2537217140197754,-0.030753271654248238,-0.07424017786979675,-0.08922934532165527,-0.06222354993224144,-0.047726936638355255,0.036574892699718475,0.1549593210220337,-0.2894400954246521,-0.004146485589444637,-0.20584788918495178,0.3968396484851837,-0.06665897369384766,0.10420431196689606,-0.21025174856185913,-0.06933372467756271,-0.04341772198677063,-0.006652699783444405,-0.16440561413764954,0.1498853862285614,0.004123324528336525,0.007108320016413927,-0.12825094163417816,-0.0010714511154219508,0.007749034557491541,-0.1854952722787857,0.11610646545886993,-0.05120130255818367,0.1660636067390442,-0.16976439952850342,-0.37132886052131653,0.13651886582374573,-0.18320821225643158,-0.0228459220379591,-0.4416690170764923,0.309291809797287,-0.2524973452091217,-0.2722996771335602,-0.19370342791080475,0.049788448959589005,0.012796364724636078,0.03142867609858513,-0.38128727674484253,0.07127698510885239,0.04094073921442032,-0.18177703022956848,-0.31178441643714905,-0.12278472632169724,0.2641015946865082,-0.08342523872852325,0.12225217372179031,-0.01122171338647604,0.39156287908554077,-0.09337937086820602,-0.17528316378593445,0.1504204422235489,0.16177329421043396,0.026340825483202934,-0.14500261843204498,0.13544045388698578,-0.18259844183921814,0.014324750751256943,-0.25017717480659485,-0.23327526450157166,-0.04195826128125191,-0.11644776910543442,-0.5407142043113708,0.20258083939552307,0.11745007336139679,0.36122360825538635,-0.019093722105026245,-0.21003971993923187,-0.007357148919254541,0.10336635261774063,0.020277125760912895,0.07617586851119995,0.002159608993679285,-0.07037504017353058,-0.1404283344745636,-0.3170586824417114,-0.06784602999687195,-0.4425574541091919,-0.09422146528959274,-0.2534927725791931,0.02002311684191227,0.06483878940343857,0.10765592008829117,0.09343135356903076,0.04391508176922798,-0.1017133966088295,-0.15760594606399536,-0.04035833477973938,0.00489439070224762,0.1999797523021698,-0.3031421899795532,0.046609144657850266,0.10475838929414749,0.6296096444129944,0.16778495907783508,-0.24864758551120758,-0.10580278933048248,-0.08394769579172134,0.11283126473426819,-0.005088163074105978,0.12938635051250458,-0.16465559601783752,0.1058148518204689,-0.29966071248054504,0.173897847533226,-0.21274547278881073,-0.020890021696686745,0.1988137662410736,-0.17150762677192688,-0.38421550393104553,-0.15737439692020416,0.29279467463493347,0.20373673737049103,-0.21992582082748413,-0.16420622169971466,-0.05715517699718475,0.07170771062374115,-0.12574359774589539,0.04541885852813721,-0.14566998183727264,0.16133536398410797,0.07134044170379639,-0.09890594333410263,-0.1837313026189804,0.13727104663848877,-0.3827293813228607,-0.1576172113418579,-0.3442104756832123,-0.14327086508274078,-0.38871657848358154,-0.026321200653910637,0.09150645136833191,-0.011536667123436928,0.12243226915597916,-0.26179519295692444,0.13098573684692383,-0.11929924041032791,0.10277380049228668,-0.0062813712283968925,0.05116887390613556,-0.026626255363225937,0.025224169716238976,0.00967408623546362,0.423427939414978,0.04059822857379913,0.022670075297355652,-0.3039624094963074,-0.08692318946123123,0.30980926752090454,0.11091239005327225],[-0.048789553344249725,-0.23184889554977417,0.04111343249678612,-0.2779267430305481,-0.11877227574586868,-0.059212978929281235,0.33329570293426514,-0.013672031462192535,-0.31708380579948425,0.15001890063285828,-0.08844038844108582,0.16364043951034546,-0.06945142149925232,0.18496893346309662,-0.11695290356874466,0.26626303791999817,0.21344563364982605,-0.16456331312656403,-0.23137439787387848,-0.09916999191045761,0.08877016603946686,-0.1597861498594284,-0.45081764459609985,-0.11452016234397888,-0.19293907284736633,-0.19134372472763062,-0.30486011505126953,0.15231095254421234,0.2523019015789032,0.14924472570419312,-0.1837000846862793,-0.1606854349374771,-0.09784044325351715,-0.2625422775745392,0.11204290390014648,0.04581174999475479,-0.02861955016851425,0.1443890929222107,-0.07143185287714005,0.34809496998786926,-0.3329773247241974,0.18838100135326385,-0.17991816997528076,-0.2943015992641449,-0.24332189559936523,0.18546535074710846,0.29564735293388367,-0.1719871312379837,0.063726045191288,0.20415353775024414,-0.0023884340189397335,0.012374558486044407,0.003609013045206666,-0.12940604984760284,-0.04210633784532547,0.1434166580438614,0.2762889266014099,-0.11096281558275223,-0.032126784324645996,-0.04224706441164017,-0.1274544894695282,0.3472513258457184,0.006664973217993975,0.22962196171283722,0.21362394094467163,-0.0036044421140104532,-0.17097631096839905,0.18696507811546326,-0.09267063438892365,-0.01387424860149622,-0.11391870677471161,-0.19306223094463348,0.07643618434667587,-0.4467962384223938,-0.11960653960704803,0.010809638537466526,-0.0237712524831295,0.08077523857355118,-0.001926885568536818,0.20116916298866272,0.39924356341362,-0.09712137281894684,-0.01890067756175995,-0.15235482156276703,0.005462263245135546,-0.009329869411885738,0.17433425784111023,0.0985633134841919,0.09837793558835983,-0.14407943189144135,0.17735618352890015,0.4909369647502899,-0.25097405910491943,0.08595128357410431,-0.09158983081579208,-0.011597836390137672,-0.09105195105075836,-0.26780959963798523,-0.4982950985431671,0.19455313682556152,0.18238748610019684,-0.1120370626449585,-0.27692222595214844,0.2840118408203125,0.12828823924064636,0.19005705416202545,0.02819969318807125,-0.0914710983633995,0.1998952478170395,-0.03258597478270531,0.3954215943813324,0.1333346962928772,-0.07476138323545456,-0.07487240433692932,0.09949352592229843,-0.062133125960826874,0.06613203138113022,-0.11073809117078781,-0.09560641646385193,-0.24201710522174835,-0.026264244690537453,0.06455425173044205,0.12917138636112213,-0.11913855373859406,-0.07746622711420059,0.6335713267326355,0.07863933593034744,-0.10559415072202682,0.13158150017261505,0.1051119714975357,-0.14949660003185272,0.0669240951538086,-0.20308463275432587,0.16226282715797424,-0.03413066267967224,-0.01783948577940464,0.08214696496725082,0.0028553849551826715,-0.1346987932920456,-0.009921710938215256,-0.09604056179523468,0.14793328940868378,-0.22866837680339813,-0.5676963925361633,0.0802643746137619,0.07062909752130508,0.3222387135028839,0.11302471160888672,0.07736298441886902,0.25823739171028137,-0.3706485629081726,-0.5472737550735474,-0.1278480887413025,0.13490036129951477,0.1681888997554779,-0.07403828203678131,0.1503686010837555,0.054716069251298904,-0.21670323610305786,0.07493535429239273,-0.0918881744146347,0.05878562107682228,0.11411678045988083,-0.2631908059120178,-0.2702850103378296,-0.10931117832660675,0.10438969731330872,-0.05621545389294624,-0.04713014140725136,-0.24230904877185822,0.4234822392463684,-0.0040513696148991585,0.07209109514951706,0.15439307689666748,0.048223961144685745,0.13348481059074402,-0.2431556135416031,0.00720962742343545,-0.02909609116613865,0.08249001950025558,-0.1597951054573059,0.20079071819782257,0.3277546167373657,0.27844250202178955,0.25682851672172546,0.01902998611330986,0.03687445819377899,0.059295039623975754,0.16181209683418274,-0.11572933942079544,-0.11411415040493011,-0.1481115221977234,-0.1500655859708786,-0.14638978242874146,-0.13567233085632324,-0.02685302309691906,-0.2144450694322586,-0.14614979922771454,-0.21323539316654205,-0.10116331279277802,-0.05093579366803169,0.31773993372917175,0.07575424760580063,0.06045011430978775,-0.002530420897528529,0.0027493454981595278,-0.0729580670595169,-0.12552723288536072,-0.1818840056657791,0.13087280094623566,0.043159935623407364,-0.06306423246860504,0.2021164447069168,-0.23357053101062775,0.18577159941196442,-0.09344818443059921,0.07272585481405258,-0.26647958159446716,-0.04365254193544388,0.000860932283103466,0.33984172344207764,-0.01706337369978428,0.027037711814045906,0.1409333199262619,-0.07965723425149918,-0.10188239067792892,-0.3749513626098633,-0.30864372849464417,0.12013088166713715,0.1652960628271103,-0.5895092487335205,0.02740211971104145,0.019923867657780647,0.13931399583816528,-0.14938883483409882,-0.07994034886360168,-0.06032787263393402,-0.0581551156938076,-0.17284463346004486,0.031052952632308006,-0.019287705421447754,0.11205916851758957,-0.12285365164279938,0.035167962312698364,-0.033755823969841,-0.024370165541768074,-0.1273248791694641,0.12152417004108429,0.09238621592521667,-0.04979303479194641,-0.236514613032341,-0.1440090388059616,0.09608021378517151,0.08913039416074753,0.15485058724880219,0.09729675203561783],[-0.09423638135194778,0.1975899636745453,0.0894962027668953,0.1510995775461197,0.3593703508377075,0.04200208559632301,0.07622852176427841,0.06833718717098236,-0.08131777495145798,-0.14497902989387512,-0.05604790523648262,-0.2218019813299179,-0.053292643278837204,0.24240395426750183,-0.14508305490016937,-0.03693988919258118,0.24555252492427826,0.1881689876317978,-0.015895335003733635,-0.4079273045063019,-0.006936770863831043,0.0791434720158577,0.08873555809259415,0.1438037008047104,-0.020341981202363968,-0.08268877118825912,-0.33589422702789307,-0.23382024466991425,-0.022860461845993996,-0.1794634312391281,-0.16846588253974915,-0.2469634711742401,-0.20413127541542053,-0.28160324692726135,0.3122216761112213,-0.19750940799713135,0.0495869405567646,0.12227188795804977,0.030834561213850975,-0.31630566716194153,0.24183766543865204,0.020107043907046318,0.20949546992778778,-0.21475891768932343,-0.16398383677005768,-0.10374392569065094,0.14288705587387085,0.05067506432533264,-0.1005345806479454,-0.19450245797634125,0.23989197611808777,0.043438367545604706,-0.3100088834762573,0.20281052589416504,0.1476658284664154,0.5049940347671509,0.16863226890563965,0.06461106985807419,-0.060289449989795685,0.08063268661499023,-0.027093378826975822,-0.23326966166496277,0.046004168689250946,-0.13664430379867554,-0.15869171917438507,0.28788939118385315,-0.061513859778642654,-0.22264057397842407,-0.04788239672780037,0.00933313649147749,0.009504487738013268,0.18141864240169525,0.0967516228556633,-0.13400857150554657,-0.03162523731589317,-0.08555933088064194,0.1660696417093277,-0.12687437236309052,-0.07387667894363403,0.1991981416940689,-0.062107086181640625,-0.02915533259510994,-0.13636207580566406,0.26404479146003723,-0.009256299585103989,-0.07477749139070511,0.10133392363786697,-0.23684550821781158,0.13112914562225342,0.06203719228506088,-0.08975855261087418,-0.021071333438158035,-0.3909308612346649,-0.3710201382637024,-0.05538073182106018,-0.1533256620168686,0.36524561047554016,0.014372505247592926,0.27187418937683105,0.03951631858944893,0.12449740618467331,0.3077694773674011,-0.0905352234840393,-0.12343619763851166,-0.06095074489712715,-0.15768937766551971,-0.24942322075366974,-0.122645802795887,-0.3180055320262909,0.32543718814849854,0.08947718143463135,0.062353573739528656,0.011203248053789139,-0.12211304903030396,-0.29063162207603455,0.15470167994499207,0.0027048783376812935,-0.10908850282430649,-0.06082295626401901,0.03993159160017967,-0.15578468143939972,0.06350841373205185,-0.10885041207075119,-0.029957309365272522,-0.037411849945783615,-0.05609263852238655,-0.008234035223722458,-0.4205217659473419,-0.0058115762658417225,0.14053982496261597,-0.3836158812046051,-0.17555443942546844,-0.4324837028980255,0.1412418931722641,-0.004536679480224848,-0.21047282218933105,-0.06597365438938141,-0.13140518963336945,0.10657113790512085,-0.27866873145103455,-0.04691395163536072,0.15598031878471375,0.17028379440307617,-0.09030014276504517,0.023815810680389404,0.020531827583909035,-0.1153983324766159,-0.1390043944120407,-0.10932701826095581,-0.1751890331506729,-0.07003011554479599,0.09033150225877762,-0.07485857605934143,0.16834376752376556,0.06044522300362587,-0.1654237061738968,0.09699036180973053,0.3564372956752777,-0.09720674157142639,0.1317271739244461,-0.13306601345539093,0.2355344146490097,-0.34801262617111206,-0.1659264713525772,0.2065502107143402,0.020340029150247574,0.09646640717983246,-0.08635400235652924,-0.04897010698914528,0.17942039668560028,-0.016100725159049034,-0.1196429580450058,-0.2508314847946167,0.0011508242459967732,0.07050921767950058,0.1934451460838318,0.1778908371925354,0.16956448554992676,-0.13870540261268616,-0.01995561271905899,-0.38514938950538635,0.18530401587486267,-0.09092869609594345,0.24277876317501068,0.0533711314201355,0.39577457308769226,-0.04493260383605957,0.05188500136137009,0.16128204762935638,0.26094475388526917,0.2836730182170868,-0.16688421368598938,0.08100739866495132,0.4288422167301178,0.14784909784793854,0.02927665039896965,0.07988057285547256,0.20777563750743866,0.38930991291999817,-0.22407427430152893,0.2499060332775116,-0.2468271702528,0.16818955540657043,0.41114091873168945,-0.07595527917146683,-0.19786784052848816,0.0663919672369957,-0.0958230122923851,-0.08952643722295761,-0.3308771848678589,0.04804720729589462,0.1248522698879242,-0.24742116034030914,0.0936330109834671,0.19638213515281677,0.26133424043655396,0.1639247089624405,0.1301882266998291,0.1657516360282898,0.43722042441368103,-0.003472995012998581,0.161915585398674,-0.22558337450027466,-0.24265560507774353,-0.09075308591127396,0.13734692335128784,-0.4114678204059601,-0.2644672989845276,0.12164918333292007,-0.4758002460002899,-0.1457298845052719,-0.007936259731650352,0.30261752009391785,0.018298150971531868,0.08820760995149612,0.13095098733901978,0.21895478665828705,-0.1086965948343277,-0.2542826235294342,0.0763305202126503,-0.03217194974422455,-0.12930823862552643,-0.2900540232658386,0.06787944585084915,-0.05562441423535347,-0.09993643313646317,0.08715125918388367,0.17009584605693817,0.3558404743671417,0.2833041548728943,0.29112115502357483,0.0701274573802948,-0.04933677986264229,0.2488657385110855,-0.4089583158493042,-0.15228156745433807],[0.2327229082584381,-0.2865055799484253,-0.2401249259710312,-0.1738065928220749,0.0090619632974267,-0.40577542781829834,-0.3265437185764313,0.08494590222835541,-0.08046315610408783,-0.08496266603469849,-0.09214987605810165,-0.006087322719395161,-0.21775200963020325,0.1655372679233551,0.20111238956451416,-0.14009419083595276,0.17901340126991272,0.24467021226882935,0.024260761216282845,0.05764365196228027,0.1401747465133667,0.11133385449647903,0.07022742927074432,-0.007507650181651115,0.38098907470703125,-0.11508804559707642,0.002199320588260889,0.08043226599693298,-0.13748149573802948,0.15124905109405518,0.1799549013376236,0.1847856491804123,-0.03742285445332527,0.015636757016181946,0.02402777038514614,-0.16836808621883392,-0.28990891575813293,-0.27089616656303406,-0.12786522507667542,-0.25425124168395996,-0.267059326171875,-0.2167164385318756,-0.2594994008541107,-0.020675422623753548,-0.19074957072734833,0.20439529418945312,-0.3090336322784424,-0.15253138542175293,-0.25869813561439514,0.0015656306641176343,-0.18411484360694885,-0.043350543826818466,0.15245215594768524,-0.014109035022556782,-0.09696503728628159,-0.272746741771698,-0.15230363607406616,-0.21138562262058258,0.0754317045211792,0.005704051349312067,0.3409560024738312,0.16145285964012146,0.07993010431528091,0.18796125054359436,0.4571543335914612,0.20995184779167175,-0.03125680983066559,0.05991080030798912,0.13556048274040222,0.3714231550693512,0.10972774773836136,0.34368082880973816,0.1576869785785675,0.322470098733902,-0.0361468642950058,-0.6030466556549072,-0.1925618052482605,-0.38150790333747864,-0.04757116734981537,-0.4594879448413849,0.157833993434906,0.15561363101005554,0.22118057310581207,0.2044721394777298,0.07636447995901108,-0.2959740161895752,-0.03548451513051987,-0.10401710867881775,-0.2531367838382721,0.18434834480285645,-0.11788828670978546,-0.006143513601273298,0.034225523471832275,0.08017012476921082,-0.14987295866012573,0.1944904923439026,0.16191624104976654,-0.04258796572685242,-0.14289222657680511,-0.2776705324649811,-0.17358843982219696,-0.04930451139807701,-0.08627039194107056,0.009838296100497246,0.30802565813064575,-0.12077987939119339,-0.44027918577194214,-0.07805212587118149,-0.16452468931674957,-0.156177818775177,0.2374143898487091,0.04360125958919525,0.024023404344916344,0.13791309297084808,-0.044179655611515045,0.2531753182411194,-0.040591660887002945,-0.19223591685295105,0.41628098487854004,0.17602737247943878,0.26921162009239197,-0.273447722196579,-0.02153361216187477,0.06812898069620132,0.10330194234848022,-0.050315361469984055,-0.20145505666732788,-0.14680519700050354,-0.22719088196754456,-0.04378087446093559,-0.012132521718740463,0.09490729123353958,0.07981926202774048,0.04060788452625275,-0.03962508961558342,-0.126419797539711,-0.16530390083789825,-0.32386314868927,0.22794651985168457,-0.4107978045940399,0.2341437041759491,0.026983406394720078,0.23076005280017853,0.5030620098114014,0.04359028488397598,-0.3242822289466858,0.013456222601234913,-0.005084772128611803,-0.08693506568670273,0.20278243720531464,-0.24975663423538208,0.12188822031021118,-0.08001929521560669,-0.13542746007442474,-0.036358948796987534,0.08179731667041779,0.17310287058353424,0.25682204961776733,-0.12359661608934402,0.14367781579494476,-0.15315203368663788,0.13878750801086426,-0.030825670808553696,0.012492824345827103,-0.2944071590900421,-0.04757405072450638,-0.17219947278499603,0.11545883119106293,0.009092219173908234,0.03135020658373833,-0.02935180254280567,-0.012147077359259129,-0.17697715759277344,-0.1612766683101654,-0.07454758137464523,-0.05421008542180061,0.15946920216083527,-0.16355347633361816,-0.2701621949672699,-0.003684285096824169,-0.12679725885391235,0.2775493562221527,0.1204569935798645,0.27266669273376465,-0.12794004380702972,0.17691093683242798,0.08143603801727295,0.1871938854455948,-0.03678511828184128,-0.044392555952072144,-0.07832736521959305,-0.10378723591566086,-0.12459371238946915,-0.041889436542987823,0.17964179813861847,0.28992927074432373,-0.29672589898109436,-0.16940416395664215,0.1590091586112976,0.06294214725494385,0.10319565236568451,-0.04451071470975876,-0.01878240704536438,-0.4889169931411743,0.19527678191661835,-0.19191816449165344,-0.29384931921958923,0.19724200665950775,0.3212285339832306,-0.1378895342350006,-0.007190684787929058,0.09387815743684769,0.09070427715778351,-0.17579619586467743,0.11346481740474701,0.11654578894376755,-0.33261412382125854,-0.07244279235601425,-0.0684693455696106,-0.21636152267456055,0.04650058597326279,-0.2726238965988159,-0.12620170414447784,0.1934429258108139,-0.17143428325653076,-0.22949737310409546,-0.3457570970058441,-0.062028493732213974,0.18092377483844757,-0.11870715022087097,-0.29601719975471497,-0.09565030783414841,-0.08619538694620132,-0.05665421858429909,0.07460889220237732,-0.25265246629714966,-0.2677476108074188,-0.21970625221729279,-0.03066243603825569,0.006522933021187782,-0.029086921364068985,-0.2390086054801941,-0.315722793340683,0.11875608563423157,0.06286121159791946,0.02146773599088192,0.005685815121978521,-0.3251277208328247,0.011241341941058636,-0.5276417136192322,-0.09621600806713104,-0.24882422387599945,0.03604406490921974,0.18534928560256958,0.07584600895643234,-0.20990116894245148],[0.03211606293916702,-0.04680872708559036,0.11390114575624466,0.011210995726287365,0.14136044681072235,-0.07714064419269562,-0.2992720901966095,0.28941190242767334,0.04497700184583664,-0.1360515058040619,0.11411578953266144,-0.1370675414800644,0.14748717844486237,0.15763522684574127,0.050903964787721634,-0.048199694603681564,0.23591984808444977,0.009956195019185543,0.05016028881072998,-0.30348750948905945,-0.10518398135900497,0.09156539291143417,-0.07226826995611191,-0.09810186922550201,0.22628237307071686,0.0714162290096283,-0.2201554775238037,-0.1419110745191574,0.23318089544773102,-0.11397063732147217,0.13327772915363312,-0.05675129219889641,-0.07589342445135117,-0.12726153433322906,-0.0028540734201669693,-0.24650394916534424,0.20759990811347961,0.05931695178151131,-0.0672619566321373,-0.21918249130249023,-0.10037476569414139,-0.38153910636901855,-0.0784231647849083,0.19873374700546265,-0.1321059912443161,-0.008340504951775074,0.21187998354434967,-0.11218951642513275,0.027341708540916443,-0.2777787148952484,-0.18873082101345062,-0.30171436071395874,-0.12738336622714996,0.08020440489053726,-0.004700364079326391,0.31217649579048157,-0.07309820502996445,-0.1694570779800415,-0.30571311712265015,-0.05890604108572006,0.32287517189979553,0.15593664348125458,-0.10888102650642395,-0.26888203620910645,0.17342717945575714,0.00212649442255497,0.005834708921611309,-0.28776130080223083,-0.16945600509643555,0.36124202609062195,-0.30049943923950195,0.2830671966075897,-0.2487841695547104,-0.1592845618724823,-0.11239601671695709,0.02331775799393654,0.07403083890676498,0.02726302482187748,-0.05591978132724762,0.15912233293056488,-0.2249409407377243,-0.011012610048055649,-0.3487679362297058,-0.07781773805618286,-0.094938263297081,0.063084676861763,0.12299267947673798,0.21743051707744598,0.05131952464580536,-0.024134106934070587,0.13884304463863373,0.2421828955411911,0.0649586021900177,0.21850253641605377,0.01868300326168537,0.1620061993598938,0.046805981546640396,0.21971414983272552,-0.5828820466995239,0.21942853927612305,-0.014604339376091957,0.24744218587875366,-0.30284157395362854,0.40567970275878906,0.30393800139427185,0.14442914724349976,-0.21020625531673431,-0.05308159440755844,-0.2021978497505188,0.29509544372558594,-0.010093756020069122,0.26307225227355957,-0.039635032415390015,0.29825395345687866,0.3150332570075989,-0.03208530321717262,0.0854896828532219,-0.023008422926068306,-0.2884191572666168,0.12555409967899323,-0.23152640461921692,0.11112149059772491,-0.04211515933275223,-0.0014520908007398248,0.002609062707051635,-0.3107571303844452,-0.20117086172103882,-0.2041098028421402,-0.0868239775300026,-0.3557533919811249,0.02517540380358696,-0.13066790997982025,-0.03386431559920311,0.6040484309196472,0.06785985082387924,-0.19372616708278656,0.07165186107158661,0.15528111159801483,-0.11200423538684845,-0.04415914788842201,-0.18631155788898468,-0.03831549361348152,0.16821321845054626,0.11859600245952606,0.018524527549743652,0.11172960698604584,0.3047194480895996,-0.015677524730563164,0.13461405038833618,-0.2205805778503418,0.12891003489494324,-0.26595115661621094,-0.18793226778507233,-0.091018445789814,0.13945697247982025,-0.13104639947414398,0.015413323417305946,0.17967163026332855,0.08313030004501343,-0.0976240262389183,-0.23693418502807617,-0.04733788222074509,0.038453321903944016,-0.25552961230278015,0.07652036100625992,-0.1487073302268982,-0.2824271023273468,-0.4135928750038147,-0.01566474139690399,0.1934221386909485,0.12492316961288452,0.19013357162475586,0.1463581621646881,0.16662834584712982,-0.21442590653896332,-0.07896841317415237,-0.23118118941783905,-0.18300333619117737,-0.12070489674806595,0.06146363168954849,-0.060272544622421265,-0.40887176990509033,0.04221925139427185,0.1912345141172409,-0.3005114495754242,-0.15370769798755646,-0.23245647549629211,-0.2548563480377197,0.022648515179753304,-0.13026711344718933,-0.3164474368095398,0.19756725430488586,-0.177988201379776,0.03353675454854965,0.024850666522979736,0.49282267689704895,0.01325135212391615,0.10339473932981491,-0.549049437046051,-0.07066459953784943,0.2232552319765091,-0.05459566414356232,-0.06496059894561768,0.12434116750955582,-0.2830776870250702,0.013138572685420513,0.18082013726234436,0.013824405148625374,-0.19263768196105957,0.030692115426063538,0.14461147785186768,0.26571205258369446,0.2845959961414337,0.2122184783220291,-0.07470864802598953,0.0410495288670063,0.2812895178794861,-0.1774744689464569,0.17339223623275757,0.05070609226822853,-0.13257965445518494,0.06779870390892029,-0.10004260390996933,0.1775261014699936,-0.12818603217601776,-0.14202739298343658,-0.01101575419306755,-0.03257724642753601,-0.25310176610946655,-0.18090736865997314,0.18004174530506134,-0.12487758696079254,-0.054024502635002136,0.011841504834592342,-0.2140924632549286,0.1290246993303299,-0.022662222385406494,0.35571882128715515,0.1552686095237732,0.008177503012120724,-0.23690631985664368,-0.04418059065937996,0.003469187766313553,-0.03541829437017441,-0.04105614870786667,-0.008881930261850357,-0.04359527304768562,0.2425587773323059,-0.29866671562194824,0.23214299976825714,-0.1821127086877823,0.274562805891037,0.03300711512565613,-0.34846439957618713,0.17343221604824066,-0.19774484634399414],[0.37509188055992126,-0.006011689081788063,-0.1410984992980957,-0.22658605873584747,-0.09513812512159348,-0.13494716584682465,-0.16116012632846832,0.032855067402124405,-0.049256011843681335,-0.20526015758514404,-0.1025954857468605,0.12418238818645477,-0.34982946515083313,0.2944956123828888,-0.38468560576438904,-0.09238525480031967,0.016695493832230568,-0.2923305928707123,0.14746512472629547,0.25525426864624023,-0.1740366518497467,-0.08767532557249069,0.3247259557247162,-0.07617699354887009,-0.04896621033549309,-0.22621466219425201,-0.06411711126565933,0.15802545845508575,0.14609305560588837,0.24914667010307312,-0.015019076876342297,-0.07896196097135544,0.0743924230337143,-0.06655905395746231,-0.03497018665075302,0.31208324432373047,-0.16613660752773285,-0.27978280186653137,0.00762255908921361,0.05028049647808075,0.2670055031776428,0.2280447632074356,0.024826940149068832,0.15261918306350708,-0.17735812067985535,0.17652460932731628,0.0982501283288002,0.14676351845264435,-0.35731396079063416,0.06730186939239502,-0.14584404230117798,-0.005794092547148466,0.08874805271625519,0.16917406022548676,0.13062694668769836,-0.04747593030333519,-0.25139737129211426,-0.18438664078712463,-0.1099173054099083,-0.37936142086982727,-0.2758529782295227,0.23208412528038025,0.04667193815112114,-0.0931444764137268,0.26047277450561523,0.09944558888673782,0.0843583345413208,0.2284938097000122,-0.15863122045993805,-0.05975279211997986,-0.19117210805416107,-0.131294846534729,0.2604035437107086,-0.18986472487449646,-0.2765296697616577,-0.24885189533233643,-0.1691504567861557,-0.08468178659677505,-0.15834227204322815,-0.18041160702705383,0.18308140337467194,0.12982694804668427,0.24089188873767853,-0.06527378410100937,-0.18127821385860443,0.10795142501592636,-0.04637695103883743,0.006608785595744848,-0.049130138009786606,0.06999032944440842,-0.024611802771687508,0.18609797954559326,-0.07844485342502594,-0.42902451753616333,0.27029192447662354,-0.0878249928355217,0.12593574821949005,0.07421660423278809,0.05556592345237732,0.051653336733579636,0.16327303647994995,0.09608850628137589,-0.385036438703537,0.11534778773784637,0.13966090977191925,0.1151885837316513,-0.08214237540960312,0.22285111248493195,-0.19631412625312805,0.030266987159848213,0.07516195625066757,-0.402415007352829,0.15289737284183502,-0.10809829831123352,-0.1986098736524582,-0.20141296088695526,-0.3902207612991333,0.09762682020664215,-0.04146098718047142,0.05405818298459053,-0.2169341892004013,-0.06565289944410324,-0.2789774537086487,-0.22947704792022705,0.05467274785041809,-0.11775120347738266,-0.1170770525932312,-0.05897132307291031,-0.09642554819583893,-0.4212118089199066,-0.2194914072751999,-0.17613492906093597,-0.11389700323343277,-0.1592089980840683,-0.1058383584022522,0.17499330639839172,-0.11143697053194046,0.08924636244773865,0.05516666918992996,-0.1866072118282318,0.011404222808778286,0.04237623140215874,0.2812974750995636,-0.32225292921066284,-0.14581303298473358,-0.11896605044603348,-0.15894509851932526,0.10069287568330765,-0.0063628703355789185,0.15361332893371582,-0.23927465081214905,0.2234223634004593,-0.196541428565979,-0.19268791377544403,-0.21335117518901825,-0.6286143660545349,-0.11333353072404861,-0.0361529141664505,-0.038032323122024536,-0.03592570498585701,0.13508224487304688,-0.16040126979351044,0.16541333496570587,-0.22686564922332764,-0.1584518402814865,-0.3580242991447449,0.22035811841487885,0.10430676490068436,0.04078508913516998,0.13686680793762207,0.06707287579774857,0.36701297760009766,0.2268071323633194,0.1605626940727234,0.24823972582817078,0.38047027587890625,-0.057028334587812424,0.2276640385389328,-0.02983981929719448,0.11642901599407196,0.2389407902956009,0.20766738057136536,0.3434426784515381,0.05590038374066353,-0.2107178121805191,-0.004976265132427216,0.27421849966049194,0.03720040246844292,0.018595952540636063,-0.130342036485672,-0.14165590703487396,0.1201111450791359,0.06515833735466003,-0.038475487381219864,0.13496002554893494,-0.31788355112075806,-0.26511991024017334,-0.06352859735488892,0.04289808124303818,-0.20993010699748993,-0.05067514628171921,-0.026594998314976692,-0.4349525272846222,0.24840587377548218,-0.06865506619215012,-0.04444241523742676,-0.062393851578235626,0.013794740661978722,0.28827351331710815,-0.02795395627617836,0.14804773032665253,0.18690530955791473,0.1502944976091385,0.11352192610502243,0.2912335991859436,-0.10089080780744553,0.22816017270088196,-0.3410029709339142,-0.001689153490588069,0.2414962649345398,-0.08288450539112091,-0.1650945246219635,0.29545217752456665,-0.003614419838413596,-0.11114420741796494,0.06468967348337173,-0.04997013136744499,-0.16377539932727814,0.33241504430770874,0.13416463136672974,-0.1614152193069458,0.3509598970413208,0.16798684000968933,0.23586787283420563,0.238491952419281,0.18423312902450562,-0.013265023939311504,-0.108790323138237,-0.06513677537441254,-0.051932383328676224,0.036834076046943665,-0.0418769046664238,-0.20554514229297638,0.12203094363212585,-0.17501722276210785,0.12628614902496338,0.12614384293556213,-0.128160297870636,0.07602495700120926,0.333874374628067,0.0991358608007431,-0.18706776201725006,-0.32484015822410583,0.2957092225551605,0.10021736472845078,-0.048750635236501694],[0.3172762095928192,-0.006951744202524424,-0.26130229234695435,0.0882980152964592,-0.18058201670646667,-0.2319798618555069,-0.062154922634363174,-0.013125026598572731,0.02427995391190052,0.04298429191112518,0.06003532186150551,0.14547523856163025,-0.24837557971477509,-0.1120942160487175,0.09511084109544754,0.06337340176105499,0.007448613177984953,0.24065469205379486,-0.08782051503658295,-0.22656294703483582,-0.22773981094360352,0.02896806038916111,-0.08609592914581299,-0.10906515270471573,-0.6027131676673889,-0.3072388470172882,-0.2207198441028595,-0.1497420221567154,0.06277506053447723,-0.18553777039051056,-0.05544132739305496,0.3253631293773651,-0.13092900812625885,-0.4896899163722992,-0.022035550326108932,-0.10596810281276703,-0.0232856348156929,-0.18783755600452423,-0.47151675820350647,0.10807299613952637,0.16705220937728882,-0.19105535745620728,-0.14987125992774963,0.19407115876674652,0.15724413096904755,-0.18782633543014526,-0.23886844515800476,-0.24271361529827118,-0.023197785019874573,0.0020242948085069656,-0.09621460735797882,0.12528091669082642,0.061140984296798706,0.08129202574491501,0.17865417897701263,-0.18395258486270905,-0.05245761200785637,-0.12172740697860718,-0.17612917721271515,0.08265873044729233,-0.11796256899833679,0.018484529107809067,0.1573198139667511,0.000986349186860025,0.12004147469997406,0.03637245297431946,0.11591330170631409,0.06709335744380951,-0.08802937716245651,-0.1498214453458786,-0.017727460712194443,-0.18062035739421844,-0.023738641291856766,-0.1382548063993454,0.04877858608961105,-0.16212163865566254,-0.26453348994255066,-0.2561545670032501,0.009924979880452156,-0.06533169001340866,-0.3262350261211395,0.023045429959893227,-0.2298315465450287,0.11716365069150925,-0.08548914641141891,0.055480677634477615,-0.23946644365787506,0.09711483120918274,0.14033499360084534,-0.09548015147447586,-0.3217143714427948,-0.1509268432855606,-0.3255094587802887,0.14534296095371246,-0.09727795422077179,-0.06977424770593643,-0.2309647798538208,0.06862971186637878,-0.2087089717388153,-0.06608333438634872,-0.12388431280851364,-0.3163629472255707,-0.163833886384964,-0.07326173782348633,-0.19383373856544495,-0.3199859857559204,0.2773508131504059,-0.11792615801095963,0.02199958823621273,0.03389175608754158,0.3263819217681885,-0.11191842705011368,-0.01519440021365881,-0.03325491398572922,-0.005581818055361509,0.1598152369260788,-0.2552673816680908,-0.140182226896286,-0.23382848501205444,0.05823782458901405,-0.034633200615644455,0.11226421594619751,-0.27732089161872864,-0.25884658098220825,-0.5484543442726135,0.36280691623687744,-0.33669060468673706,0.16195553541183472,-0.16244609653949738,0.003481939435005188,0.15429626405239105,0.029548564925789833,-0.22790373861789703,-0.07599715143442154,-0.109145388007164,0.03664286434650421,0.02005590870976448,0.06795249879360199,-0.027335049584507942,-0.15113940834999084,0.17139382660388947,0.09499987959861755,-0.020397773012518883,-0.032388459891080856,-0.1252492219209671,-0.19927750527858734,0.05844526365399361,-0.05816440284252167,-0.20356976985931396,0.165256068110466,-0.17676343023777008,-0.0624752938747406,0.11134450882673264,-0.091375432908535,-0.05556712672114372,-0.3170541226863861,0.20616868138313293,-0.10971560329198837,-0.09688110649585724,-0.12508231401443481,0.3669743537902832,0.11648891866207123,-0.4056068956851959,-0.09845997393131256,0.21368184685707092,0.04897930845618248,-0.4199238717556,-0.08885778486728668,-0.22443470358848572,0.11448756605386734,-0.11072195321321487,0.14247728884220123,0.11456765234470367,0.06593649089336395,-0.035577207803726196,0.0001748042122926563,-0.017445683479309082,-0.03616178408265114,-0.20204582810401917,-0.054923053830862045,0.17768684029579163,0.012607789598405361,0.04941599816083908,-0.14813436567783356,-0.17388473451137543,-0.37976518273353577,0.06265955418348312,0.35719582438468933,-0.2436629831790924,0.06602741032838821,-0.12062098830938339,0.05059269070625305,-0.15541905164718628,-0.13616393506526947,0.12269694358110428,0.306106835603714,0.08910157531499863,-0.07745726406574249,0.0874810591340065,0.24161936342716217,0.06775669753551483,0.20206111669540405,-0.06443808972835541,-0.1776634305715561,-0.36080390214920044,-0.314371258020401,0.0531526654958725,0.06210535019636154,0.13184815645217896,-0.001636408269405365,0.13531310856342316,-0.12454712390899658,-0.07978995144367218,0.07729283720254898,-0.20067180693149567,-0.01960073597729206,-0.1004333570599556,-0.397148072719574,-0.13241617381572723,0.08861459791660309,0.2158304750919342,-0.4974808990955353,-0.0734625831246376,-0.23322831094264984,0.06478337943553925,-0.1612631380558014,-0.08610838651657104,0.006793388165533543,0.1731693297624588,-0.10414659231901169,-0.2715148329734802,0.3328191041946411,0.05330126732587814,-0.09699346125125885,0.08086321502923965,-0.02084648236632347,-0.09346402436494827,0.19201473891735077,0.07023859769105911,-0.08806063234806061,-0.14582104980945587,0.055659081786870956,-0.22523601353168488,-0.33697056770324707,-0.0640382245182991,0.23180726170539856,-0.3058643043041229,-0.10240649431943893,-0.037620872259140015,0.01246250793337822,-0.12963996827602386,-0.255917489528656,0.24236488342285156,0.08230547606945038,0.05634676665067673,-0.03726310282945633],[-0.04973138868808746,0.2414800375699997,-0.04697896167635918,-0.08641346544027328,0.18215206265449524,-0.018830440938472748,-0.15382108092308044,0.08948805928230286,-0.2223661243915558,-0.317579448223114,0.14560016989707947,0.1952650099992752,0.02968667261302471,0.1167054995894432,0.3298287093639374,0.19481268525123596,-0.05839844420552254,0.14075307548046112,-0.041746389120817184,0.27064839005470276,-0.18577264249324799,0.029900994151830673,-0.10029236972332001,0.08741018921136856,0.19149158895015717,-0.01742645725607872,-0.03825673833489418,-0.23527544736862183,-0.09253425896167755,0.461796373128891,-0.01249344926327467,-0.12434086203575134,0.3856237828731537,0.08990097045898438,0.30476614832878113,0.11253941059112549,0.01918419450521469,-0.13828587532043457,-0.03431297466158867,-0.04841877520084381,-0.46247443556785583,-0.05671989545226097,-0.1628957986831665,-0.01230439729988575,0.06408379226922989,-0.10505998879671097,0.054777342826128006,-0.21551796793937683,0.01388268731534481,0.313358873128891,0.028046052902936935,-0.10338988900184631,0.01137634925544262,0.033167414367198944,0.03748740628361702,0.19080901145935059,-0.07039360702037811,0.03844333067536354,-0.022141093388199806,-0.13728031516075134,-0.03992970660328865,-0.0032968781888484955,-0.01574082300066948,0.19819042086601257,0.008495423942804337,0.356218159198761,0.1405533403158188,0.25629910826683044,0.03997933119535446,-0.10517168045043945,-0.2568013072013855,0.3094441294670105,0.1910567730665207,-0.10259765386581421,-0.04815361276268959,-0.004504087846726179,-0.05124262720346451,0.21825015544891357,0.23602202534675598,0.16125687956809998,0.17724069952964783,-0.012299871072173119,-0.09618020057678223,-0.3092125952243805,0.12013501673936844,0.044364675879478455,0.12870356440544128,0.06413361430168152,-0.03621404990553856,0.41025790572166443,-0.041442617774009705,0.1928737759590149,0.29428181052207947,0.03438496217131615,0.2522265613079071,0.014935394749045372,0.16671234369277954,0.24738158285617828,0.1350414752960205,0.2102643996477127,0.416502982378006,0.2568672299385071,0.054021939635276794,0.2945551574230194,0.18408836424350739,-0.1096794456243515,0.09253448992967606,0.04550553113222122,-0.4448647201061249,-0.038394633680582047,0.2307453602552414,0.062037043273448944,-0.07074285298585892,-0.03711903840303421,0.06753192842006683,-0.2049751579761505,0.15318883955478668,0.1715063601732254,0.5757750272750854,-0.20395000278949738,-0.20575807988643646,0.08103793114423752,0.21510359644889832,0.10334904491901398,-0.2589583992958069,0.018259428441524506,0.24635039269924164,0.16958922147750854,0.07003679126501083,0.12878252565860748,-0.12085896730422974,-0.3496367037296295,0.11424733698368073,-0.03230654075741768,0.06369511783123016,-0.137845978140831,0.05117279291152954,0.4151591658592224,0.3322439193725586,-0.04246985539793968,0.013722375966608524,0.3031656742095947,-0.018883345648646355,0.05082358792424202,-0.14409403502941132,-0.2173166126012802,0.053011421114206314,0.1931850016117096,0.30090129375457764,0.07175879925489426,0.3179924786090851,-0.13753661513328552,0.07389579713344574,-0.14377517998218536,0.2660137712955475,0.12353789061307907,0.09260454773902893,-0.0054734149016439915,0.050436001271009445,0.07997852563858032,0.4465089440345764,-0.1306091547012329,-0.17796969413757324,0.14465667307376862,0.20193113386631012,0.05841395631432533,0.36717870831489563,-0.013258496299386024,0.1295839548110962,0.17459972202777863,0.19965529441833496,0.1990685611963272,-0.0854947417974472,0.17206896841526031,0.12894481420516968,-0.005723816808313131,-0.04894087463617325,-0.3238898515701294,0.16821937263011932,-0.10223482549190521,0.031500693410634995,0.485873818397522,0.22142083942890167,0.3169051706790924,-0.05282575264573097,-0.14949476718902588,-0.11934372782707214,0.3854181468486786,0.049728427082300186,0.07889926433563232,0.29801130294799805,0.4679344594478607,-0.09579724818468094,0.05708141624927521,0.02831476368010044,0.23270080983638763,0.18074730038642883,-0.158269003033638,-0.014906594529747963,-0.11169974505901337,0.1053888276219368,0.0649639144539833,0.34358686208724976,0.15383362770080566,-0.29976215958595276,-0.058290332555770874,0.11310720443725586,0.1129317358136177,0.11313963681459427,0.14696107804775238,-0.0820431262254715,-0.2659604847431183,-0.030111413449048996,-0.058867018669843674,0.17182615399360657,0.15518242120742798,0.5043579339981079,-0.04915587976574898,-0.013848569244146347,0.080314040184021,-0.047351449728012085,0.08162718266248703,-0.06082676351070404,-0.12213394045829773,0.18936438858509064,0.0008977808174677193,-0.010323993861675262,-0.245480015873909,-0.0909983292222023,0.16680371761322021,-0.3972284197807312,0.13222280144691467,0.10930626839399338,0.38487154245376587,-0.03950181230902672,0.19202546775341034,-0.3380149006843567,-0.02093777060508728,0.13403640687465668,0.2584141194820404,0.2831774055957794,-0.1768970638513565,0.1771283596754074,-0.11605869978666306,0.06281119585037231,-0.11111655086278915,0.12430638074874878,0.24573169648647308,0.3674095869064331,0.40184319019317627,0.10162369161844254,0.017126930877566338,0.13013428449630737,0.19295360147953033,0.04781099781394005,0.073944091796875],[-0.1091381087899208,0.0890781432390213,0.17936129868030548,-0.08831534534692764,0.18873795866966248,0.07213170826435089,-0.005102027673274279,0.029640760272741318,0.20098526775836945,0.014831344597041607,0.19912582635879517,-0.08594902604818344,0.0712641030550003,-0.19562458992004395,-0.498270183801651,0.012509169988334179,0.12521257996559143,-0.27415913343429565,-0.14144881069660187,0.031054779887199402,0.14267390966415405,-0.3192730247974396,0.09888788312673569,0.12936486303806305,-0.10783237218856812,0.03923879563808441,-0.18872548639774323,0.28261739015579224,0.07561719417572021,-0.12274369597434998,0.0412735678255558,0.011004284955561161,0.1686244010925293,-0.0984068512916565,0.2646019160747528,-0.012828408740460873,-0.23209546506404877,-0.2050187885761261,-0.17417094111442566,-0.09950341284275055,-0.16360074281692505,-0.1229858249425888,0.01718761958181858,0.05861927196383476,0.014488059096038342,-0.1723574548959732,-0.15831103920936584,0.1096995398402214,-0.2088162899017334,0.07255133241415024,0.058677997440099716,-0.10097406059503555,-0.2200077772140503,0.07116536051034927,0.04941357672214508,0.07961127907037735,-0.15036024153232574,-0.12910442054271698,-0.034120094031095505,-0.3024754226207733,0.07585513591766357,-0.15130800008773804,-0.013601148501038551,-0.07320324331521988,0.03810812160372734,0.06011568382382393,0.16045399010181427,0.2870241403579712,-0.08139107376337051,-0.017324157059192657,0.03848520666360855,-0.003681180067360401,0.05287521332502365,-0.01687345840036869,0.17225497961044312,0.1670575886964798,-0.06985195726156235,-0.3313879668712616,0.04567011818289757,-0.18759910762310028,0.20161490142345428,0.21483422815799713,-0.16746647655963898,0.21709299087524414,0.12083425372838974,-0.1021881252527237,-0.1437494158744812,0.04483865201473236,0.21738818287849426,0.05838548392057419,0.16737349331378937,-0.21500742435455322,-0.02930791862308979,0.006115103140473366,0.2961364984512329,-0.08362047374248505,0.3097321093082428,-0.07229888439178467,0.22899390757083893,-0.17845742404460907,-0.045626867562532425,-0.08690711110830307,-0.3061906099319458,0.07961905002593994,0.20893548429012299,-0.3272950053215027,0.31723639369010925,0.2227782905101776,0.27673372626304626,-0.1523873507976532,0.12694542109966278,0.029295524582266808,-0.3007050156593323,-0.38684773445129395,-0.07823370397090912,-0.20347733795642853,-0.20617908239364624,0.030595118179917336,0.17649459838867188,-0.20873603224754333,-0.25448426604270935,-0.11684320122003555,-0.05790691822767258,-0.12910546362400055,0.08839136362075806,-0.01764000952243805,-0.16243448853492737,-0.11460965126752853,-0.06535518169403076,-0.28524962067604065,0.199531689286232,0.16093192994594574,0.18987588584423065,-0.20814460515975952,-0.005809583701193333,-0.020372075960040092,0.15365451574325562,0.04253203421831131,-0.2346675992012024,0.01689876616001129,0.30923545360565186,-0.04252170771360397,0.15253318846225739,-0.22513383626937866,0.03857102617621422,-0.1130082830786705,0.04649162292480469,-0.02116605080664158,-0.33021819591522217,0.17649658024311066,-0.21841154992580414,-0.126870796084404,-0.17584677040576935,-0.03638483211398125,-0.3830100893974304,0.06159580871462822,-0.30978912115097046,0.023648416623473167,-0.1888415366411209,-0.15493333339691162,0.28477907180786133,-0.23863744735717773,0.027459172531962395,-0.013133051805198193,-0.03986417129635811,-0.07189591228961945,0.21807736158370972,0.16368147730827332,-0.3636689782142639,0.0690237358212471,-0.05309712886810303,-0.04868471622467041,0.07550779730081558,-0.17546728253364563,-0.053784798830747604,-0.06648015230894089,-0.11630303412675858,-0.11496657878160477,-0.12995630502700806,-0.2613178789615631,-0.03752012178301811,-0.03690541908144951,0.1276066154241562,-0.043438881635665894,-0.022726189345121384,-0.17892244458198547,-0.2640696167945862,0.11344876885414124,-0.11818183213472366,-0.18233676254749298,-0.12809589505195618,-0.12497998028993607,0.07855822145938873,0.05941928178071976,-0.27494537830352783,0.11703000962734222,-0.25704658031463623,-0.3062296211719513,0.3012949824333191,-0.04191196337342262,-0.057050999253988266,-0.4502438008785248,0.23477162420749664,-0.18469566106796265,-0.2036086916923523,0.17433172464370728,-0.20508147776126862,-0.16618043184280396,-0.1925783008337021,0.011340352706611156,0.03320891410112381,-0.2283068299293518,-0.3109778165817261,0.20657004415988922,-0.22122500836849213,-0.29266610741615295,-0.2467467039823532,0.06586673855781555,-0.2723882496356964,-0.19236885011196136,-0.010691307485103607,0.09308762103319168,-0.37020382285118103,-0.17431248724460602,-0.2722749412059784,0.0033008819445967674,0.22067072987556458,0.016780389472842216,-0.152788907289505,-0.2606046497821808,0.12526150047779083,-0.1614072173833847,0.23439981043338776,0.1216258630156517,0.23653413355350494,-0.048453766852617264,0.07274294644594193,0.18484634160995483,0.30502742528915405,-0.1473386138677597,-0.12962499260902405,-0.12808504700660706,0.2817077934741974,-0.2054484337568283,0.12497799098491669,-0.1444869041442871,-0.028901413083076477,0.0883006602525711,-0.36579400300979614,-0.22725951671600342,-0.2993896007537842,-0.2692447304725647,0.16908733546733856,-0.18651455640792847,0.14183266460895538,0.0074732424691319466],[0.1726808398962021,0.03912246227264404,-0.38660162687301636,0.030250390991568565,-0.12487101554870605,-0.21948356926441193,-0.1462886780500412,0.07735580205917358,-0.09788747876882553,-0.10425075143575668,-0.08275863528251648,-0.31235989928245544,0.04168988764286041,0.017144134268164635,-0.06518297642469406,-0.0912197008728981,-0.130032017827034,-0.22189505398273468,-0.24917548894882202,-0.23149794340133667,-0.13602414727210999,0.2926134169101715,-0.1591591238975525,-0.1502518653869629,0.3658033311367035,0.04669059067964554,-0.19823023676872253,-0.14659763872623444,-0.04762360826134682,-0.14676183462142944,-0.06552138924598694,-0.06381120532751083,-0.1575610637664795,0.09385058283805847,-0.016199465841054916,-0.013794767670333385,-0.051040541380643845,0.020313717424869537,-0.15215815603733063,-0.6013445854187012,0.019022541120648384,-0.11944255232810974,-0.26437410712242126,-0.16490544378757477,0.19546206295490265,0.24330396950244904,-0.1453430950641632,0.03901812434196472,0.045174531638622284,-0.18929250538349152,0.025157703086733818,0.13813787698745728,-0.38240620493888855,-0.2930866479873657,-0.16034910082817078,-0.010683458298444748,-0.019233141094446182,0.25264984369277954,-0.08591629564762115,0.2626417279243469,-0.2646309435367584,-0.19402098655700684,-0.08897178620100021,-0.2510811686515808,-0.005842866376042366,0.2779685854911804,-0.017781158909201622,-0.2103824019432068,0.12954889237880707,0.1455506980419159,-0.04287576675415039,0.09526629745960236,-0.0988331288099289,-0.1926681250333786,0.11449537426233292,0.18730899691581726,-0.18476341664791107,-0.6017090082168579,-0.0741632953286171,0.2659592926502228,-0.3766014277935028,0.04829386621713638,0.0464639887213707,0.3565940260887146,-0.1152762621641159,0.4421986937522888,0.1330476552248001,-0.06113316863775253,0.02895970456302166,-0.11358802765607834,0.06453199684619904,-0.2119426280260086,-0.060948871076107025,-0.22545476257801056,0.3009914755821228,-0.2780754566192627,0.11953016370534897,-0.20328646898269653,-0.32803449034690857,-0.042062774300575256,-0.2747809588909149,-0.15795226395130157,0.051952064037323,-0.011017221957445145,-0.01237989030778408,0.3033240735530853,-0.0772598460316658,-0.20328469574451447,-0.06302811950445175,0.5540062785148621,-0.03636493906378746,-0.11119655519723892,-0.04135877639055252,0.12516877055168152,0.19002887606620789,-0.13065223395824432,0.2524077594280243,0.16006915271282196,-0.011306647211313248,0.303244024515152,0.20171256363391876,-0.06409330666065216,-0.03401385247707367,-0.17124362289905548,0.07817567139863968,0.00128648872487247,0.43575459718704224,-0.20582886040210724,-0.14212551712989807,-0.13036412000656128,-0.04173121973872185,-0.008122825995087624,-0.05907914415001869,-0.20136894285678864,-0.2726079821586609,0.07715451717376709,-0.034123290330171585,0.1943439394235611,-0.13747864961624146,0.005348125472664833,-0.044493306428194046,0.09559141099452972,-0.01818469539284706,-0.26536136865615845,-0.07760950922966003,0.23385588824748993,-0.17311298847198486,0.2796946167945862,0.2337435781955719,-0.027137918397784233,0.3505506217479706,-0.18849919736385345,0.15211695432662964,-0.10221567749977112,-0.04499329254031181,0.2922634780406952,-0.06364520639181137,0.08898255974054337,-0.00821734219789505,-0.040760595351457596,0.04756748303771019,0.04338047653436661,-0.35506969690322876,-0.44209614396095276,-0.04970085620880127,0.044241998344659805,0.025850940495729446,0.10583239048719406,0.009784591384232044,-0.1589747667312622,0.10957245528697968,0.29785075783729553,-0.08191773295402527,-0.2261732518672943,-0.11178477853536606,0.12706796824932098,-0.0361119844019413,0.08215374499559402,-0.05935775116086006,0.001491869450546801,0.3981758654117584,-0.0010978057980537415,0.04273206740617752,0.3167162537574768,-0.20425178110599518,0.028502246364951134,-0.11462732404470444,-0.033066436648368835,0.39191409945487976,-0.00718708848580718,-0.30141764879226685,-0.24848413467407227,-0.19980396330356598,-0.4259722828865051,0.13382403552532196,0.001236581476405263,-0.0669269785284996,-0.32908764481544495,0.06743130832910538,0.35125604271888733,0.024491047486662865,-0.034521184861660004,0.15847423672676086,-0.020897675305604935,0.2150481790304184,0.1665792167186737,-0.19043810665607452,0.46451714634895325,-0.21304848790168762,0.05321630835533142,0.3634054362773895,0.1758725345134735,-0.27446654438972473,0.1454409658908844,0.04573177918791771,0.5075358748435974,0.005138551816344261,-0.13100136816501617,0.1717149317264557,-0.44121477007865906,-0.047849658876657486,-0.04726508632302284,-0.10900602489709854,0.11902198195457458,-0.010218768380582333,-0.02941593900322914,0.20229004323482513,0.14861427247524261,-0.09833606332540512,-0.035729993134737015,-0.12250614911317825,0.05953007936477661,-0.18706223368644714,0.0937316045165062,-0.06389769911766052,0.16446472704410553,-0.34913334250450134,0.11103656142950058,-0.12116032093763351,-0.21304510533809662,-0.06111454591155052,-0.1768379956483841,-0.21219371259212494,-0.0540456585586071,-0.1632504165172577,-0.014991519041359425,-0.03624813258647919,0.11062045395374298,0.08440406620502472,0.07940090447664261,0.07474694401025772,0.0924648642539978,0.2219613641500473,0.07805952429771423,-0.29232144355773926,-0.011931529268622398],[-0.1681513786315918,0.010049412027001381,-0.14822770655155182,-0.04921834543347359,-0.03182538226246834,-0.06346428394317627,-0.10362645238637924,-0.17880874872207642,0.06303312629461288,-0.029392048716545105,0.016358722001314163,0.06444309651851654,-0.19619598984718323,-0.02707369066774845,-0.2490900456905365,0.0019971870351582766,-0.08461461216211319,0.025778429582715034,-0.010353494435548782,-0.13478060066699982,-0.1792314499616623,-0.06261362135410309,0.1654641330242157,-0.15578916668891907,-0.14609380066394806,0.034166909754276276,0.053805235773324966,-0.06728336215019226,-0.2775353789329529,-0.1019212007522583,-0.0509071983397007,-0.23543240129947662,0.018235797062516212,0.01725347898900509,0.2783243954181671,-0.40683066844940186,-0.32645586133003235,0.11403124779462814,-0.07921746373176575,-0.00761782331392169,-0.08825620263814926,0.19038958847522736,0.12760497629642487,-0.29264286160469055,0.14776469767093658,0.21391548216342926,0.047787949442863464,0.049567390233278275,0.07143726199865341,-0.14248497784137726,-0.17045541107654572,-0.22874309122562408,0.26836302876472473,0.06707054376602173,-0.2184135466814041,-0.14740021526813507,0.2299622744321823,-0.22851210832595825,0.10675814002752304,0.03414738550782204,0.25698626041412354,0.01037632767111063,0.08059392124414444,0.16105380654335022,0.1142745167016983,0.15256989002227783,0.03915047273039818,-0.1716756969690323,0.1812399923801422,-0.18843112885951996,0.04578070715069771,0.016658751294016838,-0.056666962802410126,-0.126249760389328,-0.0338495709002018,-0.00018311415624339134,0.05898670852184296,-0.03831465169787407,-0.025929398834705353,0.005848891567438841,-0.0938352569937706,-0.22813346982002258,0.2471017688512802,-0.07099658250808716,-0.21169205009937286,-0.09757837653160095,-0.10486137866973877,0.2675556540489197,-0.06640754640102386,-0.31866273283958435,-0.11936020851135254,-0.13053610920906067,-0.3569434583187103,-0.15557587146759033,-0.18561778962612152,-0.15075017511844635,0.21115237474441528,-0.1369493454694748,-0.0749688372015953,-0.4294265806674957,-0.34749290347099304,0.07333545386791229,0.03633018210530281,0.17503049969673157,0.07708089798688889,0.07544074207544327,0.19281965494155884,-0.14903520047664642,-0.11520731449127197,0.08742303401231766,0.033538516610860825,0.10320618003606796,-0.12124059349298477,0.09288662672042847,-0.13703304529190063,0.03110637702047825,-0.12891055643558502,-0.04486088827252388,0.06367332488298416,-0.26393404603004456,-0.17170560359954834,-0.04391627758741379,0.3439447283744812,-0.1501195728778839,-0.08675523102283478,-0.12953904271125793,-0.48844021558761597,-0.2536410689353943,0.24050042033195496,0.26715347170829773,0.2935403883457184,-0.21483546495437622,-0.27427399158477783,-0.038224685937166214,-0.07061952352523804,-0.05893588066101074,-0.07393692433834076,-0.08322048932313919,0.09826797246932983,-0.12963856756687164,-0.24700865149497986,0.024448193609714508,-0.11779416352510452,0.07614500820636749,-0.1849372535943985,0.13367755711078644,0.12558341026306152,-0.15869559347629547,-0.0280314814299345,-0.1916615515947342,-0.1908266395330429,-0.015675798058509827,-0.07987087965011597,-0.18249517679214478,0.00852245558053255,0.18505297601222992,-0.21344120800495148,-0.07808469235897064,-0.077358178794384,0.07731141895055771,-0.2515733540058136,-0.15435288846492767,0.06981080025434494,0.17130830883979797,-0.07044082134962082,0.36836928129196167,0.22981563210487366,-0.03886246308684349,0.19404439628124237,-0.2852708101272583,-0.36183857917785645,-0.5061480402946472,-0.27990955114364624,-0.07064099609851837,-0.3390660285949707,0.09117120504379272,-0.11554725468158722,0.15442751348018646,0.01914587989449501,-0.03778138756752014,-0.1355219930410385,-0.14115062355995178,-0.15543948113918304,-0.2755875885486603,0.20328837633132935,0.018939388915896416,-0.17553988099098206,0.005010765511542559,-0.32791945338249207,-0.010320445522665977,0.1248851791024208,0.05898922681808472,-0.0910084992647171,-0.18644019961357117,0.02214777283370495,-0.2813211679458618,-0.20924115180969238,-0.02532176300883293,-0.05068514123558998,-0.13511864840984344,0.006905903574079275,-0.050620187073946,-0.040553681552410126,0.12040261179208755,-0.1883252114057541,-0.16513021290302277,-0.39258432388305664,-0.29248616099357605,0.13105757534503937,-0.010463297367095947,-0.048848707228899,-0.06363899260759354,-0.08542874455451965,-0.10160937905311584,-0.07732491940259933,0.0018442629370838404,0.003819538513198495,0.16070647537708282,-0.013168912380933762,-0.26974916458129883,0.01107798982411623,-0.07565949857234955,-0.19765262305736542,-0.09406643360853195,-0.12026118487119675,0.015541638247668743,0.34885141253471375,-0.06793822348117828,0.17589549720287323,-0.10564679652452469,-0.014266273938119411,0.15823103487491608,0.0611436627805233,0.053286854177713394,-0.09921755641698837,-0.09447877109050751,0.01570718362927437,0.04495801031589508,0.05344703420996666,-0.08866554498672485,0.003167990827932954,-0.13532547652721405,-0.07487552613019943,0.09156086295843124,0.16999885439872742,-0.2665317952632904,0.03713911771774292,-0.2017614245414734,-0.08857496082782745,-0.4794369339942932,-0.16363976895809174,-0.039518456906080246,-0.0579155832529068,0.2671698033809662,0.1841587871313095,0.06094535440206528],[-0.0033775141928344965,-0.24529336392879486,-0.21756473183631897,-0.038591962307691574,0.03038833849132061,0.013913309201598167,-0.2531040608882904,-0.013074293732643127,-0.207443505525589,0.05939202755689621,-0.2022884041070938,-0.1428517997264862,-0.06699411571025848,0.030140461400151253,0.001279396004974842,-0.06296494603157043,-0.22954842448234558,-0.023976346477866173,-0.2364099621772766,-0.038533538579940796,-0.0035396795719861984,-0.19254083931446075,-0.387187123298645,-0.06015856936573982,-0.08045396208763123,0.2648327052593231,-0.33730605244636536,-0.10721652954816818,-0.23189321160316467,-0.052630212157964706,0.23268483579158783,-0.01685510389506817,-0.19430318474769592,-0.3158431053161621,-0.17370498180389404,-0.15743336081504822,-0.14108766615390778,-0.11589121073484421,-0.14194153249263763,-0.2998020648956299,-0.04391752555966377,-0.061486124992370605,-0.10363050550222397,-0.08072099834680557,-0.10983788222074509,-0.2855204641819,0.015070063062012196,-0.06178155913949013,0.30095285177230835,-0.07569899410009384,0.029745863750576973,-0.007811468094587326,0.02096523717045784,0.034144315868616104,-0.023427031934261322,-0.161955788731575,-0.12057650089263916,-0.07429186254739761,-0.24725252389907837,-0.020969418808817863,-0.012574717402458191,-0.08234631270170212,-0.2451399713754654,0.3799987733364105,-0.19935181736946106,0.06803815811872482,-0.16572381556034088,0.05058504641056061,-0.1860620379447937,-0.026984039694070816,0.024173730984330177,-0.3150014877319336,0.26391327381134033,-0.10567732900381088,-0.11860212683677673,0.07959068566560745,0.04835134372115135,0.004798070061951876,0.03675181791186333,-0.29277467727661133,0.018590722233057022,-0.02635660581290722,-0.1379876285791397,0.318598210811615,-0.16457150876522064,-0.11277351528406143,0.19625496864318848,-0.07380817085504532,-0.18901734054088593,-0.23458664119243622,-0.41625240445137024,0.031099572777748108,0.01990916021168232,0.032473206520080566,0.01996866799890995,-0.17543768882751465,-0.18272364139556885,-0.1128021776676178,-0.13665975630283356,-0.23728998005390167,-0.06675336509943008,0.07996366918087006,-0.1411260962486267,0.06972404569387436,-0.0563758984208107,-0.19706669449806213,0.02954614907503128,-0.24332097172737122,-0.11583434045314789,0.13588157296180725,-0.02724074386060238,-0.0710102915763855,-0.004099258221685886,-0.46622756123542786,-0.17901775240898132,0.0868922621011734,0.25021839141845703,-0.23942717909812927,-0.18089468777179718,0.1520596444606781,-0.21444059908390045,-0.07914882898330688,0.12025761604309082,-0.17663416266441345,-0.2522837817668915,-0.02318074181675911,-0.36872315406799316,-0.135623499751091,-0.37756043672561646,-0.09815479069948196,-0.07553193718194962,0.6404337286949158,0.08567455410957336,0.04254411906003952,-0.1272299885749817,-0.1575070023536682,-0.1257409304380417,-0.35306793451309204,0.41213974356651306,-0.07282120734453201,-0.004751040134578943,-0.37874022126197815,-0.08904629200696945,-0.10348280519247055,-0.2849237322807312,0.09250924736261368,-0.24632427096366882,-0.21553167700767517,0.1480640470981598,-0.15476001799106598,0.10316875576972961,-0.2121020406484604,0.06317541003227234,-0.06520131230354309,0.028521263971924782,0.22532323002815247,-0.3760535717010498,-0.270015150308609,-0.23891668021678925,-0.01045249029994011,-0.1738007813692093,0.05065484344959259,-0.08156031370162964,0.18869233131408691,0.026495499536395073,-0.034209150820970535,0.30325475335121155,0.015590304508805275,0.024874715134501457,-0.08612130582332611,-0.034280627965927124,0.007476377300918102,-0.14132802188396454,0.1117628961801529,-0.1726498156785965,-0.11898726969957352,-0.18163925409317017,-0.2912522554397583,-0.16601420938968658,0.2290131151676178,-0.29437893629074097,0.08753025531768799,-0.15387001633644104,-0.10421423614025116,0.05322328582406044,-0.07734639197587967,-0.13120801746845245,-0.11754528433084488,0.2037144899368286,0.07027816772460938,-0.22744837403297424,-0.2159588783979416,0.1535833477973938,0.271220862865448,-0.17071330547332764,0.21387511491775513,-0.26251888275146484,-0.05406976118683815,-0.29820486903190613,0.30882900953292847,0.266254723072052,0.1349809467792511,-0.19369444251060486,0.071153923869133,-0.1150524839758873,-0.09978361427783966,0.09753571450710297,0.13823357224464417,-0.12058224529027939,-0.08576700091362,-0.05201556906104088,-0.14762859046459198,-0.001265128143131733,-0.30015337467193604,-0.05071655288338661,0.011819576844573021,0.11228029429912567,0.0963999480009079,-0.16749155521392822,-0.16688357293605804,-0.13558095693588257,-0.07073258608579636,0.06848757714033127,-0.21944157779216766,-0.33764907717704773,-0.19283102452754974,-0.18983854353427887,-0.05648268386721611,0.15699085593223572,-0.20574109256267548,0.2301037609577179,-0.10665503889322281,-0.28914541006088257,-0.14813102781772614,0.22832824289798737,-0.20824867486953735,-0.07707227766513824,-0.016374025493860245,0.01671570912003517,-0.13517716526985168,-0.13847658038139343,-0.03702910616993904,-0.08851933479309082,0.040752727538347244,-0.0328981950879097,0.2517193555831909,-0.1436770111322403,0.2738341987133026,0.012631252408027649,-0.15246902406215668,0.03274150192737579,0.08965960144996643,0.03704020380973816,0.0008378018392249942,-0.01681867055594921,-0.13459210097789764],[-0.028118854388594627,-0.034012362360954285,-0.22407034039497375,-0.037444233894348145,-0.20370197296142578,0.13402527570724487,-0.3567446172237396,-0.0020445778500288725,-0.09131160378456116,-0.03721935302019119,-0.3671293556690216,-0.08079815655946732,-0.16728825867176056,-0.1278187334537506,0.11221972107887268,-0.2765575647354126,0.08693823963403702,-0.16886474192142487,0.014860506169497967,-0.007486633025109768,-0.25399473309516907,-0.44316715002059937,-0.3545791208744049,-0.08613522350788116,-0.3129272758960724,0.15793190896511078,-0.03632223606109619,0.04937901347875595,0.04013458639383316,0.26080256700515747,-0.07093186676502228,-0.07804645597934723,-0.048849716782569885,-0.22716468572616577,-0.027459383010864258,0.0588032491505146,0.31558576226234436,-0.5378463268280029,-0.3284548819065094,0.23693127930164337,0.01628933660686016,0.1275302916765213,0.04635068401694298,-0.08711154758930206,-0.14283330738544464,-0.24118563532829285,0.13456246256828308,0.27317333221435547,-0.1221650019288063,-0.23959271609783173,0.01657998003065586,-0.2575446665287018,-0.12324018031358719,0.05912076309323311,0.12055108696222305,-0.0478983037173748,0.3316177427768707,-0.219112366437912,0.142813041806221,-0.04158418998122215,-0.10449917614459991,0.0010450291447341442,-0.1208868995308876,0.1977626085281372,-0.0037483663763850927,-0.17714567482471466,-0.1293441653251648,-0.025349639356136322,-0.08351613581180573,0.15379300713539124,-0.05829605087637901,-0.18300315737724304,-0.017403194680809975,-0.032337408512830734,-0.24101762473583221,-0.13823801279067993,-0.14780917763710022,-0.36788079142570496,-0.01701464131474495,0.030404694378376007,-0.152695432305336,-0.00752044003456831,0.14260616898536682,-0.0889570564031601,-0.014042952097952366,-0.006008706521242857,-0.1319001019001007,-0.10969981551170349,-0.04059463366866112,-0.06778215616941452,0.07888618856668472,-0.42541956901550293,0.011061666533350945,-0.2552291750907898,0.3969763517379761,-0.239136204123497,-0.27248725295066833,0.19653315842151642,-0.42021292448043823,-0.07296541333198547,0.12637358903884888,0.014560368843376637,0.038171444088220596,-0.16184768080711365,-0.13216418027877808,0.13206498324871063,-0.1809876561164856,-0.051163457334041595,0.25047311186790466,-0.2682362198829651,0.07798692584037781,0.3387714624404907,0.0694580078125,-0.02375193126499653,-0.19764168560504913,0.03844289481639862,-0.4197731912136078,-0.07931285351514816,-0.4082185626029968,0.18141286075115204,-0.16148017346858978,-0.21382874250411987,0.25668081641197205,0.014205168932676315,-0.1581181138753891,-0.24293044209480286,-0.040952857583761215,-0.1675736904144287,-0.280308336019516,0.13585849106311798,-0.15638650953769684,-0.26278138160705566,-0.06801366060972214,0.11967984586954117,0.14612522721290588,0.129560649394989,0.14447534084320068,0.01692141219973564,-0.22080884873867035,0.3973217010498047,-0.11151903867721558,-0.04038446024060249,-0.13193653523921967,0.13970966637134552,-0.009050353430211544,-0.27759096026420593,-0.06390293687582016,0.15509507060050964,0.016296561807394028,0.023187465965747833,0.12741133570671082,0.043492142111063004,0.1553388237953186,0.030654488131403923,-0.2486225813627243,-0.030843427404761314,-0.1755865067243576,0.2673034965991974,-0.05382591113448143,0.00902588851749897,-0.09279521554708481,-0.14498582482337952,0.16128912568092346,0.06700773537158966,0.14669902622699738,-0.10986851155757904,-0.12338010221719742,-0.13736924529075623,-0.18027491867542267,-0.04084474965929985,-0.0974833145737648,-0.26212772727012634,-0.3214770257472992,0.18444150686264038,-0.2125743329524994,-0.2174215465784073,-0.25644561648368835,-0.32977166771888733,-0.3206527829170227,-0.23807065188884735,0.20184622704982758,-0.05257803574204445,0.3215731084346771,0.16271279752254486,0.14170393347740173,-0.05984821170568466,0.09761502593755722,-0.29627525806427,-0.04415826126933098,-0.3452225923538208,-0.19180551171302795,0.20554812252521515,-0.16510766744613647,0.18917302787303925,-0.20341819524765015,0.29029563069343567,0.06990698724985123,-0.12316685169935226,-0.09721298515796661,0.07392941415309906,-0.02164849080145359,-0.16133174300193787,-0.16002385318279266,0.027177462354302406,0.10773483663797379,0.022182371467351913,-0.17556996643543243,0.10070296376943588,-0.10079257935285568,-0.004765140824019909,-0.32705777883529663,0.1940729022026062,-0.06263096630573273,-0.003214937401935458,-0.13508331775665283,-0.22471313178539276,0.09637536108493805,-0.013940386474132538,-0.1154007539153099,0.14692361652851105,-0.2269296795129776,0.015347945503890514,0.06037294119596481,-0.17505985498428345,0.016035977751016617,-0.023662365972995758,-0.13160310685634613,0.1587734818458557,0.043326590210199356,-0.033494479954242706,-0.43865665793418884,-0.3258471190929413,-0.07750195264816284,0.3448270857334137,-0.3260346055030823,0.00870445929467678,0.2869768738746643,-0.1591086983680725,0.13339969515800476,0.012619496323168278,-0.03755791857838631,-0.10278588533401489,-0.01093553937971592,-0.07167777419090271,-0.11446379125118256,0.36906975507736206,-0.3090495765209198,-0.08671873062849045,0.32830139994621277,-0.29194822907447815,-0.1685495525598526,-0.1701889932155609,0.04878775402903557,0.02812039852142334,-0.036364130675792694,-0.08258520066738129],[0.12856759130954742,-0.18096472322940826,-0.19456692039966583,-0.27504727244377136,-0.14425815641880035,0.19137151539325714,0.0740847960114479,0.24012354016304016,-0.29481449723243713,0.16257241368293762,-0.20883497595787048,0.1746254712343216,-0.36142390966415405,0.083473339676857,-0.20714157819747925,0.015782425180077553,-0.04843973368406296,-0.02368755266070366,0.11014692485332489,0.4661053419113159,-0.12236302345991135,0.016913283616304398,-0.09136784821748734,-0.2435423731803894,-0.11298910528421402,-0.1724526733160019,-0.27324923872947693,-0.017089517787098885,0.02616123855113983,0.25394362211227417,0.10825930535793304,-0.49083006381988525,-0.2128138244152069,-0.12405110150575638,-0.21306054294109344,0.061882853507995605,0.0767965018749237,-0.22488239407539368,-0.22595369815826416,-0.25899961590766907,0.018605682998895645,-0.1222042515873909,-0.23350399732589722,0.08649512380361557,-0.19842219352722168,-0.1317472904920578,0.05097425729036331,-0.2989332377910614,-0.016969790682196617,-0.1260347068309784,0.07455103099346161,-0.07686495780944824,0.37187594175338745,0.23351362347602844,-0.08854153752326965,-0.37765681743621826,-0.09209416806697845,0.09875336289405823,0.11555540561676025,0.12227396667003632,-0.1875840127468109,-0.09579354524612427,-0.3709262013435364,-0.19673879444599152,0.3489507734775543,-0.18312311172485352,-0.08736934512853622,-0.003522728104144335,0.03317756950855255,-0.3817821443080902,0.10349226742982864,-0.011526335962116718,0.22459550201892853,-0.089032381772995,-0.022944752126932144,-0.30169805884361267,0.06841723620891571,-0.16151350736618042,-0.0422837920486927,-0.009460008703172207,-0.4051502048969269,-0.17504173517227173,-0.05976739898324013,0.38398146629333496,-0.03593737632036209,-0.2641592025756836,0.29055559635162354,0.17062115669250488,0.23716138303279877,0.07059425860643387,0.01761975698173046,0.04930988326668739,-0.16798371076583862,-0.06627549976110458,0.11872542649507523,-0.12245297431945801,-0.044711124151945114,0.21574483811855316,0.043794184923172,0.16455966234207153,-0.14291073381900787,0.29615285992622375,-0.048010312020778656,-0.2908613681793213,-0.2592940628528595,-0.20400679111480713,0.1600029468536377,0.029774673283100128,-0.18859001994132996,-0.0754648745059967,0.0059437500312924385,0.14560823142528534,0.14126883447170258,-0.2879670560359955,-0.4461168646812439,-0.009418238885700703,-0.20759259164333344,-0.1295011341571808,-0.18252705037593842,0.12144715338945389,-0.015269482508301735,0.3847355842590332,0.21250976622104645,0.1277046799659729,-0.07593318074941635,0.09665574878454208,0.019551515579223633,0.02945069596171379,0.06036096811294556,-0.13464799523353577,0.257047176361084,0.03080502338707447,-0.014998775906860828,0.04429255798459053,-0.01262159738689661,0.11076293885707855,0.01726832427084446,-0.39267697930336,0.09617789089679718,0.0866270363330841,-0.286446750164032,0.21197842061519623,-0.12444819509983063,0.1607181876897812,0.03240744769573212,0.12135067582130432,-0.08416289836168289,-0.08294886350631714,0.16703711450099945,0.20735853910446167,0.18291324377059937,-0.00041796406731009483,-0.3418179452419281,-0.28593024611473083,-0.17714513838291168,-0.043384816497564316,-0.1327517032623291,-0.1344262659549713,-0.08733762055635452,-0.05629352852702141,-0.06396451592445374,0.05971340835094452,0.11133772879838943,-0.18695273995399475,-0.11093257367610931,0.16650985181331635,0.11273028701543808,0.05368570238351822,-0.09082489460706711,0.28391221165657043,0.22701121866703033,0.08050815016031265,-0.14887355268001556,0.19856923818588257,-0.04493917152285576,-0.13587062060832977,-0.12500843405723572,-0.16737425327301025,-0.05977975204586983,-0.01617366261780262,-0.12997572124004364,0.42515891790390015,-0.10484985262155533,-0.2362288236618042,-0.3265829384326935,-0.04905585199594498,-0.46375715732574463,-0.10409951210021973,-0.19822070002555847,-0.1274801343679428,-0.28127098083496094,0.0074929893016815186,-0.402039498090744,0.16888248920440674,-0.13980638980865479,0.07080749422311783,-0.07887779176235199,-0.12713299691677094,-0.02172960713505745,0.038007911294698715,0.1943531185388565,0.04344252869486809,0.08478439599275589,-0.004440026357769966,-0.17468637228012085,0.1024845540523529,-0.09473884105682373,-0.2486240416765213,-0.03969496488571167,0.3842296302318573,0.29813462495803833,-0.3982956111431122,0.06898248195648193,-0.31149324774742126,0.028112098574638367,0.265008807182312,0.06032343953847885,-0.11557812988758087,0.14738525450229645,-0.25132352113723755,0.020987557247281075,-0.10304629802703857,-0.029960766434669495,0.33747175335884094,0.09789334237575531,0.20200993120670319,-0.10882443189620972,-0.07027807831764221,-0.2914327383041382,0.1156742200255394,-0.06800219416618347,-0.04175793379545212,-0.10969061404466629,-0.05988089740276337,0.21574778854846954,-0.00807107798755169,-0.11143692582845688,0.2091227024793625,-0.20508980751037598,-0.039966657757759094,0.21347282826900482,-0.03707538917660713,0.1520811766386032,-0.12560823559761047,-0.12108900398015976,0.04266272485256195,0.14315593242645264,0.0026268467772752047,-0.1214929074048996,-0.09770764410495758,0.24089616537094116,-0.0015271645970642567,-0.04732717573642731,-0.15587514638900757,-0.06858529895544052,-0.23118990659713745],[-0.20180754363536835,-0.24578453600406647,0.04096907749772072,-0.1897532194852829,0.005617197137326002,-0.07186537235975266,-0.17866957187652588,-0.08959756791591644,-0.1854439526796341,0.12537957727909088,0.2987554669380188,0.03512251749634743,0.04696715995669365,0.08654651045799255,0.08584004640579224,-0.04694449156522751,0.23428957164287567,-0.11086888611316681,-0.26007986068725586,0.04152355715632439,0.010053657926619053,-0.011440067552030087,-0.278942346572876,0.13560131192207336,-0.015600692480802536,0.02930860035121441,0.025256428867578506,0.19121164083480835,0.08148342370986938,0.205976665019989,0.10110669583082199,-0.43878981471061707,-0.4690706133842468,0.18181656301021576,-0.10384431481361389,-0.12529093027114868,-0.44010889530181885,-0.22109873592853546,0.08880709856748581,-0.24802953004837036,0.02802683785557747,0.08270935714244843,0.08407386392354965,-0.21507561206817627,0.021117424592375755,-0.26383087038993835,-0.011930111795663834,-0.09418331831693649,-0.25321459770202637,-0.026624206453561783,0.07622264325618744,-0.20283198356628418,-0.2427668571472168,-0.047586679458618164,-0.016909312456846237,-0.2242356687784195,0.09289480000734329,-0.22465306520462036,-0.1328393965959549,-0.11506129801273346,0.31074777245521545,-0.2585192918777466,-0.05517501011490822,-0.1711430698633194,-0.13065463304519653,-0.07790907472372055,-0.09148472547531128,-0.13699421286582947,0.14064627885818481,0.0038795771542936563,0.36205023527145386,-0.17109891772270203,0.07375162839889526,-0.16816294193267822,0.22592322528362274,-0.012312335893511772,-0.1990395337343216,0.4344218075275421,-0.058058954775333405,-0.0015242114895954728,0.17377936840057373,0.305830717086792,0.12409854680299759,0.0832488164305687,-0.02382807992398739,-0.16905277967453003,-0.18316173553466797,0.22894391417503357,0.09620609134435654,0.032264165580272675,-0.031079662963747978,0.023401712998747826,0.1951165497303009,0.23130065202713013,0.10062585026025772,-0.0408829040825367,-0.14984704554080963,0.03936053439974785,-0.012552461586892605,-0.2414713352918625,-0.2771393954753876,-0.10388091951608658,0.14986489713191986,-0.0005731339333578944,0.11556997895240784,-0.0767340362071991,-0.0792393833398819,0.02652706764638424,-0.2253008782863617,-0.21456961333751678,0.06178886070847511,-0.06699805706739426,0.17455285787582397,-0.13833622634410858,-0.2168741077184677,-0.11296761780977249,0.11135289072990417,0.33837658166885376,-0.03636547923088074,-0.0006722977268509567,0.03146524727344513,0.18820597231388092,0.046851880848407745,0.4162410497665405,-0.17311562597751617,-0.2636873424053192,0.3588578402996063,0.1616578847169876,-0.21210795640945435,0.009659106843173504,-0.21169494092464447,-0.24504366517066956,-0.210842564702034,-0.03432100638747215,0.17996931076049805,0.40922802686691284,0.2716731131076813,-0.5915862321853638,0.07524242997169495,-0.028871288523077965,0.2950468063354492,0.26282748579978943,0.14554093778133392,-0.3311135768890381,-0.20915338397026062,-0.26125869154930115,0.14860109984874725,-0.09900326281785965,0.09859456866979599,0.027066681534051895,0.1481889933347702,-0.22506417334079742,-0.7076725363731384,-0.11323029547929764,-0.04898640885949135,-0.02354610338807106,-0.16404597461223602,-0.1800520271062851,-0.059887342154979706,-0.046090565621852875,0.04876912012696266,-0.08532541245222092,-0.005402637645602226,-0.15495315194129944,0.08094004541635513,-0.10751432925462723,0.10071461647748947,-0.005034870933741331,0.09899774193763733,0.23568488657474518,0.23406890034675598,-0.07804753631353378,-0.013510791584849358,0.36010053753852844,-0.13138772547245026,-0.030032992362976074,0.06587456166744232,-0.37275734543800354,-0.1867484450340271,-0.1824210286140442,0.16090135276317596,0.20803013443946838,-0.08015228062868118,0.30455896258354187,0.024195799604058266,-0.21584898233413696,-0.11295121163129807,-0.027366457507014275,0.005048677325248718,0.14855371415615082,-0.04614842310547829,-0.040427833795547485,0.2172890454530716,0.002134577138349414,-0.019678901880979538,0.1062273234128952,0.1890273094177246,0.20268721878528595,0.41056028008461,-0.09351378679275513,0.07803016901016235,-0.01132987905293703,-0.263470858335495,0.061097100377082825,-0.18939058482646942,-0.11673007905483246,-0.6225418448448181,0.024188853800296783,-0.11793705821037292,0.2528233826160431,0.09318029880523682,0.0825769379734993,-0.07065422087907791,-0.17607563734054565,0.39318981766700745,-0.140869602560997,-0.2868228852748871,0.20982353389263153,0.1465921401977539,-0.2981554865837097,-0.4857393801212311,0.033962029963731766,-0.13926811516284943,0.059782709926366806,0.03724544495344162,0.0999336838722229,-0.2535650134086609,0.0711761936545372,0.07059789448976517,-0.23121534287929535,0.019004222005605698,0.06920792907476425,-0.2626244127750397,-0.1537032425403595,0.09353716671466827,0.5534793734550476,0.2208756059408188,0.2315121442079544,-0.17299969494342804,-0.007775697857141495,-0.01864996738731861,-0.2692398130893707,-0.21965144574642181,-0.06245764344930649,-0.22802822291851044,0.09720723330974579,-0.13689081370830536,0.47603195905685425,0.22293926775455475,-0.03657742589712143,-0.11035704612731934,0.0565248504281044,0.19828394055366516,-0.034519344568252563,0.19683337211608887,-0.04853630065917969],[0.13867421448230743,-0.02357376553118229,-0.05281991511583328,-0.039004888385534286,0.24807710945606232,-0.04623758792877197,-0.036840036511421204,-0.03625117987394333,-0.15946896374225616,0.03692923113703728,-0.03141750767827034,0.11829737573862076,-0.05621005967259407,-0.06578546017408371,-0.12843523919582367,-0.2806011736392975,0.15058515965938568,0.039158545434474945,-0.24368605017662048,0.1671193391084671,0.08178310096263885,-0.06084325537085533,0.19316568970680237,-0.24794119596481323,0.18861611187458038,-0.20160721242427826,-0.16109201312065125,-0.013688595034182072,0.1514963060617447,0.20402051508426666,-0.1566629856824875,-0.1664077788591385,0.12867116928100586,-0.024024100974202156,-0.11223222315311432,-0.010661252774298191,-0.011341496370732784,0.10060826689004898,-0.14033667743206024,-0.13859346508979797,0.016394054517149925,-0.10818348079919815,0.10803671181201935,0.04600819945335388,0.11154118180274963,0.008409841917455196,0.012950768694281578,0.1304091364145279,-0.0022491631098091602,0.06684362143278122,0.009053538553416729,-0.20855726301670074,0.1153905838727951,-0.3401337265968323,0.08056749403476715,0.5248444676399231,0.14317725598812103,-0.05668876692652702,0.03944207727909088,0.12162521481513977,0.22657130658626556,-0.2791522145271301,-0.19807544350624084,-0.14399437606334686,-0.014267826452851295,0.0206450242549181,-0.19845938682556152,0.008950190618634224,0.03427833691239357,0.2934665381908417,0.008841772563755512,0.1812681257724762,-0.10774634033441544,-0.26011306047439575,-0.35392236709594727,-0.31799182295799255,0.2121959924697876,-0.29161590337753296,-0.048436570912599564,0.025049559772014618,-0.0432564876973629,0.2643635869026184,-0.04712025821208954,-0.026734095066785812,0.2667180299758911,-0.07315309345722198,0.13305485248565674,-0.03364313393831253,0.1357700377702713,-0.0677107498049736,0.04448452219367027,-0.14232094585895538,-0.11694414913654327,-0.16687338054180145,0.023953482508659363,0.044522520154714584,0.06456800550222397,0.2709465026855469,-0.006659091450273991,-0.35527727007865906,0.27039530873298645,0.22955776751041412,-0.3374195992946625,0.31187477707862854,-0.03909476101398468,-0.15250439941883087,-0.09629376977682114,0.05807982385158539,0.1603677123785019,-0.18273799121379852,-0.11973891407251358,0.018691079691052437,0.0020491548348218203,0.09416885673999786,-0.16423438489437103,-0.14225731790065765,0.07296671718358994,0.18417039513587952,-0.23553185164928436,0.11632118374109268,-0.08668015897274017,-0.19651125371456146,-0.012879153713583946,0.0971604436635971,0.03786357864737511,0.11196785420179367,-0.08852061629295349,-0.046637654304504395,0.007834292948246002,-0.10906288027763367,0.4696863293647766,-0.22617746889591217,-0.2789257764816284,-0.12297163903713226,-0.11121749877929688,-0.11728541553020477,-0.2473587840795517,-0.1482045203447342,-0.315451443195343,-0.35645827651023865,0.17494899034500122,-0.04236862435936928,0.04926392436027527,-0.31107231974601746,0.11685264855623245,0.06252836436033249,-0.10746889561414719,-0.017148399725556374,-0.05202023684978485,0.0309600830078125,0.08454177528619766,-0.006078727543354034,0.06335959583520889,0.07467998564243317,0.3196910619735718,0.01352432370185852,-0.3561091423034668,0.3276967406272888,-0.19986118376255035,0.10094824433326721,-0.05053316056728363,0.01707172393798828,-0.27273571491241455,0.08409137278795242,0.030768167227506638,-0.05886492505669594,0.21334858238697052,-0.3238997459411621,0.0702735185623169,0.030666710808873177,0.06566904485225677,0.15778958797454834,-0.20915022492408752,0.012885998003184795,-0.05937473475933075,-0.216914102435112,-0.3843957185745239,-0.018663333728909492,0.09480508416891098,-0.15364591777324677,0.012361076660454273,0.012967176735401154,0.052195511758327484,-0.06599949300289154,0.05467051640152931,0.1838696002960205,0.10943861305713654,-0.15411606431007385,0.27996012568473816,-0.10917524993419647,-0.3056718409061432,-0.10533745586872101,0.08788861334323883,0.22607733309268951,-0.31144246459007263,-0.426697701215744,0.024257026612758636,-0.06524129956960678,0.10486253350973129,0.02472003921866417,-0.028998784720897675,-0.12050040066242218,0.1518225073814392,0.040941592305898666,-0.022039487957954407,-0.20090213418006897,0.2675478756427765,-0.20634256303310394,-0.4892460107803345,0.14629819989204407,0.10577921569347382,-0.15673372149467468,-0.02612091414630413,-0.11187583953142166,0.06668942421674728,0.029678067192435265,-0.1692797839641571,0.04850011691451073,-0.18533694744110107,0.0672556534409523,-0.03550060838460922,0.17264476418495178,0.028876200318336487,0.04816814139485359,-0.22896456718444824,-0.2492920309305191,-0.17397089302539825,-0.24605588614940643,0.06545895338058472,0.09804973006248474,0.139060378074646,0.2601490020751953,-0.501907467842102,0.2517347037792206,-0.06643127650022507,0.07384384423494339,-0.08881467580795288,0.30009427666664124,-0.017344918102025986,-0.10653970390558243,-0.11980517953634262,-0.06066480278968811,0.2547358572483063,-0.215304434299469,-0.1334131360054016,-0.006820179987698793,-0.283857136964798,-0.009264642372727394,0.10647661238908768,-0.015312599949538708,0.048600707203149796,0.03110085055232048,0.07524359226226807,0.013136070221662521,0.03836788982152939,-0.1443464159965515],[0.08551986515522003,0.0031426839996129274,0.31820428371429443,-0.07276362925767899,-0.0038168153259903193,0.07099365442991257,-0.2619982659816742,-0.007196198683232069,0.2735002636909485,0.3408694267272949,0.1899338662624359,0.027065925300121307,-0.11427916586399078,-0.17780695855617523,0.08376144617795944,0.040005143731832504,-0.027452707290649414,0.13706859946250916,-0.006171786691993475,0.14308497309684753,0.12110310047864914,-0.10855262726545334,