[[-0.1735381782054901,0.13423261046409607,-0.11650004982948303,-0.1852632611989975,0.1645909547805786,0.41426771879196167,-0.18849888443946838,0.26280370354652405,-0.16773633658885956,0.10640166699886322,-0.042540811002254486,0.0070671383291482925,0.06512393057346344,-0.20510970056056976,-0.00675508426502347,-0.11055908352136612,-0.06874135136604309,-0.05833932384848595,0.054772503674030304,0.19400127232074738,0.15368030965328217,0.18046987056732178,0.10861930251121521,0.09233250468969345,-0.05513964220881462,0.14981701970100403,-0.3462705910205841,-0.07672133296728134,0.009034114889800549,-0.06690837442874908,0.08207006007432938,0.1433255970478058,-0.20382331311702728,-0.14714249968528748,-0.1648091822862625,0.15013687312602997,-0.05825340002775192,0.023382000625133514,0.302464097738266,-0.11451107263565063,0.2421966791152954,-0.17078612744808197,0.20550225675106049,-0.14598046243190765,0.3540883958339691,-0.40618374943733215,0.017486225813627243,0.16336971521377563,0.19704540073871613,-0.33722490072250366,0.08958399295806885,0.39827945828437805,0.0015689937863498926,-0.027434028685092926,-0.0016941986978054047,-0.027721136808395386,0.2070625275373459,-0.3668091297149658,-0.2575266659259796,-0.7739259600639343,0.20610636472702026,0.057042211294174194,-0.1427212804555893,-0.0900602787733078,0.15066222846508026,0.02962525375187397,0.010056267492473125,0.0019025115761905909,-0.14213640987873077,0.0965142622590065,-0.09013514220714569,-0.18323758244514465,-0.09611826390028,0.23768958449363708,-0.16444888710975647,-0.16447217762470245,0.1090187355875969,0.0039042269345372915,0.11551344394683838,0.03058057464659214,0.03780997917056084,-0.00677288044244051,0.30060887336730957,0.1348876655101776,-0.018232274800539017,0.21413874626159668,-0.15194468200206757,0.0680336207151413,-0.1492990106344223,0.02377339079976082,-0.05866643413901329,0.08532248437404633,-0.3104144334793091,-0.20013046264648438,-0.2327035367488861,-0.1961669623851776,-0.015430748462677002,-0.001961905276402831,0.24677704274654388,-0.09170866012573242,0.30657973885536194,0.12643805146217346,0.06495913863182068,0.07440998405218124,0.1781516820192337,-0.13269706070423126,-0.16699670255184174,-0.13048721849918365,0.07493026554584503,-0.2986322045326233,-0.1370750069618225,0.13195429742336273,-0.015057923272252083,-0.014250706881284714,0.3601316511631012,-0.018678095191717148,0.015295068733394146,0.1313004344701767,0.07967433333396912,0.0147325424477458,-0.2714613378047943,0.025629043579101562,-0.0740455687046051,0.19639524817466736,-0.2236091047525406,-0.18214930593967438,-0.32270312309265137,-0.3308868706226349,0.05083382502198219,-0.10085061192512512,-0.1466062068939209,-0.2261885404586792,-0.19143778085708618,-0.14194945991039276,-0.08375164121389389,0.16228345036506653,0.15670619904994965,-0.03767731413245201,-0.1384766846895218,-0.04451313242316246,0.051674846559762955,0.29550862312316895,0.263510137796402,0.15454530715942383,0.24991808831691742,-0.13423985242843628,-0.05200060084462166,-0.007280400488525629,-0.10179823637008667,-0.09425914287567139,-0.16349077224731445,0.09587902575731277,0.05898753181099892,-0.055332690477371216,0.028638701885938644,-0.19486181437969208,0.09278088808059692,-0.2054830640554428,-0.2666276693344116,0.3043912351131439,0.13644519448280334,-0.01471048966050148,-0.35030344128608704,-0.2992578148841858,0.009288775734603405,0.09325075894594193,0.19513998925685883,-0.014719470404088497,-0.07671886682510376,0.06747684627771378,-0.32750582695007324,-0.1827905774116516,0.29977327585220337,0.1754181683063507,0.20680361986160278,-0.14138911664485931,-0.11375471204519272,0.19740179181098938,-0.08582694828510284,-0.19478248059749603,0.12372658401727676,0.23540635406970978,-0.2102774977684021,0.08874963223934174,-0.3504316806793213,0.29451072216033936,-0.24160265922546387,0.11366907507181168,-0.1373707354068756,0.020634140819311142,-0.15773583948612213,0.10617399215698242,0.23178429901599884,-0.15047751367092133,-0.08565782755613327,0.3219946026802063,0.0015705275582149625,-0.3294485807418823,-0.07351801544427872,0.06472504138946533,0.1874801218509674,0.1253238320350647,-0.020794734358787537,-0.021706756204366684,-0.4588678479194641,-0.12074380367994308,0.020654145628213882,0.08370992541313171,-0.12544719874858856,-0.2981407046318054,-0.18068325519561768,-0.08887409418821335,0.010789909400045872,-0.031536053866147995,-0.2085942029953003,0.2380397617816925,-0.2679292559623718,0.09125757217407227,0.18498772382736206,0.2273460030555725,-0.025501416996121407,0.06154609099030495,-0.08229167759418488,0.04174504056572914,-0.04292474687099457,-0.030692707747220993,0.09659171849489212,0.09434719383716583,-0.23875881731510162,-0.03291946277022362,0.45042264461517334,0.09752574563026428,0.02023322507739067,-0.07834869623184204,0.030357180163264275,-0.1035231500864029,-0.33082905411720276,0.015243261121213436,-0.03903042897582054,0.10954500734806061,0.2398025393486023,0.03450004756450653,-0.2228398621082306,-0.005161290057003498,0.5189425945281982,-0.11062577366828918,-0.1641647219657898,0.05283569544553757,-0.12603139877319336,0.022859005257487297,0.05679335445165634,-0.10889297723770142,0.00938305165618658,0.07185181230306625,-0.25845471024513245,0.16782096028327942],[0.03413160517811775,0.0542750358581543,-0.07956258952617645,-0.043504755944013596,-0.27409541606903076,0.07361647486686707,0.02597903087735176,-0.3794898986816406,-0.1783798485994339,-0.12197798490524292,0.33194729685783386,-0.1030241996049881,-0.07600001245737076,-0.23409685492515564,0.09119290858507156,-0.03232898935675621,-0.16618302464485168,-0.06668152660131454,-0.019597699865698814,0.11916561424732208,0.3886227309703827,0.29995986819267273,-0.21237076818943024,-0.2778868079185486,0.1751626431941986,-0.041736435145139694,-0.08644289523363113,-0.08637300133705139,0.09485417604446411,-0.32178106904029846,0.04130479693412781,-0.17963950335979462,0.3591754734516144,-0.09948330372571945,0.1286887526512146,0.0381871834397316,0.09374027699232101,0.028502652421593666,0.05819088593125343,-0.11618497967720032,-0.011103893630206585,-0.07168930768966675,0.34480032324790955,0.12547726929187775,0.10038340836763382,0.035291772335767746,0.2518157958984375,0.24275368452072144,-0.026208849623799324,-0.053468361496925354,-0.003698046086356044,0.07097301632165909,-0.21191884577274323,0.1986733078956604,0.13061316311359406,-0.1611682027578354,0.028797222301363945,-0.22480036318302155,-0.0021590273827314377,-0.16552798449993134,0.0740218460559845,-0.020136773586273193,0.08883889764547348,-0.3032185733318329,0.18786980211734772,0.08948197215795517,0.13810011744499207,-0.16769754886627197,-0.2879410684108734,0.11211559921503067,-0.08568474650382996,-0.2681328356266022,-0.12532788515090942,-0.0756339579820633,0.04259951412677765,-0.11219518631696701,-0.23699118196964264,-0.21022146940231323,-0.13824763894081116,-0.23791809380054474,0.023179927840828896,-0.27339521050453186,-0.2807506322860718,0.0037980570923537016,0.05131903663277626,0.11967294663190842,-0.23107168078422546,-0.22140857577323914,-0.07649269700050354,-0.07287836074829102,0.10044343024492264,-0.1399056315422058,0.1308683156967163,-0.30367425084114075,-0.0139073571190238,0.08336470276117325,0.044879402965307236,0.013167918659746647,-0.14219680428504944,-0.4833409786224365,-0.16585971415042877,-0.002008996205404401,-0.055940814316272736,-0.13468888401985168,0.041147381067276,0.3124552071094513,-0.03914720192551613,0.1911332756280899,-0.16319015622138977,-0.3835905194282532,0.011174364015460014,-0.2550240159034729,-0.11113173514604568,-0.32215359807014465,-0.18608106672763824,-0.2885132431983948,0.40371161699295044,0.30072349309921265,0.12037886679172516,-0.010139680467545986,0.04766012355685234,-0.025134820491075516,0.08768219500780106,-0.14741745591163635,0.06147383898496628,0.06859315931797028,-0.16893060505390167,0.16573144495487213,-0.3613823652267456,-0.23154699802398682,0.005795258563011885,-0.07242516428232193,-0.15389025211334229,0.26227647066116333,-0.05699536204338074,-0.18255986273288727,0.1532432585954666,0.02730259858071804,-0.07630963623523712,0.058594897389411926,0.27076148986816406,0.399784117937088,-0.1791517734527588,-0.04997287318110466,0.3104130029678345,0.11572766304016113,0.014119383879005909,0.2774326205253601,-0.09596257656812668,0.04673264920711517,0.18036115169525146,0.16158291697502136,0.04882959648966789,-0.21878209710121155,0.18277181684970856,0.09593388438224792,-0.04389309883117676,0.07398317754268646,-0.13407905399799347,-0.15153391659259796,0.12765808403491974,0.1040123999118805,0.18672886490821838,-0.12229260057210922,0.0020051859319210052,-0.12323207408189774,-0.15882542729377747,0.07992185652256012,0.08715902268886566,-0.052639756351709366,0.06639131903648376,-0.07234666496515274,0.309279203414917,-0.004940714221447706,0.10018959641456604,0.2121466100215912,0.06677733361721039,-0.13882145285606384,-0.003915089648216963,-0.10117827355861664,-0.09385944157838821,-0.2311939150094986,0.21612149477005005,-0.05029554292559624,0.16639405488967896,-0.3928159177303314,-0.1317405104637146,-0.11384794861078262,0.10740024596452713,-0.38329532742500305,-0.3109113872051239,-0.016011375933885574,-0.33703935146331787,0.239102303981781,0.09292315691709518,-0.08233489841222763,0.008072072640061378,-0.012548664584755898,-0.16652968525886536,-0.24737459421157837,0.13833439350128174,-0.08999399095773697,-0.21897320449352264,-0.12685592472553253,0.3674069046974182,0.08395861089229584,-0.1741800159215927,-0.3138628602027893,-0.09726491570472717,-0.0903097540140152,0.003756650723516941,-0.1680491864681244,0.2023245096206665,-0.1465720236301422,0.024377785623073578,-0.09393331408500671,-0.1148858442902565,-0.1315915286540985,-0.17158038914203644,-0.04760359972715378,0.2299165576696396,-0.003851124085485935,0.12362725287675858,-0.2880564332008362,-0.06821313500404358,0.022067841142416,0.36094266176223755,0.00022592401364818215,-0.03926714509725571,0.191808819770813,0.19576898217201233,-0.11358295381069183,-0.38395705819129944,-0.01836407743394375,-0.0013756230473518372,0.11131837964057922,-0.1867424100637436,-0.3544295132160187,-0.29697149991989136,-0.2857224941253662,0.03678062558174133,-0.06481681019067764,-0.050339628010988235,0.03191591799259186,0.05535870045423508,0.3157075047492981,-0.267374724149704,0.19294214248657227,0.13561616837978363,0.1084904745221138,0.013327669352293015,0.1816946417093277,0.09046773612499237,-0.10715202987194061,-0.024214867502450943,-0.006815268658101559],[-0.11047869175672531,0.22130566835403442,-0.06667936593294144,0.2479034811258316,0.42460405826568604,-0.283037394285202,-0.035982646048069,-0.09614904224872589,-0.10815359652042389,-0.028569135814905167,-0.048129647970199585,-0.20500962436199188,0.03193588927388191,0.2032303363084793,-0.06539454311132431,-0.11703750491142273,-0.055374693125486374,0.03624850511550903,-0.10164600610733032,0.20877930521965027,-0.0875883474946022,0.005517172161489725,-0.10212454944849014,-0.2737669348716736,0.060347795486450195,-0.20230582356452942,-0.18273790180683136,-0.005310564301908016,-0.021250540390610695,-0.2462489753961563,0.07199786603450775,-0.053833480924367905,-0.22959958016872406,0.07516062259674072,0.05953153967857361,-0.07033354043960571,0.03927798569202423,-0.18112818896770477,0.11783045530319214,-0.23287717998027802,0.03121054917573929,-0.16035231947898865,-0.21187184751033783,0.19366474449634552,0.2267821729183197,-0.11889767646789551,0.3522206246852875,0.051348764449357986,-0.13235947489738464,-0.26383262872695923,-0.1751764714717865,-0.09496015310287476,-0.327435165643692,-0.04443090036511421,0.14027009904384613,0.2432861179113388,-0.11692772060632706,0.3356477916240692,-0.13117779791355133,-0.20758649706840515,-0.15307343006134033,-0.006228740327060223,0.07951344549655914,-0.09322795271873474,0.0654311254620552,0.06954146921634674,0.3199601471424103,0.15763568878173828,0.14077173173427582,0.02205515280365944,-0.25246796011924744,0.021291697397828102,0.005488930270075798,-0.15659038722515106,0.015121112577617168,0.10170771181583405,-0.0901247188448906,0.3222402334213257,-0.14927534759044647,-0.045928023755550385,-0.03605606406927109,-0.08870677649974823,0.05122552067041397,0.22827768325805664,-0.059131424874067307,0.01863856054842472,-0.08867808431386948,-0.06960693001747131,0.013960142619907856,0.5577163100242615,0.047021422535181046,-0.3112846612930298,0.14988943934440613,0.21605752408504486,0.049269188195466995,-0.2099677175283432,-0.040463678538799286,-0.30215808749198914,-0.041276391595602036,-0.0387592539191246,-0.05976635962724686,0.01865088753402233,0.23792007565498352,0.06698501110076904,-0.2173263132572174,-0.06456127017736435,-0.07799345254898071,-0.07530217617750168,0.04808235168457031,-0.33165109157562256,-0.14268706738948822,0.16172540187835693,-0.283376544713974,0.06426908820867538,0.1631919890642166,0.13255968689918518,-0.1423291265964508,-0.18441851437091827,0.03943029046058655,0.1609986275434494,0.03376749902963638,0.13413022458553314,0.059151630848646164,0.07095999270677567,-0.19112953543663025,-0.294549822807312,-0.05170145258307457,-0.05973740294575691,0.34128668904304504,-0.1884414255619049,0.4032246172428131,0.22280648350715637,0.4047880470752716,-0.0574156679213047,0.12698636949062347,0.3461464047431946,-0.25443926453590393,-0.16674524545669556,0.07020056247711182,0.04422014579176903,0.01884428970515728,0.10389076918363571,0.21379438042640686,-0.15665684640407562,-0.12294308841228485,-0.16558903455734253,-0.04970429465174675,-0.016217902302742004,-0.49727872014045715,-0.1135190799832344,-0.17587332427501678,-0.29726770520210266,-0.15235666930675507,0.3372339606285095,0.2682824432849884,0.1860203891992569,-0.280153751373291,0.19956427812576294,0.23414845764636993,0.17660565674304962,-0.09314297884702682,0.4497855007648468,0.08069359511137009,-0.12517918646335602,-0.2493840605020523,-0.11939720064401627,0.16472849249839783,-0.03838520497083664,0.26383116841316223,0.008868680335581303,-0.04566091299057007,0.008762839250266552,0.05109836906194687,-0.15943551063537598,0.1132848784327507,-0.1420033723115921,0.28553470969200134,-0.08137848228216171,0.0557296946644783,-0.046392638236284256,0.05591827258467674,0.019768675789237022,-0.18666677176952362,-0.1307545304298401,0.06241333484649658,0.019319215789437294,-0.11810492724180222,-0.4347391128540039,0.09994568675756454,-0.4120730757713318,0.12522901594638824,-0.04202250763773918,-0.2197151482105255,0.11498967558145523,-0.2795744836330414,0.004021989181637764,-0.1064014881849289,0.08670943975448608,0.3215121924877167,-0.01644907146692276,0.04763530567288399,-0.11709096282720566,0.29571524262428284,-0.2424304187297821,-0.0017845717957243323,-0.2658604085445404,0.14112873375415802,-0.02690528891980648,0.08731423318386078,-0.1212112158536911,-0.15529151260852814,0.05700193718075752,0.14269520342350006,0.1675315499305725,-0.43631553649902344,0.03602193295955658,-0.012532439082860947,-0.2701679766178131,0.15614569187164307,-0.06779271364212036,-0.018901752308011055,-0.09508520364761353,0.08273667097091675,-0.2040267288684845,0.23312050104141235,0.25602012872695923,-0.32264986634254456,0.25267449021339417,-0.04298112168908119,-0.06174720823764801,-0.14889316260814667,0.04966627061367035,-0.08065766096115112,-0.05694117397069931,-0.047656357288360596,-0.1783073991537094,-0.43623775243759155,0.09204089641571045,0.10554900765419006,0.3183024525642395,-0.2501719295978546,-0.2636716365814209,0.03426660597324371,0.06017313525080681,0.1566738337278366,0.2960209250450134,-0.08950425684452057,0.12680737674236298,-0.0020872680470347404,0.07113347202539444,-0.3912343382835388,0.1395491361618042,0.2773481011390686,-0.1407856047153473,0.0684518814086914,0.023738913238048553],[0.12171724438667297,0.05951925367116928,-0.11903061717748642,-0.051211632788181305,0.13026480376720428,-0.24933312833309174,0.023895608261227608,0.32555174827575684,0.11762944608926773,0.14291609823703766,0.26587504148483276,-0.22731520235538483,0.13982318341732025,0.03061414696276188,0.11319130659103394,-0.004865754395723343,0.01935187540948391,-0.03900952637195587,0.4088822305202484,0.04283597320318222,0.012970413081347942,-0.31453096866607666,-0.0017935638315975666,-0.02044970914721489,-0.025030219927430153,0.02377677522599697,-0.14631357789039612,-0.2630120515823364,-0.27032697200775146,-0.0699787363409996,-0.26359090209007263,-0.002862252527847886,0.2158704251050949,0.1920381784439087,-0.26460790634155273,-0.14842045307159424,-0.09755613654851913,0.020155685022473335,0.036144401878118515,0.17399755120277405,0.09086563438177109,-0.2326844185590744,-0.38756194710731506,-0.047198716551065445,-0.05332408845424652,-0.19075024127960205,-0.10480457544326782,0.16185946762561798,-0.1383315622806549,0.05467905104160309,0.05121602118015289,-0.0009523243643343449,-0.08541367948055267,-0.09006089717149734,-0.03288067877292633,-0.04484529420733452,-0.11579976975917816,0.08125089854001999,-0.10381124168634415,-0.005310987588018179,-0.19953319430351257,0.36591672897338867,0.10361692309379578,0.0908920168876648,-0.5210344791412354,0.011208254843950272,-0.15544730424880981,0.10081671178340912,-0.035367775708436966,-0.10210488736629486,0.33967846632003784,-0.3259548544883728,-0.1630210429430008,-0.27604570984840393,-0.19811569154262543,-0.06965930759906769,0.0918813943862915,-0.00047634149086661637,0.0423428900539875,0.3603021204471588,-0.048168718814849854,0.04494437202811241,0.13839130103588104,0.15525969862937927,-0.3915617763996124,-0.3514728546142578,-0.08817311376333237,-0.18455220758914948,0.052710819989442825,-0.10471171885728836,0.010444458574056625,-0.18779899179935455,-0.2313099056482315,0.1415001004934311,-0.041430238634347916,0.11793271452188492,0.03980335593223572,0.43869778513908386,0.10244622826576233,0.030622897669672966,0.060130711644887924,0.16721023619174957,0.004076860845088959,0.5107454061508179,-0.07739564031362534,0.22966870665550232,-0.14202024042606354,0.13527992367744446,-0.0017670983215793967,0.06554023176431656,-0.2048080563545227,0.15146024525165558,0.19569723308086395,0.005600097123533487,-0.10572517663240433,0.04705752804875374,0.37470710277557373,-0.17476463317871094,-0.39862391352653503,-0.14541621506214142,-0.24818623065948486,-0.3567112386226654,0.09957654029130936,0.200104758143425,-0.029953988268971443,-0.059553112834692,-0.12830516695976257,0.2741535007953644,0.11738453805446625,0.18923112750053406,-0.05557918921113014,-0.291225403547287,0.1798384040594101,-0.15305690467357635,0.15320639312267303,0.13216957449913025,0.014869146049022675,0.4733685851097107,-0.0825214684009552,0.13865385949611664,0.18386417627334595,-0.03698577359318733,0.21461321413516998,0.03271319717168808,0.13643278181552887,-0.0971660315990448,0.029366828501224518,0.018099848181009293,-0.07768385112285614,-0.28689342737197876,-0.16995568573474884,0.15678523480892181,-0.20277993381023407,-0.22180704772472382,-0.01612897589802742,-0.0550660565495491,-0.05720492824912071,-0.0450691394507885,-0.2289104461669922,0.2095857411623001,-0.1209406778216362,0.19093585014343262,0.29505792260169983,-0.21552735567092896,-0.005644361488521099,0.1610655039548874,-0.09762123972177505,-0.046281762421131134,-0.18426254391670227,-0.11064732074737549,0.07749355584383011,-0.04367775842547417,-0.2104642540216446,-0.12011664360761642,-0.026190733537077904,-0.17263823747634888,-0.056123558431863785,0.002960017416626215,-0.04169249162077904,0.2272942066192627,-0.29399269819259644,0.22884227335453033,0.23546196520328522,0.3108442425727844,-0.0984826609492302,-0.16963931918144226,-0.0055093951523303986,0.3135499358177185,-0.24804256856441498,-0.16588400304317474,-0.17409147322177887,-0.17255061864852905,0.153381809592247,-0.05853402614593506,-0.11497864127159119,-0.0038386189844459295,-0.16167227923870087,-0.07826758921146393,0.266342431306839,0.061579324305057526,-0.2371194213628769,0.16499267518520355,0.28866809606552124,0.05410830304026604,0.023156216368079185,-0.148439422249794,0.1379714161157608,-0.321549654006958,0.028109947219491005,-0.0073248944245278835,-0.03515200689435005,-0.11806921660900116,-0.3653981685638428,0.2452244609594345,0.30240392684936523,-0.03893738240003586,0.1990266591310501,-0.06832055002450943,0.1951056569814682,-0.08818594366312027,-0.2600184679031372,-0.08478134870529175,-0.09135385602712631,-0.07546542584896088,-0.026819713413715363,0.24555423855781555,0.011845200322568417,0.11865007877349854,0.14764101803302765,0.041344787925481796,0.27260714769363403,0.39420270919799805,-0.23824138939380646,-0.1333039253950119,0.09864833205938339,-0.1258305460214615,-0.14622291922569275,0.018563395366072655,-0.14620636403560638,-0.26254886388778687,0.36994653940200806,-0.07770200073719025,-0.2541961669921875,0.13175678253173828,-0.025723125785589218,0.03473108634352684,0.04601561278104782,-0.05670468136668205,0.1057141050696373,0.28793156147003174,0.05267280712723732,-0.19769570231437683,-0.013903152197599411,-0.19079308211803436,0.10395580530166626,0.31861621141433716],[-0.1098695769906044,-0.10417300462722778,-0.22933898866176605,-0.2998684346675873,-0.22374610602855682,-0.17782451212406158,0.005114000290632248,-0.014183016493916512,0.1231454610824585,-0.39316868782043457,0.1467583179473877,0.21822161972522736,0.06366228312253952,-0.10623631626367569,0.02538914605975151,-0.13392049074172974,0.03699284791946411,0.062279894948005676,-0.16358232498168945,0.16671645641326904,0.041849348694086075,0.07053540647029877,-0.17570079863071442,0.02552122436463833,0.07495860010385513,-0.20196636021137238,-0.019825803115963936,-0.012990765273571014,0.1324940025806427,-0.16836978495121002,0.06557158380746841,-0.013204468414187431,-0.073002390563488,-0.02703525312244892,-0.13470293581485748,0.1056918352842331,-0.3618685305118561,-0.14486239850521088,0.2808232009410858,-0.2337818443775177,-0.22828663885593414,-0.23198477923870087,0.1457308679819107,-0.07831083983182907,-0.3788854777812958,-0.08635633438825607,-0.1850665658712387,-0.20284859836101532,-0.13711465895175934,-0.05570892244577408,-0.11282109469175339,-0.06851061433553696,0.20930254459381104,-0.0011484486749395728,-0.22653904557228088,-0.07218136638402939,-0.14715193212032318,-0.23661395907402039,-0.2507014870643616,-0.04597363620996475,0.44209662079811096,0.18663844466209412,-0.2809333801269531,-0.09000416100025177,0.1555778831243515,0.11376775056123734,0.15906675159931183,-0.3221084773540497,0.14960908889770508,0.04072277620434761,0.21705248951911926,0.11834262311458588,0.11011958867311478,-0.2701610028743744,-0.08482901006937027,0.041951294988393784,-0.21833056211471558,-0.0789446234703064,-0.062181927263736725,-0.15113303065299988,-0.1545553356409073,-0.06639285385608673,0.1995151787996292,0.09157013148069382,-0.026328176259994507,0.07803606986999512,0.06952068954706192,-0.05869092419743538,-0.10433972626924515,-0.211399108171463,-0.08042803406715393,0.06925077736377716,-0.27776023745536804,0.1905892938375473,0.12792782485485077,0.023500479757785797,-0.15157119929790497,0.10366236418485641,-0.20817796885967255,0.04032398760318756,-0.023343751206994057,0.04922211915254593,-0.24210885167121887,-0.03159418702125549,0.12661504745483398,0.029996441677212715,-0.12273763865232468,0.061568573117256165,-0.10593973845243454,-0.17033027112483978,0.025583311915397644,-0.023974476382136345,0.24214553833007812,0.32255762815475464,0.12424832582473755,0.09878353029489517,-0.14274947345256805,-0.2683408558368683,-0.027050791308283806,-0.1319546401500702,0.10833130031824112,-0.07153389602899551,0.0022532648872584105,0.11111673712730408,-0.07648566365242004,0.007042698096483946,0.14203308522701263,0.11033136397600174,0.10503566265106201,-0.02393208257853985,-0.09801662713289261,-0.21229584515094757,-0.014757840894162655,-0.05411510169506073,-0.1618213951587677,0.029831204563379288,-0.026151107624173164,-0.09172796458005905,0.35383981466293335,-0.11577670276165009,0.31101566553115845,-0.12629228830337524,0.11995799839496613,0.042640671133995056,-0.06052558496594429,-0.35132548213005066,-0.1646890491247177,-0.22139500081539154,-0.2009129375219345,-0.12859264016151428,0.04939870908856392,-0.04910706728696823,0.08633774518966675,-0.1259816735982895,-0.4193066954612732,-0.20802731812000275,-0.2847946286201477,-0.18255917727947235,-0.006190084852278233,-0.05520801991224289,0.15877006947994232,-0.23821957409381866,0.1721383035182953,-0.1930401623249054,0.3965093195438385,-0.01850799471139908,-0.13491445779800415,-0.48964595794677734,-0.2627052962779999,0.0878242701292038,-0.15416903793811798,0.12012778222560883,0.25485751032829285,-0.23041342198848724,-0.113181471824646,0.24054668843746185,-0.021776851266622543,-0.3572806417942047,0.04987287148833275,-0.32937753200531006,-0.016871631145477295,-0.13558430969715118,-0.2029532492160797,-0.3852631449699402,-0.082638218998909,-0.05323035269975662,-0.2963712811470032,0.0373874232172966,-0.23469509184360504,-0.06275442987680435,0.15996955335140228,0.15944640338420868,0.1680210679769516,-0.06149540841579437,0.09241726249456406,-0.06720898300409317,0.16299395263195038,-0.19076448678970337,-0.011153057217597961,-0.12743382155895233,0.0276072658598423,0.22141925990581512,-0.15679627656936646,-0.20639535784721375,-0.28660184144973755,-0.1819659024477005,-0.12535449862480164,0.2746782898902893,-0.1307246834039688,-0.12546584010124207,0.13538745045661926,-0.0412367545068264,-0.21457664668560028,-0.07619810849428177,0.09767097234725952,-0.027472415938973427,-0.3232215940952301,0.06601890921592712,-0.13584795594215393,0.16329200565814972,0.15907220542430878,-0.23749738931655884,-0.11324920505285263,-0.03227323293685913,0.13063721358776093,0.20306991040706635,-0.11923346668481827,-0.1671607792377472,-0.2042836993932724,0.2352745682001114,0.04083395004272461,0.0800110325217247,0.29558345675468445,-0.0735650360584259,-0.2604774534702301,-0.14151956140995026,-0.20912843942642212,-0.2281881421804428,-0.11528494954109192,-0.2530556917190552,0.06696595996618271,-0.11296763271093369,-0.28419357538223267,0.07969730347394943,-0.05461055785417557,-0.05097590386867523,-0.007642396260052919,0.20195361971855164,0.12366234511137009,0.015209399163722992,0.15983933210372925,0.2346162348985672,-0.1347007006406784,-0.3337569534778595,-0.13085176050662994,-0.1945657879114151],[0.1615934818983078,-0.08138910681009293,-0.1870148479938507,-0.2163022756576538,0.0425713025033474,-0.07923783361911774,0.1418493390083313,-0.13440269231796265,-0.09940919280052185,-0.4385814070701599,0.14711619913578033,0.09697523713111877,-0.24197439849376678,-0.14385583996772766,0.09318243712186813,0.0916697159409523,-0.03699693828821182,0.003869134234264493,-0.31305500864982605,0.27872976660728455,0.05616815388202667,-0.2212139517068863,0.0892636850476265,-0.42939022183418274,-0.3411763906478882,-0.14074420928955078,0.12622283399105072,-0.0795966163277626,-0.12035778909921646,0.05715338513255119,-0.22215871512889862,-0.24726609885692596,-0.3876473903656006,-0.21858806908130646,-0.21739718317985535,0.011745307594537735,-0.1861189305782318,0.22759032249450684,-0.09809064120054245,0.09662419557571411,-0.28426796197891235,0.1401812881231308,0.10800235718488693,-0.4685485064983368,-0.2005254477262497,0.16150586307048798,-0.2992498278617859,-0.06021411344408989,0.1954314261674881,-0.23700138926506042,-0.10574463754892349,-0.18251359462738037,-0.09709596633911133,0.1175835058093071,0.0906466469168663,-0.07446873933076859,-0.26029157638549805,0.07453013211488724,-0.3772375285625458,-0.19084130227565765,-0.13993212580680847,-0.025054486468434334,-0.06935384124517441,-0.2712084650993347,0.01593068614602089,-0.05481519177556038,-0.1290847361087799,0.2944243252277374,-0.32132452726364136,-0.3982001543045044,0.05920497700572014,0.11453264206647873,-0.10036987066268921,-0.048381175845861435,-0.08268741518259048,-0.24290721118450165,0.46577149629592896,0.34028828144073486,-0.004004305228590965,-0.05825371295213699,0.07355489581823349,-0.042373254895210266,0.1217421144247055,0.20204080641269684,0.1359579861164093,0.04106416180729866,0.022623833268880844,-0.24775852262973785,-0.23703770339488983,-0.3478170335292816,0.10771137475967407,0.2394731193780899,-0.1032080128788948,-0.026478979736566544,-0.1431257575750351,0.014538739807903767,0.05567886680364609,-0.06413033604621887,0.08701212704181671,0.024419885128736496,0.28557801246643066,0.03897932544350624,-0.05619877204298973,0.03476707264780998,-0.18501922488212585,0.07074257731437683,-0.10550582408905029,-0.12269130349159241,-0.2501846253871918,-0.07691043615341187,0.14345704019069672,0.10789712518453598,0.14527536928653717,0.09610585868358612,-0.24789418280124664,-0.03536565229296684,0.11063806712627411,-0.04223480448126793,0.13099637627601624,-0.1134352907538414,0.09664679318666458,-0.3652452528476715,-0.04180729389190674,-0.16118258237838745,-0.18413938581943512,-0.06445761770009995,-0.019096435979008675,0.04611576348543167,-0.18200059235095978,0.11873110383749008,0.20896779000759125,0.24411004781723022,0.3378770053386688,-0.28393658995628357,-0.12404100596904755,-0.10912691056728363,0.04863107576966286,-0.012675481848418713,-0.33057594299316406,0.20916126668453217,-0.2856007218360901,-0.33107537031173706,0.33325955271720886,0.021843023598194122,0.011940352618694305,-0.06528608500957489,-0.1480414718389511,-0.1879013031721115,-0.41659435629844666,-0.24062439799308777,-0.01028597541153431,0.3183792531490326,0.04292670264840126,0.11715991795063019,-0.07162028551101685,-0.2034594565629959,0.25241580605506897,-0.30219507217407227,-0.13134688138961792,-0.23605112731456757,-0.06473847478628159,0.3206791579723358,-0.2836584448814392,-0.07229086756706238,0.17574365437030792,-0.07480435818433762,0.12233200669288635,0.07421839237213135,-0.24584077298641205,-0.05257720127701759,-0.024356093257665634,0.03254951536655426,0.10711042582988739,0.04195890948176384,0.01888081058859825,-0.15846066176891327,-0.08542069792747498,0.195564866065979,-0.14525943994522095,-0.13443447649478912,-0.09700891375541687,0.07510678470134735,0.2117987871170044,-0.21921125054359436,-0.09579156339168549,-0.08203861862421036,-0.2188272476196289,-0.1232314258813858,-0.0415160246193409,-0.13924184441566467,0.05120805278420448,0.00250885053537786,0.07864449173212051,0.22690868377685547,-0.2636844217777252,-0.0007997741922736168,0.1562853306531906,-0.09259410947561264,0.23998424410820007,-0.015105183236300945,-0.04271552711725235,0.21918939054012299,-0.04651869460940361,-0.34635114669799805,-0.21295900642871857,0.11795270442962646,-0.07538904994726181,-0.08662224560976028,0.02372424490749836,-0.06601305305957794,-0.11435885727405548,0.0659119114279747,0.47609394788742065,-0.45356619358062744,0.2524784505367279,-0.18406552076339722,-0.43165236711502075,-0.14633162319660187,-0.2693568766117096,-0.464524507522583,-0.08044588565826416,-0.035200998187065125,0.17830027639865875,-0.14180885255336761,-0.05657844617962837,0.10301452875137329,-0.2833707928657532,-0.16995903849601746,0.09109524637460709,-0.3094566762447357,0.10127293318510056,-0.13837195932865143,-0.3655073344707489,-0.03713897243142128,-0.29785865545272827,0.15441803634166718,-0.31256452202796936,-0.17986354231834412,0.04723884537816048,-0.17629815638065338,0.08574984222650528,-0.14316338300704956,-0.15647852420806885,0.0850927084684372,-0.05019467696547508,-0.24113307893276215,0.12552940845489502,-0.10230773687362671,-0.01522079948335886,-0.18857203423976898,-0.3328593373298645,0.0020921584218740463,-0.41305848956108093,0.06186563894152641,0.2442260980606079,0.10150936990976334],[-0.1508571058511734,0.27201685309410095,0.008684239350259304,0.00847178790718317,-0.15361255407333374,-0.042673900723457336,0.055680908262729645,-0.21805845201015472,0.19515173137187958,-0.24046242237091064,-0.17007499933242798,-0.248983234167099,-0.06102203205227852,-0.013623264618217945,0.22564968466758728,-0.04358046501874924,-0.24456581473350525,-0.028061814606189728,-0.10334557294845581,0.29214873909950256,-0.15491698682308197,-0.124515600502491,0.06064063683152199,-0.3645942211151123,-0.1682531088590622,0.2675233483314514,0.12445089966058731,-0.06150958314538002,-0.1372843086719513,-0.2756487727165222,-0.023878592997789383,0.0751345083117485,0.009828485548496246,-0.15200990438461304,-0.2628503441810608,-0.1411333531141281,0.15658102929592133,-0.2664787769317627,0.11492659896612167,-0.038988132029771805,-0.0016862698830664158,-0.023878401145339012,-0.23522233963012695,0.1671665608882904,0.04101700708270073,0.1807267814874649,-0.18022948503494263,-0.3448566198348999,-0.0883285403251648,-0.0492316409945488,-0.04222666472196579,-0.2058935910463333,-0.10562600195407867,-0.06662637740373611,-0.1662183701992035,0.049739520996809006,-0.1477499008178711,0.05943421646952629,-0.17640069127082825,-0.2731200158596039,-0.22637884318828583,-0.16848988831043243,-0.20164132118225098,-0.18728061020374298,-0.42370614409446716,0.12571591138839722,0.27937424182891846,-0.06827344745397568,0.0006435515242628753,0.44653448462486267,0.6171427369117737,-0.13727684319019318,-0.037808652967214584,0.08498749136924744,-0.255088746547699,-0.19910480082035065,-0.09744732826948166,-0.15043357014656067,0.04192419350147247,-0.0351492203772068,0.15127451717853546,0.10451667010784149,-0.06983961164951324,-0.0024123929906636477,-0.1381535679101944,-0.015217355452477932,0.043213099241256714,-0.2090913951396942,0.1721380352973938,-0.08371704071760178,-0.04893770441412926,0.029137536883354187,-0.2940652370452881,-0.20544475317001343,0.058506906032562256,-0.16493670642375946,0.19329017400741577,-0.07019715011119843,-0.04231247678399086,0.27297940850257874,-0.07215668261051178,-0.051851361989974976,-0.026227574795484543,-0.2502465844154358,-0.1769336313009262,0.1820164918899536,0.14850284159183502,-0.10890659689903259,-0.3411463499069214,0.10651612281799316,0.07469723373651505,-0.16904319822788239,0.21457083523273468,0.09344739466905594,0.12381056696176529,0.06504277139902115,-0.17733696103096008,0.24065518379211426,0.2165440022945404,0.19101391732692719,-0.40093886852264404,0.06593746691942215,-0.21069768071174622,0.18722683191299438,-0.06368637830018997,-0.5015512108802795,0.08038726449012756,0.31229862570762634,0.2613414525985718,0.241242915391922,-0.01672491431236267,0.2945686876773834,0.02379787340760231,0.20536451041698456,0.030797995626926422,-0.14881864190101624,-0.24352435767650604,-0.1057344451546669,-0.11316654831171036,-0.15120281279087067,0.06191360577940941,0.08098062127828598,-0.40188825130462646,-0.20445756614208221,-0.05905911698937416,-0.312298983335495,0.18969254195690155,-0.12408620864152908,-0.03383776172995567,0.09535321593284607,-0.056678492575883865,0.04618880897760391,-0.27142012119293213,0.08924555033445358,0.19651108980178833,-0.05241357535123825,-0.051666516810655594,0.00521515030413866,-0.04776134714484215,-0.09403996169567108,0.059149716049432755,0.37055569887161255,-0.3359600305557251,-0.11365045607089996,-0.048920370638370514,-0.07998888939619064,0.2556636333465576,-0.15377044677734375,-0.20183977484703064,-0.050883371382951736,-0.35533642768859863,-0.12534847855567932,-0.00935396272689104,-0.19337546825408936,-0.5416973233222961,0.009545489214360714,-0.012149389833211899,0.28170421719551086,-0.12578321993350983,-0.18838468194007874,0.0821424350142479,-0.01862189546227455,-0.2917720377445221,-0.10399030148983002,-0.3205554485321045,-0.4421738088130951,0.10293746739625931,0.1342228800058365,0.3015585243701935,0.1694851517677307,0.09368903934955597,0.17088206112384796,0.08015602082014084,-0.2563236653804779,-0.09368962794542313,-0.021003026515245438,-0.04110978543758392,0.046430204063653946,-0.2129124253988266,0.1298324167728424,0.17595237493515015,0.08359476923942566,-0.04865070432424545,-0.19266557693481445,0.0007002070778980851,-0.2802930474281311,0.33813560009002686,-0.05047997459769249,-0.07299641519784927,0.499935507774353,-0.10850868374109268,-0.04066412150859833,0.19420328736305237,0.0016716965474188328,0.23441797494888306,-0.11788550019264221,-0.4412743151187897,-0.17465181648731232,0.10474129021167755,0.027275606989860535,0.14192552864551544,0.18466894328594208,-0.03931182995438576,0.2494451105594635,-0.17123748362064362,0.15140821039676666,0.12250914424657822,-0.31253960728645325,-0.021217914298176765,-0.349530965089798,0.07167550921440125,-0.2259572297334671,-0.12701457738876343,-0.19622603058815002,-0.5942775011062622,-0.24195942282676697,0.009663905017077923,-0.03756728768348694,-0.0757603794336319,-0.10569526255130768,-0.3099302053451538,-0.37352460622787476,-0.13842317461967468,0.18055012822151184,-0.025263961404561996,-0.04733697324991226,-0.21430756151676178,-0.0940500944852829,0.2625289857387543,-0.19291365146636963,-0.03150029107928276,-0.3637862503528595,0.041869085282087326,-0.3883020579814911,-0.22551485896110535,0.004384467378258705],[-0.02420792356133461,-0.04000817611813545,0.048613931983709335,-0.05312475934624672,-0.20581340789794922,0.03248918429017067,-0.1492007076740265,-0.05718341842293739,0.09828263521194458,-0.3055160641670227,-0.3527924120426178,0.031838033348321915,0.18361499905586243,-0.13850535452365875,0.3632630407810211,-0.13917319476604462,-0.11676838994026184,-0.11637737601995468,0.1889820396900177,-0.1392969936132431,-0.06986995041370392,0.11082911491394043,-0.2059985250234604,0.0452137216925621,0.04502364993095398,-0.18189527094364166,-0.12066140025854111,-0.03167738392949104,0.16547413170337677,0.20973417162895203,-0.049667540937662125,-0.17385482788085938,0.056270238012075424,-0.03655838966369629,-0.2118607461452484,-0.34901338815689087,0.035109080374240875,0.30193814635276794,0.05727488547563553,0.2036246955394745,-0.05081593245267868,-0.11643468588590622,0.16583436727523804,0.31089481711387634,-0.1298890858888626,0.10901814699172974,0.057388678193092346,-0.2775697112083435,0.12715193629264832,0.01964491419494152,0.06892645359039307,-0.10130969434976578,0.03769989684224129,-0.38767048716545105,0.13149148225784302,0.06940780580043793,-0.21751302480697632,-0.15860407054424286,0.1259252279996872,-0.3185712397098541,0.0690605640411377,-0.13237649202346802,0.01488968264311552,0.04750487580895424,-0.18498337268829346,-0.38545408844947815,0.23687031865119934,-0.07805151492357254,0.13429151475429535,0.09143449366092682,-0.1834706813097,0.1308373212814331,0.022212637588381767,0.030250918120145798,-0.07799504697322845,0.14300599694252014,0.2060791552066803,-0.0871594101190567,0.0946541503071785,0.3895830810070038,-0.13343161344528198,0.021697601303458214,-0.47511184215545654,0.02317957393825054,-0.10714404284954071,0.3013516962528229,-0.14773762226104736,-0.029476797208189964,0.3948596715927124,-0.2064814269542694,-0.31301718950271606,-0.11177653819322586,0.02258153259754181,-0.0824676975607872,0.0625784769654274,0.24576181173324585,-0.21202799677848816,0.021484117954969406,0.08860278129577637,0.049152735620737076,-0.15359434485435486,0.045472152531147,0.1408778727054596,-0.2929530739784241,0.2817094922065735,-0.019609322771430016,0.029226163402199745,-0.0007019747863523662,0.1702127605676651,0.08313021063804626,-0.025448346510529518,-0.035261984914541245,-0.12271695584058762,0.02080567181110382,-0.21414051949977875,-0.10757178068161011,-0.1053849384188652,0.3218657672405243,0.10252846032381058,-0.05664496868848801,-0.0031780721619725227,0.033056508749723434,0.11274580657482147,0.039456140249967575,0.11603140830993652,-0.24995720386505127,-0.00885785836726427,0.0070512122474610806,-0.1663208305835724,-0.03168183192610741,-0.11002301424741745,-0.31375935673713684,0.21554967761039734,-0.12315674126148224,0.2295018583536148,0.007334110327064991,-0.16933351755142212,0.08346520364284515,-0.11255525797605515,-0.13856494426727295,0.02408246323466301,-0.26818928122520447,-0.09670504182577133,-0.2984645962715149,0.2007964700460434,-0.3069491982460022,0.26462119817733765,0.05856001004576683,0.30010998249053955,0.10875168442726135,0.024928003549575806,-0.010991847142577171,0.07804393023252487,0.17041459679603577,0.15678182244300842,-0.011940794996917248,-0.1780942678451538,-0.0223737433552742,0.23289158940315247,-0.30117279291152954,-0.05202490836381912,-0.28692132234573364,-0.12266577035188675,-0.10127987712621689,0.22748872637748718,-0.11396103352308273,0.04287470504641533,-0.0712340921163559,-0.17611528933048248,0.10510899126529694,-0.3367941081523895,-0.1234472244977951,0.21355846524238586,0.1629558801651001,0.15653567016124725,0.017255578190088272,0.09888739138841629,-0.5330696702003479,-0.16623333096504211,-0.16389283537864685,-0.08681150525808334,-0.10593510419130325,0.20004427433013916,-0.021899987012147903,0.2321140319108963,-0.10711894929409027,-0.06976628303527832,-0.17814482748508453,0.11013306677341461,-0.20263351500034332,0.24967846274375916,-0.19141317903995514,0.0897039920091629,-0.13524369895458221,-0.3072931468486786,-0.1965900957584381,-0.16975833475589752,-0.059955283999443054,-0.1551087498664856,-0.2258538007736206,-0.1818445920944214,-0.22270230948925018,-0.024727335199713707,0.17848336696624756,0.30146560072898865,-0.22057968378067017,0.3308160901069641,0.01213112287223339,-0.09871044754981995,-0.12697184085845947,0.09224101901054382,-0.13370248675346375,-0.19025149941444397,-0.05764145776629448,-0.046784400939941406,-0.04569411650300026,-0.2349083423614502,-0.06039435788989067,-0.13768041133880615,0.3380970358848572,0.2855558693408966,-0.20713120698928833,0.08412830531597137,0.21631096303462982,-0.035110846161842346,0.21188218891620636,-0.191959947347641,0.08551260828971863,-0.1421871930360794,-0.007454840000718832,-0.008814975619316101,-0.24518215656280518,0.07773002237081528,-0.3342868685722351,-0.11848650872707367,-0.20031815767288208,-0.05606692284345627,0.012831192463636398,-0.29735851287841797,0.035739172250032425,0.11659612506628036,-0.14650017023086548,0.1714579164981842,0.12156906723976135,-0.19319449365139008,-0.27401354908943176,-0.17242828011512756,-0.09689367562532425,0.2561415433883667,0.20559366047382355,-0.24200689792633057,-0.1976870894432068,-0.036603882908821106,-0.10825205594301224,0.21340008080005646,-0.13126373291015625],[-0.2940215766429901,0.14011168479919434,0.1397898644208908,-0.22004343569278717,-0.019339250400662422,0.07062231004238129,-0.20614275336265564,0.022336984053254128,-0.0678926482796669,-0.11525256186723709,-0.040222473442554474,-0.0050722151063382626,0.24278023838996887,-0.2953377962112427,0.20114107429981232,0.13448485732078552,-0.10755990445613861,-0.008661606349050999,-0.40201857686042786,-0.24857428669929504,-0.16506676375865936,-0.10247856378555298,0.11216263473033905,-0.011170192621648312,-0.04586286097764969,-0.004672086797654629,-0.08854462206363678,-0.0980260819196701,-0.33151641488075256,-0.23510415852069855,-0.1547394096851349,-0.01346183568239212,-0.0924898162484169,-0.09701136499643326,0.04294602945446968,-0.1943422257900238,-0.12303818762302399,0.19848665595054626,0.04446312412619591,0.3090936839580536,-0.07281666994094849,-0.1305224746465683,0.025619665160775185,0.12036149948835373,-0.26004284620285034,-0.07720418274402618,-0.05899012088775635,-0.1665259748697281,-0.047635044902563095,0.23107127845287323,-0.048657577484846115,0.17929218709468842,-0.1445578783750534,-0.06082244962453842,0.03567725047469139,0.11086001992225647,0.10878636687994003,0.34350597858428955,0.13163821399211884,0.03771628439426422,0.12509305775165558,-0.18955667316913605,0.13261142373085022,0.04333899915218353,-0.15148401260375977,-0.06770709902048111,-0.1343141496181488,-0.24242757260799408,-0.1012497991323471,-0.02214949019253254,0.004448068328201771,0.008883468806743622,-0.11074908077716827,-0.18810875713825226,0.34570226073265076,0.28167352080345154,0.16489769518375397,0.32703667879104614,-0.3191467523574829,0.1775027960538864,-0.26712897419929504,-0.049870602786540985,0.07898756116628647,-0.2509419620037079,-0.12891438603401184,0.10989886522293091,0.1690824329853058,-0.016840346157550812,-0.3247125446796417,0.06009884551167488,0.09817203134298325,-0.18313901126384735,0.424625426530838,0.1843148171901703,0.19218659400939941,-0.2500744163990021,0.11818067729473114,0.0009678895003162324,0.02596209943294525,-0.0689162015914917,-0.23220768570899963,-0.08755245804786682,-0.19939430058002472,-0.05229177698493004,-0.043337564915418625,-0.07959174364805222,-0.21617011725902557,-0.09177888929843903,0.049946416169404984,-0.30299514532089233,-0.18996261060237885,-0.029735276475548744,-0.17563654482364655,0.19133500754833221,-0.2331884205341339,-0.16300319135189056,-0.10446202009916306,0.28425654768943787,0.23565854132175446,0.18392616510391235,-0.26779261231422424,-0.006339661777019501,-0.2449430227279663,0.07919949293136597,0.14390160143375397,-0.2944686710834503,0.19368384778499603,0.10158240795135498,-0.045670684427022934,-0.21914249658584595,-0.09947484731674194,0.2978956997394562,0.048272885382175446,-0.011645125225186348,-0.20667318999767303,0.24193109571933746,0.05310435593128204,-0.1771426647901535,-0.14897580444812775,0.03174854442477226,-0.31078609824180603,0.13781151175498962,-0.16255955398082733,-0.04980811849236488,0.14105018973350525,-0.10475557297468185,0.37956470251083374,0.007030288688838482,-0.01050558127462864,-0.15928305685520172,0.06923001259565353,-0.137334942817688,0.2801889181137085,0.2127051204442978,0.13350912928581238,-0.030987704172730446,-0.13913191854953766,0.29442593455314636,-0.1466800570487976,-0.03701239824295044,0.1938881278038025,-0.2918950021266937,0.051497988402843475,-0.2843474745750427,0.03902576491236687,-0.10262566804885864,-0.028836285695433617,-0.18947650492191315,0.047509755939245224,0.16712228953838348,-0.19767221808433533,-0.14963623881340027,-0.0037443055771291256,-0.5693538188934326,0.18570679426193237,0.2878839373588562,-0.42252978682518005,-0.012598752975463867,0.17384284734725952,0.4634258449077606,0.17355307936668396,0.06282402575016022,0.37284478545188904,-0.0049493382684886456,0.12504488229751587,-0.07887942343950272,0.09471164643764496,-0.03100544400513172,-0.4141969084739685,0.09382054954767227,0.09045487642288208,0.011916417628526688,0.007201227359473705,-0.09195268899202347,0.11075061559677124,0.09675570577383041,-0.04083713889122009,-0.031117508187890053,0.21152591705322266,-0.02720865048468113,0.057086724787950516,-0.04546327516436577,-0.2352226972579956,0.10079549998044968,-0.16972048580646515,-0.17004114389419556,-0.17576444149017334,-0.029201477766036987,-0.18323105573654175,0.06556084752082825,-0.15604598820209503,0.09326788783073425,-0.03947459161281586,-0.01158037781715393,0.05255824699997902,-0.10616637021303177,0.1299763172864914,-0.11233910918235779,0.061145685613155365,-0.3103043735027313,-0.2500787675380707,0.04542837291955948,-0.04812588915228844,-0.28839200735092163,-0.2075628787279129,0.21573728322982788,-0.19834817945957184,0.2472265362739563,-0.30647149682044983,0.0071938252076506615,0.05768990144133568,-0.078952856361866,-0.36468687653541565,-0.40326279401779175,0.257764607667923,0.13287967443466187,-0.369000643491745,0.4772825837135315,-0.10565145313739777,-0.04574769362807274,0.13840706646442413,0.11967738717794418,-0.09838368743658066,-0.24733902513980865,-0.021221937611699104,0.17010614275932312,-0.33971917629241943,-0.01248322892934084,0.07794561982154846,-0.17758730053901672,0.2249976098537445,0.06857044994831085,-0.1252967268228531,0.45158523321151733,-0.0023571348283439875,0.015384769067168236],[-0.025511814281344414,-0.11415080726146698,0.10903606563806534,0.008836545050144196,-0.13911588490009308,0.19817285239696503,-0.09682493656873703,-0.16059088706970215,0.24728034436702728,-0.1889195740222931,-0.11230354756116867,0.1408521980047226,0.008777642622590065,-0.2964601516723633,-0.058900386095047,-0.05069269612431526,-0.06550683826208115,-0.052717238664627075,-0.03262327238917351,0.21831923723220825,-0.018459094688296318,-0.14813995361328125,0.14008969068527222,-0.1439717710018158,-0.12101135402917862,-0.218804731965065,-0.08552775532007217,0.0011493421625345945,0.17039892077445984,0.26802197098731995,-0.25515133142471313,-0.03417111560702324,0.05322292819619179,-0.15057943761348724,-0.0638914406299591,-0.1909356564283371,0.08378306031227112,0.03594164177775383,-0.13641048967838287,0.0645241066813469,-0.2052774876356125,-0.18427398800849915,0.11339357495307922,0.07541213929653168,0.10331928730010986,-0.1565045267343521,0.071123406291008,0.04347749799489975,0.2299870401620865,0.283189058303833,-0.030851958319544792,0.08371511846780777,-0.316549152135849,0.020519686862826347,-0.16071009635925293,-0.20766617357730865,-0.2392359972000122,0.031285978853702545,0.27813777327537537,-0.03243398666381836,-0.1961696296930313,0.37898746132850647,-0.16032595932483673,0.016405325382947922,-0.021985437721014023,-0.15834921598434448,-0.05490569770336151,-0.3176042437553406,0.13703975081443787,0.018934741616249084,0.1898678094148636,0.08653723448514938,-0.07736577093601227,0.09803026169538498,-0.26130953431129456,-0.07928046584129333,0.1290588527917862,0.09028707444667816,0.008948695845901966,-0.13905438780784607,-0.01102797407656908,-0.16697323322296143,0.0859747901558876,-0.21685513854026794,-0.2595193386077881,0.055239345878362656,-0.10542014241218567,-0.32902979850769043,0.2711431086063385,-0.1180659756064415,0.2843135893344879,-0.047751158475875854,-0.19060379266738892,-0.18251949548721313,-0.2931745946407318,-0.23383986949920654,-0.021975623443722725,0.0363566055893898,-0.31833121180534363,0.007522342726588249,-0.13663743436336517,0.1272820383310318,-0.145526722073555,0.016126848757267,-0.037869565188884735,-0.03683820366859436,-0.06842471659183502,0.0009606013773009181,-0.10444577038288116,0.2029210776090622,-0.317068487405777,0.05787724256515503,0.21459682285785675,0.17240850627422333,-0.06449378281831741,0.23381398618221283,0.1506670117378235,-0.16704174876213074,0.164878711104393,0.18123556673526764,0.24570070207118988,0.04063018411397934,0.053574033081531525,0.10444741696119308,0.18402589857578278,-0.11602090299129486,-0.0816928967833519,0.03870639577507973,0.2355840653181076,0.290338397026062,-0.09997015446424484,0.09437531232833862,-0.03196059539914131,-0.3429063856601715,-0.27306026220321655,-0.23707322776317596,-0.24310839176177979,0.031675778329372406,0.2572450339794159,0.1377463936805725,0.008834456093609333,0.08736926317214966,-0.019079379737377167,0.010424226522445679,0.06770641356706619,0.13652770221233368,-0.06643660366535187,-0.06903079152107239,-0.16764172911643982,-0.16773159801959991,-0.10697963088750839,0.15892550349235535,-0.34015312790870667,-0.025780191645026207,0.16518481075763702,0.1043931245803833,-0.19157247245311737,-0.1426893025636673,-0.12612994015216827,0.1585235297679901,-0.06251176446676254,0.002274239668622613,-0.17455415427684784,-0.08186995983123779,-0.0016276072710752487,0.09147625416517258,-0.023275500163435936,0.019314369186758995,-0.246380016207695,0.09032100439071655,0.4189196527004242,-0.17452090978622437,-0.030067553743720055,0.03441697731614113,0.1378580927848816,-0.16219168901443481,0.12395018339157104,-0.16343502700328827,0.10977116227149963,-0.024487823247909546,0.27373579144477844,-0.12956587970256805,0.10416825860738754,0.1762060821056366,-0.02664511278271675,0.07494258135557175,0.26250123977661133,0.08714620023965836,-0.22960755228996277,-0.3516833484172821,-0.07844340056180954,-0.14197535812854767,-0.043884750455617905,-0.09207411855459213,-0.032952696084976196,-0.001977083971723914,0.11045077443122864,0.005908302962779999,0.008739028126001358,0.25260376930236816,0.01354446541517973,-0.3836100399494171,-0.09874439239501953,0.18156710267066956,-0.1657424122095108,0.06328423321247101,0.2094600349664688,-0.33482038974761963,-0.10518338531255722,0.3468107283115387,0.044437091797590256,-0.1806880384683609,-0.09812638908624649,0.05324452370405197,0.16682790219783783,-0.13261708617210388,-0.07457374781370163,-0.48248186707496643,-0.09821461886167526,-0.2548373341560364,-0.10009145736694336,-0.11411648988723755,0.11642536520957947,0.20573057234287262,0.19072720408439636,-0.20212753117084503,0.14092668890953064,-0.17312081158161163,-0.05895547196269035,-0.24464845657348633,-0.11471094936132431,-0.03994997218251228,-0.0006802707212045789,-0.23679344356060028,0.12340813875198364,-0.5002356171607971,-0.12734809517860413,0.12000197172164917,-0.1942826807498932,0.09512941539287567,0.06170649081468582,-0.16541995108127594,-0.15048465132713318,0.058665063232183456,0.09351424127817154,-0.11689674109220505,-0.39743125438690186,0.10381889343261719,0.09034892171621323,-0.11238136142492294,-0.07450701296329498,0.06261614710092545,-0.0023743805941194296,-0.01673603616654873,0.16995744407176971,-0.18268267810344696],[-0.04002111405134201,0.11745461821556091,0.18952099978923798,-0.04655669629573822,0.22732943296432495,-0.11009176075458527,0.08707388490438461,-0.3251776397228241,-0.19155892729759216,-0.2795407176017761,0.055238883942365646,0.14104516804218292,0.0009068396757356822,0.08549182862043381,-0.07829082012176514,-0.12810570001602173,0.03039325773715973,0.042767591774463654,0.10676535218954086,-0.1204671859741211,0.04645661264657974,0.09687365591526031,-0.12103035300970078,-0.11802337318658829,-0.4915171265602112,0.02992434985935688,0.06006183475255966,0.03836851567029953,-0.014204652979969978,-0.03865952417254448,0.021147143095731735,0.2718316316604614,-0.16587312519550323,-0.16578951478004456,0.037984564900398254,-0.005144480615854263,0.15829262137413025,0.12611722946166992,-0.01030269917100668,-0.18651513755321503,0.024502424523234367,-0.033844202756881714,-0.05740296468138695,0.1813163459300995,-0.2502215504646301,-0.005663400981575251,-0.1745026409626007,-0.2157764434814453,0.0021989094093441963,-0.13794347643852234,-0.35877859592437744,-0.06927768141031265,-0.2537086308002472,-0.00042662484338507056,0.02670549601316452,-0.11176830530166626,-0.32309994101524353,-0.34685689210891724,-0.1404881328344345,-0.015058400109410286,-0.0994272232055664,-0.013901852071285248,0.13481508195400238,0.35113996267318726,-0.04047505930066109,0.07685425877571106,-0.46727705001831055,0.004483590368181467,0.28105428814888,0.09407483041286469,-0.29280513525009155,0.1900012046098709,-0.06091359630227089,0.04647350311279297,-0.0913228914141655,-0.3103252351284027,-0.06644003093242645,0.241211399435997,0.03893106058239937,0.1269432157278061,0.1379476636648178,-0.01573755405843258,0.017936913296580315,-0.012263446114957333,-0.08859670907258987,0.17379538714885712,0.09773271530866623,-0.2899136543273926,-0.22983966767787933,0.02624589391052723,0.061141613870859146,0.275115966796875,0.13270848989486694,-0.18681953847408295,0.02199540100991726,0.17529258131980896,0.19341395795345306,-0.03440282493829727,-0.1711249053478241,0.03344244509935379,-0.30414968729019165,-0.008409191854298115,0.10685811191797256,0.0718989372253418,-0.10538889467716217,0.22646433115005493,0.22597329318523407,0.03367658704519272,-0.16229060292243958,-0.16153667867183685,0.027153143659234047,0.017002137377858162,0.2601931393146515,0.010269265621900558,0.03285425528883934,0.06092949956655502,0.14465105533599854,-0.04743948206305504,-0.08807151764631271,-0.23924417793750763,-0.03646393492817879,-0.02263893187046051,0.06553971767425537,-0.12942413985729218,-0.008828718215227127,-0.0071525173261761665,0.25666844844818115,0.009839612990617752,0.40169596672058105,-0.03417067974805832,-0.010550613515079021,-0.13240690529346466,0.09581160545349121,-0.2052098959684372,0.2748100757598877,-0.030633805319666862,-0.24622389674186707,0.10844411700963974,-0.2682378888130188,0.35821443796157837,0.052682213485240936,-0.18099358677864075,0.06626851856708527,0.1365644484758377,-0.14849700033664703,0.1596556454896927,0.006742152385413647,0.18407605588436127,0.20793640613555908,0.03275982290506363,0.028994841501116753,0.12163218855857849,0.20357678830623627,-0.1718294471502304,-0.3187987804412842,0.4791484773159027,-0.2033393383026123,0.13162833452224731,0.02984797954559326,0.268382728099823,-0.1877754032611847,0.0006170063279569149,0.28906628489494324,0.11674114316701889,-0.0003784606233239174,0.11740423738956451,-0.27585944533348083,-0.12392007559537888,-0.34403443336486816,0.04013451933860779,-0.2206631898880005,-0.011536176316440105,-0.1592915803194046,0.2726399600505829,0.04431711137294769,0.008148894645273685,0.26254990696907043,-0.01863717846572399,-0.05864779278635979,-0.23317888379096985,0.021819932386279106,0.26102107763290405,-0.03742067143321037,0.23877248167991638,0.07833055406808853,0.19760490953922272,-0.09987927228212357,0.0043589044362306595,0.05421343073248863,0.02965218760073185,0.07589961588382721,-0.0032508850563317537,0.09468565136194229,-0.18018406629562378,0.38782215118408203,0.33603936433792114,0.06492039561271667,0.058970265090465546,0.01315994281321764,-0.07115352898836136,-0.1127110943198204,-0.1796434372663498,-0.2581782639026642,0.11493885517120361,-0.1708221733570099,-0.1573619246482849,-0.1603802591562271,0.11913743615150452,-0.13336119055747986,-0.1478213369846344,-0.22902044653892517,0.1672554612159729,-0.08313858509063721,0.02314172498881817,-0.005776220001280308,-0.24814660847187042,-0.07283932715654373,-0.1262710839509964,0.29735618829727173,0.280764102935791,0.10802332311868668,0.17140571773052216,-0.2042943835258484,-0.02441392093896866,-0.22110529243946075,0.22624172270298004,-0.18909874558448792,-0.022140976041555405,0.2449878603219986,-0.22060897946357727,0.10197341442108154,-0.24159669876098633,0.2148841917514801,0.10949721932411194,-0.3280264139175415,-0.22033175826072693,-0.05056915804743767,0.19495439529418945,-0.018040062859654427,0.12789805233478546,0.08995291590690613,-0.07630038261413574,-0.31760314106941223,0.08355895429849625,0.005389440804719925,0.0557563416659832,-0.043245136737823486,0.17829953134059906,0.3794066905975342,-0.15866133570671082,-0.3251616060733795,-0.4000213146209717,-0.07237236946821213,-0.09997683018445969,-0.07544028759002686,0.009325716644525528],[0.15899252891540527,-0.10119975358247757,0.29535189270973206,0.10424353182315826,0.005586171988397837,0.01146660465747118,-0.041769225150346756,-0.24637837707996368,-0.22198829054832458,0.07457645982503891,0.14081239700317383,0.05909012258052826,-0.23768186569213867,-0.3554357588291168,0.04426799342036247,-0.18720869719982147,0.045818209648132324,0.08760589361190796,-0.17590561509132385,-0.0026516674552112818,-0.08985535055398941,-0.2560369074344635,0.020338520407676697,-0.22183771431446075,0.09962236881256104,0.30917051434516907,0.03986792266368866,-0.3026359975337982,-0.22661449015140533,0.09164104610681534,0.2431359589099884,0.12077838182449341,-0.21832507848739624,0.020038636401295662,-0.14344973862171173,-0.2313384711742401,-0.08574865013360977,-0.024830667302012444,0.1539263129234314,0.05095943436026573,-0.1324015110731125,-0.08978758007287979,0.0637068897485733,0.20013464987277985,0.1297483742237091,0.005915791727602482,-0.03281432017683983,-0.06119139492511749,0.030038582161068916,0.10666605830192566,0.10880632698535919,0.03264981135725975,0.3985678553581238,-0.03955717384815216,0.08309091627597809,-0.11933304369449615,-0.15126784145832062,0.12649737298488617,0.026542557403445244,-0.03703979402780533,-0.05850525200366974,0.09645700454711914,0.3174881339073181,0.025893840938806534,-0.06255650520324707,0.05371318385004997,0.023267783224582672,-0.33114829659461975,-0.09609251469373703,0.01308956928551197,-0.2637612521648407,0.06031327322125435,0.29473868012428284,0.032502222806215286,-0.012626457959413528,-0.044864583760499954,0.18341702222824097,0.20210674405097961,-0.173175647854805,-0.0203501395881176,-0.014078863896429539,-0.023946205154061317,0.14175866544246674,0.31497836112976074,0.03361760079860687,0.008566372096538544,-0.1358264833688736,-0.166011244058609,0.021229950711131096,-0.1475226730108261,-0.029213789850473404,-0.2263055294752121,-0.1457163691520691,-0.23475852608680725,-0.2712983787059784,0.0057133156806230545,-0.09434824436903,0.06232043355703354,-0.09101994335651398,-0.024686215445399284,-0.0903010293841362,-0.15516556799411774,-0.3167473375797272,-0.12126923352479935,0.23298664391040802,-0.1276513934135437,0.00560675049200654,-0.03774598613381386,-0.17496131360530853,0.0629972591996193,0.020675500854849815,-0.06262525916099548,-0.3174911439418793,0.005627847276628017,-0.002031376352533698,0.21912617981433868,-0.03421909362077713,0.1082170382142067,-0.23381397128105164,0.11523984372615814,-0.08724050968885422,0.06307198107242584,0.1372881680727005,-0.17402613162994385,-0.048783984035253525,-0.2783106863498688,-0.04172922670841217,0.18957868218421936,-0.04998847469687462,0.1194084957242012,-0.0903584361076355,-0.20759186148643494,0.04854366183280945,-0.28681206703186035,-0.6103465557098389,0.09006662666797638,-0.181756392121315,-0.08467075973749161,0.07696697115898132,-0.003009539097547531,0.1396532505750656,-0.17355890572071075,-0.034154992550611496,0.02535674162209034,0.1688535362482071,0.08076762408018112,-0.3969273269176483,-0.37797051668167114,0.2675190269947052,-0.279840886592865,0.014337239786982536,-0.2647806406021118,0.30278047919273376,-0.09456472843885422,-0.10999318957328796,0.023842807859182358,0.12544924020767212,-0.1528858244419098,-0.028767136856913567,-0.4810466766357422,-0.22365985810756683,-0.31230199337005615,0.03365183621644974,0.10193192213773727,-0.05516771599650383,-0.07255183160305023,0.1501666009426117,-0.027662834152579308,0.029993226751685143,0.06695056706666946,-0.13563144207000732,-0.2242128700017929,0.2258952111005783,-0.18352635204792023,0.17670834064483643,-0.000009638200936024077,-0.17159736156463623,-0.23468758165836334,0.027563108131289482,0.08931083232164383,-0.01781591586768627,0.1501663327217102,-0.31072184443473816,0.17748574912548065,-0.053295236080884933,0.23897790908813477,-0.07880225777626038,-0.28174757957458496,0.01675025373697281,-0.2943553924560547,0.009456999599933624,0.14008095860481262,0.04544103890657425,-0.17808417975902557,0.04635857418179512,0.10867578536272049,-0.1589832603931427,-0.14957578480243683,0.07549145817756653,-0.46453794836997986,-0.10872514545917511,0.141451895236969,-0.38511398434638977,0.34155669808387756,0.012538820505142212,0.08125421404838562,-0.4546660780906677,0.09870036691427231,-0.1370064616203308,-0.27151867747306824,-0.2555573582649231,-0.1296876072883606,-0.06018470600247383,0.05541853606700897,-0.0661943256855011,-0.27303922176361084,0.03056107833981514,-0.19132700562477112,-0.245087131857872,0.008903510868549347,-0.13743814826011658,0.09309321641921997,-0.068817138671875,-0.26355499029159546,-0.004278226755559444,-0.16631260514259338,-0.05572039261460304,0.01717819832265377,0.005131439305841923,-0.033708393573760986,0.041625868529081345,-0.4167981445789337,-0.15161021053791046,0.030765337869524956,-0.11056390404701233,0.32002660632133484,0.0337093360722065,-0.12121504545211792,-0.18127474188804626,-0.049048613756895065,-0.04428771883249283,0.023399537429213524,-0.10556492209434509,-0.22900937497615814,-0.05291233956813812,0.0978989526629448,-0.09884016960859299,-0.1561705321073532,0.11756730824708939,-0.11687424033880234,0.20270292460918427,0.03366473317146301,-0.1572897583246231,-0.027902549132704735,-0.056871987879276276,0.051009636372327805],[0.032360270619392395,-0.10019025951623917,-0.07301218062639236,0.21559278666973114,0.016817376017570496,-0.46002593636512756,-0.23916800320148468,-0.06360718607902527,-0.24597863852977753,0.010731294751167297,0.19557584822177887,-0.062126822769641876,-0.02177814021706581,0.0315970741212368,-0.234596848487854,0.21508292853832245,0.24151277542114258,0.11616723984479904,-0.1130746528506279,-0.26212242245674133,-0.08724797517061234,0.13835936784744263,-0.08824941515922546,-0.15441255271434784,-0.01971851848065853,-0.15606118738651276,-0.0650096982717514,-0.04995188117027283,-0.1861729770898819,-0.3385086953639984,0.11234331876039505,-0.08959636837244034,0.13988737761974335,-0.1787758618593216,-0.053426504135131836,-0.23281580209732056,0.22992345690727234,-0.06436893343925476,0.08387178182601929,0.0780414417386055,-0.02003580890595913,0.30759480595588684,-0.10188917070627213,0.05110349506139755,-0.00492618465796113,-0.2562826871871948,0.0729905217885971,0.08293212205171585,-0.14092367887496948,-0.04569077119231224,-0.08243151009082794,-0.1181483343243599,-0.07394280284643173,-0.0347762368619442,0.022322822362184525,-0.23246194422245026,-0.07360781729221344,-0.08649992942810059,-0.2417043000459671,0.35039159655570984,-0.10011565685272217,-0.37638425827026367,0.10286324471235275,-0.06058235093951225,-0.08749948441982269,-0.08309291303157806,0.09848396480083466,-0.01753336563706398,-0.16097258031368256,-0.23241451382637024,0.17837800085544586,0.04025491699576378,0.04457439109683037,-0.24121509492397308,0.32358452677726746,0.06472107023000717,-0.04454010725021362,0.12297191470861435,0.1960040032863617,-0.014617212116718292,0.14391176402568817,0.04863128811120987,0.01114066131412983,0.061306267976760864,-0.08634613454341888,0.20637807250022888,0.07245942950248718,-0.22537142038345337,-0.2902522683143616,-0.0024345102719962597,-0.06715413928031921,-0.3823237419128418,-0.05610279738903046,0.19102559983730316,-0.1252378523349762,0.006273921113461256,-0.12078677117824554,-0.030121956020593643,-0.21629178524017334,-0.19911406934261322,-0.0719444677233696,-0.3327833414077759,-0.028443746268749237,0.10722887516021729,-0.07017436623573303,-0.29398679733276367,0.03222016990184784,0.2760922908782959,-0.21004393696784973,0.01721467636525631,-0.22447241842746735,-0.15032240748405457,0.13167664408683777,-0.19898739457130432,-0.02258477918803692,0.02355533465743065,-0.09063994884490967,-0.21462692320346832,-0.2600066065788269,-0.24555319547653198,-0.3703625798225403,-0.23625293374061584,-0.14577730000019073,0.1240413635969162,-0.29260167479515076,-0.04153481125831604,0.011318576522171497,-0.22299344837665558,-0.06673576682806015,-0.15018945932388306,0.0649864450097084,0.06661669909954071,0.004169370513409376,-0.3766942024230957,-0.1851339340209961,0.0039027133025228977,0.0945746973156929,-0.09457046538591385,-0.09554211050271988,0.020327098667621613,-0.18816561996936798,-0.026917412877082825,-0.3038021922111511,-0.1523703783750534,-0.10435371845960617,-0.022967707365751266,0.1909720003604889,-0.20289523899555206,0.006503198761492968,0.26961973309516907,-0.1516207605600357,-0.13347968459129333,-0.011907256208360195,-0.16539348661899567,-0.15339027345180511,-0.11683570593595505,0.033754024654626846,-0.15309055149555206,-0.09421778470277786,-0.050865281373262405,0.11492589116096497,0.21293753385543823,0.2755626142024994,0.3657689690589905,0.24590519070625305,-0.20432023704051971,-0.044801004230976105,0.20424474775791168,-0.09008185565471649,-0.1830151230096817,0.053591977804899216,-0.07262010127305984,0.12649010121822357,0.12136197090148926,-0.14033456146717072,-0.31750982999801636,-0.14302809536457062,-0.01434105820953846,0.28300100564956665,0.015884272754192352,-0.21194462478160858,-0.09380338340997696,0.09755489230155945,-0.1257954090833664,0.22393670678138733,-0.21442776918411255,0.09920969605445862,-0.3467426598072052,0.03815638646483421,-0.05198647454380989,0.16870500147342682,0.001711794058792293,-0.1389087736606598,0.06998930126428604,-0.04491530358791351,-0.4387669265270233,0.06410984694957733,-0.08781924098730087,-0.14001686871051788,0.0897456556558609,0.03813863545656204,-0.3609665334224701,0.013996211811900139,0.1035570278763771,-0.1680130511522293,-0.2655172348022461,-0.18252195417881012,0.10294833779335022,-0.14600974321365356,0.030699575319886208,0.04992343857884407,-0.0022092866711318493,-0.09166402369737625,-0.030079351738095284,-0.043934665620326996,-0.049700524657964706,0.16714027523994446,-0.022993603721261024,0.1045575737953186,0.1261671930551529,0.2667463421821594,-0.21103960275650024,-0.3235377073287964,0.019324246793985367,0.017914263531565666,-0.11948329210281372,-0.1753702610731125,-0.12728837132453918,-0.006847873330116272,0.437265545129776,-0.03773082047700882,0.022121760994195938,0.050517190247774124,-0.03772297874093056,-0.0956120416522026,0.08249363303184509,-0.26575160026550293,-0.16080893576145172,0.11473328620195389,-0.12471108138561249,0.10356348007917404,-0.062531016767025,-0.36115533113479614,-0.17681819200515747,0.06024487316608429,0.09997878968715668,0.20487673580646515,-0.0091317817568779,0.2621682584285736,-0.23812627792358398,-0.2977694869041443,0.02647493965923786,0.26220810413360596,0.17478212714195251,-0.24286344647407532,-0.4020245671272278],[-0.10014183074235916,-0.06533924490213394,-0.05335044488310814,-0.2114168107509613,0.29655787348747253,0.14298829436302185,0.07838212698698044,0.04716196656227112,-0.10790470987558365,-0.12190132588148117,0.009246165864169598,-0.08182554692029953,-0.000021949361325823702,0.05235213413834572,0.16321489214897156,-0.14648756384849548,-0.022009022533893585,-0.1455264538526535,-0.1647542268037796,0.1673683375120163,-0.003082320326939225,0.30837538838386536,-0.16419178247451782,-0.12938441336154938,0.21841217577457428,-0.2871509790420532,-0.17828966677188873,0.06716431677341461,-0.03628090023994446,0.029785694554448128,-0.1237180233001709,0.13051356375217438,-0.08210966736078262,0.07794476300477982,0.12665344774723053,-0.1233559399843216,0.046676408499479294,-0.23401020467281342,0.06727536022663116,-0.1329302191734314,0.06717123091220856,-0.14885152876377106,-0.06794238835573196,0.049750957638025284,-0.13514827191829681,-0.030162371695041656,-0.3764660954475403,-0.03503462299704552,-0.21997150778770447,-0.20225434005260468,0.17936138808727264,0.02184169925749302,-0.039660751819610596,0.1436629742383957,0.04343770444393158,-0.03190186619758606,-0.27493077516555786,-0.1012035459280014,-0.25178101658821106,0.13340499997138977,0.13651728630065918,-0.03552018851041794,-0.051172513514757156,0.14655809104442596,0.04290083050727844,-0.1522228866815567,-0.47896063327789307,-0.34738171100616455,-0.10684864223003387,-0.1806463599205017,0.25306519865989685,0.08572625368833542,0.1429123431444168,0.0679950937628746,0.01817837543785572,-0.19788697361946106,-0.0073483106680214405,0.16921430826187134,-0.17427387833595276,-0.013188555836677551,0.26453837752342224,0.2762290835380554,-0.18378956615924835,-0.19514983892440796,-0.017760571092367172,0.06985406577587128,-0.0036666530650109053,-0.21804964542388916,0.07606607675552368,0.031297795474529266,0.004547125194221735,-0.03719107434153557,0.02530324086546898,-0.28790464997291565,0.20779116451740265,-0.033989205956459045,-0.34888899326324463,-0.07630500942468643,-0.08023331314325333,0.1304539293050766,-0.06891637295484543,-0.07656093686819077,0.05442221835255623,-0.04611995071172714,0.01830940879881382,0.0661456286907196,-0.36025750637054443,0.23196515440940857,0.18258287012577057,-0.008961210958659649,0.03225189447402954,-0.10108543187379837,0.012570568360388279,-0.5607637166976929,-0.3266729712486267,0.2715306580066681,-0.26504409313201904,0.2017267942428589,0.04460705816745758,0.21474967896938324,-0.05533545836806297,-0.28040167689323425,0.29229041934013367,-0.10211018472909927,0.0476207360625267,-0.015277325175702572,-0.23483490943908691,0.052673883736133575,0.09466486424207687,-0.18520022928714752,0.04224759712815285,0.09793620556592941,-0.00836638268083334,0.05298089236021042,-0.150261789560318,-0.10221001505851746,0.03969569131731987,-0.13173919916152954,-0.19119508564472198,-0.051378052681684494,0.10997083783149719,-0.21278385818004608,0.24642620980739594,0.1669193059206009,-0.09221947938203812,0.010883054696023464,0.25387653708457947,0.032578859478235245,0.01750827394425869,-0.24106475710868835,-0.09089585393667221,-0.25135982036590576,-0.1232164278626442,-0.20709440112113953,-0.10487133264541626,-0.30937662720680237,0.013765336014330387,-0.008106198161840439,0.24265162646770477,0.08256293088197708,0.1080951988697052,-0.3061958849430084,-0.10167592018842697,-0.058741211891174316,-0.1154169961810112,-0.10973984003067017,-0.15461713075637817,-0.022186003625392914,0.062310948967933655,0.07581242173910141,-0.25596919655799866,0.13231484591960907,0.17411617934703827,-0.22176401317119598,-0.025666173547506332,0.06063245236873627,0.35586482286453247,-0.2847110331058502,0.015290671028196812,-0.1010611355304718,0.09418869763612747,-0.09713003784418106,-0.14673663675785065,-0.2853458523750305,0.12899741530418396,0.31935039162635803,-0.08454626798629761,-0.11388394236564636,0.07088923454284668,-0.20571382343769073,-0.0536990649998188,0.08209402859210968,0.16944141685962677,0.2683458924293518,-0.027779294177889824,0.30642661452293396,-0.27602440118789673,0.24072955548763275,0.42445772886276245,0.10985289514064789,-0.22358940541744232,-0.02630269154906273,0.001770672737620771,-0.06483550369739532,-0.17262235283851624,-0.1459534615278244,0.24333709478378296,-0.06442282348871231,-0.22834201157093048,-0.10227290540933609,-0.18592612445354462,-0.17934787273406982,-0.09764496982097626,0.18373091518878937,0.09763972461223602,-0.12319052219390869,0.0289747416973114,-0.2051730901002884,0.10007914900779724,-0.21016453206539154,0.11788830906152725,0.11556800454854965,-0.14330452680587769,0.07784576714038849,-0.00004271706347935833,-0.062240201979875565,-0.08266407996416092,-0.11158264428377151,0.06713046878576279,0.002961075631901622,-0.052363425493240356,0.14821714162826538,0.024019211530685425,-0.17185986042022705,-0.01436975784599781,-0.12713207304477692,-0.1945142298936844,0.03559321165084839,-0.07344695180654526,-0.06239117309451103,-0.08796217292547226,0.10167863219976425,-0.33417177200317383,-0.2430310696363449,0.16292786598205566,0.22673247754573822,0.24525368213653564,-0.1374148279428482,0.15300290286540985,0.027886755764484406,0.07941456884145737,0.08141868561506271,-0.3190419673919678,0.12407780438661575,0.04395186901092529,-0.03106190450489521],[-0.006384021136909723,-0.09923266619443893,0.018776381388306618,-0.04101874306797981,-0.08725836127996445,0.0912175327539444,-0.2477353811264038,0.1300976723432541,-0.10464157909154892,-0.3666478395462036,0.06520793586969376,-0.30433985590934753,-0.08631478995084763,-0.22597850859165192,-0.1624014526605606,-0.11228998750448227,0.04738834127783775,0.16377252340316772,-0.13606250286102295,0.2073114961385727,0.2096557915210724,0.2568649649620056,0.04184509813785553,-0.38895687460899353,0.1651662290096283,-0.009766802191734314,-0.04698922857642174,-0.29212215542793274,-0.2355334758758545,-0.09425114095211029,0.06919630616903305,-0.12753812968730927,-0.15707658231258392,0.3284514844417572,0.041757725179195404,-0.06614871323108673,-0.02363312803208828,0.1967795044183731,0.0028148889541625977,-0.03456086665391922,-0.014525266364216805,-0.30396568775177,0.13205960392951965,-0.11470791697502136,0.039932407438755035,-0.054063767194747925,-0.23446129262447357,0.2060704082250595,-0.24539951980113983,-0.22995026409626007,-0.1147032305598259,0.18265685439109802,0.17908674478530884,-0.3383163809776306,0.11210288852453232,-0.1752762645483017,0.40187329053878784,0.12846779823303223,-0.07446333765983582,-0.021464036777615547,-0.2643006443977356,0.2329164445400238,0.041117023676633835,-0.07385557889938354,-0.14434562623500824,0.13554120063781738,0.07337061315774918,-0.11271555721759796,-0.043496809899806976,0.1437549889087677,0.2671118676662445,0.22941236197948456,0.14213289320468903,-0.21647173166275024,-0.05511464178562164,-0.04315983131527901,0.01557598914951086,-0.11895018070936203,0.22335653007030487,0.1016363874077797,-0.14457686245441437,0.1606532782316208,0.03414042666554451,-0.09434578567743301,-0.29150280356407166,0.21261605620384216,-0.15942689776420593,0.23724977672100067,0.0809778943657875,-0.11770907789468765,-0.19163915514945984,-0.002697563264518976,-0.3029569387435913,0.12428642809391022,-0.35531869530677795,0.007479165680706501,0.018628377467393875,0.16175316274166107,-0.1950242966413498,-0.07597898691892624,-0.0015302259707823396,-0.06896759569644928,-0.04450254514813423,0.44643285870552063,-0.14814451336860657,0.22127701342105865,0.10756449401378632,-0.09114526957273483,0.11529678851366043,0.04667992889881134,-0.1443294882774353,-0.12432396411895752,-0.2592453062534332,-0.16438205540180206,0.12531554698944092,-0.10171668231487274,-0.0716865286231041,-0.27254194021224976,-0.12776115536689758,0.46734684705734253,-0.0028193548787385225,0.06422808021306992,0.1741766780614853,-0.31275010108947754,0.1256643384695053,0.10416034609079361,-0.064954973757267,-0.08901765197515488,0.13262340426445007,-0.18067888915538788,-0.2606508135795593,-0.048462364822626114,-0.09848180413246155,0.10233191400766373,0.3517594635486603,-0.14387483894824982,-0.31054699420928955,0.06247810646891594,-0.17850282788276672,-0.13693980872631073,0.06886807829141617,0.20543865859508514,0.1978241354227066,0.1936333328485489,0.13021112978458405,-0.0651228204369545,0.27199092507362366,-0.02764621004462242,0.0006748665473423898,-0.2818552851676941,-0.003804564941674471,0.09200013428926468,-0.10271142423152924,0.18801340460777283,-0.1304227113723755,0.21553239226341248,-0.09901804476976395,0.22325129806995392,0.02773120254278183,-0.33218804001808167,0.09821765869855881,-0.18343192338943481,-0.19328701496124268,-0.25768396258354187,0.18231907486915588,-0.02354668825864792,0.04073987156152725,-0.22949007153511047,-0.08336862176656723,-0.11849188059568405,0.26120424270629883,-0.1261293888092041,-0.15004949271678925,0.1153481975197792,-0.6128426790237427,0.06456775963306427,-0.14880846440792084,-0.11198647320270538,0.0384332574903965,-0.13092370331287384,-0.11254017800092697,0.35374900698661804,-0.23957718908786774,0.02088637836277485,-0.0017397316405549645,-0.24769029021263123,-0.13527055084705353,-0.17322541773319244,0.11544782668352127,-0.03918379545211792,-0.009389792568981647,0.014910937286913395,-0.08366700261831284,-0.2101442962884903,0.10116717219352722,0.012185964733362198,0.12177301198244095,-0.04403788968920708,-0.0644579827785492,-0.17715711891651154,-0.048251762986183167,-0.038169991225004196,-0.11309387534856796,-0.036628033965826035,-0.527097761631012,-0.3882274627685547,-0.2711917459964752,0.28088098764419556,-0.09703384339809418,-0.03891187161207199,0.254860520362854,-0.02006107196211815,0.0825188159942627,0.10345516353845596,0.0958249494433403,-0.021136241033673286,0.047480951994657516,-0.07634107023477554,0.02669375389814377,-0.1319611817598343,0.06624923646450043,0.3100828230381012,-0.04203967750072479,-0.1882590502500534,-0.19552497565746307,0.0981464833021164,0.07475066930055618,-0.11248165369033813,-0.014758218079805374,-0.05589389428496361,-0.43205809593200684,0.20988717675209045,-0.09585525840520859,0.1200634241104126,-0.10021841526031494,-0.1395166665315628,0.1351400762796402,0.17638415098190308,0.21569214761257172,0.11835776269435883,-0.125806525349617,-0.023323701694607735,-0.02812930755317211,0.1268577128648758,0.021327927708625793,0.1950014978647232,-0.1205408051609993,-0.12829548120498657,-0.24449372291564941,-0.050558220595121384,-0.11148518323898315,-0.04542732238769531,0.23089836537837982,0.2630070745944977,0.07038480043411255,0.003864263417199254],[0.02427603118121624,-0.29617366194725037,0.002614503027871251,-0.2542422413825989,-0.5485951900482178,0.27595219016075134,-0.14064112305641174,0.0096576614305377,-0.09332945942878723,-0.05157377943396568,0.05866570398211479,-0.21811901032924652,-0.08382843434810638,-0.45524826645851135,0.04312517121434212,-0.17095479369163513,-0.0256591085344553,-0.20782670378684998,0.14691683650016785,-0.1636730283498764,0.16718429327011108,-0.10956773906946182,-0.14638452231884003,-0.19281184673309326,-0.10639272630214691,-0.42026910185813904,-0.04426641762256622,-0.3483595848083496,0.1725248545408249,0.05995190516114235,0.11051145941019058,0.08770332485437393,-0.3372063934803009,0.2571468949317932,-0.1158897802233696,0.03947194293141365,0.07106565684080124,-0.12302985787391663,0.24792157113552094,-0.28988492488861084,0.17430716753005981,-0.03380754217505455,0.29418307542800903,0.1271354705095291,-0.11060044914484024,0.12551425397396088,0.17550227046012878,-0.16892658174037933,0.10289718210697174,0.18529990315437317,0.013878550380468369,0.0488419309258461,-0.25252440571784973,-0.22754637897014618,-0.23111499845981598,-0.1763591319322586,0.01073809526860714,-0.13729806244373322,-0.2104978859424591,-0.21395140886306763,0.19924429059028625,0.17436583340168,-0.07432564347982407,-0.08754492551088333,-0.034464601427316666,-0.08946342021226883,-0.12038096785545349,-0.13504348695278168,-0.37050101161003113,0.16519524157047272,0.4952335059642792,0.2601451277732849,-0.05311155319213867,0.002965480089187622,0.03746560215950012,0.24084222316741943,0.07817958295345306,-0.05703337490558624,0.12457822263240814,0.31209421157836914,-0.17525658011436462,0.2150428593158722,-0.04027097299695015,-0.43052634596824646,-0.09197216480970383,0.2228686362504959,0.303465873003006,0.3614867031574249,0.17169399559497833,0.20212271809577942,-0.14928404986858368,-0.023898020386695862,-0.0010164609411731362,0.07659968733787537,-0.11437056213617325,-0.060945555567741394,0.08698294311761856,-0.2939554452896118,0.296541303396225,-0.06463862955570221,-0.16389712691307068,0.08755578845739365,-0.14203742146492004,0.029410099610686302,-0.03606146201491356,0.13877533376216888,0.14168085157871246,-0.17825913429260254,0.021816030144691467,0.1259063333272934,-0.2062039077281952,-0.07164888828992844,0.24735307693481445,-0.07507644593715668,0.16017751395702362,-0.38244909048080444,-0.16849535703659058,-0.010273453779518604,-0.01449909619987011,-0.1373780220746994,-0.1727994829416275,-0.13466785848140717,-0.170482337474823,-0.02759341523051262,0.07006078213453293,0.03312978148460388,0.5588836669921875,-0.018492799252271652,0.08642349392175674,0.0722925215959549,0.24632692337036133,0.052377186715602875,0.19402606785297394,0.08432343602180481,0.11430799216032028,0.12434093654155731,0.1109532043337822,0.15838775038719177,-0.020338861271739006,-0.07984694093465805,0.0022512858267873526,0.13588599860668182,0.14764143526554108,-0.15959547460079193,0.1246047392487526,0.37266120314598083,-0.16826581954956055,-0.10058584809303284,-0.09791231900453568,0.16018114984035492,-0.09909629821777344,-0.4423660635948181,0.09937849640846252,-0.14780676364898682,0.173411026597023,0.1496300846338272,0.046765122562646866,-0.08706772327423096,-0.04629405215382576,0.11310314387083054,-0.11898758262395859,0.33654865622520447,0.2803669571876526,0.02866308018565178,0.34087637066841125,0.07488930970430374,-0.3539317846298218,-0.24151316285133362,-0.1421218067407608,-0.38732513785362244,0.27879223227500916,-0.2256721556186676,0.06971345841884613,-0.059139080345630646,-0.08481168001890182,-0.5061712265014648,-0.05948131904006004,-0.09592802077531815,-0.011934797279536724,-0.17001719772815704,0.055027108639478683,0.10046844929456711,-0.0504884198307991,-0.027755148708820343,0.038924578577280045,-0.18390190601348877,0.11790089309215546,-0.0887703150510788,0.08169907331466675,-0.11680028587579727,-0.3942943811416626,-0.17557981610298157,0.15399770438671112,0.020825255662202835,0.3160954415798187,-0.17034946382045746,-0.2224109172821045,0.2079959660768509,0.10705476999282837,-0.03327065333724022,0.08899692445993423,-0.15646202862262726,-0.05812721326947212,-0.1378660351037979,-0.27878159284591675,0.17947837710380554,0.07094328105449677,-0.31486496329307556,-0.09906072914600372,-0.08378715813159943,-0.01891719177365303,-0.0552719347178936,-0.34404391050338745,-0.017645403742790222,-0.23054467141628265,0.10585259646177292,-0.15300394594669342,-0.012776740826666355,0.32370418310165405,-0.07780511677265167,-0.24980424344539642,-0.022045748308300972,0.159280925989151,0.25170770287513733,-0.08259040862321854,-0.16936281323432922,-0.22837695479393005,-0.00787221547216177,-0.2692301273345947,0.20477861166000366,0.24594922363758087,0.16305215656757355,-0.09510594606399536,0.03114861063659191,-0.06122889742255211,-0.014343651942908764,0.12598024308681488,-0.026580052450299263,-0.023587921634316444,-0.0795360580086708,0.08535905182361603,0.17296314239501953,-0.210744708776474,-0.043717652559280396,0.11010082066059113,0.14295721054077148,-0.224087193608284,0.047717198729515076,-0.3486509323120117,-0.3317415416240692,-0.3614940941333771,0.07532826066017151,0.1483553797006607,0.06597951799631119,-0.2969813942909241,-0.0023069456219673157],[-0.24114561080932617,0.22344286739826202,0.029149893671274185,0.04670735076069832,-0.2795804738998413,0.1213308647274971,0.2614259123802185,0.07752326875925064,0.05745508149266243,0.028746891766786575,0.02830072119832039,0.1315290331840515,-0.11310650408267975,-0.1168322041630745,0.0371629074215889,0.07582887262105942,-0.09897711127996445,-0.12206822633743286,-0.040152885019779205,0.11922821402549744,-0.27975016832351685,-0.2445402592420578,0.05448119714856148,-0.05422947555780411,-0.046748146414756775,-0.12003195285797119,0.0032452766317874193,0.009673066437244415,0.009154406376183033,-0.11981119960546494,-0.11879915744066238,0.09513700008392334,-0.24061910808086395,-0.11054686456918716,-0.3026038110256195,0.07153479009866714,-0.2539752721786499,-0.27732110023498535,-0.14011162519454956,-0.1642571985721588,-0.01634960062801838,0.08240523934364319,0.2879747152328491,0.26191139221191406,-0.2558513879776001,-0.08037256449460983,0.0508451871573925,-0.12119128555059433,-0.059929411858320236,-0.22150589525699615,-0.07799434661865234,-0.07444989681243896,0.19180558621883392,-0.022713249549269676,0.06490565091371536,0.05704460293054581,-0.3662574887275696,-0.05393321067094803,0.2277420610189438,-0.052121035754680634,-0.06805373728275299,0.050152216106653214,-0.13556471467018127,0.3330080509185791,0.2076106071472168,0.2593275308609009,0.031046075746417046,0.20497877895832062,0.12066580355167389,0.2034830003976822,-0.08324433118104935,0.0006441511795856059,-0.05239543318748474,-0.3133947253227234,0.1797521412372589,-0.008907715789973736,-0.29568424820899963,-0.0593632347881794,0.13126622140407562,0.13696998357772827,0.22267481684684753,-0.22863391041755676,0.07446139305830002,0.036383457481861115,0.1299651712179184,-0.16755026578903198,0.1985357701778412,0.13911668956279755,-0.0403946228325367,0.2582140862941742,0.04985613748431206,-0.07784753292798996,0.13960090279579163,0.06892593950033188,0.17238008975982666,-0.13694451749324799,-0.1446039378643036,-0.10301149636507034,-0.1937185525894165,0.0856560692191124,-0.3443802297115326,-0.10814671963453293,0.018135014921426773,-0.0015084524638950825,0.08516726642847061,0.0464169979095459,0.07265035808086395,-0.07125364243984222,-0.0014088379684835672,0.03126285970211029,-0.18744386732578278,0.1270035058259964,-0.1719193011522293,-0.05522221699357033,-0.09532678872346878,-0.03276759013533592,0.22929328680038452,-0.25295940041542053,0.25297966599464417,-0.19431853294372559,-0.22822847962379456,0.042576681822538376,-0.10857466608285904,-0.22436845302581787,-0.11345231533050537,-0.12164831161499023,-0.10142768174409866,-0.10774075984954834,0.10684900730848312,-0.4101150631904602,-0.13826234638690948,-0.09020136296749115,-0.1539677232503891,-0.347533643245697,-0.08827098459005356,-0.11233441531658173,0.12133437395095825,0.23866739869117737,0.21844586730003357,-0.4384663999080658,-0.037622783333063126,0.27343228459358215,-0.15389850735664368,0.04391021654009819,0.20946916937828064,0.28929442167282104,-0.024831419810652733,-0.1027417853474617,-0.3123044967651367,0.0012450965587049723,0.3086142838001251,-0.16654758155345917,0.026502219960093498,-0.1948447823524475,0.26345211267471313,0.202468141913414,-0.16359974443912506,-0.25992071628570557,-0.25754672288894653,0.016594648361206055,-0.18850429356098175,0.19037960469722748,-0.22691841423511505,0.03117322362959385,-0.285274475812912,0.104222871363163,-0.3061791658401489,-0.1499088555574417,0.37083539366722107,-0.11480426043272018,0.00878218375146389,0.13676929473876953,0.3105708658695221,-0.08775197714567184,-0.38406893610954285,-0.27589988708496094,0.311117023229599,0.04308006539940834,-0.21119141578674316,-0.03181534633040428,0.3465383052825928,0.11488255858421326,-0.19557718932628632,-0.24969255924224854,0.05488921329379082,-0.10656744986772537,0.2416028082370758,-0.2442595511674881,-0.04093227908015251,0.11247432976961136,0.21617896854877472,0.04105181619524956,-0.24872085452079773,0.10623963177204132,0.0028261286206543446,-0.09292035549879074,-0.05502786859869957,0.5015594959259033,-0.32485276460647583,0.008472209796309471,-0.0745997428894043,0.11472312361001968,0.08195798099040985,-0.3466108441352844,-0.14946196973323822,0.03724523261189461,-0.1138019859790802,-0.06916297972202301,-0.012148951180279255,0.1418386995792389,-0.01824425533413887,0.08455220609903336,-0.03219158202409744,0.018122809007763863,-0.007165597751736641,0.07685898244380951,0.14690114557743073,0.054973967373371124,-0.018072791397571564,-0.0707574188709259,0.06081223860383034,-0.020542766898870468,-0.11557108908891678,0.16446217894554138,0.0373699925839901,-0.06672020256519318,0.3157784938812256,-0.28987377882003784,0.40900686383247375,-0.18426513671875,0.2734381854534149,0.03258836641907692,-0.34812983870506287,-0.19864514470100403,-0.15231136977672577,-0.04222135990858078,-0.21653348207473755,-0.3619810938835144,0.03790333867073059,0.04553864523768425,0.13847258687019348,-0.45619693398475647,-0.002586695598438382,0.22008171677589417,-0.19966740906238556,0.23824888467788696,0.08642125129699707,-0.2981194257736206,-0.21437282860279083,-0.01569274440407753,0.013738672249019146,-0.1779240071773529,0.024349864572286606,0.0153204882517457,-0.33770662546157837,-0.04338425397872925],[-0.000955752853769809,-0.020395662635564804,0.02564590610563755,0.14839157462120056,0.06550899147987366,-0.0021858178079128265,0.11223547160625458,-0.36581218242645264,0.017463326454162598,-0.00513053685426712,-0.09673300385475159,-0.09133497625589371,-0.09714797884225845,0.015147904865443707,0.03300592675805092,0.013810725882649422,0.20519310235977173,0.13856519758701324,-0.10738257318735123,-0.3620222508907318,0.14950571954250336,0.0963473692536354,0.0786159560084343,-0.2296956181526184,-0.003962122835218906,-0.04077810049057007,0.017333799973130226,0.34637901186943054,0.06900986284017563,-0.031172525137662888,-0.2961761951446533,0.02336110919713974,0.07494336366653442,0.03393331542611122,0.02872036024928093,0.009414195083081722,0.029039915651082993,-0.09306486696004868,0.1746896654367447,-0.24610082805156708,0.16546635329723358,0.162574902176857,-0.22847718000411987,0.0003021290758624673,0.14290273189544678,-0.35512861609458923,-0.1654975414276123,0.17682871222496033,-0.20311972498893738,-0.1531096249818802,0.10099676251411438,0.009699665941298008,0.008112078532576561,0.1852562427520752,-0.18424516916275024,0.46765854954719543,0.20371104776859283,0.0201139934360981,-0.10935615003108978,-0.008779638446867466,-0.05877309292554855,-0.11684615910053253,0.3067815899848938,-0.01384336780756712,0.025817180052399635,-0.12963664531707764,0.028006911277770996,-0.1617181897163391,0.04532995447516441,0.03970884159207344,-0.016735948622226715,-0.0638815239071846,-0.09120793640613556,-0.14333349466323853,-0.013442056253552437,0.06170329079031944,-0.12470415979623795,-0.3817320168018341,0.2437048852443695,-0.049062538892030716,-0.3055024743080139,-0.09737452864646912,0.2021813690662384,0.13332682847976685,0.13832008838653564,0.062366288155317307,0.14679010212421417,0.2303473949432373,-0.36246001720428467,0.0003842042642645538,-0.07802534848451614,0.23030857741832733,-0.1271514594554901,-0.13393719494342804,-0.02089092507958412,0.03556978702545166,-0.07606565952301025,-0.003308078506961465,0.13260085880756378,0.37380748987197876,-0.25376778841018677,0.2732926905155182,0.38074564933776855,-0.03633861243724823,0.1599254310131073,0.3780941069126129,-0.12450652569532394,-0.1803865283727646,0.4601742923259735,0.25591087341308594,-0.0205692071467638,0.2076772153377533,0.1139049306511879,0.03300975263118744,-0.12736086547374725,0.00895187258720398,0.17087602615356445,-0.001489022746682167,0.18027439713478088,-0.015279012732207775,0.12852907180786133,0.22981464862823486,-0.02276771515607834,0.09555239230394363,0.23040372133255005,0.06289295852184296,-0.07701702415943146,0.0021878450643271208,0.18946361541748047,0.029427390545606613,-0.03563699871301651,-0.09439324587583542,0.18551042675971985,-0.03138840198516846,0.36534130573272705,0.17064806818962097,-0.2160833775997162,-0.07778673619031906,-0.07954411208629608,0.2601018249988556,0.01991593837738037,0.03377711772918701,-0.0051026009023189545,-0.0655551627278328,-0.2373025119304657,-0.05999491736292839,-0.552891194820404,0.16971401870250702,-0.005458163097500801,0.12313710153102875,-0.04132474958896637,0.061622440814971924,0.5231742262840271,-0.06648949533700943,-0.20780080556869507,-0.1258794069290161,0.012245938181877136,0.32334840297698975,-0.06541161984205246,-0.2558978199958801,-0.17570781707763672,-0.028722194954752922,0.024888286367058754,-0.326715350151062,-0.10970847308635712,0.16268275678157806,0.3734414577484131,-0.11478719115257263,0.147239089012146,-0.10462464392185211,0.0006306173745542765,-0.26228874921798706,-0.11710689961910248,0.05336327850818634,-0.10390666127204895,0.11320886015892029,-0.14451640844345093,0.13019903004169464,0.06003403663635254,-0.0402899831533432,-0.17629925906658173,-0.07058729231357574,-0.09639855474233627,0.11359093338251114,-0.25906890630722046,-0.5038267374038696,-0.03008856065571308,0.1495775431394577,0.025789842009544373,-0.29999977350234985,0.01585068181157112,0.02133432775735855,-0.23240306973457336,0.06374236196279526,-0.06071300432085991,-0.10754015296697617,-0.10336405038833618,-0.089323028922081,-0.21172091364860535,0.14347927272319794,-0.13900353014469147,-0.15620985627174377,-0.0031493313144892454,-0.1978386640548706,-0.0869329571723938,-0.05535612627863884,0.0025905142538249493,0.2033594697713852,-0.13889580965042114,0.12876877188682556,-0.22378823161125183,-0.07276387512683868,-0.15452955663204193,0.24610400199890137,-0.14135481417179108,0.16149146854877472,0.05199393257498741,-0.3882880210876465,0.04696264490485191,0.2351589798927307,-0.02197793871164322,0.0741267055273056,0.09201078116893768,-0.023917675018310547,-0.1422513872385025,0.034756138920784,-0.1610230803489685,0.009422373957931995,0.3244627118110657,0.22047780454158783,-0.04130266606807709,-0.14251498878002167,-0.36466559767723083,0.1125405952334404,-0.1464897096157074,0.22705386579036713,-0.08844371140003204,0.09241680800914764,0.09806736558675766,-0.25827571749687195,0.026540614664554596,-0.46162834763526917,-0.18485142290592194,0.07417505979537964,0.38689470291137695,-0.10477859526872635,-0.015162906609475613,-0.015503919683396816,0.21531929075717926,0.1381489485502243,0.5655667185783386,0.07864627987146378,0.21701495349407196,-0.09140576422214508,0.14496394991874695,0.2300778478384018],[-0.009662960655987263,0.07026840001344681,0.1473667174577713,-0.16477106511592865,0.224109947681427,0.06516516208648682,-0.04220098257064819,-0.09586246311664581,0.020595790818333626,-0.17642241716384888,-0.20151057839393616,-0.35693591833114624,-0.2007402777671814,-0.05614037439227104,0.4092307388782501,-0.020788656547665596,-0.029418902471661568,0.11182350665330887,0.13175153732299805,-0.018474586308002472,0.03257397562265396,-0.03786630183458328,-0.16644597053527832,-0.010466326959431171,-0.004836606793105602,0.2654173672199249,-0.10261686891317368,-0.027434347197413445,0.2957124710083008,0.02207115665078163,0.17557181417942047,0.28157681226730347,-0.18067124485969543,0.1506650298833847,-0.11343447864055634,-0.1353953331708908,-0.08168597519397736,-0.02832149900496006,0.10110611468553543,0.15404359996318817,0.2762444019317627,0.001577754388563335,0.10950006544589996,0.008788307197391987,0.0073357271030545235,0.14634783565998077,-0.07199052721261978,0.2124163657426834,-0.16724763810634613,0.27496421337127686,-0.13818733394145966,0.0971665307879448,0.09488371014595032,-0.02254113368690014,0.03343597799539566,-0.0975695475935936,0.07856063544750214,-0.1967441737651825,-0.024471653625369072,-0.04192731902003288,-0.08885582536458969,0.07440090924501419,0.22855572402477264,-0.032167889177799225,0.11739213764667511,0.057445235550403595,-0.04157467931509018,0.02401001751422882,-0.1541776806116104,0.12427572906017303,0.21857154369354248,0.2287902534008026,-0.020213818177580833,0.07139582931995392,0.03986697271466255,0.042286280542612076,0.024166695773601532,0.20285753905773163,-0.12346833944320679,0.08979395031929016,0.3014580309391022,-0.061127711087465286,-0.02067314274609089,0.06921728700399399,0.47592079639434814,-0.1688365489244461,-0.1940706968307495,-0.1528214067220688,-0.017277682200074196,0.03544457256793976,-0.14341184496879578,-0.249693363904953,-0.2924511730670929,0.08726980537176132,0.027394799515604973,-0.2521924674510956,0.05611022561788559,-0.00037520495243370533,0.18964417278766632,0.10010889917612076,-0.006946880836039782,-0.2100423127412796,-0.004491140600293875,-0.03692732751369476,-0.24710559844970703,0.14134322106838226,0.25390973687171936,-0.3313030004501343,-0.01943415403366089,0.031050274148583412,0.11379967629909515,-0.1046043336391449,0.08316826820373535,-0.19028514623641968,0.12241293489933014,-0.10918651521205902,-0.05476950481534004,-0.10159283131361008,0.15909989178180695,-0.26233237981796265,-0.18560925126075745,0.1289995163679123,0.05875014141201973,0.012608281336724758,-0.39316684007644653,-0.4246113896369934,-0.043230220675468445,0.09544338285923004,-0.16671478748321533,0.29547473788261414,-0.0766766145825386,0.12445884197950363,-0.027166612446308136,0.0026425840333104134,0.2943217158317566,0.026566235348582268,-0.10207511484622955,0.16960781812667847,-0.14469917118549347,-0.3123907744884491,0.16619537770748138,-0.12181759625673294,0.22435683012008667,-0.18095548450946808,-0.10405246168375015,-0.25548940896987915,0.05872666463255882,0.12933339178562164,0.18189957737922668,-0.10877551138401031,-0.11105111241340637,0.12825821340084076,-0.280159592628479,-0.4734393358230591,-0.19205805659294128,0.2516857385635376,-0.09819656610488892,-0.0977625772356987,0.12228386849164963,0.06983824074268341,0.22796066105365753,-0.25659364461898804,-0.20498932898044586,-0.11729874461889267,-0.12030274420976639,0.48693275451660156,-0.07024257630109787,0.19586169719696045,-0.16209962964057922,-0.15702226758003235,-0.053689878433942795,-0.2279382050037384,0.08847012370824814,-0.15670010447502136,0.00045062319259159267,0.10325775295495987,0.21412451565265656,-0.29394441843032837,0.08963053673505783,-0.12545347213745117,-0.1323855221271515,0.08920378983020782,0.2683553099632263,0.000454916269518435,-0.057868555188179016,-0.0318201445043087,-0.11450619995594025,0.17024727165699005,0.35539987683296204,-0.08772975206375122,-0.06986047327518463,-0.15455631911754608,0.40401217341423035,-0.44146963953971863,-0.31437674164772034,-0.1160358116030693,-0.26386821269989014,-0.004848306532949209,-0.0017534894868731499,0.0940304771065712,-0.05693965405225754,-0.17649850249290466,-0.2321559488773346,0.43886056542396545,-0.21966452896595,-0.09314114600419998,-0.4242648184299469,-0.15882323682308197,0.02863127365708351,0.27274787425994873,-0.11965040117502213,0.028659630566835403,-0.1403883546590805,-0.2536371052265167,0.06852056831121445,-0.1845756620168686,-0.07908104360103607,-0.0897132158279419,-0.06477178633213043,-0.04679255932569504,0.061141565442085266,0.01409024465829134,0.07945817708969116,-0.03542815148830414,0.2560140788555145,-0.1900327205657959,0.1363549381494522,0.03454660624265671,0.34193581342697144,-0.02151542715728283,-0.10449632257223129,0.3697751760482788,-0.013193544000387192,-0.1240542009472847,-0.2653219699859619,-0.1260911375284195,-0.35218432545661926,0.27803152799606323,0.23155952990055084,0.14788863062858582,0.0013243432622402906,-0.5268142819404602,0.005790038965642452,-0.4740823805332184,-0.3880560100078583,0.033383872359991074,-0.2972595989704132,0.10673602670431137,0.30106133222579956,-0.1880854219198227,0.13687309622764587,0.21556030213832855,-0.08991850167512894,0.19801852107048035,0.3510850667953491,0.1458883285522461],[-0.1063152551651001,-0.17782075703144073,-0.0488312728703022,0.25951457023620605,-0.07985632121562958,-0.13453522324562073,-0.032504837960004807,-0.12301826477050781,-0.24984760582447052,0.07202906161546707,0.0906425267457962,-0.2377317100763321,0.14795424044132233,-0.1343231350183487,0.007645803969353437,-0.047680266201496124,-0.08171802759170532,-0.02345760352909565,0.08514776825904846,