[[-0.10565356910228729],[-0.11818558722734451],[-0.1618661731481552],[-0.019837303087115288],[0.018812814727425575],[0.058664850890636444],[0.3894343972206116],[-0.034434039145708084],[0.05062982812523842],[0.021211283281445503],[-0.1568860560655594],[-0.10429088771343231],[-0.167072594165802],[0.139480859041214],[-0.1929001808166504],[-0.19505144655704498],[0.06225594878196716],[-0.006991845555603504],[0.04503786563873291],[0.2198462188243866],[-0.3860909640789032],[0.028136223554611206],[-0.03958219289779663],[-0.12685464322566986],[-0.040020596235990524],[-0.35955896973609924],[0.26622632145881653],[0.049008093774318695],[0.006409802939742804],[-0.21631264686584473],[-0.12002208828926086],[0.3205490708351135],[0.12119047343730927],[-0.3788650333881378],[0.06014034152030945],[0.18458594381809235],[-0.28431347012519836],[-0.2223849594593048],[0.06401167064905167],[0.045305658131837845],[-0.17660406231880188],[0.12930892407894135],[-0.0228741355240345],[0.18144506216049194],[-0.18930283188819885],[0.09389214962720871],[-0.029323864728212357],[0.07134083658456802],[0.0618114210665226],[-0.057143840938806534],[-0.06971998512744904],[-0.2880634367465973],[0.10196071118116379],[-0.16409465670585632],[0.16732309758663177],[0.06860653311014175],[-0.030835870653390884],[-0.0650293305516243],[-0.00920072104781866],[-0.06979300081729889],[0.024023430421948433],[0.3969995975494385],[0.09173762053251266],[0.012339905835688114],[0.3104970157146454],[-0.09622897207736969],[0.19642417132854462],[0.03084208443760872],[-0.04466819018125534],[-0.05741943418979645],[-0.2572254240512848],[-0.1311975121498108],[0.323502779006958],[0.011446627788245678],[-0.15660935640335083],[-0.18126779794692993],[0.03183320537209511],[-0.1912883073091507],[0.11186995357275009],[-0.23127806186676025],[-0.1977742314338684],[-0.20454096794128418],[0.041040390729904175],[-0.3573002815246582],[-0.20352911949157715],[0.020026955753564835],[-0.17350120842456818],[-0.055203236639499664],[-0.014509778469800949],[0.23977142572402954],[-0.012233007699251175],[-0.17608186602592468],[-0.11165066063404083],[-0.3801913857460022],[0.15476961433887482],[0.2637757360935211],[-0.12126818299293518],[-0.24408628046512604],[-0.10234776139259338],[0.06286167353391647],[0.027782097458839417],[-0.07824832946062088],[0.10235407948493958],[-0.0001275054382858798],[-0.014925584197044373],[0.020630404353141785],[0.0172894224524498],[0.05326300114393234],[-0.10054991394281387],[-0.09184286743402481],[-0.4536208212375641],[-0.1375071406364441],[-0.07113619148731232],[-0.2708669900894165],[0.005867753643542528],[-0.07936472445726395],[0.08177746087312698],[0.036070819944143295],[-0.2412673532962799],[-0.18641257286071777],[-0.1582116186618805],[0.10185696929693222],[0.04131590574979782],[0.05443071946501732],[0.0014719407772645354],[-0.018508227542042732],[-0.047863274812698364],[-0.00640058470889926]]