[[0.051505498588085175],[-0.1071082353591919],[0.25799471139907837],[-0.09229055792093277],[-0.09983989596366882],[0.23028454184532166],[-0.38163357973098755],[-0.03372667729854584],[0.14626111090183258],[-0.2838512659072876],[0.03299466148018837],[-0.16122756898403168],[-0.10535763949155807],[-0.10213754326105118],[-0.2730436623096466],[-0.2755846083164215],[-0.43995779752731323],[-0.25044912099838257],[-0.3488765358924866],[0.3109372556209564],[-0.20865264534950256],[-0.31962448358535767],[0.0595155730843544],[0.13615834712982178],[-0.06491338461637497],[-0.08911099284887314],[-0.335653156042099],[-0.22117820382118225],[0.10599727928638458],[-0.1763634830713272],[-0.09747212380170822],[0.1537204086780548],[0.04980120062828064],[-0.2821504473686218],[-0.0480647012591362],[-0.28456857800483704],[0.09155234694480896],[-0.10292871296405792],[-0.18135178089141846],[-0.15140721201896667],[-0.3693051040172577],[0.11973027884960175],[-0.1762189120054245],[-0.20688565075397491],[-0.4233816862106323],[0.006670730654150248],[0.022150324657559395],[-0.04429202526807785],[0.09902548044919968],[-0.4927460253238678],[-0.31103435158729553],[0.08644675463438034],[-0.10744721442461014],[-0.22253531217575073],[-0.0027513145469129086],[-0.18774068355560303],[-0.28271809220314026],[-0.11426986008882523],[-0.0412842258810997],[-0.21138033270835876],[-0.09915560483932495],[-0.17388217151165009],[-0.18204735219478607],[0.0718664601445198]]