[[-0.0887836366891861],[-0.22910328209400177],[-0.1791859269142151],[-0.2585369050502777],[0.0065224976278841496],[0.04540548101067543],[-0.019013715907931328],[0.24991610646247864],[-0.2703539729118347],[0.3950936496257782],[-0.0631508082151413],[-0.12578344345092773],[-0.08241918683052063],[0.24297437071800232],[-0.25185686349868774],[0.01161501370370388],[0.01458920817822218],[0.06973911076784134],[-0.055794574320316315],[-0.028080711141228676],[-0.12161341309547424],[-0.004492603708058596],[-0.0196430254727602],[-0.08028586208820343],[0.02627408504486084],[-0.19450658559799194],[-0.03623748943209648],[0.041645340621471405],[-0.06036530062556267],[-0.22185610234737396],[0.027291392907500267],[0.027657628059387207],[0.1719396859407425],[-0.16025900840759277],[0.1832960695028305],[-0.05196197330951691],[0.1400175243616104],[-0.1434585154056549],[0.08280022442340851],[-0.19338057935237885],[-0.17699548602104187],[0.09370005130767822],[-0.27235692739486694],[0.10645462572574615],[-0.051635924726724625],[0.0012728447327390313],[-0.05118084326386452],[-0.061208903789520264],[-0.08149063587188721],[-0.13675612211227417],[0.22551994025707245],[-0.20527590811252594],[0.013079430907964706],[-0.21065837144851685],[-0.15025395154953003],[-0.058384768664836884],[0.1996128261089325],[-0.16242264211177826],[-0.11361049115657806],[-0.016834938898682594],[-0.07400891184806824],[-0.04897525534033775],[-0.17224909365177155],[-0.08743482828140259],[-0.10547881573438644],[-0.07245644181966782],[-0.09515178203582764],[-0.14868812263011932],[-0.07678543031215668],[-0.0033279855269938707],[0.016978396102786064],[0.10073122382164001],[-0.046181097626686096],[-0.08634983748197556],[-0.06955413520336151],[0.16476808488368988],[-0.2079213708639145],[0.21767479181289673],[-0.2750701904296875],[-0.36931347846984863],[-0.11811705678701401],[-0.11345523595809937],[-0.30088603496551514],[0.047449398785829544],[0.2407766729593277],[0.11278891563415527],[-0.011445650830864906],[0.04850788787007332],[-0.15209037065505981],[0.15705011785030365],[0.09391152113676071],[-0.09162317961454391],[-0.0662773996591568],[-0.1118316501379013],[0.20802968740463257],[0.022191686555743217],[0.201413094997406],[0.04096795618534088],[0.17526201903820038],[-0.16364507377147675],[0.0016128210118040442],[0.05371873825788498],[0.09414646774530411],[-0.24548779428005219],[-0.10874298959970474],[0.0377049557864666],[0.011175906285643578],[-0.17368504405021667],[-0.32843315601348877],[-0.09149780869483948],[0.06228560209274292],[0.12990911304950714],[-0.04695584997534752],[-0.06962375342845917],[-0.1060333102941513],[-0.06913246214389801],[0.10654100030660629],[-0.08738681674003601],[0.060498032718896866],[-0.1088012158870697],[-0.15698930621147156],[-0.061826806515455246],[0.20604144036769867],[-0.04665696248412132],[-0.003535956609994173],[-0.05844516307115555],[-0.2219085842370987],[0.13504742085933685],[-0.06618638336658478],[0.09745144098997116],[0.0032911335583776236],[-0.00032343226484954357],[0.03619778901338577],[0.16407743096351624],[-0.061395373195409775],[-0.03947029262781143],[-0.23361194133758545],[0.062246985733509064],[0.13006892800331116],[-0.07354187220335007],[0.3274708092212677],[-0.014874868094921112],[-0.044465091079473495],[-0.11358196288347244],[-0.03700145334005356],[-0.146645188331604],[-0.2893237769603729],[0.24698641896247864],[0.047153741121292114],[-0.06581278890371323],[-0.033687133342027664],[-0.14147640764713287],[-0.008972162380814552],[-0.013519402593374252],[0.13700205087661743],[-0.20475392043590546],[-0.20645642280578613],[0.1713637262582779],[0.12171222269535065],[-0.12903748452663422],[0.02903035655617714],[-0.09964624047279358],[-0.04539716988801956],[0.04720662161707878],[0.11458367854356766],[-0.1948857456445694],[-0.1542125791311264],[-0.021240489557385445],[-0.016969241201877594],[-0.25389692187309265],[-0.07979307323694229],[0.01701224409043789],[-0.17399653792381287],[-0.20496223866939545],[0.11246882379055023],[0.13875643908977509],[-0.06986586004495621],[-0.01610882580280304],[0.10553137958049774],[0.04612535238265991],[-0.12340755015611649],[0.044575683772563934],[-0.051333699375391006],[0.07833448052406311],[0.06919810175895691],[-0.11241636425256729],[-0.13484787940979004],[-0.1515592634677887],[-0.10120484977960587],[0.23913030326366425],[0.1570923924446106],[-0.18418221175670624],[0.0016680716071277857],[-0.005750338546931744],[0.05310864374041557],[-0.05658506974577904],[-0.1962723582983017],[-0.006514702923595905],[-0.07042187452316284],[-0.04282275587320328],[-0.012038815766572952],[-0.22651681303977966],[-0.22247983515262604],[0.016768503934144974],[0.08660925924777985],[-0.09374387562274933],[0.03372922167181969],[0.04709866642951965],[-0.15197740495204926],[0.06960276514291763],[-0.07658521831035614],[-0.1033700481057167],[-0.2858515679836273],[-0.31120288372039795],[-0.2351437658071518],[-0.22273625433444977],[0.03499624505639076],[0.03811280056834221],[-0.10416451841592789],[-0.06668315082788467],[0.16047288477420807],[-0.10891800373792648],[-0.24705258011817932],[0.0506887249648571],[0.0726022720336914],[0.05720933899283409],[-0.1714869886636734],[0.04660259559750557],[-0.2139997035264969],[-0.16596323251724243],[-0.023919695988297462],[-0.05152570456266403],[0.06529852747917175],[-0.08427319675683975],[-0.12381546199321747],[0.1101558730006218],[-0.14418452978134155],[0.11862529814243317],[-0.04342467337846756],[0.14985312521457672],[0.13713684678077698],[-0.07364511489868164],[-0.21044133603572845],[-0.1623034030199051],[0.008994399569928646],[0.09845822304487228],[-0.12722942233085632],[-0.029876383021473885],[0.03774638473987579],[0.07160154730081558],[-0.11556641012430191],[-0.2697601616382599],[0.04721369966864586],[-0.15374387800693512],[-0.09131061285734177],[0.021692179143428802]]