[[-0.43535375595092773],[0.015165593475103378],[0.05887451395392418],[0.01477197464555502],[0.06088784337043762],[-0.0325661227107048],[-0.3459799885749817],[0.21202023327350616],[0.03997381031513214],[0.11148187518119812],[-0.003407819429412484],[0.17995114624500275],[-0.11382751911878586],[-0.2280423492193222],[0.006872367579489946],[-0.1720607578754425],[-0.30654194951057434],[-0.1699446439743042],[0.03946749120950699],[-0.2552347481250763],[0.008655919693410397],[0.47054392099380493],[0.2234947681427002],[-0.0535442940890789],[0.12380271404981613],[-0.1970914602279663],[-0.09047289937734604],[-0.026969416067004204],[0.0012014040257781744],[-0.3048427104949951],[-0.12466412037611008],[-0.3240073323249817],[-0.06953705847263336],[-0.030969159677624702],[0.18908141553401947],[-0.202285036444664],[-0.17978209257125854],[-0.3370135724544525],[0.044104378670454025],[-0.2890812158584595],[0.29290899634361267],[0.29943418502807617],[0.1340000331401825],[0.00033210808760486543],[-0.06050746515393257],[0.3282470703125],[-0.018765611574053764],[-0.15499089658260345],[-0.2432113140821457],[0.04312250018119812],[0.0015539315063506365],[0.188065305352211],[-0.16259920597076416],[0.2714657783508301],[-0.22839240729808807],[0.036648351699113846],[-0.22927072644233704],[0.15912865102291107],[-0.17484638094902039],[-0.1512896716594696],[-0.1684250384569168],[-0.26797738671302795],[0.012690716423094273],[-0.015725113451480865]]