[[-0.08703476935625076],[-0.08290574699640274],[-0.03387337550520897],[-0.052704818546772],[0.11698570102453232],[0.1501971036195755],[-0.14463642239570618],[0.09956236183643341],[-0.09067082405090332],[0.0667114183306694],[-0.17851907014846802],[-0.12242654711008072],[-0.02160518616437912],[0.2267870157957077],[-0.2931056320667267],[0.06107702478766441],[0.08623602241277695],[-0.02567896991968155],[0.13349467515945435],[-0.0989735871553421],[-0.06839308142662048],[-0.18473894894123077],[0.04326808080077171],[0.005670562386512756],[-0.03180594742298126],[0.09804701060056686],[-0.01693488098680973],[0.11040211468935013],[-0.06846464425325394],[-0.13518251478672028],[0.012201569974422455],[-0.24065786600112915],[0.11827711760997772],[0.13029320538043976],[0.14758606255054474],[0.06786245852708817],[-0.01781560108065605],[0.07526245713233948],[0.07387997210025787],[-0.1248820498585701],[-0.04513556510210037],[0.1075509712100029],[-0.1413370966911316],[0.028838548809289932],[-0.1272268146276474],[0.1627417504787445],[-0.17426705360412598],[-0.13245616853237152],[-0.03927912563085556],[-0.039911046624183655],[-0.07744547724723816],[-0.12771931290626526],[-0.004615237470716238],[-0.11384859681129456],[0.007818828336894512],[-0.12199176102876663],[0.06359045952558517],[0.1614362895488739],[-0.09725166857242584],[0.04684162884950638],[0.06327787786722183],[-0.15864412486553192],[0.04733271896839142],[-0.08333040028810501],[0.08032075315713882],[-0.005851419642567635],[-0.09398582577705383],[-0.004097370430827141],[0.018837302923202515],[-0.13505449891090393],[-0.06763987988233566],[-0.14182384312152863],[0.1444038301706314],[0.0049616750329732895],[0.027851281687617302],[0.131856769323349],[-0.06270764023065567],[-0.02413272112607956],[-0.10049543529748917],[-0.016869425773620605],[0.0030983013566583395],[0.12950503826141357],[-0.14682845771312714],[-0.0525929257273674],[-0.034281522035598755],[0.026338834315538406],[-0.003938994836062193],[-0.06582683324813843],[-0.1506190150976181],[0.03155497834086418],[-0.05757739022374153],[-0.0043927151709795],[-0.21952170133590698],[-0.043834950774908066],[-0.10065600275993347],[-0.09659761935472488],[0.08729300647974014],[-0.016091862693428993],[0.04059526324272156],[-0.097527876496315],[0.11274212598800659],[-0.10138706862926483],[-0.0503639318048954],[0.08429988473653793],[0.08542241156101227],[0.05998709052801132],[0.030751479789614677],[-0.07350387424230576],[-0.05452384799718857],[-0.08714722841978073],[0.133480042219162],[0.09551729261875153],[0.14087028801441193],[0.06792783737182617],[-0.048965610563755035],[0.018901679664850235],[0.0165488813072443],[0.07538299262523651],[0.08258039504289627],[-0.03237272799015045],[-0.012360614724457264],[0.09393349289894104],[0.005230621434748173],[-0.16745981574058533],[-0.11578390747308731],[0.00489848991855979],[0.02659519948065281],[0.033115096390247345],[0.06799409538507462],[0.0382889099419117],[-0.04495047777891159],[-0.1803545355796814],[-0.06733337789773941],[0.09287366271018982],[0.0383218377828598],[0.04741177335381508],[0.018648328259587288],[0.06303122639656067],[-0.1144387274980545],[-0.025493726134300232],[0.05757363140583038],[0.031445011496543884],[0.0014967350289225578],[0.004754146095365286],[-0.03642953559756279],[0.0055444384925067425],[-0.12410343438386917],[-0.0014966358430683613],[-0.047230854630470276],[-0.1412750780582428],[0.02902306616306305],[0.0897899940609932],[-0.05728195235133171],[-0.04722685366868973],[0.07958601415157318],[-0.08429177850484848],[-0.12616103887557983],[0.1348293572664261],[-0.05079638212919235],[-0.18987210094928741],[-0.0551062636077404],[-0.1716403067111969],[0.03562572970986366],[0.17548273503780365],[-0.11399076879024506],[-0.13167314231395721],[0.11817117035388947],[-0.009128933772444725],[-0.059259817004203796],[-0.03500702977180481],[0.03296796977519989],[0.04622294381260872],[-0.13603274524211884],[0.09342823922634125],[0.12191754579544067],[-0.013096172362565994],[-0.07092258334159851],[0.1689903885126114],[0.03284628316760063],[0.0010444845538586378],[0.05997294932603836],[-0.0022451418917626143],[-0.010096216574311256],[0.05650307610630989],[-0.02736799791455269],[0.1661449670791626],[-0.0638555958867073],[-0.009472036734223366],[-0.0648384690284729],[0.0255088210105896],[-0.012233277782797813],[0.10159190744161606],[-0.03423004224896431],[0.14464548230171204],[-0.09278224408626556],[0.008159948512911797],[0.009960195049643517],[0.008916469290852547],[-0.22873373329639435],[-0.029302889481186867],[0.05457540974020958],[-0.1150660291314125],[0.16489063203334808],[0.028191613033413887],[0.04201328381896019],[0.05971396714448929],[0.014253973960876465],[0.046127766370773315],[0.12063033878803253],[-0.07733886688947678],[-0.03923431411385536],[0.007265643682330847],[0.25814947485923767],[0.02468753792345524],[-0.13420087099075317],[-0.11329807341098785],[0.016135385259985924],[-0.025011910125613213],[-0.013801701366901398],[0.19338519871234894],[-0.1401136964559555],[0.10609102994203568],[-0.1204182580113411],[0.024069923907518387],[-0.02120274491608143],[0.007855309173464775],[0.020812761038541794],[-0.07400204986333847],[0.07291235029697418],[-0.10159813612699509],[0.09866120666265488],[-0.06703793257474899],[0.058055371046066284],[0.009087735787034035],[0.16197605431079865],[0.03114512749016285],[-0.01396755501627922],[0.008115462958812714],[0.059804562479257584],[0.11307024210691452],[-0.013868718408048153],[-0.05972953885793686],[-0.19141124188899994],[-0.007926463149487972],[-0.1075717955827713],[-0.0495278537273407],[-0.11352825164794922],[-0.07171497493982315],[0.035259660333395004],[-0.1438812017440796],[-0.09719955176115036],[0.06622804701328278],[-0.060066234320402145],[-0.09590808302164078],[-0.04983625188469887],[-0.08417245745658875]]