[[0.06648150086402893],[0.018736915662884712],[0.10075479745864868],[0.11135439574718475],[0.17183439433574677],[-0.11715133488178253],[0.22918294370174408],[-0.12292779982089996],[-0.02446054294705391],[-0.19712336361408234],[0.08990685641765594],[-0.47267910838127136],[-0.24747610092163086],[-0.2611067295074463],[0.00851624645292759],[-0.12338326871395111],[-0.08903156965970993],[-0.26245489716529846],[0.07201453298330307],[-0.3982311487197876],[-0.11293958127498627],[0.05309450998902321],[0.10239926725625992],[-0.035812750458717346],[-0.1773790568113327],[-0.09556975215673447],[0.027597742155194283],[0.12503929436206818],[-0.3832511007785797],[-0.1599322259426117],[0.14145074784755707],[-0.20739656686782837],[0.02119077928364277],[-0.10305551439523697],[-0.14023633301258087],[0.04434771090745926],[-0.05725303664803505],[-0.36098799109458923],[0.023973751813173294],[0.16341596841812134],[-0.08481927961111069],[-0.2591736316680908],[-0.24841290712356567],[-0.259257048368454],[-0.2779053747653961],[0.15921898186206818],[-0.38898515701293945],[0.12433724105358124],[0.058239538222551346],[0.10892283916473389],[0.10231655091047287],[0.0853157639503479],[-0.2654879093170166],[0.039399486035108566],[-0.08393919467926025],[-0.04612937942147255],[-0.14607013761997223],[0.25074371695518494],[-0.05508393421769142],[0.2677605152130127],[-0.09887789934873581],[0.13848847150802612],[-0.17079991102218628],[0.15642695128917694]]