[[-0.0026159798726439476],[-0.34635692834854126],[-0.14171302318572998],[0.035708628594875336],[-0.03751540184020996],[0.07010258734226227],[-0.26566335558891296],[0.16843053698539734],[-0.04601606726646423],[-0.1042432114481926],[-0.3865399658679962],[-0.11849068850278854],[-0.19013601541519165],[-0.2981264293193817],[-0.20841775834560394],[-0.002054559299722314],[0.3369620442390442],[0.007407638244330883],[-0.17112664878368378],[-0.08047056943178177],[0.21964003145694733],[0.013538850471377373],[-0.09636949002742767],[0.01948835328221321],[0.008714246563613415],[0.2560215890407562],[-0.029027748852968216],[-0.15435390174388885],[0.17554844915866852],[-0.020452288910746574],[-0.20476415753364563],[0.008536692708730698],[-0.1652458906173706],[0.13679973781108856],[0.12512871623039246],[-0.282891184091568],[-0.08648739755153656],[-0.2147935926914215],[-0.28577908873558044],[-0.07994771003723145],[-0.2538566589355469],[0.24040287733078003],[-0.060748979449272156],[-0.16009759902954102],[-0.02682724967598915],[-0.20455895364284515],[-0.19950246810913086],[0.14687199890613556],[-0.007687170058488846],[0.1667020469903946],[0.14191818237304688],[-0.5187221169471741],[0.17774005234241486],[-0.07864376902580261],[-0.1244153305888176],[-0.03442440181970596],[-0.16009923815727234],[0.1865038126707077],[0.16138911247253418],[-0.09868428111076355],[-0.2116946280002594],[-0.20641480386257172],[-0.13423219323158264],[0.1303020417690277]]