[[-0.09410520642995834],[-0.08290574699640274],[-0.04358658939599991],[-0.060148920863866806],[0.11698570102453232],[0.14575660228729248],[-0.15296228229999542],[0.09956236183643341],[-0.09439147263765335],[0.07043206691741943],[-0.18725863099098206],[-0.11462058871984482],[-0.025325832888484],[0.2284422218799591],[-0.2918076813220978],[0.052460018545389175],[0.07777605950832367],[-0.017328746616840363],[0.12833786010742188],[-0.08972172439098358],[-0.06839308142662048],[-0.19428931176662445],[0.04326808080077171],[0.015368588268756866],[-0.035526592284440994],[0.09004821628332138],[-0.022191224619746208],[0.11986266076564789],[-0.06011441722512245],[-0.1252601444721222],[0.02220827527344227],[-0.23693722486495972],[0.10952939838171005],[0.12194297462701797],[0.13923583924770355],[0.0756431519985199],[-0.009682864882051945],[0.06712080538272858],[0.08223019540309906],[-0.11604544520378113],[-0.05014236271381378],[0.09801158308982849],[-0.13576455414295197],[0.02079751156270504],[-0.12012025713920593],[0.15388640761375427],[-0.16605326533317566],[-0.12410593777894974],[-0.030953088775277138],[-0.03861880302429199],[-0.0723671093583107],[-0.11788535118103027],[0.004221564624458551],[-0.12385530024766922],[0.006440268363803625],[-0.1306155025959015],[0.0673111081123352],[0.15634293854236603],[-0.10097231715917587],[0.03817792981863022],[0.07276207208633423],[-0.16397669911384583],[0.03910581395030022],[-0.07922124862670898],[0.07216370850801468],[0.00221120729111135],[-0.08526172488927841],[0.004175450187176466],[0.009269720874726772],[-0.14344926178455353],[-0.058911342173814774],[-0.1501740664243698],[0.13530346751213074],[-0.0033885492011904716],[0.017845209687948227],[0.12446149438619614],[-0.05420583859086037],[-0.014199658297002316],[-0.10575097799301147],[-0.007713388651609421],[0.006818947847932577],[0.12048780918121338],[-0.15537062287330627],[-0.044242702424526215],[-0.03800216689705849],[0.026338834315538406],[0.004651858005672693],[-0.05654560774564743],[-0.14689837396144867],[0.04005688801407814],[-0.06402182579040527],[-0.0029437539633363485],[-0.21143488585948944],[-0.03702262416481972],[-0.1092224046587944],[-0.08749434351921082],[0.07966160774230957],[-0.02290072664618492],[0.04961902275681496],[-0.08760138601064682],[0.10375882685184479],[-0.10848373919725418],[-0.05375053361058235],[0.09318710118532181],[0.08542241156101227],[0.06370773911476135],[0.03925466164946556],[-0.07722452282905579],[-0.0632757693529129],[-0.08401770144701004],[0.1265311986207962],[0.08983597159385681],[0.1371496468782425],[0.059577614068984985],[-0.05651414766907692],[0.011117995716631413],[0.012828245759010315],[0.08516537398099899],[0.0735429972410202],[-0.023942507803440094],[-0.019627856090664864],[0.10372182726860046],[0.0015099751763045788],[-0.16202284395694733],[-0.11950455605983734],[0.012546724639832973],[0.019412951543927193],[0.029394451528787613],[0.059810198843479156],[0.03089865669608116],[-0.038045357912778854],[-0.17663389444351196],[-0.06361272931098938],[0.08407573401927948],[0.0383218377828598],[0.05113241821527481],[0.02236897498369217],[0.07295104116201401],[-0.1144387274980545],[-0.017756035551428795],[0.05362676829099655],[0.021831423044204712],[-0.006853490136563778],[-0.0031279306858778],[-0.028166931122541428],[0.0018237917684018612],[-0.1162736564874649],[-0.010875343345105648],[-0.05540725216269493],[-0.1349034458398819],[0.037700407207012177],[0.08161841332912445],[-0.06617744266986847],[-0.04076545313000679],[0.07179693877696991],[-0.08057112991809845],[-0.12014706432819366],[0.14308995008468628],[-0.05878102034330368],[-0.18200981616973877],[-0.046756040304899216],[-0.17912563681602478],[0.027773166075348854],[0.16670799255371094],[-0.11938786506652832],[-0.13968561589717865],[0.12652139365673065],[-0.0022933720611035824],[-0.055539172142744064],[-0.04287122189998627],[0.024617746472358704],[0.04212252050638199],[-0.1439102441072464],[0.09714888781309128],[0.131745383143425],[-0.016816819086670876],[-0.07951932400465012],[0.16039766371250153],[0.04198312759399414],[0.0047651310451328754],[0.051622726023197174],[0.006161542143672705],[-0.01973680406808853],[0.05844470113515854],[-0.02736799791455269],[0.17614810168743134],[-0.07172630727291107],[-0.010876857675611973],[-0.0648384690284729],[0.031933125108480453],[-0.0049491990357637405],[0.11008575558662415],[-0.0401921346783638],[0.14684446156024933],[-0.09278224408626556],[0.01708786003291607],[0.018302738666534424],[0.016883688047528267],[-0.22873373329639435],[-0.03918550908565521],[0.06379491090774536],[-0.12122681736946106],[0.17476947605609894],[0.037750981748104095],[0.05201162025332451],[0.05162021517753601],[0.0226041991263628],[0.03890641778707504],[0.12898056209087372],[-0.07510276883840561],[-0.04068973660469055],[0.000007811424438841641],[0.25814947485923767],[0.016062365844845772],[-0.1379215121269226],[-0.1219080239534378],[0.007785160560160875],[-0.016165802255272865],[-0.01752234809100628],[0.18629924952983856],[-0.1438003033399582],[0.09774080663919449],[-0.11256511509418488],[0.015486118383705616],[-0.017482098191976547],[0.007855309173464775],[0.01259863656014204],[-0.06890352815389633],[0.0716291144490242],[-0.1078639030456543],[0.09866120666265488],[-0.07696592807769775],[0.06642795354127884],[0.01824105903506279],[0.16569669544696808],[0.027424480766057968],[-0.01396755501627922],[0.016897067427635193],[0.05804797634482384],[0.12118684500455856],[-0.023855162784457207],[-0.0674402043223381],[-0.19797691702842712],[0.0005355403409339488],[-0.11129244416952133],[-0.059297457337379456],[-0.11724890023469925],[-0.07974018901586533],[0.04360988363623619],[-0.1338949352502823],[-0.10613561421632767],[0.06350143253803253],[-0.06796195358037949],[-0.08822566270828247],[-0.05450554937124252],[-0.0925096794962883]]