[[-0.00738123431801796],[0.05797725170850754],[0.18635748326778412],[0.12432926893234253],[-0.00915331020951271],[0.004172172397375107],[0.0231391042470932],[0.11711545288562775],[-0.026443472132086754],[-0.0265305545181036],[0.1508607268333435],[-0.18766221404075623],[-0.117011658847332],[0.18687701225280762],[-0.12931904196739197],[0.14984017610549927],[0.17127947509288788],[-0.07164043933153152],[-0.0019783671014010906],[0.2712002992630005],[-0.1850384920835495],[0.09312431514263153],[0.0913190171122551],[0.13087043166160583],[-0.047528207302093506],[0.10609272122383118],[-0.0017772777937352657],[-0.015374032780528069],[-0.0849161148071289],[-0.010271728038787842],[-0.26047274470329285],[-0.22874243557453156],[0.12443187087774277],[-0.243772953748703],[-0.065374955534935],[-0.45884969830513],[-0.2644134759902954],[0.4495866894721985],[-0.13346852362155914],[0.179975688457489],[0.46045148372650146],[0.20875798165798187],[-0.2751882076263428],[0.08577508479356766],[-0.20487740635871887],[0.04274386167526245],[-0.13520222902297974],[0.15699471533298492],[-0.2393876165151596],[-0.006361397914588451],[0.024903561919927597],[0.037173230201005936],[0.09090205281972885],[-0.18433178961277008],[-0.007666846737265587],[0.25253719091415405],[-0.3150387108325958],[0.18268220126628876],[-0.13044139742851257],[-0.16423435509204865],[0.2886255383491516],[-0.0318424366414547],[-0.026561595499515533],[0.1318594366312027]]