[[-0.43535375595092773],[-0.00031182399834506214],[0.05887451395392418],[0.044000204652547836],[0.06088784337043762],[-0.0325661227107048],[-0.3459799885749817],[0.26042768359184265],[0.03997381031513214],[0.11148187518119812],[-0.003407819429412484],[0.21062755584716797],[-0.10133184492588043],[-0.21907536685466766],[0.006872367579489946],[-0.14203466475009918],[-0.27421554923057556],[-0.14256635308265686],[0.03946749120950699],[-0.29648473858833313],[0.070318304002285],[0.5213635563850403],[0.2234947681427002],[-0.0535442940890789],[0.07065043598413467],[-0.16796249151229858],[-0.09047289937734604],[-0.026969416067004204],[0.0012014040257781744],[-0.3048427104949951],[-0.12466412037611008],[-0.3240073323249817],[-0.18258747458457947],[-0.05441753566265106],[0.18908141553401947],[-0.202285036444664],[-0.16609624028205872],[-0.3465527892112732],[0.05708659812808037],[-0.21415476500988007],[0.29290899634361267],[0.29943418502807617],[0.1340000331401825],[-0.038279298692941666],[-0.06050746515393257],[0.33695492148399353],[-0.018765611574053764],[-0.15499089658260345],[-0.2432113140821457],[0.04312250018119812],[-0.05787920951843262],[0.23674428462982178],[-0.16259920597076416],[0.22437243163585663],[-0.17228065431118011],[0.04875120893120766],[-0.1793355643749237],[0.1636883169412613],[-0.13277240097522736],[-0.10838513821363449],[-0.11453108489513397],[-0.29199010133743286],[0.04158402979373932],[-0.015725113451480865]]