[[-0.010966203175485134],[-0.33723586797714233],[-0.15008516609668732],[0.035708628594875336],[-0.03751540184020996],[0.07010258734226227],[-0.26566335558891296],[0.1647098958492279],[-0.04601606726646423],[-0.1042432114481926],[-0.378024160861969],[-0.11849068850278854],[-0.19013601541519165],[-0.2981264293193817],[-0.21213839948177338],[-0.002054559299722314],[0.3369620442390442],[0.015526206232607365],[-0.1635838896036148],[-0.08047056943178177],[0.2159193903207779],[0.01208573766052723],[-0.08801926672458649],[0.01576770655810833],[0.011453192681074142],[0.25255754590034485],[-0.035785164684057236],[-0.16270412504673004],[0.16696389019489288],[-0.028428783640265465],[-0.2010435163974762],[-0.00041851866990327835],[-0.15572580695152283],[0.13307909667491913],[0.12512871623039246],[-0.282891184091568],[-0.09522347897291183],[-0.2232707291841507],[-0.28577908873558044],[-0.07994771003723145],[-0.26288726925849915],[0.24652667343616486],[-0.0660909041762352],[-0.16924013197422028],[-0.018495719879865646],[-0.20455895364284515],[-0.19950246810913086],[0.13852177560329437],[-0.007687170058488846],[0.17503122985363007],[0.15026840567588806],[-0.5187221169471741],[0.17774005234241486],[-0.07864376902580261],[-0.1244153305888176],[-0.02444061078131199],[-0.16009923815727234],[0.18278317153453827],[0.16973933577537537],[-0.0894571915268898],[-0.2116946280002594],[-0.20641480386257172],[-0.13423219323158264],[0.1303020417690277]]