[[-0.07984689623117447],[-0.11558818817138672],[-0.12900884449481964],[-0.056885164231061935],[-0.006994806695729494],[0.058664850890636444],[0.46135351061820984],[-0.012609799392521381],[0.03528982773423195],[0.021211283281445503],[-0.06999112665653229],[-0.07144522666931152],[-0.10222472250461578],[0.11337321996688843],[-0.22845691442489624],[-0.15499307215213776],[0.09702379256486893],[-0.09804622828960419],[0.04503786563873291],[0.20696058869361877],[-0.3860909640789032],[0.010117107070982456],[-0.03958219289779663],[-0.10094848275184631],[0.01325475424528122],[-0.35955896973609924],[0.27772057056427],[0.12038206309080124],[0.03929264098405838],[-0.24175511300563812],[-0.12002208828926086],[0.34000030159950256],[0.11235702037811279],[-0.3788650333881378],[0.06014034152030945],[0.13441947102546692],[-0.37129539251327515],[-0.2223849594593048],[0.10060805827379227],[0.059825412929058075],[-0.17660406231880188],[0.14320553839206696],[0.03863068297505379],[0.05548906698822975],[-0.1541038155555725],[0.04777514189481735],[0.012829184532165527],[0.037591252475976944],[0.0618114210665226],[-0.03089199773967266],[-0.04337604343891144],[-0.21248161792755127],[0.1327642798423767],[-0.16409465670585632],[0.17394116520881653],[0.08934415131807327],[-0.03211592137813568],[-0.1928543895483017],[0.04257699102163315],[-0.08985105901956558],[0.024023430421948433],[0.3582400977611542],[0.057539522647857666],[0.03320373594760895],[0.23897279798984528],[-0.12911508977413177],[0.18929332494735718],[0.0028404390905052423],[-0.04466819018125534],[-0.020447099581360817],[-0.16664040088653564],[0.013727412559092045],[0.29209092259407043],[-0.004815741442143917],[-0.08635672926902771],[-0.18126779794692993],[0.0020891751628369093],[-0.1369345337152481],[0.01720038615167141],[-0.201277494430542],[-0.14054182171821594],[-0.20454096794128418],[0.041040390729904175],[-0.3573002815246582],[-0.14461404085159302],[-0.01863810420036316],[-0.08324301987886429],[-0.05590631067752838],[0.012582892552018166],[0.1806488037109375],[-0.0422600656747818],[-0.17608186602592468],[-0.13793732225894928],[-0.3362472653388977],[0.06542398035526276],[0.1911161243915558],[-0.12126818299293518],[-0.24408628046512604],[-0.10234776139259338],[0.00889412872493267],[0.00811707228422165],[-0.07824832946062088],[0.038800157606601715],[-0.025933973491191864],[-0.0656745433807373],[0.06099998950958252],[0.06341459602117538],[0.07254376262426376],[-0.12633800506591797],[-0.03591632470488548],[-0.3360472321510315],[-0.10976503789424896],[-0.13206768035888672],[-0.20976471900939941],[0.005867753643542528],[-0.07936472445726395],[0.061633091419935226],[0.057627055794000626],[-0.2412673532962799],[-0.1435561329126358],[-0.12385448068380356],[0.028524257242679596],[0.04131590574979782],[0.04599257558584213],[0.014143235981464386],[0.03463426232337952],[-0.047863274812698364],[-0.057749032974243164]]