[[-0.15893588960170746],[0.006752631161361933],[-0.20243427157402039],[0.028323223814368248],[-0.3703523576259613],[-0.08134835958480835],[0.04270162805914879],[-0.07053279131650925],[-0.1481935679912567],[-0.09183309227228165],[-0.23145486414432526],[-0.4774853587150574],[0.023175206035375595],[-0.20024938881397247],[0.11847212165594101],[-0.08473878353834152],[0.1912430375814438],[-0.03949901834130287],[-0.054849278181791306],[-0.011099386028945446],[-0.10611618310213089],[-0.153045654296875],[-0.12317188084125519],[0.4570259153842926],[-0.05493811517953873],[-0.1412239968776703],[-0.08156432956457138],[0.11751856654882431],[0.017469536513090134],[-0.01239860150963068],[-0.20403459668159485],[-0.13654671609401703],[-0.24388593435287476],[-0.010181859135627747],[0.00027263921219855547],[-0.3048899471759796],[-0.21143163740634918],[-0.15478286147117615],[-0.26828351616859436],[0.05551813170313835],[-0.07468119263648987],[-0.12299148738384247],[0.11621768027544022],[-0.31374838948249817],[-0.23554947972297668],[0.23611664772033691],[0.0034329525660723448],[-0.4237520694732666],[-0.17273634672164917],[-0.10558927804231644],[0.09280671179294586],[-0.34079834818840027],[-0.02315555512905121],[-0.40948817133903503],[-0.07694856077432632],[-0.18614377081394196],[0.13747869431972504],[-0.43523839116096497],[-0.0642189234495163],[-0.0821809321641922],[0.019072532653808594],[0.18231357634067535],[0.16343651711940765],[-0.1276124119758606]]