[[-0.03504470735788345],[0.04654128476977348],[0.01682289130985737],[-0.004209152422845364],[0.01112363487482071],[-0.2031688094139099],[0.07458318769931793],[-0.1983136087656021],[0.34508514404296875],[0.02951618656516075],[-0.07799908518791199],[-0.010260583832859993],[-0.2295268177986145],[0.17299430072307587],[0.20774970948696136],[0.034142185002565384],[-0.1550949662923813],[0.2696239650249481],[0.01558701228350401],[0.1241617351770401],[-0.12740309536457062],[-0.2833048701286316],[-0.3130495548248291],[0.07933886349201202],[0.11619286239147186],[0.15843167901039124],[-0.15630103647708893],[0.08154419809579849],[0.20974576473236084],[0.015556959435343742],[0.03449738398194313],[0.11153227835893631],[0.03056415542960167],[-0.2327321171760559],[-0.09798826277256012],[0.013721774332225323],[-0.08371492475271225],[-0.13895896077156067],[-0.2658423185348511],[0.19130273163318634],[0.12542438507080078],[-0.07273035496473312],[0.026710812002420425],[-0.12798243761062622],[0.13551901280879974],[0.08936459571123123],[-0.14355990290641785],[0.08225879073143005],[-0.202925443649292],[-0.035577189177274704],[0.15119710564613342],[0.20142731070518494],[0.09424643218517303],[-0.030699100345373154],[0.02992244064807892],[-0.23141951858997345],[-0.09825248271226883],[-0.1771632879972458],[0.10043422132730484],[-0.020284326747059822],[0.05610556900501251],[0.1592687964439392],[0.06656555831432343],[0.13429826498031616],[-0.12542670965194702],[0.10663507878780365],[0.14919745922088623],[-0.24202419817447662],[0.2933136522769928],[-0.22080664336681366],[-0.05931774154305458],[-0.10344821214675903],[0.10482709854841232],[0.1458854377269745],[-0.3613792657852173],[0.17060156166553497],[-0.03357836976647377],[-0.07358326762914658],[0.029537340626120567],[-0.17087265849113464],[0.2000734955072403],[-0.2222413271665573],[-0.06568513065576553],[-0.11216185241937637],[0.08276615291833878],[0.09138455986976624],[0.17296922206878662],[-0.0766524225473404],[0.019395818933844566],[-0.09055348485708237],[-0.14414799213409424],[-0.015548472292721272],[-0.08641563355922699],[-0.259840726852417],[-0.23462171852588654],[-0.019668640568852425],[0.006619095802307129],[-0.041012056171894073],[-0.12149332463741302],[-0.06783383339643478],[0.10672695934772491],[-0.2216634750366211],[-0.1772218644618988],[0.01877310313284397],[-0.10829862207174301],[-0.11261062324047089],[-0.10274331271648407],[-0.2186618447303772],[-0.11243023723363876],[-0.17551586031913757],[-0.22517356276512146],[-0.04837886989116669],[0.055074017494916916],[0.3646214008331299],[-0.17758296430110931],[-0.0002124247985193506],[0.040849678218364716],[0.16542410850524902],[-0.07916267961263657],[0.05566488206386566],[0.005288342479616404],[0.06493982672691345],[-0.09501472115516663],[0.0908554419875145],[-0.05451086908578873],[0.18649844825267792],[-0.07278690487146378],[-0.0835265964269638]]