[[-0.024873992428183556],[-0.09824158251285553],[0.04737473279237747],[-0.01901923306286335],[0.17688438296318054],[-0.014357023872435093],[-0.19478049874305725],[-0.008112246170639992],[0.008753973990678787],[-0.031163914129137993],[0.01185829658061266],[0.07569762319326401],[-0.07611261308193207],[0.1158069595694542],[-0.11972350627183914],[0.05688579007983208],[-0.07571158558130264],[0.12773825228214264],[-0.016612151637673378],[0.38126176595687866],[-0.02517487108707428],[-0.1903635859489441],[0.0006151423440314829],[0.05768236517906189],[-0.02094433829188347],[0.04605302959680557],[-0.08572964370250702],[-0.12736862897872925],[-0.09345072507858276],[0.056438200175762177],[0.04558275640010834],[0.07844974845647812],[-0.1683817356824875],[-0.12039780616760254],[0.04246075451374054],[0.014555452391505241],[-0.1215042695403099],[0.08409269154071808],[-0.013004581443965435],[-0.06151203066110611],[0.09927975386381149],[-0.08477681130170822],[0.07595215737819672],[-0.3141399025917053],[0.011930905282497406],[-0.045729272067546844],[-0.05390432849526405],[0.03506038710474968],[0.058753643184900284],[0.11479892581701279],[0.1300954520702362],[-0.21864944696426392],[0.11464188247919083],[0.12093687057495117],[-0.18316854536533356],[0.24257351458072662],[0.10375484824180603],[-0.08882572501897812],[-0.11272197961807251],[-0.06475351005792618],[0.019851215183734894],[0.10190898925065994],[0.027243798598647118],[0.07334600389003754],[-0.18883560597896576],[0.09690672159194946],[-0.27367380261421204],[-0.10335234552621841],[0.16936901211738586],[0.0773288905620575],[-0.16480374336242676],[-0.12010765820741653],[-0.018834607675671577],[0.04527933895587921],[0.023880889639258385],[0.11673011630773544],[-0.0736653059720993],[-0.23326241970062256],[-0.04865032434463501],[0.07057452201843262],[-0.06227289140224457],[-0.20327238738536835],[-0.1352391093969345],[-0.09718874841928482],[0.03887922689318657],[0.05798780918121338],[0.11099117249250412],[0.14848148822784424],[-0.034144897013902664],[-0.10354107618331909],[-0.1069825291633606],[-0.26457828283309937],[-0.1779720038175583],[0.004773206543177366],[-0.19968754053115845],[0.006687432527542114],[0.12936115264892578],[-0.014520557597279549],[0.09219047427177429],[-0.06006556749343872],[-0.18231233954429626],[-0.30619919300079346],[0.002663093851879239],[0.10939013212919235],[0.07691582292318344],[-0.01108732633292675],[0.066957488656044],[-0.05626436322927475],[0.10454225540161133],[-0.06223075091838837],[-0.023075591772794724],[0.17521120607852936],[-0.09976580739021301],[-0.03424917906522751],[0.014188505709171295],[0.06396549940109253],[-0.05063151568174362],[0.0779494196176529],[-0.02138538286089897],[-0.01120788138359785],[0.013179849833250046],[0.029033122584223747],[-0.06423281878232956],[0.11389490962028503],[-0.058969367295503616],[-0.09096536785364151],[-0.15002267062664032],[-0.13436202704906464]]