[[-0.07940363138914108],[-0.2109985500574112],[-0.11631771177053452],[-0.23173868656158447],[-0.018441172316670418],[-0.006112794391810894],[0.018966544419527054],[0.18147148191928864],[-0.32796749472618103],[0.26137733459472656],[0.048115212470293045],[-0.17888252437114716],[-0.15334174036979675],[0.15937958657741547],[-0.12759281694889069],[-0.03558017313480377],[0.024857306852936745],[0.09507346898317337],[-0.02840200811624527],[-0.02080230787396431],[-0.07881084084510803],[0.006930144038051367],[0.047981828451156616],[-0.14220216870307922],[0.013796900399029255],[-0.15539613366127014],[0.036441102623939514],[0.05273115262389183],[-0.07698667049407959],[-0.189873605966568],[0.010450048372149467],[0.0056531415320932865],[0.12819641828536987],[-0.13487759232521057],[0.18463163077831268],[-0.10366827994585037],[0.14132148027420044],[-0.14389358460903168],[0.07594002038240433],[-0.15663442015647888],[-0.19072256982326508],[0.09916222095489502],[-0.22383831441402435],[0.09632110595703125],[-0.0846102312207222],[-0.011479036882519722],[-0.0665065348148346],[0.0009438381530344486],[0.023966120555996895],[-0.1425335854291916],[0.1135072261095047],[-0.13352106511592865],[-0.035432249307632446],[-0.10805978626012802],[-0.11730268597602844],[-0.0415186807513237],[0.15836799144744873],[-0.17275545001029968],[-0.013203266076743603],[-0.06888122856616974],[-0.06725587695837021],[0.08351361751556396],[-0.10193055123090744],[-0.0697237029671669],[0.013214800506830215],[-0.0027903884183615446],[-0.019168788567185402],[-0.060197051614522934],[-0.05859750881791115],[0.11907566338777542],[0.03953308239579201],[0.08779861778020859],[-0.1096595898270607],[-0.03063815087080002],[-0.11920376867055893],[0.2663925588130951],[-0.1465224027633667],[0.14352552592754364],[-0.23243114352226257],[-0.36494097113609314],[-0.10686618089675903],[-0.03235119953751564],[-0.24138987064361572],[-0.08682207018136978],[0.16461968421936035],[0.06856600940227509],[-0.04416164383292198],[0.02171201817691326],[-0.2351188361644745],[0.16021905839443207],[0.09131250530481339],[-0.19469089806079865],[-0.10884632915258408],[-0.08201783150434494],[0.17294162511825562],[0.043044958263635635],[0.040966298431158066],[0.042908623814582825],[0.10652650892734528],[-0.18970485031604767],[0.036753054708242416],[0.07299166172742844],[0.15601375699043274],[-0.14481201767921448],[-0.09121579676866531],[-0.0012463654857128859],[-0.05667736008763313],[-0.12174961715936661],[-0.23327787220478058],[-0.07408908009529114],[0.045033201575279236],[0.09565305709838867],[0.025313040241599083],[-0.024315662682056427],[-0.1042831540107727],[-0.035151127725839615],[0.09431969374418259],[-0.15426263213157654],[-0.003363286145031452],[-0.11476890742778778],[-0.12511779367923737],[-0.07000043243169785],[0.09966538846492767],[-0.007956563495099545],[0.00008556898683309555],[-0.051079392433166504],[-0.21066461503505707],[0.12645100057125092],[-0.08219225704669952],[0.01457523088902235],[-0.0015115182613953948],[-0.04526278376579285],[0.0033005245495587587],[0.20972231030464172],[-0.02803811803460121],[-0.0980626568198204],[-0.09338080137968063],[-0.022042587399482727],[0.1076713353395462],[-0.04534086212515831],[0.25563961267471313],[-0.0370582714676857],[-0.1361670047044754],[-0.09244544804096222],[-0.06136561930179596],[-0.04733423888683319],[-0.2570500075817108],[0.2156832069158554],[0.06989303231239319],[-0.12039986252784729],[-0.0702904760837555],[-0.16437478363513947],[-0.09105658531188965],[-0.0030757656786590815],[0.00007663900032639503],[-0.08445217460393906],[-0.1803421974182129],[0.15077324211597443],[0.08966473489999771],[-0.08101517707109451],[0.0274850744754076],[-0.078764908015728],[-0.016512174159288406],[0.06982779502868652],[0.04403045028448105],[-0.13975699245929718],[-0.08907126635313034],[-0.03641456365585327],[-0.045853257179260254],[-0.1842963695526123],[-0.08359429240226746],[-0.004914968740195036],[-0.17115449905395508],[-0.22645799815654755],[0.012725097127258778],[0.039797622710466385],[0.04413394257426262],[0.028604768216609955],[0.0732465460896492],[-0.021707603707909584],[-0.046251434832811356],[0.002346005290746689],[-0.01039163302630186],[-0.0006983072962611914],[0.12215692549943924],[-0.039124153554439545],[-0.13815335929393768],[-0.11637432873249054],[-0.06735167652368546],[0.24536080658435822],[0.1605858951807022],[-0.17881830036640167],[-0.04092571139335632],[0.06842279434204102],[0.05213121324777603],[-0.024311289191246033],[-0.1213250681757927],[-0.07499410212039948],[-0.1388213336467743],[-0.03301795572042465],[0.02985486574470997],[-0.17841902375221252],[-0.2207651138305664],[-0.026242392137646675],[0.016571104526519775],[-0.003933966159820557],[0.01889694482088089],[0.009402764961123466],[-0.10855067521333694],[-0.02454567700624466],[-0.08687221258878708],[-0.1320798099040985],[-0.16509796679019928],[-0.265718936920166],[-0.2981424033641815],[-0.1717226654291153],[-0.00581348454579711],[0.01204710640013218],[-0.1395360827445984],[-0.0337543711066246],[0.09562444686889648],[-0.09426692128181458],[-0.2197115272283554],[0.06194042041897774],[0.09635001420974731],[-0.0454588383436203],[-0.13236267864704132],[0.006983965635299683],[-0.15759778022766113],[-0.1675950139760971],[-0.09566039592027664],[-0.05583124980330467],[0.046584345400333405],[-0.07860564440488815],[-0.09743539988994598],[0.06013796478509903],[-0.11837734282016754],[0.10707394778728485],[0.0728328600525856],[0.1193755641579628],[0.0988045185804367],[-0.11385972052812576],[-0.1249375268816948],[-0.16252188384532928],[0.008531179279088974],[0.04092666506767273],[-0.09853630512952805],[-0.04734793305397034],[0.025656186044216156],[0.16833725571632385],[-0.1131591871380806],[-0.20065347850322723],[-0.05530118942260742],[-0.10473963618278503],[-0.007507723290473223],[-0.06915581971406937]]