[[-0.021150238811969757],[-0.09824158251285553],[0.037902720272541046],[-0.01901923306286335],[0.17434841394424438],[-0.0054620192386209965],[-0.18643027544021606],[-0.0002935919910669327],[0.0014825440011918545],[-0.031163914129137993],[0.008137649856507778],[0.084920234978199],[-0.0798332616686821],[0.10685554891824722],[-0.11972350627183914],[0.05688579007983208],[-0.085300013422966],[0.13460130989551544],[-0.024962376803159714],[0.37754112482070923],[-0.016824647784233093],[-0.18111592531204224],[0.0006151423440314829],[0.04792699217796326],[-0.0287209153175354],[0.05440325289964676],[-0.08572964370250702],[-0.13108927011489868],[-0.08344459533691406],[0.0472332201898098],[0.04558275640010834],[0.07009952515363693],[-0.1683817356824875],[-0.12039780616760254],[0.05033871531486511],[0.0062052286230027676],[-0.1215042695403099],[0.09244291484355927],[-0.02133909985423088],[-0.0531366690993309],[0.09022924304008484],[-0.07943304628133774],[0.06625145673751831],[-0.32170987129211426],[0.005702245980501175],[-0.05407949537038803],[-0.05390432849526405],[0.03712755814194679],[0.058753643184900284],[0.12311951071023941],[0.12637481093406677],[-0.21048635244369507],[0.1187705397605896],[0.11721622198820114],[-0.18316854536533356],[0.2388528734445572],[0.09407193958759308],[-0.09254637360572815],[-0.11644262820482254],[-0.07337895780801773],[0.02820143848657608],[0.09818834066390991],[0.018893573433160782],[0.08069951087236404],[-0.18112537264823914],[0.10452733188867569],[-0.27367380261421204],[-0.10335234552621841],[0.16564837098121643],[0.07360824197530746],[-0.16480374336242676],[-0.11166684329509735],[-0.009028218686580658],[0.04899998754262924],[0.014929262921214104],[0.10699275881052017],[-0.08201552927494049],[-0.23175279796123505],[-0.04865032434463501],[0.06222429871559143],[-0.06227289140224457],[-0.1995517462491989],[-0.1352391093969345],[-0.08883852511644363],[0.0458201989531517],[0.060442935675382614],[0.11471182107925415],[0.14848148822784424],[-0.02925003133714199],[-0.09982042759656906],[-0.11533275246620178],[-0.2617223858833313],[-0.16850736737251282],[0.013123429380357265],[-0.19968754053115845],[-0.0016627912409603596],[0.12936115264892578],[-0.014520557597279549],[0.10149083286523819],[-0.05634492263197899],[-0.17289122939109802],[-0.3155207633972168],[-0.005687129683792591],[0.11631334573030472],[0.07691582292318344],[-0.0034049435053020716],[0.05830824375152588],[-0.04755787551403046],[0.10454225540161133],[-0.05224470794200897],[-0.03197257220745087],[0.16686098277568817],[-0.10137780010700226],[-0.044255729764699936],[0.006120189093053341],[0.06396549940109253],[-0.042281292378902435],[0.0779494196176529],[-0.029735606163740158],[-0.014928528107702732],[0.021138271316885948],[0.03605455905199051],[-0.05588259547948837],[0.10521077364683151],[-0.05078171566128731],[-0.09725990891456604],[-0.14364944398403168],[-0.13436202704906464]]