[[0.051505498588085175],[-0.1071082353591919],[0.2507879436016083],[-0.09229055792093277],[-0.09983989596366882],[0.23028454184532166],[-0.38163357973098755],[-0.03372667729854584],[0.17914767563343048],[-0.2838512659072876],[0.03299466148018837],[-0.13865375518798828],[-0.10535763949155807],[-0.0757935643196106],[-0.2730436623096466],[-0.2755846083164215],[-0.4113677740097046],[-0.25044912099838257],[-0.3488765358924866],[0.3109372556209564],[-0.17093752324581146],[-0.28541409969329834],[0.0595155730843544],[0.1687113493680954],[-0.01135624572634697],[-0.08911099284887314],[-0.335653156042099],[-0.22117820382118225],[0.10336746275424957],[-0.1763634830713272],[-0.09747212380170822],[0.18424442410469055],[0.07560654729604721],[-0.24203971028327942],[-0.04379955679178238],[-0.28456857800483704],[0.09155234694480896],[-0.05130331590771675],[-0.18135178089141846],[-0.15140721201896667],[-0.3693051040172577],[0.11973027884960175],[-0.16077180206775665],[-0.20688565075397491],[-0.4233816862106323],[0.006670730654150248],[0.022150324657559395],[-0.04429202526807785],[0.09902548044919968],[-0.43935537338256836],[-0.2612617313861847],[0.08644675463438034],[-0.10744721442461014],[-0.1876712441444397],[0.04557259380817413],[-0.15771348774433136],[-0.28271809220314026],[-0.11426986008882523],[-0.0412842258810997],[-0.16880927979946136],[-0.09915560483932495],[-0.17388217151165009],[-0.13779595494270325],[0.0718664601445198]]