[[0.029140641912817955],[0.04545510560274124],[0.2017008662223816],[-0.06968669593334198],[-0.025845572352409363],[-0.16439850628376007],[-0.05657850205898285],[-0.09702271223068237],[-0.06930568069219589],[-0.07665835320949554],[-0.05720154568552971],[-0.10386204719543457],[-0.035375773906707764],[0.03481675684452057],[0.0050726686604321],[0.002676968229934573],[-0.2930713891983032],[-0.11739879101514816],[-0.07905308902263641],[-0.03892097249627113],[-0.141938254237175],[-0.023613613098859787],[-0.015420722775161266],[-0.039535801857709885],[-0.3193210959434509],[0.14035442471504211],[-0.25066620111465454],[0.03910553827881813],[-0.18732565641403198],[0.046701956540346146],[-0.2052582949399948],[-0.06975701451301575],[0.01703503727912903],[-0.25366097688674927],[-0.0631398856639862],[0.116642527282238],[0.01801932603120804],[-0.11958173662424088],[-0.061073992401361465],[-0.0036472552455961704],[-0.12972602248191833],[-0.06891496479511261],[-0.19595730304718018],[-0.06313783675432205],[0.1299172341823578],[-0.13935619592666626],[0.05417775735259056],[-0.12142346799373627],[0.10557548701763153],[-0.04138702526688576],[-0.1538853794336319],[-0.1590818464756012],[-0.007865055464208126],[0.027545681223273277],[-0.08017487823963165],[-0.04565173760056496],[0.09927549958229065],[-0.022922616451978683],[-0.1139855906367302],[-0.04434734582901001],[0.024883566424250603],[0.06902508437633514],[-0.03924105316400528],[0.07571955025196075],[-0.010801643133163452],[-0.0690997987985611],[0.00755330128595233],[-0.09628937393426895],[-0.04977358505129814],[0.018584052100777626],[-0.013350490480661392],[-0.16042546927928925],[0.15695030987262726],[0.07767227292060852],[0.09354767203330994],[0.20229612290859222],[0.060490626841783524],[0.0019091098802164197],[0.05545702576637268],[-0.008622747845947742],[-0.1314963847398758],[-0.054568834602832794],[-0.15625543892383575],[0.06405054777860641],[-0.1669386327266693],[-0.012052861042320728],[-0.06114135682582855],[0.12545636296272278],[-0.0189523883163929],[-0.17655880749225616],[-0.172666534781456],[0.07349872589111328],[0.06965287029743195],[0.16320794820785522],[-0.02206859178841114],[0.028726641088724136],[-0.15256540477275848],[0.08253245055675507],[0.009224159643054008],[-0.027442680671811104],[-0.05146602541208267],[0.15714459121227264],[-0.05763568729162216],[-0.08128558099269867],[-0.012549090199172497],[-0.05722353234887123],[-0.4006527364253998],[0.1309099644422531],[0.08105484396219254],[-0.03408997505903244],[0.05212678015232086],[-0.09937781095504761],[0.13079343736171722],[0.019667740911245346],[0.031785476952791214],[-0.10035714507102966],[0.0024610941763967276],[0.15833045542240143],[-0.0569625198841095],[-0.18073730170726776],[0.01994078792631626],[0.14897888898849487],[0.09428771585226059],[-0.07605680078268051],[0.013742363080382347],[0.11666211485862732],[-0.03115270286798477],[0.09435361623764038],[0.07570052146911621],[-0.02879694104194641],[-0.19700098037719727],[0.16211019456386566],[0.12178175151348114],[-0.19050361216068268],[0.05698222666978836],[-0.032332178205251694],[0.08741207420825958],[-0.035999543964862823],[-0.044230811297893524],[-0.11925312876701355],[0.04902946203947067],[-0.025909803807735443],[0.032214611768722534],[0.13249161839485168],[0.100581094622612],[-0.14380322396755219],[-0.001657151966355741],[-0.14454863965511322],[0.06454818695783615],[-0.12905848026275635],[0.05987456440925598],[-0.01834401674568653],[0.16536089777946472],[-0.1477344036102295],[-0.08124750107526779],[-0.10659057646989822],[-0.039212390780448914],[-0.003254637122154236],[-0.18383264541625977],[0.027538619935512543],[0.04417933523654938],[-0.00714548584073782],[0.06636222451925278],[0.05577981844544411],[-0.27116549015045166],[-0.03780396282672882],[-0.12009723484516144],[0.13252711296081543],[0.15401427447795868],[-0.22980867326259613],[0.05446270853281021],[0.05681554600596428],[-0.004957231692969799],[-0.16488035023212433],[-0.009341299533843994],[-0.0006766360020264983],[0.0711209699511528],[-0.04225488752126694],[0.01359607744961977],[0.08858310431241989],[-0.14169354736804962],[-0.03269908204674721],[-0.03439256176352501],[-0.07641620934009552],[0.14268527925014496],[-0.2739764451980591],[-0.0816309005022049],[-0.19090214371681213],[-0.22314712405204773],[-0.004537202883511782],[-0.19187583029270172],[-0.06860127300024033],[-0.10592658072710037],[0.046943388879299164],[0.05989694222807884],[-0.023191804066300392],[0.0422125868499279],[-0.027756553143262863],[0.01851535588502884],[0.05733124911785126],[-0.1929687112569809],[0.014155316166579723],[-0.10895702242851257],[-0.021660028025507927],[0.00887539517134428],[-0.22689388692378998],[0.056174617260694504],[0.0055670966394245625],[-0.08128878474235535],[-0.040066979825496674],[-0.148029625415802],[0.08337198942899704],[0.0030920333229005337],[-0.09414352476596832],[0.036755189299583435],[-0.07614503800868988],[0.03453117609024048],[0.044839903712272644],[-0.18831786513328552],[0.12231713533401489],[0.04259773716330528],[0.05945664271712303],[0.07720252871513367],[-0.2073160856962204],[-0.006616381462663412],[-0.09907875955104828],[-0.06953514367341995],[0.06237383931875229],[-0.2077316790819168],[0.06810534000396729],[0.06958497315645218],[-0.027248281985521317],[0.019798969849944115],[0.011580740101635456],[-0.036377038806676865],[0.05558331683278084],[-0.005787984002381563],[-0.20807689428329468],[0.07330778241157532],[0.14291273057460785],[0.2025088369846344],[-0.12034996598958969],[0.016558727249503136],[0.0022715625818818808],[0.06107095628976822],[-0.18095281720161438],[-0.16385681927204132],[-0.23071476817131042],[-0.007806519512087107],[-0.023801559582352638],[0.03760503605008125],[-0.07962616533041],[-0.09701921045780182],[-0.14763185381889343],[0.08591059595346451],[-0.019047532230615616]]