[[-0.1717485934495926,-0.08523668348789215,0.1311199814081192,-0.037063997238874435,-0.06545837223529816,0.05291103944182396,-0.03947528824210167,-0.08492694795131683,-0.0036723273806273937,-0.007959657348692417,-0.11873769015073776,-0.052603431046009064,0.05402961000800133,-0.05012698099017143,-0.04283372312784195,-0.05121858790516853,0.11820632964372635,0.10711625963449478,0.1628863364458084,-0.0605180561542511,0.04033626616001129,0.015282034873962402,-0.056863997131586075,0.1468995064496994,-0.3004353940486908,0.15648755431175232,0.09562239795923233,-0.023981109261512756,-0.18475501239299774,0.015357972122728825,-0.051325127482414246,-0.3531506657600403,-0.15649764239788055,-0.1467379778623581,-0.15744368731975555,-0.23848403990268707,-0.15162543952465057,-0.07198511064052582,0.31219032406806946,-0.0940982773900032,0.17881587147712708,0.09238521754741669,0.009004661813378334,-0.004724991973489523,-0.032974954694509506,-0.07007849961519241,-0.02968934178352356,0.004022523760795593,0.23138555884361267,0.33078739047050476,0.059477705508470535,-0.0019886717200279236,-0.147688090801239,-0.060814741998910904,0.10633857548236847,-0.05104921758174896,0.00432477705180645,0.04309352859854698,0.16652217507362366,0.057509828358888626,-0.0718720480799675,-0.07206687331199646,-0.11502165347337723,-0.061251282691955566,-0.18506954610347748,-0.18004930019378662,0.2990579903125763,0.16719308495521545,0.007539421785622835,0.0023079493548721075,0.03633376955986023,-0.1400609314441681,0.01696861907839775,-0.05347234755754471,-0.13129332661628723,0.06132827699184418,-0.05115549638867378,0.18712526559829712,-0.06301988661289215,0.039682190865278244,0.12041381001472473,-0.0019526450196281075,-0.21866297721862793,-0.07846172153949738,-0.014841599389910698,-0.028537031263113022,0.16307353973388672,-0.008209713734686375,0.10826905071735382,0.13105612993240356,0.2847316861152649,0.0714549571275711,-0.05423332750797272,0.02466520480811596,0.02225654572248459,0.03166720271110535,-0.12695424258708954,0.11484558135271072,0.10224039107561111,0.04250789061188698,-0.1779317408800125,0.00043545683729462326,-0.0463060662150383,0.07420319318771362,0.009241167455911636,0.1088920310139656,-0.0020085126161575317,-0.07228467613458633,0.10278856754302979,-0.018460754305124283,0.1691640019416809,0.06676018238067627,-0.164286807179451,0.06675209105014801,-0.1644635796546936,0.01926197111606598,-0.01624024659395218,-0.25996696949005127,-0.23802079260349274,-0.1596718579530716,0.15748155117034912,-0.13086925446987152,-0.1014145091176033,0.06555096805095673,-0.13095544278621674,0.18549595773220062,-0.04144447296857834,-0.06897495687007904,0.07517053931951523,-0.22196203470230103,0.02590177394449711,-0.09953980892896652,-0.25575777888298035,0.0908687636256218,-0.07714095711708069,0.20651474595069885,0.07232479006052017,-0.04663095623254776],[-0.011380215175449848,-0.12990190088748932,-0.06482852250337601,-0.03363552317023277,0.019059577956795692,0.0696709007024765,-0.2602086663246155,-0.11290271580219269,-0.0907135158777237,-0.04347794130444527,0.09403849393129349,0.020305493846535683,-0.2011251002550125,0.08040989935398102,0.03262763097882271,-0.06545216590166092,-0.11094535142183304,0.002515520201995969,-0.12914299964904785,0.028613097965717316,0.14582593739032745,0.2353065311908722,0.12175756692886353,-0.09324485063552856,-0.019835634157061577,-0.008665284141898155,-0.01986989937722683,0.21909880638122559,0.023180922493338585,-0.16874274611473083,0.11577625572681427,0.08891373872756958,-0.028195364400744438,-0.22167718410491943,-0.034194719046354294,0.1452460139989853,0.4342447519302368,0.0407356359064579,0.009065746329724789,-0.010607547126710415,-0.019925450906157494,0.1674710214138031,-0.08111998438835144,-0.014850678853690624,-0.1663728952407837,-0.06176077947020531,0.000039587379433214664,0.2077902853488922,0.034980591386556625,-0.16404584050178528,0.05724557489156723,0.02301054447889328,-0.10977055132389069,-0.030902903527021408,-0.04165095463395119,0.025924723595380783,-0.21979522705078125,0.18857911229133606,-0.293663889169693,0.25454843044281006,0.023769455030560493,-0.08194104582071304,-0.26957517862319946,-0.06085943430662155,-0.12506821751594543,-0.0258469395339489,0.15759731829166412,-0.02572278492152691,-0.07662217319011688,0.06268980354070663,-0.06065221130847931,-0.23979729413986206,-0.020848676562309265,-0.013511311262845993,-0.3016723394393921,0.2778504490852356,0.032051604241132736,-0.03333325311541557,-0.009768430143594742,0.29108181595802307,-0.11384817957878113,0.12098263949155807,0.14938224852085114,0.05991452932357788,0.2815779149532318,0.01711178757250309,-0.03107459656894207,-0.033367764204740524,0.23089618980884552,0.07158941775560379,-0.09304576367139816,0.11560522764921188,0.015138106420636177,-0.12537682056427002,0.18042698502540588,0.056131597608327866,-0.09515712410211563,0.0784158706665039,-0.030606597661972046,-0.0312085822224617,-0.14652767777442932,0.13799726963043213,-0.07656077295541763,0.13564151525497437,0.19000452756881714,0.07007535547018051,-0.14012344181537628,0.060397543013095856,-0.02889905497431755,0.031023547053337097,0.12716835737228394,0.010353156365454197,-0.15629906952381134,-0.005830521695315838,0.10076326131820679,-0.14927031099796295,0.1194295734167099,-0.07898933440446854,-0.043509311974048615,-0.10313153266906738,-0.19676916301250458,0.014236613176763058,-0.08624589443206787,-0.12894783914089203,-0.22247855365276337,-0.17580221593379974,0.022279532626271248,-0.019863484427332878,-0.1563725471496582,0.1661553531885147,0.03626929968595505,-0.02051638811826706,0.18094754219055176,-0.01583617366850376,-0.0748688355088234,-0.06559913605451584,0.21831819415092468,-0.005335628986358643],[0.039750102907419205,-0.07034841924905777,-0.07283740490674973,0.045472048223018646,0.02487809956073761,0.0665333941578865,0.2840118706226349,-0.1125340536236763,-0.10009360313415527,-0.11789608001708984,-0.05962458252906799,-0.00928470678627491,-0.1642187237739563,-0.09666044265031815,-0.03190099820494652,-0.17499111592769623,-0.13911393284797668,0.0803031325340271,-0.0521412193775177,-0.09668377786874771,-0.07955265045166016,-0.1863156110048294,0.08022279292345047,0.24951721727848053,-0.019956529140472412,0.14449821412563324,0.023101806640625,0.1352878361940384,-0.2295578420162201,0.10539999604225159,0.08335018157958984,-0.11313124001026154,-0.1407625824213028,0.04009281098842621,-0.1273195743560791,0.08177457004785538,0.042495764791965485,-0.05430407077074051,0.0921713262796402,-0.10643396526575089,0.08127519488334656,0.17596742510795593,-0.12754811346530914,0.1162666454911232,0.039415691047906876,0.01513456366956234,-0.1149151548743248,0.07514195144176483,-0.04189295321702957,-0.19500790536403656,0.15157611668109894,-0.13376179337501526,-0.005517017096281052,0.036367520689964294,0.03484286367893219,-0.05424513667821884,-0.09020181000232697,-0.0002174478431697935,0.03805943578481674,-0.1444368213415146,-0.01747000776231289,0.007467496674507856,-0.054170265793800354,0.04387153312563896,-0.14592698216438293,-0.2771066129207611,0.1650899350643158,0.11883195489645004,-0.10357047617435455,0.0758712887763977,0.08188630640506744,-0.22194525599479675,-0.1797211766242981,-0.030962955206632614,0.06682659685611725,-0.022792991250753403,-0.013385464437305927,0.08228635787963867,0.012699117884039879,-0.24166002869606018,0.03711602836847305,0.21537159383296967,0.007369063328951597,0.026915667578577995,-0.06672780215740204,0.07282871007919312,-0.07842510938644409,-0.008470750413835049,0.07556822896003723,-0.02011847123503685,0.08150079846382141,-0.10723373293876648,0.02836805023252964,0.010101137682795525,0.05756767466664314,0.14878393709659576,-0.050474509596824646,-0.0868171826004982,-0.07933074980974197,0.07660627365112305,-0.15906165540218353,-0.023131413385272026,-0.0595272034406662,-0.06712323427200317,0.0385710746049881,0.033792778849601746,-0.0700935572385788,-0.14129017293453217,0.04401955381035805,0.006499211769551039,-0.17169468104839325,0.0618291012942791,-0.03506925329566002,0.12946556508541107,-0.05507255718111992,-0.19361603260040283,-0.08634719997644424,-0.27708154916763306,0.1618492603302002,-0.04234768822789192,0.043123770505189896,-0.22804084420204163,-0.16012422740459442,0.2723323702812195,0.011083000339567661,0.17376863956451416,0.013586879707872868,0.05651135742664337,-0.11628390848636627,-0.16332891583442688,0.05529860407114029,-0.0861031785607338,-0.004235318396240473,0.2709095776081085,0.07939501851797104,0.19266077876091003,0.20051030814647675,-0.11283815652132034],[-0.045802611857652664,-0.17809085547924042,-0.01043035089969635,-0.07582986354827881,0.1888488531112671,0.1779850721359253,-0.07470812648534775,-0.0922139585018158,0.014968926087021828,-0.08234161883592606,0.08648242801427841,0.10131566226482391,-0.05796065554022789,0.0067847552709281445,0.021806178614497185,0.23873795568943024,0.01946084573864937,0.024297399446368217,0.000012171007256256416,-0.018690457567572594,-0.0862765908241272,0.05252703279256821,0.030698027461767197,-0.016602270305156708,0.3014008700847626,-0.15317672491073608,0.10639622807502747,-0.21334867179393768,0.06127258017659187,-0.07476412504911423,0.025692487135529518,0.0835433378815651,0.054949481040239334,0.0396464578807354,-0.1955978274345398,0.20198655128479004,-0.009426577016711235,-0.10057374089956284,-0.009267137385904789,-0.0019103782251477242,0.027603475376963615,0.03269972279667854,0.20351900160312653,0.05793938785791397,0.049805279821157455,-0.047324590384960175,-0.0470598004758358,0.18801459670066833,0.1104702353477478,0.12093233317136765,-0.04957384616136551,0.09153755754232407,0.0774948000907898,-0.16652780771255493,0.31318578124046326,-0.03775808587670326,0.15838153660297394,-0.041567642241716385,-0.013528011739253998,0.012192076072096825,0.11612515896558762,-0.1410277783870697,0.06530337780714035,-0.18072271347045898,0.02902230992913246,0.15674206614494324,-0.08889822661876678,-0.014365660957992077,-0.04746926203370094,0.05603421479463577,-0.21090301871299744,-0.03120395913720131,0.10486873239278793,0.11589790135622025,-0.16738317906856537,0.21641921997070312,0.09159409254789352,-0.11950810253620148,-0.11563713848590851,-0.1101941466331482,-0.09782259166240692,-0.2821064591407776,0.059121113270521164,-0.025671491399407387,-0.03316183760762215,-0.02133564092218876,0.0545818991959095,-0.027212530374526978,-0.08204802125692368,-0.03058812953531742,0.04226483032107353,-0.061888545751571655,0.013911283574998379,-0.07986621558666229,-0.014530648477375507,0.0990736186504364,0.014964994974434376,0.1358930617570877,-0.10901689529418945,-0.11323515325784683,0.08795168250799179,0.09187255054712296,0.07978478074073792,0.032791752368211746,-0.058901604264974594,0.005186369642615318,0.08096934854984283,0.14348794519901276,0.05791832506656647,0.08871995657682419,0.10092044621706009,-0.08838497847318649,-0.029399635270237923,0.10652182251214981,0.05856810137629509,0.1575026661157608,-0.04599018394947052,-0.006726888474076986,0.07565130293369293,0.057038988918066025,0.11016268283128738,-0.017460959032177925,0.050022564828395844,-0.01273996103554964,-0.2543245851993561,0.059592124074697495,0.21680502593517303,0.12709906697273254,-0.22792024910449982,0.12132750451564789,0.1509619951248169,0.26998424530029297,-0.052732810378074646,0.006074958480894566,-0.009048753418028355,-0.20153625309467316,0.171495720744133,0.046915579587221146],[0.0016905148513615131,-0.1997581422328949,-0.07459021359682083,0.08243399858474731,0.05258280411362648,0.005967297591269016,-0.04145218804478645,-0.08565951138734818,0.040943123400211334,0.017924724146723747,0.03227211534976959,-0.11489923298358917,0.005345155484974384,-0.14637790620326996,-0.02000698633491993,-0.27701330184936523,0.15436771512031555,-0.11958325654268265,0.04827301576733589,0.04733962193131447,-0.21642343699932098,0.24742767214775085,0.047843389213085175,0.18258313834667206,-0.10513585060834885,0.14675548672676086,0.063556969165802,0.03860205039381981,0.02181672863662243,0.11640636622905731,-0.01872948743402958,-0.23411785066127777,0.02400859445333481,0.17834849655628204,-0.07726631313562393,-0.047908488661050797,-0.088080994784832,0.050348568707704544,0.04871968552470207,0.12815265357494354,-0.1926279067993164,0.0654909759759903,0.04192019999027252,0.08022236078977585,-0.21256931126117706,0.23839494585990906,-0.21920150518417358,-0.1770777851343155,-0.08885667473077774,0.2402026504278183,-0.005932743661105633,-0.19113385677337646,0.12324071675539017,-0.02470267005264759,-0.1342276632785797,-0.008615333586931229,0.03994781896471977,0.017790066078305244,0.06254059821367264,-0.009967097081243992,-0.0746118426322937,-0.07073567807674408,-0.09581064432859421,0.16846059262752533,-0.009934387169778347,-0.0551440604031086,0.18594440817832947,0.04627480357885361,0.04595956951379776,-0.017111867666244507,-0.1501401662826538,-0.001410914701409638,-0.04903266951441765,-0.30308961868286133,0.17086456716060638,-0.18835431337356567,-0.09459006786346436,0.026986578479409218,0.10740451514720917,-0.2132526934146881,-0.18634070456027985,-0.39437562227249146,0.12446275353431702,0.12310870736837387,0.12300235033035278,-0.06946343183517456,0.023139288648962975,0.07784048467874527,0.09054326266050339,0.05231421813368797,-0.1319250613451004,-0.04237204045057297,-0.004209474194794893,0.17396953701972961,-0.016707509756088257,0.1769097000360489,-0.027271805331110954,-0.19156961143016815,-0.22956782579421997,-0.08365936577320099,-0.21042074263095856,-0.12658825516700745,-0.15710337460041046,0.0373019203543663,0.06885461509227753,-0.14073173701763153,0.012808315455913544,-0.03684123978018761,-0.1417047679424286,0.10681433230638504,-0.00011151042417623103,-0.04387808218598366,-0.18324695527553558,-0.19911658763885498,-0.16948556900024414,0.010784615762531757,-0.23836390674114227,-0.17510917782783508,-0.040301717817783356,-0.1306990087032318,0.02562383934855461,0.08010844141244888,-0.08443491905927658,0.2556002140045166,-0.003403982613235712,0.041124507784843445,0.059420108795166016,-0.09078257530927658,-0.15297141671180725,0.0838048905134201,-0.005768484435975552,-0.13703903555870056,0.17865222692489624,0.33295735716819763,-0.06579433381557465,-0.17236115038394928,-0.02501423843204975,0.10851060599088669],[0.22281810641288757,-0.06841690838336945,0.05586926266551018,0.03367844969034195,-0.15175622701644897,0.010267534293234348,-0.09476162493228912,-0.004638869781047106,-0.13001318275928497,0.012397652491927147,0.014225451275706291,-0.07233726233243942,0.06040230393409729,0.13454942405223846,-0.22248519957065582,-0.10916461050510406,-0.06006767600774765,0.10121618211269379,0.10239977389574051,0.2176993191242218,0.048293523490428925,-0.05999714508652687,0.026485133916139603,-0.08453507721424103,-0.09405933320522308,0.0876518189907074,0.07722416520118713,-0.09774035960435867,-0.062082476913928986,-0.05068828910589218,-0.06170554831624031,-0.1990404576063156,-0.1925962269306183,0.1645076423883438,-0.12435867637395859,-0.007164753507822752,0.1170928031206131,0.0837625116109848,0.05963204801082611,0.0635189414024353,0.08857446163892746,0.06754960864782333,-0.03944595530629158,0.14528685808181763,0.009041192010045052,0.06250157952308655,0.16441181302070618,-0.15121133625507355,-0.21564067900180817,-0.03286207839846611,-0.08064761012792587,0.09495812654495239,0.010072674602270126,0.36601749062538147,0.022741371765732765,0.025738492608070374,-0.1601821780204773,-0.017542695626616478,0.06333660334348679,0.0586385652422905,0.13209107518196106,0.10473490506410599,0.004878914915025234,-0.24768103659152985,0.13245125114917755,-0.14797945320606232,0.03339662030339241,0.08521323651075363,-0.09300078451633453,-0.08759500831365585,0.008727025240659714,-0.025585852563381195,-0.013407669961452484,0.10508028417825699,0.18747477233409882,0.03456902876496315,0.10427794605493546,0.10791532695293427,-0.09232757240533829,0.1359068751335144,0.13380105793476105,-0.1278180181980133,-0.24431510269641876,-0.13752798736095428,0.0421578623354435,-0.2146863490343094,0.1759927123785019,0.00760461064055562,-0.1938028186559677,0.07558589428663254,-0.01845814660191536,0.23672568798065186,0.1123366430401802,-0.020045358687639236,-0.2834150195121765,0.19597694277763367,0.0073981983587145805,0.015987100079655647,-0.002338739112019539,0.23886370658874512,-0.05766219645738602,-0.040223732590675354,-0.09848076850175858,0.03155893832445145,-0.013640203513205051,0.1380356252193451,-0.016887683421373367,0.07448791712522507,0.05947881191968918,-0.15386617183685303,-0.2722628712654114,-0.06112910434603691,0.13212312757968903,-0.33071357011795044,0.05529135838150978,-0.2336370050907135,0.18560926616191864,-0.06816358864307404,0.12458909302949905,-0.023626254871487617,-0.1141204908490181,-0.11794333159923553,-0.030748635530471802,-0.02391214855015278,-0.08753649145364761,-0.049383074045181274,-0.12150739133358002,-0.10775849968194962,0.1258445531129837,-0.13841892778873444,0.022329792380332947,-0.005258552264422178,0.10323683172464371,0.14668641984462738,-0.014704568311572075,0.10460560768842697,-0.14456316828727722,0.1102583259344101],[0.04980726167559624,0.12211085855960846,0.11484824120998383,0.12773984670639038,0.05578619986772537,0.16701310873031616,-0.057138096541166306,0.1662980616092682,0.03726910054683685,0.08437120914459229,0.1787615418434143,-0.17743214964866638,0.19901971518993378,-0.00006179593037813902,0.14437270164489746,-0.2001701295375824,-0.1543240249156952,0.10752403736114502,-0.07255955040454865,-0.08917111158370972,0.08006354421377182,-0.06636141240596771,0.020290464162826538,0.06560461968183517,0.11909227073192596,0.09301380813121796,0.07471123337745667,0.029743067920207977,-0.0442134365439415,-0.17438489198684692,-0.054634835571050644,-0.06831064075231552,0.16984064877033234,-0.07195914536714554,-0.10578273981809616,0.0019277390092611313,0.04553983733057976,0.3095090687274933,-0.17075295746326447,-0.16631636023521423,-0.01061015110462904,0.019492508843541145,0.1532016098499298,0.12450549006462097,0.19314421713352203,-0.042157385498285294,-0.03264780715107918,0.1630377620458603,-0.007867258973419666,0.03323567286133766,-0.043758392333984375,0.03785180673003197,0.00972792785614729,0.15621434152126312,-0.04864460974931717,0.19410687685012817,0.14583922922611237,0.03170958533883095,-0.18051236867904663,-0.16435346007347107,0.16952747106552124,-0.07110410183668137,-0.14852362871170044,-0.17725586891174316,-0.13368435204029083,-0.1279134303331375,0.26173338294029236,0.09199994802474976,0.0370292142033577,0.003312676912173629,-0.16169604659080505,-0.1952013522386551,0.10975904762744904,-0.14569449424743652,-0.16280116140842438,-0.024554036557674408,0.05126948654651642,0.053499240428209305,-0.12132599204778671,-0.07689093798398972,0.046571165323257446,-0.0891721323132515,0.06788665801286697,0.02634928561747074,-0.06444455683231354,0.04066099226474762,-0.06869965046644211,-0.09613986313343048,-0.010045947507023811,-0.044037412852048874,0.14607936143875122,-0.03196403384208679,0.11832135170698166,0.049503717571496964,-0.03528985008597374,0.18476620316505432,0.03485890477895737,0.1302892416715622,-0.14569871127605438,0.08906915783882141,0.012631673365831375,-0.1364641934633255,0.20198650658130646,-0.10476691275835037,0.18919000029563904,-0.11926458030939102,-0.009010490961372852,-0.17176595330238342,0.22519473731517792,0.03209768980741501,-0.11012107133865356,-0.02800888568162918,-0.0071952021680772305,0.029812753200531006,0.012648941949009895,0.1311190128326416,-0.1681712567806244,-0.19364237785339355,0.09143277257680893,0.07536841928958893,0.10516136139631271,-0.2745257616043091,0.0219283364713192,-0.2780231833457947,-0.0376012958586216,-0.07015553116798401,0.08073795586824417,0.1458607316017151,0.09705043584108353,-0.19516150653362274,0.07802283763885498,-0.0063303508795797825,-0.15045875310897827,0.13920369744300842,-0.19150803983211517,-0.08340677618980408,-0.11903892457485199,-0.15170052647590637],[0.2291044443845749,0.05449791997671127,-0.03818372264504433,0.3019801080226898,0.03672567754983902,0.1855529546737671,-0.01585262641310692,0.02035875990986824,-0.018778016790747643,0.07503613084554672,0.015408438630402088,-0.22042247653007507,0.037700437009334564,-0.19188542664051056,-0.07693139463663101,-0.0020989596378058195,-0.1611861139535904,0.1277078241109848,-0.011734935455024242,-0.02347973734140396,0.010780289769172668,0.17894408106803894,0.03183688595890999,0.020233958959579468,0.040865011513233185,-0.07753240317106247,0.09008122980594635,0.16357266902923584,-0.09825500100851059,0.09663862735033035,0.07821889221668243,-0.04568378999829292,-0.04421994090080261,-0.03530748933553696,-0.06867697834968567,-0.07325705140829086,-0.16104008257389069,0.21180932223796844,-0.07479340583086014,0.05405145511031151,-0.09609957784414291,0.18134428560733795,-0.06084698066115379,-0.03072572872042656,0.19973208010196686,0.039852406829595566,0.13542358577251434,-0.007479356601834297,0.16206768155097961,0.0070592183619737625,0.13370221853256226,-0.18663287162780762,0.19946564733982086,0.08497948199510574,-0.014966299757361412,0.07236731797456741,0.047111138701438904,-0.14346253871917725,0.006935130339115858,-0.0830920860171318,0.06334514170885086,0.02834884449839592,-0.010919027961790562,0.026908185333013535,0.0962623879313469,0.04619941860437393,-0.07871405780315399,-0.03278413787484169,-0.0003004266764037311,0.19086989760398865,-0.22447267174720764,-0.04773741215467453,0.022567160427570343,0.18796256184577942,-0.16656693816184998,-0.020393574610352516,-0.2473946213722229,0.16722144186496735,-0.07656792551279068,0.05615545064210892,-0.10707329213619232,0.10431654751300812,0.1910734921693802,0.03629768267273903,0.09454019367694855,-0.11220038682222366,0.16854041814804077,0.1747874915599823,-0.05510367080569267,-0.056568726897239685,0.011049157939851284,-0.21070146560668945,-0.013161529786884785,0.013286134228110313,-0.02742035500705242,-0.029187578707933426,0.07518453150987625,0.08557439595460892,-0.11508310586214066,0.19302400946617126,-0.3293406367301941,0.263949453830719,-0.03299850970506668,0.07085134834051132,0.37431105971336365,0.018360059708356857,0.0378260463476181,0.0798526406288147,0.13317592442035675,0.11154720932245255,0.12777741253376007,0.11410562694072723,0.11130419373512268,-0.026485443115234375,-0.08253124356269836,-0.004213734529912472,0.05172106623649597,0.043756719678640366,-0.20705869793891907,0.03920337185263634,-0.14940086007118225,0.18385028839111328,-0.019429707899689674,-0.04358462616801262,0.21718730032444,0.06769969314336777,0.011100362986326218,-0.13309434056282043,0.1865379810333252,-0.024090973660349846,0.1067189946770668,0.20330265164375305,-0.023407498374581337,-0.14302732050418854,-0.02841007336974144,0.06634252518415451,0.08752592653036118,-0.0008436465868726373],[0.12913750112056732,-0.17488063871860504,-0.08942392468452454,-0.05534547194838524,-0.019681913778185844,0.09381977468729019,0.18967081606388092,0.06874486804008484,0.03613223508000374,-0.12365435063838959,-0.07164657115936279,-0.1732393354177475,-0.0408065989613533,-0.037368640303611755,-0.0667838379740715,0.0053968289867043495,0.035798538476228714,-0.17149953544139862,0.0032484775874763727,0.0064346748404204845,-0.15370115637779236,-0.046569984406232834,-0.015334143303334713,-0.017154673114418983,0.13340479135513306,-0.09127165377140045,0.10811963677406311,-0.024880511686205864,0.012838250026106834,0.14412453770637512,-0.029714707285165787,-0.06426775455474854,0.10156738013029099,-0.04780576005578041,-0.15477092564105988,0.08276793360710144,-0.20309001207351685,0.09224098920822144,0.07105077058076859,0.05491553246974945,-0.2015625536441803,-0.028499675914645195,0.19373288750648499,0.3004360795021057,-0.1499796062707901,-0.15705852210521698,-0.17190521955490112,-0.01574852131307125,-0.00001942794733622577,0.07471615076065063,-0.028135158121585846,-0.14007218182086945,-0.022077707573771477,-0.05210253968834877,0.06693542748689651,0.05927779898047447,0.01735375076532364,-0.012381024658679962,-0.1112997755408287,-0.03323281556367874,-0.0437438078224659,0.2073948085308075,0.12141438573598862,-0.09656867384910583,0.251846045255661,-0.016892392188310623,-0.014906710013747215,-0.08427747339010239,0.2529711425304413,0.045541148632764816,-0.029865719377994537,-0.4081335961818695,0.07072471082210541,-0.028881769627332687,-0.011229431256651878,-0.07701607793569565,0.037749238312244415,0.1263783723115921,0.08373435586690903,0.14759406447410583,-0.0014219357399269938,-0.13601192831993103,0.06403201818466187,0.07838763296604156,-0.059264641255140305,-0.061488740146160126,-0.16962262988090515,0.21945317089557648,0.07855834066867828,-0.0394437313079834,0.029191192239522934,-0.005876609589904547,0.0657314732670784,0.24418778717517853,0.1153668761253357,-0.017693370580673218,-0.014556479640305042,-0.021485233679413795,-0.018758656457066536,-0.1568986177444458,0.07992381602525711,0.10705600678920746,-0.03616072237491608,0.11029298603534698,0.11635798960924149,-0.013359622098505497,0.1269317865371704,0.021654345095157623,0.0019372819224372506,0.012528139166533947,0.14359351992607117,0.1855468451976776,0.08717653900384903,0.041403546929359436,-0.12257137149572372,0.12212780863046646,-0.009572695940732956,0.08619849383831024,-0.201191708445549,-0.010414260439574718,0.014449161477386951,-0.13796700537204742,-0.07523009926080704,0.10920965671539307,0.15869688987731934,-0.10606785863637924,-0.0961354523897171,0.1261533945798874,0.10701868683099747,-0.0669526532292366,0.1993163377046585,-0.02863059565424919,0.10780897736549377,-0.00731770321726799,0.1734841763973236,-0.16899369657039642,0.0003608122933655977,0.1330775022506714],[-0.15087082982063293,-0.18924100697040558,-0.1328693926334381,0.2725565731525421,0.051315926015377045,0.09387174248695374,-0.16684728860855103,0.1176384687423706,-0.04401274770498276,-0.1379726380109787,-0.20225821435451508,0.10767985880374908,0.10306443274021149,0.02497517690062523,0.12377370893955231,0.046305492520332336,0.008397607132792473,0.10380551218986511,0.05442238599061966,0.0583769790828228,0.039159029722213745,-0.23424369096755981,0.20341123640537262,0.21575336158275604,-0.014479742385447025,0.03163062408566475,0.10171186178922653,0.12382907420396805,-0.20808953046798706,0.4346143901348114,0.056985821574926376,-0.015713395550847054,0.05602564290165901,-0.12391093373298645,0.17616933584213257,0.141270250082016,-0.20516586303710938,0.09710285067558289,-0.18833070993423462,0.024238435551524162,0.029934905469417572,-0.069243423640728,0.07492554187774658,0.08733691275119781,0.13491837680339813,-0.05933039262890816,0.14415334165096283,-0.27498507499694824,-0.06418482959270477,-0.0188676156103611,-0.2328365594148636,-0.17540879547595978,0.15446411073207855,-0.0834621787071228,-0.06795075535774231,0.13723260164260864,-0.1185125783085823,0.15457841753959656,0.06791574507951736,-0.15526412427425385,-0.2179449200630188,0.026316167786717415,-0.06347951292991638,-0.04403827711939812,0.08168096840381622,0.06595742702484131,-0.1807486116886139,0.1751469075679779,0.11382156610488892,0.18220427632331848,-0.14731040596961975,-0.23468303680419922,-0.26263678073883057,-0.3608250916004181,0.15716809034347534,-0.013665436767041683,-0.06345727294683456,-0.023874621838331223,-0.061287254095077515,-0.061420880258083344,0.042965617030858994,-0.19285161793231964,-0.10314857959747314,0.13643893599510193,0.05460415780544281,-0.06767871975898743,-0.11711379140615463,-0.06521985679864883,-0.043867483735084534,-0.14231517910957336,-0.20622897148132324,-0.18124131858348846,-0.4591849148273468,0.1583734005689621,0.03341282904148102,0.03346184641122818,-0.04835989326238632,-0.07372717559337616,-0.29628875851631165,-0.04264364391565323,-0.12470858544111252,0.08361832052469254,-0.05601542443037033,-0.06078815087676048,-0.041799396276474,0.05054707080125809,0.09730223566293716,-0.12517015635967255,-0.0162188783288002,0.0015310223679989576,0.1615781933069229,-0.18249544501304626,-0.06527402997016907,-0.008452804759144783,-0.06335438042879105,-0.06688414514064789,-0.08957502990961075,0.12041666358709335,-0.15334419906139374,-0.03859039396047592,-0.10878021270036697,-0.03901893272995949,0.002555740997195244,0.14097943902015686,0.06734129041433334,-0.08229763805866241,-0.11353830993175507,0.09050409495830536,0.0673520416021347,0.10102076828479767,-0.10892188549041748,-0.05050705000758171,0.21253259479999542,0.12629137933254242,0.09766965359449387,-0.0851673111319542,-0.12413836270570755,-0.09706563502550125],[-0.026756195351481438,-0.39581966400146484,-0.1086897924542427,0.1853332221508026,-0.015491649508476257,-0.17656919360160828,-0.036894094198942184,0.07307172566652298,0.02030961960554123,-0.08263211697340012,0.15068230032920837,0.06997812539339066,0.27328792214393616,0.10029973089694977,-0.030543643981218338,0.08394375443458557,0.06043499708175659,0.11917752027511597,-0.10115749388933182,0.0743698999285698,0.03808426111936569,-0.07491862028837204,-0.0882224291563034,0.18516680598258972,-0.06378097087144852,0.026000596582889557,-0.014163538813591003,-0.15254200994968414,0.18907642364501953,0.27531540393829346,0.035254474729299545,0.06705921143293381,0.1838008314371109,-0.009514857083559036,0.06071197986602783,0.05654403939843178,-0.018482819199562073,0.14643733203411102,0.0869402289390564,-0.1263142228126526,-0.03639370948076248,0.06183100864291191,0.06888699531555176,0.04369807615876198,0.08643469214439392,-0.19465915858745575,-0.23312726616859436,-0.1855771392583847,-0.033804137259721756,0.059532903134822845,-0.04018068313598633,0.1567135453224182,0.08681164681911469,0.05999677628278732,0.023273911327123642,0.07850123941898346,-0.00872701033949852,-0.08381913602352142,-0.07117103785276413,0.0625220388174057,-0.12403552979230881,-0.12217159569263458,-0.17295068502426147,0.19408389925956726,-0.17751842737197876,-0.20677590370178223,-0.11109655350446701,-0.07271900773048401,-0.2662821114063263,-0.1130967065691948,-0.00979993399232626,0.045695073902606964,-0.11238827556371689,-0.09003690630197525,-0.07904671132564545,0.012386364862322807,0.29034292697906494,0.037364061921834946,0.16208046674728394,-0.031118523329496384,0.21954013407230377,-0.0006101505714468658,-0.014105899259448051,-0.09840817749500275,-0.04945267736911774,0.11117789149284363,0.19236421585083008,-0.038299065083265305,0.14389896392822266,-0.01530640572309494,-0.18292632699012756,0.14050066471099854,-0.03100532665848732,-0.1268775761127472,0.15186971426010132,0.01887444034218788,-0.274808794260025,0.07799249142408371,0.0806540995836258,-0.1009506955742836,0.06450780481100082,-0.05253361910581589,-0.17078156769275665,-0.18727430701255798,-0.1333341896533966,-0.0733240619301796,-0.15419216454029083,0.1557445079088211,-0.1534479558467865,0.045127592980861664,-0.1359153836965561,-0.08122950792312622,-0.0940394327044487,0.07334863394498825,-0.06315529346466064,0.20034557580947876,-0.34332001209259033,0.08132177591323853,-0.2973156273365021,-0.11770859360694885,-0.042391519993543625,0.04384702071547508,-0.10130684077739716,-0.07936640083789825,-0.03903447464108467,-0.08743187040090561,0.05118809640407562,0.00968259945511818,-0.10678601264953613,-0.20369097590446472,-0.25683924555778503,0.005045069847255945,-0.11036328226327896,-0.037040047347545624,-0.09317214041948318,0.07982063293457031,-0.16349004209041595,0.07214117050170898],[-0.08839031308889389,0.031227754428982735,-0.0019129147985950112,0.17789116501808167,-0.04673397168517113,0.2330905944108963,-0.10852421820163727,-0.021868502721190453,0.1354040801525116,-0.002410693559795618,0.04134581983089447,-0.07492337375879288,0.050843942910432816,-0.014805657789111137,-0.09020227938890457,-0.06709617376327515,-0.012281985022127628,0.04166070371866226,-0.1263991892337799,0.03689350560307503,0.06420768797397614,-0.10515246540307999,0.12266891449689865,-0.33581170439720154,-0.06568395346403122,0.09392797946929932,0.038719575852155685,0.09254015237092972,-0.004016123246401548,0.1027478501200676,-0.20360077917575836,0.06402312219142914,0.004483113065361977,-0.09785215556621552,-0.16156941652297974,0.09376878291368484,-0.07498475164175034,0.20075051486492157,0.012070155702531338,-0.1918400377035141,-0.1360367387533188,-0.0002929904730990529,-0.018325477838516235,-0.020463773980736732,-0.014828396961092949,0.10149061679840088,0.15748584270477295,-0.0009243250824511051,0.05424050614237785,-0.26820459961891174,-0.16870692372322083,0.1153632327914238,0.029806217178702354,0.0734412670135498,-0.19613631069660187,-0.018885990604758263,-0.038994524627923965,-0.053783293813467026,0.18696759641170502,-0.05871559679508209,-0.004559993278235197,0.17950892448425293,0.07998693734407425,-0.1190275102853775,0.10700265318155289,-0.019069476053118706,0.1408262550830841,0.048135194927453995,0.05228012427687645,-0.06034984067082405,0.087120920419693,-0.2617805004119873,0.28313934803009033,0.3135048449039459,-0.03871259093284607,-0.10064329952001572,-0.02285662852227688,0.015867073088884354,-0.11060675233602524,0.2627573311328888,-0.06501200795173645,0.01549922488629818,0.011034570634365082,-0.12093003839254379,-0.04510989412665367,0.10228423029184341,0.0018357762601226568,-0.013615756295621395,0.14278295636177063,-0.154496967792511,0.16432306170463562,-0.05498065426945686,0.16754914820194244,-0.026497354730963707,0.07559066265821457,-0.10470684617757797,0.04916702210903168,-0.020147142931818962,-0.3009360134601593,0.1294899582862854,0.02958197332918644,-0.002966255182400346,-0.02592725120484829,0.22290918231010437,0.06547156721353531,-0.028288617730140686,-0.07667170464992523,0.20019595324993134,0.018027104437351227,-0.07604727894067764,0.050157755613327026,-0.16097913682460785,0.08594786375761032,0.03102397359907627,-0.03232620283961296,-0.05363863706588745,0.22880661487579346,0.2512036859989166,-0.14386147260665894,0.05013040080666542,-0.14085429906845093,0.06736308336257935,0.015032903291285038,0.07755532115697861,-0.035528700798749924,-0.1304510533809662,0.13432276248931885,-0.14129595458507538,-0.21893472969532013,-0.1377389281988144,-0.11468558758497238,0.07262849807739258,0.16980580985546112,-0.25123146176338196,0.14646831154823303,-0.02110298164188862,0.09403377026319504,0.1376614272594452],[-0.046473704278469086,-0.18439921736717224,0.06276372820138931,0.06121859326958656,-0.11686452478170395,-0.17883814871311188,0.09653647989034653,-0.10828946530818939,-0.10642854869365692,0.11493951827287674,-0.022461678832769394,0.005644887685775757,0.2980581820011139,-0.009036486968398094,-0.035362906754016876,-0.11254990845918655,-0.26289814710617065,0.10683310031890869,0.00553336413577199,0.31072357296943665,0.0040775989182293415,0.10808799415826797,0.00856681726872921,0.10807006061077118,0.0920550674200058,0.0508362278342247,-0.01706656441092491,0.14188027381896973,0.14681696891784668,0.1096523180603981,0.04772956296801567,0.1860078126192093,0.009398366324603558,-0.031478337943553925,0.14875483512878418,-0.009931430220603943,-0.10223666578531265,-0.07670418173074722,0.22981983423233032,0.20654138922691345,-0.030943738296628,0.11151707172393799,0.14515092968940735,0.06379306316375732,0.040753792971372604,0.1405426412820816,0.026159828528761864,-0.016066016629338264,-0.0397123247385025,0.11253181844949722,-0.022712094709277153,-0.041480716317892075,-0.10372850298881531,0.09183699637651443,-0.03981366753578186,0.1380828320980072,-0.0006831123027950525,-0.04520324245095253,-0.06563316285610199,0.045315034687519073,0.13326525688171387,0.011868725530803204,-0.00047823917702771723,-0.04825539141893387,0.2695677876472473,-0.06112932786345482,0.2406904399394989,0.05243876203894615,0.011543890461325645,0.10765311866998672,0.22288455069065094,-0.023251047357916832,-0.18331320583820343,0.0024237821344286203,0.03494711592793465,-0.11113590002059937,0.1482452154159546,-0.06701050698757172,-0.05218013748526573,-0.07611723989248276,-0.1311199963092804,0.008172460831701756,0.14770619571208954,0.03840261325240135,-0.02288721315562725,0.015240170061588287,-0.11518867313861847,-0.19922499358654022,-0.007484640926122665,0.18480834364891052,0.08408831804990768,-0.08560865372419357,-0.028879353776574135,-0.07957151532173157,-0.15283748507499695,-0.056210119277238846,0.011076928116381168,-0.0285792276263237,0.19864100217819214,-0.11212629824876785,0.030167557299137115,0.0120507488027215,0.047829754650592804,-0.26594144105911255,-0.02528398483991623,-0.03662210702896118,-0.07277724891901016,-0.10534954071044922,0.20575621724128723,0.2441396564245224,0.014087765477597713,0.2760790288448334,-0.16933433711528778,-0.04179592803120613,-0.08975018560886383,-0.05895151570439339,0.08470437675714493,-0.10369104146957397,-0.07082748413085938,0.23972102999687195,-0.10964401066303253,0.12563472986221313,0.06412041187286377,-0.06148897111415863,0.01616543158888817,-0.16120296716690063,-0.13812682032585144,-0.07589749246835709,-0.0785972997546196,0.23789896070957184,-0.01874440349638462,-0.017218654975295067,-0.014881600625813007,-0.016770968213677406,0.12933850288391113,0.06979673355817795,0.03633406013250351,-0.06172449514269829],[0.07950162142515182,-0.08263958245515823,-0.015188705176115036,-0.0802726149559021,-0.1251368373632431,0.16535021364688873,-0.09930272400379181,-0.07389499247074127,-0.14129479229450226,0.014729485847055912,0.02579280361533165,0.010173676535487175,0.1771979182958603,-0.09834051877260208,0.1400376707315445,0.044006284326314926,-0.15971414744853973,0.010601961053907871,-0.0964060127735138,0.00140014395583421,-0.051544371992349625,-0.02346998080611229,0.055732063949108124,-0.029286518692970276,-0.04895767569541931,0.045460306107997894,-0.00710251135751605,0.08159201592206955,-0.16374431550502777,0.09434761106967926,0.005550784058868885,-0.14481276273727417,0.11942652612924576,0.32442036271095276,0.13875000178813934,0.08037468791007996,0.07362846285104752,0.2372657060623169,-0.059780657291412354,-0.2458494007587433,0.13588784635066986,0.2093791514635086,0.22189556062221527,-0.020616741850972176,0.12146667391061783,0.08741937577724457,-0.0274293664842844,-0.04216524213552475,0.027310514822602272,0.04916897043585777,-0.049453020095825195,-0.13110144436359406,-0.16597984731197357,0.20208658277988434,0.051639679819345474,0.2463805228471756,-0.029882417991757393,-0.05348978936672211,0.3788039982318878,0.22010470926761627,0.02401537075638771,0.23022575676441193,0.18925757706165314,0.08029379695653915,-0.11894091218709946,-0.16916699707508087,-0.24383604526519775,0.01188703440129757,0.13067695498466492,0.25769054889678955,-0.14707155525684357,0.14881537854671478,0.19771234691143036,0.018388262018561363,0.1422920525074005,0.0983816534280777,-0.08826173096895218,0.018997754901647568,-0.05255398154258728,0.00862293690443039,0.1864868700504303,-0.05184806138277054,0.12334871292114258,-0.05930432304739952,0.010597632266581059,-0.0282116811722517,0.05382309854030609,-0.015465286560356617,0.06792508810758591,-0.11362560838460922,0.20051367580890656,-0.19075165688991547,-0.026222292333841324,0.007581751327961683,-0.033211927860975266,0.07707039266824722,0.10913029313087463,-0.11042452603578568,0.08180687576532364,-0.05515754967927933,0.06814396381378174,0.2592666447162628,0.00852816179394722,-0.02156759984791279,0.04850459471344948,0.11271364986896515,0.14523780345916748,0.13951151072978973,-0.11955375224351883,0.0028741545975208282,-0.17603670060634613,-0.019534509629011154,0.1387655884027481,-0.13111931085586548,-0.08953159302473068,0.12173420190811157,-0.01878214254975319,0.030492063611745834,0.09513896703720093,0.12591266632080078,-0.05315466225147247,-0.03264755383133888,0.0672556608915329,-0.374826580286026,0.14090554416179657,-0.13945066928863525,-0.1074371486902237,0.22223585844039917,0.03954817354679108,0.16794994473457336,0.051805317401885986,-0.0032464079558849335,-0.040919795632362366,0.28958266973495483,-0.18350151181221008,0.07340356707572937,-0.15233869850635529,-0.10472175478935242],[0.1658562272787094,-0.3340006172657013,-0.14809292554855347,0.06945730000734329,-0.09354858100414276,0.08968904614448547,0.005615349393337965,0.13658761978149414,0.32981181144714355,0.07899811118841171,-0.32512056827545166,0.15632233023643494,-0.003982166759669781,-0.05908545106649399,-0.06187886744737625,-0.05051962286233902,-0.059078916907310486,-0.08651919662952423,-0.07408050447702408,0.02387513406574726,-0.030658429488539696,-0.08727508038282394,0.1956983357667923,-0.004214880056679249,-0.03262342885136604,0.2594761848449707,-0.12183315306901932,0.10334864258766174,-0.06602073460817337,0.006801299285143614,0.08408834785223007,0.07110507041215897,0.1302502155303955,0.16751231253147125,-0.23105598986148834,0.06679994612932205,0.0020486984867602587,-0.04333232715725899,0.024772340431809425,0.05106918513774872,-0.04705068841576576,0.037769563496112823,0.10257314145565033,-0.05470401048660278,-0.016743777319788933,0.0669691264629364,-0.0455857552587986,0.06982122361660004,0.17742864787578583,0.15119528770446777,-0.12182740122079849,0.01131560280919075,-0.1261645406484604,0.2604273557662964,0.10428588837385178,-0.3093640208244324,-0.0008099283440969884,0.018089892342686653,-0.06962301582098007,-0.09115641564130783,0.09597485512495041,0.12614361941814423,-0.08015000820159912,-0.23895014822483063,0.03733089566230774,-0.011916144751012325,0.029402580112218857,0.0013472113059833646,-0.059566255658864975,0.11417533457279205,-0.09225205332040787,-0.10734470188617706,-0.017594192177057266,-0.029793906956911087,0.13060736656188965,0.09140855073928833,-0.1319335699081421,0.27417588233947754,-0.04357947036623955,-0.19385023415088654,-0.021377241238951683,0.025489304214715958,-0.20766523480415344,0.11447998136281967,0.0036725816316902637,-0.24568326771259308,0.16111698746681213,0.0217474065721035,0.1084478422999382,0.0080343596637249,0.011655490845441818,0.04491161182522774,0.2190883308649063,0.037183474749326706,0.03894729167222977,0.2612302601337433,0.039400145411491394,0.04986950010061264,-0.23637712001800537,-0.10163720697164536,0.02665226347744465,0.007552458439022303,-0.11329391598701477,0.093283511698246,0.032566800713539124,-0.11235124617815018,-0.024874718859791756,0.06951430439949036,0.09202930331230164,-0.09663131088018417,0.05365452170372009,0.05139265954494476,0.226869598031044,-0.13840170204639435,0.06783360242843628,-0.05508381500840187,-0.007491173688322306,-0.21758334338665009,0.10183577984571457,0.044043514877557755,-0.008750861510634422,-0.22788161039352417,-0.024802464991807938,-0.29888707399368286,0.22705884277820587,0.08364792168140411,-0.15329423546791077,0.1414191871881485,0.17449837923049927,-0.08795372396707535,0.15521728992462158,-0.11560888588428497,0.011832994408905506,-0.15802133083343506,0.004101939499378204,0.02894437126815319,-0.16668136417865753,-0.01686752587556839],[-0.10881319642066956,0.3232641816139221,0.16778849065303802,0.044899579137563705,0.05322558060288429,-0.2091478854417801,0.1707886904478073,0.013977150432765484,-0.00017301370098721236,-0.12067709118127823,-0.016354866325855255,-0.15402258932590485,-0.2723044753074646,-0.24883496761322021,-0.2014860212802887,-0.15271919965744019,-0.012573819607496262,0.1040121465921402,-0.05779730901122093,-0.0011982029536738992,-0.045012522488832474,-0.07779644429683685,-0.061761051416397095,-0.02963845059275627,-0.1922527253627777,-0.05029851570725441,-0.13450568914413452,0.06645828485488892,-0.12665975093841553,0.04431583732366562,0.1790701448917389,0.10515427589416504,0.034374773502349854,-0.09728522598743439,-0.10509520769119263,0.03262265399098396,0.009182190522551537,0.2843446731567383,0.02822148986160755,0.14069132506847382,-0.2946206033229828,0.18872080743312836,-0.050203580409288406,-0.15521395206451416,-0.04705042764544487,0.18870329856872559,-0.09280509501695633,0.3184436857700348,0.010187000967562199,0.03453272953629494,0.01290751900523901,0.2271154522895813,0.01974637247622013,0.07456840574741364,0.0981673002243042,-0.08012019097805023,0.08307990431785583,-0.13451476395130157,-0.12220772355794907,-0.12116486579179764,-0.33833399415016174,-0.18185925483703613,0.012361493892967701,0.0100410720333457,-0.016904111951589584,0.0203265193849802,0.1172017827630043,0.02607031725347042,-0.07089262455701828,-0.0773390680551529,-0.03643646091222763,-0.10702142119407654,0.07623078674077988,-0.07923445105552673,0.1223609670996666,-0.0786345899105072,0.11323288083076477,-0.025916628539562225,0.15857011079788208,0.2120036482810974,0.07761000841856003,0.10276845097541809,-0.05332506448030472,0.01531947124749422,-0.026270480826497078,0.18344642221927643,0.0992773249745369,-0.24040202796459198,-0.022937560454010963,-0.06537574529647827,-0.14430445432662964,0.07751939445734024,-0.1587076038122177,0.07653257250785828,0.1358419805765152,-0.052078403532505035,0.028605611994862556,-0.07109274715185165,0.07562389224767685,0.17415103316307068,-0.3139183521270752,-0.03576475754380226,-0.03741239756345749,0.1433124840259552,-0.015883760526776314,0.2043851763010025,0.1774168163537979,0.02408074215054512,0.10981647670269012,0.16416597366333008,-0.040439099073410034,-0.13271035254001617,0.030418964102864265,0.09865771979093552,-0.09240566194057465,-0.13116534054279327,0.0243059229105711,0.20520012080669403,0.040281735360622406,-0.07949995249509811,-0.06980954110622406,-0.20134757459163666,-0.05427315831184387,0.21850307285785675,0.06797287613153458,0.00033617319422774017,-0.03531616926193237,-0.24756009876728058,0.09021952748298645,0.06620229780673981,0.0327172726392746,-0.15213902294635773,-0.15381857752799988,0.13648848235607147,0.03893674910068512,0.10076022148132324,0.3138156533241272,-0.012610046193003654],[0.0006375847151502967,0.1394154131412506,-0.08649889379739761,0.28665271401405334,-0.023782549425959587,0.03560427203774452,-0.026611363515257835,0.011406251229345798,0.04188193008303642,-0.1402653157711029,-0.09565083682537079,0.10143904387950897,-0.07362522929906845,0.19174252450466156,0.03903103247284889,-0.06378825008869171,0.14834967255592346,0.03126136586070061,0.028337307274341583,-0.06177534535527229,0.009910359978675842,-0.11122141778469086,0.03699256852269173,0.003678317181766033,-0.12096405029296875,-0.2441815733909607,0.14640511572360992,-0.004493311978876591,-0.1527070850133896,-0.18735365569591522,-0.11983132362365723,0.04785344377160072,0.10096478462219238,0.025681018829345703,-0.18553052842617035,-0.055571530014276505,0.2686828672885895,0.13878270983695984,-0.14787505567073822,0.1457497924566269,0.14082853496074677,-0.3102472722530365,-0.16554248332977295,0.0696035847067833,-0.059898316860198975,0.10151930153369904,0.3188227415084839,0.15311680734157562,0.1440192013978958,0.10911422967910767,-0.05774157866835594,0.044383514672517776,0.15482854843139648,-0.0064039332792162895,-0.010718103498220444,-0.16187025606632233,-0.10963957011699677,0.19612924754619598,-0.10768246650695801,-0.108172208070755,0.029106833040714264,-0.03498712182044983,0.013133264146745205,-0.030027154833078384,-0.10909485816955566,0.019353242591023445,-0.06573642045259476,0.03635227307677269,-0.22653663158416748,0.03475051373243332,0.13008131086826324,-0.14221465587615967,-0.011358964256942272,-0.1552628129720688,0.1637275516986847,-0.0954737439751625,-0.013871858827769756,0.1509913057088852,-0.08373088389635086,-0.17111748456954956,0.036350447684526443,-0.0446896106004715,0.06863821297883987,0.014182895421981812,-0.10053516924381256,-0.08308064192533493,0.0020163648296147585,-0.031172459945082664,0.007964219897985458,-0.030312778428196907,-0.10829605907201767,-0.1774756908416748,0.05315043777227402,0.03512708470225334,-0.08590643107891083,0.07029896974563599,-0.16281519830226898,0.044259682297706604,0.13140170276165009,-0.05177488923072815,-0.04091033712029457,-0.34973782300949097,0.030265675857663155,-0.043633222579956055,-0.28969207406044006,0.06135595217347145,0.20010097324848175,0.03374476358294487,0.05853590369224548,-0.08047214150428772,-0.09640123695135117,-0.09492439031600952,0.14922499656677246,0.07213879376649857,0.09660503268241882,-0.1277705430984497,0.056995220482349396,-0.06432198733091354,0.24761097133159637,0.014093506149947643,-0.03141224384307861,-0.20527958869934082,0.14947353303432465,0.022760285064578056,0.050147321075201035,0.18632064759731293,-0.08501424640417099,-0.025224078446626663,-0.11748772859573364,0.004917682148516178,-0.01719965599477291,-0.23548395931720734,0.06631594896316528,0.09284505248069763,-0.1623651534318924,-0.09223490953445435,-0.00883074663579464,0.01995842158794403],[-0.213583841919899,0.19988611340522766,-0.10010357201099396,0.11766396462917328,-0.24490173161029816,0.13779175281524658,-0.0011919070966541767,0.018077749758958817,-0.0093900291249156,-0.07445484399795532,0.12743350863456726,-0.005280680954456329,0.18386778235435486,0.05488220229744911,0.22891893982887268,-0.1816442906856537,-0.06769140064716339,0.09838536381721497,-0.001099132583476603,0.09571938961744308,-0.0647735595703125,-0.027288690209388733,0.18188603222370148,0.09453665465116501,0.08075081557035446,0.14833074808120728,-0.010394642129540443,0.058955252170562744,0.02019433118402958,0.1957363337278366,0.015730537474155426,0.12599599361419678,-0.061581987887620926,-0.06088588759303093,-0.0023009884171187878,-0.12220986187458038,0.1438615471124649,-0.05870366841554642,0.0288689024746418,0.06975909322500229,-0.03962088003754616,0.039037637412548065,0.0366857647895813,0.2942371964454651,-0.0317741259932518,-0.08839423209428787,-0.09258215129375458,-0.1369149088859558,-0.05694231018424034,0.05815349519252777,-0.08697042614221573,-0.03032415546476841,-0.038328979164361954,-0.16977916657924652,0.1555832475423813,0.07473210990428925,0.06834632903337479,0.0003765513247344643,0.1725284904241562,0.032783038914203644,-0.10622205585241318,0.10775308310985565,0.13367164134979248,0.13337694108486176,0.020007772371172905,0.07286540418863297,0.04201846197247505,-0.05128223076462746,-0.16149790585041046,0.1533323973417282,0.0842476561665535,0.028752654790878296,-0.17222920060157776,0.019680671393871307,0.03604564443230629,0.17970238626003265,-0.08700387924909592,-0.015666337683796883,-0.1395299881696701,0.06629946082830429,0.2078760862350464,-0.2294744849205017,-0.03880903124809265,0.07861629873514175,0.09605041891336441,0.16445448994636536,-0.00788955483585596,0.04570498690009117,0.30310574173927307,0.14093324542045593,-0.17215657234191895,0.012973741628229618,-0.2086457461118698,-0.02654452994465828,-0.07979238778352737,0.007429368328303099,0.1368095874786377,0.03157106414437294,0.01899479702115059,-0.03345220535993576,0.09460313618183136,0.18003509938716888,-0.07693824917078018,-0.04454578086733818,-0.0737672820687294,0.11725012958049774,0.143293097615242,-0.08196087181568146,0.08498400449752808,-0.030058719217777252,-0.031472332775592804,-0.1523965448141098,0.12320741266012192,0.11087051033973694,-0.06837233155965805,0.040941525250673294,0.05117053911089897,0.08772215992212296,-0.03936731815338135,0.016633013263344765,0.0978606566786766,-0.16347689926624298,0.018167518079280853,0.030231643468141556,0.04544031247496605,-0.007285905070602894,0.07150060683488846,0.19802019000053406,-0.06180010363459587,0.0601111575961113,-0.08668096363544464,0.07927475869655609,0.04570617526769638,0.2619604170322418,-0.0850047916173935,0.12215220183134079,-0.1330014020204544,-0.036278679966926575],[-0.19613337516784668,-0.12373162060976028,-0.056524842977523804,0.08943680673837662,0.22497403621673584,-0.017194265499711037,0.054538141936063766,-0.13291098177433014,0.016389448195695877,0.19711525738239288,-0.08375433087348938,0.017397120594978333,-0.03518372401595116,-0.18901337683200836,0.24597053229808807,0.18482668697834015,-0.02976849116384983,0.19515429437160492,-0.07961845397949219,-0.056141726672649384,-0.008390880189836025,0.0816117376089096,0.05015146732330322,0.15599194169044495,0.08975988626480103,-0.06715650111436844,0.007128765806555748,0.1927044838666916,-0.05489803105592728,-0.2810443341732025,-0.08326371759176254,-0.04407207667827606,-0.012658932246267796,0.20177419483661652,-0.16867651045322418,0.01149546355009079,0.1971113532781601,-0.003144117072224617,-0.084563247859478,0.030221164226531982,0.03841841220855713,-0.22352778911590576,-0.14979438483715057,0.11715120077133179,-0.12873834371566772,-0.15988527238368988,0.1971442997455597,-0.10363449901342392,-0.06698709726333618,-0.1086292713880539,-0.03231514245271683,-0.05898473784327507,-0.1497565060853958,-0.18217870593070984,0.26990100741386414,0.3201315999031067,-0.1675889641046524,-0.1050896942615509,0.2435234785079956,-0.022134676575660706,0.06457574665546417,-0.0967167541384697,0.11387660354375839,0.22146500647068024,0.07800910621881485,-0.12414098531007767,-0.03125238046050072,0.010979762300848961,0.07611050456762314,-0.018319977447390556,-0.06014581024646759,0.10086959600448608,-0.023692067712545395,-0.04105522111058235,0.02654982917010784,-0.07761779427528381,-0.20917998254299164,-0.2262277603149414,0.03817141428589821,-0.04107627645134926,-0.20151978731155396,0.021098872646689415,-0.001705904956907034,-0.15372124314308167,-0.05920902267098427,-0.24380254745483398,0.002323754597455263,0.10868155211210251,0.2147124856710434,0.18594637513160706,0.18691547214984894,-0.01880207285284996,0.08293741941452026,0.05238413065671921,0.1682640016078949,-0.16144080460071564,0.08161365985870361,0.01295733917504549,0.09922751784324646,0.06472793221473694,-0.08939602226018906,-0.144525408744812,0.05932976305484772,0.15847620368003845,0.3078373372554779,-0.1641978919506073,0.21181781589984894,-0.17727167904376984,0.19102953374385834,0.15734365582466125,-0.07187362760305405,0.05360763520002365,0.008564108051359653,-0.19477982819080353,0.054522838443517685,0.03626337647438049,-0.014375758357346058,0.04595159366726875,-0.1821749359369278,-0.2247103452682495,0.2378220111131668,-0.0445057675242424,-0.0934458002448082,-0.02080512046813965,-0.10939063131809235,0.041520632803440094,0.15226754546165466,-0.037874963134527206,0.015720510855317116,0.11948396265506744,0.14570395648479462,0.19957596063613892,0.07976826280355453,0.027511127293109894,-0.08201247453689575,0.06190260872244835,-0.06315656006336212,-0.014369078911840916],[0.12456988543272018,0.20798857510089874,0.03287863731384277,-0.0729331374168396,0.024773886427283287,-0.09002318978309631,0.05748016759753227,-0.11256896704435349,0.27175843715667725,-0.006639489904046059,0.035050999373197556,-0.12063253670930862,0.023937245830893517,-0.0635075643658638,0.08497709780931473,-0.20109453797340393,-0.06504315882921219,0.05405949801206589,0.15077178180217743,-0.017958063632249832,-0.08904038369655609,0.03715255483984947,0.1493222415447235,0.17873255908489227,0.0694466307759285,0.09366191923618317,-0.04484780505299568,-0.03110717609524727,0.27379098534584045,-0.10444507747888565,0.01137616392225027,-0.14989393949508667,0.05352034419775009,0.11299319565296173,0.002099898410961032,-0.06563237309455872,0.23723886907100677,0.3193081021308899,0.27837836742401123,-0.07165069133043289,0.03796205297112465,0.03441476449370384,-0.156984344124794,0.023518305271863937,-0.16828757524490356,-0.08724597841501236,-0.05152038857340813,-0.21639126539230347,0.018811827525496483,0.09581160545349121,-0.09377245604991913,-0.13236431777477264,-0.01110693160444498,-0.2044057995080948,0.006400581914931536,-0.0575309656560421,0.1080518364906311,0.13417622447013855,-0.06298580765724182,-0.16224117577075958,0.034149933606386185,0.1349996030330658,0.09357407689094543,0.2170308381319046,-0.08792829513549805,0.029177270829677582,-0.36384451389312744,0.1378762423992157,-0.07421869784593582,-0.02295657806098461,0.02641085907816887,0.07933180034160614,0.17279942333698273,0.052756939083337784,0.09599044919013977,0.10526421666145325,0.14005495607852936,0.07203058898448944,0.019801676273345947,-0.19840626418590546,0.011696342378854752,-0.15270346403121948,-0.011907639913260937,0.19048595428466797,0.01309605035930872,0.03870426490902901,0.12811531126499176,-0.027467358857393265,0.21678782999515533,-0.02900770865380764,-0.1341874897480011,0.06636452674865723,-0.3366677761077881,-0.08602630347013474,-0.027694061398506165,0.2532205581665039,0.2797975540161133,0.03254856914281845,-0.17751544713974,0.06999485939741135,-0.11326341331005096,-0.08760865032672882,-0.21353037655353546,0.22431322932243347,0.07472731173038483,-0.022548671811819077,0.01610369049012661,0.00735810212790966,0.22677260637283325,0.18171468377113342,-0.012158184312283993,0.05521223694086075,-0.02790326066315174,0.018461186438798904,0.05139396712183952,0.06015424802899361,0.06273823231458664,0.11234661936759949,-0.08722028881311417,-0.03143281489610672,-0.15649305284023285,-0.35864126682281494,0.15875254571437836,-0.009762429632246494,0.1278364062309265,-0.051343780010938644,0.0018398044630885124,-0.3059869408607483,0.012805354781448841,-0.0164167620241642,-0.09186029434204102,0.1817675083875656,0.019724925979971886,0.026057450100779533,-0.017577826976776123,-0.06345421820878983,0.13762490451335907,0.06080935522913933],[0.084175243973732,-0.08644278347492218,0.022408442571759224,0.32352155447006226,-0.18903875350952148,0.009363500401377678,0.018764059990644455,-0.005554921459406614,0.15677672624588013,0.07449427247047424,0.05152105167508125,0.13435901701450348,0.11149593442678452,-0.00903827603906393,-0.0412491038441658,-0.13965930044651031,-0.05563700571656227,0.17050816118717194,-0.005556866992264986,0.13157513737678528,-0.08315063267946243,-0.03443267196416855,-0.09747582674026489,-0.037672340869903564,-0.14586853981018066,0.08109873533248901,-0.1412733793258667,0.03504885733127594,0.30597877502441406,-0.019208276644349098,0.12629561126232147,-0.0708373486995697,-0.039632707834243774,-0.07934305816888809,-0.06109300255775452,-0.1424814760684967,-0.043451882898807526,0.019416596740484238,-0.009318724274635315,0.0060411435551941395,-0.11885646730661392,0.06425770372152328,-0.06817097216844559,0.10981815308332443,0.19130268692970276,-0.2318873405456543,-0.25986000895500183,-0.1786794364452362,0.10716906934976578,0.1777067929506302,-0.009754737839102745,0.03578217327594757,-0.050915807485580444,0.01734759286046028,0.2169470191001892,-0.010070467367768288,0.012076646089553833,0.021913236007094383,0.132746621966362,-0.026358116418123245,0.14652828872203827,0.17604295909404755,-0.08851827681064606,-0.05413728207349777,-0.16235114634037018,-0.2464722990989685,0.19281865656375885,0.0646049976348877,0.04046431556344032,0.13577769696712494,0.1067446619272232,0.02768903411924839,0.09754687547683716,0.20328062772750854,-0.07120729237794876,0.15689332783222198,-0.11115490645170212,-0.059992339462041855,-0.0036542571615427732,-0.15758107602596283,-0.12470317631959915,-0.16168256103992462,0.2693289816379547,0.01882348582148552,-0.0813390389084816,0.008670320734381676,0.2025943249464035,-0.13442246615886688,0.07365141063928604,-0.09826821833848953,0.05634423717856407,-0.15997064113616943,0.036278776824474335,0.017546910792589188,-0.0216717217117548,-0.08026015013456345,-0.0025742261204868555,-0.09821663051843643,-0.02126166969537735,0.08191680908203125,-0.17460548877716064,0.02366950921714306,-0.03531515970826149,-0.023807382211089134,0.14677730202674866,0.05599876865744591,0.08058352023363113,-0.1571909636259079,0.1176949217915535,0.2151634246110916,0.2127639800310135,0.04599863663315773,-0.1954096406698227,-0.08805963397026062,0.04805345460772514,0.14873865246772766,0.0036905002780258656,0.0851791501045227,-0.10890960693359375,-0.08967410773038864,-0.20117919147014618,-0.024938037618994713,-0.08525026589632034,-0.26308107376098633,-0.08100049197673798,-0.01296050101518631,-0.056218549609184265,0.0870978981256485,-0.01774333417415619,-0.0463717021048069,-0.25222912430763245,0.035683758556842804,0.1446349322795868,0.0005129473865963519,-0.10724057257175446,-0.0657811388373375,-0.18303699791431427,0.10905124247074127],[0.11694473773241043,-0.33005306124687195,-0.11934595555067062,0.03444317728281021,-0.09774042665958405,0.12024156749248505,0.006240004673600197,-0.1169242411851883,0.048082221299409866,-0.2555149793624878,-0.07078412175178528,0.042579904198646545,-0.005782549735158682,0.04684882611036301,0.03123537078499794,-0.08612612634897232,-0.180359348654747,0.03997155651450157,-0.04380149394273758,0.22442243993282318,-0.05045851320028305,-0.01451647374778986,0.06514059752225876,0.00706069590523839,-0.0008330779965035617,-0.0032915242481976748,-0.10531651973724365,-0.11208099126815796,0.0921051874756813,0.12163762748241425,0.012783036567270756,0.014817899093031883,-0.02185143157839775,-0.09126545488834381,0.05203789100050926,-0.029072120785713196,-0.028077170252799988,-0.018685027956962585,-0.055893633514642715,-0.12604278326034546,-0.05510975793004036,0.05748104676604271,-0.1742965281009674,0.08127240091562271,0.07831299304962158,0.0908876284956932,-0.05809204652905464,-0.07506822049617767,-0.07091912627220154,0.029202228412032127,-0.1387324184179306,-0.05440507456660271,0.05770951509475708,-0.12904192507266998,0.1170147955417633,0.02875751443207264,0.1560971438884735,0.10134180635213852,0.0337277390062809,0.09192344546318054,-0.045942217111587524,0.30395156145095825,-0.11740167438983917,0.07985128462314606,0.06397305428981781,0.03155490756034851,-0.06821170449256897,0.09044017642736435,0.0480070635676384,-0.004106764215976,0.08813697844743729,0.07770716398954391,0.036334823817014694,0.12941819429397583,0.1225864440202713,-0.06776531785726547,0.04086773470044136,0.21046876907348633,0.0783376395702362,0.10304319858551025,-0.06738100945949554,-0.011837934143841267,0.18753761053085327,-0.19141818583011627,-0.06005280092358589,-0.02043759636580944,0.059205204248428345,0.1568174809217453,-0.02496015653014183,-0.022665278986096382,-0.1801319271326065,-0.1655683070421219,0.11121635884046555,-0.12269815057516098,-0.1460024118423462,0.047936152666807175,0.026039062067866325,0.019410032778978348,-0.14955419301986694,0.3355526328086853,0.0037270269822329283,0.1223374754190445,-0.16449306905269623,0.058219511061906815,0.0032742873299866915,-0.05538181960582733,-0.09051329642534256,0.005148252472281456,-0.15075668692588806,0.30533117055892944,-0.1394634246826172,-0.08954363316297531,-0.12845128774642944,-0.011412196792662144,0.15662360191345215,-0.05771810561418533,0.09199009090662003,-0.12302062660455704,-0.004404543898999691,-0.08694189041852951,0.1189112588763237,0.10697142034769058,-0.09258054941892624,0.18016108870506287,0.178767129778862,-0.019999228417873383,0.02321239560842514,0.027336902916431427,-0.10653960704803467,0.029115812852978706,0.04501955956220627,-0.11904303729534149,0.09205397963523865,-0.20722061395645142,0.04211987555027008,-0.06667482107877731,0.05790843814611435,0.25378355383872986],[0.009237985126674175,-0.02656535990536213,-0.05593225359916687,0.08962243050336838,-0.14894753694534302,-0.07126536220312119,0.13764916360378265,-0.004511657170951366,0.057438261806964874,-0.013358479365706444,0.12272629141807556,0.1288803070783615,-0.09796232730150223,-0.14475645124912262,0.3844858407974243,-0.1293042153120041,-0.17095313966274261,0.18427862226963043,-0.038633670657873154,0.11441751569509506,-0.18141207098960876,-0.06855102628469467,0.028347451239824295,-0.05204648897051811,-0.13479596376419067,-0.03143354505300522,-0.07599855214357376,-0.06152275577187538,0.01428126823157072,-0.09821730107069016,0.05282348766922951,-0.16450275480747223,0.060153596103191376,0.1003558486700058,0.13365095853805542,-0.01364808063954115,-0.12294143438339233,0.19315744936466217,-0.13440610468387604,-0.07728464901447296,-0.04005417600274086,0.1460030972957611,0.06312055140733719,0.12231790274381638,-0.07610753178596497,-0.05428628250956535,0.05163656547665596,0.005400740075856447,0.05503205955028534,0.04097982123494148,-0.029870441183447838,-0.011042371392250061,0.22098128497600555,-0.005984155926853418,-0.005772230215370655,0.0656956359744072,-0.08861609548330307,-0.21062560379505157,0.15679313242435455,0.023134931921958923,0.1442178636789322,0.18338976800441742,-0.26866015791893005,-0.02737552858889103,0.12449085712432861,0.21911442279815674,-0.2988390326499939,-0.0030899334233254194,0.09191621094942093,0.07815923541784286,0.10620430111885071,0.0809301882982254,-0.009412295185029507,0.07914996147155762,0.2472231388092041,0.03770279139280319,-0.11820833384990692,0.23659449815750122,-0.19712042808532715,-0.09372683614492416,0.10392631590366364,-0.019940737634897232,0.08412045240402222,-0.1351608783006668,0.10367871820926666,0.0022841147147119045,0.17913830280303955,0.10886713117361069,-0.015603594481945038,-0.0027686452958732843,0.064240001142025,0.05584690719842911,0.06198146194219589,0.1275428682565689,0.13817305862903595,0.18316875398159027,0.22713816165924072,0.007210223004221916,0.06660393625497818,-0.035134389996528625,0.018018150702118874,0.18503978848457336,0.11976052820682526,-0.12465909123420715,-0.07441405951976776,-0.007538661360740662,-0.05064473673701286,-0.062953881919384,0.15330465137958527,-0.02079424448311329,0.02751518040895462,0.06127706170082092,-0.05367622524499893,-0.13241855800151825,0.08416744321584702,0.3336823582649231,0.014989661052823067,0.02060297131538391,-0.018601655960083008,-0.01598680391907692,-0.21039694547653198,0.11847001314163208,-0.016505835577845573,0.04054873809218407,0.015713408589363098,0.005005620885640383,-0.11312095075845718,-0.08024691790342331,0.13694198429584503,-0.04123344644904137,-0.056544605642557144,-0.18570110201835632,0.01525858324021101,0.08860461413860321,-0.1334000527858734,0.09609106183052063,-0.05428609997034073,-0.011058365926146507],[-0.0266354251652956,-0.08105896413326263,0.21622347831726074,-0.10850705951452255,-0.12820520997047424,0.043237797915935516,0.05664350464940071,0.111640565097332,-0.1181439459323883,-0.09604138880968094,-0.025396179407835007,0.19786469638347626,-0.027175085619091988,-0.09099123626947403,-0.04383966326713562,0.24337124824523926,-0.0018329753074795008,0.0287743229418993,0.07910434901714325,0.2582389712333679,-0.06323622167110443,-0.08345551043748856,-0.052443332970142365,0.1950320601463318,0.21069474518299103,0.13644659519195557,0.057590335607528687,-0.02538706175982952,-0.05938778817653656,-0.14496470987796783,0.12585823237895966,0.20766209065914154,-0.13753581047058105,-0.11871007829904556,0.04146670177578926,-0.032076042145490646,0.11374054849147797,0.11517605930566788,0.14501678943634033,0.0672403946518898,-0.11616238206624985,0.07510863989591599,-0.012701177969574928,0.08447174727916718,-0.19413571059703827,-0.031878042966127396,-0.07712186127901077,0.1542794108390808,0.1339808702468872,-0.1482313871383667,-0.023769520223140717,0.08114299178123474,-0.09069820493459702,-0.06473515927791595,0.07308363169431686,0.012325773015618324,-0.012546490877866745,-0.05937296152114868,0.0499027818441391,-0.10706433653831482,0.07207539677619934,0.1501968801021576,-0.13869911432266235,-0.009853227995336056,-0.05072564631700516,0.20433121919631958,-0.09333177655935287,0.08398523926734924,0.028241589665412903,-0.03725329786539078,0.13143393397331238,-0.009147762320935726,0.15334536135196686,0.11579477787017822,0.022877318784594536,0.08598051220178604,-0.14036937057971954,0.20212167501449585,-0.2068144530057907,-0.012216100469231606,-0.2305683195590973,-0.05643494799733162,-0.1486200988292694,0.29123857617378235,0.11028748750686646,0.014747286215424538,0.05354250222444534,-0.10778941959142685,-0.06655598431825638,-0.2420717030763626,0.044623807072639465,-0.03861124441027641,-0.08964341133832932,0.042934536933898926,0.0361277274787426,-0.19947251677513123,-0.03845642879605293,-0.1813565492630005,0.09875848144292831,0.10209663212299347,-0.10532587021589279,-0.09475483745336533,-0.1537914127111435,-0.02484983019530773,-0.06223437562584877,0.07220257818698883,-0.024796731770038605,-0.11484745144844055,0.10783951729536057,0.15883778035640717,0.021644342690706253,-0.1549028605222702,0.14055076241493225,-0.15126584470272064,0.011897389777004719,0.14859385788440704,-0.06603769958019257,0.11547566205263138,0.03941021487116814,0.18953560292720795,-0.20147603750228882,-0.11800362914800644,0.03991304337978363,0.02105909399688244,0.09437702596187592,0.07797984033823013,0.16978447139263153,-0.02921108901500702,-0.04078683629631996,0.019776569679379463,-0.219016894698143,0.15366490185260773,0.0922311395406723,0.010380344465374947,-0.036746349185705185,-0.05621510371565819,-0.0866551473736763,-0.018799617886543274],[0.30411648750305176,0.055942926555871964,0.11426742374897003,-0.06422694027423859,0.08976449817419052,0.0883006826043129,0.061097919940948486,-0.003364032367244363,-0.05455019697546959,0.0626290887594223,-0.1809307336807251,-0.02411145158112049,0.09523236006498337,0.17266061902046204,0.05552390590310097,-0.05593417212367058,0.04477778822183609,-0.009000197984278202,0.005838689859956503,-0.1252642273902893,-0.06374155730009079,-0.14884424209594727,0.0873955488204956,-0.00884794071316719,0.04319285228848457,-0.16970616579055786,-0.23951543867588043,-0.07357737421989441,-0.056020017713308334,0.08253685384988785,-0.10597938299179077,-0.031194673851132393,-0.23669515550136566,-0.29729002714157104,0.11726099997758865,0.12153438478708267,-0.14975382387638092,0.10527846962213516,-0.12274570018053055,-0.04153893142938614,0.044074997305870056,0.07267148047685623,-0.13366785645484924,-0.1513289362192154,0.10033389180898666,0.03707676753401756,0.04518155753612518,0.0044796280562877655,0.06447251886129379,0.02017190121114254,0.18234944343566895,-0.14000509679317474,-0.003998775966465473,0.08521385490894318,0.06272055953741074,0.01901525817811489,-0.03337693586945534,-0.15169304609298706,0.11394008249044418,-0.01479994598776102,0.005182376131415367,0.0627986490726471,-0.07646555453538895,0.026043418794870377,-0.09944993257522583,0.049907468259334564,0.0073597668670117855,-0.09024996310472488,-0.11150050163269043,-0.0049810209311544895,-0.14756129682064056,0.038573943078517914,-0.04103613644838333,-0.16290231049060822,-0.10445832461118698,0.038283571600914,-0.18312974274158478,-0.10705465823411942,0.11241760849952698,-0.09357904642820358,-0.02094057947397232,0.0012877826811745763,-0.057855024933815,0.1947263777256012,-0.027898946776986122,0.0037718946114182472,-0.06670930236577988,0.10622121393680573,0.2705988883972168,-0.33212971687316895,-0.10939942300319672,0.0017267224611714482,-0.11783763766288757,0.06445799022912979,-0.11027577519416809,0.03886649012565613,0.0408032052218914,-0.04758833721280098,0.09349159896373749,0.14471277594566345,-0.08110618591308594,0.13999953866004944,-0.013619954697787762,-0.01658790372312069,0.03033725917339325,-0.12126335501670837,-0.0559631772339344,-0.024224191904067993,-0.0069525218568742275,-0.07318973541259766,-0.22578079998493195,0.21864159405231476,0.17031167447566986,0.08363703638315201,-0.12046357989311218,-0.025830190628767014,-0.03261852264404297,0.11995900422334671,0.1289021372795105,-0.11994288861751556,0.1535177379846573,0.026336941868066788,-0.009963965974748135,0.07973076403141022,0.0599115826189518,-0.26530587673187256,0.006031037773936987,-0.19381999969482422,-0.0027942443266510963,0.04130938649177551,0.10978171229362488,0.009004647843539715,-0.05684448406100273,-0.2259802669286728,-0.038175858557224274,-0.08831092715263367,-0.023247424513101578,-0.21331848204135895],[0.12449933588504791,-0.027246322482824326,-0.06709472090005875,0.03538226708769798,-0.03272189572453499,-0.025718826800584793,-0.1560036540031433,0.07246493548154831,0.011730692349374294,0.0195954367518425,-0.2425357550382614,-0.17212574183940887,0.09273276478052139,-0.20604942739009857,-0.04891160875558853,-0.08273886889219284,-0.15094925463199615,0.06472156941890717,0.07057283818721771,0.02879234403371811,-0.07211800664663315,0.051080480217933655,-0.256106972694397,-0.34423595666885376,-0.04201405495405197,0.08746347576379776,0.03350172936916351,-0.21493132412433624,-0.12224666774272919,0.023534873500466347,0.10139408707618713,0.10405351221561432,0.05291992425918579,0.11756448447704315,-0.13505731523036957,0.04359286278486252,0.037154629826545715,-0.02594071440398693,-0.02918245457112789,-0.15261724591255188,0.16189619898796082,0.028431380167603493,-0.08577688038349152,-0.028212126344442368,-0.1587342470884323,0.1085401251912117,-0.18350830674171448,0.2516247034072876,-0.04771973937749863,-0.2787531316280365,0.006422167178243399,0.10242089629173279,-0.07433512061834335,-0.17610222101211548,0.003819388337433338,0.07702554017305374,-0.008951237425208092,0.23214343190193176,0.1870993971824646,0.26825276017189026,-0.035523269325494766,0.09817374497652054,-0.1370590478181839,0.11505594849586487,0.07289442420005798,-0.22922968864440918,-0.12052176892757416,-0.18235763907432556,-0.03557419404387474,0.1400851607322693,0.030548715963959694,-0.01778092235326767,-0.000557264662347734,-0.003072159830480814,-0.07603029906749725,0.05332788825035095,0.08400432020425797,0.3460308015346527,-0.08767301589250565,0.0291287824511528,-0.1435633897781372,0.10473356395959854,0.03186936676502228,-0.11434470117092133,-0.10899882018566132,0.07737375795841217,-0.06920559704303741,-0.11410537362098694,-0.14054067432880402,0.06049315631389618,0.005251746159046888,0.23475047945976257,0.04192177206277847,0.11057202517986298,0.029763443395495415,-0.055911026895046234,-0.02330102026462555,-0.05199272185564041,-0.15411096811294556,0.09823507815599442,-0.1547010838985443,-0.04238563030958176,-0.13162635266780853,0.15680275857448578,0.006223827134817839,-0.11787925660610199,-0.11728093028068542,-0.006942174397408962,-0.3063901662826538,0.06712713837623596,-0.012080032378435135,0.012719964608550072,0.031344007700681686,0.010428449138998985,0.013123649172484875,0.04493523761630058,0.10533128678798676,0.019773762673139572,0.2818259000778198,0.09035270661115646,-0.030521715059876442,-0.12776130437850952,0.13883237540721893,-0.07148906588554382,0.2598276138305664,-0.11636831611394882,0.07340388745069504,-0.09859881550073624,-0.0992378368973732,-0.1299307644367218,0.03101337142288685,-0.26306596398353577,0.15364603698253632,-0.23379038274288177,-0.06081404164433479,0.0006166760576888919,0.3260251581668854,-0.09562762826681137],[-0.11370909959077835,-0.0412103533744812,0.06173901632428169,0.17809493839740753,0.08316460996866226,-0.1217503473162651,-0.10074527561664581,-0.026233093813061714,0.08230471611022949,-0.08086027950048447,0.056036774069070816,0.00013557700731325895,0.0845954641699791,0.04707171767950058,0.1605588048696518,-0.022185420617461205,0.022042661905288696,0.045118533074855804,-0.14628927409648895,-0.10543867945671082,0.04837862029671669,-0.011117560788989067,-0.18961668014526367,0.045331232249736786,-0.15047341585159302,0.050573501735925674,0.16931188106536865,-0.10550983995199203,0.20066344738006592,-0.16071872413158417,0.07624424993991852,0.04642936959862709,-0.07080604135990143,-0.1511792540550232,-0.08454041928052902,-0.1770518720149994,0.06530533730983734,0.07254916429519653,-0.13377709686756134,-0.0653793215751648,0.15491046011447906,-0.08870266377925873,-0.11783748120069504,0.04349591210484505,0.031226102262735367,0.027419311925768852,-0.002426715334877372,0.1747811883687973,-0.2551768720149994,-0.052692584693431854,0.24733991920948029,-0.19109410047531128,-0.0727422758936882,-0.02870972640812397,0.011784137226641178,0.016005003824830055,-0.10022337734699249,-0.11755362153053284,0.002182817319408059,-0.07536642253398895,0.2574480175971985,0.009098691865801811,-0.08514485508203506,-0.05535611882805824,-0.11087240278720856,-0.13701806962490082,0.24795393645763397,-0.04917474463582039,0.0158503707498312,-0.16265679895877838,-0.024554025381803513,0.061595212668180466,-0.23332403600215912,-0.14380300045013428,-0.2671380043029785,0.17199669778347015,0.05619215592741966,0.02899002470076084,-0.15864910185337067,-0.09813389927148819,0.10291795432567596,0.11438364535570145,0.06851265579462051,0.036297641694545746,0.020987533032894135,-0.08191261440515518,-0.038622189313173294,-0.24003587663173676,-0.13627217710018158,-0.10791649669408798,-0.1310226321220398,-0.03256135806441307,0.01673083007335663,-0.06710992753505707,0.03330639749765396,-0.0038219806738197803,0.14269432425498962,-0.08860620856285095,0.2298337072134018,-0.06515586376190186,-0.09900086373090744,-0.034036945551633835,-0.06021635979413986,-0.16033825278282166,0.04640626162290573,0.05539568513631821,0.007691040635108948,0.11361461877822876,-0.09135060012340546,0.08211884647607803,0.30706095695495605,0.000010574873158475384,-0.01481510978192091,-0.008959013037383556,0.031580209732055664,0.02944212779402733,-0.18811878561973572,-0.0009254319593310356,0.1178945004940033,0.04054073244333267,-0.09617424756288528,-0.05365162342786789,0.018923526629805565,-0.2986446022987366,0.01859782077372074,0.08434050530195236,0.10676870495080948,0.11455164849758148,-0.03865337744355202,-0.11095170676708221,-0.11320574581623077,-0.013021651655435562,-0.08707600086927414,-0.03567686304450035,-0.15021885931491852,-0.02584315650165081,-0.05964776873588562,0.14840880036354065],[-0.17423823475837708,-0.10886145383119583,-0.12054324895143509,0.09367202967405319,-0.11109425127506256,0.18298625946044922,-0.0947953313589096,-0.12782350182533264,-0.20333386957645416,-0.21076276898384094,0.2255915254354477,-0.08958355337381363,-0.06975534558296204,-0.12667237222194672,0.12141796946525574,-0.13181351125240326,-0.11476679146289825,-0.0725613459944725,-0.18017280101776123,0.025572797283530235,-0.09437642991542816,0.003422445384785533,-0.08002299070358276,-0.09767588973045349,-0.012668712995946407,0.058728430420160294,-0.16149045526981354,-0.04759538918733597,-0.010183965787291527,0.29804727435112,0.18952934443950653,0.12374913692474365,-0.06642481684684753,0.16824163496494293,-0.003771907649934292,0.05132843554019928,-0.07418034225702286,-0.11449120193719864,0.030819961801171303,0.12199793010950089,0.03784559667110443,0.04544346407055855,-0.07973547279834747,0.167921245098114,-0.0011458431836217642,0.1897088885307312,-0.32118865847587585,0.029675206169486046,0.1297578364610672,0.016209501773118973,0.037210773676633835,0.2066599279642105,-0.12575681507587433,-0.08264725655317307,0.13603807985782623,0.07576509565114975,0.0037182283122092485,-0.19944259524345398,0.06365430355072021,-0.007656616624444723,0.11136842519044876,-0.1302696019411087,-0.0003431024379096925,0.12941278517246246,-0.19424045085906982,0.22933775186538696,0.16213500499725342,-0.15322616696357727,0.09558701515197754,0.07531179487705231,-0.09655963629484177,0.09334533661603928,0.13494616746902466,-0.010369841009378433,-0.07881061732769012,0.11172889173030853,-0.11226724833250046,0.08809775114059448,0.19184468686580658,0.04515797644853592,-0.06214779615402222,0.03149615600705147,-0.1822511851787567,0.056919895112514496,0.13445228338241577,0.07171089202165604,-0.05389491468667984,-0.05830361321568489,0.08190254122018814,-0.16251906752586365,-0.22380034625530243,-0.08242587745189667,0.002448034705594182,0.08554752916097641,0.17180141806602478,0.05479402840137482,0.2834925055503845,-0.04210299625992775,-0.13173040747642517,0.09848974645137787,0.018008636310696602,-0.005592476110905409,-0.2769428789615631,0.18687862157821655,0.05770645663142204,0.20280735194683075,0.06090110167860985,0.07819581031799316,0.023961711674928665,0.04085025563836098,0.02527620829641819,0.09619922190904617,0.0535968653857708,-0.0942603349685669,-0.13888885080814362,-0.049353279173374176,-0.18186864256858826,-0.22840748727321625,-0.005217788740992546,0.22404985129833221,0.0643819272518158,0.03264675289392471,0.13952717185020447,-0.1296507716178894,0.04146227985620499,-0.0426260307431221,-0.19373610615730286,0.0744696632027626,0.07773945480585098,-0.1337279975414276,0.03557950258255005,-0.10912702232599258,-0.14439986646175385,-0.10867549479007721,0.06569377332925797,0.0689907893538475,-0.19288219511508942,0.0005952734500169754],[0.1212436631321907,0.025999976322054863,-0.1314532458782196,-0.13280127942562103,0.0014144000597298145,0.19902439415454865,0.16472554206848145,0.12899506092071533,-0.07861396670341492,0.10830865055322647,0.02700665593147278,0.025232717394828796,0.0435442253947258,-0.06218617409467697,-0.03394129127264023,-0.02105609141290188,0.043853431940078735,-0.022791199386119843,-0.18861635029315948,-0.22325105965137482,0.08528005331754684,0.053950704634189606,-0.047831859439611435,-0.1578136384487152,-0.12134051322937012,-0.00007216241647256538,-0.03299223259091377,-0.03314371407032013,0.025599466636776924,0.015660323202610016,0.2078753560781479,0.03832952678203583,-0.2541167438030243,-0.2587778866291046,-0.20501363277435303,0.05926050618290901,0.059808045625686646,-0.29494360089302063,-0.15117672085762024,0.09182866662740707,-0.04918108135461807,-0.0703967735171318,-0.006789498031139374,0.009688019752502441,-0.20277798175811768,-0.13587132096290588,-0.18578965961933136,0.1412050873041153,0.18290828168392181,-0.17892010509967804,0.07226502150297165,-0.09237717092037201,-0.07878847420215607,-0.06404027342796326,0.0306099783629179,0.1954900622367859,0.10863320529460907,0.07897842675447464,0.000016845904610818252,0.13446706533432007,-0.017076196148991585,0.29589080810546875,-0.1229487955570221,0.2142825424671173,-0.03270150348544121,0.07582484930753708,-0.018758265301585197,0.07887005060911179,0.008074520155787468,0.37291601300239563,-0.08955719321966171,-0.2423967570066452,-0.0800686776638031,0.16405132412910461,-0.08130580931901932,0.06433208286762238,-0.195753812789917,0.01833372376859188,-0.005964998155832291,0.030512075871229172,0.04248093068599701,-0.12919628620147705,-0.07509808987379074,-0.03663320094347,0.07291531562805176,0.09907939285039902,0.06907659024000168,-0.07320696115493774,-0.006708844564855099,0.005202252417802811,-0.050946347415447235,0.1711214780807495,0.27013155817985535,0.025651000440120697,-0.19395962357521057,0.0754142701625824,0.13896925747394562,-0.026308415457606316,-0.000590968644246459,0.02500181645154953,0.09070173650979996,0.05277704447507858,-0.13105715811252594,0.1246596947312355,0.11503276228904724,-0.07929155975580215,0.0480867363512516,0.1375052034854889,-0.13312579691410065,0.04061319679021835,0.13998249173164368,-0.09600339829921722,-0.031565651297569275,-0.15252776443958282,0.09207001328468323,-0.030662238597869873,-0.029157422482967377,-0.06907303631305695,-0.015407629311084747,0.038319457322359085,0.14471429586410522,0.10906007140874863,-0.06654497981071472,-0.2570785880088806,0.15315763652324677,-0.22754164040088654,0.23542675375938416,-0.01667386293411255,0.12768758833408356,-0.1810474693775177,-0.01052298117429018,0.11438696831464767,0.10940095782279968,0.00820663571357727,0.050457779318094254,0.057678818702697754,-0.0935315489768982,-0.022474970668554306],[0.015722759068012238,0.10819514095783234,-0.14741510152816772,-0.0595371313393116,-0.17262668907642365,0.07121095061302185,-0.12394867092370987,0.0877174660563469,0.17592407763004303,0.07314711064100266,-0.21407818794250488,0.3222714364528656,-0.081199049949646,0.057251568883657455,0.030690662562847137,-0.009235368110239506,-0.043324727565050125,-0.09883193671703339,0.23294179141521454,-0.04885155335068703,0.20328004658222198,0.21145157516002655,-0.02288750745356083,-0.32583320140838623,-0.007098482456058264,-0.0460670068860054,-0.04102287068963051,-0.21038736402988434,0.19304899871349335,-0.17761480808258057,0.1351090967655182,0.036891501396894455,0.0938008651137352,0.1389664262533188,0.01660454086959362,0.10182547569274902,-0.09919587522745132,0.021791573613882065,0.03723447024822235,0.0509357787668705,0.1372450888156891,-0.07467257231473923,-0.04519321769475937,-0.3069242835044861,-0.05425461381673813,0.005031473934650421,0.19490288197994232,-0.04315235838294029,0.009078691713511944,-0.11942809820175171,-0.07096676528453827,0.15832333266735077,0.06677906960248947,0.21989092230796814,0.055699367076158524,-0.08113901317119598,-0.14239266514778137,0.002444774843752384,0.16374117136001587,0.04857367277145386,-0.03648192435503006,0.06341643631458282,0.027299312874674797,0.06866061687469482,-0.1670842170715332,0.07690515369176865,0.008039346896111965,-0.0016956462059170008,-0.13123752176761627,-0.1552078127861023,0.0067355758510529995,0.1665404886007309,0.02663460746407509,0.14853379130363464,0.0639009103178978,-0.011000112630426884,-0.06726547330617905,0.08547985553741455,0.13372649252414703,0.09035878628492355,0.13683056831359863,-0.03725647181272507,0.056080255657434464,-0.26485493779182434,-0.0747777447104454,0.03128901496529579,-0.03184628486633301,0.18952414393424988,0.11953549087047577,0.1242368295788765,0.09470076113939285,-0.019277578219771385,0.019076859578490257,-0.05175166577100754,-0.20032136142253876,-0.011415604501962662,-0.013166331686079502,-0.1691417694091797,-0.016450366005301476,0.06685296446084976,0.2562044858932495,-0.07424453645944595,-0.0019503706134855747,-0.08428458869457245,0.1320582628250122,-0.04696580022573471,-0.11862535029649734,0.046217672526836395,-0.07906429469585419,-0.18283091485500336,0.021567001938819885,-0.05621994286775589,0.006950327195227146,-0.03886369988322258,0.028618156909942627,0.20015645027160645,0.08261758834123611,-0.07961317151784897,0.012658553197979927,-0.011818801052868366,-0.10546894371509552,-0.03791526332497597,0.12348319590091705,-0.08063352853059769,-0.010231795720756054,-0.06565695255994797,-0.08660291135311127,-0.07745091617107391,0.0951678529381752,-0.05543224513530731,0.09909480065107346,-0.14326003193855286,-0.1280883103609085,-0.0006319409003481269,0.051638007164001465,0.028863856568932533,-0.0014329423429444432,0.11199969798326492],[-0.001369512639939785,-0.236534982919693,-0.14385603368282318,0.005954858381301165,0.15872026979923248,0.06164030358195305,0.16242115199565887,-0.04106387495994568,0.04666959494352341,-0.19998173415660858,0.043485868722200394,-0.09612713009119034,-0.003244917606934905,0.21480591595172882,-0.13298192620277405,-0.13161040842533112,-0.07271817326545715,-0.05167265608906746,-0.01810290291905403,0.07791229337453842,0.03943971171975136,-0.06650588661432266,0.04335000365972519,-0.026133963838219643,-0.2139257937669754,0.12952104210853577,-0.23540276288986206,-0.145410418510437,-0.1432895064353943,0.034641966223716736,-0.1480458676815033,0.056933216750621796,-0.13054285943508148,0.18354114890098572,0.04699134826660156,-0.0008277909946627915,0.04746389761567116,0.015069601126015186,-0.20881612598896027,0.0567871518433094,0.11670127511024475,-0.010637094266712666,-0.13710573315620422,0.08517542481422424,0.19892166554927826,-0.014529090374708176,0.0055468520149588585,0.023514462634921074,-0.08747265487909317,-0.045837197452783585,-0.1535269320011139,-0.20072993636131287,-0.019628435373306274,-0.11750812828540802,-0.16136299073696136,0.008953714743256569,-0.04816089943051338,-0.05046699568629265,0.02232361026108265,-0.03898538276553154,-0.05588105320930481,0.012296698987483978,0.10522626340389252,0.07775145769119263,0.23160892724990845,0.055759284645318985,-0.20971421897411346,-0.04417797178030014,-0.12766970694065094,0.3470660150051117,-0.23783960938453674,0.007387781515717506,-0.14004404842853546,0.10807667672634125,-0.27368590235710144,0.15124717354774475,-0.2334447056055069,0.02250751480460167,-0.007764630019664764,0.09557349979877472,-0.06129671633243561,0.14121049642562866,-0.052869636565446854,0.24773918092250824,-0.022702692076563835,-0.013257287442684174,0.10854846239089966,-0.08454127609729767,-0.07625512033700943,0.007023967336863279,-0.09164387732744217,0.11993937194347382,0.008239315822720528,-0.4210714101791382,0.12250890582799911,0.10624587535858154,-0.06287894397974014,-0.01587858609855175,-0.17492903769016266,-0.1651524305343628,0.1870018094778061,0.09628698974847794,-0.01998131163418293,-0.12970273196697235,0.19811765849590302,-0.2519644796848297,-0.27957069873809814,0.06328214704990387,0.018553094938397408,0.1035078838467598,-0.037442419677972794,0.14736513793468475,-0.17613054811954498,0.15622703731060028,0.029786808416247368,0.0356101468205452,-0.03993001952767372,0.10190142691135406,-0.04794752970337868,-0.12618577480316162,-0.044775594025850296,-0.008047998882830143,-0.09796266257762909,-0.06512890756130219,0.039204224944114685,-0.10296562314033508,-0.12525838613510132,-0.0548253133893013,0.08667607605457306,0.045082274824380875,-0.07735808938741684,0.06935089826583862,-0.052050571888685226,-0.11126295477151871,0.026181625202298164,0.02787255123257637,0.05107223987579346,0.1385032683610916],[-0.1462746113538742,0.2959285080432892,-0.0075286696664988995,-0.3035736680030823,-0.13238541781902313,0.2183166891336441,0.04055211320519447,0.06779253482818604,-0.017119387164711952,0.06325932592153549,-0.11185701191425323,-0.12338900566101074,0.07866847515106201,0.04064909368753433,0.1419236660003662,-0.06347107142210007,0.027843507006764412,0.08059262484312057,-0.15636172890663147,0.12483543157577515,-0.08525805920362473,-0.22647765278816223,0.06734712421894073,-0.3249484896659851,0.2428760826587677,0.060685355216264725,-0.13210240006446838,-0.09960272163152695,-0.057270560413599014,0.0771896168589592,-0.22267664968967438,-0.12736698985099792,-0.18047356605529785,0.18385295569896698,-0.07252458482980728,0.17108343541622162,-0.17549993097782135,-0.0014950723852962255,0.00829521007835865,-0.041206613183021545,0.013975027948617935,-0.14170122146606445,-0.008054548874497414,-0.07318748533725739,-0.0024170565884560347,0.21073006093502045,-0.20829404890537262,-0.05155804008245468,0.16893494129180908,0.09521257132291794,-0.08853910118341446,-0.12745432555675507,0.04178633168339729,0.06911218911409378,0.007473033387213945,-0.08167846500873566,0.0283664483577013,-0.18374109268188477,-0.11218290776014328,-0.039916738867759705,0.47283753752708435,-0.16361689567565918,-0.06709608435630798,0.08940738439559937,0.02676405757665634,0.010262823663651943,0.21602638065814972,-0.05356518179178238,0.07346976548433304,0.07606235891580582,-0.00800858624279499,0.04170907661318779,0.06954548507928848,0.16325464844703674,-0.06492769718170166,-0.15870918333530426,0.014859833754599094,0.053765565156936646,0.04262806475162506,-0.07297393679618835,0.11189622431993484,-0.02765890769660473,0.06481820344924927,0.0862257331609726,0.053017426282167435,-0.08415381610393524,0.05640512704849243,-0.3002476692199707,-0.32079607248306274,0.05138217657804489,0.2746424078941345,0.030290450900793076,-0.08709047734737396,0.18937695026397705,-0.018253836780786514,0.039512522518634796,0.18667154014110565,0.13224324584007263,-0.17446167767047882,-0.13099785149097443,0.04061576724052429,0.1463373750448227,0.0186254121363163,0.05863160267472267,-0.017349973320961,0.20596900582313538,-0.017996078357100487,0.15720297396183014,0.3247338831424713,0.05847575515508652,0.07516659051179886,-0.037917137145996094,-0.09239843487739563,0.29587632417678833,-0.008298988454043865,0.27612313628196716,0.11312247067689896,0.19834105670452118,0.033630698919296265,0.12584206461906433,0.007000008597970009,0.23250460624694824,0.09688016772270203,0.14067213237285614,0.02198232151567936,0.04247644543647766,-0.11308743804693222,0.03321684151887894,-0.10097596794366837,0.05187630653381348,0.14254114031791687,0.25426217913627625,-0.09235808253288269,-0.012649382464587688,-0.23720085620880127,-0.2824970781803131,-0.13364091515541077,-0.24252796173095703],[0.023534461855888367,0.00621604872867465,-0.09426750242710114,-0.06826227158308029,0.0396777018904686,0.09342959523200989,0.08304528892040253,-0.1515156626701355,0.1634228676557541,-0.1416674256324768,0.07949589937925339,-0.13978078961372375,-0.07053136825561523,-0.1102537140250206,0.13373839855194092,-0.3611932098865509,-0.19152909517288208,-0.005984967574477196,-0.00046991315321065485,-0.005842304322868586,0.14159205555915833,-0.05711238458752632,-0.09309910982847214,-0.19894737005233765,-0.02591453492641449,0.0030504134483635426,0.05834294110536575,-0.04033385217189789,-0.11229471117258072,0.18683363497257233,0.005651581101119518,-0.015631617978215218,-0.0005002450197935104,-0.07103709876537323,-0.042769905179739,-0.13535822927951813,-0.07064548879861832,0.03157535195350647,-0.16574159264564514,-0.016890516504645348,0.106004998087883,-0.06101004406809807,0.0349695086479187,0.006652855314314365,-0.12358959764242172,-0.09644797444343567,0.005118350964039564,0.1008685752749443,0.037376679480075836,-0.2608637809753418,0.3876209259033203,0.060108259320259094,0.04991929233074188,-0.0236059557646513,-0.04443056881427765,0.04775124788284302,0.10004855692386627,0.07990285754203796,0.024731384590268135,-0.12290539592504501,0.006404219660907984,0.13132482767105103,-0.2192361205816269,-0.20727960765361786,-0.14442922174930573,0.010353520512580872,-0.022068724036216736,0.022800074890255928,0.12795308232307434,-0.09949846565723419,-0.22211071848869324,0.04924299195408821,0.08986105024814606,-0.1600252091884613,0.047652699053287506,0.19378980994224548,-0.13143886625766754,0.16692321002483368,-0.113055020570755,-0.10446060448884964,0.36831134557724,0.0967990830540657,-0.12772361934185028,-0.162544846534729,-0.16033877432346344,0.0635775774717331,0.10922643542289734,-0.05033690482378006,0.04339272528886795,0.16977767646312714,-0.13354191184043884,-0.08801337331533432,0.027297599241137505,0.0636453628540039,-0.06182008981704712,0.06288585811853409,0.10546425729990005,0.12113052606582642,-0.024490825831890106,-0.01784168928861618,-0.21481019258499146,-0.06512481719255447,-0.12994417548179626,0.10433398932218552,0.10395016521215439,0.04849662259221077,-0.1350250393152237,0.056984417140483856,-0.11071469634771347,-0.1455734223127365,-0.027280624955892563,0.03819027543067932,0.06493784487247467,0.036518074572086334,0.14451034367084503,0.3624706268310547,0.05424533784389496,0.05893571302294731,0.09900031983852386,-0.11546456068754196,0.005341853015124798,-0.18438012897968292,-0.0556851364672184,0.34034955501556396,0.11786862462759018,-0.1702672392129898,0.0036519605200737715,-0.11318516731262207,-0.04139501228928566,-0.07074623554944992,0.10865694284439087,-0.06316845118999481,0.05122854560613632,0.10312318056821823,-0.055846042931079865,-0.02518191747367382,-0.09172681719064713,0.02260688878595829],[-0.018199773505330086,-0.11337407678365707,0.1483629196882248,0.05303538590669632,-0.025287006050348282,0.04338747262954712,-0.14093412458896637,-0.036462586373090744,-0.03618485853075981,-0.05850593373179436,0.1053374707698822,-0.038726188242435455,-0.018181568011641502,0.12072203308343887,0.08962532132863998,0.10727310180664062,0.08493883907794952,-0.11462540924549103,0.11217579245567322,0.02311350591480732,-0.04165726155042648,0.12024980038404465,0.05153516307473183,0.010341162793338299,-0.03030308708548546,-0.10839587450027466,0.026627879589796066,0.15402284264564514,-0.24746622145175934,-0.07880183309316635,-0.092194564640522,-0.011765409260988235,0.10380776226520538,0.06812383234500885,0.11217001080513,-0.040562283247709274,-0.04649586230516434,0.15655003488063812,0.20644928514957428,-0.019537175074219704,-0.17754079401493073,-0.08488737046718597,0.21516060829162598,-0.194179967045784,0.013330549001693726,0.15273714065551758,0.1641966551542282,-0.09053659439086914,0.03020600415766239,-0.05113460496068001,0.06953119486570358,0.16913409531116486,0.07499855756759644,-0.0034721270203590393,-0.028546441346406937,0.12141356617212296,-0.015666570514440536,-0.05891565978527069,-0.0017974897054955363,-0.003567466279491782,-0.01179679948836565,0.004031934775412083,0.23502545058727264,-0.14054210484027863,-0.08303673565387726,0.08191478997468948,-0.015644272789359093,-0.2842083275318146,0.05811956152319908,-0.11281181126832962,-0.009061163291335106,-0.18478941917419434,0.006657042540609837,-0.05155961215496063,0.04367368295788765,0.11001820117235184,-0.031065817922353745,0.11395005136728287,-0.1658962368965149,0.05401137098670006,-0.09057367593050003,-0.07927590608596802,-0.00821891613304615,-0.08591023087501526,0.2623825669288635,-0.15512043237686157,0.19112639129161835,0.07319024950265884,0.16979193687438965,-0.1781097799539566,0.13683687150478363,0.028855130076408386,-0.10568322241306305,-0.1930818408727646,0.11914172023534775,-0.12353438884019852,-0.07823451608419418,0.05472400784492493,-0.16208532452583313,-0.13947510719299316,-0.11268414556980133,0.0025860872119665146,0.09565365314483643,0.00409783935174346,-0.07285363972187042,-0.0015223025111481547,0.13320119678974152,-0.028839418664574623,-0.1347174346446991,-0.10665305703878403,-0.03215299919247627,0.17601242661476135,0.03917935863137245,-0.08131711930036545,0.21165958046913147,-0.04199319705367088,-0.054428014904260635,0.06499456614255905,-0.01729390025138855,0.12628643214702606,0.03200221806764603,-0.046328235417604446,-0.16469815373420715,0.019645677879452705,0.08679946511983871,0.028032496571540833,-0.0165391955524683,-0.14129947125911713,-0.30310487747192383,0.08111200481653214,0.2502634823322296,0.08538025617599487,-0.08205705881118774,-0.15635345876216888,-0.16109485924243927,0.2714121341705322,-0.20608621835708618,0.0003513754636514932],[-0.0777117982506752,-0.03854413330554962,-0.2135334610939026,-0.11225903034210205,0.11529541015625,0.040083710104227066,-0.141575425863266,0.011672508902847767,0.19205912947654724,-0.1410357654094696,0.1941731870174408,0.13087497651576996,0.03003607504069805,-0.11322461068630219,0.10404633730649948,0.06564845144748688,0.053074076771736145,0.08765216916799545,-0.14538568258285522,-0.006356554105877876,-0.20399358868598938,-0.13786472380161285,0.10956614464521408,-0.021363459527492523,-0.07070903480052948,-0.048338960856199265,-0.11793313175439835,0.1421269327402115,-0.09708187729120255,0.19872096180915833,0.08393243700265884,0.26751425862312317,0.025814665481448174,0.24502448737621307,-0.13922493159770966,-0.08994009345769882,0.08696693181991577,-0.18751539289951324,0.028648123145103455,0.17982250452041626,0.02185736410319805,-0.18069428205490112,-0.00025300635024905205,0.07733903080224991,-0.04484884813427925,-0.1578054279088974,0.14497791230678558,0.1827147901058197,0.2559623122215271,-0.09483984112739563,-0.001484234118834138,-0.03053743578493595,0.21976208686828613,0.18681477010250092,0.26472207903862,-0.029085798189044,-0.224344864487648,-0.267411470413208,-0.05996694788336754,0.22936268150806427,0.11984436959028244,0.21747788786888123,0.07474607974290848,-0.09814774245023727,0.11238626390695572,0.15110483765602112,-0.04212561622262001,-0.007461098954081535,0.08178751915693283,0.010649198666214943,0.029139207676053047,-0.009666486643254757,0.11038631200790405,-0.03284287452697754,-0.10865169018507004,-0.09319106489419937,-0.11089399456977844,0.13023580610752106,0.009516943246126175,0.09074493497610092,-0.13476374745368958,0.007936544716358185,-0.14262180030345917,0.05713652819395065,-0.23306207358837128,-0.03361162170767784,-0.022196773439645767,0.1191246509552002,0.045621391385793686,-0.06493788212537766,-0.039892662316560745,0.08473476767539978,-0.07476421445608139,0.0730443075299263,-0.15477874875068665,-0.26469820737838745,0.11596626043319702,0.03740869462490082,-0.020702959969639778,-0.054837655276060104,0.10562489926815033,-0.015648523345589638,0.11532679945230484,-0.1318577527999878,-0.07332143932580948,-0.09456523507833481,0.08671959489583969,0.03040960617363453,0.12322931736707687,-0.08565371483564377,0.07020920515060425,-0.02503339946269989,0.0415305495262146,0.11271010339260101,0.15481474995613098,-0.09446009248495102,0.022129038348793983,-0.19442056119441986,0.26451075077056885,-0.311968594789505,0.1510472297668457,-0.019731126725673676,0.033835701644420624,-0.019369523972272873,0.03520490974187851,-0.09305448830127716,0.03065311908721924,-0.0009427925106137991,0.06736680865287781,-0.18047644197940826,-0.23045432567596436,0.16784240305423737,0.08220715075731277,-0.1031758189201355,-0.015369308181107044,-0.030923569574952126,-0.09503223747015,0.06490817666053772],[0.13723936676979065,0.17682093381881714,0.039734285324811935,-0.1922149509191513,0.024492179974913597,0.0710846334695816,0.09009764343500137,0.05440804734826088,-0.029250625520944595,0.09234025329351425,0.013971901498734951,-0.04017672315239906,0.011199137195944786,0.1015922799706459,-0.0581006295979023,0.019534219056367874,0.05344696342945099,0.004528094083070755,0.18720462918281555,0.011639541946351528,0.040474455803632736,0.0058219595812261105,-0.1272178441286087,-0.16583125293254852,0.053714148700237274,0.0030411798506975174,0.07920384407043457,-0.10600224137306213,