[[0.924856424331665,-0.30272239446640015,0.30318784713745117,-2.5985844135284424,-1.511169195175171,-1.7680306434631348,1.4720990657806396,-2.0085437297821045,-0.8003764748573303,0.7687963843345642,1.306589961051941,-0.2199728786945343,2.9814369678497314,-1.3056790828704834,0.6454956531524658,1.0647549629211426,1.6907190084457397,-0.8284768462181091,0.25296080112457275,-0.5360562205314636,0.4702100455760956,0.24918828904628754,-1.0953168869018555,0.34562090039253235,-1.0872550010681152,-0.5380895137786865,0.5227752923965454,-0.7011990547180176,-0.07748734205961227,0.8272725939750671,0.44611528515815735,-0.015103055164217949,0.03982489928603172,2.3797173500061035,0.06313095986843109,-0.7535989284515381,2.1630592346191406,-0.4220163822174072,2.254356622695923,-2.4288768768310547,0.08773928135633469,-0.3865013122558594,-1.5647034645080566,-0.9067922234535217,-0.5301889777183533,-1.9851512908935547,-2.192915916442871,-1.4172601699829102,0.19583982229232788,2.0527796745300293,-1.752761721611023,1.3733632564544678,-1.5414416790008545,-1.2644504308700562,-0.023775169625878334,0.08387627452611923,1.038372278213501,-0.5902824401855469,-1.3857520818710327,-0.005528855137526989,0.5110777616500854,0.8766212463378906,-0.049081265926361084,1.3931552171707153]]