[[-0.03400656208395958,0.03904910758137703,-0.34892958402633667,-0.09263160079717636,0.030729232355952263,-0.36321333050727844,-0.11828935891389847,-0.030973510816693306,0.17925480008125305,-0.21918770670890808,0.09531575441360474,0.19812937080860138,0.17033196985721588,0.036103781312704086,-0.2400885373353958,-0.2922748625278473,-0.26600515842437744,-0.1508808135986328,-0.15326061844825745,-0.1307927817106247,-0.08808480948209763,-0.1764756292104721,-0.03208809345960617,0.13350993394851685,-0.19520579278469086,-0.32104623317718506,-0.011182152666151524,0.23482997715473175,-0.16547197103500366,-0.3616027235984802,-0.011916830204427242,-0.15511679649353027,-0.1961880922317505,0.10030517727136612,0.09586441516876221,0.31738921999931335,-0.04040341451764107,0.025038212537765503,0.10949620604515076,0.2779552638530731,0.12811435759067535,-0.07299783825874329,0.016229411587119102,-0.28686511516571045,-0.3186192214488983,0.14175871014595032,-0.06215600296854973,0.07397400587797165,-0.18630485236644745,-0.01590985432267189,-0.04133087396621704,0.20733503997325897,0.009191728197038174,-0.030209297314286232,-0.10792749375104904,-0.03741076961159706,0.19488582015037537,0.038785532116889954,-0.17582449316978455,-0.37560370564460754,-0.4053947627544403,-0.20853491127490997,0.24351759254932404,-0.34831827878952026,-0.19870823621749878,-0.2982749938964844,-0.17312845587730408,-0.12946796417236328,-0.3942146301269531,-0.07428045570850372,0.30098989605903625,0.08604928851127625,-0.030167650431394577,-0.22696112096309662,0.11209697276353836,-0.0016489741392433643,0.02335916832089424,0.26605024933815,-0.07569242268800735,0.025674467906355858,-0.004119285382330418,-0.09137719869613647,0.314989298582077,0.19209171831607819,-0.4114662706851959,-0.4749387204647064,0.10688415169715881,0.1453215777873993,0.10480431467294693,-0.21252106130123138,0.18825437128543854,-0.32076501846313477,0.03398231789469719,-0.16473597288131714,0.09860197454690933,-0.2536935806274414,0.17810486257076263,-0.1591755747795105,-0.2145438939332962,-0.031037932261824608,0.5418553352355957,-0.2811731696128845,-0.417260080575943,-0.31524068117141724,0.028329409658908844,-0.004593892954289913,0.055557575076818466,-0.2080816775560379,-0.03361216560006142,-0.10083908587694168,-0.11892805993556976,-0.03083384595811367,-0.006870482582598925,-0.30499595403671265,0.16623006761074066,-0.10509853810071945,0.11176473647356033,-0.12140145897865295,-0.27160778641700745,0.08564895391464233,-0.3443372845649719,-0.16148288547992706,0.20866629481315613,0.04693390056490898,0.08166991919279099,-0.07746431231498718,0.061395615339279175,-0.15514053404331207,-0.1286407858133316,0.05424775183200836,-0.20690445601940155,0.15842710435390472,-0.19880376756191254,0.06678617000579834,0.043108273297548294,-0.20518583059310913,-0.08119195699691772,-0.1137169674038887,0.16417047381401062,-0.1465751975774765,-0.22700029611587524,0.1346157044172287,0.2459382265806198,-0.20619428157806396,-0.010069604963064194,-0.1614416241645813,-0.08978159725666046,-0.23470930755138397,0.1065845936536789,-0.05849332734942436,-0.13827744126319885,-0.19020171463489532,0.017507804557681084,-0.050327952951192856,0.04068167507648468,-0.00027414350188337266,-0.13340790569782257,-0.3579843044281006,-0.09641760587692261,-0.0003339778631925583,-0.3206910192966461,-0.13007088005542755,0.11986568570137024,-0.03961919993162155,0.08606910705566406,-0.1145162433385849,-0.3870563209056854,-0.17145001888275146,0.07008575648069382,-0.03522764518857002,-0.25854334235191345,-0.009791955351829529,-0.14135383069515228,0.024228015914559364,0.06574063003063202,-0.15787342190742493,0.24541889131069183,0.07258161902427673,0.09921494871377945,0.07400409877300262,0.1109049916267395,0.01611826755106449,0.019318467006087303,-0.22969010472297668,-0.20451496541500092,-0.19130568206310272,-0.1364263892173767,-0.3300592005252838,-0.07906881719827652,-0.27244332432746887,0.2290876805782318,0.06477116048336029,-0.15627236664295197,-0.09610859304666519,-0.020024916157126427,0.0683177262544632,-0.34250229597091675,0.1297054886817932,-0.31793445348739624,-0.02108459733426571,-0.25156834721565247,-0.028573399409651756,0.1023603081703186,-0.09159328043460846,-0.2575124204158783,0.11583294719457626,-0.03663671761751175,-0.224883571267128,0.10963809490203857,0.2609988749027252,0.2080071121454239,-0.1134478747844696,-0.28254953026771545,0.020556624978780746,0.29527780413627625,0.08551198244094849,-0.011765857227146626,0.15511475503444672,-0.25321337580680847,-0.008536303415894508,-0.2804529368877411,-0.20357421040534973,0.03893836587667465,-0.18392519652843475,-0.022120606154203415,-0.089234359562397,-0.2949160933494568,-0.1639927327632904,-0.07114219665527344,-0.1570611447095871,-0.22548305988311768,-0.3539447784423828,-0.15393349528312683,-0.22120505571365356,-0.05476997047662735,0.3326769769191742,-0.42951977252960205,-0.18310576677322388,0.04473288729786873,0.06488164514303207,0.02412564679980278,-0.16000226140022278,-0.0533783957362175,0.24784424901008606,0.13466215133666992,-0.1283891201019287,-0.09965542703866959,-0.2898796498775482,-0.1857491135597229,0.027499010786414146,-0.1691916584968567,-0.2139720767736435,-0.1657412201166153,-0.24062621593475342,0.09853783249855042,-0.3013918101787567],[-0.11441189795732498,0.049185819923877716,-0.16838301718235016,-0.3340337574481964,-0.04461546987295151,-0.08381713926792145,0.022770121693611145,-0.24078498780727386,-0.09749355912208557,0.23239430785179138,-0.06517782807350159,-0.24834774434566498,0.013616865500807762,-0.08671686053276062,0.28424757719039917,-0.2292548567056656,0.18740405142307281,0.34413814544677734,-0.4704492390155792,0.21663443744182587,0.09450682997703552,-0.09142915904521942,-0.024327903985977173,0.05221657454967499,0.2543192207813263,-0.23464323580265045,-0.17814621329307556,-0.16617576777935028,0.03486955910921097,-0.18120326101779938,0.4026487171649933,-0.24899117648601532,-0.10895367711782455,0.1013917401432991,-0.1474331021308899,0.09077400714159012,-0.2564137876033783,0.21956422924995422,0.024140149354934692,0.1350252777338028,0.019368959590792656,-0.014178130775690079,-0.06603868305683136,0.021044179797172546,0.0919019877910614,0.2710781395435333,-0.18967100977897644,-0.23083987832069397,0.2816154956817627,0.14473311603069305,-0.32819655537605286,0.15024718642234802,0.07565842568874359,0.15732012689113617,-0.10444789379835129,-0.2947385907173157,-0.10744553059339523,0.05573805049061775,0.276540607213974,0.0017668213695287704,-0.2402053326368332,-0.039051055908203125,-0.13242338597774506,0.06304658204317093,0.16815894842147827,-0.09160599112510681,-0.17462947964668274,-0.06748124957084656,0.04964466765522957,0.05518462881445885,0.040846895426511765,-0.20339299738407135,0.1648416817188263,0.13888908922672272,0.07457572221755981,-0.182855486869812,-0.045878611505031586,-0.24800428748130798,-0.08770516514778137,0.025326596572995186,-0.05938472971320152,-0.14458416402339935,-0.009893826209008694,-0.029707269743084908,-0.14439454674720764,-0.11936767399311066,-0.15983934700489044,0.007921081967651844,0.2565962076187134,0.09300750494003296,-0.14567327499389648,-0.036000605672597885,0.016435476019978523,-0.12469694763422012,0.10468654334545135,0.07550963759422302,-0.21165615320205688,0.11018234491348267,0.20024986565113068,-0.4202042520046234,-0.26720812916755676,0.11977756023406982,-0.2635241746902466,-0.21379080414772034,-0.39499175548553467,0.01809638924896717,-0.20707333087921143,0.08043661713600159,0.12630368769168854,-0.030553573742508888,0.015799665823578835,-0.09117253869771957,0.1907637119293213,0.01635916903614998,0.1018020361661911,0.12498856335878372,0.1941525936126709,-0.16197466850280762,-0.11986865848302841,0.28778189420700073,-0.2230544537305832,0.03887229785323143,-0.08185305446386337,-0.15174570679664612,-0.03013315051794052,-0.07614773511886597,-0.2372974157333374,-0.47618600726127625,-0.16695551574230194,0.012018364854156971,-0.044032447040081024,-0.1489359438419342,-0.2100968062877655,-0.1856832206249237,-0.3091474175453186,-0.27630361914634705,-0.09979709982872009,-0.08889992535114288,0.5043739676475525,0.05116766691207886,-0.09854688495397568,0.0033996806014329195,-0.22963091731071472,-0.13529683649539948,0.1301063746213913,-0.23548752069473267,-0.06630831956863403,-0.0797269269824028,-0.19540096819400787,-0.1305999457836151,0.345785528421402,-0.265130877494812,-0.13121062517166138,0.21315059065818787,0.51720130443573,0.018550628796219826,-0.034538231790065765,-0.0584399439394474,-0.04542161896824837,0.2935919463634491,-0.04360996186733246,0.02164512127637863,-0.03231227770447731,0.3411082923412323,0.15152938663959503,0.09001460671424866,0.13634152710437775,0.02676520124077797,0.09739213436841965,0.09919125586748123,-0.09141376614570618,0.30081906914711,0.36560067534446716,-0.24033154547214508,0.14783620834350586,-0.29965612292289734,0.2087739109992981,0.23603880405426025,-0.2866634428501129,0.013406462967395782,-0.07233235985040665,0.41818517446517944,-0.0247544776648283,0.06485041975975037,0.33719128370285034,-0.05824483558535576,-0.4514608681201935,-0.14561279118061066,-0.03227429464459419,-0.014289102517068386,-0.12337340414524078,-0.004294048994779587,0.10249599814414978,-0.5575299263000488,-0.6161655783653259,-0.0862455815076828,-0.17231348156929016,0.30227527022361755,0.2754213809967041,-0.08038077503442764,-0.24836626648902893,-0.2876220643520355,0.029075099155306816,-0.21524955332279205,0.2873223125934601,-0.3288871943950653,-0.15892119705677032,-0.3132450580596924,-0.1175442636013031,-0.006609370466321707,0.16246335208415985,-0.239682137966156,0.05564093589782715,0.19642223417758942,0.08797706663608551,-0.07677749544382095,-0.22309599816799164,-0.10898169130086899,0.1894102394580841,0.0264241062104702,0.10464652627706528,-0.4448014795780182,0.23638762533664703,-0.07324458658695221,-0.0038241036236286163,0.030096767470240593,0.3365940451622009,-0.20098623633384705,-0.2208389937877655,-0.12374106049537659,0.2917611300945282,-0.22061410546302795,-0.20190094411373138,-0.12990842759609222,0.1727498471736908,-0.06353909522294998,-0.006526883691549301,-0.27492326498031616,0.02474384754896164,-0.23150615394115448,0.20228610932826996,-0.14765319228172302,-0.2195589393377304,-0.07716777175664902,0.023165885359048843,0.329291969537735,-0.06103687733411789,-0.34579867124557495,-0.20525503158569336,-0.022759897634387016,-0.047514673322439194,-0.2237175554037094,-0.27757105231285095,-0.031010134145617485,0.028365258127450943,-0.10387750715017319],[0.04479542002081871,-0.36382341384887695,0.16548867523670197,0.1446177363395691,0.3847590386867523,-0.11239053308963776,-0.19253726303577423,-0.03883792459964752,-0.3023139536380768,0.10900437831878662,-0.2806687355041504,-0.18133346736431122,0.05385870859026909,-0.19391478598117828,0.20629552006721497,-0.2094566375017166,-0.000512407161295414,-0.2307772934436798,-0.4170743227005005,-0.23694662749767303,-0.163062185049057,0.06507489830255508,-0.17681008577346802,-0.3047484755516052,-0.061059728264808655,-0.1159016564488411,-0.0879620909690857,-0.050997547805309296,-0.08583073318004608,-0.3290383219718933,0.1859012395143509,0.021659916266798973,0.013371982611715794,-0.2807173728942871,-0.26468613743782043,-0.08597631752490997,0.04343897104263306,-0.08779321610927582,-0.06360418349504471,-0.0032984111458063126,0.13063953816890717,0.14382489025592804,0.030190911144018173,-0.09103211015462875,0.24165835976600647,-0.04098699614405632,0.2376224845647812,-0.025933612138032913,0.007429599761962891,-0.3819890022277832,-0.07567514479160309,0.010426854714751244,0.08158483356237411,-0.018229763954877853,-0.12252651900053024,0.1550077646970749,-0.19937321543693542,0.12625770270824432,0.004789875820279121,-0.17596496641635895,-0.22389774024486542,-0.24059145152568817,0.22160738706588745,-0.2766572833061218,0.3079943358898163,0.07220789790153503,0.1226910948753357,-0.04390939325094223,-0.10202537477016449,0.051450133323669434,-0.20488975942134857,-0.07971501350402832,0.040573254227638245,-0.0537075512111187,0.15830592811107635,-0.12999826669692993,-0.04107408598065376,0.059052836149930954,-0.20627331733703613,-0.11617431044578552,-0.28653228282928467,-0.08630073070526123,-0.01878063753247261,0.13410350680351257,0.051469676196575165,-0.04888007044792175,0.07644141465425491,0.11799848079681396,0.14763478934764862,0.2063053697347641,-0.3967272937297821,-0.10936405509710312,-0.0069085340946912766,-0.11650478094816208,-0.027325252071022987,0.20163218677043915,-0.43866658210754395,-0.15641236305236816,-0.058083079755306244,-0.3707038462162018,0.2302616834640503,-0.03383708372712135,0.1359328031539917,-0.054761823266744614,-0.3705149292945862,-0.2464393526315689,-0.27468228340148926,-0.05359892174601555,0.270356684923172,-0.08147232979536057,-0.3424684405326843,-0.127882719039917,-0.1874529868364334,-0.2670190632343292,-0.04654746130108833,0.08022906631231308,-0.09913995862007141,-0.16243423521518707,-0.37574097514152527,-0.25202107429504395,0.024819081649184227,-0.15309812128543854,0.08206413686275482,-0.05616627261042595,0.020279377698898315,-0.14517779648303986,-0.23254238069057465,-0.2676979899406433,-0.06204846873879433,-0.05336747318506241,-0.12386500835418701,0.13707107305526733,-0.07958486676216125,0.40276333689689636,-0.10259062796831131,-0.21201632916927338,-0.14311735332012177,0.24537375569343567,0.2554418444633484,-0.02806701697409153,-0.40937450528144836,0.04010153189301491,0.12353987991809845,0.20907939970493317,0.01797475852072239,-0.40435323119163513,-0.34702664613723755,-0.16190417110919952,0.2571273148059845,0.00972860399633646,-0.3445693850517273,0.043481260538101196,0.1298314332962036,0.09656749665737152,-0.07462447136640549,0.04659552499651909,-0.18275433778762817,-0.31826087832450867,-0.30070576071739197,-0.26116397976875305,0.038329362869262695,-0.1571033000946045,0.053133126348257065,-0.3019651770591736,0.06566028296947479,-0.14070089161396027,-0.09301318973302841,0.030771756544709206,-0.03510088473558426,-0.24679672718048096,0.05571657419204712,-0.30875760316848755,-0.0283224917948246,0.35695910453796387,0.0523022897541523,0.13890428841114044,-0.2795519530773163,-0.2090468853712082,0.020735589787364006,-0.11396099627017975,0.141838937997818,-0.10532891005277634,-0.11785560846328735,-0.015546215698122978,-0.022225847467780113,-0.27680671215057373,0.21754783391952515,0.023952072486281395,-0.3010985553264618,-0.027689985930919647,-0.09695999324321747,-0.1255429983139038,-0.22186988592147827,0.1720188409090042,0.07145879417657852,0.11697565764188766,-0.10072800517082214,0.35175663232803345,-0.2605239152908325,-0.03475338965654373,0.08275947719812393,0.1311502903699875,-0.30368202924728394,0.026046255603432655,-0.3046499192714691,-0.2138778567314148,0.0008558114059269428,-0.2877667546272278,-0.08322969824075699,0.06996213644742966,-0.12604716420173645,-0.13904929161071777,-0.41317060589790344,0.14648067951202393,-0.1982782483100891,0.08074799925088882,0.0909634679555893,-0.18085797131061554,0.3377770483493805,-0.20444445312023163,0.04893665760755539,-0.3566732108592987,0.17757488787174225,0.10948769003152847,0.10764816403388977,-0.08680080622434616,0.15553626418113708,0.2553582489490509,-0.11046899110078812,0.00669966172426939,-0.2829958498477936,0.1453266739845276,-0.16598016023635864,0.04229375347495079,-0.10294462740421295,0.027524128556251526,-0.1871286779642105,-0.19905823469161987,-0.14319875836372375,-0.07914947718381882,0.2078227549791336,0.25992321968078613,0.10647055506706238,0.06219211965799332,-0.24992935359477997,-0.3051196038722992,0.10471045970916748,-0.2804189622402191,0.46663784980773926,0.024944385513663292,0.18485672771930695,0.000057891236792784184,0.04054519534111023,-0.11601397395133972,-0.15343473851680756,-0.2195902019739151],[-0.11805865913629532,0.3169998824596405,0.16204045712947845,0.07774245738983154,-0.205251082777977,-0.08232284337282181,0.07328122854232788,-0.13433431088924408,-0.09423922747373581,-0.2636224925518036,0.0931088775396347,0.06382378935813904,0.3473350703716278,0.005727556999772787,0.1257733851671219,0.03088429756462574,0.13343043625354767,-0.05941511690616608,-0.1053607165813446,0.19443197548389435,0.21179898083209991,-0.16379372775554657,-0.2750449776649475,0.1366894394159317,-0.08634166419506073,0.31898555159568787,0.24313682317733765,-0.14225216209888458,-0.08930861204862595,0.2688644826412201,-0.16491848230361938,0.0377526618540287,-0.350050151348114,0.16021113097667694,0.006195410620421171,-0.15185631811618805,-0.12745021283626556,0.038872309029102325,0.2184908539056778,-0.10353613644838333,-0.08245538175106049,-0.10781469941139221,0.12299281358718872,-0.12999539077281952,-0.14309750497341156,-0.04743442311882973,0.19204309582710266,-0.05273160710930824,0.10759266465902328,-0.08636268228292465,-0.07847590744495392,-0.07259053736925125,-0.16505049169063568,0.05076947435736656,-0.22635190188884735,0.1047363132238388,0.22111757099628448,-0.22040912508964539,-0.2955358624458313,0.18453794717788696,0.08539290726184845,-0.22354955971240997,0.25706231594085693,0.07509706169366837,0.12509484589099884,-0.3466112017631531,-0.023236621171236038,0.2903116047382355,-0.14738894999027252,-0.07939567416906357,0.024479582905769348,0.13614334166049957,-0.062124285846948624,-0.1853695958852768,-0.02260548062622547,0.06423308700323105,-0.18478097021579742,-0.022587573155760765,0.1849057525396347,-0.27615129947662354,-0.0026759845204651356,0.03791967034339905,-0.0010877292370423675,-0.20556612312793732,0.07119963318109512,-0.26806995272636414,0.03108634613454342,0.03096199408173561,0.3120465874671936,0.14866283535957336,0.28852155804634094,-0.08481863886117935,-0.09158910810947418,-0.1476357877254486,-0.24138303101062775,0.05317274481058121,0.0200716033577919,-0.16664466261863708,-0.06413207948207855,-0.13484852015972137,-0.051567092537879944,-0.21533097326755524,-0.016644667834043503,-0.09772985428571701,-0.2902800738811493,-0.00460569653660059,-0.10956019908189774,-0.29791298508644104,-0.10362178832292557,0.0008972205687314272,-0.5359134078025818,-0.062441617250442505,-0.19957394897937775,-0.2987937033176422,0.0021835113875567913,-0.4925690293312073,-0.35090312361717224,-0.4006425738334656,-0.2964736223220825,-0.0340389758348465,0.08161802589893341,-0.14249977469444275,-0.38203519582748413,-0.12859056890010834,-0.14695687592029572,-0.014121154323220253,-0.10907696932554245,-0.12970875203609467,0.49899059534072876,-0.3785476088523865,-0.19048936665058136,-0.2264963686466217,-0.12167473137378693,-0.1491708755493164,0.12547525763511658,-0.16808386147022247,-0.10979413986206055,0.2660490870475769,-0.06911985576152802,0.0771951973438263,-0.33564576506614685,-0.13852009177207947,0.18985699117183685,0.12612424790859222,-0.2669562101364136,0.13657227158546448,-0.07213572412729263,0.15604731440544128,-0.007916578091681004,0.10032042860984802,0.041013166308403015,-0.17135797441005707,0.04159200191497803,0.24035044014453888,-0.16427600383758545,0.10349223762750626,-0.05689581111073494,-0.106874480843544,0.13771653175354004,-0.17172661423683167,-0.22947360575199127,0.04031537100672722,0.06663823872804642,-0.1803472638130188,-0.23699799180030823,0.024539565667510033,0.10066518932580948,-0.1812928467988968,0.14097268879413605,0.2916872799396515,0.004855669569224119,-0.4503142237663269,0.10562575608491898,0.03564916551113129,0.22483304142951965,-0.1488655060529709,-0.03428057208657265,-0.2450626939535141,-0.019588440656661987,-0.06264020502567291,-0.15435343980789185,-0.04735449329018593,-0.16379906237125397,-0.03042546659708023,0.15520553290843964,-0.13069917261600494,0.054403167217969894,0.05483448877930641,0.044128939509391785,0.2977873384952545,-0.1920337826013565,0.008606143295764923,0.0061922697350382805,-0.28656890988349915,-0.13705772161483765,-0.1104387640953064,0.09448067843914032,0.3664187490940094,-0.14401033520698547,-0.04158420488238335,-0.22679387032985687,-0.2140749841928482,-0.4268980026245117,-0.5051316022872925,-0.001782636740244925,-0.16488417983055115,-0.021266208961606026,-0.31991273164749146,-0.06943363696336746,-0.09623225033283234,0.019306570291519165,0.10205086320638657,-0.2994089126586914,-0.04696843773126602,0.21639995276927948,-0.16638459265232086,-0.06393030285835266,-0.11287236213684082,-0.08587181568145752,0.07311410456895828,-0.2672417461872101,-0.16414934396743774,-0.005067888647317886,-0.21231359243392944,-0.12686200439929962,0.08368515223264694,0.1559845507144928,-0.21562975645065308,-0.28055742383003235,-0.09397415816783905,0.1552741378545761,-0.30248719453811646,0.031904082745313644,-0.22438755631446838,-0.20891916751861572,-0.431636780500412,-0.35266512632369995,0.047891341149806976,-0.07156556844711304,0.04341748356819153,-0.018556928262114525,-0.14112438261508942,0.21887226402759552,-0.18309009075164795,0.07131306082010269,0.08505337685346603,-0.02475157007575035,-0.16354520618915558,-0.13600879907608032,0.154600590467453,0.10084223747253418,-0.11957277357578278,0.11465884000062943,0.07448967546224594,0.2202012985944748,0.24130091071128845],[0.137767493724823,0.3126688599586487,-0.008610698394477367,-0.1129210963845253,-0.3532947897911072,0.09877706319093704,0.008900213986635208,-0.08988361805677414,0.33603543043136597,0.12060458213090897,0.12941181659698486,0.023414652794599533,0.15482693910598755,0.05673979967832565,0.15963956713676453,0.022716807201504707,0.21157535910606384,-0.06660762429237366,-0.2725915014743805,-0.34441235661506653,-0.052655261009931564,-0.34165552258491516,-0.07735205441713333,-0.15995727479457855,-0.17088556289672852,0.03402623161673546,-0.019173040986061096,0.018091032281517982,-0.09198997914791107,-0.18942716717720032,-0.03200284391641617,0.0019041799241676927,0.18732082843780518,-0.32927852869033813,-0.04443185403943062,0.061455633491277695,-0.21827250719070435,-0.11300170421600342,-0.01720403879880905,-0.05583913251757622,0.06333830952644348,0.05870148912072182,-0.09664278477430344,-0.10254162549972534,0.26169872283935547,0.033447492867708206,-0.04605096951127052,0.00732462527230382,0.06290142238140106,0.18221072852611542,-0.5257797837257385,0.31067711114883423,-0.08151789009571075,-0.11001574248075485,-0.05958367511630058,-0.1953747570514679,0.06852857023477554,-0.10802756994962692,-0.11368998140096664,-0.3848058581352234,0.04143896326422691,0.12466149032115936,-0.30727049708366394,0.10918140411376953,-0.26078149676322937,0.06569413095712662,-0.15561233460903168,-0.14159390330314636,-0.41516387462615967,-0.003346220590174198,0.185003399848938,0.018747959285974503,-0.15211251378059387,-0.2520529627799988,-0.22017881274223328,-0.36551275849342346,-0.2228744477033615,-0.2730526626110077,0.13010713458061218,0.18973159790039062,-0.12227339297533035,-0.3244224786758423,-0.12092596292495728,-0.0885673314332962,-0.11412622779607773,-0.1868484616279602,0.15197128057479858,-0.24666433036327362,0.02185106836259365,0.10317321121692657,-0.03389135003089905,-0.051303427666425705,0.20497006177902222,0.040730707347393036,-0.14406469464302063,-0.06356450915336609,-0.26484665274620056,-0.37668535113334656,-0.04672996699810028,-0.08591895550489426,-0.34035882353782654,-0.12636661529541016,-0.2988682985305786,-0.11821162700653076,0.03343648090958595,0.19525189697742462,-0.03191765770316124,-0.1300530731678009,0.1023487001657486,-0.10794484615325928,0.0604495145380497,0.1327325850725174,-0.11283785849809647,0.03471177816390991,-0.1249445229768753,-0.11243997514247894,0.0157004427164793,0.021324774250388145,-0.07924745231866837,-0.2595472037792206,-0.2726093530654907,0.08993574231863022,-0.04957232624292374,-0.4479014277458191,0.12505316734313965,-0.07495824247598648,0.2628844678401947,-0.16158656775951385,-0.12752766907215118,-0.3110201358795166,-0.016627630218863487,0.16062183678150177,0.09769906848669052,-0.13838578760623932,-0.35805022716522217,0.08477194607257843,-0.007652783300727606,-0.33736348152160645,-0.17454013228416443,-0.08782129734754562,-0.21315447986125946,0.09261133521795273,0.11968862265348434,0.16243895888328552,-0.09613647311925888,-0.4354586601257324,-0.3673895597457886,-0.1979924589395523,-0.09008148312568665,0.002208755584433675,0.04099384695291519,-0.057099681347608566,-0.005146974232047796,-0.15052005648612976,0.1388283222913742,-0.052539486438035965,0.08015923947095871,-0.25739091634750366,-0.13729320466518402,-0.37227147817611694,0.0510556623339653,-0.06849217414855957,0.04812838137149811,0.11253131926059723,-0.021551059558987617,0.2434321790933609,-0.22246983647346497,-0.179441437125206,0.02532374858856201,0.03916599974036217,-0.024432672187685966,-0.1138005405664444,-0.09333864599466324,-0.17500250041484833,-0.26415249705314636,0.12566009163856506,0.2261170893907547,-0.041691988706588745,-0.3446865379810333,0.07855501025915146,-0.02327599935233593,-0.1453062742948532,0.030909650027751923,-0.5196772217750549,0.06764726340770721,-0.05502454563975334,-0.217295303940773,-0.1359255164861679,-0.16507433354854584,0.42800015211105347,-0.18809683620929718,-0.3078838884830475,-0.2086949497461319,-0.10878439247608185,0.028313161805272102,0.04789814352989197,-0.038923364132642746,-0.027407022193074226,-0.10371700674295425,-0.1868564337491989,0.46783530712127686,0.14608635008335114,-0.010409935377538204,-0.07823783904314041,0.01355388667434454,-0.016295336186885834,0.054938703775405884,0.050850968807935715,0.05139222741127014,-0.0047430251725018024,0.14970248937606812,-0.45042210817337036,-0.07022283226251602,-0.03636175021529198,-0.0848187655210495,-0.011855948716402054,0.03436265140771866,-0.21602170169353485,-0.15241685509681702,0.4801476299762726,0.027277354151010513,0.3183705508708954,-0.13978944718837738,0.01416191179305315,0.02372860722243786,-0.08720903098583221,-0.03857078030705452,-0.26414769887924194,-0.06842471659183502,0.1318848431110382,-0.0733243003487587,-0.26156285405158997,0.11356373131275177,-0.3972529172897339,-0.3988906145095825,0.046236392110586166,0.04604451730847359,0.12012491375207901,-0.02829388715326786,0.09417710453271866,0.19079306721687317,-0.2279035449028015,-0.1846686452627182,0.14013470709323883,0.02561808191239834,-0.1784951239824295,-0.4073207974433899,-0.012688707560300827,-0.15877965092658997,0.09538790583610535,-0.17066164314746857,-0.11247193068265915,-0.05310358479619026,0.2517326772212982,-0.26130375266075134,0.11288383603096008],[0.02648960053920746,0.19728155434131622,-0.09206431359052658,0.17681720852851868,-0.01667461171746254,-0.07364524900913239,0.2805214822292328,-0.05558069795370102,-0.17721247673034668,-0.12277379631996155,-0.13011813163757324,0.21295398473739624,0.05027399957180023,-0.21738864481449127,-0.2257794588804245,-0.23825983703136444,-0.018497411161661148,-0.13723385334014893,-0.21978291869163513,0.09732257574796677,0.12041359394788742,0.0988212302327156,-0.1351391226053238,0.16209973394870758,-0.021741697564721107,0.05521658435463905,-0.010789856314659119,-0.12209189683198929,0.11968614161014557,-0.030696995556354523,-0.18461310863494873,0.29035937786102295,-0.10048352181911469,0.16819699108600616,0.04389939829707146,-0.18507616221904755,-0.07049678266048431,0.047927431762218475,-0.15011641383171082,-0.2105354219675064,0.0392579548060894,-0.36367377638816833,-0.10580471903085709,0.1396503746509552,-0.11008791625499725,-0.30629920959472656,-0.08260922878980637,-0.27078714966773987,-0.3035620450973511,0.05755142495036125,-0.1726311594247818,0.23054470121860504,0.04547141119837761,-0.40010708570480347,-0.16798755526542664,0.15481507778167725,-0.31540295481681824,0.20693841576576233,-0.12241972237825394,0.44668006896972656,0.0988534539937973,0.10200178623199463,0.007271436043083668,-0.027728112414479256,0.28105148673057556,0.03919236361980438,0.17868006229400635,-0.07175259292125702,0.20996208488941193,-0.2787973880767822,-0.0808979868888855,-0.12222965806722641,0.1919899731874466,-0.48370814323425293,0.020515477284789085,-0.09215323626995087,-0.2706259787082672,-0.13323263823986053,0.08611256629228592,-0.23134590685367584,0.004109020344913006,-0.09454803168773651,-0.02724052593111992,-0.018614349886775017,-0.35629114508628845,0.054808326065540314,-0.4418811798095703,0.026902668178081512,-0.27814069390296936,-0.040894147008657455,-0.04542725905776024,0.17770081758499146,0.14742495119571686,0.12732826173305511,0.37489134073257446,-0.2272036224603653,-0.20753775537014008,-0.035746991634368896,0.29090937972068787,-0.4809838831424713,0.06669411063194275,-0.09105571359395981,-0.18101945519447327,-0.18109910190105438,-0.13554349541664124,0.18855002522468567,0.40019068121910095,-0.2904735803604126,0.3613688349723816,0.027087604627013206,-0.3163285553455353,0.07326484471559525,-0.23011033236980438,-0.4602135717868805,0.16311047971248627,-0.26540154218673706,-0.1302887350320816,0.1485062837600708,-0.11036738753318787,-0.26297229528427124,-0.11035429686307907,-0.050019945949316025,0.05298444628715515,-0.39972585439682007,-0.010951949283480644,0.18324650824069977,0.00816818606108427,0.10124916583299637,-0.2401820421218872,-0.035216204822063446,-0.32888099551200867,-0.06866448372602463,-0.1689998060464859,-0.1270616054534912,-0.011053528636693954,-0.08752662688493729,0.020905273035168648,0.020611539483070374,-0.045354656875133514,0.05444105714559555,0.03506315499544144,0.27760735154151917,0.38035818934440613,-0.025735776871442795,0.06166747212409973,0.041991688311100006,-0.15599338710308075,-0.0793328806757927,-0.22374871373176575,-0.1369527280330658,-0.10779227316379547,0.09130272269248962,-0.13698925077915192,-0.24114836752414703,-0.27247923612594604,0.08637429028749466,-0.2610059976577759,-0.11686506867408752,0.07660622149705887,-0.2601720690727234,-0.2621200382709503,-0.061405014246702194,-0.009704913944005966,-0.05516442283987999,-0.3664575517177582,0.03930668905377388,-0.06667336821556091,0.0765051543712616,-0.04109591245651245,0.18675382435321808,0.24653102457523346,-0.025095006451010704,0.09987775981426239,-0.1349656879901886,-0.26548969745635986,-0.1063477098941803,0.04118204861879349,0.04341765493154526,-0.14339007437229156,-0.3249097466468811,0.34736400842666626,-0.22885650396347046,-0.2275610715150833,-0.2128141075372696,0.11004015803337097,0.14793117344379425,-0.4369441270828247,-0.14945121109485626,0.2161131501197815,-0.4876018166542053,-0.07940009236335754,0.27269789576530457,-0.05635180324316025,0.2636670470237732,-0.016014069318771362,-0.058295316994190216,0.14593227207660675,-0.23340706527233124,0.27934303879737854,-0.00571482302621007,0.09924820810556412,-0.46010372042655945,0.0588931180536747,-0.006375165656208992,-0.12313101440668106,-0.24894803762435913,-0.05584493651986122,-0.02336188778281212,-0.1416640430688858,-0.036708854138851166,-0.09713218361139297,-0.12555404007434845,-0.26815319061279297,-0.09067708998918533,0.17250414192676544,-0.1506623923778534,-0.30242010951042175,0.03062514215707779,-0.20710869133472443,0.18712086975574493,-0.30095601081848145,-0.17142248153686523,-0.047462549060583115,0.05375836044549942,-0.16092488169670105,0.14616994559764862,-0.08434325456619263,-0.2242032140493393,0.1370779275894165,0.16693532466888428,-0.29291942715644836,0.01180256251245737,-0.25558337569236755,0.08208752423524857,-0.006695322692394257,0.011026543565094471,-0.02404649555683136,-0.09194804728031158,0.2020198553800583,-0.03406037017703056,0.1397193819284439,-0.04790516942739487,-0.18588513135910034,-0.43413352966308594,0.29557693004608154,-0.2415560632944107,0.003229175228625536,-0.2508777678012848,-0.21586275100708008,0.19761937856674194,-0.06314362585544586,0.09013327211141586,0.2748464345932007,-0.29725149273872375,0.1899939924478531,0.17721974849700928],[-0.5180054903030396,0.12708163261413574,-0.16326458752155304,-0.24151286482810974,0.14611972868442535,-0.16691376268863678,-0.09583475440740585,0.0946590006351471,-0.028208045288920403,-0.13863985240459442,-0.25377193093299866,0.1303873211145401,-0.03894837945699692,-0.17493104934692383,-0.15772321820259094,0.25951501727104187,-0.06938105076551437,-0.2727546691894531,-0.19437435269355774,-0.30708155035972595,-0.2888012230396271,-0.1459161788225174,0.11837954074144363,-0.4940686821937561,-0.08704940229654312,-0.0628138855099678,0.022708049044013023,0.2679620683193207,0.006194679066538811,-0.29130351543426514,0.15100979804992676,-0.025202881544828415,-0.09942248463630676,0.30621176958084106,-0.11081579327583313,-0.10933971405029297,-0.08854697644710541,0.16368544101715088,-0.05393081158399582,-0.1351955682039261,-0.4079887270927429,-0.09282142668962479,-0.1570553481578827,-0.20174486935138702,0.07083719968795776,0.18847642838954926,0.0887269377708435,0.005228764843195677,-0.3427181839942932,0.1066831573843956,-0.09207194298505783,-0.0657147616147995,0.043602149933576584,-0.36168262362480164,-0.021653104573488235,0.037032634019851685,-0.2007436901330948,-0.2594662606716156,-0.07118821889162064,-0.17809447646141052,0.01784098707139492,-0.0452163927257061,-0.10041236132383347,-0.33881086111068726,-0.20505297183990479,0.20716486871242523,0.033297277987003326,-0.2522055506706238,0.15193475782871246,-0.26388368010520935,0.011947019957005978,-0.27396202087402344,-0.5233811736106873,-0.1706000417470932,0.15354420244693756,-0.18911118805408478,-0.2732263207435608,-0.04431217163801193,0.09036409854888916,0.36677631735801697,-0.05149604007601738,-0.321773499250412,-0.24899278581142426,0.24647295475006104,0.00023659980797674507,-0.40422025322914124,-0.07783043384552002,-0.12311872839927673,-0.10065163671970367,-0.0659690871834755,-0.07757989317178726,0.040158264338970184,-0.28886058926582336,-0.24432633817195892,-0.07241348922252655,-0.12191050499677658,-0.08912582695484161,-0.22762762010097504,-0.3848174810409546,-0.25202691555023193,0.23527128994464874,-0.12807415425777435,0.36591240763664246,0.11492554098367691,0.018223900347948074,-0.1730775386095047,0.09983675181865692,-0.06609518826007843,0.09487144649028778,-0.09730943292379379,0.034184157848358154,0.047889240086078644,0.19113455712795258,0.2683069407939911,-0.13758765161037445,-0.03480076417326927,0.10049844533205032,0.127478688955307,-0.04607207328081131,-0.14904244244098663,0.21180346608161926,0.37123996019363403,-0.07064533233642578,-0.15586452186107635,-0.14278768002986908,-0.1436702311038971,-0.12133857607841492,-0.21954578161239624,0.040197014808654785,0.0029662512242794037,-0.00673010665923357,-0.050934597849845886,-0.024783359840512276,0.14683136343955994,-0.016084477305412292,0.10691416263580322,-0.15152360498905182,-0.044740453362464905,-0.1097845584154129,-0.004439067095518112,-0.2923045754432678,-0.06061728671193123,0.26025256514549255,-0.11879609525203705,-0.28157472610473633,-0.321135938167572,0.33099302649497986,0.08152250945568085,-0.10916325449943542,0.4332079291343689,-0.3280334174633026,-0.05277574434876442,-0.5763745307922363,-0.15852588415145874,-0.009834703989326954,-0.20107492804527283,-0.341283917427063,0.013096507638692856,0.2116638720035553,-0.21231910586357117,0.20123645663261414,-0.0939248651266098,-0.05785290524363518,-0.01830022782087326,-0.009512833319604397,-0.22764155268669128,-0.09046229720115662,0.13656499981880188,-0.16510450839996338,-0.2016502171754837,-0.17626385390758514,-0.17782315611839294,0.10609548538923264,0.22409304976463318,0.23893550038337708,-0.000710655702278018,-0.18110962212085724,-0.050053127110004425,0.2571990191936493,0.0964127629995346,-0.15146932005882263,0.10880542546510696,-0.050242334604263306,-0.056387681514024734,-0.1332099735736847,-0.2518635392189026,0.07608006149530411,0.2989483177661896,-0.5186910629272461,-0.023880822584033012,-0.20438577234745026,-0.0911230817437172,-0.14230979979038239,-0.2446155697107315,-0.09086606651544571,-0.23895801603794098,-0.07845088094472885,-0.11121587455272675,-0.12435560673475266,-0.1871528923511505,-0.05321979522705078,-0.08051743358373642,-0.4985826015472412,0.0003868814674206078,0.1735287457704544,-0.07492098212242126,-0.15099486708641052,-0.02649465762078762,0.006833021529018879,-0.34665071964263916,-0.34485042095184326,-0.01221392396837473,0.1455853134393692,-0.05368364229798317,0.051484279334545135,-0.20647969841957092,-0.25638797879219055,0.07917546480894089,-0.06196511536836624,-0.32023435831069946,-0.17382560670375824,-0.2511398196220398,0.009792419150471687,0.17570601403713226,-0.2332959920167923,-0.14118602871894836,0.2965282201766968,-0.15898193418979645,-0.09869012236595154,-0.22607125341892242,-0.020187078043818474,0.019651060923933983,-0.0815231129527092,-0.10250449925661087,0.40962380170822144,-0.003377373795956373,0.3021131157875061,0.006443996913731098,0.14140163362026215,-0.14471399784088135,-0.37530550360679626,-0.39973312616348267,-0.09971696883440018,0.05266477167606354,-0.40872737765312195,-0.1991295963525772,-0.09968233853578568,0.003300249110907316,-0.33016660809516907,0.034732915461063385,0.007638418581336737,-0.24000534415245056,0.2596622705459595,0.1210031658411026,-0.17427638173103333,0.23305745422840118],[-0.19063080847263336,-0.20098751783370972,-0.12670046091079712,0.035559434443712234,-0.16202086210250854,-0.1107608899474144,-0.10095930844545364,0.07034841924905777,0.4364933371543884,-0.1885039359331131,-0.111847423017025,0.3414645493030548,-0.12149748206138611,-0.2762618064880371,-0.15855513513088226,-0.3895540237426758,-0.01753605529665947,-0.0999494194984436,0.05514940619468689,-0.22331474721431732,-0.2400795966386795,-0.1667816936969757,-0.0633373111486435,0.1694399118423462,-0.03811647370457649,-0.23890206217765808,-0.16160620748996735,-0.144504114985466,-0.19087271392345428,-0.036176521331071854,-0.1324780434370041,-0.06618082523345947,-0.18826335668563843,-0.06698165088891983,-0.03189866989850998,0.22372978925704956,-0.1359328031539917,-0.2296823412179947,0.03902751952409744,0.3351972699165344,0.10725882649421692,0.35763049125671387,0.0829068124294281,-0.21677646040916443,-0.2837764620780945,0.11672476679086685,0.18006686866283417,-0.28949618339538574,-0.055009569972753525,-0.08162874728441238,-0.23488032817840576,0.2070714682340622,0.1902104765176773,-0.03923387825489044,-0.1545408070087433,0.3716825544834137,-0.15887944400310516,-0.2960904538631439,-0.09917811304330826,-0.24792005121707916,-0.028961919248104095,-0.12678340077400208,-0.13663171231746674,0.1633041352033615,-0.03931260481476784,-0.14082488417625427,-0.39929941296577454,-0.20320086181163788,-0.16272826492786407,-0.0793217197060585,-0.04879625141620636,-0.10581766813993454,-0.0768926665186882,-0.23921871185302734,0.3260321021080017,0.08158194273710251,-0.0572226345539093,0.03008820116519928,-0.20276270806789398,0.16403454542160034,-0.2557210624217987,0.053129203617572784,0.22093698382377625,-0.17399245500564575,-0.08656090497970581,0.045224640518426895,0.14197325706481934,-0.32595986127853394,-0.06144975125789642,0.15523676574230194,-0.03059149906039238,0.042156051844358444,0.0868295282125473,0.08904349058866501,-0.39453527331352234,-0.07270508259534836,-0.12912768125534058,0.020247042179107666,0.060556989163160324,0.25522854924201965,-0.09307201206684113,0.2971305549144745,-0.368465393781662,0.085658960044384,0.30045250058174133,-0.27404752373695374,-0.2649540305137634,0.003534281626343727,-0.25166791677474976,-0.12251897156238556,-0.4593980014324188,-0.39811891317367554,-0.1344015747308731,-0.293613076210022,-0.2733609974384308,0.1358497440814972,-0.03780236095190048,-0.02331923320889473,-0.10573173314332962,0.23980708420276642,-0.09491147100925446,-0.23496760427951813,-0.12866970896720886,0.33179807662963867,0.0006772942142561078,-0.2582843005657196,0.004994887392967939,-0.08620039373636246,-0.19689121842384338,-0.20888426899909973,-0.024584883823990822,-0.17141717672348022,-0.0026912661269307137,-0.1757546067237854,-0.012542844749987125,-0.003827109932899475,-0.05874580889940262,-0.05110469087958336,0.09836352616548538,-0.27634042501449585,-0.03538186475634575,-0.0570208840072155,-0.3660053610801697,-0.04624473676085472,-0.14251552522182465,-0.027602894231677055,-0.17886951565742493,-0.2708517014980316,-0.20566318929195404,-0.11115984618663788,-0.17934560775756836,-0.19046109914779663,0.189214289188385,0.023737939074635506,0.30097973346710205,-0.26200419664382935,0.09052246063947678,-0.2240656614303589,-0.07027322053909302,0.04162478819489479,0.026330575346946716,-0.370894193649292,0.024542689323425293,0.20216618478298187,-0.32870006561279297,-0.008555456064641476,0.19917064905166626,0.11061687767505646,-0.13592538237571716,-0.2477445751428604,-0.08953243494033813,0.43915727734565735,0.18229934573173523,0.23255299031734467,-0.1837495118379593,-0.6073862910270691,-0.18443647027015686,-0.20353713631629944,-0.2394603192806244,-0.6449212431907654,-0.382831335067749,0.0349373035132885,-0.093877412378788,-0.22870026528835297,0.06107434257864952,0.17505311965942383,-0.12205855548381805,-0.2722931504249573,-0.04354388639330864,0.27907219529151917,0.04436871036887169,0.21679550409317017,-0.15819300711154938,0.17293399572372437,0.23662471771240234,0.2209332138299942,-0.20383943617343903,-0.08777284622192383,-0.15688656270503998,-0.0795329362154007,-0.2325850874185562,0.1302531510591507,0.16410957276821136,0.05485319346189499,-0.2934234142303467,0.06335362792015076,0.12629643082618713,-0.14450885355472565,0.06434570252895355,-0.14627030491828918,-0.1861754059791565,-0.010595828294754028,0.1870799958705902,-0.24466827511787415,0.25017887353897095,0.03458328917622566,0.08847856521606445,0.32443055510520935,-0.004165080841630697,0.21833166480064392,-0.23816166818141937,-0.030874961987137794,0.22914177179336548,0.04358875751495361,-0.05969269573688507,-0.29750514030456543,-0.05406348034739494,0.1617419272661209,0.2456437200307846,-0.16997821629047394,0.09337855130434036,-0.03200242668390274,0.42541012167930603,-0.08047693967819214,0.18641424179077148,0.12194231152534485,-0.3392476439476013,0.10518567264080048,-0.005565868224948645,-0.26501595973968506,-0.3010695278644562,0.212808758020401,-0.3352530300617218,0.041843231767416,-0.029734903946518898,0.086319200694561,-0.09203668683767319,-0.23634301126003265,-0.22716686129570007,-0.30901676416397095,0.0717243179678917,-0.15250445902347565,-0.31168293952941895,-0.13045214116573334,-0.2606510818004608,0.002016834681853652],[-0.06609436124563217,-0.10327085107564926,-0.11038146913051605,0.15869390964508057,0.011216015554964542,0.0003342653508298099,-0.07173553854227066,0.49336645007133484,-0.005469720810651779,-0.2511810064315796,-0.30900809168815613,-0.08547782152891159,-0.17539526522159576,0.16039149463176727,0.13973243534564972,0.1064257100224495,-0.06556405127048492,0.08126337081193924,-0.08254288136959076,0.18877382576465607,0.08555727452039719,-0.2608624994754791,-0.17039820551872253,0.27490657567977905,-0.13363796472549438,-0.13200004398822784,-0.00864711869508028,-0.19851930439472198,-0.2639895975589752,0.36284640431404114,0.05035825073719025,0.183349147439003,-0.18694058060646057,0.0004340967570897192,-0.06535952538251877,0.006222857628017664,-0.038070932030677795,0.011059002950787544,0.007234383840113878,-0.10180007666349411,-0.2359102964401245,0.1448887288570404,-0.179048553109169,-0.010320552624762058,0.026350101456046104,-0.3383689820766449,-0.12451742589473724,-0.0855141133069992,0.10496601462364197,-0.4418787360191345,-0.4462644159793854,-0.07520610839128494,0.061930976808071136,-0.16605623066425323,-0.24216844141483307,-0.17581598460674286,-0.02807772532105446,0.2722737193107605,0.0005880252574570477,-0.4399397671222687,-0.16839005053043365,0.11179004609584808,-0.29216018319129944,-0.34979575872421265,-0.050776321440935135,-0.3627486824989319,-0.10956201702356339,-0.1200036033987999,-0.14451192319393158,-0.4241641163825989,-0.24166928231716156,0.13855654001235962,-0.14641660451889038,-0.19754089415073395,0.16211314499378204,-0.020340709015727043,-0.40014591813087463,0.16898320615291595,0.14411763846874237,-0.15629011392593384,0.0614095963537693,-0.16732943058013916,0.00780660891905427,0.06776153296232224,-0.03168245032429695,-0.2777148187160492,-0.05395597964525223,0.1448853462934494,-0.47354018688201904,-0.012036727741360664,-0.16857852041721344,-0.19140060245990753,-0.009121042676270008,-0.14764517545700073,-0.37084507942199707,0.01182809378951788,0.1165197417140007,-0.35575446486473083,-0.15989577770233154,-0.2048693746328354,0.023326236754655838,-0.3552960455417633,-0.17665539681911469,0.16090504825115204,-0.04273927956819534,-0.2242845892906189,0.11719494313001633,0.2756887376308441,-0.024879613891243935,-0.010203449055552483,0.00032038966310210526,0.0832289308309555,-0.1327698677778244,0.03831522539258003,0.0117660416290164,-0.36922580003738403,-0.013469686731696129,-0.245151549577713,-0.03373831883072853,-0.07069076597690582,-0.03718830645084381,-0.21922284364700317,-0.04837438464164734,-0.06295280158519745,-0.05237938091158867,-0.10738252848386765,0.01288481056690216,0.016144145280122757,0.00933149829506874,-0.0292667169123888,-0.25520482659339905,-0.3983986973762512,-0.4685051441192627,-0.10530215501785278,-0.05121574550867081,-0.04133394733071327,-0.41920724511146545,-0.2162970006465912,0.13901221752166748,-0.03663598746061325,-0.37048208713531494,0.13059544563293457,-0.09185944497585297,-0.20310187339782715,-0.00840955413877964,0.15818440914154053,0.11269313842058182,-0.2747144401073456,0.09436580538749695,-0.06437293440103531,0.15503308176994324,-0.16127899289131165,0.08636188507080078,-0.17111147940158844,0.03445899859070778,-0.19619759917259216,-0.19028209149837494,-0.1464863419532776,-0.054576825350522995,0.12578889727592468,-0.17004108428955078,0.2914395034313202,0.08542771637439728,-0.1722530871629715,-0.16028323769569397,-0.07225274294614792,0.2922309935092926,-0.09461334347724915,-0.22326728701591492,-0.2898894250392914,-0.1844218671321869,-0.20897097885608673,0.21500584483146667,0.06514545530080795,-0.39807644486427307,0.015198910608887672,-0.115155428647995,-0.11564093083143234,-0.026608377695083618,0.0002874584752134979,-0.0708315372467041,-0.095879465341568,0.1687091439962387,-0.014853929169476032,0.2323683649301529,-0.1050267443060875,-0.36196476221084595,0.08379354327917099,-0.07892599701881409,-0.2796071767807007,0.12293843924999237,0.010330148041248322,0.2820156514644623,0.15511390566825867,0.34283706545829773,-0.19227027893066406,-0.16058842837810516,0.05198783427476883,-0.18355590105056763,-0.11720184236764908,0.08383280783891678,0.012866958044469357,-0.21341365575790405,-0.043250713497400284,-0.22548933327198029,-0.29157498478889465,-0.06307943165302277,0.11551862210035324,0.15418913960456848,-0.14430755376815796,-0.1218414232134819,-0.037007853388786316,-0.13239948451519012,0.2564344108104706,0.1439138948917389,0.021430937573313713,-0.10237597674131393,-0.05212673544883728,0.010017036460340023,-0.2565610408782959,-0.06482376903295517,0.05972222983837128,-0.39691731333732605,-0.178938090801239,-0.19207267463207245,-0.1308213174343109,-0.08550398051738739,0.35313746333122253,0.17072294652462006,0.027104677632451057,-0.15139958262443542,-0.062330424785614014,-0.06553017348051071,0.1727972775697708,-0.3003517687320709,-0.24327249825000763,-0.10303492844104767,0.24187806248664856,0.03570650890469551,0.154274582862854,-0.25507238507270813,0.10776274651288986,-0.01681261509656906,-0.1708689033985138,-0.06619290262460709,0.11567678302526474,-0.1311173439025879,-0.1869584172964096,0.0465007945895195,0.4773337244987488,-0.08370134234428406,0.04125618562102318,0.09138232469558716,-0.09186214953660965,-0.11997835338115692,-0.07737860083580017],[-0.28438666462898254,0.12528641521930695,-0.14246109127998352,0.05482330545783043,-0.2511812746524811,-0.18629641830921173,-0.2485208660364151,-0.005634536501020193,-0.2702598571777344,-0.08329923450946808,-0.08484507352113724,-0.05144604668021202,-0.022114118561148643,-0.14904923737049103,-0.34460723400115967,-0.06210356950759888,0.05657847225666046,-0.07820180803537369,0.24672327935695648,-0.11524080485105515,-0.11496627330780029,-0.18062981963157654,-0.021834103390574455,0.028040500357747078,-0.019056467339396477,-0.0797366350889206,-0.09300434589385986,0.2871917486190796,0.16357460618019104,0.023852581158280373,-0.42439162731170654,-0.023954156786203384,0.04407418519258499,0.21028269827365875,0.19996100664138794,0.04540054127573967,0.05112159624695778,-0.26712721586227417,-0.0808982327580452,0.14967191219329834,-0.012414040975272655,-0.08974304795265198,-0.42007702589035034,-0.19247479736804962,-0.3775545358657837,-0.18730293214321136,0.08864893764257431,-0.2728489935398102,-0.10610602051019669,0.2664877474308014,-0.2512390911579132,0.1425292193889618,-0.047227613627910614,-0.17801035940647125,0.07212329655885696,0.053596556186676025,0.07033011317253113,-0.01837432011961937,-0.07102084159851074,-0.0674908459186554,-0.07226007431745529,-0.26214468479156494,-0.09697393327951431,-0.16669012606143951,-0.13595961034297943,0.0337555930018425,0.07802111655473709,-0.009288618341088295,-0.18426045775413513,-0.13235843181610107,0.07137706130743027,-0.11826658248901367,-0.049814965575933456,-0.20096591114997864,-0.05207301303744316,-0.29084932804107666,-0.03611907362937927,0.2311093509197235,0.03556254506111145,0.12650328874588013,0.041316792368888855,-0.23197340965270996,-0.006326149683445692,-0.054223041981458664,-0.10150095820426941,-0.06011712923645973,-0.17828606069087982,0.17363087832927704,-0.13875961303710938,-0.17225833237171173,0.05443616583943367,0.07558712363243103,0.059449758380651474,0.03701269254088402,0.011921274475753307,-0.004462315235286951,0.05022368207573891,-0.20195795595645905,-0.3095499575138092,-0.06389478594064713,-0.09140800684690475,-0.3405349552631378,0.20977433025836945,-0.04945418983697891,-0.09839247912168503,-0.07618160545825958,0.0009942440083250403,0.08911806344985962,-0.02668978087604046,0.10670381039381027,-0.056054774671792984,-0.21960824728012085,-0.1391647756099701,-0.09250812977552414,-0.023045549169182777,-0.00981962587684393,0.2634108066558838,-0.21788887679576874,0.08154673129320145,-0.05578184127807617,-0.08466918766498566,-0.22399409115314484,0.03906722739338875,-0.012837013229727745,0.038543250411748886,-0.17330802977085114,-0.318625271320343,-0.08640465140342712,-0.014234955422580242,0.03518320620059967,-0.2327938824892044,-0.010685435496270657,0.2921929657459259,0.25363340973854065,-0.11604244261980057,-0.1448289453983307,-0.1479700207710266,-0.13550591468811035,0.18484117090702057,0.07068029046058655,0.1593308001756668,-0.13905686140060425,-0.1283808946609497,-0.1625947803258896,-0.044235095381736755,-0.2480335831642151,0.10221908241510391,-0.17609983682632446,0.06652412563562393,-0.1006605327129364,-0.05736737325787544,-0.09886610507965088,-0.2013726532459259,0.3258422911167145,0.09314367175102234,-0.2506210207939148,0.09865347295999527,-0.0026394824963063,-0.0725633054971695,0.03838960826396942,-0.16662098467350006,-0.06133274361491203,-0.052001677453517914,-0.047514643520116806,-0.09433777630329132,0.21981669962406158,0.07675051689147949,-0.21740619838237762,0.09342227876186371,0.06446188688278198,-0.014706898480653763,-0.3123698830604553,-0.036635395139455795,-0.33556848764419556,0.1792040765285492,-0.016243061050772667,0.07692347466945648,0.20006974041461945,0.029618283733725548,-0.06467834115028381,-0.1637948751449585,-0.17394714057445526,-0.12288626283407211,-0.24315066635608673,0.10261699557304382,0.16073784232139587,-0.4045943021774292,-0.15466204285621643,0.047137029469013214,-0.144405797123909,0.09780275076627731,-0.1516978144645691,0.08263929188251495,-0.16196605563163757,-0.003639662405475974,0.009937193244695663,-0.08899012207984924,0.12623031437397003,-0.19301986694335938,-0.12036515772342682,0.029789859429001808,0.028885917738080025,0.06448546797037125,0.05186742544174194,0.30339959263801575,-0.16972284018993378,-0.08678439259529114,-0.13465425372123718,-0.29839813709259033,-0.015493972226977348,-0.08367694169282913,0.1306275725364685,-0.25009089708328247,-0.09216764569282532,-0.34316250681877136,-0.14702358841896057,-0.2736552357673645,-0.26748186349868774,-0.015921395272016525,-0.3625733554363251,-0.26719537377357483,-0.11592882126569748,-0.11845782399177551,-0.228180930018425,0.038663219660520554,-0.29273760318756104,-0.08998652547597885,0.09100045263767242,0.25497883558273315,-0.3600682020187378,-0.11954879760742188,-0.08567140996456146,-0.04204168543219566,-0.09274132549762726,0.4087977409362793,0.010788637213408947,-0.4175370931625366,0.04966234415769577,-0.17456182837486267,-0.47065845131874084,0.2566528022289276,-0.07860817760229111,-0.10339128226041794,-0.05870261415839195,-0.004965385887771845,-0.1390376091003418,-0.0435219444334507,0.11348367482423782,-0.18034692108631134,-0.1525619775056839,-0.027618439868092537,0.26840201020240784,-0.09299296140670776,0.0031638217624276876,0.027716344222426414,-0.013704044744372368],[-0.3047720491886139,0.06831935048103333,0.033712778240442276,-0.12988053262233734,-0.07671099901199341,-0.13035452365875244,-0.18343554437160492,-0.08192484080791473,0.22875486314296722,0.11187977343797684,-0.22245056927204132,0.233646422624588,0.22184380888938904,0.020934758707880974,0.06642432510852814,-0.03983675315976143,0.05301067978143692,0.13025349378585815,0.025516148656606674,0.06053859367966652,-0.13440895080566406,-0.12387308478355408,0.08518029749393463,0.009611677378416061,0.10554143041372299,0.0040473053231835365,0.15833115577697754,-0.4508460760116577,0.09750630706548691,-0.42799919843673706,0.045644454658031464,-0.026025086641311646,-0.03519739210605621,0.2190183848142624,-0.07776850461959839,0.030155161395668983,-0.055653560906648636,-0.20257705450057983,0.025572767481207848,-0.04969244822859764,-0.05988731607794762,-0.6036768555641174,-0.2593781650066376,0.2739223837852478,-0.2141844928264618,0.10785806179046631,0.16761748492717743,-0.22100578248500824,0.15203635394573212,0.04967629164457321,0.013284203596413136,-0.2054939568042755,-0.20394296944141388,-0.0037938549648970366,-0.06467971950769424,-0.21797248721122742,-0.14447958767414093,-0.25014808773994446,-0.01688362844288349,-0.29542237520217896,-0.04053809493780136,-0.12208539247512817,-0.2108299434185028,0.07180476933717728,-0.0003851916117127985,-0.2255721241235733,-0.12044970691204071,0.0737982988357544,-0.030016101896762848,0.03177325427532196,0.02123568207025528,0.0885249599814415,0.006685764063149691,0.06995611637830734,-0.18540546298027039,-0.3092177212238312,-0.0346689447760582,-0.005021237768232822,-0.10196828842163086,-0.06258418411016464,-0.11207245290279388,-0.01714598760008812,-0.15577109158039093,-0.03721476346254349,-0.02085721679031849,0.024580616503953934,-0.15829998254776,0.181916281580925,0.2615990936756134,-0.09484604001045227,-0.39372047781944275,-0.016595318913459778,0.015610868111252785,0.2941895127296448,0.10266374796628952,-0.31780391931533813,0.003812671173363924,-0.02531599998474121,0.052345454692840576,-0.35107871890068054,0.15527811646461487,-0.0939321368932724,-0.33685508370399475,-0.1305639147758484,0.19097955524921417,-0.06368085741996765,0.14070545136928558,-0.2614578902721405,-0.1331234574317932,-0.402812659740448,-0.024095183238387108,0.1710999608039856,0.07939422130584717,-0.07221590727567673,-0.1258057951927185,-0.09242619574069977,0.191554456949234,-0.2319778949022293,-0.15522462129592896,-0.2754034101963043,-0.05053282156586647,0.057583026587963104,0.09283825755119324,-0.022013315930962563,0.05027969554066658,-0.3045054078102112,0.058253683149814606,-0.07939209789037704,0.014481885358691216,-0.33241209387779236,0.055704351514577866,-0.024742577224969864,-0.06844198703765869,-0.25234392285346985,0.26202306151390076,-0.06574936211109161,-0.1876634657382965,0.006485398858785629,-0.005439759232103825,0.13992203772068024,-0.07815047353506088,-0.02970471978187561,0.10848778486251831,-0.05612678825855255,0.07594574987888336,0.011958623304963112,-0.030609682202339172,-0.3941492438316345,-0.07293933629989624,0.029581526294350624,0.14808867871761322,-0.012814930640161037,-0.3709260821342468,0.11041179299354553,-0.36878445744514465,-0.37001046538352966,-0.15252260863780975,-0.1704748272895813,0.002608047565445304,0.022573987022042274,-0.16992415487766266,-0.009360725060105324,-0.09816901385784149,-0.17008543014526367,0.14065858721733093,0.023483015596866608,-0.08341191709041595,0.013970634900033474,-0.0644964724779129,0.16544517874717712,0.05110500380396843,-0.13161049783229828,0.250436931848526,0.1541101485490799,-0.26255637407302856,0.13064004480838776,-0.10605302453041077,-0.23238496482372284,0.001568406238220632,0.06358180940151215,-0.09671001881361008,0.1399671733379364,0.246772900223732,-0.18242597579956055,-0.16735263168811798,0.12521694600582123,-0.06810516864061356,-0.18274468183517456,-0.26605847477912903,-0.13695012032985687,-0.08856196701526642,-0.48168864846229553,0.02521081455051899,0.14928613603115082,0.04395550116896629,0.06726788729429245,-0.1223955899477005,-0.1461952179670334,-0.3452792465686798,-0.12185705453157425,-0.23760975897312164,-0.010652679949998856,-0.1447318196296692,0.12528526782989502,-0.5696784257888794,-0.05297234654426575,-0.3528861701488495,-0.009529421105980873,-0.1749916523694992,-0.01692165806889534,-0.0910610482096672,-0.03784306347370148,0.08091938495635986,-0.015609843656420708,0.3937966227531433,-0.3034672141075134,0.183216392993927,-0.14188429713249207,-0.23000255227088928,-0.3003229796886444,0.12002499401569366,0.06457241624593735,0.14293421804904938,-0.06810281425714493,0.1442078799009323,-0.3980560004711151,0.3437707722187042,0.10300806164741516,-0.20885249972343445,-0.09007473289966583,-0.24451999366283417,-0.12487330287694931,-0.36802318692207336,0.11892107129096985,-0.03864913061261177,0.010125614702701569,-0.17477399110794067,0.0798070952296257,0.15755058825016022,0.014175428077578545,0.017180172726511955,0.01841057278215885,0.05455641821026802,-0.2231334149837494,-0.46634915471076965,-0.018553027883172035,-0.5089171528816223,0.2587343454360962,-0.2775771915912628,-0.1407112032175064,0.11080323159694672,0.07710740715265274,0.009622550569474697,0.045183341950178146,-0.16633984446525574,-0.05465766787528992],[-0.05150614306330681,0.1282789707183838,-0.0737544596195221,-0.048650991171598434,-0.29570454359054565,-0.08350813388824463,0.23343874514102936,0.11174103617668152,0.23301725089550018,-0.26599112153053284,-0.012377869337797165,-0.02668367139995098,-0.2976824939250946,0.0012762990081682801,0.33191561698913574,-0.08530313521623611,0.1729905903339386,-0.2788811922073364,-0.33001983165740967,0.049936261028051376,0.14699549973011017,0.11215151846408844,-0.1838400959968567,-0.023788465186953545,-0.25946566462516785,0.24888011813163757,-0.17533352971076965,0.17573274672031403,0.04733467474579811,-0.06306397914886475,-0.0922669842839241,0.0817546397447586,-0.13087238371372223,0.09801019728183746,0.24674949049949646,-0.13864248991012573,-0.28177833557128906,0.13348568975925446,-0.027290821075439453,-0.3383263051509857,-0.04459227994084358,-0.4210277497768402,0.044969771057367325,0.1557331383228302,0.14707453548908234,-0.2764243483543396,-0.033898163586854935,0.01974565163254738,0.15852515399456024,-0.03726350888609886,0.27656084299087524,0.20280572772026062,-0.4852162003517151,0.041202567517757416,-0.005778261460363865,0.04395737498998642,0.07336892187595367,-0.2395007312297821,0.012206843122839928,-0.29622983932495117,0.13660603761672974,-0.06431331485509872,-0.001413207035511732,-0.030740628018975258,-0.024880647659301758,0.11515451967716217,0.03340407460927963,0.26288604736328125,0.028539717197418213,0.050616972148418427,0.07902315258979797,0.11971569061279297,-0.13011397421360016,0.189905047416687,-0.0037502520717680454,-0.31764504313468933,0.08559856563806534,-0.15528874099254608,-0.09976985305547714,0.2687390148639679,0.1181684210896492,0.045804258435964584,0.0007918904302641749,-0.008433837443590164,-0.12743130326271057,0.3481718897819519,0.27906811237335205,-0.16724810004234314,0.035427190363407135,-0.18706117570400238,-0.12888391315937042,0.04252075403928757,0.10353077203035355,-0.681804358959198,0.07723623514175415,-0.11449092626571655,-0.27729907631874084,-0.25497540831565857,-0.3374267518520355,0.25315287709236145,0.013643193058669567,-0.04081827774643898,0.13513173162937164,0.122677281498909,-0.10604029893875122,-0.34267815947532654,-0.10249889642000198,-0.0978887602686882,0.3367326557636261,-0.12526993453502655,0.049407314509153366,0.0757424384355545,0.3135833442211151,-0.010929754935204983,0.05962558090686798,-0.09529204666614532,0.09930966049432755,0.14283406734466553,0.1671985685825348,-0.04739374294877052,-0.17178797721862793,-0.2063319832086563,-0.20393535494804382,0.2891128659248352,0.08552943170070648,0.05638928711414337,-0.009520274586975574,-0.04154295101761818,0.026713086292147636,-0.11192366480827332,-0.206124946475029,-0.05517158657312393,-0.02868027798831463,-0.21992285549640656,0.04724019393324852,-0.002973134396597743,0.2564448118209839,-0.07898906618356705,0.1070360392332077,0.05547270178794861,-0.16449730098247528,-0.014303423464298248,0.568303644657135,0.10184448957443237,0.039054807275533676,-0.13565704226493835,-0.09907083213329315,-0.04046411067247391,0.15110723674297333,-0.03164094686508179,-0.08307725191116333,-0.005313626956194639,-0.14224764704704285,-0.17899683117866516,-0.05734195560216904,-0.21454107761383057,0.07186960428953171,-0.458068311214447,-0.19146211445331573,0.09081307053565979,-0.06600004434585571,-0.0015373423229902983,0.05353487282991409,-0.08941583335399628,-0.024707015603780746,-0.10694459825754166,-0.13077408075332642,0.1177671030163765,-0.15689899027347565,0.10437583923339844,-0.010489006526768208,-0.1795530915260315,0.15926116704940796,0.21918587386608124,-0.14724324643611908,-0.03949319198727608,0.16683128476142883,0.21210457384586334,-0.1177845224738121,-0.3353167474269867,-0.014548461884260178,0.08956508338451385,-0.041997916996479034,-0.15553288161754608,-0.1652773916721344,-0.05362747609615326,-0.008696272037923336,-0.13403449952602386,0.13416996598243713,0.01743309758603573,0.17164693772792816,-0.27715829014778137,-0.1200142428278923,-0.016665063798427582,-0.19962576031684875,-0.1394408494234085,-0.23760029673576355,-0.06462802737951279,0.3001016080379486,-0.28610095381736755,0.15220293402671814,-0.008452251553535461,-0.14330072700977325,-0.011298284865915775,0.17416571080684662,-0.006390092428773642,-0.3327735662460327,0.1888457089662552,0.1301921308040619,-0.20517058670520782,0.2027122676372528,-0.18768560886383057,0.287395179271698,0.1440581977367401,-0.3090468645095825,0.1329362839460373,0.27955788373947144,0.030432112514972687,-0.04861923307180405,-0.12132555991411209,-0.025182440876960754,0.3107655644416809,0.054081179201602936,-0.16731004416942596,0.04912867024540901,-0.18050487339496613,0.023951757699251175,-0.27374333143234253,-0.13586784899234772,-0.062216151505708694,0.16464239358901978,0.10942967236042023,-0.19365490972995758,0.14434942603111267,0.08023177832365036,0.07187603414058685,-0.16666103899478912,-0.11781451106071472,0.037474650889635086,0.07206253707408905,-0.0987778753042221,0.1777978241443634,0.012235292233526707,0.1015143096446991,0.16985303163528442,0.0543614886701107,-0.25016871094703674,-0.1090695783495903,-0.03316235542297363,0.06684152781963348,-0.12263429164886475,-0.06007049232721329,-0.31438717246055603,-0.010201993398368359,0.05824555829167366,-0.7011269330978394],[-0.012914823368191719,-0.22586464881896973,0.12202062457799911,0.10688068717718124,0.02352442964911461,0.046355169266462326,0.08722377568483353,-0.042970724403858185,0.19455894827842712,0.07114998251199722,-0.14212003350257874,-0.16136610507965088,0.05064447596669197,0.19365355372428894,-0.07840652763843536,-0.07577160745859146,-0.17937420308589935,-0.0188131146132946,0.04426921531558037,-0.022082502022385597,0.3290475904941559,0.022116970270872116,-0.1313837766647339,-0.21120165288448334,-0.11388909071683884,-0.2519662380218506,-0.04505632817745209,-0.5697848796844482,-0.22088304162025452,-0.1150774210691452,0.020314432680606842,-0.19614753127098083,-0.27707311511039734,0.22039856016635895,0.09371457248926163,0.015399950556457043,0.3330230116844177,-0.21821698546409607,0.07022854685783386,0.1093592643737793,0.237946555018425,0.0041002994403243065,-0.17107947170734406,0.03813845291733742,-0.2046302855014801,-0.004623623564839363,-0.07164677232503891,-0.05093031004071236,-0.07974166423082352,0.21196489036083221,-0.3916277289390564,0.04979702830314636,-0.03529992327094078,-0.25126656889915466,-0.06300525367259979,0.22221386432647705,-0.002280786633491516,0.13655047118663788,-0.0995703637599945,0.2845418155193329,0.001499256701208651,0.13976691663265228,-0.07037138193845749,0.2779211401939392,-0.09083908796310425,-0.04395030811429024,0.10304103046655655,0.1285000443458557,-0.1086404025554657,-0.053003571927547455,-0.36529868841171265,-0.09742685407400131,0.00744028901681304,-0.16622710227966309,0.19388335943222046,0.023107049986720085,-0.1230757012963295,-0.007959925569593906,0.3634248971939087,0.2770315706729889,0.2145977020263672,0.007454597856849432,-0.1315031498670578,-0.06964347511529922,-0.010495733469724655,0.1657947599887848,0.05941528454422951,-0.25848209857940674,-0.29888954758644104,-0.002592823700979352,-0.02363399975001812,-0.8170391321182251,-0.1712830662727356,0.33568862080574036,-0.10279560089111328,-0.06810600310564041,0.01241415273398161,0.21332678198814392,-0.05434725061058998,-0.20289643108844757,-0.18861673772335052,-0.33498385548591614,0.09039870649576187,-0.4137076735496521,0.004816791974008083,-0.010024073533713818,-0.14346326887607574,0.24592579901218414,-0.033813606947660446,-0.06358007341623306,-0.14385248720645905,0.16916202008724213,-0.43655893206596375,-0.14454206824302673,-0.21943503618240356,-0.22971470654010773,-0.14306804537773132,-0.19139699637889862,0.25047576427459717,-0.33521902561187744,0.3508497178554535,0.18087655305862427,-0.28465187549591064,-0.024273693561553955,0.023646537214517593,-0.32522523403167725,-0.1571512073278427,-0.039903197437524796,-0.13738425076007843,0.04583382606506348,0.1356542557477951,-0.05210055038332939,0.02357153408229351,-0.23028478026390076,-0.2748853862285614,-0.17042559385299683,0.06273951381444931,-0.18580125272274017,-0.09945473819971085,-0.23286256194114685,-0.23439152538776398,0.06779977679252625,-0.15247786045074463,0.02312798611819744,-0.03165506571531296,-0.40219181776046753,-0.33808043599128723,-0.261437326669693,-0.2501866817474365,0.01476830430328846,-0.08545161038637161,-0.11700064688920975,0.18856339156627655,-0.061564311385154724,0.18283987045288086,0.04039052873849869,-0.1841728538274765,-0.154267817735672,0.04617159813642502,0.12666615843772888,-0.13640043139457703,0.08109249919652939,-0.3284726142883301,-0.030359109863638878,0.15559551119804382,-0.002349304500967264,-0.14921583235263824,-0.3209889531135559,0.08960519731044769,-0.019850099459290504,0.08239619433879852,-0.113805390894413,-0.10018538683652878,-0.005967321339994669,-0.11445492506027222,0.5435292720794678,-0.19195784628391266,0.20628879964351654,0.15825103223323822,-0.059873078018426895,-0.44419974088668823,-0.3554701805114746,-0.18689867854118347,-0.0630708858370781,-0.43659746646881104,0.05915399640798569,-0.014816070906817913,-0.17152158915996552,-0.18097573518753052,-0.4218522906303406,-0.042060013860464096,-0.11853000521659851,0.05894601717591286,-0.11940506100654602,0.26795756816864014,-0.00989851076155901,-0.10963933169841766,-0.05613265559077263,-0.03748590871691704,0.1793253868818283,0.026427147909998894,-0.3694225549697876,0.04484318941831589,-0.27136337757110596,0.0923960879445076,-0.16716957092285156,-0.16028431057929993,-0.2366567850112915,-0.12816788256168365,-0.25533631443977356,0.01854073442518711,0.11287876963615417,-0.2074269950389862,-0.06293254345655441,-0.06850571185350418,-0.023148778825998306,-0.29130759835243225,0.3084108531475067,-0.3185620903968811,-0.07390040159225464,-0.0826713889837265,-0.2688255310058594,-0.32536429166793823,0.21911759674549103,-0.20308507978916168,-0.13377131521701813,0.11968956887722015,-0.019970811903476715,-0.01586410216987133,0.1551942378282547,0.042189884930849075,0.06907722353935242,0.06023889034986496,-0.1962701678276062,-0.38984596729278564,0.06317531317472458,-0.19866050779819489,0.2320096492767334,0.024639571085572243,-0.16324514150619507,0.17388853430747986,0.19242343306541443,-0.12950894236564636,-0.16069336235523224,0.041397079825401306,0.24562948942184448,-0.14873585104942322,0.2130492925643921,-0.2383860945701599,0.07315542548894882,0.24145005643367767,0.06669267266988754,-0.006594854407012463,-0.24112795293331146,0.07632400095462799,-0.1656022071838379],[-0.09733103215694427,-0.6058377623558044,0.046446725726127625,-0.008648228831589222,-0.37394779920578003,0.155128613114357,-0.15439827740192413,-0.21155208349227905,-0.15131202340126038,0.10466465353965759,-0.09616471827030182,0.08161903917789459,0.16979090869426727,-0.10375267267227173,0.19454148411750793,0.1959734410047531,0.0012995138531550765,0.13354544341564178,-0.0860104113817215,-0.3028011620044708,0.0414346419274807,0.042704276740550995,0.32753893733024597,0.025871019810438156,0.11547218263149261,0.005581130273640156,-0.23082388937473297,-0.016998110339045525,-0.6333441734313965,0.1805950105190277,-0.14866043627262115,-0.3426859378814697,0.04112911596894264,-0.04198310896754265,0.04309289902448654,0.40707719326019287,-0.24067997932434082,-0.03747411072254181,-0.07203885912895203,0.003305805381387472,0.04570026695728302,0.27385517954826355,0.1421942561864853,0.38889506459236145,-0.12129388004541397,0.0745108351111412,0.06366916745901108,0.19521865248680115,0.005018989089876413,0.07189330458641052,-0.32237619161605835,0.19301097095012665,-0.35522401332855225,-0.10498549789190292,0.4793410003185272,-0.05477716773748398,-0.028720341622829437,0.01900331676006317,0.15997697412967682,0.021513061597943306,-0.16267848014831543,0.07940555363893509,0.12727618217468262,-0.06875322759151459,0.09019545465707779,-0.041720516979694366,0.010004296898841858,0.17562738060951233,0.001934571540914476,0.009553506970405579,0.0338512547314167,-0.05753043666481972,0.18293538689613342,-0.16104494035243988,0.31576257944107056,-0.020993683487176895,-0.025883549824357033,-0.17128702998161316,-0.14413107931613922,-0.0963025838136673,-0.19081036746501923,0.005421351175755262,-0.0055809165351092815,0.019327599555253983,-0.06085577979683876,0.08488357067108154,0.031211107969284058,0.05420111119747162,-0.16013623774051666,-0.05847473442554474,0.2181841880083084,-0.21887525916099548,0.039316609501838684,0.10576587170362473,0.30001142621040344,-0.2187570333480835,-0.2408013492822647,-0.19322241842746735,-0.2813808023929596,0.05265465006232262,-0.04420575127005577,-0.027351798489689827,-0.04419952630996704,-0.03069145232439041,0.07933375239372253,0.1508016288280487,-0.5492113828659058,0.14557406306266785,-0.11768804490566254,0.03688238933682442,0.11709792166948318,0.08238644897937775,-0.007020839024335146,-0.13445059955120087,0.03316793963313103,0.1162000522017479,0.04390053451061249,0.12827414274215698,0.10387010127305984,0.07890722900629044,0.11710678786039352,0.16429592669010162,-0.05863533914089203,-0.3772590160369873,-0.0951198861002922,0.2245519757270813,0.08190511912107468,0.1537756323814392,0.05674287676811218,-0.02505584992468357,-0.18443970382213593,0.09413834661245346,0.11659523099660873,0.07645722478628159,-0.18996034562587738,0.14810360968112946,0.31467169523239136,-0.19237028062343597,0.16447746753692627,0.2054811716079712,0.3373856842517853,0.05184207484126091,-0.2559577524662018,-0.12412682175636292,0.09331869333982468,-0.12651807069778442,-0.13777463138103485,-0.02675202488899231,-0.20723716914653778,-0.13989757001399994,-0.30240076780319214,0.07237551361322403,-0.37827467918395996,0.033509787172079086,-0.03549648076295853,0.35272520780563354,0.09518624097108841,-0.023882471024990082,-0.022145919501781464,-0.054938703775405884,0.12981265783309937,0.1346619874238968,0.16495972871780396,-0.012304091826081276,0.005198939237743616,0.05872131139039993,-0.2485746443271637,-0.05025831609964371,-0.18665075302124023,0.025401202961802483,-0.20750102400779724,0.021312473341822624,0.04705950990319252,-0.3238763213157654,-0.09761591255664825,-0.03770953789353371,0.3730526566505432,0.13017001748085022,0.15019315481185913,-0.2548138499259949,-0.012001695111393929,0.020666370168328285,0.0170766431838274,0.04731563478708267,0.01412600465118885,0.3832794427871704,-0.04577689617872238,0.12876823544502258,0.1212807297706604,-0.012901470065116882,0.4665548503398895,-0.030827047303318977,-0.3561669886112213,0.18986456096172333,0.2035246044397354,-0.007259928155690432,-0.06599245220422745,-0.2856298089027405,-0.037179406732320786,-0.06931137293577194,-0.05395067483186722,0.03031650371849537,0.09621401131153107,0.24766793847084045,-0.06656203418970108,-0.07006082683801651,-0.14657917618751526,0.039399147033691406,-0.1647983342409134,0.10989970713853836,0.08567450195550919,-0.024375515058636665,0.04152555763721466,0.2540077567100525,0.06306777149438858,0.021957289427518845,0.16881442070007324,-0.2837190330028534,-0.037486348301172256,-0.16601265966892242,-0.09999710321426392,0.07031521201133728,-0.06910291314125061,-0.09714645892381668,-0.004571443889290094,-0.13590151071548462,-0.29937466979026794,-0.14957065880298615,0.0907711386680603,0.11757320165634155,-0.22877654433250427,0.32725614309310913,-0.16006000339984894,0.3243483901023865,0.3099876940250397,-0.1419070065021515,-0.31097012758255005,0.08912784606218338,-0.3506484925746918,-0.05801224336028099,0.10707159340381622,-0.18718455731868744,0.006612500175833702,-0.061456210911273956,0.07196003198623657,-0.15103457868099213,-0.28372856974601746,-0.022382918745279312,0.25833430886268616,0.11662286520004272,-0.07153142988681793,0.012872952967882156,-0.13880100846290588,-0.07191667705774307,-0.0014283203054219484,0.18482734262943268],[-0.03452160954475403,0.12994979321956635,-0.11549878120422363,0.18834498524665833,-0.3511338233947754,-0.21142666041851044,0.2493453174829483,-0.10855763405561447,0.06551998853683472,-0.1512008011341095,-0.04845739156007767,0.0635484904050827,-0.09725316613912582,-0.19811849296092987,-0.12521584331989288,0.07225999981164932,-0.11377617716789246,0.25485536456108093,-0.18214629590511322,-0.07937360554933548,-0.002621352905407548,-0.06696558743715286,-0.0014785027597099543,-0.21100753545761108,-0.12602055072784424,-0.01766408048570156,0.3000450134277344,-0.1823229193687439,-0.06830000877380371,-0.15749478340148926,0.28431597352027893,0.1058250144124031,0.22470061480998993,0.16823990643024445,-0.07526351511478424,0.11171262711286545,-0.32801246643066406,-0.16819030046463013,-0.13179275393486023,0.07781434804201126,-0.11814632266759872,0.02866101823747158,-0.0001562915713293478,-0.03800494596362114,-0.07805390655994415,-0.17478612065315247,0.10368736833333969,0.36135587096214294,0.19031473994255066,-0.05398322269320488,0.1528630256652832,-0.0645751804113388,-0.10985128581523895,0.3413125276565552,0.06940096616744995,-0.08522873371839523,0.20897164940834045,-0.12960606813430786,0.05313544720411301,-0.21441198885440826,0.14299996197223663,-0.17789465188980103,0.014584232121706009,-0.029227646067738533,-0.060355596244335175,-0.04987504705786705,-0.2991633117198944,-0.08310005813837051,-0.28096091747283936,-0.2014388144016266,0.09175162762403488,-0.13573649525642395,0.12644515931606293,-0.03737170621752739,0.02376096136868,-0.3519563674926758,-0.1477772295475006,-0.19117842614650726,-0.13721001148223877,0.02798287570476532,-0.09968449175357819,0.05572749674320221,0.03028004989027977,0.03829985111951828,-0.07439225167036057,-0.06967949867248535,0.17694814503192902,0.10342937707901001,-0.1366666704416275,-0.09160114824771881,0.016961975023150444,-0.11195775121450424,-0.18276458978652954,0.21349163353443146,0.3446991443634033,-0.29810819029808044,-0.2460591048002243,0.19891756772994995,0.24319292604923248,-0.5038866996765137,0.13953553140163422,0.15979458391666412,-0.24672716856002808,-0.2242959886789322,-0.1323859542608261,0.07834871858358383,-0.1032959595322609,-0.3625960648059845,-0.2290361374616623,-0.0262887142598629,-0.2497139722108841,0.10092184692621231,-0.06773653626441956,-0.2200659066438675,-0.15506012737751007,0.29893094301223755,0.025626447051763535,-0.0438888743519783,-0.3220454156398773,0.05218545347452164,0.04610492289066315,-0.07680410891771317,-0.24949976801872253,-0.28813058137893677,0.2470923513174057,-0.31341806054115295,-0.03744054585695267,0.04391203448176384,-0.07898464053869247,-0.16406507790088654,-0.24248798191547394,-0.09170690178871155,0.21401545405387878,0.28086188435554504,0.21478939056396484,-0.326371431350708,-0.03324364125728607,-0.2263440042734146,0.17792047560214996,-0.16088303923606873,-0.1484239548444748,0.04982543736696243,-0.13734465837478638,-0.187681645154953,-0.20890411734580994,0.049692459404468536,-0.11555629223585129,0.015342844650149345,-0.3064177334308624,0.10586913675069809,-0.1302790641784668,0.052418023347854614,-0.1618853360414505,-0.09006328880786896,0.07374691963195801,-0.20875266194343567,-0.1632925271987915,-0.042378079146146774,-0.2180984914302826,-0.06553654372692108,0.12463872879743576,-0.26765045523643494,-0.0401468425989151,0.009108131751418114,0.22370478510856628,-0.08826763927936554,0.2930888235569,0.10766198486089706,-0.11897772550582886,0.015423394739627838,-0.11781275272369385,-0.16448232531547546,0.09304916858673096,-0.41248923540115356,-0.12245721369981766,-0.14464052021503448,-0.31022489070892334,-0.07023170590400696,-0.07615883648395538,-0.3310089409351349,-0.17593076825141907,-0.3991834223270416,0.06764058023691177,-0.008810632862150669,-0.05000171437859535,0.19135227799415588,-0.1676466315984726,-0.11454048752784729,-0.1423463374376297,0.2006199061870575,-0.10774727910757065,0.03682111203670502,-0.1329220086336136,-0.021696360781788826,-0.025806833058595657,-0.3443107306957245,-0.03749960660934448,-0.13991372287273407,-0.09172441065311432,0.2527087330818176,-0.05795300751924515,0.05053020641207695,0.13387510180473328,0.10270325839519501,-0.19719944894313812,-0.15090236067771912,-0.20578129589557648,-0.09436126053333282,-0.31306886672973633,0.16549929976463318,-0.2890596091747284,0.04415139555931091,0.043928131461143494,-0.03863035887479782,-0.2955290377140045,0.14673249423503876,0.20889487862586975,-0.5016756057739258,0.04874814674258232,-0.506040632724762,-0.14350222051143646,-0.15279968082904816,-0.2285284548997879,0.2032637596130371,0.021356981247663498,-0.37562528252601624,0.02877970226109028,0.1914157122373581,-0.079226054251194,-0.15388642251491547,-0.00725910160690546,-0.015902826562523842,0.24332398176193237,-0.024048123508691788,-0.08942949026823044,-0.07172112166881561,0.11499892175197601,-0.2181122899055481,-0.285495787858963,0.04578830301761627,0.09306792169809341,-0.08626822382211685,-0.13609378039836884,0.11017484962940216,0.017816204577684402,-0.09621147811412811,-0.20900005102157593,0.13720782101154327,0.07668987661600113,-0.2772085666656494,-0.028373494744300842,0.033912718296051025,-0.14756862819194794,-0.03208479285240173,-0.2306409329175949,-0.051792677491903305],[0.2539321780204773,-0.2576655447483063,-0.02208634652197361,0.024914562702178955,-0.2382057160139084,0.3577357828617096,-0.3616023361682892,0.07823541015386581,0.07082601636648178,-0.19739720225334167,-0.6191341876983643,-0.12645229697227478,-0.10505875200033188,-0.07027509063482285,-0.09117063134908676,-0.20951034128665924,0.041662123054265976,0.10268876701593399,-0.007494008168578148,-0.1591920405626297,-0.10831651091575623,0.13907670974731445,-0.04618648439645767,0.13494597375392914,0.047396667301654816,0.016270875930786133,0.1093636006116867,-0.05307507887482643,0.31510767340660095,0.01772691309452057,0.10911417752504349,-0.15066753327846527,-0.1337321698665619,0.18147267401218414,0.010145430453121662,-0.1502658575773239,0.08950378745794296,0.037629447877407074,-0.366254985332489,0.2042081207036972,-0.028852498158812523,0.0914788469672203,-0.1929069608449936,0.10089720785617828,-0.15162725746631622,-0.0605362206697464,-0.13449525833129883,-0.0022597669158130884,0.07091749459505081,-0.0854131430387497,-0.049523551017045975,0.3210308849811554,0.06322718411684036,0.17186693847179413,0.049202799797058105,0.1557481586933136,0.17290186882019043,0.030787015333771706,-0.0032319098245352507,0.3493916392326355,0.0756012573838234,0.13088339567184448,-0.2900133430957794,0.04293271526694298,0.30751875042915344,-0.12797598540782928,-0.27910304069519043,0.031173590570688248,-0.10854040831327438,-0.1101188063621521,-0.2834310829639435,0.14668665826320648,-0.22087466716766357,-0.35050341486930847,-0.15029674768447876,-0.024914415553212166,0.13110876083374023,0.018911713734269142,-0.12712642550468445,0.038251541554927826,-0.2204773724079132,0.07404983788728714,0.0416879840195179,0.20012536644935608,-0.2589457929134369,-0.11376630514860153,-0.12687093019485474,0.02140738256275654,-0.012252763845026493,-0.26324978470802307,-0.066380575299263,0.15814165771007538,-0.20947842299938202,-0.12336340546607971,-0.22602209448814392,-0.056572075933218,0.01024581678211689,-0.02836865745484829,-0.2783608138561249,-0.2572629153728485,0.24492675065994263,-0.16024547815322876,-0.42036157846450806,0.12738960981369019,-0.1202654018998146,0.3180638253688812,-0.17652656137943268,-0.14251215755939484,0.19945649802684784,0.0585264228284359,-0.4602290689945221,0.04182888939976692,-0.3725420832633972,-0.14132533967494965,-0.056418757885694504,-0.04578666016459465,0.14738468825817108,0.22443127632141113,-0.30510222911834717,-0.5420167446136475,-0.2646077573299408,0.35807839035987854,-0.23500066995620728,-0.11688746511936188,-0.20707553625106812,-0.10209841281175613,0.03211311995983124,0.09181155264377594,-0.05098016932606697,-0.15012137591838837,-0.1751953512430191,0.21493121981620789,-0.10806458443403244,-0.13170760869979858,-0.14353086054325104,0.1289641559123993,0.055826835334300995,0.0013077011099085212,-0.37051260471343994,-0.1212390586733818,-0.2713526487350464,0.04376717656850815,-0.19402752816677094,0.10111874341964722,-0.0730212852358818,0.3046674430370331,-0.22661349177360535,0.01412701141089201,-0.20945832133293152,0.06962689757347107,0.04677198827266693,-0.0552121065557003,-0.15700408816337585,-0.0668078288435936,-0.049324434250593185,-0.19070139527320862,-0.24373146891593933,-0.1805095672607422,0.03874741122126579,0.022818053141236305,0.20719800889492035,0.05367947369813919,-0.21517714858055115,0.18722474575042725,0.036732953041791916,-0.22432461380958557,0.10709315538406372,0.0013710447819903493,-0.1589789241552353,-0.1136900782585144,-0.23584450781345367,-0.0560380220413208,-0.28292199969291687,-0.12042224407196045,-0.2333642989397049,-0.07886400073766708,-0.0058029112406075,-0.048972778022289276,0.1227526068687439,0.05503108724951744,0.035940807312726974,0.4110749065876007,0.08135971426963806,-0.1180061474442482,-0.11269122362136841,-0.17587149143218994,0.2060084044933319,0.01790759339928627,-0.33695921301841736,-0.18248909711837769,-0.35334858298301697,-0.009746571071445942,0.0003651716106105596,0.13488228619098663,-0.2519463002681732,0.01728726737201214,-0.15457071363925934,-0.1622559279203415,-0.017316490411758423,-0.223904550075531,-0.02607753686606884,-0.003286981023848057,0.12280386686325073,-0.24059952795505524,-0.31206032633781433,0.09264160692691803,-0.4122743308544159,-0.4866490960121155,-0.3416825830936432,-0.1288912147283554,-0.1984821856021881,-0.13981351256370544,0.15381556749343872,-0.240950807929039,0.24452821910381317,-0.06883852928876877,-0.11187920719385147,-0.32069236040115356,-0.26477333903312683,0.1292101889848709,-0.2396916300058365,-0.10251773148775101,-0.05713890492916107,-0.13040895760059357,-0.49058330059051514,0.17446468770503998,-0.1818891167640686,-0.19501829147338867,0.07944607734680176,-0.10399693250656128,-0.09688305109739304,-0.2936767637729645,-0.0676274448633194,-0.33840230107307434,-0.08562933653593063,-0.11708342283964157,0.1858525276184082,-0.2656369209289551,0.023429060354828835,0.07781971246004105,-0.020634211599826813,-0.32286715507507324,-0.11469503492116928,-0.04658161476254463,0.18288911879062653,0.029447566717863083,-0.045460861176252365,0.017206314951181412,0.23057882487773895,-0.15908090770244598,0.09910530596971512,0.2819375991821289,0.040511853992938995,-0.10577812045812607,-0.4286568760871887,0.19659192860126495],[0.1422855406999588,0.1449243724346161,-0.2555598020553589,0.18247349560260773,-0.0062655070796608925,0.08537347614765167,0.10473057627677917,0.1826339066028595,0.23786650598049164,0.24978233873844147,-0.09822101891040802,0.025494283065199852,-0.19797255098819733,0.12664060294628143,-0.16446106135845184,-0.02885076403617859,-0.15996153652668,-0.3363124132156372,-0.24271246790885925,-0.05963496118783951,0.009114217013120651,-0.2697245180606842,0.056515779346227646,-0.20100939273834229,0.1446458101272583,-0.19114889204502106,-0.020605288445949554,0.060807861387729645,-0.059331126511096954,-0.13968713581562042,-0.2874422073364258,-0.05571385473012924,-0.025129245594143867,0.025593483820557594,0.005907777696847916,-0.04435274377465248,-0.16899824142456055,0.15423598885536194,-0.002147439168766141,0.0510549321770668,-0.08359279483556747,-0.18260298669338226,-0.05689414218068123,-0.12800182402133942,-0.17713794112205505,-0.23711898922920227,-0.04793578013777733,-0.21188880503177643,-0.044081151485443115,-0.3658997416496277,0.16582396626472473,-0.09747132658958435,-0.04485930874943733,-0.4234161078929901,0.02980618178844452,0.12641865015029907,-0.09041677415370941,-0.5113018155097961,0.046054355800151825,-0.36549025774002075,-0.13787750899791718,-0.2900810241699219,0.09230836480855942,0.12704573571681976,0.20527687668800354,-0.03616195544600487,0.2345632165670395,-0.1743210405111313,-0.05512772873044014,-0.13950830698013306,0.08314120769500732,-0.0726713091135025,-0.23036183416843414,0.09356407076120377,0.07767296582460403,-0.3026640713214874,-0.19350087642669678,0.2757442891597748,0.3350105881690979,0.18576590716838837,-0.096527099609375,-0.0768747478723526,-0.19372829794883728,-0.2340705245733261,-0.183650404214859,0.11909507215023041,0.07926996797323227,-0.04634438827633858,-0.05313512310385704,0.17864318192005157,0.11530041694641113,0.035514604300260544,0.06715597212314606,0.03392302989959717,0.18246178328990936,-0.019883422181010246,0.060678064823150635,-0.03354422003030777,0.02092333696782589,0.13217712938785553,-0.11655180156230927,-0.008721979334950447,-0.0791236087679863,-0.11677716672420502,0.13411414623260498,-0.056195296347141266,-0.4162813127040863,0.21696685254573822,0.28969237208366394,-0.15506307780742645,-0.2550479471683502,-0.0932549312710762,-0.045459430664777756,-0.22292615473270416,0.18358106911182404,-0.03984253853559494,0.025649379938840866,-0.19591252505779266,0.019963912665843964,-0.4236319065093994,0.07756016403436661,-0.10293147712945938,0.2524000406265259,-0.07226821035146713,-0.180311918258667,-0.20353901386260986,-0.07138976454734802,-0.25213345885276794,0.0005649072700180113,0.019248338416218758,-0.25927403569221497,-0.1889714151620865,0.15329089760780334,-0.1285177320241928,-0.15570861101150513,-0.2789638042449951,-0.21178238093852997,0.12882445752620697,-0.16675090789794922,0.06863133609294891,-0.052574098110198975,-0.19517134130001068,-0.10137692838907242,-0.14753520488739014,-0.013041895814239979,0.11877742409706116,-0.1693851351737976,-0.20004957914352417,-0.17076876759529114,0.20307235419750214,-0.08014488965272903,0.012745138257741928,0.06340768188238144,-0.13999229669570923,-0.04875101521611214,0.16001957654953003,0.05079927667975426,-0.18903006613254547,-0.032619208097457886,-0.17340995371341705,-0.330517441034317,0.15332825481891632,0.2964334785938263,-0.08746638894081116,0.2612093687057495,0.0597970075905323,-0.3604504466056824,-0.030999114736914635,-0.2524876296520233,-0.13541173934936523,-0.4585980474948883,-0.14414218068122864,-0.30820804834365845,-0.043971724808216095,-0.09013406187295914,-0.2703056037425995,-0.06442677974700928,0.33354082703590393,-0.07235856354236603,-0.3993576467037201,0.2269241064786911,-0.263377845287323,-0.14967364072799683,-0.11420457810163498,-0.3349812626838684,0.06396700441837311,-0.2739761769771576,-0.01210095826536417,-0.029882846400141716,0.08093788474798203,-0.3959169387817383,-0.1575206220149994,0.38402479887008667,-0.3026030361652374,-0.05689200013875961,-0.3467242121696472,-0.03612682223320007,-0.02796815149486065,-0.15674886107444763,-0.17900235950946808,0.26883041858673096,0.21587680280208588,-0.03982961177825928,-0.18937495350837708,-0.26321953535079956,-0.22214248776435852,-0.14433415234088898,-0.03845631331205368,-0.16493715345859528,-0.1500788778066635,-0.06972333788871765,0.11112003773450851,0.061046816408634186,0.09232933819293976,0.4513479769229889,-0.06392509490251541,-0.2538163959980011,-0.23427459597587585,-0.17252683639526367,0.2616361975669861,-0.08768953382968903,0.07367756962776184,0.1847558170557022,-0.13878002762794495,-0.24004743993282318,0.10119086503982544,-0.270175963640213,-0.14108321070671082,-0.09789379686117172,0.05597972124814987,-0.31778988242149353,0.01470903679728508,-0.02730877324938774,-0.324457585811615,-0.24053113162517548,-0.22534503042697906,-0.12204669415950775,-0.007613419089466333,-0.26376619935035706,0.0825805813074112,-0.2314344346523285,0.0194426029920578,-0.1340758502483368,-0.22396220266819,-0.09165743738412857,0.2642197608947754,0.20953917503356934,-0.007353574503213167,-0.2736532688140869,0.012803543359041214,0.12261409312486649,-0.052895672619342804,-0.0063788448460400105,-0.4250345528125763,-0.05049623176455498,-0.06880683451890945],[0.1952037662267685,-0.2584671080112457,-0.09621617943048477,-0.3158888518810272,-0.1955834925174713,-0.10581716150045395,-0.33100464940071106,-0.12727835774421692,-0.0726768970489502,-0.025752803310751915,-0.07849405705928802,-0.21610763669013977,0.305508017539978,-0.27010083198547363,0.06554723531007767,-0.07794179767370224,0.10699240863323212,-0.19811145961284637,-0.010756880976259708,-0.399517685174942,0.49532350897789,-0.03260429576039314,-0.36452236771583557,0.18924644589424133,-0.1990765482187271,-0.15768738090991974,0.14938311278820038,-0.04455574229359627,-0.20779608190059662,0.24704238772392273,-0.03914806991815567,-0.28324416279792786,-0.10273568332195282,-0.22819414734840393,0.022335628047585487,0.007683245465159416,-0.13864225149154663,0.06285039335489273,0.04309504106640816,-0.14286494255065918,-0.09612096101045609,-0.018287017941474915,0.136519655585289,-0.19229254126548767,-0.0723375454545021,-0.17235513031482697,-0.1126340851187706,-0.2070852369070053,-0.039754197001457214,-0.16103136539459229,0.10201780498027802,-0.23263037204742432,0.144602432847023,0.038233187049627304,0.0437757670879364,-0.05863833427429199,-0.2510930895805359,-0.03714749217033386,-0.18812161684036255,-0.27127689123153687,-0.08362454175949097,-0.21140699088573456,0.17517468333244324,-0.14716657996177673,-0.04708751291036606,-0.20367734134197235,-0.09483460336923599,-0.3004850447177887,0.3586701452732086,0.09394512325525284,0.1342172920703888,-0.2311539500951767,0.0672590583562851,-0.00041712907841429114,-0.05111268162727356,-0.2069505751132965,0.16071859002113342,0.11325406283140182,-0.0690842717885971,-0.16314436495304108,-0.17751632630825043,0.1595551073551178,-0.22828985750675201,-0.12630638480186462,-0.19209766387939453,0.153970867395401,-0.16545991599559784,0.13525353372097015,-0.0208458062261343,0.2928887605667114,-0.14921614527702332,-0.10518308728933334,-0.4457191824913025,0.015733204782009125,0.020582472905516624,-0.25773292779922485,-0.16260746121406555,0.04972272366285324,-0.11731784045696259,-0.06746963411569595,-0.1560361236333847,0.3036809265613556,0.20092816650867462,0.031701941043138504,0.1261264532804489,0.070894256234169,0.07452307641506195,-0.11368165910243988,0.014872935600578785,-0.15737463533878326,-0.18367014825344086,0.11869021505117416,-0.16718925535678864,0.07445453107357025,0.1439192295074463,-0.032924361526966095,-0.1994214802980423,-0.09495940804481506,-0.2189168632030487,0.10031165927648544,-0.23936587572097778,0.21913345158100128,0.08070770651102066,0.012485996820032597,0.10402581095695496,-0.0783018246293068,-0.11935075372457504,-0.17662018537521362,-0.14270402491092682,0.13921885192394257,-0.21317340433597565,-0.03422565758228302,-0.3375116288661957,-0.04262532666325569,0.18396854400634766,0.1169256865978241,0.013486044481396675,-0.40618935227394104,0.043402910232543945,-0.16979987919330597,-0.13871189951896667,0.19195938110351562,-0.08012344688177109,-0.20488138496875763,-0.14955462515354156,0.08443421870470047,-0.1303013265132904,-0.1418394297361374,0.34944504499435425,-0.012367739342153072,-0.05806560069322586,-0.06636170297861099,0.09944285452365875,-0.2551891505718231,-0.18612346053123474,-0.03555382415652275,-0.19334138929843903,0.01482514850795269,-0.14763511717319489,0.026941781863570213,-0.2164745181798935,0.12086419016122818,0.1571783870458603,0.022601576521992683,0.03525233268737793,0.014574138447642326,-0.12646044790744781,0.03415846452116966,-0.06260190904140472,-0.16398318111896515,0.16029277443885803,0.03992835804820061,-0.1284610778093338,-0.011215714737772942,-0.3608628809452057,-0.40302956104278564,0.14634843170642853,-0.028124190866947174,-0.2782829701900482,-0.23168586194515228,0.07993263751268387,0.03160472586750984,-0.06254247575998306,-0.265352725982666,-0.26293259859085083,0.20497915148735046,0.13208544254302979,-0.06054844707250595,0.0036609249655157328,-0.05576825514435768,-0.15891961753368378,0.07665174454450607,-0.08838023990392685,-0.29452794790267944,-0.025625500828027725,-0.09572454541921616,0.358445942401886,0.2871304154396057,-0.11115974187850952,-0.18635037541389465,0.3397728502750397,-0.3046596348285675,0.008136133663356304,0.1438712328672409,0.10490237176418304,-0.28746816515922546,-0.02129017934203148,-0.08079448342323303,0.06913992017507553,-0.10032574832439423,0.06738081574440002,0.01559362281113863,-0.3856172263622284,-0.04793284833431244,0.24861790239810944,0.17707093060016632,0.057648658752441406,-0.07642383128404617,-0.05647081136703491,0.25185292959213257,-0.29083889722824097,0.06847654283046722,0.14721019566059113,-0.1328008472919464,-0.044195737689733505,-0.018842946738004684,0.0467938669025898,-0.14254875481128693,-0.3160463273525238,-0.05669015273451805,0.005562465637922287,0.19818508625030518,-0.13143986463546753,0.0591447539627552,0.06970466673374176,-0.23802152276039124,-0.08410961180925369,0.1655399650335312,-0.04459599405527115,-0.18906322121620178,-0.1655740588903427,-0.19067834317684174,-0.14851602911949158,-0.24056598544120789,-0.1078244149684906,-0.3796118497848511,-0.2042474001646042,-0.1918521672487259,-0.2710212469100952,-0.30359962582588196,0.07588639110326767,-0.12020454555749893,0.07862330973148346,-0.019501514732837677,0.08147011697292328,0.020094677805900574],[0.1898406594991684,-0.14577363431453705,-0.09618145227432251,0.09237762540578842,0.17321644723415375,0.03616172820329666,-0.3350103497505188,0.002918368438258767,-0.2857257127761841,0.018075523898005486,-0.010497057810425758,0.17176198959350586,-0.19881917536258698,0.010788282379508018,-0.01927381195127964,-0.0017727972008287907,0.11963334679603577,0.01824255846440792,-0.3129865229129791,0.01915362849831581,-0.07294607162475586,-0.09433505684137344,-0.5648870468139648,0.10859110206365585,-0.07640688121318817,-0.24371209740638733,-0.23770730197429657,-0.03598680719733238,0.028436319902539253,-0.24811969697475433,0.06597808003425598,-0.13127726316452026,-0.09231244772672653,0.16655820608139038,-0.42950090765953064,0.00901517178863287,0.25718528032302856,-0.049183160066604614,-0.2031538188457489,0.31226131319999695,-0.10214968025684357,-0.1880505383014679,-0.06559979170560837,-0.019319860264658928,0.1825379878282547,-0.30544301867485046,0.059762004762887955,-0.1124948114156723,-0.23416519165039062,-0.3243224322795868,0.09540059417486191,0.18699786067008972,0.3332136571407318,0.00920757744461298,-0.04880532994866371,0.03284325450658798,-0.06771161407232285,-0.20322491228580475,-0.10094346106052399,0.10804062336683273,0.31043288111686707,-0.013306916691362858,0.0010236935922876,-0.1349174827337265,0.10636500269174576,0.28442928194999695,-0.25552669167518616,0.006501875352114439,-0.09177368134260178,-0.3337092697620392,-0.34832072257995605,-0.046304505318403244,0.18479852378368378,0.04270292446017265,-0.14560377597808838,-0.18929672241210938,-0.11327771097421646,-0.3887667655944824,-0.04505632445216179,-0.2244320958852768,-0.008651471696794033,0.18015220761299133,0.09099185466766357,0.18384145200252533,-0.10259919613599777,-0.26422974467277527,0.06086721271276474,-0.4792540967464447,0.0001575457863509655,-0.0995752215385437,-0.1063249483704567,-0.05997005105018616,0.11705584824085236,0.33009713888168335,0.23385953903198242,-0.1088976338505745,0.08189476281404495,-0.24199844896793365,-0.0827300101518631,-0.4922593832015991,0.28894639015197754,-0.23516055941581726,-0.3256691098213196,0.022023595869541168,-0.3257278800010681,0.0892898440361023,0.10120925307273865,0.0272737555205822,0.17936590313911438,-0.22558648884296417,0.06890473514795303,0.3013726472854614,-0.2188289612531662,-0.07782617211341858,0.08230996876955032,-0.2313930243253708,-0.24888083338737488,-0.41825705766677856,-0.14341521263122559,-0.30113694071769714,-0.10782815515995026,-0.16638733446598053,-0.18971051275730133,-0.17164169251918793,-0.07199359685182571,-0.2817186117172241,-0.03689853101968765,-0.21140840649604797,-0.031253743916749954,-0.0618850477039814,0.18363049626350403,0.24556706845760345,0.14009231328964233,-0.09441636502742767,-0.25215983390808105,-0.1765640676021576,0.041084833443164825,-0.2362249791622162,-0.29446059465408325,-0.25318393111228943,-0.17450964450836182,0.022466665133833885,-0.057142168283462524,-0.017485270276665688,0.11228538304567337,-0.17400027811527252,-0.15239563584327698,0.3129119873046875,-0.13750673830509186,0.09699227660894394,-0.413894385099411,-0.15554840862751007,0.11467348039150238,-0.29236671328544617,-0.019920501857995987,0.09438882023096085,-0.1060669794678688,0.15788602828979492,-0.19686678051948547,-0.19998188316822052,-0.1649324744939804,-0.10191800445318222,0.33063817024230957,0.11826979368925095,0.3204209506511688,-0.05468298867344856,-0.2581915855407715,-0.23482438921928406,0.1471346765756607,0.12805844843387604,-0.11138970404863358,-0.07164215296506882,-0.157765194773674,0.059871092438697815,-0.09756112098693848,-0.2397557497024536,-0.36161068081855774,-0.18860769271850586,0.055107492953538895,0.21260684728622437,-0.33921173214912415,-0.03657066076993942,-0.03774578496813774,-0.002693989546969533,0.042469415813684464,-0.2428625077009201,0.039022013545036316,-0.1629253327846527,-0.07679206132888794,0.13987453281879425,0.45452335476875305,-0.29068249464035034,-0.081083744764328,0.23405513167381287,-0.010552619583904743,-0.0067059057764709,-0.3092915415763855,-0.045197777450084686,-0.12657339870929718,-0.07778595387935638,0.060180552303791046,-0.004146172199398279,-0.20104765892028809,-0.23324227333068848,0.28963157534599304,0.08947537839412689,0.18219506740570068,-0.21251322329044342,0.19095274806022644,-0.3106139600276947,0.14571912586688995,0.05275708809494972,-0.14753252267837524,-0.11113973706960678,-0.10909043997526169,-0.1918952912092209,-0.34031081199645996,-0.12748213112354279,0.276383638381958,-0.09069794416427612,0.022317679598927498,-0.45113909244537354,-0.12671610713005066,-0.1923203319311142,-0.10679423063993454,0.09602141380310059,-0.15568450093269348,-0.08787722885608673,-0.04241016507148743,-0.060013119131326675,-0.16983677446842194,-0.025257019326090813,-0.05266984552145004,-0.014447527006268501,0.03167144954204559,0.08755131810903549,0.30233702063560486,-0.1354655921459198,-0.13800233602523804,-0.2603655457496643,-0.32612869143486023,-0.07818127423524857,0.3028213679790497,-0.17419704794883728,-0.003925367258489132,-0.04609796777367592,-0.11016221344470978,0.067770816385746,-0.009227764792740345,-0.24650593101978302,-0.4171397387981415,-0.42113709449768066,0.3509478271007538,0.2265876829624176,-0.07454108446836472,-0.20263813436031342],[0.003902279771864414,0.08555222302675247,-0.14759115874767303,0.1800890564918518,-0.12694722414016724,-0.12606403231620789,-0.032093364745378494,-0.0002755697933025658,0.13948948681354523,