[[-0.10565356910228729],[-0.11300351470708847],[-0.16186630725860596],[-0.018308138474822044],[-0.04833141341805458],[0.058664850890636444],[0.3938269317150116],[-0.032760340720415115],[-0.03455431014299393],[0.021211283281445503],[-0.154593825340271],[-0.02411952242255211],[-0.16707278788089752],[0.08734545111656189],[-0.24052591621875763],[-0.19505424797534943],[0.031810175627470016],[-0.024111056700348854],[0.04503786563873291],[0.09879183024168015],[-0.3860909640789032],[-0.022923773154616356],[-0.03958219289779663],[-0.16956591606140137],[-0.042883846908807755],[-0.35955896973609924],[0.28856751322746277],[0.058978788554668427],[0.006409612949937582],[-0.11013789474964142],[0.029287002980709076],[0.31858041882514954],[0.12864136695861816],[-0.3788650333881378],[0.06014034152030945],[0.26983317732810974],[-0.18804706633090973],[-0.2223849594593048],[0.06401167064905167],[0.021319270133972168],[-0.17660406231880188],[0.08820578455924988],[-0.02292463555932045],[0.13820146024227142],[-0.1877494901418686],[0.10779786854982376],[-0.02932603657245636],[0.0713411197066307],[0.0618114210665226],[-0.0345582440495491],[-0.06971998512744904],[-0.28817784786224365],[0.10194738209247589],[-0.16409465670585632],[0.2801160216331482],[-0.009525736793875694],[-0.09732678532600403],[-0.12634651362895966],[0.07019295543432236],[-0.0834408700466156],[0.024023430421948433],[0.4778359532356262],[0.14544804394245148],[0.012325589545071125],[0.30453670024871826],[-0.018097786232829094],[0.34766748547554016],[-0.01700449176132679],[-0.04466819018125534],[-0.052130356431007385],[-0.25823190808296204],[-0.13137005269527435],[0.39166882634162903],[0.09159023314714432],[-0.15609842538833618],[-0.18126779794692993],[-0.017321070656180382],[-0.102336585521698],[0.0557955838739872],[-0.2661963105201721],[-0.1977742314338684],[-0.20454096794128418],[0.041040390729904175],[-0.3573002815246582],[-0.20352937281131744],[-0.04849928617477417],[-0.14853645861148834],[-0.010729403235018253],[-0.07905168831348419],[0.22718527913093567],[0.1362764686346054],[-0.17608186602592468],[-0.19400063157081604],[-0.3801913857460022],[0.14841629564762115],[0.25321540236473083],[-0.12126818299293518],[-0.24408628046512604],[-0.10234776139259338],[0.2233622521162033],[0.027896463871002197],[-0.07824832946062088],[0.052689749747514725],[0.009501546621322632],[0.08865769952535629],[0.020630400627851486],[0.11339319497346878],[0.05331044644117355],[-0.05186094343662262],[-0.09170970320701599],[-0.3790995478630066],[-0.13750731945037842],[-0.12585045397281647],[-0.2708737254142761],[0.005867753643542528],[-0.07936472445726395],[0.1709098368883133],[-0.013265665620565414],[-0.2412673532962799],[-0.1864185631275177],[-0.1582116186618805],[0.0815606415271759],[0.04131590574979782],[0.08572911471128464],[-0.03520362824201584],[-0.01862216368317604],[-0.047863274812698364],[0.03154226019978523]]