[[0.051505498588085175],[-0.1071082353591919],[0.23014916479587555],[-0.09229055792093277],[-0.18036095798015594],[0.23028454184532166],[-0.38163357973098755],[-0.03372667729854584],[0.14626097679138184],[-0.2838512659072876],[0.03299466148018837],[-0.1612333059310913],[-0.10535763949155807],[-0.1795886605978012],[-0.2730436623096466],[-0.2755846083164215],[-0.43995779752731323],[-0.25044912099838257],[-0.4160383641719818],[0.3109372556209564],[-0.2086535096168518],[-0.3196246922016144],[0.0595155730843544],[0.13615822792053223],[-0.06618909537792206],[-0.08911099284887314],[-0.335653156042099],[-0.30056309700012207],[0.10510700941085815],[-0.1763634830713272],[-0.09747212380170822],[0.09045257419347763],[0.04213062673807144],[-0.2821524441242218],[-0.048066675662994385],[-0.28456857800483704],[0.013175117783248425],[-0.10907842218875885],[-0.18135178089141846],[-0.15140721201896667],[-0.3693051040172577],[0.04385422170162201],[-0.17640072107315063],[-0.20688565075397491],[-0.4929507374763489],[0.006670730654150248],[0.022150324657559395],[-0.04429202526807785],[0.09902548044919968],[-0.4937801957130432],[-0.31114858388900757],[0.08644675463438034],[-0.10744721442461014],[-0.2225356251001358],[-0.013139646500349045],[-0.18774068355560303],[-0.28271809220314026],[-0.11426986008882523],[-0.0412842258810997],[-0.2082994133234024],[-0.09915560483932495],[-0.17388217151165009],[-0.18205757439136505],[0.0718664601445198]]