[[-0.43535375595092773],[0.01527947373688221],[0.05887451395392418],[0.014771916903555393],[0.06088784337043762],[-0.0325661227107048],[-0.3459799885749817],[0.21102356910705566],[0.1160179153084755],[0.11148187518119812],[-0.003407819429412484],[0.1436549425125122],[-0.11414791643619537],[-0.28087928891181946],[0.006872367579489946],[-0.1720607578754425],[-0.3065442442893982],[-0.1699446439743042],[0.03946749120950699],[-0.2632298469543457],[0.00865576509386301],[0.47035080194473267],[0.2234947681427002],[-0.0535442940890789],[0.18559664487838745],[-0.19709813594818115],[-0.09047289937734604],[-0.026969416067004204],[0.0012014040257781744],[-0.3048427104949951],[-0.12466412037611008],[-0.3240073323249817],[-0.12266263365745544],[-0.03462756797671318],[0.18908141553401947],[-0.202285036444664],[-0.17975276708602905],[-0.3439381420612335],[0.044100090861320496],[-0.28911706805229187],[0.29290899634361267],[0.29943418502807617],[0.1340000331401825],[-0.0030934736132621765],[-0.06050746515393257],[0.2909819185733795],[-0.018765611574053764],[-0.15499089658260345],[-0.2432113140821457],[0.04312250018119812],[-0.04838306084275246],[0.18805664777755737],[-0.16259920597076416],[0.2647562623023987],[-0.22530928254127502],[0.11715894192457199],[-0.2323172390460968],[0.15912310779094696],[-0.19239135086536407],[-0.15129569172859192],[-0.20542114973068237],[-0.28078436851501465],[0.012690666131675243],[-0.015725113451480865]]