[[-0.1582535207271576],[-0.20304879546165466],[-0.24328424036502838],[-0.26200753450393677],[-0.06044755503535271],[-0.04899846017360687],[0.13804328441619873],[0.21850019693374634],[-0.3206421136856079],[0.3381166160106659],[-0.08641309291124344],[-0.14495152235031128],[-0.09844789654016495],[0.20420946180820465],[-0.14318643510341644],[-0.02128559537231922],[0.02467697113752365],[0.013653880916535854],[-0.03907996043562889],[-0.04603613168001175],[-0.19028456509113312],[-0.05116784945130348],[-0.08504290133714676],[-0.07050012797117233],[-0.09370305389165878],[-0.07845719158649445],[0.06857305020093918],[-0.09049153327941895],[0.05096142739057541],[-0.19144612550735474],[0.0077161723747849464],[0.14194510877132416],[0.0744791328907013],[-0.16855929791927338],[0.12306372821331024],[-0.0412757471203804],[0.07074443250894547],[-0.22280681133270264],[0.1777118593454361],[-0.19279062747955322],[-0.2579171359539032],[0.06889434158802032],[-0.3438638150691986],[0.006539056543260813],[-0.05446070060133934],[0.012557826936244965],[-0.14298126101493835],[-0.04593944922089577],[-0.07159996777772903],[-0.21729956567287445],[0.31507179141044617],[-0.25275522470474243],[-0.00432259775698185],[-0.17949964106082916],[-0.17339572310447693],[-0.10859014093875885],[0.14853644371032715],[-0.1375579833984375],[-0.13718454539775848],[-0.10362190008163452],[-0.09840252995491028],[-0.05549842491745949],[-0.16249246895313263],[-0.11853024363517761],[0.024950118735432625],[0.008206977508962154],[-0.08904051780700684],[-0.17527461051940918],[-0.0006524223135784268],[0.050857409834861755],[0.022977571934461594],[0.139725923538208],[-0.007299424614757299],[-0.013581711798906326],[-0.12524548172950745],[0.1284518539905548],[-0.3493209779262543],[0.22890381515026093],[-0.3131358325481415],[-0.400125116109848],[-0.16377277672290802],[-0.17171989381313324],[-0.30251601338386536],[0.06186790019273758],[0.2994641661643982],[0.014330140314996243],[0.04296286776661873],[0.08613510429859161],[-0.19474723935127258],[0.12037092447280884],[0.023502811789512634],[-0.12211857736110687],[0.014889691956341267],[-0.12936004996299744],[0.13899801671504974],[0.04944123700261116],[0.262193888425827],[0.03990677744150162],[0.16808980703353882],[-0.29913339018821716],[-0.002383352955803275],[0.004036093130707741],[-0.021843411028385162],[-0.11861897259950638],[-0.10431548207998276],[-0.0000193661471712403],[0.04785415530204773],[-0.17853622138500214],[-0.23594900965690613],[-0.05272063985466957],[0.07054808735847473],[0.14252041280269623],[0.02043619565665722],[-0.06917532533407211],[-0.012022211216390133],[-0.08286528289318085],[0.142891988158226],[-0.11832018196582794],[0.05763503164052963],[-0.08243370056152344],[-0.16922877728939056],[-0.06382334232330322],[0.20992296934127808],[-0.05153273046016693],[-0.05617743730545044],[-0.08738961070775986],[-0.1406252086162567],[0.24891380965709686],[-0.02999495528638363],[0.15661336481571198],[-0.08925578743219376],[-0.01808701641857624],[0.03625351935625076],[0.14130529761314392],[-0.009105402044951916],[-0.0892680436372757],[-0.35861968994140625],[0.13262592256069183],[0.08541770279407501],[-0.07175230234861374],[0.227200448513031],[-0.02942066267132759],[-0.03860526159405708],[-0.19292786717414856],[-0.028696836903691292],[-0.1929774284362793],[-0.2744221091270447],[0.18349631130695343],[0.09828895330429077],[-0.020328283309936523],[-0.029898591339588165],[-0.2006065547466278],[-0.08626360446214676],[-0.020249761641025543],[0.18285492062568665],[-0.10801944881677628],[-0.3057406544685364],[0.1015918180346489],[0.05927739664912224],[-0.12716446816921234],[0.030093131586909294],[-0.18160557746887207],[-0.033539678901433945],[0.10970331728458405],[0.1948300004005432],[-0.19098451733589172],[-0.10144902765750885],[-0.08834697306156158],[0.0361492782831192],[-0.25644180178642273],[-0.0739140585064888],[-0.05684893950819969],[-0.17386439442634583],[-0.2630021572113037],[0.13197274506092072],[0.13349106907844543],[-0.10147079080343246],[-0.12532229721546173],[0.10696382075548172],[0.0771624818444252],[-0.20374172925949097],[-0.0033245703671127558],[-0.050726767629384995],[0.1285143792629242],[-0.0012926770141348243],[-0.10870857536792755],[-0.20007827877998352],[-0.18104983866214752],[-0.043934594839811325],[0.23151211440563202],[0.14856910705566406],[-0.2878448963165283],[-0.03590910881757736],[-0.009702853858470917],[0.18132197856903076],[-0.06439041346311569],[-0.16729292273521423],[-0.057781513780355453],[-0.16854287683963776],[0.005006534978747368],[0.04894702881574631],[-0.15225102007389069],[-0.22375717759132385],[-0.032443638890981674],[0.11049120128154755],[-0.16596189141273499],[0.058683041483163834],[0.046552401036024094],[-0.15155468881130219],[0.0008139057317748666],[-0.08736666291952133],[-0.16166798770427704],[-0.28704801201820374],[-0.31948912143707275],[-0.23681609332561493],[-0.15702390670776367],[0.03349927067756653],[0.09539511799812317],[-0.08141432702541351],[-0.06720254570245743],[0.13109982013702393],[-0.10929935425519943],[-0.22928260266780853],[0.059466175734996796],[0.03418125957250595],[0.13843783736228943],[-0.18672378361225128],[0.06610873341560364],[-0.26676028966903687],[-0.12142661213874817],[-0.0024833541829138994],[-0.12069185823202133],[0.05255801975727081],[-0.15972968935966492],[-0.2522014081478119],[0.03535205498337746],[-0.1622118502855301],[0.1470620334148407],[0.04521048069000244],[0.238230898976326],[0.1519092172384262],[-0.09832219779491425],[-0.22291721403598785],[-0.16275426745414734],[0.008863158524036407],[0.043320123106241226],[0.0003263925318606198],[-0.0014538075774908066],[0.02850392833352089],[0.021969981491565704],[-0.19631679356098175],[-0.30779722332954407],[0.05301011726260185],[-0.26257896423339844],[-0.08074293285608292],[0.011003058403730392]]